FANN_FLO_2.1
num_layers=3
learning_rate=0.700000
connection_rate=1.000000
network_type=0
learning_momentum=0.000000
training_algorithm=2
train_error_function=1
train_stop_function=1
cascade_output_change_fraction=0.010000
quickprop_decay=-0.000100
quickprop_mu=1.750000
rprop_increase_factor=1.200000
rprop_decrease_factor=0.500000
rprop_delta_min=0.000000
rprop_delta_max=50.000000
rprop_delta_zero=0.100000
cascade_output_stagnation_epochs=12
cascade_candidate_change_fraction=0.010000
cascade_candidate_stagnation_epochs=12
cascade_max_out_epochs=150
cascade_min_out_epochs=50
cascade_max_cand_epochs=150
cascade_min_cand_epochs=50
cascade_num_candidate_groups=2
bit_fail_limit=1.00000001490116120000e-001
cascade_candidate_limit=1.00000000000000000000e+003
cascade_weight_multiplier=4.00000000000000020000e-001
cascade_activation_functions_count=10
cascade_activation_functions=3 5 7 8 10 11 14 15 16 17 
cascade_activation_steepnesses_count=4
cascade_activation_steepnesses=2.50000000000000000000e-001 5.00000000000000000000e-001 7.50000000000000000000e-001 1.00000000000000000000e+000 
layer_sizes=4 51 4 
scale_included=0
neurons (num_inputs, activation_function, activation_steepness)=(0, 0, 0.00000000000000000000e+000) (0, 0, 0.00000000000000000000e+000) (0, 0, 0.00000000000000000000e+000) (0, 0, 0.00000000000000000000e+000) (4, 5, 1.00000000000000000000e+000) (4, 5, 1.00000000000000000000e+000) (4, 5, 1.00000000000000000000e+000) (4, 5, 1.00000000000000000000e+000) (4, 5, 1.00000000000000000000e+000) (4, 5, 1.00000000000000000000e+000) (4, 5, 1.00000000000000000000e+000) (4, 5, 1.00000000000000000000e+000) (4, 5, 1.00000000000000000000e+000) (4, 5, 1.00000000000000000000e+000) (4, 5, 1.00000000000000000000e+000) (4, 5, 1.00000000000000000000e+000) (4, 5, 1.00000000000000000000e+000) (4, 5, 1.00000000000000000000e+000) (4, 5, 1.00000000000000000000e+000) (4, 5, 1.00000000000000000000e+000) (4, 5, 1.00000000000000000000e+000) (4, 5, 1.00000000000000000000e+000) (4, 5, 1.00000000000000000000e+000) (4, 5, 1.00000000000000000000e+000) (4, 5, 1.00000000000000000000e+000) (4, 5, 1.00000000000000000000e+000) (4, 5, 1.00000000000000000000e+000) (4, 5, 1.00000000000000000000e+000) (4, 5, 1.00000000000000000000e+000) (4, 5, 1.00000000000000000000e+000) (4, 5, 1.00000000000000000000e+000) (4, 5, 1.00000000000000000000e+000) (4, 5, 1.00000000000000000000e+000) (4, 5, 1.00000000000000000000e+000) (4, 5, 1.00000000000000000000e+000) (4, 5, 1.00000000000000000000e+000) (4, 5, 1.00000000000000000000e+000) (4, 5, 1.00000000000000000000e+000) (4, 5, 1.00000000000000000000e+000) (4, 5, 1.00000000000000000000e+000) (4, 5, 1.00000000000000000000e+000) (4, 5, 1.00000000000000000000e+000) (4, 5, 1.00000000000000000000e+000) (4, 5, 1.00000000000000000000e+000) (4, 5, 1.00000000000000000000e+000) (4, 5, 1.00000000000000000000e+000) (4, 5, 1.00000000000000000000e+000) (4, 5, 1.00000000000000000000e+000) (4, 5, 1.00000000000000000000e+000) (4, 5, 1.00000000000000000000e+000) (4, 5, 1.00000000000000000000e+000) (4, 5, 1.00000000000000000000e+000) (4, 5, 1.00000000000000000000e+000) (4, 5, 1.00000000000000000000e+000) (0, 5, 1.00000000000000000000e+000) (51, 0, 1.00000000000000000000e+000) (51, 0, 1.00000000000000000000e+000) (51, 0, 1.00000000000000000000e+000) (0, 0, 1.00000000000000000000e+000) 
connections (connected_to_neuron, weight)=(0, -1.10499563372881780000e+000) (1, 2.99560338287599480000e-001) (2, 8.11217791804309090000e-001) (3, 5.33664226445671020000e-001) (0, 1.06350488475771310000e+001) (1, 1.50000000000000000000e+003) (2, 3.41618796426106730000e+000) (3, 1.82276423472994760000e-002) (0, -1.24262225881087570000e+000) (1, 9.29050426243896440000e-001) (2, 5.03711806816453440000e-001) (3, 1.93735295954549430000e-002) (0, 9.98851706214706540000e-001) (1, -6.81817575223704430000e+000) (2, 5.86891882318954060000e-001) (3, -1.76830653489091360000e-001) (0, -2.58454361413303110000e-002) (1, -6.14232262175281600000e-001) (2, 6.08152928513099770000e-001) (3, 4.21660948911738000000e-001) (0, 1.89502810124517150000e+000) (1, 1.20276847369766230000e+000) (2, 1.63538441629089570000e+000) (3, -3.32613566397506110000e-001) (0, -5.72490651028023660000e-001) (1, 3.98190821082882840000e-001) (2, 1.14777072748666730000e+000) (3, 1.80368882837318490000e+000) (0, 1.33262433433829370000e+000) (1, -1.56954004867022270000e+000) (2, -2.32564003023830650000e-001) (3, 1.39295342097702290000e+000) (0, -6.26692283093912120000e-001) (1, -5.80747588675697650000e-001) (2, -4.73429255250179430000e-001) (3, -5.96387334667533800000e-001) (0, -4.90410368447934620000e-001) (1, 1.42033259112411300000e-001) (2, -4.51095128383749920000e-002) (3, -4.00807861963435710000e-001) (0, 1.50000000000000000000e+003) (1, 8.11013844602390120000e+002) (2, 1.50000000000000000000e+003) (3, 1.50000000000000000000e+003) (0, 7.75119661418325110000e-001) (1, 4.51473852710229800000e-002) (2, -3.35025875249669090000e-001) (3, -4.77157016297159560000e-001) (0, -7.00155550667500390000e+000) (1, 6.10752356650061830000e+001) (2, -5.26263863749909410000e-001) (3, -1.94305689606647130000e-002) (0, -1.37745953091959650000e+000) (1, -7.74363220127965990000e-001) (2, 1.20784880263314660000e+000) (3, -1.14398155363677490000e-001) (0, -8.32556204252465900000e+000) (1, 1.75007122777345150000e+001) (2, -4.23815688297104310000e-001) (3, -3.96434687356394260000e-001) (0, 1.33111073272659210000e+000) (1, -1.46680023525536820000e+000) (2, -2.48942816479286930000e-001) (3, -1.35128843009616580000e-001) (0, 5.94438917083400400000e+000) (1, 1.52157367591171400000e+001) (2, 4.68933114255224490000e-001) (3, 3.13048881290532880000e-001) (0, 1.69638093837530870000e+001) (1, 8.58990947884167750000e+001) (2, -1.94663293430339060000e-001) (3, 6.84470924123257270000e-001) (0, 6.77967281687261390000e-001) (1, -8.45222484104634080000e-001) (2, -3.60722720619743640000e-001) (3, -7.42077343144968090000e-001) (0, 3.29365155361651320000e+000) (1, -1.29541918515763310000e+002) (2, 3.77698235666462270000e-001) (3, -2.08294574431000520000e-001) (0, -3.86778174400167130000e+000) (1, 1.67252391294596860000e+002) (2, -4.55952569915186290000e-001) (3, -1.25572393868514650000e-001) (0, 4.17502714518282970000e-001) (1, 8.35510480599091080000e-002) (2, -8.41793707680778770000e-001) (3, -8.00058516427465500000e-001) (0, 4.23007022656277790000e+000) (1, 1.17526376725609530000e+001) (2, 2.36733066325316520000e-001) (3, -1.06141675708704200000e-001) (0, -2.26410622849782640000e+000) (1, -1.04557538077129040000e+000) (2, 1.51038642888995530000e+000) (3, 1.54100462830074480000e+000) (0, 1.01158988344572690000e+000) (1, 8.89261513532794590000e-001) (2, -1.68412485708822140000e-001) (3, -3.27896431036361570000e-001) (0, -4.37694109934121480000e+000) (1, -1.99823532458704650000e+002) (2, 3.86032090754267530000e-001) (3, 4.38140220954734260000e-001) (0, -2.17117688151675510000e-001) (1, 9.73946825615748300000e-001) (2, 4.24365565157375610000e-001) (3, 4.58502756452038310000e-001) (0, -7.40465084101918340000e+001) (1, 1.78995608874496100000e+002) (2, -1.01862023146743310000e+000) (3, -7.95076030142516600000e-001) (0, -1.05701406384531240000e+001) (1, 7.24773860898903020000e+001) (2, 3.31502956291147910000e-002) (3, 7.37048373084226220000e-001) (0, 3.12530425733284360000e+001) (1, -3.21806519637176720000e+001) (2, 3.50228936818920930000e+001) (3, -1.14456816449808120000e+001) (0, -5.96719120736845300000e-001) (1, -5.82924487205712110000e-001) (2, -4.94091347549679370000e-001) (3, -5.37124234102687280000e-001) (0, -6.28478668486359420000e-002) (1, -3.82671259898136050000e-001) (2, -5.80576080163181190000e-001) (3, -1.65862024764882740000e-001) (0, 7.86704871017151500000e+002) (1, -1.50000000000000000000e+003) (2, 5.94509613139508250000e+002) (3, 1.00021131056454680000e+003) (0, -1.27660109492351240000e+001) (1, -6.65131482894755950000e+001) (2, 1.19567120451825080000e-001) (3, -2.79949760339760990000e-001) (0, -2.64485992126716200000e-001) (1, 7.98495404404005460000e-001) (2, 8.06076799654170270000e+000) (3, -1.85248635071838890000e+000) (0, 2.50632695225332960000e+000) (1, 1.63010281877953700000e+000) (2, 1.79012776310577170000e+000) (3, 1.36261321666752020000e+000) (0, 6.32283419966149920000e+000) (1, -1.36752706995777760000e+001) (2, 3.20679885087919890000e-001) (3, 1.69987233308769280000e-001) (0, 7.42760484480562090000e-001) (1, 2.45304086535620520000e-001) (2, 7.44718635019391510000e-001) (3, 9.47010669125679660000e-001) (0, -5.69687099153154190000e-001) (1, 4.61160818637176230000e-001) (2, -6.14059501875036220000e-001) (3, 1.21509832359894050000e+000) (0, -3.84925361647140750000e-001) (1, -4.13792641088368110000e-001) (2, 1.08759466285527340000e+001) (3, -2.07858248572834770000e+000) (0, 1.49963736424549320000e+003) (1, 1.49991598647583960000e+003) (2, 1.49998252079937290000e+003) (3, 1.49480263798482380000e+003) (0, 1.10909198765642640000e+001) (1, -1.09819095813785100000e+001) (2, -1.82519210464618580000e-001) (3, 1.09367943695405100000e+000) (0, 1.04850208188173100000e+001) (1, 1.98768236749655980000e+002) (2, -8.57275166981355750000e-001) (3, 2.02893282322049200000e+000) (0, -1.40305275583424090000e-001) (1, 1.86052645016277850000e+000) (2, 1.60432658229392100000e+000) (3, 1.05603575225699190000e+000) (0, -1.77033462081531550000e+000) (1, -1.73448486843222780000e+000) (2, 3.35027740111149160000e-001) (3, 4.21081353815916050000e-001) (0, -9.56727770070395220000e-001) (1, 3.22094463669023030000e-002) (2, 5.17999041602093650000e-001) (3, 1.94623323046508820000e+000) (0, 5.01291704551348350000e+000) (1, 5.08849609664077820000e+001) (2, -1.61736583045343510000e+000) (3, 2.68741371389303650000e+000) (0, 7.71477874223888470000e-001) (1, 9.69603131882994960000e-001) (2, 5.21155196633506070000e-001) (3, 1.03145023268563100000e+000) (0, -4.91518121193461260000e-002) (1, 8.34946212446545320000e-001) (2, 2.30688433277417530000e-001) (3, 7.74333842505115220000e-002) (0, -1.69436884377032040000e+000) (1, 7.53833216828996470000e+000) (2, -4.44866547615776650000e-001) (3, -3.08503642835149630000e-002) (4, 1.20682402387003050000e+000) (5, 3.06987140299480770000e-001) (6, 5.03073632488091960000e+000) (7, 3.65103669637768970000e+000) (8, 2.11241236477542760000e+000) (9, 9.41117311033276340000e-001) (10, 1.97009848942793480000e+000) (11, 4.88862768701024350000e-001) (12, 4.10345060987769460000e+000) (13, 4.87684881555135250000e+000) (14, 2.30579569961212540000e+000) (15, 4.42004242557392860000e+000) (16, 9.82443672924400710000e-001) (17, 5.04955147597600410000e-001) (18, 2.58294852725298310000e+000) (19, 5.07217849165128510000e+000) (20, 1.31915859705390880000e+000) (21, 2.18885068848422200000e+000) (22, 4.10739335955961770000e+000) (23, 3.98702701321909100000e+000) (24, 3.73571024627297140000e+000) (25, 4.11353969361474190000e+000) (26, -1.39865523058093010000e+000) (27, 1.09565885710022060000e+000) (28, 4.60187137713963160000e+000) (29, 1.00008614972531910000e+000) (30, 7.74858451159342270000e-001) (31, 2.57962679966415480000e-001) (32, -7.65231570374434570000e-001) (33, -4.21282858483613690000e-002) (34, 4.14511552254254050000e+000) (35, 3.29737512319305060000e+000) (36, -8.30802755807124280000e-003) (37, 2.45479713491136750000e+000) (38, -4.17971943688185340000e-002) (39, 6.78734341920574250000e-001) (40, 3.73916810858609680000e+000) (41, 1.77396175853774140000e+000) (42, -2.75953331414123090000e-001) (43, 4.65363717278505710000e-002) (44, 1.51055340178763500000e+000) (45, -2.48093722310906010000e-001) (46, 6.95802993810642700000e-001) (47, 2.89919283727814000000e-001) (48, 2.67619622305735350000e+000) (49, 1.50770896261229210000e+000) (50, 4.61260001664578480000e-001) (51, 1.81346660671241280000e+000) (52, 6.51849630323083940000e+000) (53, 4.34877648836608270000e+000) (54, 1.31012287517275980000e+000) (4, 1.48794844816438590000e+000) (5, -1.84388987547079250000e-001) (6, 3.02413808846920060000e+000) (7, 2.19024195225853590000e+000) (8, 3.59066338025380590000e+000) (9, 1.66297287577219220000e+000) (10, 2.15753694286253020000e+000) (11, 1.35749566198470210000e+000) (12, 4.67170400260875860000e+000) (13, 4.46362538459464540000e+000) (14, -4.28146279265295780000e+000) (15, 5.20563177480448760000e+000) (16, 7.96489778287659960000e-002) (17, 3.25683380842120940000e+000) (18, -1.47437782448834760000e-001) (19, 2.05643794745224500000e+000) (20, -4.47311645761904120000e-002) (21, 2.06774174988901490000e-001) (22, 5.58864334893209320000e+000) (23, 3.82026703287939470000e-001) (24, 3.11097199413417680000e-001) (25, 4.89326440751385940000e+000) (26, 2.06780502914816170000e-001) (27, 1.47975251041735880000e+000) (28, 4.77961892159624660000e+000) (29, 1.55600808712477560000e-001) (30, 2.77870374895021530000e+000) (31, 3.42848572486626060000e-002) (32, 8.84007387625253970000e-002) (33, 1.44816358564691300000e-001) (34, 4.73773567113390650000e+000) (35, 7.03256378847796440000e+000) (36, 1.23440858112184820000e-001) (37, 1.05526491896157300000e-001) (38, 1.76693651343742200000e+000) (39, 1.25500807936602320000e+000) (40, -1.42415124109900290000e-001) (41, 1.89754678767369800000e+000) (42, 3.89353751657662000000e+000) (43, -1.33805683852463190000e+000) (44, 1.96586329126738680000e+000) (45, -2.11279461337766720000e-002) (46, 1.54910652387781870000e-001) (47, 1.79096143596625710000e+000) (48, 4.25434440989521880000e-001) (49, 2.59964471979519510000e+000) (50, -1.02020142066003740000e-001) (51, 1.80958383667600550000e+000) (52, 2.42354918577105450000e+000) (53, 1.59697223134517660000e+000) (54, 2.28484624598989770000e+000) (4, 2.53592313741879890000e+000) (5, 4.32494233693245040000e-002) (6, 2.48067709873106160000e+000) (7, 3.05030468023062270000e-001) (8, 2.30683516650454120000e+000) (9, 1.91080217148024500000e+000) (10, 1.09506332010282330000e+000) (11, 3.61578731044517190000e+000) (12, 5.34792726887700900000e+000) (13, 6.30866562699632550000e+000) (14, -2.74395225784509480000e+000) (15, 4.16920948236374040000e+000) (16, -3.30655510738897050000e-002) (17, 2.20194264037086860000e+000) (18, 7.92480130971363740000e-002) (19, 3.41476349724575770000e+000) (20, -1.47972355535023370000e-002) (21, 8.37087177617198140000e-002) (22, 5.35934311525669300000e+000) (23, 2.57393164749862400000e-001) (24, 1.99286023415050110000e-001) (25, 6.22621421731658220000e+000) (26, -4.69422555349006680000e-002) (27, 2.79454493000566020000e+000) (28, 4.17144757032299740000e+000) (29, 4.52256610918625530000e-002) (30, 2.13649753627200440000e+000) (31, 1.67087036039788130000e-002) (32, 3.57364013544012520000e-002) (33, -1.35503845951751730000e-002) (34, 5.45447451698007500000e+000) (35, 7.40253678592031150000e+000) (36, 2.03582330504843740000e-002) (37, 7.85576614804704420000e-002) (38, 3.31851300381869750000e-002) (39, 3.10120430373977300000e+000) (40, 1.27435739273199370000e-001) (41, 1.08201022654571100000e+000) (42, 4.53629243293079120000e+000) (43, 1.83990338249705980000e-001) (44, 8.59566569557558950000e-001) (45, 3.38026189229714280000e-002) (46, 4.76674390787137780000e-002) (47, 2.93231069132221570000e+000) (48, 1.27244370842058020000e+000) (49, 1.10523842250720520000e+000) (50, 2.82235585243182650000e-002) (51, 6.15507529276242640000e-001) (52, 7.87937103838259920000e+000) (53, 2.95829515683529050000e-001) (54, 1.46966235392843130000e+000) 
