FANN_FLO_2.1
num_layers=3
learning_rate=0.700000
connection_rate=1.000000
network_type=0
learning_momentum=0.000000
training_algorithm=2
train_error_function=1
train_stop_function=1
cascade_output_change_fraction=0.010000
quickprop_decay=-0.000100
quickprop_mu=1.750000
rprop_increase_factor=1.200000
rprop_decrease_factor=0.500000
rprop_delta_min=0.000000
rprop_delta_max=50.000000
rprop_delta_zero=0.100000
cascade_output_stagnation_epochs=12
cascade_candidate_change_fraction=0.010000
cascade_candidate_stagnation_epochs=12
cascade_max_out_epochs=150
cascade_min_out_epochs=50
cascade_max_cand_epochs=150
cascade_min_cand_epochs=50
cascade_num_candidate_groups=2
bit_fail_limit=1.00000001490116120000e-001
cascade_candidate_limit=1.00000000000000000000e+003
cascade_weight_multiplier=4.00000000000000020000e-001
cascade_activation_functions_count=10
cascade_activation_functions=3 5 7 8 10 11 14 15 16 17 
cascade_activation_steepnesses_count=4
cascade_activation_steepnesses=2.50000000000000000000e-001 5.00000000000000000000e-001 7.50000000000000000000e-001 1.00000000000000000000e+000 
layer_sizes=3 51 3 
scale_included=0
neurons (num_inputs, activation_function, activation_steepness)=(0, 0, 0.00000000000000000000e+000) (0, 0, 0.00000000000000000000e+000) (0, 0, 0.00000000000000000000e+000) (3, 5, 1.00000000000000000000e+000) (3, 5, 1.00000000000000000000e+000) (3, 5, 1.00000000000000000000e+000) (3, 5, 1.00000000000000000000e+000) (3, 5, 1.00000000000000000000e+000) (3, 5, 1.00000000000000000000e+000) (3, 5, 1.00000000000000000000e+000) (3, 5, 1.00000000000000000000e+000) (3, 5, 1.00000000000000000000e+000) (3, 5, 1.00000000000000000000e+000) (3, 5, 1.00000000000000000000e+000) (3, 5, 1.00000000000000000000e+000) (3, 5, 1.00000000000000000000e+000) (3, 5, 1.00000000000000000000e+000) (3, 5, 1.00000000000000000000e+000) (3, 5, 1.00000000000000000000e+000) (3, 5, 1.00000000000000000000e+000) (3, 5, 1.00000000000000000000e+000) (3, 5, 1.00000000000000000000e+000) (3, 5, 1.00000000000000000000e+000) (3, 5, 1.00000000000000000000e+000) (3, 5, 1.00000000000000000000e+000) (3, 5, 1.00000000000000000000e+000) (3, 5, 1.00000000000000000000e+000) (3, 5, 1.00000000000000000000e+000) (3, 5, 1.00000000000000000000e+000) (3, 5, 1.00000000000000000000e+000) (3, 5, 1.00000000000000000000e+000) (3, 5, 1.00000000000000000000e+000) (3, 5, 1.00000000000000000000e+000) (3, 5, 1.00000000000000000000e+000) (3, 5, 1.00000000000000000000e+000) (3, 5, 1.00000000000000000000e+000) (3, 5, 1.00000000000000000000e+000) (3, 5, 1.00000000000000000000e+000) (3, 5, 1.00000000000000000000e+000) (3, 5, 1.00000000000000000000e+000) (3, 5, 1.00000000000000000000e+000) (3, 5, 1.00000000000000000000e+000) (3, 5, 1.00000000000000000000e+000) (3, 5, 1.00000000000000000000e+000) (3, 5, 1.00000000000000000000e+000) (3, 5, 1.00000000000000000000e+000) (3, 5, 1.00000000000000000000e+000) (3, 5, 1.00000000000000000000e+000) (3, 5, 1.00000000000000000000e+000) (3, 5, 1.00000000000000000000e+000) (3, 5, 1.00000000000000000000e+000) (3, 5, 1.00000000000000000000e+000) (3, 5, 1.00000000000000000000e+000) (0, 5, 1.00000000000000000000e+000) (51, 0, 1.00000000000000000000e+000) (51, 0, 1.00000000000000000000e+000) (0, 0, 1.00000000000000000000e+000) 
connections (connected_to_neuron, weight)=(0, 2.25293097200625250000e+000) (1, 3.01480132607037810000e+000) (2, 3.01426982572367940000e-001) (0, -2.16112032593859940000e-001) (1, 2.98571918182762350000e-001) (2, 4.58632188383515270000e-001) (0, 3.64854601876836660000e-001) (1, -9.09948234686678630000e-001) (2, 1.13724430791820820000e+000) (0, 8.60756412191502780000e-001) (1, 1.50949347942849350000e+001) (2, 7.15887033115575560000e-001) (0, 2.85819069199842850000e-001) (1, -1.00703837204148060000e+000) (2, -2.63462279291961950000e+000) (0, -2.84815291991074530000e-001) (1, 2.21421701145399000000e-001) (2, 8.80720489365766970000e-001) (0, 7.91850191452852850000e-001) (1, 1.83322809571038100000e+000) (2, 2.80364423393665120000e+000) (0, -2.39629062645286690000e+000) (1, -2.49407938291877060000e+000) (2, -2.66104770644319450000e+000) (0, 1.19354246928376680000e-001) (1, 3.88295450205353860000e-002) (2, 1.90745208620655180000e+000) (0, 5.57776421273232100000e-002) (1, 1.72833443545581810000e+000) (2, -1.17403492581255420000e+000) (0, 1.37521135265156640000e-001) (1, 6.86574112333579460000e-001) (2, 1.34838345176420570000e+000) (0, -2.09674963045815010000e+000) (1, 1.62001386922794670000e+000) (2, -3.51425914328371560000e+000) (0, -1.76641629616122860000e+000) (1, -6.72014849735294460000e-001) (2, 2.35980453914529460000e+000) (0, 8.06351980579544160000e-001) (1, -2.55175059367445290000e+000) (2, -4.06631022493176350000e+000) (0, -1.71378007613711380000e+000) (1, -4.45006980990515390000e-001) (2, -1.36078712209431260000e+000) (0, 3.49937848106201890000e-002) (1, -1.22928856182887580000e+000) (2, 1.36137635172946950000e+000) (0, 1.36633299051491130000e+000) (1, -6.43191258518233440000e-001) (2, -3.72567547513306430000e+000) (0, 1.68460798736701260000e+000) (1, 1.18282750314457790000e+000) (2, 6.29350624091230880000e-001) (0, 3.03351020584224530000e-001) (1, -2.36641747424219640000e+000) (2, -3.75629544795033340000e+000) (0, 1.38496367665634490000e+000) (1, -2.23403428992834390000e-001) (2, -3.65369826820565710000e+000) (0, -5.31873150269161820000e-001) (1, 7.32513972491217410000e-001) (2, 2.13056932107122340000e-001) (0, 2.47289521973686280000e+000) (1, 8.11678012311253280000e-003) (2, 1.76997298684144470000e+000) (0, 3.54952104350427790000e-001) (1, 1.39126299054204330000e+000) (2, 2.65702734315127480000e+000) (0, -9.73429042822304910000e-001) (1, 2.94923738816988970000e+000) (2, 3.24792310872993010000e+000) (0, -7.12932858518885100000e-001) (1, -6.89252998477086860000e+001) (2, -4.30621947444692580000e+000) (0, 2.16855344163988070000e-002) (1, -5.43575175807228560000e+000) (2, -1.74215473929558760000e+000) (0, -1.81654281294019420000e-001) (1, 3.71609056271713090000e-001) (2, 1.08004546361446250000e+000) (0, 2.46139624653718720000e+000) (1, 2.60642607854147550000e+000) (2, -2.03051570190764460000e-002) (0, -1.61607889916787120000e+000) (1, -1.84594331805979620000e+000) (2, -6.15015246495883240000e-001) (0, -2.81243972813867190000e+000) (1, 1.06024713078889370000e+000) (2, 3.58537314039837800000e+000) (0, 2.05901018234331770000e-001) (1, -6.62498992248231170000e-001) (2, 5.72393482045232770000e-001) (0, 2.81145386159127260000e-001) (1, 8.52844665948435670000e-001) (2, -2.42193505688407560000e+000) (0, 7.41430675941168040000e-002) (1, -6.31121676794112570000e-001) (2, -3.47805883678703020000e+000) (0, 2.71831717956237550000e+000) (1, 1.34913334555135570000e-001) (2, 3.24394603663040780000e+000) (0, -2.49646974651676230000e-001) (1, 1.64812770648792960000e-001) (2, 9.56753135813831480000e-002) (0, 1.28752729000253980000e+000) (1, -1.78792693455532790000e+000) (2, -2.31196057410620750000e+000) (0, 2.41319462185947440000e+000) (1, 6.40170874282138590000e-001) (2, 3.04230531770058170000e+000) (0, -7.05254698202459670000e-001) (1, 1.81637196379444040000e+000) (2, 1.66255657484678170000e+000) (0, 9.54882314338270310000e-001) (1, 6.55933803125332890000e-001) (2, 3.15968175671765380000e+000) (0, 3.02456908126820960000e+000) (1, 2.19193148604448580000e+000) (2, 3.97477589447689790000e-001) (0, -6.86752967656237280000e-001) (1, 5.34929114204387930000e-001) (2, 4.67394661484754840000e-001) (0, 5.50887264355213180000e+000) (1, 7.66387251151441970000e+000) (2, 3.27311767004996480000e-001) (0, -2.42870799421594700000e-001) (1, 7.44126380450274240000e-001) (2, 2.86836967394231970000e+000) (0, 4.66996828995992710000e-001) (1, 5.03869546744548790000e-002) (2, -6.66901490623210020000e-001) (0, 1.96003099203565960000e+000) (1, 6.84265716560042540000e-001) (2, 4.04183677442199850000e+000) (0, 3.42401653367389790000e+000) (1, 2.59435965434607010000e+000) (2, 1.75321742389242920000e+000) (0, 1.57992899817593590000e+000) (1, -6.86546265996044850000e-001) (2, -1.36461982177812160000e+000) (0, 3.53009326172273180000e-002) (1, 2.35199893653790150000e-001) (2, -1.56055051206681730000e+000) (0, 1.27644480810367700000e+000) (1, -1.63445613478889530000e+000) (2, -4.27303126375092110000e+000) (0, 3.11095581231711420000e+000) (1, 3.64594393693636350000e+000) (2, 2.24193401915833150000e+000) (3, 4.70360095688556630000e-001) (4, 2.55401601518223930000e+000) (5, 1.95405735006081340000e+000) (6, 1.44844940257335810000e+000) (7, 2.18953173341046310000e+000) (8, 1.05953874816564820000e+000) (9, 6.53985655423497510000e-001) (10, 1.61975970992790890000e+000) (11, 1.11383066188933170000e+000) (12, 5.36206579223846070000e-001) (13, 3.00649551797843850000e+000) (14, 2.94380576263959440000e+000) (15, 2.44347366270675170000e+000) (16, 1.50822879494367170000e+000) (17, 2.57033241864507510000e+000) (18, 2.17728739026484550000e+000) (19, 1.66497768582064400000e+000) (20, -1.19084965716511930000e-001) (21, 1.67957965456825950000e+000) (22, 1.72259397925097280000e+000) (23, 1.54454958975807850000e+000) (24, 2.73785584209235600000e+000) (25, 3.18828878414359980000e+000) (26, 2.68721997410455680000e+000) (27, 3.60488842990368190000e+000) (28, 2.42976789438007090000e+000) (29, 1.49495172847679520000e+000) (30, 1.89218039550771950000e-002) (31, 2.35179885933958980000e+000) (32, 1.37830121851187280000e+000) (33, 1.25650669181668360000e+000) (34, 3.48100719695003850000e+000) (35, 1.41655264221971280000e+000) (36, 2.34568326583216800000e+000) (37, 1.62289466253540990000e+000) (38, 2.62045537825554040000e+000) (39, 1.91479068728416020000e+000) (40, 2.47320560861564600000e+000) (41, 1.08316830408210940000e+000) (42, -1.26651067551439650000e-001) (43, 1.82255355739789440000e+000) (44, -3.32236838514853790000e-002) (45, 2.05317073436922740000e+000) (46, 1.46255776462440520000e+000) (47, 1.56689200412956290000e+000) (48, 5.14872160418676340000e-001) (49, 2.45617962477847130000e+000) (50, 4.39068547468241380000e+000) (51, 1.97983224810320620000e+000) (52, 3.68779055507292620000e-001) (53, 1.91089361282534660000e+000) (3, -9.24303557622163650000e-001) (4, 1.56096840332857690000e+000) (5, 2.00787158057670910000e+000) (6, 8.96241930791270570000e-001) (7, 2.64475787231868550000e+000) (8, 1.52613899007692620000e+000) (9, 1.72864781915609210000e+000) (10, 1.16881481384205020000e+000) (11, 1.68550347387258380000e+000) (12, 3.38838611051502430000e-001) (13, -3.99737706580970270000e-002) (14, 1.34366471053314320000e+000) (15, 3.59222851708289690000e+000) (16, 1.96772720491085870000e+000) (17, 3.00297841588488220000e+000) (18, 2.34617164192132320000e+000) (19, 3.27694194416982980000e+000) (20, 2.14040458209680030000e+000) (21, 1.96447100316677910000e+000) (22, 3.91198771100027410000e+000) (23, 9.84823791930202750000e-001) (24, 7.09107187395559890000e-001) (25, 5.04048357846914260000e-001) (26, 1.08567691541293950000e+000) (27, 3.82971962367689490000e+000) (28, 3.05225068277284480000e+000) (29, 8.07804407543275090000e-001) (30, -2.88769938712817140000e-001) (31, 2.26807746484107490000e+000) (32, 9.47531495094309010000e-001) (33, 1.15500400251868250000e+000) (34, 1.04767040695175420000e+000) (35, 1.83983167087231500000e+000) (36, 2.95372697172336500000e+000) (37, 2.31215858793109420000e+000) (38, 2.17749098774263580000e+000) (39, 3.11461922567663270000e+000) (40, 3.12943887110719740000e+000) (41, 2.97431778013172330000e+000) (42, 7.51439983402149350000e-001) (43, 1.05836791934512190000e+000) (44, 7.48847639063105470000e-002) (45, 7.63423208826576550000e-001) (46, 3.90240318339388950000e+000) (47, 3.28374527990284150000e+000) (48, 1.25895904445934550000e+000) (49, 1.03571776535144290000e+000) (50, 1.31228952507898940000e+000) (51, 2.97605772887861610000e+000) (52, 4.40496461486079240000e-001) (53, 3.38472125626278240000e+000) 
