FANN_FLO_2.1
num_layers=3
learning_rate=0.700000
connection_rate=1.000000
network_type=0
learning_momentum=0.000000
training_algorithm=2
train_error_function=1
train_stop_function=1
cascade_output_change_fraction=0.010000
quickprop_decay=-0.000100
quickprop_mu=1.750000
rprop_increase_factor=1.200000
rprop_decrease_factor=0.500000
rprop_delta_min=0.000000
rprop_delta_max=50.000000
rprop_delta_zero=0.100000
cascade_output_stagnation_epochs=12
cascade_candidate_change_fraction=0.010000
cascade_candidate_stagnation_epochs=12
cascade_max_out_epochs=150
cascade_min_out_epochs=50
cascade_max_cand_epochs=150
cascade_min_cand_epochs=50
cascade_num_candidate_groups=2
bit_fail_limit=1.00000001490116120000e-001
cascade_candidate_limit=1.00000000000000000000e+003
cascade_weight_multiplier=4.00000000000000020000e-001
cascade_activation_functions_count=10
cascade_activation_functions=3 5 7 8 10 11 14 15 16 17 
cascade_activation_steepnesses_count=4
cascade_activation_steepnesses=2.50000000000000000000e-001 5.00000000000000000000e-001 7.50000000000000000000e-001 1.00000000000000000000e+000 
layer_sizes=7 101 7 
scale_included=0
neurons (num_inputs, activation_function, activation_steepness)=(0, 0, 0.00000000000000000000e+000) (0, 0, 0.00000000000000000000e+000) (0, 0, 0.00000000000000000000e+000) (0, 0, 0.00000000000000000000e+000) (0, 0, 0.00000000000000000000e+000) (0, 0, 0.00000000000000000000e+000) (0, 0, 0.00000000000000000000e+000) (7, 5, 1.00000000000000000000e+000) (7, 5, 1.00000000000000000000e+000) (7, 5, 1.00000000000000000000e+000) (7, 5, 1.00000000000000000000e+000) (7, 5, 1.00000000000000000000e+000) (7, 5, 1.00000000000000000000e+000) (7, 5, 1.00000000000000000000e+000) (7, 5, 1.00000000000000000000e+000) (7, 5, 1.00000000000000000000e+000) (7, 5, 1.00000000000000000000e+000) (7, 5, 1.00000000000000000000e+000) (7, 5, 1.00000000000000000000e+000) (7, 5, 1.00000000000000000000e+000) (7, 5, 1.00000000000000000000e+000) (7, 5, 1.00000000000000000000e+000) (7, 5, 1.00000000000000000000e+000) (7, 5, 1.00000000000000000000e+000) (7, 5, 1.00000000000000000000e+000) (7, 5, 1.00000000000000000000e+000) (7, 5, 1.00000000000000000000e+000) (7, 5, 1.00000000000000000000e+000) (7, 5, 1.00000000000000000000e+000) (7, 5, 1.00000000000000000000e+000) (7, 5, 1.00000000000000000000e+000) (7, 5, 1.00000000000000000000e+000) (7, 5, 1.00000000000000000000e+000) (7, 5, 1.00000000000000000000e+000) (7, 5, 1.00000000000000000000e+000) (7, 5, 1.00000000000000000000e+000) (7, 5, 1.00000000000000000000e+000) (7, 5, 1.00000000000000000000e+000) (7, 5, 1.00000000000000000000e+000) (7, 5, 1.00000000000000000000e+000) (7, 5, 1.00000000000000000000e+000) (7, 5, 1.00000000000000000000e+000) (7, 5, 1.00000000000000000000e+000) (7, 5, 1.00000000000000000000e+000) (7, 5, 1.00000000000000000000e+000) (7, 5, 1.00000000000000000000e+000) (7, 5, 1.00000000000000000000e+000) (7, 5, 1.00000000000000000000e+000) (7, 5, 1.00000000000000000000e+000) (7, 5, 1.00000000000000000000e+000) (7, 5, 1.00000000000000000000e+000) (7, 5, 1.00000000000000000000e+000) (7, 5, 1.00000000000000000000e+000) (7, 5, 1.00000000000000000000e+000) (7, 5, 1.00000000000000000000e+000) (7, 5, 1.00000000000000000000e+000) (7, 5, 1.00000000000000000000e+000) (7, 5, 1.00000000000000000000e+000) (7, 5, 1.00000000000000000000e+000) (7, 5, 1.00000000000000000000e+000) (7, 5, 1.00000000000000000000e+000) (7, 5, 1.00000000000000000000e+000) (7, 5, 1.00000000000000000000e+000) (7, 5, 1.00000000000000000000e+000) (7, 5, 1.00000000000000000000e+000) (7, 5, 1.00000000000000000000e+000) (7, 5, 1.00000000000000000000e+000) (7, 5, 1.00000000000000000000e+000) (7, 5, 1.00000000000000000000e+000) (7, 5, 1.00000000000000000000e+000) (7, 5, 1.00000000000000000000e+000) (7, 5, 1.00000000000000000000e+000) (7, 5, 1.00000000000000000000e+000) (7, 5, 1.00000000000000000000e+000) (7, 5, 1.00000000000000000000e+000) (7, 5, 1.00000000000000000000e+000) (7, 5, 1.00000000000000000000e+000) (7, 5, 1.00000000000000000000e+000) (7, 5, 1.00000000000000000000e+000) (7, 5, 1.00000000000000000000e+000) (7, 5, 1.00000000000000000000e+000) (7, 5, 1.00000000000000000000e+000) (7, 5, 1.00000000000000000000e+000) (7, 5, 1.00000000000000000000e+000) (7, 5, 1.00000000000000000000e+000) (7, 5, 1.00000000000000000000e+000) (7, 5, 1.00000000000000000000e+000) (7, 5, 1.00000000000000000000e+000) (7, 5, 1.00000000000000000000e+000) (7, 5, 1.00000000000000000000e+000) (7, 5, 1.00000000000000000000e+000) (7, 5, 1.00000000000000000000e+000) (7, 5, 1.00000000000000000000e+000) (7, 5, 1.00000000000000000000e+000) (7, 5, 1.00000000000000000000e+000) (7, 5, 1.00000000000000000000e+000) (7, 5, 1.00000000000000000000e+000) (7, 5, 1.00000000000000000000e+000) (7, 5, 1.00000000000000000000e+000) (7, 5, 1.00000000000000000000e+000) (7, 5, 1.00000000000000000000e+000) (7, 5, 1.00000000000000000000e+000) (7, 5, 1.00000000000000000000e+000) (7, 5, 1.00000000000000000000e+000) (7, 5, 1.00000000000000000000e+000) (7, 5, 1.00000000000000000000e+000) (7, 5, 1.00000000000000000000e+000) (0, 5, 1.00000000000000000000e+000) (101, 0, 1.00000000000000000000e+000) (101, 0, 1.00000000000000000000e+000) (101, 0, 1.00000000000000000000e+000) (101, 0, 1.00000000000000000000e+000) (101, 0, 1.00000000000000000000e+000) (101, 0, 1.00000000000000000000e+000) (0, 0, 1.00000000000000000000e+000) 
connections (connected_to_neuron, weight)=(0, 6.68142005407501020000e-001) (1, -7.19989910012702290000e-001) (2, -2.78475659741972150000e+000) (3, 1.54908738785776660000e-002) (4, 3.08080625233836390000e-001) (5, 2.26500004919570310000e-001) (6, -6.37602834996318980000e-001) (0, -2.69363405325020560000e-002) (1, -2.60982530214126600000e-001) (2, -2.13460855447330150000e-001) (3, -7.75001270216132410000e-001) (4, 1.01265225650264860000e-001) (5, 9.32743137013452570000e-001) (6, -1.76116840086966000000e+000) (0, 1.26634690714595240000e-001) (1, -6.14557973457813270000e-001) (2, -1.67771821879833240000e+000) (3, 2.11110586968159010000e-001) (4, -9.29821470089422730000e-001) (5, 3.42807910466238760000e-001) (6, -4.14184542030147370000e-001) (0, -1.26632258615641840000e-001) (1, -7.55097742090994780000e-001) (2, -2.25427591072535630000e+000) (3, 1.70333010441948570000e-001) (4, -4.70937354766154840000e-001) (5, -9.47036807746657880000e-002) (6, 4.74708284764740970000e-001) (0, -4.05307498713053270000e-001) (1, -1.45634301349053690000e+000) (2, 1.05959925362499000000e-001) (3, 1.43120920911790930000e-001) (4, 2.01849751793804570000e-001) (5, 2.15242805500372660000e-002) (6, -6.21080899390152210000e-001) (0, -1.10021233681566290000e+000) (1, -1.82076578928155700000e-002) (2, -1.83805051383257820000e+000) (3, -2.29807635309150020000e-001) (4, 6.46783597970839730000e-001) (5, 5.89435155660802180000e-001) (6, -2.08787557181968800000e+000) (0, -4.70303655119282470000e-002) (1, 5.06078135316271260000e-002) (2, 2.94438127215924260000e+000) (3, 1.73980902175846750000e-001) (4, 6.33348339736132580000e-001) (5, -1.16398234159996600000e-001) (6, -3.29596330063541610000e-001) (0, 7.20776438325946620000e-001) (1, 1.41565448782581590000e+000) (2, 1.91297050711096870000e-001) (3, 4.19616871827962260000e-001) (4, 1.69938818606663770000e-001) (5, 1.07730757761419720000e+000) (6, -7.50119779266595120000e-001) (0, -1.19466365234795790000e+000) (1, 6.82901717124549060000e-001) (2, 3.54564127048841380000e-001) (3, 3.15777022994272180000e-002) (4, 5.76764646808279440000e-001) (5, 2.92064463808050690000e+000) (6, 5.65926143162865450000e+000) (0, 3.14930352257335060000e+000) (1, 2.69829327377745940000e+000) (2, 6.92592320787419950000e-001) (3, 2.67020825471248990000e+000) (4, 7.95061852736184080000e+000) (5, 2.67602654382732120000e+000) (6, 2.40320973985819730000e+000) (0, -4.04043802643595240000e-001) (1, 8.81565570084174300000e-002) (2, -7.16602885098971080000e-001) (3, 4.05222651096167560000e-001) (4, 3.85573162289815810000e-001) (5, -7.61787798959968290000e-001) (6, -1.19912167509064350000e+000) (0, 2.21378551802232070000e-001) (1, -2.61827271996728670000e-001) (2, 1.10987500646187740000e+000) (3, -1.26256734597042610000e+000) (4, -9.66412002108349290000e-002) (5, 1.68851802052872850000e+000) (6, 2.44639116520721460000e-001) (0, 5.96930594115366530000e-001) (1, -5.86715734020439970000e-001) (2, -1.14361981910338550000e+000) (3, 2.71370969884810460000e-001) (4, -1.96387450700176910000e-001) (5, 1.73722617112210550000e+000) (6, 1.59815633410273140000e+000) (0, 1.43171072379869880000e+003) (1, 6.54591407678081960000e+002) (2, 1.49257930299592020000e+003) (3, -1.38406729147957210000e+003) (4, 1.49993057267759380000e+003) (5, 2.48709194530594190000e+000) (6, 1.49092092975811150000e+003) (0, -1.23140347526390580000e+000) (1, -3.03387967662156650000e+000) (2, 5.77829170260986120000e-001) (3, 2.91793566872694710000e+000) (4, 6.48668221833449630000e-001) (5, 2.29996523261457320000e+000) (6, 2.51172314703717700000e-001) (0, -6.70559271011855640000e-001) (1, 8.51628004328143780000e-001) (2, 4.42233369222603030000e+000) (3, 1.06518299322398440000e-001) (4, -5.09329909277895570000e-001) (5, -1.12009463157182910000e-001) (6, -1.37693349163034440000e-001) (0, 6.37970729223088780000e-002) (1, -7.72721806802219160000e-002) (2, -4.93204369552894100000e-001) (3, -3.84124245968886780000e-002) (4, 1.00109080723274670000e-001) (5, 2.20971870826976780000e+000) (6, 1.60631217698833420000e+000) (0, 2.41004626727273520000e-001) (1, -4.50660718675727430000e-001) (2, 6.42647411092623910000e-001) (3, 2.55099778561348080000e-001) (4, 1.14495270144203840000e-001) (5, 1.59766078987761920000e+000) (6, -3.73237549344210220000e-001) (0, 1.78107983490842670000e-001) (1, 5.94484816919511380000e-001) (2, 2.35149269003335790000e+000) (3, 5.87579556704805220000e-001) (4, 5.97236372462417450000e-001) (5, 2.33068401342456210000e+000) (6, 2.21767983403904710000e+000) (0, 1.06709126770849070000e+000) (1, 5.38713063353255080000e-001) (2, 9.19911913126893470000e-001) (3, 7.42737849616755370000e-001) (4, 2.09936652999549060000e-001) (5, 5.47928722926002370000e-001) (6, -2.26969385183731510000e+000) (0, 1.28617426063487190000e-001) (1, 1.22527150726243140000e-001) (2, -3.93312842482123390000e-001) (3, 7.02259188723012850000e-001) (4, 1.83213176882973270000e+000) (5, 5.16746016879774730000e-001) (6, 6.33532322693848740000e-001) (0, -1.71355088013646320000e-001) (1, 1.27374381122503300000e+000) (2, -1.70223785552739180000e-001) (3, 1.68824382523062130000e+000) (4, -1.66292367645228230000e-001) (5, 3.37720040448329480000e-001) (6, 2.07337222045260060000e-001) (0, 1.90708411085138740000e+000) (1, 1.12573346164217240000e-001) (2, -6.15096683349391910000e-002) (3, -2.79440740940884670000e-001) (4, -5.90838588553487920000e-001) (5, 4.82880428284427730000e-001) (6, 1.85755704916108780000e+000) (0, -6.97149740066459910000e-001) (1, 5.75289263704957370000e-001) (2, 4.19333160840819950000e-001) (3, 1.30707743642336170000e+000) (4, 8.36028533478665460000e-001) (5, -1.12346273307563300000e+000) (6, 2.92923495106917690000e+000) (0, 1.41395318257000820000e+000) (1, -7.35319896591282720000e-002) (2, 8.15943226665230560000e-001) (3, 1.69561782971986510000e-001) (4, -5.41678122208273160000e-001) (5, -4.79919278737489020000e-001) (6, 1.90622540026694740000e+000) (0, 1.47459034275181390000e-001) (1, -1.67992315978709090000e+000) (2, -2.09905961400286230000e+000) (3, -3.47661463634595880000e-001) (4, 1.74292681131467630000e+000) (5, -3.09397884528767430000e-001) (6, -2.23142501664445890000e+000) (0, -9.57971445502207700000e-001) (1, 4.47320561231901840000e-001) (2, 3.20723447237765000000e+000) (3, 6.14079258838384210000e-001) (4, 3.52585034237650700000e-001) (5, 1.01085497955601470000e+000) (6, 3.13169402602248410000e+000) (0, 2.00128577448401180000e+000) (1, -9.39517653558989640000e-001) (2, 1.46998464635469620000e+000) (3, 1.36787109675890850000e+000) (4, -1.38603904593892930000e-001) (5, 1.97746056364043410000e+000) (6, -1.93744505802571210000e+000) (0, 1.10137233434698410000e+000) (1, -9.31883180132199170000e-001) (2, 9.45323964203536260000e-001) (3, -9.99304742741235490000e-002) (4, -6.79799021454104420000e-001) (5, 5.32200640286369930000e-002) (6, -1.84513574824907640000e+000) (0, -3.92599381892787200000e-001) (1, 5.12447305845577290000e-001) (2, -2.20410436050711770000e-002) (3, 3.15276946085574220000e-001) (4, -9.29811089670563250000e-001) (5, 3.79729143671418570000e+000) (6, -1.79949228311007180000e-001) (0, -3.26752183315742350000e-001) (1, 4.11569696526289940000e-001) (2, -3.23142289963896380000e-002) (3, -4.46386671923415190000e-001) (4, 1.62720122804229010000e-001) (5, 3.48403499765793710000e-001) (6, -1.32258143528109470000e+000) (0, -4.44883005540364750000e-001) (1, -1.44770883190645350000e-001) (2, 1.63848163508155340000e-001) (3, 6.85948761255565920000e-001) (4, 1.87508102144286270000e-003) (5, -7.01735729963749110000e-001) (6, -1.44057763701435720000e-002) (0, 9.48724519702697780000e-002) (1, 1.51951940919730130000e-001) (2, -1.99771705655058930000e+000) (3, -3.41879320706195090000e-001) (4, -3.78371024389948020000e-001) (5, -7.13126942902742030000e-002) (6, -2.99398102420237790000e-001) (0, 3.10529215276023010000e-001) (1, 4.26860449846734860000e-003) (2, -9.72369110972520990000e-001) (3, 3.75878695338205230000e-001) (4, 3.63303782731309810000e-001) (5, 1.19940258760610370000e-001) (6, -8.72050864367631460000e-001) (0, -4.77017519188288610000e-001) (1, 1.45807404998848120000e-001) (2, 2.72945981255090290000e+000) (3, 8.40196276383484290000e-002) (4, -2.44589353013722700000e-001) (5, -9.04156958712808020000e-002) (6, -1.22875147854552620000e+000) (0, 2.31926250528162630000e-002) (1, 2.83359178321740510000e-001) (2, 1.55728240974944040000e+000) (3, 1.16734346493235910000e+000) (4, 3.00530119182869150000e-001) (5, -1.21958501955956540000e+000) (6, 1.00928603693878750000e+000) (0, -5.35228398200591200000e-001) (1, -8.64396608421509670000e-001) (2, -2.70353149805828360000e-001) (3, 3.96343072098471640000e-001) (4, 2.17615620149920390000e-001) (5, 1.38917676985936880000e-001) (6, -1.68563707082849580000e+000) (0, -9.82074412321620400000e-001) (1, 2.79562693473861670000e+000) (2, 2.24599596393330980000e+000) (3, -1.12879063187712390000e+000) (4, 3.13156544132101320000e+000) (5, 1.01089892106279570000e+000) (6, 5.00935893621240780000e+000) (0, -3.15540665759304060000e-001) (1, -7.13040730288359990000e-002) (2, -3.15510974612898560000e+000) (3, -5.93585485100594850000e-002) (4, 5.51275207959281310000e-001) (5, 4.15903336958057950000e+000) (6, -2.65305256067156100000e-001) (0, 2.18409653249023310000e+000) (1, 1.31608997656694870000e+000) (2, 3.81393463501269240000e-001) (3, -1.43830962108300400000e+000) (4, -5.18183849663380160000e-001) (5, 1.85435635676897630000e+000) (6, 1.80938143900132450000e+000) (0, -1.50439661349151320000e-001) (1, 1.17201542615280170000e-001) (2, -1.38134675482973130000e+000) (3, -6.80842222096222690000e-001) (4, -3.18719290934005530000e-001) (5, 5.28583016474517220000e-001) (6, -4.21302172880584640000e-001) (0, 2.65006030721529750000e+000) (1, 1.29484614333251760000e+000) (2, 6.90952942435101190000e-001) (3, 1.96263353906497300000e+000) (4, 5.64719485471295000000e+000) (5, 2.00205045715701860000e+000) (6, 1.67089120970415590000e+000) (0, 2.39226797193760390000e-001) (1, -2.18008520638783620000e+000) (2, -4.81272844328258450000e-001) (3, 2.28353632062338850000e+000) (4, 7.31946739049465830000e-001) (5, 1.94584128768232320000e+000) (6, 5.97150530803083330000e-001) (0, 9.00135419620483600000e-002) (1, 1.55180836060840320000e-001) (2, -9.93989830063325000000e-002) (3, -4.11820207810931650000e-001) (4, -1.14407737364224590000e-001) (5, 3.73312037042321960000e-001) (6, -3.67647664901467050000e-001) (0, -2.28355957361371430000e-001) (1, -4.03965392832323700000e-002) (2, -1.76069323423384510000e+000) (3, 2.46125519775010590000e-002) (4, 4.53160103697373420000e-001) (5, 3.88467661713110980000e-001) (6, -1.35898582142505810000e+000) (0, -1.07414644624743770000e+000) (1, -2.62080779059282450000e-001) (2, 1.48352151669387780000e+000) (3, 7.16600722904802030000e-001) (4, 2.27150868865521850000e+000) (5, 9.39781855267895150000e-001) (6, 3.01396523965215300000e+000) (0, 2.89102269648509600000e-001) (1, -2.82166969676479470000e-001) (2, -1.33733956684999410000e-002) (3, 1.17657334263930500000e+000) (4, -1.39668444860425480000e-001) (5, -1.05398165668728310000e+000) (6, -4.00168484092957300000e-001) (0, 1.57878643031655950000e+000) (1, -1.84581329656712810000e+000) (2, 7.13222820319194480000e-001) (3, -2.00689484220193150000e-002) (4, 2.61580128528959450000e-001) (5, -1.28211975294567990000e-001) (6, 5.67650623745643570000e-001) (0, -2.74397619211490080000e-001) (1, -3.04173139144849450000e-001) (2, 5.50934438188167120000e-001) (3, 4.69370753980632270000e-001) (4, 1.19630961535608820000e+000) (5, 1.30824465198096300000e+000) (6, 2.72773631096183860000e-001) (0, -4.70783004210657830000e-001) (1, 3.02684242183007320000e-001) (2, -7.75649601688750970000e-001) (3, -2.15775205264921920000e-001) (4, 9.55267607833884540000e-002) (5, -9.57850925777583350000e-001) (6, 4.67942920996325560000e-001) (0, 1.80871842684364000000e+000) (1, -5.48778113867674720000e-001) (2, -1.05597073602781410000e+000) (3, 1.84347489210171660000e+000) (4, 1.28398492193120070000e+000) (5, -7.59761750036820450000e-001) (6, 1.80655526632524180000e+000) (0, -7.53814171386840010000e-002) (1, -2.96379192169890890000e-001) (2, -1.79987981136051150000e+000) (3, 6.35313844900999850000e-002) (4, 2.60226677163517440000e-001) (5, 4.67603581648514620000e-001) (6, -5.74286507542694720000e-001) (0, -1.42890945846034610000e+000) (1, 3.99182860876028970000e+000) (2, 2.61167220145069260000e+000) (3, 4.23767924330352260000e-001) (4, -1.99174885041603320000e+000) (5, 1.16557818961678940000e+000) (6, 4.69110054534597600000e+000) (0, 1.28894843661545380000e+000) (1, 1.56270962595899050000e+000) (2, 3.08533998797022920000e-001) (3, -1.45791958386151050000e-001) (4, 1.58412600098078380000e-002) (5, 2.66655142123137900000e-001) (6, 9.92466507339427100000e-001) (0, -3.77218617551627000000e-001) (1, 2.12378274738457050000e+000) (2, 3.01083223079604070000e+000) (3, 1.33258678151562280000e-001) (4, -2.56385102775662870000e+000) (5, 4.08805681672399060000e-001) (6, 2.58470986791761350000e+000) (0, 1.76218401315406860000e-001) (1, 6.95298480966814790000e-001) (2, 5.99806097185714320000e-001) (3, 2.32237276716095480000e-001) (4, 4.58536574841585220000e-001) (5, 7.44109923542243150000e-001) (6, -1.45355262920290530000e+000) (0, 1.07548244051683460000e-001) (1, -1.23130522897424030000e-001) (2, 2.17464485949870130000e+000) (3, -4.19209301773760190000e-002) (4, -3.13300707289505760000e-001) (5, -4.00623413967985950000e-001) (6, 7.10528286915587450000e-001) (0, -7.87297388003172950000e-001) (1, -1.00980738089914410000e+000) (2, -1.72222330466620570000e+000) (3, 1.96451241097071290000e-001) (4, -3.05335164385455830000e-001) (5, 4.25421844049645610000e-001) (6, -1.35543325364310710000e+000) (0, -6.40443223333110210000e-001) (1, 7.61118306946813260000e-001) (2, -1.66161957095202160000e+000) (3, -1.41757983564474830000e-001) (4, 3.36838686802021280000e-001) (5, -6.94284817409827340000e-002) (6, -1.54163721057513440000e+000) (0, -5.56500700012610650000e-001) (1, 1.53343918199210560000e-001) (2, -3.58734530316086490000e-001) (3, 1.06123879211391270000e-001) (4, -5.20239584764098590000e-001) (5, -8.79328936309407780000e-001) (6, 1.58542636866670270000e+000) (0, 1.32822624430223010000e+000) (1, -2.86423792078949970000e-001) (2, 1.24907743534024240000e-001) (3, 2.08651673306998830000e+000) (4, -3.90688692500510350000e-002) (5, 2.01339365533971690000e+000) (6, 1.68431167507722510000e+000) (0, 2.36836704345949390000e-001) (1, 2.20005399871120500000e-001) (2, 1.13345469798729370000e+000) (3, -3.20611479468891130000e-001) (4, -3.88900931221295820000e-001) (5, 1.95444187110475540000e-001) (6, 7.35770462787654340000e-001) (0, 1.49076203539089970000e+000) (1, 1.85619947047369750000e+000) (2, -7.65143813197394770000e-001) (3, -1.79793842351500890000e-001) (4, -3.28908815844271560000e-001) (5, -2.32498659484288970000e-001) (6, -6.24215120562866270000e-002) (0, -1.06880350119585500000e+000) (1, 2.16143693351032030000e+000) (2, 1.03168645140895920000e-001) (3, 2.42853556241339820000e+000) (4, 7.18926774594658370000e-001) (5, 2.29637555436798420000e+000) (6, -3.17168564523776060000e-001) (0, 9.35632979811599350000e-002) (1, 6.04362488857895670000e-001) (2, 1.54448938853563500000e+000) (3, 5.07782561992392130000e-001) (4, -3.58670743332007820000e-001) (5, 3.71223780374349330000e-001) (6, -1.05009016125223910000e+000) (0, 1.20265035851735360000e+000) (1, 1.09318303206895330000e+000) (2, 1.60108047445056940000e-001) (3, 1.83945016266817200000e-001) (4, 6.93649339901132310000e-002) (5, 6.79792174952642130000e-002) (6, 3.60187830401954290000e-001) (0, -3.47555411757664130000e-001) (1, -6.03987565966595750000e-001) (2, -2.08095412444746720000e+000) (3, -4.39104887077216340000e-001) (4, 1.08382947093371950000e+000) (5, -3.51075771365939320000e-001) (6, -2.22990602411764540000e+000) (0, -1.91116877497298010000e-002) (1, -1.67378136111359150000e-001) (2, 1.37402515608487550000e+000) (3, 4.88493816192509740000e-002) (4, -6.32569915076629940000e-002) (5, 2.40872560525859480000e+000) (6, 4.06987323350696210000e-001) (0, -2.24538100108893210000e+000) (1, -4.34136565349868070000e-002) (2, -7.68170834845888770000e-002) (3, -1.91171129544061810000e+000) (4, 1.00906989148099660000e+000) (5, -1.62453386814195680000e+000) (6, 5.92459803962127650000e+000) (0, 9.65740135366739860000e-001) (1, -1.90438420158820350000e+000) (2, 1.33939407070988860000e+000) (3, -1.35305299700207100000e-001) (4, -2.34140219583669350000e-001) (5, -3.95493417438994720000e-002) (6, 1.98982328107166740000e+000) (0, -3.96397538228277280000e-001) (1, -2.67922310962688150000e-001) (2, -9.00913778863446370000e-001) (3, 2.56659648322055730000e-001) (4, -6.01416430994892860000e-002) (5, 2.23530774251036730000e-001) (6, -1.25362433680665090000e+000) (0, -9.75595765324566270000e-001) (1, -4.25440719381288860000e-001) (2, -6.60386174898983660000e-001) (3, 2.52760154251957390000e+000) (4, 2.35745738590343020000e+000) (5, 1.18219596706388060000e+000) (6, 1.60754692472920050000e+000) (0, 4.46302331879951890000e-001) (1, -3.75909872425841900000e-001) (2, 2.36200006817838560000e-001) (3, -7.74826548054216910000e-001) (4, 1.82289287371198070000e-001) (5, 6.46557503326791520000e-001) (6, -7.41643686210070260000e-001) (0, 4.61543135941257010000e-001) (1, 4.43304860801104820000e-001) (2, 7.24384971807806030000e-002) (3, -8.11603033944721770000e-001) (4, -2.31763832135075120000e-001) (5, 3.28043119863027480000e-001) (6, 8.07610203191295620000e-001) (0, -9.70179679442477410000e-001) (1, -2.43290304055401830000e-002) (2, 8.31349151768007940000e-001) (3, -1.50283498186290300000e+000) (4, -3.23558342966587200000e-001) (5, 1.44665303496639420000e+000) (6, -9.73362996921832810000e-001) (0, 1.47565354590890040000e+000) (1, 9.47156895072081560000e-001) (2, 1.17354915710240220000e+000) (3, -1.06530246597299640000e+000) (4, -7.51116024330480300000e-001) (5, 1.75706568207714750000e+000) (6, 1.41148646816490690000e+000) (0, -3.18101927155056360000e-001) (1, -8.99676428877187460000e-001) (2, 2.40200160467892720000e-001) (3, 1.52086469335291100000e-001) (4, 1.41535348711583910000e-001) (5, 1.30128935740105980000e-001) (6, -3.93928997865493680000e-001) (0, -5.21920840547191340000e-001) (1, -7.35023294966731130000e-001) (2, -1.10555191283064660000e+000) (3, -7.44459997908148980000e-002) (4, 1.29546115131095870000e-001) (5, 3.59162433271053790000e-001) (6, 8.06974881985095370000e-001) (0, 3.28595241326047500000e-001) (1, -6.44630791734884940000e-002) (2, 1.21706894307221680000e+000) (3, 1.72745530868330670000e+000) (4, 1.23572763082986240000e+000) (5, -5.17370672181397100000e-001) (6, 3.45664621987821500000e-001) (0, -2.94354871592960480000e-001) (1, 2.33316938351492780000e-001) (2, 1.22651898793766300000e+000) (3, -2.63511781526282850000e-001) (4, -8.81663896424037390000e-002) (5, -1.79181387021719350000e-002) (6, -1.70705307775596380000e+000) (0, 1.30739743703408460000e-001) (1, -3.54337553943071540000e-001) (2, -1.45217600131074650000e+000) (3, 2.53365761409066360000e-001) (4, -4.00502406026698110000e-002) (5, -5.57706864845828460000e-002) (6, 1.50988428980424110000e+000) (0, 6.44061162105333040000e-001) (1, 2.42045192741817990000e-001) (2, -3.10482667860071450000e-001) (3, 1.40276344108292530000e+000) (4, 2.26266549482335990000e-001) (5, -1.33378951528394650000e+000) (6, 5.56872028099049230000e-001) (0, -3.69086418297646990000e-001) (1, 4.36858410379318830000e-001) (2, 7.78383984164184200000e-001) (3, 6.50335541248557640000e-001) (4, 9.72405912455953200000e-001) (5, 8.62765571985134590000e-001) (6, -4.90353624440915460000e-001) (0, 5.23013472418190180000e-001) (1, 2.45641680463858100000e+000) (2, -1.12853688196826370000e+000) (3, 8.74620367540991590000e-001) (4, 1.91979567017460720000e-001) (5, 7.47904436244548170000e-001) (6, -2.05933221499256720000e+000) (0, -1.16095919828553100000e+000) (1, -2.21133324736059930000e-001) (2, -1.62091248973705660000e+000) (3, -2.04417661787263390000e-002) (4, 7.29059904071915450000e-001) (5, -3.84938783060471750000e-001) (6, -1.77470036171153690000e+000) (0, -2.71307061346187650000e-001) (1, 1.38360392050693980000e-001) (2, 3.46171670431910930000e+000) (3, -1.87421595772159860000e-001) (4, -1.79871466371309520000e-001) (5, 3.11140024776021780000e+000) (6, 2.06874148407696250000e-001) (0, -2.57486022359694370000e-001) (1, 3.75930471558837850000e-001) (2, 8.38653228187909990000e-001) (3, 4.97757905170406520000e-001) (4, 2.14708583823482350000e+000) (5, 1.23856369434180240000e+000) (6, 1.81801137770253770000e+000) (0, -7.00750001537549630000e-001) (1, 2.76420094322520520000e-001) (2, 1.44901454202995410000e+000) (3, 1.14451799353228480000e-002) (4, -2.61221993127235320000e-001) (5, 3.33202289989706770000e-002) (6, -2.17263215016561470000e+000) (0, 4.57551569573444890000e-001) (1, -2.30787170737711850000e-001) (2, -3.17037159447908500000e-001) (3, 2.62578533006511410000e-001) (4, -2.93326966642675390000e-002) (5, -1.70703647660516540000e-001) (6, 6.07079874982309310000e-001) (0, 3.92356332527803550000e-001) (1, 5.75530157621491730000e-001) (2, -1.26509016306097940000e+000) (3, 2.82635134218164330000e-001) (4, -1.28525752496137790000e-001) (5, 7.08461373128897790000e-001) (6, -1.52947978151187970000e+000) (0, -7.37925437286443220000e-001) (1, 5.85590013921484800000e-001) (2, 1.96966511204783790000e+000) (3, 1.28264476256533030000e-001) (4, 3.53573033564207610000e-001) (5, 4.19261205401514070000e-001) (6, -4.78653621893098070000e-001) (0, -7.89198117603558180000e-001) (1, 5.05020312777749720000e-001) (2, 5.57166077206823100000e-001) (3, -1.23935975801198220000e+000) (4, 1.40881010460695320000e-001) (5, 1.27068493993100250000e+000) (6, -1.77467144742068290000e-001) (0, 1.30172733465042610000e+000) (1, 1.31336679381279130000e+000) (2, 2.25602253653079070000e-001) (3, 2.16764015791205810000e+000) (4, 9.41497069504549920000e-002) (5, 2.50677918451879370000e-001) (6, -4.50865692177395750000e-001) (0, -4.43172164219913620000e-001) (1, 1.07041044454709570000e+000) (2, 2.16096665830191940000e-001) (3, 4.16517698926859640000e-001) (4, 2.49665269615854670000e-001) (5, 2.11410092174832840000e-001) (6, -2.09150194453473980000e+000) (0, 1.89868493288972260000e-001) (1, 2.77989377052182160000e-002) (2, 2.06193290804197100000e+000) (3, 4.16608487083155950000e-001) (4, 8.11767543112406060000e-001) (5, 1.64188147187798990000e+000) (6, 1.99775590582769210000e+000) (0, 8.18513787324747780000e-001) (1, -8.84003748248101240000e-001) (2, 1.20817907015192680000e+000) (3, 8.47151519978639240000e-001) (4, 3.97599841716546610000e-002) (5, 1.70358602798061030000e+000) (6, -4.10466559493110620000e-001) (0, 7.84758411837430670000e-002) (1, 1.36601328727852970000e-001) (2, -2.65651604861677160000e-001) (3, -9.02953946314158480000e-001) (4, 1.43256081065519210000e-001) (5, 4.05749678329201500000e-001) (6, 3.89309722142718360000e-001) (0, 7.65327687370527810000e-001) (1, 1.55402012750506490000e+000) (2, -1.48596995182619350000e-001) (3, -5.39843134080251410000e-002) (4, 3.97780830129104700000e-001) (5, -2.66149081438760430000e-002) (6, 1.15122785465202630000e+000) (0, 1.96593046785383720000e+000) (1, 3.36165679017735360000e-001) (2, 3.19798645903391190000e-001) (3, 2.56139022564692900000e+000) (4, -4.39609935219437590000e-001) (5, 2.25812474520435820000e+000) (6, 2.25072671216184440000e+000) (0, -1.23350963370071880000e+000) (1, 1.21249257352561530000e+000) (2, 4.88865580167956000000e+000) (3, 1.01313881133592320000e+000) (4, 3.38246698130949600000e-001) (5, 1.39036610734982790000e+000) (6, 4.76552478425199410000e+000) (7, 7.01677562681910770000e+000) (8, -1.00844626719711860000e+000) (9, 1.34129347016183750000e+000) (10, 5.31965171141073890000e-001) (11, 7.06499549927201760000e-001) (12, 1.66380309722524890000e+000) (13, 1.02778725060110810000e+000) (14, -6.14286874809850890000e-001) (15, 4.62498091074403120000e+000) (16, -8.94275551390116140000e-003) (17, 6.98378150117671750000e+000) (18, 1.20336402756860110000e+000) (19, 1.07318084905363450000e+000) (20, 1.72010210929759320000e-001) (21, -3.93026663272792070000e-001) (22, 4.29509834574653660000e+000) (23, 5.38974295782991280000e-001) (24, 2.33321096418937330000e-002) (25, -1.49764182700439100000e+000) (26, 1.10245037108361150000e+000) (27, 3.83988628268835620000e-001) (28, 5.50481853528084100000e-001) (29, 2.31370355136356130000e+000) (30, -1.14343971190056300000e+000) (31, 2.63911817575674500000e+000) (32, 4.12571995724236460000e+000) (33, 2.78759911350758530000e+000) (34, 4.28542416083176280000e-001) (35, 8.72712918560001110000e-001) (36, 2.14757625437862200000e-001) (37, 4.93907586006356160000e+000) (38, 3.75909803462548720000e+000) (39, 8.58610024562198700000e-001) (40, 2.61970150340924460000e+000) (41, 2.52582907708064620000e+000) (42, 3.15431922726637650000e+000) (43, 6.55338300226638990000e+000) (44, 3.49417913770967470000e+000) (45, 1.35685106392381960000e-001) (46, -1.62163960524248350000e+000) (47, 4.64805818540619780000e+000) (48, 1.72809822120169430000e-001) (49, 5.40727448782868270000e-001) (50, 3.33682000227005160000e+000) (51, 9.51912269399928230000e-001) (52, 4.36861571871970170000e+000) (53, 3.06599639482054980000e+000) (54, -6.97336109818178280000e-001) (55, -9.05970430909972200000e-001) (56, 4.51598377184258840000e+000) (57, -2.76475727274630050000e-001) (58, 4.02579701378485750000e+000) (59, 3.32757883045496430000e+000) (60, 1.95474688371432940000e+000) (61, 5.52937389519758860000e+000) (62, 1.21354363763470000000e+000) (63, 3.13151345269559080000e+000) (64, 2.59176509284405940000e-001) (65, 2.83838433204379780000e+000) (66, 2.64146542974377670000e+000) (67, 7.16071827845059850000e-001) (68, 2.62110052414600640000e+000) (69, -7.99548043562824270000e-001) (70, -3.81149393591425080000e-001) (71, 1.17541222606960470000e+000) (72, 7.72468073560587000000e-001) (73, 1.79912801454516560000e+000) (74, -5.30107704361579610000e-001) (75, 5.24632182975515440000e+000) (76, 3.47540611695216440000e+000) (77, 8.43378234216484480000e+000) (78, -4.18483250237972730000e-001) (79, 4.13188151671699710000e+000) (80, 4.86124423418277730000e+000) (81, 1.11874209804747090000e+000) (82, 9.69333897965433010000e-001) (83, 1.75184723308553700000e+000) (84, -3.36819643311804200000e-001) (85, 4.85341374575236740000e-001) (86, 1.46521578069713110000e+000) (87, 4.82019610805977900000e+000) (88, 2.67273283149434260000e+000) (89, 1.67720854517249300000e+000) (90, 2.12833151652136570000e-001) (91, 5.61610389673916990000e+000) (92, 1.42781204721434350000e-001) (93, -3.63195115383744330000e-001) (94, 5.97477968815929120000e+000) (95, 5.20861130815741100000e+000) (96, -9.34091725302500950000e-001) (97, -1.81162167315298580000e-001) (98, 1.33175768287052710000e+000) (99, -2.77294144862387290000e-001) (100, 1.53227598232188100000e+000) (101, 1.45091518368236370000e+000) (102, 6.15420002761903890000e-001) (103, 4.16658264731300410000e+000) (104, 8.48304232987434740000e-001) (105, -4.18668255330729160000e-001) (106, 3.99160034964234670000e+000) (107, 5.31993864150499540000e+000) (7, 2.51334094868890250000e+000) (8, 7.40599083050012870000e-001) (9, 1.21244548179279520000e+000) (10, 1.83003440012168220000e+000) (11, -6.19788320305698910000e-002) (12, 4.46156676401920740000e+000) (13, 3.31081990542531470000e+000) (14, 5.36603699313149880000e-001) (15, 4.06824790326256910000e+000) (16, 3.05987889241589040000e-001) (17, 5.33103840184122200000e+000) (18, 2.96526091676425850000e-001) (19, 6.93040206507712360000e-001) (20, 1.31931542885071530000e-001) (21, 1.59836298200121550000e-001) (22, 2.39725127708038600000e+000) (23, 8.26489053006136620000e-001) (24, 1.68173579605792910000e+000) (25, 8.70050138034058200000e-002) (26, 9.79575503860498300000e-001) (27, -1.43061713073639190000e-001) (28, 1.46201641025033470000e-001) (29, 1.04749465771464330000e+000) (30, 1.71474520991415220000e+000) (31, 1.50238034416668050000e+000) (32, 2.18832661577605860000e+000) (33, 1.84011405682006220000e+000) (34, -5.78254152185492600000e-002) (35, 1.10979856002623210000e+000) (36, -1.81233475586107530000e-001) (37, 2.87043196479685880000e+000) (38, 3.89825740273808390000e+000) (39, 2.51823666160250690000e+000) (40, -3.39254079439381890000e-002) (41, 2.28819263804104980000e+000) (42, 2.44044395343596900000e+000) (43, 3.24776062814155870000e+000) (44, 3.95446849053561330000e+000) (45, -3.65826374090593320000e-001) (46, 1.40273203408157190000e-001) (47, 4.10256730031637500000e+000) (48, -2.77846438610906020000e-001) (49, -2.81895392471678940000e-001) (50, 2.55161833296787850000e+000) (51, 4.35996276219547240000e+000) (52, 2.96869890536726500000e+000) (53, 1.96803760658630300000e+000) (54, 1.49047713504085740000e+000) (55, -9.37005859848228710000e-001) (56, 3.94730889502513360000e+000) (57, -7.41243832680695690000e-002) (58, 2.37243945713261880000e+000) (59, 8.64805133273984450000e-001) (60, 1.61216736455693590000e+000) (61, 4.96344156470964750000e+000) (62, 4.67803643417009200000e-001) (63, 4.07173087423816240000e+000) (64, 1.96549622595393150000e+000) (65, 2.47697888173076920000e+000) (66, 1.38643504324305610000e+000) (67, 1.81959200200516590000e+000) (68, 3.28183426416785330000e+000) (69, 8.15787271599589640000e-001) (70, 2.15260847828370130000e-001) (71, 3.93982094047919230000e-001) (72, 1.77942359049760700000e+000) (73, 3.60356098530206890000e-001) (74, -7.19349623670713310000e-001) (75, 3.47147158786040510000e-002) (76, 3.65365793832400780000e+000) (77, 3.85251460262715640000e+000) (78, 1.32719655563835000000e-001) (79, 2.71790903845602560000e+000) (80, 8.87551716622145270000e-001) (81, 6.36127231160834580000e-001) (82, -2.59866883435875720000e-001) (83, 4.62573305222273930000e+000) (84, 2.83672658349365880000e+000) (85, 1.30511688495968840000e-001) (86, 4.45013191479681150000e+000) (87, 4.87264343336598670000e+000) (88, 2.82570610027386990000e+000) (89, -3.36654027029555210000e-001) (90, 1.36025990807123210000e+000) (91, 6.29644508048526900000e-001) (92, -3.94647091044697420000e-001) (93, -4.71251814215784210000e-001) (94, 3.87848107212522080000e+000) (95, 2.96103194333568090000e+000) (96, 1.44341663779907850000e+000) (97, 1.27882163335853180000e+000) (98, 2.24857440421197860000e+000) (99, 1.12862125068473770000e-002) (100, 1.73388002567520090000e+000) (101, 3.51758016680790380000e-001) (102, 2.47633686988386980000e-001) (103, 4.40603056202019430000e+000) (104, 1.33801777744829930000e+000) (105, -1.22110396215071140000e+000) (106, 2.68469496601433240000e+000) (107, 3.93875567421803120000e+000) (7, 3.73011163327999770000e+000) (8, 8.68963936141153860000e-001) (9, 1.39322030775923510000e+000) (10, -1.28049632323668950000e-001) (11, -1.54064255328539250000e+000) (12, 6.67936723316642220000e+000) (13, 2.34305851694109670000e+000) (14, -6.46501881270979520000e-001) (15, 4.76007056221636390000e+000) (16, 3.92158891943637680000e-001) (17, 6.76361291141579190000e+000) (18, -1.29204965509823570000e+000) (19, 1.17160592826420470000e-001) (20, 1.50750772479233050000e-001) (21, -1.99566554046517910000e-001) (22, 2.87132761045236280000e+000) (23, 1.86704644973900890000e+000) (24, 3.43658850245968090000e+000) (25, 6.72948733856542750000e-001) (26, 8.71190679957474010000e-001) (27, 7.60705745548625130000e-001) (28, -1.34000327821585970000e-001) (29, 1.18292768545550890000e+000) (30, 4.87268061520522090000e+000) (31, 5.35750954151219980000e+000) (32, 1.39491393063884340000e+000) (33, 2.85177240480005830000e+000) (34, 1.68289432666244740000e-001) (35, -5.46720460350148870000e-001) (36, 2.15580951245448210000e-001) (37, 3.65846879862908600000e+000) (38, 2.02185613429466080000e+000) (39, 1.18895478565108630000e+000) (40, 1.51131067647750660000e+000) (41, 1.80795408228857850000e+000) (42, 1.75036468150592000000e+000) (43, 1.57169600824819940000e+000) (44, 6.75088829404684510000e-001) (45, -1.35164384267816020000e-001) (46, -7.00153354632128020000e-001) (47, 3.86482188955738290000e+000) (48, -4.55403158512946490000e-001) (49, -7.11250969639801860000e-002) (50, 3.77923563635575820000e+000) (51, 1.60367886043167980000e+000) (52, 3.40175931042974570000e+000) (53, 2.49052117547138830000e+000) (54, 1.62751030229383400000e+000) (55, -1.45541429082321990000e+000) (56, 3.75061770160577050000e+000) (57, -3.46099528806522120000e-001) (58, 4.44851857484724710000e+000) (59, -3.24402309615012060000e+000) (60, 1.36114286288673750000e+000) (61, -5.62618130254270210000e-001) (62, 1.44345347744155730000e+000) (63, 2.93217733302084490000e+000) (64, 1.58784008132256950000e+000) (65, 1.00361730725083720000e+000) (66, 5.05212229269909670000e+000) (67, 2.24270155662412440000e+000) (68, 3.22627698343326990000e+000) (69, -1.53611438257546110000e-001) (70, 5.26295794250471570000e-001) (71, 1.00314871038034850000e+000) (72, 1.31115314745808660000e+000) (73, 6.59744215182433800000e+000) (74, -6.44477073313601270000e-001) (75, 2.68491406982718230000e+000) (76, 2.55332737485470500000e+000) (77, 4.38961447920894890000e+000) (78, -2.18775305435667480000e-001) (79, 1.57101033113141960000e+000) (80, 3.32719891690725020000e+000) (81, -9.54602220938515210000e-001) (82, 1.55246433163948480000e-001) (83, 2.76216051766260980000e+000) (84, 3.90220148576719120000e+000) (85, 3.46300085806251380000e-001) (86, 4.57522345649624370000e+000) (87, 2.12739903791153880000e+000) (88, 2.09958676454043090000e+000) (89, -5.99700282879353400000e-001) (90, 5.34402782804426320000e-001) (91, 4.43531154703146300000e-001) (92, -7.94030965922503800000e-002) (93, -1.56530115453466980000e+000) (94, 4.66245957240074120000e-001) (95, 6.59707199916055220000e+000) (96, -6.64565553942024550000e-001) (97, 4.64639475650985680000e-001) (98, 4.08425277773994380000e+000) (99, -3.52990317953125960000e-001) (100, 7.56961778819227550000e-001) (101, -1.93304655390036010000e+000) (102, -5.57043613017206510000e-001) (103, 1.54879080881194640000e+000) (104, 6.34906472801341940000e-001) (105, -1.49358557380258250000e+000) (106, 3.71817236310569180000e+000) (107, 3.95831763665134200000e+000) (7, 3.02536534938860460000e+000) (8, 5.92912807447134730000e-002) (9, -4.02313537394108080000e-001) (10, 1.08471361607706920000e+000) (11, 7.91925078728599850000e-001) (12, -4.46724731316205870000e-002) (13, 4.20382671153439020000e-001) (14, -8.36324959531326850000e-002) (15, 6.61506286709581560000e+000) (16, 8.25071413011157720000e-001) (17, 4.56845417182200550000e+000) (18, 6.70475605985201280000e-001) (19, -1.57354719015550760000e-001) (20, 1.00654523951138760000e-002) (21, 2.26776922963605380000e-001) (22, 2.72475015384283470000e+000) (23, 6.65408398582946200000e-001) (24, 7.26752531729811690000e-001) (25, -1.88292611369064030000e+000) (26, 2.14389466116044990000e+000) (27, 9.25511362666764260000e-001) (28, -2.42180384010934280000e-001) (29, -9.90689738250964180000e-001) (30, -2.70626911343111950000e-001) (31, -2.73931871823484090000e+000) (32, 2.54613020295291070000e+000) (33, 4.93215504808296590000e+000) (34, 4.46449895499761050000e-001) (35, -3.78289969969862250000e-001) (36, -5.22388465330578050000e-002) (37, 5.23143192512209860000e+000) (38, 4.26921975659709220000e+000) (39, 4.95468767990240640000e-001) (40, 3.61043184976613270000e+000) (41, 2.10435104597876150000e+000) (42, 2.87348335542595380000e+000) (43, 2.03733525748471140000e-001) (44, 3.89758008223445080000e+000) (45, 7.56004286886686750000e-002) (46, -4.36542966016390530000e-001) (47, 3.67748046055907360000e+000) (48, -1.11020455237031460000e+000) (49, -4.45809570478431120000e-001) (50, 2.94614293200529880000e+000) (51, 2.60737253489175250000e+000) (52, -1.55016215296779000000e+000) (53, 2.82512302420569310000e+000) (54, 5.76859765531060000000e-001) (55, -3.97484057475106790000e-002) (56, 5.03795263727932950000e+000) (57, 4.58767002152454580000e-001) (58, 4.10037247158862340000e+000) (59, -4.08198401155432160000e-001) (60, 2.42355921482933140000e-001) (61, 4.91332533290967530000e+000) (62, 4.21391929371509380000e-001) (63, 4.80383113931811500000e+000) (64, 1.46024727460494930000e+000) (65, 1.37112647993749140000e+000) (66, 2.09804544724949870000e+000) (67, 5.52131137832183820000e-001) (68, 1.84090122293397520000e+000) (69, 4.91177776710727040000e-001) (70, 1.05985746310892470000e-001) (71, 1.27726316635032840000e+000) (72, 3.45133703199397960000e+000) (73, 2.53302407215230340000e+000) (74, -1.08517666947235790000e+000) (75, 3.07997337444992820000e+000) (76, 6.59823467434525250000e-001) (77, 6.64430211233775210000e+000) (78, -2.92233199767189260000e-001) (79, 2.67622557982835560000e+000) (80, 4.84200522729418830000e+000) (81, 1.90159804631989140000e+000) (82, 3.21530955256292900000e-002) (83, 2.10720176164553850000e+000) (84, 2.53451617050746060000e+000) (85, -2.81931446505545190000e-001) (86, 6.13960314807877870000e+000) (87, 4.39364437229287220000e+000) (88, 2.55183186326693570000e+000) (89, -4.79900886213610540000e-001) (90, -1.44294927779514430000e-002) (91, 3.77524728049895340000e-001) (92, 6.36978338756087780000e-001) (93, -1.94852524252589120000e-001) (94, 6.39543701237883950000e+000) (95, 6.51311164902011260000e+000) (96, -8.03645556194072630000e-001) (97, 2.99442141097385430000e-001) (98, 1.99735067898893040000e+000) (99, 3.01167190555313100000e-001) (100, 7.16807284613930840000e-001) (101, 3.09494630491987490000e+000) (102, 1.36120780315969640000e+000) (103, 3.27205920388899730000e+000) (104, -1.23865172800009100000e+000) (105, 2.79201960749406340000e-001) (106, 6.00808300738924660000e+000) (107, 4.53520505142043270000e+000) (7, 4.15558549766302750000e+000) (8, 1.12248049359416950000e+000) (9, -2.01935919983183920000e+000) (10, 2.71933992814054060000e+000) (11, 1.00910380563181360000e-002) (12, 4.20473864199540510000e+000) (13, 8.15734196140501130000e-001) (14, 8.26013402815747200000e-001) (15, 1.01457058930135150000e+000) (16, -1.46610151175752740000e-001) (17, 4.32438142624717340000e+000) (18, 1.57953559226625310000e+000) (19, 5.23489612601458100000e-001) (20, -2.49264844625653910000e-002) (21, 1.14491808436424320000e-002) (22, 2.86989022957478030000e+000) (23, -1.01049806662581100000e+000) (24, -2.23253202921504590000e+000) (25, -7.62016588288795020000e-003) (26, 2.70998983198774200000e-002) (27, -1.95551161105721380000e-001) (28, 2.52071836144561910000e-001) (29, -2.59270079770035690000e-001) (30, -9.57836211132871540000e-001) (31, 2.35300790594819100000e+000) (32, 6.32302817892015810000e-001) (33, 3.71015098473679260000e+000) (34, 1.50943468824770280000e-001) (35, -6.34125941738083900000e-001) (36, 1.53753146096830500000e-002) (37, 8.84256097637335480000e-001) (38, 2.08024457045736220000e+000) (39, 2.04111012222027450000e+000) (40, 5.44326260156256400000e-001) (41, 1.37712825707281490000e+000) (42, 2.58410539823507350000e+000) (43, 4.03481819325330980000e+000) (44, 2.52218594545710670000e+000) (45, 5.26339396685650660000e-001) (46, -5.42594031758866340000e-001) (47, 2.97607284341622380000e+000) (48, 5.40321640899662850000e-002) (49, 3.47725821685345270000e-001) (50, 1.20165000371741450000e+000) (51, 4.13298911065065160000e+000) (52, 1.14572810622411600000e+000) (53, 1.74264003499952010000e+000) (54, 8.96439131968718720000e-001) (55, 1.01274383317611250000e+000) (56, 1.53504643654644780000e+000) (57, 6.44681185391073220000e-001) (58, 4.75082083165758170000e-001) (59, 3.01303882665879460000e+000) (60, -5.73983313169180610000e-001) (61, 2.53515308964095890000e+000) (62, 3.31943643945044190000e-002) (63, 2.20067295792729480000e+000) (64, 1.79064911628712100000e+000) (65, 3.01885454716684130000e+000) (66, 1.81901068059758320000e+000) (67, -2.04506927102558040000e+000) (68, 3.08280017248066860000e+000) (69, 4.25065886362272980000e-002) (70, -2.32014550150414970000e-001) (71, 2.39269945268868680000e-002) (72, 2.00247139323062750000e+000) (73, 5.92677121044748120000e-001) (74, 6.23036277555850340000e-001) (75, 4.31047196344000750000e+000) (76, 1.23219104654603680000e+000) (77, 4.68622263434227020000e+000) (78, 1.35252024612154080000e-001) (79, 1.81575866705848530000e+000) (80, 2.10216419259653400000e+000) (81, 3.67797818889989570000e+000) (82, 1.15892058131925580000e+000) (83, 1.72765731311884750000e+000) (84, 1.84367570168002870000e+000) (85, -1.61644743728169370000e-001) (86, 4.13096691264607060000e+000) (87, 3.43618958379830500000e+000) (88, 2.46613373741715860000e+000) (89, -4.92440485544700380000e-001) (90, 5.37096999711475510000e-001) (91, 1.20261344084038170000e+000) (92, 1.16646433910306300000e-002) (93, 2.75286501602998170000e-001) (94, 4.29910268795168630000e+000) (95, 2.84140933895166240000e+000) (96, -2.93424857630160570000e-001) (97, 1.62092227195706420000e+000) (98, -1.58677340216558930000e+000) (99, 3.57723602581673020000e-001) (100, 2.78217702574708480000e+000) (101, 4.04872490149424780000e-001) (102, 9.03391436819053540000e-001) (103, 2.94367203008423630000e+000) (104, 2.48290490775627860000e+000) (105, 1.47391513659699360000e+000) (106, 3.34529418024668600000e+000) (107, 3.37656514278735380000e+000) (7, 2.78146181918970110000e+000) (8, 2.98883290631614380000e+000) (9, -8.21072025872063740000e-001) (10, 5.71703120568357150000e-001) (11, -1.05283470377777700000e+000) (12, 3.30049947288979430000e+000) (13, 2.19379767517646010000e+000) (14, -7.01291955090783960000e-002) (15, 3.14960325211781540000e+000) (16, -3.19483057006478940000e-001) (17, 6.81568372324867600000e+000) (18, 6.63666892888268860000e-001) (19, -6.82213375587441990000e-001) (20, -3.24097795209369110000e-002) (21, -2.49377263552471360000e-001) (22, 3.41483666180456610000e-001) (23, 1.42445954767965220000e+000) (24, 2.54020668378434070000e-001) (25, -2.12740264996690250000e+000) (26, 2.80443660291880150000e+000) (27, -1.61263852265751660000e+000) (28, -9.51272405737412120000e-001) (29, -4.48548882278393120000e-001) (30, 2.98252070666496930000e+000) (31, 4.56477088933416030000e+000) (32, -5.97572397576130570000e-001) (33, 4.93684086883728400000e+000) (34, 3.47085372103848930000e-001) (35, 1.47491361612401530000e+000) (36, 2.30473455374798300000e-001) (37, 2.20142205044518490000e+000) (38, 3.40444585842133170000e+000) (39, 2.64263633167654890000e-001) (40, 2.98998787395783430000e+000) (41, 7.02291551100064360000e-001) (42, 3.11304641965237970000e+000) (43, 4.97667256068604940000e+000) (44, 3.37180012305095330000e+000) (45, 6.26282116602441300000e-003) (46, -9.78778085074743400000e-001) (47, 5.62585428571566840000e+000) (48, 6.34562940446521730000e-001) (49, 4.18665281005127730000e-001) (50, 5.21003816625882710000e+000) (51, 4.51899451600694580000e+000) (52, 4.22026303457322700000e+000) (53, 3.15177184160009110000e+000) (54, 3.43864293726989460000e-001) (55, -4.36822794384180480000e-001) (56, 4.41425382759558800000e+000) (57, 8.38593396299988860000e-001) (58, 5.80307140764497520000e-001) (59, 3.36263079390097100000e+000) (60, 6.49405406066281280000e-001) (61, 4.36592539099196490000e+000) (62, 1.21886577751426330000e+000) (63, 3.95314701949489540000e+000) (64, 2.66388747721424400000e+000) (65, 1.56833495117720270000e+000) (66, 3.18444618235894250000e+000) (67, 1.41008185078351440000e-001) (68, -3.99765376928557350000e-001) (69, 6.56332994180816730000e-002) (70, 4.39833664754569480000e-002) (71, 6.42009365453578560000e-001) (72, 1.37686679148705230000e+000) (73, 1.50080186699643430000e+000) (74, -4.69304909116365190000e-001) (75, 6.84835556039618430000e+000) (76, 2.74610580600744260000e+000) (77, 6.43744457197166400000e+000) (78, 4.00515558204087680000e-001) (79, 1.86061782017837010000e+000) (80, 2.96245842945105810000e+000) (81, 1.51354220066013840000e+000) (82, 1.80096715990528190000e+000) (83, 3.74033361863971430000e+000) (84, 6.80764524160708320000e-001) (85, 6.66160881990293110000e-001) (86, 3.74118522206962110000e+000) (87, 5.03107336685544480000e+000) (88, 1.77422796128161740000e+000) (89, -3.40136220117379430000e-001) (90, 1.77627407337616060000e-002) (91, 4.45715192256531090000e+000) (92, 4.59446267654923450000e-002) (93, -1.17161005644639180000e+000) (94, 6.43757626395832890000e+000) (95, 1.90989438048552660000e+000) (96, 1.62114159986447090000e+000) (97, 1.24881494937640670000e+000) (98, 1.01415218308758680000e+000) (99, 1.52650621797526200000e+000) (100, 1.61766219518164770000e+000) (101, 2.73810149637315360000e+000) (102, 1.02933163416962460000e+000) (103, 4.74522851388429690000e+000) (104, -4.54676105316982660000e-001) (105, 4.95264165458774220000e-001) (106, 3.43955638966770480000e+000) (107, 4.44376958509519240000e+000) 
