FANN_FLO_2.1
num_layers=3
learning_rate=0.700000
connection_rate=1.000000
network_type=0
learning_momentum=0.000000
training_algorithm=2
train_error_function=1
train_stop_function=1
cascade_output_change_fraction=0.010000
quickprop_decay=-0.000100
quickprop_mu=1.750000
rprop_increase_factor=1.200000
rprop_decrease_factor=0.500000
rprop_delta_min=0.000000
rprop_delta_max=50.000000
rprop_delta_zero=0.100000
cascade_output_stagnation_epochs=12
cascade_candidate_change_fraction=0.010000
cascade_candidate_stagnation_epochs=12
cascade_max_out_epochs=150
cascade_min_out_epochs=50
cascade_max_cand_epochs=150
cascade_min_cand_epochs=50
cascade_num_candidate_groups=2
bit_fail_limit=1.00000001490116120000e-001
cascade_candidate_limit=1.00000000000000000000e+003
cascade_weight_multiplier=4.00000000000000020000e-001
cascade_activation_functions_count=10
cascade_activation_functions=3 5 7 8 10 11 14 15 16 17 
cascade_activation_steepnesses_count=4
cascade_activation_steepnesses=2.50000000000000000000e-001 5.00000000000000000000e-001 7.50000000000000000000e-001 1.00000000000000000000e+000 
layer_sizes=3 26 3 
scale_included=0
neurons (num_inputs, activation_function, activation_steepness)=(0, 0, 0.00000000000000000000e+000) (0, 0, 0.00000000000000000000e+000) (0, 0, 0.00000000000000000000e+000) (3, 5, 1.00000000000000000000e+000) (3, 5, 1.00000000000000000000e+000) (3, 5, 1.00000000000000000000e+000) (3, 5, 1.00000000000000000000e+000) (3, 5, 1.00000000000000000000e+000) (3, 5, 1.00000000000000000000e+000) (3, 5, 1.00000000000000000000e+000) (3, 5, 1.00000000000000000000e+000) (3, 5, 1.00000000000000000000e+000) (3, 5, 1.00000000000000000000e+000) (3, 5, 1.00000000000000000000e+000) (3, 5, 1.00000000000000000000e+000) (3, 5, 1.00000000000000000000e+000) (3, 5, 1.00000000000000000000e+000) (3, 5, 1.00000000000000000000e+000) (3, 5, 1.00000000000000000000e+000) (3, 5, 1.00000000000000000000e+000) (3, 5, 1.00000000000000000000e+000) (3, 5, 1.00000000000000000000e+000) (3, 5, 1.00000000000000000000e+000) (3, 5, 1.00000000000000000000e+000) (3, 5, 1.00000000000000000000e+000) (3, 5, 1.00000000000000000000e+000) (3, 5, 1.00000000000000000000e+000) (3, 5, 1.00000000000000000000e+000) (0, 5, 1.00000000000000000000e+000) (26, 0, 1.00000000000000000000e+000) (26, 0, 1.00000000000000000000e+000) (0, 0, 1.00000000000000000000e+000) 
connections (connected_to_neuron, weight)=(0, 2.09493404620383790000e+000) (1, 2.72590163026908310000e+000) (2, 5.47143769338617770000e+000) (0, 3.71893368231106570000e+000) (1, 2.59433066464986340000e+000) (2, -4.36802736301211160000e+000) (0, -1.75083101969546620000e+000) (1, -3.93260368137326510000e-001) (2, 4.94009699976675150000e-001) (0, 7.06072234061225350000e-002) (1, -9.40680198100176450000e-001) (2, 2.04924100268324640000e+000) (0, 1.45183816161374240000e+000) (1, 4.31545127525205530000e+000) (2, 4.29629498581922410000e+000) (0, 1.95732491387663440000e+000) (1, 2.83453201835138560000e+000) (2, 5.63018211203443110000e+000) (0, 1.21919222692949330000e+000) (1, 3.00089081528732700000e-001) (2, -3.29482342349253440000e-001) (0, 2.03391735970118730000e+000) (1, 7.25267239436178550000e-001) (2, -8.14858319837859950000e-001) (0, 1.00922847933369100000e+000) (1, -1.61635646824989710000e-001) (2, 1.81224839752099110000e+000) (0, 7.51082063259237430000e-001) (1, -3.84207418699695640000e+000) (2, 5.01877485868088960000e+000) (0, 1.50744992205158380000e+002) (1, 1.50000000000000000000e+003) (2, 3.63064127898751750000e+001) (0, 7.97177024613454410000e-001) (1, -4.23657287209545930000e-001) (2, 1.63373973230920110000e+000) (0, 1.25523958509621120000e+003) (1, -1.48537218970765890000e+003) (2, 1.47105329630759210000e+003) (0, 1.18066625565786020000e+000) (1, 1.47995861833985880000e+000) (2, 2.44442113857821170000e+000) (0, 6.71663363975045340000e-001) (1, 2.58167802314735400000e+000) (2, -4.94066121592052760000e-001) (0, -2.51183997945310940000e+000) (1, 5.29926707403599200000e+000) (2, 1.78458289370950780000e+000) (0, 4.07161979095795170000e+000) (1, 4.33380193313728320000e+000) (2, 9.13945705654031220000e+000) (0, 1.84280503612844620000e-001) (1, 2.23230571852417040000e-001) (2, -1.84424447993286610000e-001) (0, 7.76969254892397990000e-001) (1, 8.05849813825268880000e-001) (2, 3.40658608234869440000e+000) (0, 8.69283544346480700000e-001) (1, 1.54480225744253980000e+001) (2, 6.02993851315517640000e-001) (0, -6.90342717016693110000e+001) (1, 4.01717523385114250000e+001) (2, 7.99849618034065180000e-001) (0, 6.13030673536031930000e+000) (1, -9.43267505952618410000e-003) (2, 6.61244711268116350000e+000) (0, 3.35830219025235130000e+000) (1, 6.23713997601778130000e+000) (2, 4.36002645037632600000e+000) (0, -5.99351602987286400000e-001) (1, -7.61141683961776950000e-001) (2, 1.47027034233938570000e+000) (0, -1.07922178428400990000e+000) (1, 1.49127645720751230000e+000) (2, 1.51425692309146600000e+000) (3, -2.36097734899892320000e+000) (4, -2.39517321671701030000e-001) (5, 4.57378577248449240000e+000) (6, 7.46095927447470240000e+000) (7, -2.26018135114781900000e+000) (8, -2.46664926324077480000e+000) (9, 5.20164424693161040000e-001) (10, 2.93218796544804230000e+000) (11, 2.37146707084604860000e+000) (12, 6.27839914952922240000e-001) (13, -1.71279396628175510000e+000) (14, 5.24131618757222920000e-001) (15, -1.92939615991930160000e-002) (16, 1.44924309355861290000e+000) (17, -2.44691935534954190000e-001) (18, -4.83223311449185680000e-001) (19, -2.53484285034791590000e+000) (20, 2.54663655180234240000e+000) (21, 1.02295489189560440000e+000) (22, 1.06023649839422030000e+000) (23, 7.56594577280741000000e-002) (24, -3.90088860896071620000e-002) (25, -2.79948699282209020000e+000) (26, 3.26723725739348210000e-001) (27, 3.36533952260750580000e+000) (28, -1.86259931787483120000e+000) (3, -2.62241750940739670000e+000) (4, -5.78479668192114830000e-001) (5, 2.49179399332320630000e+000) (6, 4.01709166459167300000e+000) (7, -3.02194147918169160000e+000) (8, -3.02339986412855350000e+000) (9, 1.78039014305944710000e+000) (10, 7.59369265711693280000e-001) (11, 2.42669810597860190000e+000) (12, 3.23796214617652380000e+000) (13, -2.72477622191692160000e+000) (14, 1.51633600554671080000e+000) (15, -4.53990597919850660000e-002) (16, 1.19174795686316370000e+000) (17, -7.28364563081643990000e-001) (18, -8.09428617059076570000e-002) (19, -2.75843485601740480000e+000) (20, 5.47708412670338960000e+000) (21, 1.33613314067485530000e+000) (22, -1.31288921570150240000e-001) (23, -7.08959320507996510000e-003) (24, 1.13222193874226610000e+000) (25, -2.18817693608215350000e+000) (26, 3.26310985487732940000e+000) (27, 3.08613845404492300000e+000) (28, -2.66176986039210430000e+000) 
