FANN_FLO_2.1
num_layers=3
learning_rate=0.700000
connection_rate=1.000000
network_type=0
learning_momentum=0.000000
training_algorithm=2
train_error_function=1
train_stop_function=1
cascade_output_change_fraction=0.010000
quickprop_decay=-0.000100
quickprop_mu=1.750000
rprop_increase_factor=1.200000
rprop_decrease_factor=0.500000
rprop_delta_min=0.000000
rprop_delta_max=50.000000
rprop_delta_zero=0.100000
cascade_output_stagnation_epochs=12
cascade_candidate_change_fraction=0.010000
cascade_candidate_stagnation_epochs=12
cascade_max_out_epochs=150
cascade_min_out_epochs=50
cascade_max_cand_epochs=150
cascade_min_cand_epochs=50
cascade_num_candidate_groups=2
bit_fail_limit=1.00000001490116120000e-001
cascade_candidate_limit=1.00000000000000000000e+003
cascade_weight_multiplier=4.00000000000000020000e-001
cascade_activation_functions_count=10
cascade_activation_functions=3 5 7 8 10 11 14 15 16 17 
cascade_activation_steepnesses_count=4
cascade_activation_steepnesses=2.50000000000000000000e-001 5.00000000000000000000e-001 7.50000000000000000000e-001 1.00000000000000000000e+000 
layer_sizes=3 11 3 
scale_included=0
neurons (num_inputs, activation_function, activation_steepness)=(0, 0, 0.00000000000000000000e+000) (0, 0, 0.00000000000000000000e+000) (0, 0, 0.00000000000000000000e+000) (3, 5, 1.00000000000000000000e+000) (3, 5, 1.00000000000000000000e+000) (3, 5, 1.00000000000000000000e+000) (3, 5, 1.00000000000000000000e+000) (3, 5, 1.00000000000000000000e+000) (3, 5, 1.00000000000000000000e+000) (3, 5, 1.00000000000000000000e+000) (3, 5, 1.00000000000000000000e+000) (3, 5, 1.00000000000000000000e+000) (3, 5, 1.00000000000000000000e+000) (0, 5, 1.00000000000000000000e+000) (11, 0, 1.00000000000000000000e+000) (11, 0, 1.00000000000000000000e+000) (0, 0, 1.00000000000000000000e+000) 
connections (connected_to_neuron, weight)=(0, 1.49863999561471130000e+003) (1, 1.49979774590279590000e+003) (2, 1.49999987999999530000e+003) (0, -7.56255313884705460000e-001) (1, 9.16880876905001420000e-001) (2, 1.74637000663072500000e-001) (0, 1.78001653948597820000e+000) (1, -1.73135258415978520000e-001) (2, 2.17336549890273600000e+000) (0, 9.87502708555468300000e+001) (1, -2.84368574006256020000e+001) (2, -1.38230165068358430000e+000) (0, 4.36293266974009180000e-002) (1, -3.55616137886095860000e-002) (2, -7.62414366431522690000e-003) (0, 1.49999987999999530000e+003) (1, 1.49999987999999530000e+003) (2, 1.40288061705129510000e+003) (0, -1.49446433540745830000e+003) (1, 1.49999993779198780000e+003) (2, 1.49999993779198780000e+003) (0, -6.31398676764879510000e-002) (1, -1.09851387154777400000e+000) (2, 1.29264743467607280000e+000) (0, 6.66904806098399090000e+001) (1, -1.49989390455597660000e+003) (2, -4.91789232429362220000e+001) (0, -1.38745482246629040000e+000) (1, 8.02739865418704850000e-002) (2, 1.74878893375896060000e+000) (3, 2.64905341215024240000e-001) (4, 2.14052674270668540000e+000) (5, 1.15457346851286460000e+000) (6, -9.44782441956818620000e-002) (7, 3.79220170566297420000e+000) (8, 3.92597365440557400000e-001) (9, 4.54994210073611130000e-001) (10, 2.56317169769569550000e+000) (11, 4.60398049470151700000e+000) (12, -1.66328766027149360000e-001) (13, 4.68539374172140310000e-001) (3, -6.42951369656207110000e-002) (4, 6.87439032170034660000e-001) (5, 2.90936160347900950000e+000) (6, -8.36358550677755180000e-004) (7, 8.23552874991930930000e+000) (8, 1.24676071685584900000e-002) (9, -7.81512278713069270000e-001) (10, 2.71329667967172390000e+000) (11, 5.96769379978416750000e+000) (12, 2.58641150115574630000e+000) (13, 2.47469199373332870000e-002) 
