FANN_FLO_2.1
num_layers=4
learning_rate=0.700000
connection_rate=1.000000
network_type=0
learning_momentum=0.000000
training_algorithm=2
train_error_function=1
train_stop_function=1
cascade_output_change_fraction=0.010000
quickprop_decay=-0.000100
quickprop_mu=1.750000
rprop_increase_factor=1.200000
rprop_decrease_factor=0.500000
rprop_delta_min=0.000000
rprop_delta_max=50.000000
rprop_delta_zero=0.100000
cascade_output_stagnation_epochs=12
cascade_candidate_change_fraction=0.010000
cascade_candidate_stagnation_epochs=12
cascade_max_out_epochs=150
cascade_min_out_epochs=50
cascade_max_cand_epochs=150
cascade_min_cand_epochs=50
cascade_num_candidate_groups=2
bit_fail_limit=1.00000001490116120000e-001
cascade_candidate_limit=1.00000000000000000000e+003
cascade_weight_multiplier=4.00000000000000020000e-001
cascade_activation_functions_count=10
cascade_activation_functions=3 5 7 8 10 11 14 15 16 17 
cascade_activation_steepnesses_count=4
cascade_activation_steepnesses=2.50000000000000000000e-001 5.00000000000000000000e-001 7.50000000000000000000e-001 1.00000000000000000000e+000 
layer_sizes=3 21 11 3 
scale_included=0
neurons (num_inputs, activation_function, activation_steepness)=(0, 0, 0.00000000000000000000e+000) (0, 0, 0.00000000000000000000e+000) (0, 0, 0.00000000000000000000e+000) (3, 5, 1.00000000000000000000e+000) (3, 5, 1.00000000000000000000e+000) (3, 5, 1.00000000000000000000e+000) (3, 5, 1.00000000000000000000e+000) (3, 5, 1.00000000000000000000e+000) (3, 5, 1.00000000000000000000e+000) (3, 5, 1.00000000000000000000e+000) (3, 5, 1.00000000000000000000e+000) (3, 5, 1.00000000000000000000e+000) (3, 5, 1.00000000000000000000e+000) (3, 5, 1.00000000000000000000e+000) (3, 5, 1.00000000000000000000e+000) (3, 5, 1.00000000000000000000e+000) (3, 5, 1.00000000000000000000e+000) (3, 5, 1.00000000000000000000e+000) (3, 5, 1.00000000000000000000e+000) (3, 5, 1.00000000000000000000e+000) (3, 5, 1.00000000000000000000e+000) (3, 5, 1.00000000000000000000e+000) (3, 5, 1.00000000000000000000e+000) (0, 5, 1.00000000000000000000e+000) (21, 5, 1.00000000000000000000e+000) (21, 5, 1.00000000000000000000e+000) (21, 5, 1.00000000000000000000e+000) (21, 5, 1.00000000000000000000e+000) (21, 5, 1.00000000000000000000e+000) (21, 5, 1.00000000000000000000e+000) (21, 5, 1.00000000000000000000e+000) (21, 5, 1.00000000000000000000e+000) (21, 5, 1.00000000000000000000e+000) (21, 5, 1.00000000000000000000e+000) (0, 5, 1.00000000000000000000e+000) (11, 0, 1.00000000000000000000e+000) (11, 0, 1.00000000000000000000e+000) (0, 0, 1.00000000000000000000e+000) 
connections (connected_to_neuron, weight)=(0, 1.49997410221538390000e+003) (1, -1.50000000000000000000e+003) (2, 1.44443594549765750000e+003) (0, 1.50000000000000000000e+003) (1, -1.50000000000000000000e+003) (2, -1.40426437901427310000e+003) (0, -1.50000000000000000000e+003) (1, 1.50000000000000000000e+003) (2, -4.85655941816207300000e+002) (0, -1.45883598700684590000e+003) (1, -1.46303220804417510000e+003) (2, 1.18971551575620200000e+003) (0, 1.50000000000000000000e+003) (1, -1.46820965872639640000e+003) (2, -1.06566105963503760000e+002) (0, 1.49999812660723910000e+003) (1, -1.48651646036742200000e+003) (2, 1.49975180859919420000e+003) (0, 9.86233237415096600000e+002) (1, -1.50000000000000000000e+003) (2, 6.21471968136829450000e+002) (0, -1.18524965295151880000e+003) (1, -1.49737000734708250000e+003) (2, 1.47412495603658780000e+002) (0, 1.49159116885702130000e+003) (1, 1.50000000000000000000e+003) (2, -1.42929097500537910000e+003) (0, 1.49993784531445140000e+003) (1, -1.50000000000000000000e+003) (2, 5.40651088040400740000e+002) (0, -1.42532116056273800000e+003) (1, -1.49987987502262990000e+003) (2, 9.14764818785476110000e+002) (0, -1.15990464266025490000e+003) (1, -1.49868684397129350000e+003) (2, 1.14767845268335940000e+003) (0, 1.48908036958253590000e+003) (1, 1.50000000000000000000e+003) (2, -4.89395550190605210000e+002) (0, -1.44150318224644140000e+003) (1, -1.49927540982672760000e+003) (2, 6.34631235643241100000e+002) (0, 1.50000000000000000000e+003) (1, -1.50000000000000000000e+003) (2, -7.85517584135948970000e+000) (0, 1.49964198898278760000e+003) (1, -1.50000000000000000000e+003) (2, 1.48835318105796860000e+003) (0, -1.49295437064132060000e+003) (1, 4.94144483135907310000e+002) (2, 6.78013353332189580000e+001) (0, 1.20466700651973220000e+003) (1, -1.50000000000000000000e+003) (2, 1.27550884102501300000e+003) (0, 1.50000000000000000000e+003) (1, -1.50000000000000000000e+003) (2, -3.81957434168886110000e+001) (0, -1.49039543062539040000e+003) (1, -1.49726844392522620000e+003) (2, 3.70118309008181480000e+002) (3, 1.50000000000000000000e+003) (4, -1.46492030914461250000e+003) (5, -4.06719855113110730000e+002) (6, 1.50000000000000000000e+003) (7, -1.50000000000000000000e+003) (8, 1.50000000000000000000e+003) (9, 1.32182976356865450000e+003) (10, 1.48824493709736230000e+003) (11, -1.50000000000000000000e+003) (12, 1.04824542177423770000e+003) (13, 1.49464420931564520000e+003) (14, 1.42117100965099890000e+003) (15, -1.45482616386949050000e+003) (16, 1.36710677044523660000e+003) (17, -1.50000000000000000000e+003) (18, 1.50000000000000000000e+003) (19, 1.50000000000000000000e+003) (20, 1.50000000000000000000e+003) (21, -1.50000000000000000000e+003) (22, 1.49256275350697180000e+003) (23, 1.49962410667722930000e+003) (3, -1.50000000000000000000e+003) (4, 1.46121118249446390000e+003) (5, 1.49322916106760910000e+003) (6, -1.49129462464350760000e+003) (7, 1.50000000000000000000e+003) (8, -1.50000000000000000000e+003) (9, -1.24220530360502610000e+003) (10, -1.47596287112357210000e+003) (11, 1.50000000000000000000e+003) (12, -1.21130010745956680000e+003) (13, -1.47169195718919420000e+003) (14, -1.47867270288779670000e+003) (15, 1.49974734813973210000e+003) (16, -1.44084153234587960000e+003) (17, 1.49808754194955620000e+003) (18, -1.50000000000000000000e+003) (19, -1.50000000000000000000e+003) (20, -1.50000000000000000000e+003) (21, 1.50000000000000000000e+003) (22, -1.48632498450416780000e+003) (23, 3.07097263270002090000e+002) (3, 7.13890565883109840000e+002) (4, 3.06721160268030640000e+002) (5, -1.42019764560024560000e+003) (6, -1.32970987908990240000e+003) (7, 1.50000000000000000000e+003) (8, 1.50000000000000000000e+003) (9, -4.33227359728131550000e+002) (10, -1.48256894301018130000e+003) (11, 1.46929500561448840000e+003) (12, 7.07619302881551560000e+001) (13, -1.42520204955627740000e+003) (14, -1.36672648080268940000e+003) (15, 1.16217761234567500000e+003) (16, 4.07468331337261530000e+002) (17, 1.50000000000000000000e+003) (18, 1.24569427541602320000e+003) (19, -1.50000000000000000000e+003) (20, 1.46081842301096120000e+003) (21, 1.50000000000000000000e+003) (22, -1.40535851303025770000e+003) (23, 1.49999931225601220000e+003) (3, 1.50000000000000000000e+003) (4, 1.49838868103758980000e+003) (5, -1.48713713605870450000e+003) (6, 1.50000000000000000000e+003) (7, -1.48606505522496600000e+003) (8, 1.50000000000000000000e+003) (9, 1.49975931182849060000e+003) (10, 1.49997942427413700000e+003) (11, -1.49045546958634400000e+003) (12, 1.49999443972201400000e+003) (13, 1.49857164446506020000e+003) (14, 1.49358314428817970000e+003) (15, -1.49768003998490460000e+003) (16, 1.49994217037051820000e+003) (17, 1.48025508543521030000e+003) (18, 1.50000000000000000000e+003) (19, 1.50000000000000000000e+003) (20, 1.50000000000000000000e+003) (21, 1.33180286886217280000e+003) (22, 1.49985806932677380000e+003) (23, -1.73765874763079780000e+002) (3, -1.45816749182527500000e+003) (4, 1.41050141621871650000e+003) (5, -1.25604788348861210000e+003) (6, -1.47788046110856680000e+003) (7, 1.50000000000000000000e+003) (8, -1.50000000000000000000e+003) (9, -1.08317919596754560000e+003) (10, -1.41556838722455840000e+003) (11, 1.50000000000000000000e+003) (12, -3.02313788156654480000e+002) (13, -1.46949737122218950000e+003) (14, 1.49798809900094350000e+003) (15, 1.50000000000000000000e+003) (16, -1.43915573575109220000e+003) (17, 1.50000000000000000000e+003) (18, -1.48922710546680510000e+003) (19, -1.50000000000000000000e+003) (20, -1.42153361443084260000e+003) (21, 1.50000000000000000000e+003) (22, -1.49061146973075100000e+003) (23, 1.45511552056692360000e+003) (3, 7.21261404337460140000e+002) (4, -1.15368566531336360000e+003) (5, 2.80734800484660070000e+002) (6, 1.46819409442052170000e+003) (7, -1.50000000000000000000e+003) (8, 7.21261404337460140000e+002) (9, 1.49952745325219350000e+003) (10, 1.49963961984494270000e+003) (11, -1.25279404338703190000e+003) (12, 1.49595450723531600000e+003) (13, 1.49779225455464670000e+003) (14, 1.48342882023852260000e+003) (15, -1.48920949999314830000e+003) (16, 1.49846580177951360000e+003) (17, -1.50000000000000000000e+003) (18, 7.21261404337460140000e+002) (19, 1.38274587115748070000e+003) (20, 7.21261404337460140000e+002) (21, -1.50000000000000000000e+003) (22, 1.49919269144334590000e+003) (23, 1.49915219110885100000e+003) (3, -1.50000000000000000000e+003) (4, 1.38679091506391910000e+003) (5, -4.92419594269339710000e+002) (6, -1.50000000000000000000e+003) (7, 1.50000000000000000000e+003) (8, -1.50000000000000000000e+003) (9, -1.17037259199105300000e+003) (10, -1.24316069219005160000e+003) (11, 1.50000000000000000000e+003) (12, -1.01323519485394910000e+003) (13, -1.45902947143997560000e+003) (14, -8.83950334060805970000e+002) (15, 1.49946110564357200000e+003) (16, -1.43730683393597970000e+003) (17, 1.50000000000000000000e+003) (18, -1.50000000000000000000e+003) (19, -1.50000000000000000000e+003) (20, -1.50000000000000000000e+003) (21, 1.50000000000000000000e+003) (22, -1.48859035298194270000e+003) (23, 1.06431983531980860000e+003) (3, -1.50000000000000000000e+003) (4, 1.37416577693591990000e+003) (5, -3.00365464842671320000e+002) (6, -1.50000000000000000000e+003) (7, 1.50000000000000000000e+003) (8, -1.50000000000000000000e+003) (9, 6.85670995389588370000e+002) (10, 1.49923895270511120000e+003) (11, 1.50000000000000000000e+003) (12, 1.49024399977765760000e+003) (13, 1.45849823959546710000e+003) (14, -2.77502317637975040000e+000) (15, 1.07007456120504160000e+003) (16, -7.97290034747287220000e+002) (17, 9.16972063971753530000e+002) (18, -1.50000000000000000000e+003) (19, -1.50000000000000000000e+003) (20, -1.50000000000000000000e+003) (21, 1.50000000000000000000e+003) (22, -5.48558000699779200000e+002) (23, 9.16474413760327250000e+002) (3, 1.50000000000000000000e+003) (4, 1.21682979323224410000e+003) (5, -1.48669277623053360000e+003) (6, 9.34572351192230830000e+002) (7, 1.50000000000000000000e+003) (8, 1.50000000000000000000e+003) (9, 1.50000000000000000000e+003) (10, -1.50000000000000000000e+003) (11, -1.41666835655228970000e+003) (12, 1.49619222133291960000e+003) (13, 1.47845339759305830000e+003) (14, -1.24972399707223990000e+003) (15, 7.79674679283504020000e+002) (16, -3.13123427846319490000e+002) (17, 1.50000000000000000000e+003) (18, 1.50000000000000000000e+003) (19, -4.48511345774629040000e+002) (20, 1.50000000000000000000e+003) (21, 1.50000000000000000000e+003) (22, 1.17009555595121360000e+003) (23, 1.20761265298281710000e+003) (3, 1.50000000000000000000e+003) (4, 9.57201086358876860000e+002) (5, -1.35765712182280910000e+003) (6, -1.06254918140198880000e+003) (7, 1.50000000000000000000e+003) (8, 1.50000000000000000000e+003) (9, 1.48812104053441540000e+003) (10, -1.50000000000000000000e+003) (11, -1.42844959959479910000e+003) (12, 1.48812104053441540000e+003) (13, -1.49486508851445050000e+003) (14, -6.88844582003672830000e+002) (15, 1.10680972671663630000e+003) (16, -1.37520237256881640000e+003) (17, 1.50000000000000000000e+003) (18, 1.50000000000000000000e+003) (19, 4.83493858322729180000e+002) (20, 1.50000000000000000000e+003) (21, 1.50000000000000000000e+003) (22, -1.45803640289071840000e+003) (23, 1.38678439913283840000e+003) (24, 3.88435598576875180000e-002) (25, 2.18133107613740270000e-003) (26, -1.99787089842196290000e-001) (27, 7.77646260022201020000e-002) (28, -1.11225533324729200000e-001) (29, 1.39962985488116360000e-002) (30, -7.20348100384171630000e-002) (31, -2.00235643753861810000e-002) (32, -1.09133189632450110000e-001) (33, -5.44847544132615670000e-002) (34, 2.35251732862851560000e-001) (24, 3.62195278631775590000e-002) (25, -3.18270704927557530000e-003) (26, -9.21728340708715020000e-003) (27, 3.31988883412928090000e-001) (28, -2.90675470251004900000e-002) (29, -3.12232917822240130000e-003) (30, -1.15456671238364710000e-001) (31, -2.32834192786023140000e-002) (32, 9.58215012706523790000e-002) (33, 7.33273396893472100000e-002) (34, -1.32866317595098820000e-001) 
