FANN_FLO_2.1
num_layers=3
learning_rate=0.700000
connection_rate=1.000000
network_type=0
learning_momentum=0.000000
training_algorithm=2
train_error_function=1
train_stop_function=1
cascade_output_change_fraction=0.010000
quickprop_decay=-0.000100
quickprop_mu=1.750000
rprop_increase_factor=1.200000
rprop_decrease_factor=0.500000
rprop_delta_min=0.000000
rprop_delta_max=50.000000
rprop_delta_zero=0.100000
cascade_output_stagnation_epochs=12
cascade_candidate_change_fraction=0.010000
cascade_candidate_stagnation_epochs=12
cascade_max_out_epochs=150
cascade_min_out_epochs=50
cascade_max_cand_epochs=150
cascade_min_cand_epochs=50
cascade_num_candidate_groups=2
bit_fail_limit=1.00000001490116120000e-001
cascade_candidate_limit=1.00000000000000000000e+003
cascade_weight_multiplier=4.00000000000000020000e-001
cascade_activation_functions_count=10
cascade_activation_functions=3 5 7 8 10 11 14 15 16 17 
cascade_activation_steepnesses_count=4
cascade_activation_steepnesses=2.50000000000000000000e-001 5.00000000000000000000e-001 7.50000000000000000000e-001 1.00000000000000000000e+000 
layer_sizes=3 16 3 
scale_included=0
neurons (num_inputs, activation_function, activation_steepness)=(0, 0, 0.00000000000000000000e+000) (0, 0, 0.00000000000000000000e+000) (0, 0, 0.00000000000000000000e+000) (3, 5, 1.00000000000000000000e+000) (3, 5, 1.00000000000000000000e+000) (3, 5, 1.00000000000000000000e+000) (3, 5, 1.00000000000000000000e+000) (3, 5, 1.00000000000000000000e+000) (3, 5, 1.00000000000000000000e+000) (3, 5, 1.00000000000000000000e+000) (3, 5, 1.00000000000000000000e+000) (3, 5, 1.00000000000000000000e+000) (3, 5, 1.00000000000000000000e+000) (3, 5, 1.00000000000000000000e+000) (3, 5, 1.00000000000000000000e+000) (3, 5, 1.00000000000000000000e+000) (3, 5, 1.00000000000000000000e+000) (3, 5, 1.00000000000000000000e+000) (0, 5, 1.00000000000000000000e+000) (16, 0, 1.00000000000000000000e+000) (16, 0, 1.00000000000000000000e+000) (0, 0, 1.00000000000000000000e+000) 
connections (connected_to_neuron, weight)=(0, 8.24744033406228370000e-002) (1, -3.28122674292114610000e-001) (2, -5.15610200667985130000e-001) (0, -1.39757968746571290000e+000) (1, 7.81153505767700370000e-001) (2, -2.56966870996482190000e-001) (0, 1.48719902574546170000e+000) (1, 9.07393532171172360000e-001) (2, -9.12263392570106800000e-001) (0, 3.73305265113214310000e+000) (1, 1.02920057324382450000e+000) (2, -6.99220627568232440000e-001) (0, 1.77322352069591040000e+000) (1, -6.84218702524171500000e-001) (2, 3.98291182145903700000e-001) (0, -3.40314205104462420000e+002) (1, 1.09868062748028980000e+003) (2, 1.49998541759936960000e+003) (0, 4.22604547250011900000e-001) (1, -3.35221900957965610000e-001) (2, 5.84510545698044840000e-001) (0, -5.17080811976200260000e-001) (1, -4.94337986292306960000e-001) (2, 8.51034243669596570000e-001) (0, 2.99025856348810580000e+000) (1, 4.88087552739060180000e-001) (2, -2.97347644330810120000e-001) (0, 2.36820461125511090000e+000) (1, 5.96013582160065500000e-001) (2, 2.67447587052792720000e+000) (0, 4.47587683179237360000e-001) (1, 3.92228883709344610000e+000) (2, 4.02156271765268250000e-001) (0, -2.39005743816461310000e-001) (1, -3.73984275948109620000e-001) (2, -5.84344359204638230000e-001) (0, 1.33686172054931530000e-002) (1, -7.18603133440957940000e-001) (2, -4.54742075481765480000e-001) (0, -1.02804299110429430000e+000) (1, 4.33273118657306720000e-001) (2, 1.06513205265482910000e+000) (0, 3.96562574225695690000e-001) (1, 1.95533386642171500000e+000) (2, -9.67140566678324150000e-001) (3, 3.99968028730124510000e+000) (4, 2.91649552227009900000e+000) (5, 1.87595844446891150000e+000) (6, 1.14177799477087280000e+000) (7, 2.49558796147268680000e+000) (8, 4.42307726560775830000e-001) (9, 3.89280003437223380000e+000) (10, 4.59074527803846970000e+000) (11, -2.54249014506339900000e+000) (12, 3.75170793889923030000e-001) (13, 1.96381305112750980000e+000) (14, 5.07554432007038430000e+000) (15, 3.58297153627136480000e+000) (16, 2.13280287982179970000e+000) (17, 1.65974242272296850000e+000) (18, 4.66908288544694740000e-001) (3, 5.07081753635836390000e+000) (4, 4.30896822496611990000e-001) (5, 1.79463453735215130000e+000) (6, -6.25510311046572950000e-001) (7, -7.31245704051615260000e-001) (8, 9.19431392494660100000e-001) (9, 6.00345972025341990000e+000) (10, 5.97813964051715450000e+000) (11, 9.21199028913916030000e-001) (12, 3.70177037550263450000e+000) (13, 2.19083249901681710000e+000) (14, 1.13635969177548260000e+001) (15, 7.27051645995252740000e+000) (16, 3.68826067900205780000e+000) (17, 3.14370486710604880000e+000) (18, 7.07108074072837160000e-001) 
