FANN_FLO_2.1
num_layers=3
learning_rate=0.700000
connection_rate=1.000000
network_type=0
learning_momentum=0.000000
training_algorithm=2
train_error_function=1
train_stop_function=1
cascade_output_change_fraction=0.010000
quickprop_decay=-0.000100
quickprop_mu=1.750000
rprop_increase_factor=1.200000
rprop_decrease_factor=0.500000
rprop_delta_min=0.000000
rprop_delta_max=50.000000
rprop_delta_zero=0.100000
cascade_output_stagnation_epochs=12
cascade_candidate_change_fraction=0.010000
cascade_candidate_stagnation_epochs=12
cascade_max_out_epochs=150
cascade_min_out_epochs=50
cascade_max_cand_epochs=150
cascade_min_cand_epochs=50
cascade_num_candidate_groups=2
bit_fail_limit=1.00000001490116120000e-001
cascade_candidate_limit=1.00000000000000000000e+003
cascade_weight_multiplier=4.00000000000000020000e-001
cascade_activation_functions_count=10
cascade_activation_functions=3 5 7 8 10 11 14 15 16 17 
cascade_activation_steepnesses_count=4
cascade_activation_steepnesses=2.50000000000000000000e-001 5.00000000000000000000e-001 7.50000000000000000000e-001 1.00000000000000000000e+000 
layer_sizes=3 101 3 
scale_included=0
neurons (num_inputs, activation_function, activation_steepness)=(0, 0, 0.00000000000000000000e+000) (0, 0, 0.00000000000000000000e+000) (0, 0, 0.00000000000000000000e+000) (3, 5, 1.00000000000000000000e+000) (3, 5, 1.00000000000000000000e+000) (3, 5, 1.00000000000000000000e+000) (3, 5, 1.00000000000000000000e+000) (3, 5, 1.00000000000000000000e+000) (3, 5, 1.00000000000000000000e+000) (3, 5, 1.00000000000000000000e+000) (3, 5, 1.00000000000000000000e+000) (3, 5, 1.00000000000000000000e+000) (3, 5, 1.00000000000000000000e+000) (3, 5, 1.00000000000000000000e+000) (3, 5, 1.00000000000000000000e+000) (3, 5, 1.00000000000000000000e+000) (3, 5, 1.00000000000000000000e+000) (3, 5, 1.00000000000000000000e+000) (3, 5, 1.00000000000000000000e+000) (3, 5, 1.00000000000000000000e+000) (3, 5, 1.00000000000000000000e+000) (3, 5, 1.00000000000000000000e+000) (3, 5, 1.00000000000000000000e+000) (3, 5, 1.00000000000000000000e+000) (3, 5, 1.00000000000000000000e+000) (3, 5, 1.00000000000000000000e+000) (3, 5, 1.00000000000000000000e+000) (3, 5, 1.00000000000000000000e+000) (3, 5, 1.00000000000000000000e+000) (3, 5, 1.00000000000000000000e+000) (3, 5, 1.00000000000000000000e+000) (3, 5, 1.00000000000000000000e+000) (3, 5, 1.00000000000000000000e+000) (3, 5, 1.00000000000000000000e+000) (3, 5, 1.00000000000000000000e+000) (3, 5, 1.00000000000000000000e+000) (3, 5, 1.00000000000000000000e+000) (3, 5, 1.00000000000000000000e+000) (3, 5, 1.00000000000000000000e+000) (3, 5, 1.00000000000000000000e+000) (3, 5, 1.00000000000000000000e+000) (3, 5, 1.00000000000000000000e+000) (3, 5, 1.00000000000000000000e+000) (3, 5, 1.00000000000000000000e+000) (3, 5, 1.00000000000000000000e+000) (3, 5, 1.00000000000000000000e+000) (3, 5, 1.00000000000000000000e+000) (3, 5, 1.00000000000000000000e+000) (3, 5, 1.00000000000000000000e+000) (3, 5, 1.00000000000000000000e+000) (3, 5, 1.00000000000000000000e+000) (3, 5, 1.00000000000000000000e+000) (3, 5, 1.00000000000000000000e+000) (3, 5, 1.00000000000000000000e+000) (3, 5, 1.00000000000000000000e+000) (3, 5, 1.00000000000000000000e+000) (3, 5, 1.00000000000000000000e+000) (3, 5, 1.00000000000000000000e+000) (3, 5, 1.00000000000000000000e+000) (3, 5, 1.00000000000000000000e+000) (3, 5, 1.00000000000000000000e+000) (3, 5, 1.00000000000000000000e+000) (3, 5, 1.00000000000000000000e+000) (3, 5, 1.00000000000000000000e+000) (3, 5, 1.00000000000000000000e+000) (3, 5, 1.00000000000000000000e+000) (3, 5, 1.00000000000000000000e+000) (3, 5, 1.00000000000000000000e+000) (3, 5, 1.00000000000000000000e+000) (3, 5, 1.00000000000000000000e+000) (3, 5, 1.00000000000000000000e+000) (3, 5, 1.00000000000000000000e+000) (3, 5, 1.00000000000000000000e+000) (3, 5, 1.00000000000000000000e+000) (3, 5, 1.00000000000000000000e+000) (3, 5, 1.00000000000000000000e+000) (3, 5, 1.00000000000000000000e+000) (3, 5, 1.00000000000000000000e+000) (3, 5, 1.00000000000000000000e+000) (3, 5, 1.00000000000000000000e+000) (3, 5, 1.00000000000000000000e+000) (3, 5, 1.00000000000000000000e+000) (3, 5, 1.00000000000000000000e+000) (3, 5, 1.00000000000000000000e+000) (3, 5, 1.00000000000000000000e+000) (3, 5, 1.00000000000000000000e+000) (3, 5, 1.00000000000000000000e+000) (3, 5, 1.00000000000000000000e+000) (3, 5, 1.00000000000000000000e+000) (3, 5, 1.00000000000000000000e+000) (3, 5, 1.00000000000000000000e+000) (3, 5, 1.00000000000000000000e+000) (3, 5, 1.00000000000000000000e+000) (3, 5, 1.00000000000000000000e+000) (3, 5, 1.00000000000000000000e+000) (3, 5, 1.00000000000000000000e+000) (3, 5, 1.00000000000000000000e+000) (3, 5, 1.00000000000000000000e+000) (3, 5, 1.00000000000000000000e+000) (3, 5, 1.00000000000000000000e+000) (3, 5, 1.00000000000000000000e+000) (3, 5, 1.00000000000000000000e+000) (3, 5, 1.00000000000000000000e+000) (0, 5, 1.00000000000000000000e+000) (101, 0, 1.00000000000000000000e+000) (101, 0, 1.00000000000000000000e+000) (0, 0, 1.00000000000000000000e+000) 
connections (connected_to_neuron, weight)=(0, 1.96309453513288630000e+000) (1, -1.79590058539531980000e+000) (2, 1.73813726868725490000e+000) (0, -2.74039406907692440000e+000) (1, -4.32669447730880120000e+000) (2, -1.11541774137063140000e+000) (0, 2.19576544902330050000e+000) (1, 2.34495540659346040000e+000) (2, 3.74522267055487350000e+000) (0, 8.41899660365281080000e-001) (1, 2.74096096076567570000e+000) (2, 1.38043175596809650000e+000) (0, 3.96255459617440040000e+000) (1, 6.87978570395966840000e+000) (2, 7.32870432827801910000e+000) (0, 1.14637496575840840000e+000) (1, 7.35723459075112830000e-001) (2, 1.67468349177866640000e+000) (0, 2.83963081345797400000e+000) (1, 2.38768633731629310000e+000) (2, 4.22836486946904430000e+000) (0, 1.50000000000000000000e+003) (1, 1.50000000000000000000e+003) (2, 1.50000000000000000000e+003) (0, 4.59988213496865970000e-001) (1, -1.17982531539931350000e+000) (2, 1.13573734519514420000e+000) (0, 1.29792796539044650000e+000) (1, 2.89685707676982320000e+000) (2, 3.34662505505921850000e+000) (0, 2.69225619635414980000e+000) (1, 2.13193654335806780000e-001) (2, -2.73321971412747440000e-001) (0, 7.88813998763093330000e-001) (1, -8.79287184417896330000e-001) (2, -8.17463421081930150000e-001) (0, 1.50000000000000000000e+003) (1, 1.49988263999540410000e+003) (2, 1.49988244799539370000e+003) (0, 1.50000000000000000000e+003) (1, 1.49988263999540410000e+003) (2, 1.49988244799539370000e+003) (0, 1.50000000000000000000e+003) (1, 1.50000000000000000000e+003) (2, 1.50000000000000000000e+003) (0, -4.45841380183803370000e-001) (1, 7.05080685563216350000e-001) (2, 7.30780601630134700000e-001) (0, 5.15385139490048250000e+000) (1, 5.45000721112872100000e+000) (2, 6.19047982557145280000e+000) (0, 4.11057795354611600000e+000) (1, 1.10313688592501350000e+000) (2, 3.48458841323435120000e+000) (0, -8.26077629534760380000e-001) (1, 1.06921372951423920000e+000) (2, -2.22638069419035690000e-001) (0, 4.66014512404187100000e+000) (1, 7.77699160372938070000e-001) (2, -8.76454744289291710000e-001) (0, -2.32769233532518630000e-001) (1, 4.23957658313192810000e+000) (2, 4.92068514905403290000e+000) (0, -7.28773771038626620000e-001) (1, -7.03342012461992350000e-001) (2, 6.93459515454837310000e-001) (0, 3.91053921118872340000e+000) (1, 6.10611139169702350000e+000) (2, 7.29029561783341600000e+000) (0, 1.81777321735552320000e+000) (1, 4.91321540351947820000e-002) (2, -1.02567216844774480000e-001) (0, 4.28664772733652330000e-001) (1, 1.82542476096982130000e+000) (2, 2.27056988103179290000e+000) (0, 8.51651905540469990000e-001) (1, -1.04764260399414510000e+000) (2, 4.53129205712125670000e-001) (0, 2.59559199194960130000e+000) (1, 1.51123608581594130000e+000) (2, 9.71397227181668990000e-001) (0, -1.51943125924988350000e+000) (1, -6.93434280028821020000e-001) (2, 1.40093280886947120000e+000) (0, 1.64507000365764330000e+000) (1, 9.07447527422380880000e-002) (2, -1.28839934359063930000e+000) (0, -2.24181237968363470000e+000) (1, 1.10752468252143890000e+000) (2, 2.79278793326897290000e+000) (0, 3.92081060241387910000e+000) (1, 6.85147200471588480000e+000) (2, 7.35217040830912970000e+000) (0, 2.01866797245498560000e+000) (1, 2.01655715272806060000e+000) (2, 3.45437186065531860000e+000) (0, 1.46972683361457460000e+003) (1, 1.46097396743482160000e+003) (2, 1.48936458788986510000e+003) (0, -5.75403772195448800000e-001) (1, 8.34891762563567790000e-001) (2, 1.20037453781945410000e+000) (0, 3.53094203892152110000e+000) (1, 3.79765986349132190000e+000) (2, 4.43069412240082090000e+000) (0, 4.60677937729215610000e+000) (1, 1.49988269999540650000e+003) (2, 1.50000000000000000000e+003) (0, 3.22749668605346670000e-002) (1, 2.49652922195282070000e-001) (2, 9.05472983103841610000e-001) (0, 1.50000000000000000000e+003) (1, 1.10618735445911760000e+003) (2, 1.49988244799539370000e+003) (0, 7.65120432369938760000e-001) (1, 2.64253309095271540000e+000) (2, 3.49728221018335890000e+000) (0, 1.50000000000000000000e+003) (1, 1.48587145924364150000e+003) (2, 1.37923192548783660000e+003) (0, 5.99228758129732090000e-001) (1, 5.35163494868183490000e-001) (2, 9.92230440943720620000e-002) (0, 1.50000000000000000000e+003) (1, 1.50000000000000000000e+003) (2, 1.50000000000000000000e+003) (0, 3.95837454181663380000e+000) (1, 6.54383345438181860000e+000) (2, 7.26998536973761310000e+000) (0, 1.50000000000000000000e+003) (1, 1.50000000000000000000e+003) (2, 1.50000000000000000000e+003) (0, 2.75173798651274160000e+000) (1, 5.98154630161969700000e+000) (2, 7.27306894616191710000e+000) (0, 1.21881265287034000000e+000) (1, -2.70105391084899840000e-001) (2, 7.89385097586221000000e-001) (0, 2.89191043630585880000e+000) (1, 5.96010848754396600000e+000) (2, 7.12501900161745110000e+000) (0, 3.38340435170639830000e-001) (1, 7.49393527593200550000e-001) (2, 2.01473789861121720000e+000) (0, 4.33617371165989770000e+000) (1, 4.34231074523090310000e+000) (2, 4.52845756079257370000e+000) (0, 2.05669335638132140000e+000) (1, 1.18828727113226760000e+000) (2, 1.89230460959359690000e+000) (0, 1.29007364309784830000e+000) (1, 2.19923892167458240000e+001) (2, 7.66996545959924280000e-001) (0, 1.96323193614222650000e+002) (1, -7.57029002772073910000e+002) (2, 1.40082449239732480000e+003) (0, -1.79994009129443990000e+000) (1, -9.78163376195217870000e-001) (2, -1.25473797837021910000e+000) (0, 3.97700077672274780000e+000) (1, 6.86722548144167620000e+000) (2, 7.36482699423256900000e+000) (0, 7.77527109190112700000e-001) (1, 1.57074334872971270000e+000) (2, 1.75670655059660710000e+000) (0, 1.50000000000000000000e+003) (1, 1.49988269999540650000e+003) (2, 1.50000000000000000000e+003) (0, -7.46008582398369420000e-001) (1, 2.05119452047492070000e-001) (2, 9.13536616873443900000e-001) (0, -2.10387371796952300000e-001) (1, 8.57470773539799280000e-001) (2, -1.29832581031860530000e+000) (0, 2.88974392801686040000e+000) (1, 6.21353753916232330000e+000) (2, 6.11418134048732400000e+000) (0, -3.23993890471275580000e+000) (1, -1.10523329368762240000e+000) (2, -8.81600548527042620000e-001) (0, -2.71838070289049760000e+000) (1, -9.55447054092927740000e-001) (2, 2.11767925400629590000e+000) (0, 4.21655490291438720000e+000) (1, 4.94358607587915430000e+000) (2, 7.56474198687405240000e+000) (0, -2.23456610711527000000e-001) (1, 3.06298859718572200000e+000) (2, 3.46869176827052380000e+000) (0, 5.69161190142862040000e-001) (1, 1.32150831184033610000e+000) (2, 3.19857236275002600000e+000) (0, 3.78000241284352170000e+000) (1, 6.12475536788514590000e+000) (2, 7.31299188204720880000e+000) (0, -1.78870580235039030000e+000) (1, 4.15510510478708730000e-002) (2, 2.23900015208446600000e-001) (0, 4.80856918198332710000e-001) (1, 1.78104483608914640000e+000) (2, -2.55993135838181840000e-001) (0, -9.18442579233853420000e-001) (1, 4.75820827004304890000e-001) (2, -3.93527208507465200000e-001) (0, 3.77280293520258600000e+000) (1, 5.94445277297265220000e+000) (2, 7.10209350228626680000e+000) (0, -2.58322295503807810000e+000) (1, -7.41815055729102000000e-001) (2, 1.98691506291952890000e+000) (0, 4.14493537528698930000e+000) (1, 3.25576009193266990000e+000) (2, 3.57279133571641470000e+000) (0, 3.46810289083104740000e-001) (1, 8.14150985854132150000e-001) (2, 2.69302740086694440000e+000) (0, 1.50000000000000000000e+003) (1, 1.50000000000000000000e+003) (2, 1.50000000000000000000e+003) (0, 2.77112214100221750000e+000) (1, 7.53896814449377730000e-001) (2, 1.86286765448258860000e+000) (0, 9.07183030406812580000e-001) (1, 1.26785752620790500000e+000) (2, 2.11152497144203720000e+000) (0, 3.09944379379277600000e-001) (1, 1.31536092623155800000e+000) (2, 2.53086432990789590000e+000) (0, 3.82528160215535710000e-001) (1, 7.44598428012171880000e-002) (2, 2.08231626930625560000e+000) (0, 4.07266050325570640000e+000) (1, 1.50000000000000000000e+003) (2, 1.50000000000000000000e+003) (0, -2.80919200802573880000e-001) (1, 1.91429843925222690000e-001) (2, 6.90423844014454890000e-001) (0, -4.55850799135370410000e-001) (1, 7.27493674704608570000e-001) (2, 1.80698361991348720000e+000) (0, -9.79904914711159810000e-001) (1, 1.39505622292304050000e+000) (2, -1.75767914738115210000e-001) (0, 1.50000000000000000000e+003) (1, 1.49988251999539940000e+003) (2, 1.49988181919534650000e+003) (0, -3.26667200749735100000e+000) (1, -2.84678973065892250000e+000) (2, 3.13619242160520880000e+000) (0, 3.92534778907064290000e-001) (1, -1.34092829935474670000e-001) (2, 3.29864790076607290000e-001) (0, 7.27521320151672150000e-001) (1, -1.30876414626425870000e+000) (2, 3.59738535619985190000e+000) (0, 5.56925714477585100000e-001) (1, 2.37747843383421030000e-001) (2, 1.07932978840511300000e+000) (0, 1.84214476720101240000e-001) (1, -4.03990569771571440000e-001) (2, 4.76516763390444350000e-001) (0, -7.19958507740924740000e-001) (1, -1.89809717243349300000e+000) (2, 2.98949947851045430000e+000) (0, 1.50000000000000000000e+003) (1, 1.50000000000000000000e+003) (2, 1.50000000000000000000e+003) (0, 1.11366006532208140000e-001) (1, -6.03980127558980810000e-002) (2, -1.11973019476366620000e-002) (0, 3.19980537734942340000e-001) (1, 1.71650756735747030000e+000) (2, 2.43266982138800180000e+000) (0, -9.92412651123534830000e-001) (1, 6.67980267728114360000e-001) (2, 1.27744245559301950000e+000) (0, 4.63491717266353240000e-001) (1, 1.33420706351972430000e+000) (2, 2.31416265760254140000e+000) (0, -7.47704105986589370000e-002) (1, -3.94219987802508160000e-001) (2, -1.73589483509148210000e-001) (0, 1.61469238953013180000e-001) (1, 7.07271073142337610000e-001) (2, 2.73050388546605300000e+000) (0, 1.50000000000000000000e+003) (1, 1.50000000000000000000e+003) (2, 1.50000000000000000000e+003) (0, 2.81622228510707370000e+000) (1, -4.43070776697263200000e+000) (2, 8.65107499098505370000e-001) (0, 1.50000000000000000000e+003) (1, 1.50000000000000000000e+003) (2, 1.50000000000000000000e+003) (0, 1.50000000000000000000e+003) (1, 1.49988269999540650000e+003) (2, 1.50000000000000000000e+003) (0, 1.79605965063071090000e+000) (1, 1.49988251999539940000e+003) (2, 1.49988134879531530000e+003) (3, 8.61084523616141740000e-001) (4, 1.41074408156904260000e+000) (5, -2.31646619820230740000e-001) (6, -3.94937532513990550000e-001) (7, -1.29074029419561280000e+000) (8, 2.78097049540506090000e+000) (9, -2.30183909086302970000e+000) (10, -2.58340925029730560000e+000) (11, 4.96548311248893040000e-001) (12, 3.53473649689337920000e-001) (13, -1.79889195548561130000e+000) (14, 6.00209344599314590000e+000) (15, -7.55318273094977900000e-001) (16, -1.30132690352385860000e+000) (17, -1.45258212386076550000e+000) (18, 4.05733761511502600000e+000) (19, -1.15077320609892290000e+000) (20, 1.25105498302738980000e+000) (21, 1.79546051629316410000e+000) (22, 3.11099304235846610000e-002) (23, 2.63157570116168530000e-001) (24, 3.73534223905094590000e+000) (25, -1.25626218589702670000e+000) (26, 5.32286552402135720000e+000) (27, -1.36902194470412810000e+000) (28, 6.87041233330877430000e+000) (29, 5.16179111650207360000e-001) (30, 1.36382089642976930000e+000) (31, 5.28470485172883730000e+000) (32, 6.10098020803869100000e-001) (33, -1.26670864894395270000e+000) (34, -1.68030755219566410000e+000) (35, -1.21761673384426360000e+000) (36, 9.92460246704564120000e-001) (37, -2.60378904051585060000e+000) (38, -2.80937625728485290000e+000) (39, 1.61592057249572060000e+000) (40, -1.15661949158953490000e+000) (41, -2.68163007797314900000e+000) (42, -1.22950902613741350000e+000) (43, 4.77595201752038000000e+000) (44, -1.29417275368198180000e+000) (45, -1.27643103718303700000e+000) (46, -1.32233149333465350000e+000) (47, -1.23740555045516440000e+000) (48, 2.95870997594041400000e-001) (49, -1.21034425376953640000e+000) (50, 1.94958997743729820000e+000) (51, -1.91566499440529730000e+000) (52, 2.41510539386919460000e+000) (53, 1.17322267938532620000e+000) (54, 6.64612817644504440000e-002) (55, 5.21153768271051820000e+000) (56, -1.30478237494227380000e+000) (57, 1.04851044914835460000e+000) (58, -1.97930081223741070000e+000) (59, 2.71270869346029380000e+000) (60, 7.50818591331612510000e+000) (61, -1.16991754760983450000e+000) (62, 4.63332869059393640000e-001) (63, -3.54557508697269710000e-001) (64, -1.29821111390277880000e+000) (65, 1.58875604124359550000e+000) (66, 1.50945685324590120000e+000) (67, -1.25374164262334560000e+000) (68, 2.20781135422992490000e+000) (69, -3.24031477586614660000e-001) (70, 6.40503085276315960000e+000) (71, -1.25201921669565520000e+000) (72, 1.63042251192534970000e+000) (73, 1.98566757539226440000e+000) (74, 5.66248169671436430000e-001) (75, -1.14975174523706560000e+000) (76, 4.75044837665512810000e-001) (77, 9.01813450108949530000e-001) (78, 2.06587486375635840000e+000) (79, 1.01562888877278950000e+001) (80, -2.49419187417085380000e+000) (81, 3.23620504698794600000e+000) (82, 2.52135917092909490000e+001) (83, 4.28449779551709310000e+000) (84, -8.34572815940554660000e-001) (85, -1.22809589199686600000e-001) (86, 1.06432169786725180000e+000) (87, -1.66588925474450620000e-001) (88, 2.65135558718537780000e+000) (89, 4.90235170265755030000e+000) (90, 4.87817833056785670000e-001) (91, -9.11732822136320120000e-001) (92, 7.60834429776318900000e+000) (93, 1.74629283917051280000e+000) (94, 1.12551309472888030000e+000) (95, 1.24524759096391650000e+000) (96, 7.26857746422617980000e+000) (97, 2.15139587843938740000e+000) (98, -1.17374653862990000000e+000) (99, 2.59172055121235920000e-001) (100, -1.86705410185097140000e+000) (101, -2.55220692234304410000e+000) (102, -6.39994021609075920000e-001) (103, -6.79764637331275120000e-001) (3, -1.02505563628785890000e+000) (4, 1.30173624544767040000e+000) (5, -2.20787909609967500000e+000) (6, -1.36513221600986690000e+000) (7, -2.33501669625788950000e+000) (8, 8.95185612590959300000e-001) (9, -2.08495602672152410000e+000) (10, 1.13362378340847750000e+000) (11, -6.59308400869314390000e-002) (12, 1.01294138801111970000e-001) (13, -1.28924587193843170000e+000) (14, 6.90978994350698010000e+000) (15, -4.41002630038620890000e-001) (16, -6.23716862687919480000e-001) (17, -1.14160713635212880000e-002) (18, 3.66348598680708680000e+000) (19, -1.37922511930175000000e+000) (20, 1.12271961198345190000e+000) (21, -1.01695573680985100000e-001) (22, -5.48933711668140980000e-001) (23, 1.59631933007249180000e-001) (24, 5.64274924105283660000e+000) (25, -2.32968222211159230000e+000) (26, 5.86846564455913100000e+000) (27, -8.10450763709329590000e-002) (28, 3.10746210555042830000e+000) (29, -9.32945368395553980000e-001) (30, -9.70791912672020360000e-001) (31, 6.97267472437210210000e-001) (32, 2.07521215467703630000e-001) (33, -2.34249889946359290000e+000) (34, -1.33937782837233410000e+000) (35, 3.69011692214582020000e-001) (36, 1.05718911278052710000e+000) (37, -2.41556726130449650000e+000) (38, -4.82383584133502070000e-001) (39, -2.33079258480935860000e-001) (40, -6.95235272897864580000e-001) (41, -6.47452374984003100000e-001) (42, -5.76181973673728590000e-001) (43, 4.41754932476143750000e+000) (44, 1.11017517091579140000e+000) (45, -2.37234546123963150000e+000) (46, 6.07971585215282620000e-002) (47, -2.31103864660462270000e+000) (48, -1.81974591749015120000e-001) (49, -2.41825864188636250000e+000) (50, 4.39263898605794350000e-001) (51, -3.40628727803954760000e-001) (52, 2.11116586127450480000e+000) (53, -5.42931717709509430000e-001) (54, -5.59372047290483180000e-001) (55, 1.12157922614897300000e+000) (56, -2.31904309338731140000e+000) (57, -5.46646617799790780000e-003) (58, -4.84186559925453950000e-001) (59, 4.18187024397176540000e+000) (60, 5.41175153431132320000e-001) (61, -2.37013297495489890000e+000) (62, -5.07344975493647320000e-001) (63, 1.03690871464902830000e+000) (64, -2.30027527040960060000e+000) (65, 1.56860529986123900000e-001) (66, 1.31378450710839530000e+000) (67, -2.33062826703345620000e+000) (68, 4.73560553460765890000e-003) (69, 1.82921848531470530000e+000) (70, 1.58202072009714880000e+000) (71, -2.40988162161142450000e+000) (72, -3.20850485702442730000e-001) (73, 1.22283313995531070000e+000) (74, 3.44257449145155330000e-001) (75, 4.49938503974079580000e-001) (76, 9.51653264108081380000e-001) (77, 1.78051474429958500000e-001) (78, 1.10661273760934710000e+000) (79, 7.50054193946124490000e+000) (80, -6.64743190023602050000e-001) (81, 5.54288565151813200000e+000) (82, 2.08246600712118060000e+001) (83, 6.15765567347685310000e+000) (84, -6.82783803901901850000e-001) (85, -5.59141639176845780000e-001) (86, -6.78851559648707970000e-002) (87, -9.46887534807893780000e-001) (88, 2.12572336896271040000e+000) (89, 2.60448764824683640000e+000) (90, 2.03627324920007650000e-001) (91, 6.98333738845451250000e-001) (92, 5.21461992447148770000e+000) (93, 9.63314939379128600000e-001) (94, -7.61146536871890390000e-003) (95, 1.19601850233053960000e+000) (96, 1.92952728231545730000e+001) (97, 2.47834805440072170000e+000) (98, 4.49126465357726660000e-001) (99, 5.58259483973193470000e-001) (100, -5.95849342152448450000e-001) (101, -5.58294531240270620000e-001) (102, -5.70640801082662690000e-001) (103, -1.64013791694203230000e+000) 
