FANN_FLO_2.1
num_layers=3
learning_rate=0.700000
connection_rate=1.000000
network_type=0
learning_momentum=0.000000
training_algorithm=2
train_error_function=1
train_stop_function=1
cascade_output_change_fraction=0.010000
quickprop_decay=-0.000100
quickprop_mu=1.750000
rprop_increase_factor=1.200000
rprop_decrease_factor=0.500000
rprop_delta_min=0.000000
rprop_delta_max=50.000000
rprop_delta_zero=0.100000
cascade_output_stagnation_epochs=12
cascade_candidate_change_fraction=0.010000
cascade_candidate_stagnation_epochs=12
cascade_max_out_epochs=150
cascade_min_out_epochs=50
cascade_max_cand_epochs=150
cascade_min_cand_epochs=50
cascade_num_candidate_groups=2
bit_fail_limit=1.00000001490116120000e-001
cascade_candidate_limit=1.00000000000000000000e+003
cascade_weight_multiplier=4.00000000000000020000e-001
cascade_activation_functions_count=10
cascade_activation_functions=3 5 7 8 10 11 14 15 16 17 
cascade_activation_steepnesses_count=4
cascade_activation_steepnesses=2.50000000000000000000e-001 5.00000000000000000000e-001 7.50000000000000000000e-001 1.00000000000000000000e+000 
layer_sizes=3 36 3 
scale_included=0
neurons (num_inputs, activation_function, activation_steepness)=(0, 0, 0.00000000000000000000e+000) (0, 0, 0.00000000000000000000e+000) (0, 0, 0.00000000000000000000e+000) (3, 5, 1.00000000000000000000e+000) (3, 5, 1.00000000000000000000e+000) (3, 5, 1.00000000000000000000e+000) (3, 5, 1.00000000000000000000e+000) (3, 5, 1.00000000000000000000e+000) (3, 5, 1.00000000000000000000e+000) (3, 5, 1.00000000000000000000e+000) (3, 5, 1.00000000000000000000e+000) (3, 5, 1.00000000000000000000e+000) (3, 5, 1.00000000000000000000e+000) (3, 5, 1.00000000000000000000e+000) (3, 5, 1.00000000000000000000e+000) (3, 5, 1.00000000000000000000e+000) (3, 5, 1.00000000000000000000e+000) (3, 5, 1.00000000000000000000e+000) (3, 5, 1.00000000000000000000e+000) (3, 5, 1.00000000000000000000e+000) (3, 5, 1.00000000000000000000e+000) (3, 5, 1.00000000000000000000e+000) (3, 5, 1.00000000000000000000e+000) (3, 5, 1.00000000000000000000e+000) (3, 5, 1.00000000000000000000e+000) (3, 5, 1.00000000000000000000e+000) (3, 5, 1.00000000000000000000e+000) (3, 5, 1.00000000000000000000e+000) (3, 5, 1.00000000000000000000e+000) (3, 5, 1.00000000000000000000e+000) (3, 5, 1.00000000000000000000e+000) (3, 5, 1.00000000000000000000e+000) (3, 5, 1.00000000000000000000e+000) (3, 5, 1.00000000000000000000e+000) (3, 5, 1.00000000000000000000e+000) (3, 5, 1.00000000000000000000e+000) (3, 5, 1.00000000000000000000e+000) (3, 5, 1.00000000000000000000e+000) (0, 5, 1.00000000000000000000e+000) (36, 0, 1.00000000000000000000e+000) (36, 0, 1.00000000000000000000e+000) (0, 0, 1.00000000000000000000e+000) 
connections (connected_to_neuron, weight)=(0, 2.06677237783701590000e-001) (1, -3.88570583401885110000e+000) (2, 4.70285975415782700000e+000) (0, 7.76283108202613510000e-002) (1, 1.30061615409911460000e+000) (2, -1.40712891168009930000e+000) (0, 3.36266006674316390000e-001) (1, -5.11983589263939830000e-001) (2, -2.89038107494748950000e-001) (0, -3.95274505927523890000e-001) (1, 1.92207885191194270000e+000) (2, 1.07761302893022590000e+000) (0, -2.21862752767173240000e-001) (1, -5.38926648356536920000e-001) (2, 1.94012174934496850000e+000) (0, -6.63119532666419880000e-001) (1, 3.40185732050927260000e+000) (2, 1.22534498189174430000e+000) (0, -7.30174854125459210000e+002) (1, 1.45529344638670000000e+003) (2, 7.48860434338285700000e+002) (0, 1.63102671632460260000e+000) (1, -6.00251697206667160000e-001) (2, -1.75786588356863000000e+000) (0, -7.51616225653181510000e-002) (1, 2.22317005077570950000e+000) (2, -2.34431916444183310000e+000) (0, -2.67086265532410160000e-001) (1, -1.33961029143071770000e+000) (2, 1.54213152109872160000e+000) (0, 2.09314125490252860000e-001) (1, -6.79659775256751250000e-001) (2, 6.44456947042871040000e-001) (0, 1.48753365650958070000e+000) (1, 2.97681527724460130000e+000) (2, -2.50875150752186740000e+000) (0, 1.93801908491133120000e+000) (1, 3.78153372459525670000e+000) (2, 3.54992245602265030000e+000) (0, -8.58223747895411340000e-001) (1, 4.44231803517067010000e+000) (2, 7.82281614488417710000e+000) (0, 3.66456763011582480000e-001) (1, -2.16541931254294040000e+000) (2, -2.49478415316602260000e+000) (0, 3.26585826941788770000e+000) (1, -1.43328247805388530000e+000) (2, 4.12653003897131750000e+000) (0, 3.73706174798022420000e+000) (1, 3.12695712589233230000e-001) (2, 5.90923074105716580000e+000) (0, 7.04716789797053320000e-001) (1, 3.45102005660300070000e+000) (2, 4.40019079352480350000e+000) (0, 9.72027709752602690000e-002) (1, 3.16769485893505590000e+001) (2, 5.49150468897276230000e+000) (0, -9.60480402409562890000e-001) (1, 7.16162520749558880000e-001) (2, 7.31464610373123490000e-001) (0, 3.33236439878093150000e-001) (1, -3.10843698843000600000e+000) (2, 3.50140056935199160000e+000) (0, -5.31226911802041620000e-001) (1, -1.41596239450229810000e+000) (2, 1.38242175315484840000e+000) (0, 8.53121155389679200000e-002) (1, 7.47590422442035660000e-001) (2, -6.97151461960151990000e-001) (0, 1.50000000000000000000e+003) (1, 1.49609643913503830000e+003) (2, 1.49963843998584120000e+003) (0, -4.27941506057436800000e-001) (1, 3.46357204689044350000e-001) (2, 1.45158990369293760000e+000) (0, -4.57090244662497760000e-001) (1, 2.28659826150512300000e+000) (2, 3.44151477384776250000e+000) (0, 1.63764630930364620000e+000) (1, -3.07897447919246360000e+000) (2, -1.75356418950754510000e+000) (0, -1.68063727397712940000e+000) (1, -3.95523260552028740000e-001) (2, 1.74429482153437880000e+000) (0, 4.29398240206999850000e-001) (1, -3.06546908411506170000e-001) (2, -7.09445805513360230000e-001) (0, 1.19585800568698830000e+000) (1, -1.51307137203925410000e+000) (2, -3.26721364576240260000e-002) (0, -1.17769438620545440000e-001) (1, -1.90219375216467630000e+000) (2, 2.05883628401017080000e+000) (0, 1.67579285499153520000e-001) (1, 6.92528728872046640000e-001) (2, -1.94070778446100880000e+000) (0, 3.03360690867329370000e+000) (1, -1.29242321950027810000e+000) (2, 3.59915243501300170000e+000) (0, 1.56712419593331020000e+000) (1, -1.92818099258222000000e+000) (2, 4.02384595035545860000e-001) (0, -2.34716648454785660000e+000) (1, 7.90288531846695790000e-001) (2, 2.84996835369550670000e+000) (3, 3.28306197810347160000e+000) (4, 6.12833544190752290000e+000) (5, 4.51227073067695980000e+000) (6, 2.83906144037832360000e+000) (7, 1.42114969169119810000e+000) (8, 5.17068909893110270000e+000) (9, -1.26881814051790890000e+000) (10, 9.37272862400998050000e-001) (11, 4.43577891859207530000e+000) (12, 1.82461722962340220000e+000) (13, 1.16059774553608030000e+000) (14, 1.84547522737982070000e+000) (15, -2.64867301517503820000e+000) (16, 2.49842592047114790000e+000) (17, 4.42498174685734470000e+000) (18, -2.39029591799198560000e+000) (19, -2.26413736135043120000e+000) (20, 1.27753286122854260000e+000) (21, 3.97784079837699080000e+000) (22, 7.90357398828073170000e+000) (23, -2.20912957318308050000e+000) (24, 6.96262633370310270000e+000) (25, 1.62098910566759250000e+000) (26, -1.88910554435334640000e+000) (27, 7.36839080903909260000e-001) (28, 7.90276375677970820000e-001) (29, 4.91730271668976470000e+000) (30, -2.00622672939104520000e+000) (31, 7.74718162087215310000e+000) (32, 1.73885702439533340000e+000) (33, 7.03587199733132970000e+000) (34, 2.45338428569292420000e+000) (35, 2.50708057136600230000e+000) (36, -1.66811387878909610000e+000) (37, 5.17018172809728860000e+000) (38, -1.89093576325200980000e+000) (3, -7.13157251989402720000e-001) (4, 5.59732321775043220000e+000) (5, 8.43598576684947690000e+000) (6, 4.32903274517069560000e+000) (7, 5.29031632408590900000e+000) (8, -1.74894815044988520000e-001) (9, 2.63561199729358540000e+000) (10, 5.21273154973022290000e+000) (11, 8.64772027720125710000e+000) (12, 5.54928404263770680000e+000) (13, 2.98162206431210430000e+000) (14, 1.48634604852337880000e+000) (15, -2.75025639517024120000e+000) (16, 3.01196254698241540000e+000) (17, 8.64948419143362020000e+000) (18, 3.10359287730013380000e+000) (19, -2.70110254624908390000e+000) (20, 3.04197469708011910000e+000) (21, 2.00113629010936790000e+000) (22, 9.72376620619714060000e+000) (23, 4.48479104043239920000e+000) (24, 4.71825900357253670000e+000) (25, 5.83148852212001590000e+000) (26, -2.46368682295684940000e+000) (27, 1.78112005777506680000e+000) (28, 1.87047099002826830000e+000) (29, 3.14745018424167300000e-001) (30, 1.54756612943850720000e+000) (31, 8.33821171556443550000e+000) (32, 1.43761292836320820000e+000) (33, 6.76119272028230610000e+000) (34, 5.75804953414454520000e+000) (35, -1.38385778687339990000e+000) (36, -7.70101998076528460000e-001) (37, 3.75986019657284400000e+000) (38, -2.42319097224414160000e+000) 
