FANN_FLO_2.1
num_layers=3
learning_rate=0.700000
connection_rate=1.000000
network_type=1
learning_momentum=0.000000
training_algorithm=2
train_error_function=1
train_stop_function=1
cascade_output_change_fraction=0.010000
quickprop_decay=-0.000100
quickprop_mu=1.750000
rprop_increase_factor=1.200000
rprop_decrease_factor=0.500000
rprop_delta_min=0.000000
rprop_delta_max=50.000000
rprop_delta_zero=0.100000
cascade_output_stagnation_epochs=12
cascade_candidate_change_fraction=0.010000
cascade_candidate_stagnation_epochs=12
cascade_max_out_epochs=150
cascade_min_out_epochs=50
cascade_max_cand_epochs=150
cascade_min_cand_epochs=50
cascade_num_candidate_groups=2
bit_fail_limit=1.00000001490116120000e-001
cascade_candidate_limit=1.00000000000000000000e+003
cascade_weight_multiplier=4.00000000000000020000e-001
cascade_activation_functions_count=10
cascade_activation_functions=3 5 7 8 10 11 14 15 16 17 
cascade_activation_steepnesses_count=4
cascade_activation_steepnesses=2.50000000000000000000e-001 5.00000000000000000000e-001 7.50000000000000000000e-001 1.00000000000000000000e+000 
layer_sizes=16 20 6 
scale_included=0
neurons (num_inputs, activation_function, activation_steepness)=(0, 0, 0.00000000000000000000e+000) (0, 0, 0.00000000000000000000e+000) (0, 0, 0.00000000000000000000e+000) (0, 0, 0.00000000000000000000e+000) (0, 0, 0.00000000000000000000e+000) (0, 0, 0.00000000000000000000e+000) (0, 0, 0.00000000000000000000e+000) (0, 0, 0.00000000000000000000e+000) (0, 0, 0.00000000000000000000e+000) (0, 0, 0.00000000000000000000e+000) (0, 0, 0.00000000000000000000e+000) (0, 0, 0.00000000000000000000e+000) (0, 0, 0.00000000000000000000e+000) (0, 0, 0.00000000000000000000e+000) (0, 0, 0.00000000000000000000e+000) (0, 0, 0.00000000000000000000e+000) (16, 5, 1.00000000000000000000e+000) (16, 5, 1.00000000000000000000e+000) (16, 5, 1.00000000000000000000e+000) (16, 5, 1.00000000000000000000e+000) (16, 5, 1.00000000000000000000e+000) (16, 5, 1.00000000000000000000e+000) (16, 5, 1.00000000000000000000e+000) (16, 5, 1.00000000000000000000e+000) (16, 5, 1.00000000000000000000e+000) (16, 5, 1.00000000000000000000e+000) (16, 5, 1.00000000000000000000e+000) (16, 5, 1.00000000000000000000e+000) (16, 5, 1.00000000000000000000e+000) (16, 5, 1.00000000000000000000e+000) (16, 5, 1.00000000000000000000e+000) (16, 5, 1.00000000000000000000e+000) (16, 5, 1.00000000000000000000e+000) (16, 5, 1.00000000000000000000e+000) (16, 5, 1.00000000000000000000e+000) (16, 5, 1.00000000000000000000e+000) (36, 0, 1.00000000000000000000e+000) (36, 0, 1.00000000000000000000e+000) (36, 0, 1.00000000000000000000e+000) (36, 0, 1.00000000000000000000e+000) (36, 0, 1.00000000000000000000e+000) (36, 0, 1.00000000000000000000e+000) 
connections (connected_to_neuron, weight)=(0, 2.87193990216450560000e+000) (1, 3.72055976485301660000e+000) (2, -8.11941180152636720000e-001) (3, 3.31252993725439090000e-002) (4, 1.23023227595936960000e-002) (5, -4.46514397783715890000e-003) (6, -2.86923818592113520000e-001) (7, -3.37599745460070600000e-001) (8, 9.23457330662198070000e-002) (9, 5.83280681017149290000e-005) (10, 4.99869161081566240000e-003) (11, 1.20633032042049250000e-003) (12, 2.97321424192998870000e-003) (13, -3.43181483404851760000e-004) (14, 1.48206686397370460000e-003) (15, 7.55149892678334660000e-001) (0, 3.73766809002291730000e+000) (1, 8.97039073891918370000e+000) (2, -7.29673356158947240000e-001) (3, -1.42983145590265380000e-002) (4, -2.23681793047010130000e-002) (5, 1.09034490493320650000e-002) (6, -7.42880824976978830000e-001) (7, -2.00510619736446170000e+000) (8, 1.46991802791415550000e-001) (9, -7.88119109224820650000e-003) (10, 1.17595674437014140000e-002) (11, -1.54402652989344860000e-003) (12, 1.05173903616273790000e-002) (13, -1.48698920642764710000e-003) (14, 3.16380246793255890000e-003) (15, 1.42417747694823960000e-001) (0, 3.82448387521410640000e+000) (1, 1.64984745053862400000e+000) (2, -3.20136943017839630000e-001) (3, 3.93871943167700550000e-002) (4, 5.54659032192662970000e-002) (5, -8.31519849734090390000e-003) (6, -1.90762980506148020000e+000) (7, -1.90970039197039450000e-001) (8, 8.38366160294160280000e-002) (9, 4.31227482307543470000e-004) (10, -9.22161364234706100000e-003) (11, -1.10632266844692820000e-002) (12, 1.87201220243088310000e-002) (13, 5.05901230320435560000e-003) (14, -1.81810339463523260000e-002) (15, 1.60876015168545620000e+000) (0, -3.46395930423343580000e+000) (1, -5.89739874155601380000e+000) (2, 5.44739028682141300000e-001) (3, 1.08542104889496030000e-002) (4, 5.34253345743836150000e-003) (5, -1.43885980714434130000e-002) (6, 8.18277278743732350000e-001) (7, 1.47147363142720170000e+000) (8, -1.23816999739987830000e-001) (9, 5.20024783323213330000e-003) (10, -1.90195610085485980000e-003) (11, -4.86904582770824460000e-003) (12, -5.77762325310563880000e-003) (13, 1.99916922143401770000e-003) (14, -4.85423645242767050000e-003) (15, -8.28756399271109780000e-001) (0, -1.09754910907569080000e+000) (1, 8.69828339719620700000e-001) (2, 1.91957892979365520000e+000) (3, -6.26890383323132700000e-003) (4, 2.43373859669034630000e-002) (5, 5.91634349437458740000e-003) (6, 1.71065381380715530000e-001) (7, -9.94789275836270030000e-002) (8, -3.25394863392421300000e-001) (9, -3.42851170138589290000e-003) (10, 4.17131915811853010000e-003) (11, 9.37390404913997920000e-004) (12, 3.43473444252839420000e-003) (13, 5.88682398233358190000e-003) (14, 4.29916969371428850000e-003) (15, 3.56253555302453800000e-002) (0, 8.86410585825331170000e-001) (1, -1.65413019492377700000e+000) (2, 8.54377863786869310000e-001) (3, -2.55451476649855670000e-002) (4, 5.86200483237742790000e-003) (5, -9.84513984246975300000e-003) (6, 1.00657903366396840000e-001) (7, 9.57665569951523080000e-001) (8, -5.30209365627585690000e-001) (9, 2.46052798276283350000e-003) (10, 1.05260200505945240000e-002) (11, -4.03640941083959450000e-003) (12, 2.25196223553298870000e-003) (13, 4.91010935084621600000e-003) (14, -4.52194057979361620000e-003) (15, 2.84161197830174410000e-001) (0, 8.02365893972660560000e-001) (1, -1.35928277336027330000e-001) (2, 7.96214839274454580000e-001) (3, 2.26510514265814940000e-002) (4, -1.29465880261799840000e-002) (5, 5.53572728239900420000e-002) (6, -8.58747153568486100000e-002) (7, 3.41006502696855510000e-001) (8, -1.65437284919572460000e-001) (9, 8.46420201152133650000e-003) (10, 5.14689398706072530000e-003) (11, -4.79493395887426420000e-003) (12, 2.59368952393275060000e-003) (13, 1.19284737912833970000e-002) (14, -9.44670416862174350000e-003) (15, 7.27206416991819930000e-002) (0, 3.76518203394808370000e+000) (1, -5.77357801273464500000e+000) (2, 5.19866381306135830000e-001) (3, -6.18781099989598040000e-003) (4, 1.58202663300880410000e-003) (5, -1.37933039127063430000e-002) (6, -8.61272505511308410000e-001) (7, 1.23437660901025480000e+000) (8, -3.91024559725349150000e-002) (9, 2.91249437639790140000e-003) (10, -6.72381454272106410000e-003) (11, -2.00346728204857430000e-003) (12, 4.67884795733599770000e-003) (13, 6.35096282600494800000e-004) (14, -1.05396176792205020000e-002) (15, -8.77927453717368910000e-001) (0, -9.82651212227214190000e-001) (1, 9.71738739079835550000e-001) (2, -1.21646256380809970000e+000) (3, -2.05928895714146350000e-001) (4, 1.31879020102897680000e-001) (5, -3.05539666839087070000e-001) (6, 3.06853082101468830000e-001) (7, -3.27867394513818300000e-001) (8, 4.06641949338378770000e-001) (9, -2.45732996933960890000e-003) (10, 1.01357890343438700000e-003) (11, 4.77151738524702990000e-003) (12, 5.40302233671657970000e-004) (13, -2.34033226709197710000e-003) (14, -2.06977171422637360000e-003) (15, -2.94129163200242740000e-001) (0, 6.89769725275453880000e-001) (1, -3.19511986379213460000e-001) (2, -9.47255797713313590000e-001) (3, -2.96344270769757880000e-002) (4, 1.29174947255845380000e-002) (5, 6.81391653469320960000e-002) (6, -3.06723186174330360000e-001) (7, 8.36994235597463830000e-002) (8, 5.03024533277968700000e-001) (9, 1.47104030056712270000e-003) (10, 5.13553175875494650000e-004) (11, -1.35887501430110960000e-003) (12, -2.53103057900255000000e-003) (13, -1.33523179289681670000e-003) (14, -3.65761163743508680000e-003) (15, -2.91803713702255610000e-001) (0, 1.74250820249657410000e-001) (1, 6.65837473616621160000e-001) (2, 4.96721858237812400000e-001) (3, -7.42087443989316530000e-003) (4, 9.16135065267764670000e-003) (5, -9.68558294815607440000e-003) (6, -5.32799591802865290000e-001) (7, -2.81043584285173450000e-001) (8, -8.46316276443988990000e-001) (9, 1.46705761466737250000e-003) (10, 2.09939615719061700000e-004) (11, 6.43786735668192870000e-003) (12, -7.77517830084173060000e-003) (13, -7.93726920479998630000e-003) (14, 5.65889173530857020000e-003) (15, 1.88593548536179600000e-001) (0, 1.77153873152517720000e+000) (1, 5.19065641220749610000e-001) (2, 2.46873856825644160000e+000) (3, -2.65673850820922800000e-002) (4, -6.47691878955644360000e-003) (5, -7.37871447043926720000e-003) (6, -4.93646428291787680000e-001) (7, -1.88606628619257730000e-001) (8, -6.46052893793291780000e-001) (9, -3.30143210492837650000e-004) (10, 6.29512978786334920000e-003) (11, -6.12703277527701480000e-004) (12, -1.11403420612042770000e-003) (13, 8.79285530833022470000e-003) (14, 5.32547796658395470000e-003) (15, -1.19446342160322320000e-001) (0, 2.15828895648777050000e+000) (1, 2.67846895896742150000e+000) (2, -1.45516929709182190000e-002) (3, 4.68611095247942920000e-001) (4, 4.93123810575930630000e-001) (5, 1.40864412246450800000e-002) (6, -7.00288700779428170000e-001) (7, -8.20066889915243120000e-001) (8, 2.87467106443397400000e-002) (9, -1.18454184348862430000e-002) (10, 3.38380144790390030000e-003) (11, 5.47424674646847240000e-003) (12, 1.11639122484678350000e-002) (13, 9.43623059145218790000e-003) (14, -5.82672609387457130000e-003) (15, 8.15852509245277750000e-001) (0, 2.07987687567588080000e+000) (1, 2.71218612527551420000e-001) (2, -1.19882739125613360000e-001) (3, -1.74854332691329740000e-002) (4, -2.37337671010116360000e-002) (5, -1.47395232090461960000e-002) (6, -3.47522522414890730000e-001) (7, -2.67569672013469260000e-001) (8, 7.47542408870972560000e-002) (9, -2.34773485595624750000e-002) (10, 5.01404539877715190000e-003) (11, -1.47637953653016550000e-002) (12, 3.39252081513577160000e-002) (13, 2.35018082022057060000e-002) (14, -5.90261819299538190000e-003) (15, -2.52663185943464490000e-001) (0, 1.58158610164700450000e+000) (1, -9.16546400404289030000e-001) (2, 1.52571338416648850000e+000) (3, -1.43060813972169020000e-002) (4, -5.37038800660658880000e-003) (5, 4.25146780484055890000e-003) (6, -2.21455857655113690000e-001) (7, 1.84733381198564560000e-001) (8, -1.98216697473664380000e-001) (9, 1.25284957177318660000e-003) (10, 2.18779593574264590000e-003) (11, -2.93023978482466500000e-004) (12, 8.37403118095412050000e-004) (13, 4.34654573304718750000e-003) (14, 1.05953126090848110000e-003) (15, 3.89703491244606630000e-001) (0, 1.25061035517756870000e+000) (1, -8.04200543334211320000e-001) (2, -1.88667927932432410000e+000) (3, 1.59256517746263590000e-001) (4, -1.72502175826652700000e-001) (5, -2.16476457864765710000e-001) (6, -4.02680838719650770000e-001) (7, 2.88442224877641650000e-001) (8, 6.31898767373322070000e-001) (9, 5.85617398464219950000e-003) (10, -2.21529075624597380000e-003) (11, -2.69901260151034740000e-003) (12, -2.39171894830811530000e-003) (13, -5.54956490095098990000e-003) (14, -4.27523837384127280000e-003) (15, -7.58205349965505320000e-002) (0, 1.37815960929206060000e-001) (1, -5.23506929931902290000e-001) (2, -6.51821885013483370000e-001) (3, 3.10011935868170510000e-003) (4, -2.29386798263313610000e-002) (5, 4.34658992524055920000e-003) (6, 6.01941126340411160000e-003) (7, 1.61302630011298130000e-001) (8, 1.90474470018331590000e-001) (9, 3.28050433374830250000e-003) (10, -1.39648109161146730000e-002) (11, 1.91736897928975500000e-003) (12, -3.50106870614235680000e-003) (13, -2.43250260979829270000e-002) (14, -1.01730405106721100000e-002) (15, -1.11032543330116650000e-001) (0, -1.37939912748969750000e+000) (1, 7.65483269329593870000e-001) (2, 2.14022095703306770000e+000) (3, 5.72710911821199610000e-002) (4, -2.14655832906873980000e-002) (5, -8.13787562707234680000e-002) (6, 4.24729676270446330000e-001) (7, -2.87068537669923130000e-001) (8, -7.16702574984841130000e-001) (9, -3.03059645761997660000e-003) (10, 6.28715556514613390000e-003) (11, -2.16677197133689340000e-003) (12, 4.28402641549383450000e-003) (13, 1.14042431987942390000e-002) (14, 5.64208993777494740000e-003) (15, -1.79119146400999290000e-002) (0, 3.90592555095909820000e+000) (1, -9.81518620902895120000e+000) (2, 7.23131293288489130000e-001) (3, -7.86430498288735740000e-003) (4, 7.60172240773524860000e-004) (5, -8.20436308288958680000e-003) (6, -8.19615111065374770000e-001) (7, 2.16128069926062820000e+000) (8, -1.26789969795196080000e-001) (9, 5.95701748594663210000e-003) (10, -6.12412708402024220000e-003) (11, -4.64641749127317740000e-003) (12, -7.70293808238200560000e-004) (13, 2.89299951930847500000e-003) (14, -8.88964041793037680000e-003) (15, -9.66635556614885980000e-002) (0, -1.01699146801292790000e+000) (1, 1.26839262407635660000e+000) (2, -1.04595782816725440000e+000) (3, 8.54532009469376320000e-002) (4, -2.87719131385018970000e-002) (5, 6.33435639119981910000e-002) (6, 4.86037374235291530000e-001) (7, -3.52419684958043210000e-001) (8, 3.96344727771431820000e-001) (9, -4.27838165445069370000e-003) (10, -1.44941808689194400000e-003) (11, 3.16817803381579520000e-004) (12, -1.99905395105657440000e-003) (13, -7.42390010759506540000e-003) (14, 2.44993138325434990000e-003) (15, -3.73154411544390830000e-001) (0, -4.21243463647108740000e-001) (1, 4.52050079969297040000e-002) (2, 2.14572992939557560000e-001) (3, 2.63652932614875410000e-003) (4, 5.65797009116278310000e-003) (5, -2.56376146814190360000e-003) (6, 1.94486990443439980000e-001) (7, -2.36190128143118280000e-002) (8, -4.47739731790262540000e-002) (9, -5.09471795935012240000e-001) (10, 1.10585215851300570000e-002) (11, -7.41866570180629410000e-003) (12, 1.03338556484865870000e-002) (13, 1.72248541813590470000e-002) (14, 4.15569114178534690000e-003) (15, 1.17099779600171510000e-002) (16, 1.78482759523715950000e-001) (17, -8.94122452126004160000e-001) (18, -8.28672911839538800000e-004) (19, -8.79288966596284420000e-001) (20, 7.21816560230806040000e-002) (21, -2.56484774261290680000e-001) (22, 2.60992627119730200000e-001) (23, 9.00031156943685850000e-001) (24, 4.16892209356513820000e-002) (25, -1.10613465078704930000e-001) (26, 1.19947298365592270000e-001) (27, -1.28903886026336420000e-002) (28, -5.32468758611792170000e-002) (29, -2.64210307057174130000e-001) (30, -4.41553548726264440000e-002) (31, -9.22044279081241440000e-003) (32, 6.68455881253224300000e-001) (33, -2.83168216439330620000e-002) (34, -7.50984314933350720000e-001) (35, -8.65661482674172780000e-002) (0, -2.45746699969680820000e-001) (1, -2.25779370913546010000e+000) (2, -4.06204266217049910000e-001) (3, -1.99981540662701810000e-002) (4, 3.79348924614176450000e-002) (5, -6.89050708838733210000e-002) (6, -8.04097073974400640000e-002) (7, 4.32719682817035540000e-001) (8, -3.25617935835993020000e-001) (9, -7.10071511410533250000e-003) (10, -4.81736281949599670000e-001) (11, 7.49563353165563920000e-004) (12, 6.06643281434864150000e-003) (13, 3.70713096920936360000e-002) (14, 2.17150133819447590000e-002) (15, 5.89801838099275670000e-001) (16, -3.40766843643172950000e-002) (17, 8.04357020671011280000e-002) (18, -4.64806556297187170000e-002) (19, -8.91074687334714040000e-002) (20, 6.68873621956363350000e-001) (21, -1.69789769901765670000e-001) (22, 8.15652054830499740000e-001) (23, -1.47856194346220300000e-001) (24, 1.92156580141788380000e-001) (25, 1.58557961762175540000e+000) (26, -1.84218030497029390000e-001) (27, 1.15887456905493420000e+000) (28, 2.68767211167169760000e-002) (29, -3.61013207984339430000e-002) (30, -1.48815469985173920000e-001) (31, -1.34674741721363730000e-001) (32, 2.58261596574303100000e+000) (33, 1.18010393152515340000e+000) (34, -7.72700601691327930000e-002) (35, 6.75192862556950210000e-001) (0, -7.87862110459655260000e-001) (1, -4.20282442270248640000e-001) (2, -1.70051760918524430000e+000) (3, -9.62094699842729050000e-003) (4, 2.28644772375014400000e-002) (5, -8.14736603612573400000e-003) (6, 1.39830444744813070000e-001) (7, -6.03868308440046880000e-002) (8, 3.08150371548860440000e-001) (9, -5.06749714243361160000e-003) (10, 2.39517808101046910000e-002) (11, -5.06691910058055690000e-001) (12, 8.47851698038413340000e-003) (13, 4.65601540574480740000e-002) (14, 1.27193464595335250000e-002) (15, -1.17870977758458170000e-001) (16, 2.54756164394426170000e-001) (17, -4.29551905616471640000e-003) (18, 7.54650976474767060000e-002) (19, -9.96277427407549900000e-002) (20, 9.02394568992630710000e-001) (21, 1.56375798708718540000e-001) (22, -4.13739726786338410000e-001) (23, -1.02416648876631680000e-001) (24, -9.37363921574478900000e-002) (25, 2.85058290824629300000e-001) (26, 8.79622775281144600000e-002) (27, 3.17368774801126070000e-001) (28, 4.89113342010334270000e-002) (29, -1.21152595125098920000e-001) (30, 8.13988626488016510000e-001) (31, -5.19761992538508790000e-002) (32, 2.42522588460746170000e+000) (33, 4.36961903273468120000e-001) (34, 2.37506666624465980000e-002) (35, -1.01186609993192430000e-001) (0, -2.41394641654831240000e+000) (1, -5.36181908994785350000e-001) (2, 2.47930813211198640000e-001) (3, 2.71511010190440450000e-002) (4, 2.57379068019935010000e-002) (5, 1.21706398457915740000e-003) (6, 9.28788742866641930000e-001) (7, -3.10316979788616940000e-001) (8, 4.68022449207531330000e-001) (9, 7.07921068644863390000e-003) (10, -8.67798613646674110000e-003) (11, 6.07054186848326490000e-003) (12, -5.09800880494358790000e-001) (13, -4.55432467638325340000e-003) (14, 4.95648046619120900000e-003) (15, 5.49736405288058300000e-003) (16, 6.07459924074290390000e-001) (17, -5.25032854035115790000e-001) (18, 4.70476404780144910000e-001) (19, -1.53535273804316450000e-001) (20, 2.33542260916335620000e-001) (21, 8.76009303690166160000e-001) (22, 2.58349005587183880000e-001) (23, 5.72814866166674650000e-001) (24, 1.92474164939096170000e-001) (25, 7.76805186210579370000e-001) (26, 1.06859677611892790000e+000) (27, 1.52859063009676610000e-001) (28, -1.39816703578384520000e-001) (29, 6.52278142481292680000e-001) (30, -1.38404946509244510000e-001) (31, 1.31986712967224220000e-001) (32, 7.93068173869516810000e-002) (33, -2.95615979933024530000e-002) (34, -4.82026184289839180000e-001) (35, 7.66520342092942060000e-001) (0, -4.59515449111520310000e-001) (1, -3.94861718606775660000e-001) (2, 6.70469449313112920000e-001) (3, -1.06363090344868350000e-002) (4, -4.75961129598830110000e-003) (5, -6.52105410362288120000e-003) (6, -1.35625440584876880000e-001) (7, -1.62397866501491990000e-001) (8, -8.65083369667306030000e-001) (9, 8.96982586177285260000e-004) (10, -9.99252801190710780000e-003) (11, 1.24526608298360270000e-003) (12, -2.74687355366664590000e-003) (13, -5.17993557569110360000e-001) (14, -5.69926533796036740000e-003) (15, -3.69731584348666690000e-002) (16, 4.73012127948585330000e-001) (17, 2.30380979816247650000e-002) (18, -1.41125152627168680000e-001) (19, 3.18882283613144250000e-001) (20, 1.25013872324478070000e+000) (21, -2.84500892858578490000e-001) (22, 2.34236646354538670000e-001) (23, 9.81797717700926550000e-002) (24, 2.87722056585599180000e-001) (25, 5.89162738486675000000e-001) (26, -1.54343395088860970000e-001) (27, -9.01583411014898920000e-001) (28, -4.14268098198541590000e-002) (29, 3.07225540751818230000e-003) (30, 1.66142354308760210000e+000) (31, 4.64703036316279460000e-001) (32, -1.23990833345668780000e+000) (33, -9.06982179018205880000e-001) (34, 5.31748838270776900000e-002) (35, 8.40721954797381650000e-001) (0, 5.52633854518726150000e-001) (1, 4.60732792673907990000e-001) (2, 6.13322964661119240000e-001) (3, 2.69739531577060270000e-001) (4, 2.93479158734285320000e-001) (5, 6.89883258826418880000e-001) (6, -1.74670815517380510000e-001) (7, -2.36923021913973880000e-001) (8, -3.39276645168507390000e-002) (9, -7.15501286813807670000e-003) (10, 4.07927360613755210000e-003) (11, -1.72008938991128550000e-003) (12, 4.27722940289898290000e-003) (13, 1.19288581346866740000e-002) (14, -4.96210509209896070000e-001) (15, 3.00870825199587300000e-001) (16, -2.53431778182571440000e-002) (17, 1.62372401727665220000e-004) (18, 1.64645059028012380000e-001) (19, -2.47694190748100530000e-001) (20, 2.63104265362111230000e-001) (21, 3.67421770570463600000e-001) (22, -2.49661453951292440000e-001) (23, -5.56453967846479550000e-004) (24, 1.88099371673437350000e+000) (25, -8.28720304121533860000e-001) (26, 7.63149144490540830000e-002) (27, 3.16690056234574300000e-001) (28, -7.75727738019073350000e-001) (29, -2.31803311215727990000e-002) (30, 1.46688600053135330000e-001) (31, 1.75946122291817520000e+000) (32, 5.97773642552126730000e-001) (33, 1.00233030170848440000e+000) (34, -4.44701067714236430000e-003) (35, -7.22261150085016680000e-001) 
