FANN_FLO_2.1
num_layers=4
learning_rate=0.700000
connection_rate=1.000000
network_type=1
learning_momentum=0.000000
training_algorithm=2
train_error_function=1
train_stop_function=1
cascade_output_change_fraction=0.010000
quickprop_decay=-0.000100
quickprop_mu=1.750000
rprop_increase_factor=1.200000
rprop_decrease_factor=0.500000
rprop_delta_min=0.000000
rprop_delta_max=50.000000
rprop_delta_zero=0.100000
cascade_output_stagnation_epochs=12
cascade_candidate_change_fraction=0.010000
cascade_candidate_stagnation_epochs=12
cascade_max_out_epochs=150
cascade_min_out_epochs=50
cascade_max_cand_epochs=150
cascade_min_cand_epochs=50
cascade_num_candidate_groups=2
bit_fail_limit=1.00000001490116120000e-001
cascade_candidate_limit=1.00000000000000000000e+003
cascade_weight_multiplier=4.00000000000000020000e-001
cascade_activation_functions_count=10
cascade_activation_functions=3 5 7 8 10 11 14 15 16 17 
cascade_activation_steepnesses_count=4
cascade_activation_steepnesses=2.50000000000000000000e-001 5.00000000000000000000e-001 7.50000000000000000000e-001 1.00000000000000000000e+000 
layer_sizes=16 40 40 6 
scale_included=0
neurons (num_inputs, activation_function, activation_steepness)=(0, 0, 0.00000000000000000000e+000) (0, 0, 0.00000000000000000000e+000) (0, 0, 0.00000000000000000000e+000) (0, 0, 0.00000000000000000000e+000) (0, 0, 0.00000000000000000000e+000) (0, 0, 0.00000000000000000000e+000) (0, 0, 0.00000000000000000000e+000) (0, 0, 0.00000000000000000000e+000) (0, 0, 0.00000000000000000000e+000) (0, 0, 0.00000000000000000000e+000) (0, 0, 0.00000000000000000000e+000) (0, 0, 0.00000000000000000000e+000) (0, 0, 0.00000000000000000000e+000) (0, 0, 0.00000000000000000000e+000) (0, 0, 0.00000000000000000000e+000) (0, 0, 0.00000000000000000000e+000) (16, 5, 1.00000000000000000000e+000) (16, 5, 1.00000000000000000000e+000) (16, 5, 1.00000000000000000000e+000) (16, 5, 1.00000000000000000000e+000) (16, 5, 1.00000000000000000000e+000) (16, 5, 1.00000000000000000000e+000) (16, 5, 1.00000000000000000000e+000) (16, 5, 1.00000000000000000000e+000) (16, 5, 1.00000000000000000000e+000) (16, 5, 1.00000000000000000000e+000) (16, 5, 1.00000000000000000000e+000) (16, 5, 1.00000000000000000000e+000) (16, 5, 1.00000000000000000000e+000) (16, 5, 1.00000000000000000000e+000) (16, 5, 1.00000000000000000000e+000) (16, 5, 1.00000000000000000000e+000) (16, 5, 1.00000000000000000000e+000) (16, 5, 1.00000000000000000000e+000) (16, 5, 1.00000000000000000000e+000) (16, 5, 1.00000000000000000000e+000) (16, 5, 1.00000000000000000000e+000) (16, 5, 1.00000000000000000000e+000) (16, 5, 1.00000000000000000000e+000) (16, 5, 1.00000000000000000000e+000) (16, 5, 1.00000000000000000000e+000) (16, 5, 1.00000000000000000000e+000) (16, 5, 1.00000000000000000000e+000) (16, 5, 1.00000000000000000000e+000) (16, 5, 1.00000000000000000000e+000) (16, 5, 1.00000000000000000000e+000) (16, 5, 1.00000000000000000000e+000) (16, 5, 1.00000000000000000000e+000) (16, 5, 1.00000000000000000000e+000) (16, 5, 1.00000000000000000000e+000) (16, 5, 1.00000000000000000000e+000) (16, 5, 1.00000000000000000000e+000) (16, 5, 1.00000000000000000000e+000) (16, 5, 1.00000000000000000000e+000) (16, 5, 1.00000000000000000000e+000) (16, 5, 1.00000000000000000000e+000) (56, 5, 1.00000000000000000000e+000) (56, 5, 1.00000000000000000000e+000) (56, 5, 1.00000000000000000000e+000) (56, 5, 1.00000000000000000000e+000) (56, 5, 1.00000000000000000000e+000) (56, 5, 1.00000000000000000000e+000) (56, 5, 1.00000000000000000000e+000) (56, 5, 1.00000000000000000000e+000) (56, 5, 1.00000000000000000000e+000) (56, 5, 1.00000000000000000000e+000) (56, 5, 1.00000000000000000000e+000) (56, 5, 1.00000000000000000000e+000) (56, 5, 1.00000000000000000000e+000) (56, 5, 1.00000000000000000000e+000) (56, 5, 1.00000000000000000000e+000) (56, 5, 1.00000000000000000000e+000) (56, 5, 1.00000000000000000000e+000) (56, 5, 1.00000000000000000000e+000) (56, 5, 1.00000000000000000000e+000) (56, 5, 1.00000000000000000000e+000) (56, 5, 1.00000000000000000000e+000) (56, 5, 1.00000000000000000000e+000) (56, 5, 1.00000000000000000000e+000) (56, 5, 1.00000000000000000000e+000) (56, 5, 1.00000000000000000000e+000) (56, 5, 1.00000000000000000000e+000) (56, 5, 1.00000000000000000000e+000) (56, 5, 1.00000000000000000000e+000) (56, 5, 1.00000000000000000000e+000) (56, 5, 1.00000000000000000000e+000) (56, 5, 1.00000000000000000000e+000) (56, 5, 1.00000000000000000000e+000) (56, 5, 1.00000000000000000000e+000) (56, 5, 1.00000000000000000000e+000) (56, 5, 1.00000000000000000000e+000) (56, 5, 1.00000000000000000000e+000) (56, 5, 1.00000000000000000000e+000) (56, 5, 1.00000000000000000000e+000) (56, 5, 1.00000000000000000000e+000) (56, 5, 1.00000000000000000000e+000) (96, 0, 1.00000000000000000000e+000) (96, 0, 1.00000000000000000000e+000) (96, 0, 1.00000000000000000000e+000) (96, 0, 1.00000000000000000000e+000) (96, 0, 1.00000000000000000000e+000) (96, 0, 1.00000000000000000000e+000) 
connections (connected_to_neuron, weight)=(0, 1.80290267358621440000e-001) (1, -3.27538849015531420000e-002) (2, 5.01704687698350860000e-001) (3, 6.13162441426344730000e-002) (4, 8.26191015421604410000e-004) (5, 1.27075205489835670000e-001) (6, 1.26932032230968330000e-002) (7, -1.48154023112741920000e-001) (8, -5.87810028147099860000e-002) (9, -1.15647819934621340000e-003) (10, 8.63834303433545920000e-002) (11, 1.97724757191361810000e-003) (12, 2.82025335380882770000e-002) (13, 2.97301541377235580000e-001) (14, 1.10193889991576090000e-002) (15, 4.88079388138796260000e-001) (0, 1.82502295864876900000e+000) (1, -1.42594422067624400000e-001) (2, 4.11447768408701400000e-001) (3, -3.97420795476375460000e-002) (4, 1.82025028954251600000e-002) (5, -1.00909814285039730000e-001) (6, -3.61965514270990940000e-001) (7, 6.07889562455329100000e-001) (8, -7.87304373535601710000e-003) (9, -1.68296429034612840000e-002) (10, -1.10080265343985710000e-002) (11, -2.41514001079798400000e-002) (12, -2.31017710341488090000e-002) (13, 4.11370746838338460000e-002) (14, -1.44813543882103880000e-002) (15, 6.13884484245232680000e-001) (0, 2.57446388332065680000e-001) (1, 3.88635356283515370000e-001) (2, -2.39954937815074270000e-001) (3, 1.12978515024520800000e-001) (4, -3.82462512219966310000e-002) (5, 5.53580669675763500000e-002) (6, -1.87960387372135160000e-001) (7, -2.26596589610814110000e-001) (8, 1.60938575812784310000e-001) (9, -5.32718604731825460000e-002) (10, 5.71655450018958570000e-002) (11, 3.17631574176265650000e-002) (12, 4.53464767476186290000e-003) (13, -4.81896644907684260000e-002) (14, 1.60983168974883840000e-002) (15, -4.95703690672470030000e-002) (0, 2.42692732012550130000e+000) (1, 5.01203103043715290000e-001) (2, 4.06081141129203850000e-001) (3, -4.10095494558944330000e-002) (4, -2.53511892307751170000e-004) (5, 4.84977693198742000000e-002) (6, -3.00375098636202490000e-001) (7, -2.19354397760765550000e-003) (8, -2.76062394939534730000e-002) (9, -2.47741635938218410000e-002) (10, 4.62858409693979530000e-002) (11, -5.31477212834492450000e-002) (12, -2.78309881230904030000e-003) (13, 2.08657875475070280000e-001) (14, -2.00102804597041650000e-002) (15, 1.60973956897359470000e+000) (0, -1.40032149151148030000e-001) (1, 2.03084776400017430000e+000) (2, -2.15275706160396070000e-001) (3, 4.44732708046745790000e-002) (4, 1.87112477977292250000e-001) (5, -4.38738595644908810000e-003) (6, 3.09658015750470560000e-002) (7, -2.31191446593792590000e-001) (8, 1.13878350848589550000e-001) (9, 3.58184098468125530000e-002) (10, 5.41043554647815600000e-003) (11, -2.22285096555020700000e-002) (12, -2.67705200154570580000e-002) (13, 6.21779295429987640000e-002) (14, -1.92036755903351180000e-003) (15, 2.58712331463661680000e-001) (0, 1.02084552754582160000e-001) (1, 7.49533237860308900000e-001) (2, -1.80126677290885910000e-001) (3, -4.32608563455732990000e-002) (4, -9.10128680233640160000e-002) (5, 1.41024040144810540000e-001) (6, 2.85446508516983550000e-002) (7, 1.48161031976961980000e-001) (8, 1.99523308382871880000e-001) (9, -3.30137312688869800000e-002) (10, 2.53948791479231690000e-002) (11, -2.31825180282230930000e-002) (12, 2.14000493968302740000e-002) (13, 3.07202035352938000000e-002) (14, -1.92469474564058080000e-003) (15, 7.39831135149620290000e-001) (0, -1.55915436272028370000e+001) (1, 2.19501517271793250000e+001) (2, 1.74270885365343660000e-001) (3, 2.81375926664101160000e+000) (4, 8.10083305041193390000e+000) (5, -7.81579698458275520000e+001) (6, 3.56980086998704350000e+001) (7, 1.34037297729057190000e+000) (8, 1.07791525403954310000e+001) (9, 1.17779998548146430000e+001) (10, 2.18232944317645040000e+000) (11, 2.67081559258378840000e+000) (12, -1.59193924688698450000e-001) (13, -2.63300104820536320000e+002) (14, -2.96736774782477620000e+000) (15, 2.93627577559057900000e+001) (0, -2.02270944064634580000e-001) (1, 1.10003775430340520000e+000) (2, 8.63226118156853240000e-001) (3, -1.48213018353468090000e-001) (4, 1.52890398913521570000e-001) (5, 2.66875766716148210000e-001) (6, 2.08988927042454530000e-001) (7, 1.09754518963277700000e+000) (8, -1.63293286070549300000e-001) (9, -7.35459628024990890000e-003) (10, 3.14078608653071480000e-002) (11, 2.89232143959782110000e-002) (12, 6.63348797331044790000e-002) (13, -3.30592260655029270000e-002) (14, -9.68548117332087080000e-003) (15, 1.17163019028914970000e+000) (0, 4.64525281862737620000e-001) (1, 3.34873074052249240000e-002) (2, -4.60770038596157390000e-001) (3, 3.02283425973520170000e-002) (4, 9.14317746483536700000e-002) (5, 1.31978256113161360000e-002) (6, 6.28209381036841370000e-002) (7, 6.14267508632902470000e-001) (8, 1.31458127570455940000e-001) (9, 2.78675144057978320000e-002) (10, 2.30559115273462170000e-002) (11, -5.17896212426721820000e-002) (12, 8.92045178374400480000e-003) (13, 2.28710864852990640000e-002) (14, -2.31653684426981510000e-002) (15, 3.42586703173488160000e-001) (0, 4.01773535618837340000e+002) (1, 1.49874206481135140000e+003) (2, 1.49703373502555180000e+003) (3, -1.49789200920517420000e+003) (4, 3.76131118713413740000e+002) (5, -1.49750629401969580000e+003) (6, 4.04784593250287630000e+002) (7, 1.50000000000000000000e+003) (8, -1.38130649929085260000e+003) (9, -6.54526895378119320000e+002) (10, -9.20869238220709580000e+002) (11, -6.38649378054181400000e+002) (12, -9.23962412605787900000e+002) (13, -1.49982321717794640000e+003) (14, 4.03710007052182290000e+001) (15, 1.49923057226819630000e+003) (0, -1.12947271867723710000e+000) (1, -2.27012295016272820000e-001) (2, 3.73942212133437090000e-001) (3, -1.28200040124010070000e-001) (4, 4.34234160183743570000e-002) (5, -4.70756311797988080000e-003) (6, 3.46096695716665010000e-001) (7, 9.78583223277824790000e-002) (8, -1.52191242621128750000e-002) (9, 7.49220715661939270000e-003) (10, -3.60076827084333460000e-003) (11, -3.36755357906708620000e-002) (12, -2.66590613336025220000e-002) (13, 8.13021111970130690000e-002) (14, -1.59197128117082860000e-002) (15, 6.80493331181666880000e-001) (0, -1.71278460971424760000e+000) (1, 1.32027307147002480000e+000) (2, -9.89003926562907030000e-001) (3, 3.13247197580565980000e-002) (4, -4.16863206569832510000e-002) (5, 5.20207228972843700000e-002) (6, 2.01463906038358680000e-001) (7, -5.53163688202555420000e-002) (8, 6.01537433496464810000e-002) (9, -2.41609049594473870000e-002) (10, -1.48028524600660500000e-002) (11, 1.71395551662778710000e-002) (12, 2.16833182302491700000e-002) (13, 1.19790870781332980000e-002) (14, 2.29126460052590760000e-002) (15, -9.12437008314545970000e-002) (0, -2.81314616212408500000e-001) (1, -6.48069149841172920000e-001) (2, -7.99608948088162960000e-002) (3, -1.01782707481466830000e-002) (4, 3.33419883136375490000e-002) (5, -5.88945064282873700000e-002) (6, 2.83952132402068150000e-002) (7, -3.82189192626312400000e-001) (8, 4.15072061178934220000e-002) (9, -1.63520871700919550000e-003) (10, -8.57581983178373890000e-002) (11, 6.26449263446635790000e-002) (12, -4.24252382969123040000e-003) (13, -1.76079732435631710000e-001) (14, 1.23259259765087400000e-002) (15, -3.84379802283888910000e-001) (0, 1.84609266629535110000e+001) (1, 1.33085852014208640000e+000) (2, 8.56530425800497850000e+000) (3, 9.14330902594688720000e-002) (4, -7.20644096785473810000e-001) (5, 1.03916945133511600000e+000) (6, -6.93217263222894080000e+000) (7, 1.57129445057353890000e+000) (8, 3.70115685321523640000e+000) (9, 9.59641645800493830000e-001) (10, 7.98065075892300580000e-001) (11, 6.75488462061558790000e+000) (12, -1.98270071766117020000e-001) (13, -3.06389152048310930000e+001) (14, 3.16765658667863160000e-001) (15, 2.98036063067922080000e+001) (0, -1.99492920783742430000e+000) (1, -2.73470840392047080000e+000) (2, 4.63513857558092600000e-001) (3, -7.07749759094160460000e-002) (4, 4.28486985538650690000e-002) (5, 2.93264156437736500000e-002) (6, 3.00702421498359520000e-001) (7, 8.48188820110869490000e-001) (8, -2.75525198204259020000e-002) (9, 1.25832957216732780000e-002) (10, 1.67445226773241880000e-002) (11, -1.33272543439741650000e-002) (12, -9.74068437810033520000e-003) (13, 1.15699787094904000000e-001) (14, 5.42449990681042120000e-003) (15, 1.23739299970322310000e+000) (0, -1.43706987904050400000e-001) (1, 5.42522331075248830000e-001) (2, 1.28866540938844640000e-001) (3, -3.93214329829920300000e-003) (4, 4.15181199240394410000e-002) (5, -1.14804310200683660000e-001) (6, -5.69675777378615410000e-002) (7, -1.10741938173135550000e-001) (8, -1.87920628816202000000e-001) (9, 3.88569326407467720000e-002) (10, -2.40196742742194920000e-002) (11, 1.45624604983853640000e-002) (12, -1.21842435692740530000e-001) (13, -9.66098594209355640000e-003) (14, -3.07666726765722650000e-002) (15, 6.74587010368565420000e-002) (0, 1.56297444127205030000e-001) (1, 1.05987615408083770000e-001) (2, 3.34604149014482100000e-001) (3, -1.03371269801275630000e-002) (4, 5.13914965993419460000e-002) (5, -4.35311183400345220000e-002) (6, 1.04966526383467870000e-002) (7, 5.45390120579165470000e-001) (8, -2.09324805929519700000e-003) (9, -1.18156566573261820000e-002) (10, 2.49524389464884680000e-002) (11, -6.40310410902666940000e-002) (12, -2.34209484963170990000e-003) (13, 8.71732677626611970000e-002) (14, -2.54698023308472380000e-002) (15, 4.68627441533833120000e-001) (0, 1.87861976992026110000e-001) (1, -2.04288479059070910000e-001) (2, 4.50530552068138410000e-001) (3, -4.23570879436927020000e-002) (4, -2.40592335473797030000e-002) (5, -4.95776792198713980000e-002) (6, 6.54491917621983190000e-003) (7, -8.67953437190495530000e-002) (8, 1.24785250414536120000e-002) (9, 1.60530008522557360000e-002) (10, -2.33243163775559180000e-002) (11, 1.19465000998234830000e-002) (12, -2.57462185282383810000e-002) (13, -2.12375469490274190000e-001) (14, -1.54331283726468930000e-002) (15, -1.58559588374316720000e-001) (0, 1.03310501030857390000e-001) (1, 1.19038546477485710000e+000) (2, -4.64108105855584260000e-001) (3, -4.90250822143887400000e-002) (4, -1.08627967108879300000e-001) (5, 1.10663865868579500000e-001) (6, 4.21768103022828120000e-002) (7, 3.51321008908492720000e-001) (8, 7.43026466224752090000e-004) (9, -1.48768070362031560000e-002) (10, 6.04096489273389800000e-002) (11, -5.50967529116311860000e-002) (12, 1.75077393573028450000e-002) (13, 1.86417265178327130000e-001) (14, -6.23571055730834200000e-003) (15, 6.65103462364523780000e-001) (0, -6.83342869150940890000e-001) (1, 1.58104204696174870000e-001) (2, 1.07552464232313810000e-001) (3, 9.81564037401057160000e-002) (4, -6.72165727029987590000e-002) (5, -5.85756096220453530000e-002) (6, 5.01153859066629790000e-001) (7, -2.19723494946534900000e-002) (8, -7.04454603288622810000e-003) (9, -2.26684867331092480000e-002) (10, -3.62353987008139990000e-002) (11, 5.40947139280086730000e-002) (12, -5.87768785532941440000e-003) (13, -8.67671692450595190000e-002) (14, -9.23849218943442910000e-003) (15, 1.30612215988490180000e-001) (0, -1.99566755704798810000e-001) (1, -2.85267179904773240000e-001) (2, -1.91283335862631380000e-001) (3, 7.62661010475132600000e-002) (4, -3.61129409933312950000e-002) (5, -4.29997838683853430000e-002) (6, -1.03489562437061030000e-001) (7, -5.23925040257956720000e-001) (8, -9.29773656493893680000e-002) (9, 3.68092779803261760000e-002) (10, -2.09991252686116160000e-002) (11, 6.21718625009517950000e-002) (12, -1.37721496034803860000e-002) (13, -1.53705936755728000000e-001) (14, 2.64441596376431970000e-002) (15, -6.86472722044054180000e-001) (0, -6.48221338170255070000e-002) (1, -3.77493680202866940000e-002) (2, 4.63901727381999750000e-003) (3, -8.85905687027355030000e-002) (4, 7.09159688006593020000e-003) (5, -6.04489622138440280000e-002) (6, -3.20768189012830340000e-002) (7, -1.65406423398665650000e-001) (8, -1.31375538852995110000e-001) (9, 1.36203720436653000000e-003) (10, 5.50756351075516870000e-004) (11, -3.85975999637990720000e-002) (12, -1.41781218767444070000e-001) (13, 1.75510785187171310000e-001) (14, -4.53081156580774220000e-002) (15, -6.29070150380822010000e-002) (0, 6.82120328645193120000e-001) (1, 7.27696367105243440000e-001) (2, 8.54606372171072830000e-001) (3, -5.87046894812845270000e-003) (4, -1.05776305217213890000e-001) (5, -6.76577110252354920000e-004) (6, -1.80244110364685710000e-001) (7, -5.39457417339579690000e-003) (8, -1.32717104016194490000e-001) (9, -2.88356683987225260000e-003) (10, 4.09221289894261190000e-002) (11, 7.35404005412473950000e-003) (12, 1.69607750333959180000e-003) (13, 1.21174792342729270000e-001) (14, -2.67027205135054210000e-004) (15, 3.12964558489606360000e-001) (0, 1.52151543846161190000e+000) (1, -5.94535947299408170000e-001) (2, -9.06379285697588300000e-002) (3, -1.76412568582696060000e-002) (4, 7.17887058707747930000e-004) (5, 5.65545049942311540000e-002) (6, -1.08090401128052220000e-001) (7, -5.65663588899496740000e-002) (8, 4.84031599337155640000e-002) (9, 3.79246156560012360000e-003) (10, 9.40853888838823550000e-003) (11, -1.82101610673719820000e-003) (12, -1.74379237541431690000e-003) (13, 1.50126906307917800000e-002) (14, -3.80023019816669830000e-003) (15, 9.13568289964646340000e-001) (0, 3.19882435426660170000e-001) (1, 2.68117259362077000000e-002) (2, 2.17894497464060290000e+000) (3, -3.78146134581131970000e-002) (4, 4.33426749575803670000e-002) (5, 8.97782109920971240000e-002) (6, -1.88417339216806230000e-001) (7, -1.48270123671777110000e-001) (8, -7.77408706992438800000e-001) (9, -2.64720561368709870000e-003) (10, 3.17341507393406870000e-003) (11, -8.66675100054335390000e-003) (12, -1.44706936180885440000e-002) (13, -7.78241567480096600000e-004) (14, -3.74091282018170800000e-003) (15, 7.37977018303406230000e-001) (0, -6.70569493095511500000e-001) (1, -2.58303380745208750000e-001) (2, -4.29364264666410700000e-001) (3, 1.21528326905742060000e-003) (4, -7.36557209355098550000e-003) (5, 3.14101262333029220000e-004) (6, 2.13798808759713410000e-001) (7, -3.39697942185900940000e-001) (8, 2.25491126350665180000e-001) (9, 2.49686190071569570000e-002) (10, -5.75231023821531390000e-003) (11, 5.01820527679017120000e-002) (12, 5.50333249358988560000e-003) (13, -2.87977108100726660000e-002) (14, 2.12229260795613780000e-002) (15, -3.11020138353889530000e-001) (0, -1.88734927069283880000e-001) (1, -2.13775760566180810000e-003) (2, 5.36743662828124360000e-001) (3, 1.05913516365560660000e-001) (4, 6.66846161411350920000e-002) (5, -3.18307136996225860000e-002) (6, 8.64061008221434920000e-002) (7, 1.55686836600909490000e-002) (8, -9.10279527194671890000e-002) (9, 2.89429843685928730000e-002) (10, 1.41640001348760420000e-001) (11, 1.88446272436140910000e-003) (12, 5.42507366495703430000e-002) (13, 4.18508656397126810000e-001) (14, 5.45524116225004070000e-002) (15, 9.31824732536979950000e-002) (0, -9.20788398258641090000e-002) (1, 1.66028523882987940000e+000) (2, 3.96983622172815630000e-001) (3, 2.36251931384734960000e-003) (4, 5.19851711188069470000e-002) (5, -2.29126549008399460000e-001) (6, 1.11086901327872800000e-001) (7, 9.10052418655831090000e-003) (8, -5.07572458283306850000e-003) (9, 5.21019475405303310000e-002) (10, 5.01138304404207880000e-002) (11, -9.28023375846147160000e-002) (12, -7.31796580327647580000e-002) (13, 7.65981382551807340000e-002) (14, -6.02483538279160580000e-003) (15, 8.11799409152484720000e-001) (0, -1.57977261086740550000e+001) (1, -5.47185040765779450000e+000) (2, -4.00193735286972660000e-001) (3, 8.60709594906634710000e-002) (4, -6.12068307390657100000e-001) (5, -5.06694818237304330000e-001) (6, 3.32718334344772560000e+000) (7, 1.49745772325976740000e+000) (8, 4.63605270904631050000e-001) (9, -8.06090893957167600000e-002) (10, -4.19980700128842480000e-002) (11, -2.76312514448410260000e-003) (12, -2.84761093864746750000e-002) (13, -2.36349298024170650000e-001) (14, -6.47818532147640680000e-002) (15, 2.61897284047590160000e-001) (0, 3.84187478871528710000e-001) (1, -2.23956928265311020000e-001) (2, -1.78697612625298900000e-001) (3, -1.37470090522626350000e-001) (4, -3.46532016271279340000e-002) (5, -7.03607661344758520000e-002) (6, -1.28709563956540010000e-001) (7, 1.08298731690993220000e-001) (8, 5.36468678294330860000e-002) (9, -4.89016665203071550000e-003) (10, -1.06448105856331470000e-002) (11, -7.58710543767097820000e-002) (12, 5.88276019552553130000e-002) (13, -2.21039359478486380000e-001) (14, -4.73839819642644660000e-002) (15, 1.63729313324580570000e-001) (0, 9.73220552172328060000e-002) (1, -5.29916190500635100000e-001) (2, 2.82445382666094700000e-002) (3, 6.58238127247724460000e-002) (4, 2.30805914722527520000e-002) (5, 3.83943948971731950000e-002) (6, 4.96707753803693130000e-003) (7, -1.26737306329946660000e-002) (8, 2.89837464684954550000e-002) (9, -4.33681682521498080000e-003) (10, 7.76961748610246190000e-002) (11, -2.26672421431379190000e-002) (12, 3.36465561561267860000e-002) (13, 3.60223926867021820000e-001) (14, 3.38800115028702830000e-003) (15, 7.29732136214778280000e-001) (0, -2.97782058265799510000e-001) (1, 4.54361310609237980000e-002) (2, 1.33713439091066730000e-002) (3, 1.22113750071946150000e-001) (4, 5.09193337564158020000e-002) (5, 9.14644423330047000000e-002) (6, 1.76033500159859250000e-001) (7, 1.46081538230834700000e-001) (8, -2.76110413325941050000e-001) (9, -3.87058568357382460000e-002) (10, 1.01646905281590370000e-001) (11, -1.19023995022297710000e-001) (12, 5.48146574492021630000e-003) (13, 1.12192967616648460000e-001) (14, -2.36285633383921220000e-002) (15, 1.25859286009449900000e-001) (0, 1.03378265832005910000e-001) (1, 9.56856732928683560000e-001) (2, -8.95505047909526260000e-002) (3, 4.20917750534977110000e-002) (4, -6.65433922936202320000e-002) (5, 1.42390253452817240000e-002) (6, -8.15965042466470090000e-002) (7, -2.88806173452579700000e-001) (8, -5.68754521918607840000e-002) (9, -2.52428297351839360000e-002) (10, -9.25848621134532300000e-003) (11, 3.44998166704624420000e-003) (12, 3.19250982125791200000e-002) (13, 3.78226980687444490000e-002) (14, 3.81860213763386150000e-004) (15, 7.22670366228952310000e-001) (0, 1.66692624813748490000e+000) (1, -9.33766210605650900000e-001) (2, 7.99267691461256650000e-001) (3, 2.60023999542145560000e-001) (4, 1.18798738790664610000e-002) (5, 9.36221283511531050000e-002) (6, -4.13810709914461890000e-001) (7, 3.73439030040348950000e-001) (8, -1.92046332364740950000e-001) (9, 6.68419860405085240000e-003) (10, -5.90664946717259390000e-003) (11, -1.31392840393840670000e-002) (12, 1.49578337754954440000e-002) (13, 3.20617470168179650000e-002) (14, 4.14421263939842090000e-003) (15, 4.90648822490160560000e-001) (0, -2.07973413791652740000e-001) (1, -3.39784240425452910000e-001) (2, -4.98417609226551250000e-002) (3, -8.98619413234394290000e-002) (4, -7.74855704016071820000e-002) (5, -2.05028215727853620000e-002) (6, -1.26911687238912830000e-001) (7, -5.34527255888749000000e-002) (8, -9.10354278154738570000e-002) (9, 2.71877085332445300000e-002) (10, -2.66014841251956960000e-002) (11, -4.34969741343212080000e-002) (12, -2.31246142431677830000e-002) (13, -2.45855375990961660000e-002) (14, -4.50318965978602840000e-002) (15, -4.94813557473638910000e-002) (0, 1.04798826273939880000e+000) (1, -3.39898607020435730000e-001) (2, -3.59536208675549030000e-001) (3, -3.22536557974453690000e-001) (4, 2.29304739921132510000e-001) (5, 2.31326588239872010000e-001) (6, -4.69078813636923320000e-002) (7, -1.21883764075229630000e-001) (8, 3.98483214844664100000e-002) (9, -1.48453815342831570000e-002) (10, 6.75046856438740180000e-002) (11, -5.17249366487180300000e-002) (12, -7.43453060365030610000e-004) (13, 2.36116833636153240000e-001) (14, -1.53159812745080770000e-002) (15, 7.28088674056081460000e-001) (0, -1.76795812444183140000e+000) (1, -1.37764531723401440000e+000) (2, 2.19287014705395490000e-001) (3, 4.24925787061325440000e-003) (4, 2.44455188044343870000e-002) (5, 3.74527785723580070000e-002) (6, 6.75928911070302730000e-001) (7, 5.81181472211632850000e-001) (8, 5.98728867176605150000e-002) (9, 2.27840248046866800000e-003) (10, 2.66527008674624950000e-003) (11, -5.01564203080835570000e-003) (12, 9.64370185306717180000e-003) (13, 3.85097052608395360000e-002) (14, 1.24587826417579440000e-002) (15, 5.15994120801595680000e-001) (0, -2.05432247892643800000e-001) (1, -2.30412143105013040000e-001) (2, 7.61033735394335500000e-001) (3, 1.17099295643875170000e-001) (4, -3.39763479785656350000e-001) (5, -2.91164512479705040000e-001) (6, 1.62185476848765690000e-001) (7, -5.61167426459731390000e-001) (8, -4.60405109607564480000e-001) (9, -4.04015579774231890000e-002) (10, 5.11961603045595280000e-002) (11, -1.64094100974849150000e-002) (12, 4.12688094424777390000e-002) (13, 7.45577234219759190000e-002) (14, 1.21866633068652610000e-002) (15, 1.26123269866878850000e+000) (0, 5.25283228577574480000e-001) (1, -6.45856337202965090000e-001) (2, -1.30913038743090020000e-001) (3, 9.76997192326328340000e-002) (4, -3.13640639303830880000e-002) (5, -8.49077842263148000000e-002) (6, -1.10667347165515530000e-001) (7, -4.50149806698423300000e-001) (8, 6.41951594202711490000e-003) (9, -2.91174270756737030000e-003) (10, 8.81043443783609100000e-003) (11, -2.70996779549347900000e-003) (12, -1.08113972387723080000e-002) (13, 1.38194661204254550000e-001) (14, 4.21813507251681250000e-003) (15, -3.63125763283165700000e-001) (0, 9.82361757123132450000e-002) (1, 3.82445774887013380000e-002) (2, -6.18645228384827720000e-001) (3, -5.22766532817457440000e-002) (4, 2.84891841803647850000e-001) (5, 2.34295236781291550000e-001) (6, -9.57001569610177040000e-002) (7, 6.41370885547361440000e-001) (8, 2.62698181811502620000e-001) (9, -4.88917794838389400000e-004) (10, -2.86197566128783940000e-002) (11, 1.43269769884036700000e-002) (12, 1.52368213435756410000e-003) (13, 1.85663469014565700000e-002) (14, -1.46024153928410480000e-002) (15, -7.71161095204367600000e-001) (0, -1.88987775660919310000e+000) (1, 1.28595347375153280000e+000) (2, 9.99521369091993630000e-001) (3, -1.68204762103286220000e-001) (4, -4.64742892497226540000e-002) (5, 3.80839400406606580000e-001) (6, 8.68461055431453240000e-001) (7, 6.30826270606746680000e-001) (8, 5.01019433290107170000e-002) (9, -9.03914416509433720000e-002) (10, 5.82911864374238000000e-002) (11, -1.04882607303081990000e-001) (12, 2.07601210404332850000e-001) (13, -1.19893683446813360000e-001) (14, -9.59615061592710050000e-003) (15, 5.20024706049598500000e-001) (16, -1.24595132184547530000e-001) (17, 5.41087070710531410000e-001) (18, 4.11340402985940600000e-001) (19, 3.06816851923720710000e-001) (20, 1.96547668525650030000e-001) (21, -8.54010811522435190000e-001) (22, -2.68272278201947680000e-002) (23, 9.18002754357268440000e-002) (24, -9.66190780792842820000e-001) (25, -3.14457303735499460000e-001) (26, -1.53774373227512920000e-001) (27, -1.00336834313169580000e+000) (28, 4.24427725027484990000e-001) (29, 8.17483497905500260000e-002) (30, -2.10271935707515820000e-001) (31, 4.72586822599459220000e-001) (32, 9.16355867208421550000e-001) (33, 4.31671122341455440000e-001) (34, 3.14682604204915120000e-001) (35, -5.50988340955184230000e-001) (36, 6.59136239038461300000e-001) (37, 2.60498039503722470000e-001) (38, -2.48460858611527750000e-001) (39, 8.40006893661780910000e-002) (40, 3.34443171191629920000e-001) (41, 7.26716857275975130000e-001) (42, 2.47074570540349230000e-001) (43, 5.11071336288286490000e-001) (44, 4.82590283996806590000e-002) (45, -8.14763891528606510000e-001) (46, 3.03358000344873870000e-001) (47, -3.18070849359660730000e-001) (48, 3.19108997972219870000e-001) (49, 5.23464074001758540000e-001) (50, 6.07425808990839640000e-001) (51, -4.71454088879357690000e-001) (52, -8.24742649436710500000e-002) (53, -4.42594117302671230000e-002) (54, -2.32262621428205580000e-001) (55, 3.94673936656752320000e-001) (0, -9.96852183432989870000e-001) (1, 4.08316383105326360000e-001) (2, 4.93192878183144890000e-001) (3, 3.75140311341586820000e-001) (4, -8.60718359401626140000e-002) (5, 2.00007751557096740000e-001) (6, 2.82919396631556740000e-001) (7, 9.02117146691251090000e-001) (8, -3.22755010034236830000e-002) (9, -6.30667375926474430000e-002) (10, 3.36701156519682580000e-002) (11, 1.59080571484353640000e-001) (12, 1.40837379051446690000e-001) (13, 1.69511741409743790000e-001) (14, 1.00582626271754210000e-001) (15, 3.37552411992878110000e-001) (16, 9.82820915342039410000e-001) (17, -6.46580091959566450000e-001) (18, 6.29953005517246010000e-002) (19, -4.11611543284159250000e-002) (20, 1.01041519027836160000e+000) (21, -8.67425105783028590000e-002) (22, 1.55812534712933630000e-001) (23, 4.04504739475672110000e-001) (24, 2.81776764016877070000e-001) (25, 5.50735429245984400000e-001) (26, 6.15936314260828400000e-001) (27, -8.49448576863928270000e-001) (28, 1.25200653722525670000e+000) (29, -1.68240052592053550000e+000) (30, 4.45064541890203610000e-001) (31, -3.70668807056232290000e-001) (32, 7.23501497806099510000e-001) (33, 1.50398148863362690000e+000) (34, 1.03599583766671670000e+000) (35, -7.32483567899126390000e-001) (36, 6.36236242755479740000e-001) (37, 4.15307909515652940000e-001) (38, 4.59006645227047430000e-001) (39, -3.09252975084756240000e-001) (40, -1.82431601863541240000e-001) (41, 4.74732275513026940000e-001) (42, -5.33572140607791120000e-001) (43, 3.43673515722029980000e-001) (44, -7.01304736122583680000e-002) (45, -1.78295662991257050000e-002) (46, 9.44498443209249580000e-002) (47, 3.20282541012890000000e-001) (48, 8.96773009590296490000e-001) (49, 8.58338417123347960000e-002) (50, 7.32380861871492540000e-001) (51, 3.69657543738456220000e-001) (52, -5.15377917729839870000e-001) (53, -2.36854307993260810000e-002) (54, -7.62261221598034690000e-002) (55, -2.17542226600161260000e-001) (0, 2.61299477946094540000e-001) (1, 9.02138595892349180000e-002) (2, -3.85234765194104600000e-001) (3, 4.75142540196908490000e-001) (4, -4.90551118529998050000e-001) (5, -9.73556559391077080000e-002) (6, -2.67684085879281000000e-001) (7, 5.39658592701050540000e-002) (8, -1.40851735868852000000e-001) (9, -4.96772947036454230000e-002) (10, 3.05157590063113490000e-001) (11, 1.20150464817134040000e-001) (12, 1.17607625288641310000e-001) (13, 8.34897927885700280000e-001) (14, 1.62799328448785720000e-001) (15, -3.60552092656696910000e-001) (16, -8.99931757556185710000e-001) (17, 1.10240815704035520000e-001) (18, -8.85394697450349930000e-001) (19, 3.40764788427951100000e-001) (20, -1.45304736990267390000e-001) (21, 3.89711603120141900000e-003) (22, 6.09227169870610040000e-002) (23, -6.65762439260422110000e-001) (24, 9.61100693291712880000e-001) (25, 5.43496170273762290000e-001) (26, 3.88627365534802930000e-001) (27, 5.47705801973073060000e-001) (28, 6.56374655563845110000e-001) (29, -1.14597811295610510000e+000) (30, 3.78168692459501020000e-001) (31, -5.71298290976492100000e-001) (32, -2.29793527244325210000e-003) (33, 1.79335514793057890000e+000) (34, -8.53625925299177080000e-002) (35, -1.47227675066615990000e-001) (36, 5.18736756349893690000e-001) (37, 3.91481284525735440000e-001) (38, -4.71836305380874050000e-002) (39, 4.05633746105515530000e-002) (40, 1.58440126056448100000e-002) (41, 4.61348982796815190000e-001) (42, -7.63342178300267400000e-001) (43, 3.74095376271884400000e-002) (44, 1.03063272021748490000e-001) (45, 4.48532555393048590000e-001) (46, 5.85082580746158040000e-001) (47, 3.38885185856750320000e-001) (48, -4.78411279072166910000e-001) (49, 5.74863741809491890000e-003) (50, 7.60689611269243060000e-001) (51, 1.95261718022764960000e-001) (52, 1.19929954473534280000e-002) (53, -4.95930311136038470000e-001) (54, 1.19255290614145410000e+000) (55, 9.69445212741563700000e-001) (0, 2.01260195148144170000e+000) (1, 6.11542339847701680000e-001) (2, -1.23120012787599520000e-002) (3, 3.20870865204786530000e-001) (4, -6.09806257949108490000e-002) (5, -2.92826524469434330000e-002) (6, -4.15112274738485780000e-001) (7, -3.12923669248778620000e-001) (8, -1.87254423868459610000e-001) (9, -4.86744030834804910000e-003) (10, 1.37344087041528560000e-001) (11, 9.02056816555114600000e-002) (12, -4.56363502358907370000e-002) (13, 7.53113780947830990000e-001) (14, 1.00268184785455290000e-001) (15, -2.38754379862554740000e-001) (16, 6.37474867308512110000e-001) (17, -1.37803189308746080000e-001) (18, -2.00609313910722310000e-001) (19, 3.38049606048167690000e-001) (20, 2.61755554994669740000e-001) (21, 4.73969390932046150000e-001) (22, 5.15222758280057260000e-001) (23, 1.35843396641392080000e-001) (24, 1.44136576767456170000e-001) (25, 2.60465408662061530000e-001) (26, 1.32590650113181660000e-001) (27, 4.28455123033839150000e-001) (28, 5.21182145884849230000e-001) (29, -1.21130342433808470000e+000) (30, -2.42246350274664260000e-002) (31, -1.99767491866836840000e-001) (32, 6.01926099105811070000e-001) (33, 1.42847727997490590000e+000) (34, -5.55639335362944190000e-001) (35, 3.50094339245564170000e-002) (36, 2.58566950043764010000e-001) (37, -4.59927363722376300000e-001) (38, -3.14097816315378310000e-001) (39, -3.26265030180600430000e-001) (40, 2.10768142192332810000e-001) (41, -3.22819092815075730000e-003) (42, -1.73410237527841770000e-001) (43, -3.78888382574615180000e-002) (44, 5.17039400347439890000e-002) (45, 6.46836142952992740000e-001) (46, -4.42105996491214960000e-001) (47, 2.38213218498040590000e-001) (48, 1.11941458249287650000e+000) (49, -4.15165875458291530000e-001) (50, 1.33887210592776640000e+000) (51, 1.66492889450199880000e-001) (52, 7.60806281142060060000e-001) (53, -5.06571668500663150000e-001) (54, 1.11456899213528730000e-001) (55, 3.43005666228363870000e-001) (0, 1.97195318669948750000e+000) (1, 4.32598719803485090000e-002) (2, 2.03994742238721690000e-001) (3, 7.85352087958536840000e-002) (4, 1.29848783551335690000e-001) (5, 2.40662218647032550000e-001) (6, -2.72586529857422560000e-002) (7, -2.70804535244475450000e-001) (8, -5.22501938461694820000e-002) (9, -1.92522807798540740000e-002) (10, 3.52834132779625940000e-001) (11, 8.78449627134284120000e-002) (12, 3.28809600320235540000e-001) (13, 9.37865293851244730000e-001) (14, 1.83010862272176610000e-001) (15, -7.08096920827769590000e-002) (16, 3.27059538982274520000e-001) (17, 1.54801096389499880000e-001) (18, 1.09073819217091650000e-001) (19, 3.53779439307893780000e-002) (20, 1.10370847319669240000e+000) (21, 3.08475708529963810000e-001) (22, 1.05599349094736730000e-003) (23, 4.19989707591718330000e-002) (24, 1.90198018718592490000e-001) (25, 1.02321835008357300000e-001) (26, 3.52249105231595140000e-001) (27, 1.25189989836711810000e+000) (28, 4.66489015815405250000e-001) (29, 8.25014559733046600000e-002) (30, 1.73089466130136570000e-001) (31, 1.95691038010997830000e-001) (32, 6.44255303955885370000e-001) (33, 2.15383627265493070000e+000) (34, -9.81760092714023540000e-001) (35, 2.62507277732536570000e-001) (36, 7.04865318249533470000e-001) (37, 1.44453245751039820000e+000) (38, -5.63053284006109430000e-001) (39, -2.82081390404754440000e-001) (40, 3.75182669714844320000e-001) (41, 2.14115446800395070000e-001) (42, -9.56938411322665660000e-001) (43, 1.02174501738114400000e+000) (44, 1.09792076562243500000e-001) (45, 5.33707363179086510000e-001) (46, -1.03724312042409550000e+000) (47, 9.10322123505448310000e-002) (48, 1.35337723223544450000e+000) (49, 9.81776770684104960000e-001) (50, 9.11117913230898520000e-001) (51, -2.32104857056056850000e-001) (52, 6.50747927343493740000e-001) (53, -2.30246172386281510000e-001) (54, 7.20474750390608490000e-001) (55, 6.25032083046376360000e-001) (0, -1.50660537296275710000e-001) (1, 1.22029334361511600000e+000) (2, 1.94291495207912310000e-001) (3, -8.37729768511279310000e-002) (4, -2.96217979357540180000e-001) (5, 3.18022495306794330000e-001) (6, 7.07933479049534300000e-001) (7, 3.26616836042737720000e-001) (8, 7.63729782297450030000e-001) (9, -1.06471196236233820000e-002) (10, 3.67946119738355240000e-002) (11, -2.85500192460105070000e-002) (12, 6.12505059323214860000e-001) (13, 1.55633792244046750000e-001) (14, 2.13801956383553010000e-001) (15, 3.84004413558765800000e-001) (16, 7.82640514751732240000e-001) (17, 1.83401209787415030000e-001) (18, 2.02536125918426580000e+000) (19, 2.59786245172537180000e-001) (20, -9.27854594674266680000e-002) (21, 2.74871738525766100000e-002) (22, -3.53401024948047510000e-002) (23, 1.12855179758213940000e-001) (24, -1.75473889697374620000e-001) (25, -1.21949283186029130000e-001) (26, -2.60542429105446560000e-001) (27, 5.37947399092642440000e-001) (28, 9.15388047364996900000e-001) (29, 1.52123770971685700000e-001) (30, 2.60987947880382990000e-001) (31, 2.35355061382595610000e+000) (32, 1.01903741896363890000e+000) (33, 2.41601797928982620000e+000) (34, 1.47375857894735440000e+000) (35, 3.44653842559608650000e-002) (36, 9.44998230005521300000e-001) (37, 1.94951642111243520000e+000) (38, -2.20483986613549200000e+000) (39, 4.76280055014679240000e-001) (40, -5.17827070708064220000e-001) (41, 9.02065383356071890000e-001) (42, -6.89239381248494490000e-001) (43, 1.06388095981857830000e-001) (44, -2.58402141522732000000e-001) (45, -1.06328937693058070000e+000) (46, 1.31484504838816600000e-001) (47, 2.64935162781155090000e-001) (48, 6.90174692917942640000e-001) (49, 1.96220093734557400000e-001) (50, 1.70853591063453900000e+000) (51, 4.94007023652514310000e-001) (52, -9.87550704710030150000e-001) (53, 1.40611638432435250000e+000) (54, -1.23775204111548990000e+000) (55, 3.69443068435929220000e-001) (0, 2.67358410665012410000e+001) (1, 1.25378633559093020000e+001) (2, 8.66462685352542010000e-001) (3, 1.92851993165309610000e+000) (4, 2.13191469869742400000e+000) (5, 4.83742954547781600000e-001) (6, -2.73284502119302750000e+000) (7, -3.09869156353231810000e-001) (8, -6.12445261807729960000e-001) (9, 9.28460647934870320000e-002) (10, 8.43913674399247580000e-001) (11, -6.95515337550925320000e-001) (12, -4.12603333280124000000e-001) (13, 2.36018526610768650000e+000) (14, 3.76427321432648700000e-002) (15, 1.47882270419490340000e+000) (16, 8.63858658635682120000e-001) (17, -3.58966645961134350000e+000) (18, -1.62489498136699770000e+000) (19, 6.96430833555431670000e-001) (20, -3.01208898491175110000e+000) (21, 8.40971814923416660000e-001) (22, -7.00344019619065090000e-002) (23, 1.22193625670969000000e-001) (24, -1.48834951823219660000e+000) (25, 1.78091779831786030000e-002) (26, 2.77624721696832170000e-001) (27, 9.90479117552118460000e+000) (28, 7.18577256020472510000e-001) (29, -1.79394568896647010000e-001) (30, 1.56727200497409180000e-001) (31, 2.49077414976157650000e-001) (32, 2.88083235677409770000e+000) (33, 1.57664692012818910000e+001) (34, 3.05184485828978950000e+000) (35, -8.99609355035199790000e-001) (36, 4.27920500769121800000e-001) (37, -5.99856385762856730000e-002) (38, 1.02274272786119340000e+000) (39, -7.44401396384397170000e+000) (40, 2.15595412330359060000e-001) (41, 4.85363309993318780000e-001) (42, -3.18753379572781050000e-001) (43, -1.54036687445671560000e-001) (44, -6.49812374788343190000e-001) (45, 2.39948402317890120000e+000) (46, 3.48881907576617230000e+000) (47, -6.05507209574662400000e+000) (48, 1.26883136811243770000e+001) (49, -2.67820551757798380000e+000) (50, 1.08885827709141850000e-001) (51, 1.18810305578421120000e+000) (52, 5.11273760820963320000e-001) (53, 4.77771104729168170000e-001) (54, 8.06539182184576540000e-001) (55, 1.82336734688475500000e-001) (0, -1.25334587826975660000e+000) (1, 3.66365452859347570000e-001) (2, 6.09002921703576170000e-001) (3, -3.20680119598014620000e-001) (4, -1.92862056934267810000e-001) (5, 4.50418858216823370000e-002) (6, -3.09305864673278530000e-001) (7, 1.65910970840517150000e-001) (8, 1.86856451692927220000e-001) (9, 5.25475942108129470000e-002) (10, -2.97402056948839980000e-001) (11, 4.93078238705648290000e-002) (12, 7.17563073410058400000e-002) (13, -1.22264186291381610000e-001) (14, -2.94787201468065530000e-001) (15, 1.47359770611334790000e-001) (16, 9.86588328208397260000e-001) (17, -1.87532652048132130000e-001) (18, 1.30775618012022270000e+000) (19, -1.12030813051921150000e+000) (20, 4.04886516242839440000e-001) (21, -2.20638949609268500000e-001) (22, 2.14548308139166750000e-001) (23, 3.30596758768967380000e-001) (24, 3.41686547918882590000e-001) (25, -3.10602072771190100000e+000) (26, -3.89722922779566610000e-001) (27, -4.04185172880253240000e-001) (28, 8.75622267589479810000e-001) (29, 2.52041483515181690000e-001) (30, -4.91191292920114210000e-001) (31, -5.85786885286776250000e-001) (32, 8.25850597012847350000e-001) (33, -1.11849004472893540000e+000) (34, 2.85290761534607030000e-001) (35, -2.40616708251990760000e-002) (36, 1.35506901839978020000e+000) (37, 2.65257985562391550000e-001) (38, 7.97659457532753250000e-001) (39, 1.25771913538027640000e+000) (40, -6.65147518747938760000e-001) (41, 9.45049921585784380000e-001) (42, 7.46632403876575920000e-001) (43, -2.97445556970018180000e-001) (44, -4.99467314553594330000e-001) (45, -4.25530311504823330000e-002) (46, 1.26762445614663990000e-001) (47, 5.72858977137791660000e-001) (48, -1.17784266854638080000e+000) (49, 3.96298608088519130000e-001) (50, 4.28367024027927200000e-002) (51, 3.81696662262830390000e-001) (52, 5.18751414488043850000e-001) (53, 6.50964755126036130000e-001) (54, -2.16210351583737330000e-001) (55, -9.65152329229151810000e-002) (0, -4.39863406554586220000e-001) (1, 6.34492855640184430000e-001) (2, -2.79932544085749630000e-001) (3, 2.33165318525584700000e-001) (4, 1.47038538721178590000e-001) (5, 2.83302568090198940000e-001) (6, -8.54952176860206280000e-002) (7, -9.23485054545984400000e-002) (8, -3.01080022450226140000e-001) (9, -1.72906768570499000000e-001) (10, 1.20645143382441310000e-001) (11, 6.43484121207907600000e-002) (12, 1.96969003825485570000e-001) (13, 2.84442651154344690000e-001) (14, 9.89528768517959070000e-002) (15, -3.03489649277039470000e-001) (16, -2.12948041753380310000e-001) (17, 2.11428033295709470000e-001) (18, -7.75917762905296240000e-001) (19, -2.64098154657669170000e-001) (20, 8.14818091685623580000e-001) (21, 8.21116431956107730000e-001) (22, -8.06881437760004550000e-003) (23, 3.56381521097813460000e-001) (24, 6.37644116284869610000e-001) (25, 9.94293241281940170000e-003) (26, 1.89909034070683690000e-001) (27, -3.11021687671257980000e-001) (28, -4.19430681119222940000e-001) (29, -6.52429975335585220000e-001) (30, 3.98631384909218720000e-002) (31, -6.09648724161840020000e-001) (32, -2.67871288463160110000e-001) (33, 1.72981177623370730000e+000) (34, 5.55101991600871270000e-002) (35, -8.06928982313820720000e-003) (36, 5.37269411089534410000e-001) (37, 1.11740964534686940000e+000) (38, 3.07261074264335350000e-001) (39, -8.47311023661316830000e-002) (40, -6.57677497125938320000e-002) (41, 6.64673758004970640000e-001) (42, -2.56099569155297410000e-001) (43, 3.40668471019777100000e-001) (44, -9.43891280608262360000e-002) (45, 1.53160953582320260000e-001) (46, 1.30069642605403930000e-001) (47, -2.71756232727813410000e-001) (48, 6.83265241742334830000e-001) (49, -1.23087355969063270000e-001) (50, 1.52787418094400300000e-001) (51, -5.61158592866809470000e-001) (52, -3.58949121405543820000e-002) (53, -8.15918977160677290000e-001) (54, 7.93482396072871520000e-001) (55, -2.54342105098243510000e-001) (0, -9.09617894449757380000e-001) (1, 1.48853065698848820000e+001) (2, -3.76966545753473210000e-001) (3, 5.96269883047035650000e-001) (4, 9.09065932637380780000e-001) (5, 2.88577911431541880000e-001) (6, 7.15441972158295520000e-001) (7, -4.26188747983660240000e-001) (8, 5.92788262915886490000e-001) (9, 4.86974044459671130000e-001) (10, 3.38212921378643230000e-001) (11, 9.97909845029855000000e-002) (12, -4.37008954801142300000e-002) (13, 1.40161813190821240000e+000) (14, 2.73488543126305550000e-001) (15, -6.51857760654497160000e-002) (16, -1.76386942475491450000e+000) (17, -1.47718671669754030000e-002) (18, 3.96953223734533640000e-002) (19, 7.11703808710309920000e-001) (20, -8.23768420948403860000e-001) (21, 7.44232543945005150000e-001) (22, -2.26738430597015210000e-001) (23, 4.60745550485721360000e-001) (24, -1.08266325441208070000e+000) (25, -6.34971107847614180000e-002) (26, 1.25143115664600180000e-001) (27, 2.24209270224721190000e+000) (28, 9.37134744347498220000e-001) (29, 3.15393939367948220000e+000) (30, 3.40334547382788590000e-002) (31, 8.25518920109739600000e-002) (32, -4.07101718948103100000e-001) (33, 3.45862808409128020000e+000) (34, -1.39150883452434580000e+000) (35, 1.53020467894424980000e+000) (36, 2.24864151961364780000e-001) (37, 1.37686044391764170000e+000) (38, 7.43905644735860380000e-002) (39, -1.56896912649446880000e-001) (40, 1.87683373691858500000e-001) (41, 1.08865370617932040000e+000) (42, -6.58367389099378310000e-001) (43, -2.47136404188698010000e-001) (44, 3.06331457829218670000e-001) (45, 2.01472154114844000000e+000) (46, 1.65426030878193280000e+000) (47, 1.27772983038982610000e+000) (48, 7.20298932251916660000e+000) (49, -3.62494123121554660000e-001) (50, 1.05315447366380140000e+000) (51, 1.08336987243692120000e+000) (52, -1.89647065063197020000e+000) (53, 1.13657952464141250000e+000) (54, -2.11371653734490560000e+000) (55, -7.17430815877665220000e-001) (0, 9.70385614186052510000e-001) (1, 1.62695198316458230000e-001) (2, -3.32807267949824460000e-001) (3, -4.84262942348967500000e-002) (4, 1.88562011857568500000e-002) (5, -2.72967848566538050000e-001) (6, 4.25077413008500160000e-001) (7, 7.68032807677319910000e-002) (8, -1.12997276133936370000e-002) (9, 1.16798035023791840000e-002) (10, -9.84969002576875780000e-002) (11, -2.43422803096296280000e-002) (12, 5.21436008049457960000e-002) (13, -3.19692161150179450000e-001) (14, 9.30810444943316710000e-003) (15, -5.19784886344677680000e-001) (16, -8.95359572065251520000e-001) (17, -7.82884348041254650000e-002) (18, 1.05693292211299710000e+000) (19, -2.22779662520893730000e-001) (20, 4.60751210781109730000e-002) (21, -2.60572422276249440000e-001) (22, -8.47721782682726020000e-002) (23, -3.51542438949353050000e-001) (24, -1.25505557386875780000e-002) (25, -1.39794494856888130000e+000) (26, -6.55615090424762400000e-001) (27, 2.88693660251881030000e-001) (28, 7.87464743512556690000e-001) (29, 6.07457785859430330000e-001) (30, 3.81137872276620050000e-001) (31, -6.45131047225868120000e-001) (32, 1.69453313150228910000e-001) (33, -2.93953236529214070000e-001) (34, 1.27327294849297220000e-001) (35, 1.83718211428178510000e-001) (36, 5.53732897261894670000e-001) (37, 1.50617711656310370000e+000) (38, 9.62134707982351790000e-001) (39, -1.31186587754371310000e-001) (40, -3.07586349050654130000e-001) (41, 6.51858121144883840000e-001) (42, 9.18809380306689790000e-001) (43, 5.15556511965444280000e-001) (44, 2.32127172687868310000e-001) (45, 1.06233219460688050000e-001) (46, 6.64217289516557810000e-002) (47, -1.01106975733795640000e-002) (48, 1.80600586366931010000e-002) (49, 4.74691210110811720000e-001) (50, 1.32983696839787320000e+000) (51, 2.70859600123755210000e-001) (52, -4.85622749494354910000e-003) (53, 1.93346311403595980000e-001) (54, 1.39505329227838510000e-001) (55, 9.35038290596172380000e-001) (0, 2.05286528863122490000e+000) (1, -7.46092816733084250000e-001) (2, -8.37721448695999400000e-001) (3, -1.01063205205728520000e-001) (4, -2.61912150663441600000e-002) (5, 2.60859321710353090000e-001) (6, 4.39510161764517020000e-001) (7, -4.73769156981413860000e-001) (8, 1.43276738921488330000e-002) (9, -9.96240694983323020000e-002) (10, 4.86609546974816900000e-002) (11, 2.55818635717791170000e-002) (12, 4.15977225009942710000e-002) (13, 2.79945672069229430000e-001) (14, -1.86334405967823710000e-002) (15, -6.74915661936340450000e-001) (16, -4.13290504189272710000e-001) (17, 8.17716274091802730000e-002) (18, -1.58543251320376190000e-001) (19, -4.34590999170806420000e-002) (20, 1.03717412919643540000e-001) (21, 1.93332544167833660000e-001) (22, 2.85043563916405030000e-002) (23, 1.19057684552112870000e-001) (24, -4.70112621162152080000e-001) (25, 2.59565132810315040000e-002) (26, 6.60786497464958130000e-002) (27, -5.03350166017703520000e-002) (28, 5.35354839629090580000e-001) (29, 1.00846612042705640000e+000) (30, 1.03960152166820310000e-001) (31, -1.01462305993893600000e-002) (32, 7.84452638567831870000e-001) (33, 8.33923108008250560000e-002) (34, 1.39932754968318390000e-001) (35, -2.24039874734889150000e-001) (36, 1.39732212783589850000e+000) (37, 4.20861252847497760000e-001) (38, -5.55195073404281090000e-001) (39, -8.18770426210115530000e-001) (40, -4.84851067588801770000e-003) (41, 8.72669385895893820000e-001) (42, 9.17395620800319780000e-001) (43, -1.78387188452343720000e-001) (44, -2.23875351475092440000e-001) (45, 2.94070196065272520000e-001) (46, -5.61927751910297980000e-001) (47, 5.32298612399961350000e-001) (48, 1.67327337199156250000e+000) (49, 2.56081112845604590000e-001) (50, 6.86600782082215530000e-001) (51, -8.11659535803891830000e-001) (52, 5.28603482505980540000e-003) (53, -7.52343649101886670000e-001) (54, -4.86418161719357480000e-001) (55, -2.79902772625327400000e-002) (0, -1.71889239864889690000e+000) (1, 9.67968998011901200000e-002) (2, 5.53826916922029900000e-001) (3, -1.02144921047661440000e-001) (4, -1.69858992246942560000e-001) (5, -2.76953262879993170000e-001) (6, 4.40459496508854520000e-001) (7, 4.60189534356309720000e-001) (8, 2.75082213829951570000e-001) (9, -9.75545531939669140000e-002) (10, -1.43237609053533170000e-001) (11, 8.00732235912293420000e-002) (12, 1.74497251379932690000e-001) (13, -1.67288301633559070000e-001) (14, 1.08384358963199300000e-001) (15, -2.19940170010417990000e-001) (16, 1.03883479194493190000e+000) (17, 5.76791245678697500000e-002) (18, 4.60876432999404510000e-001) (19, 3.42537918118230980000e-001) (20, 5.00993473851882090000e-001) (21, -6.06148112221247330000e-002) (22, 7.41610583971036160000e-002) (23, 4.66876922268679660000e-001) (24, 1.15194278461480740000e+000) (25, -5.86840504624288940000e-001) (26, -1.92483424914291300000e-001) (27, -6.53288698629759580000e-001) (28, 1.07244316343943360000e+000) (29, 1.31999475591598350000e+000) (30, 3.13040424890634670000e-002) (31, 1.90939315240033270000e-001) (32, 6.35899228782983460000e-003) (33, -5.76466403820308120000e-001) (34, 8.68442759159264170000e-001) (35, 3.40522256570097990000e-001) (36, 5.65376380076900940000e-001) (37, 8.92173203601514310000e-001) (38, 1.05914411333184910000e+000) (39, 1.98435688209191800000e-001) (40, 4.61341061276988210000e-001) (41, 1.11438543407648000000e-001) (42, -2.09948935622845970000e-001) (43, 7.49192029516227430000e-001) (44, -3.38716987892758500000e-001) (45, -1.70864613941809910000e-001) (46, -3.57225133987072510000e-001) (47, 5.26996481014092800000e-001) (48, -2.05506548912727790000e-001) (49, 4.07662903656337060000e-001) (50, 1.12725208080796070000e+000) (51, 4.24713075611533210000e-001) (52, -8.28161554682742000000e-002) (53, 1.53217313267185850000e-001) (54, -1.71113759144976040000e-001) (55, 3.53109224015426200000e-002) (0, 1.18804931974436800000e+001) (1, 1.00866631751875870000e+000) (2, 6.27872982236128200000e-001) (3, 7.92595694771906360000e-002) (4, -4.92352961733005910000e-001) (5, 3.89303450886084150000e-001) (6, -2.77301351529291650000e+000) (7, 8.00734505861413040000e-001) (8, 1.25813358539648230000e+000) (9, 4.89555921902298300000e-001) (10, 6.54433007274918380000e-001) (11, 6.51305772448734780000e-001) (12, 3.58211709786356690000e-001) (13, 5.37093087482606420000e-001) (14, 2.89767689600489930000e-001) (15, 5.52569412116852950000e-001) (16, -1.26347909603065030000e+000) (17, -6.10582478154776190000e-002) (18, -7.51432682113076790000e-001) (19, 1.94924222100578340000e+000) (20, 1.39390436776968630000e+000) (21, 4.69872515926674120000e-001) (22, 7.51271380742775440000e-001) (23, 4.96715141793856290000e-001) (24, -4.54128548969482630000e+000) (25, 6.65810313276836490000e-001) (26, 1.65928387982349130000e-001) (27, 1.30964086618305110000e-001) (28, 4.31029568523605690000e-001) (29, -4.27326587994171610000e-001) (30, 2.24602093439753430000e-001) (31, 2.81846131746290670000e+000) (32, 2.55310223915034750000e+000) (33, -6.47114707998904310000e+000) (34, 1.07496821865400500000e+000) (35, 2.67542462645681800000e+000) (36, -2.14272599348310670000e-001) (37, 1.03879809981716130000e+000) (38, -7.01399377637513950000e-002) (39, 1.10519334704002800000e-001) (40, -3.07641087444425530000e-001) (41, 1.02633808726703730000e+000) (42, -1.73600840606156590000e+000) (43, 3.03985103729839000000e-001) (44, 2.13564811480328400000e+000) (45, 1.12846238757908050000e+000) (46, 2.00687819867472990000e+000) (47, 4.72719768755237910000e-001) (48, 2.60593769993768150000e+000) (49, 2.41532290465215880000e-001) (50, 4.66301635533617250000e-001) (51, 5.81140068852668890000e-001) (52, 8.10304954272086260000e-001) (53, 1.65228909418160320000e-001) (54, 6.09892030613421450000e-001) (55, 1.76036942253260850000e+000) (0, 8.00439401349009930000e-001) (1, 5.03813095656748590000e-003) (2, -8.37637449218013030000e-002) (3, 7.33333534844578860000e-001) (4, 1.86129270537932130000e-001) (5, 1.78003959032881300000e-001) (6, 1.78857625814551590000e-001) (7, 7.13346286613754930000e-002) (8, 1.65019314759229960000e-001) (9, 4.11491406050913670000e-002) (10, 1.71654268918832450000e-001) (11, 9.92233410102178050000e-002) (12, -9.73956934938347700000e-002) (13, 1.56145393086324500000e-001) (14, -4.86837811075675700000e-001) (15, -1.99257646304129290000e-001) (16, -5.77949133559916170000e-001) (17, -6.27358205269296200000e-001) (18, -2.92472238683134860000e-002) (19, -9.53283468375668020000e-002) (20, 5.69513814539592270000e-001) (21, -3.22114238482667240000e-001) (22, -5.21185073574185410000e-002) (23, -4.62028853249858370000e-001) (24, 6.13282217174036190000e-001) (25, 4.19013398736016560000e-001) (26, -6.60383799305795660000e-002) (27, -1.01575344810226320000e+000) (28, 1.72807574280653280000e+000) (29, 6.56637743975275970000e-001) (30, -3.90001098545251890000e-001) (31, -5.80072380856230580000e-001) (32, 5.82583481662206410000e-001) (33, 1.34688943753397420000e+000) (34, -5.12587770480673060000e-002) (35, -1.02599348279688620000e+000) (36, 1.13044524874557160000e+000) (37, 6.24500820646119110000e-001) (38, -9.39447650196066490000e-002) (39, -1.54074374345924140000e-001) (40, -4.91761823533640790000e-001) (41, 1.07896604421658180000e+000) (42, 4.60021578059869760000e-001) (43, -5.28229198352614730000e-001) (44, -1.43572003324665440000e-001) (45, 3.37729046852416750000e-002) (46, -2.91227210324357720000e-001) (47, -1.27960552165721720000e-001) (48, -6.69088812268596840000e-001) (49, 2.88280365599431880000e-001) (50, 1.05904097045501090000e-001) (51, 5.50788314091119170000e-001) (52, -1.21951478599904640000e-001) (53, 1.22943933740584590000e-001) (54, -4.89746757384891430000e-001) (55, 1.24533684038547030000e+000) (0, -9.32946493501304650000e-001) (1, 4.81242528265039940000e-001) (2, -2.44610373598488360000e-001) (3, -8.93925255617128020000e-002) (4, 1.92156526620848030000e-001) (5, -2.89146770412602620000e-001) (6, 8.98525703248962420000e-001) (7, 2.87747197482450590000e-001) (8, -1.64123219833897550000e-001) (9, 1.04024823943194800000e-001) (10, -1.15176286008020540000e-002) (11, -3.18505549293029570000e-002) (12, 2.97759391331380760000e-003) (13, 3.61352062659066500000e-001) (14, -8.18915877641717140000e-002) (15, -3.00180171937861230000e-001) (16, 3.60476151563551420000e-002) (17, -1.65256963711024140000e-001) (18, 1.09488515923200100000e+000) (19, -1.12483672280696400000e+000) (20, -5.96267503735109510000e-001) (21, 1.63463117556717000000e-001) (22, -8.78938767339793920000e-001) (23, 2.93980614628605200000e-001) (24, -1.40404424084621980000e-001) (25, -3.06501718011983060000e-002) (26, 1.58001107742269830000e-001) (27, 9.35516184373625160000e-001) (28, 6.62313166339417390000e-001) (29, -1.01406925243784320000e+000) (30, -1.45207620007813000000e+000) (31, -5.81501355051540330000e-001) (32, 3.53919372102052040000e-001) (33, -1.16255815578391150000e+000) (34, 6.43254179580968060000e-002) (35, -1.08966646560386730000e+000) (36, 9.12256726642514890000e-001) (37, 6.12274143036243610000e-001) (38, 7.31842721028141530000e-003) (39, 1.19129634631643860000e-001) (40, -1.21184284162009500000e+000) (41, 4.33693692679850970000e-001) (42, -1.64491768813380950000e+000) (43, -1.36348900031252720000e-001) (44, -3.17126155856800680000e+000) (45, 2.90800608653619060000e-001) (46, -8.60461507738088720000e-001) (47, -3.01240933123687100000e-001) (48, -1.03635885754754620000e+000) (49, -6.88178460871713000000e-002) (50, 9.30317618649009300000e-001) (51, -2.21630686519012690000e-001) (52, -5.20490499908794370000e-001) (53, 3.05377059095393590000e-001) (54, 2.33188737993324820000e-001) (55, 4.73525961331182020000e-001) (0, -3.63926073613478780000e-001) (1, -4.15719643182503100000e-001) (2, -3.22922988134656200000e-001) (3, 7.85474205548521150000e-003) (4, -2.55431275948730590000e-003) (5, -1.98587013519062580000e-001) (6, -1.05042037667842340000e-001) (7, 3.38469783135673330000e-001) (8, 5.47638850179127280000e-001) (9, -5.04615577285336400000e-002) (10, -1.06672309470147640000e-001) (11, 9.93840596978334680000e-002) (12, -1.00516246043782200000e-001) (13, 2.23519458634240730000e-002) (14, 2.24897722563405410000e-002) (15, 3.31005768047200000000e-001) (16, -7.98287745290302550000e-001) (17, -4.47834847175842430000e-001) (18, 7.98442517163113990000e-001) (19, -2.67946616854490280000e-001) (20, 2.12886865212409820000e-001) (21, -7.47844110187203760000e-001) (22, -3.21966144432093770000e-002) (23, -3.53949473847484430000e-001) (24, 1.12863500846309560000e+000) (25, -2.91574279695205110000e-001) (26, -2.88854157956017710000e-001) (27, 8.74807494058890410000e-002) (28, 8.78338122264587630000e-001) (29, 2.10369698529514320000e-001) (30, -9.04468658535179100000e-002) (31, 3.64683606442407270000e-001) (32, 2.29952074635037420000e+000) (33, 8.36238309478897800000e-003) (34, 1.18268282747916430000e+000) (35, -6.30791877653216760000e-001) (36, 1.23652179079346620000e+000) (37, -1.05504432242860210000e+000) (38, 1.27108611346733600000e-001) (39, 7.43087523227916050000e-001) (40, -3.86012785497361730000e-001) (41, 8.34418330858481160000e-001) (42, -4.07582394218622080000e-001) (43, 3.67832959033487440000e-002) (44, -1.28329174558215240000e-001) (45, 1.00361252331074320000e-001) (46, 9.91457973781869950000e-001) (47, 8.43001084076392820000e-002) (48, -3.33586989510280870000e-001) (49, 1.54003098487905170000e-001) (50, 6.41476117942806010000e-001) (51, 5.33381461223198630000e-001) (52, -3.96955658934047050000e-001) (53, -3.00477306216092700000e-001) (54, 6.01884494260796710000e-001) (55, -5.22944356436156440000e-001) (0, -5.96019051644876230000e-001) (1, 3.43035151981978040000e-001) (2, 1.29858801975353270000e-001) (3, -1.70889949017110830000e-001) (4, 8.78356086072636930000e-001) (5, 6.85901714979837570000e-002) (6, 4.93404498670796250000e-002) (7, 3.01795783318370810000e-001) (8, -6.87866265217411010000e-001) (9, -4.31390104441797040000e-001) (10, 6.27735960997951150000e-001) (11, -7.39597851157004940000e-001) (12, 3.19992665230026600000e-002) (13, 6.83076284491364040000e-001) (14, -3.27807908969490860000e-001) (15, 2.47659524529175500000e-001) (16, -2.83569764245707030000e+000) (17, 1.30676261734097270000e-001) (18, 1.51653537875548170000e-001) (19, -6.49999080779657960000e-001) (20, -1.21936266581972250000e+000) (21, -1.04885173594995830000e+000) (22, -1.01754035290884800000e-001) (23, -5.97228287412671640000e-001) (24, 2.30748355262782590000e-002) (25, -8.36158706671341620000e-001) (26, 3.28288482381298370000e-001) (27, 1.59386672934488430000e+000) (28, 5.58259074131203900000e-001) (29, -4.16727312378760100000e-001) (30, -4.47438926102181110000e-001) (31, -4.35121066899476090000e+000) (32, 8.16200545591669770000e-001) (33, -2.11953401577480970000e+000) (34, 9.26164036780406370000e-002) (35, -1.00072892865220050000e+000) (36, 1.32983225372920870000e+000) (37, 2.17851775113472980000e-001) (38, 5.17208377518948710000e-002) (39, -1.02183748132796600000e+000) (40, 3.93057371970414680000e-001) (41, 1.20128841291178690000e+000) (42, -6.40270276887175750000e-001) (43, -6.66942187242281380000e-001) (44, -3.42113112685194660000e+000) (45, -5.09786259371706070000e-001) (46, 6.65980978734865970000e-002) (47, -9.89389785097152160000e+000) (48, -8.91956011874668770000e-001) (49, 2.13169855726227180000e-001) (50, -8.61481511129224550000e-002) (51, -4.81762379007068640000e-001) (52, 5.47874174615582850000e-001) (53, -2.22188009760501720000e-002) (54, -2.63026591089002950000e-001) (55, 1.55591153433878370000e+000) (0, 1.14728408984619200000e+000) (1, 5.28794979440533770000e-001) (2, 6.65295071494588550000e-001) (3, -2.02223029085979670000e-001) (4, 1.03926297044738060000e+000) (5, -6.31787114402030280000e-001) (6, -3.12898054592316900000e-001) (7, 7.67206827111736160000e-001) (8, 2.72418084640343230000e-001) (9, 6.04089341985295860000e-002) (10, -5.12998872918330570000e-001) (11, 4.23759066267815120000e-001) (12, 4.16625770399947140000e-001) (13, -6.58794590769822260000e-003) (14, 3.96866840372373190000e-001) (15, 4.49121352941852400000e-001) (16, 7.33721674280534970000e-002) (17, 8.50736955803600980000e-001) (18, 3.08838182891406520000e-001) (19, 1.26575208674639520000e+000) (20, 9.21141453475839640000e-001) (21, 9.54194034606213210000e-001) (22, 4.79458736670819450000e-001) (23, 1.03073180534958260000e+000) (24, 1.87127277280715250000e-002) (25, 1.17457911401855370000e+000) (26, 7.79993640563029780000e-001) (27, -2.41597058668043040000e-001) (28, -3.53768112566932970000e-001) (29, 5.54447371556254900000e-001) (30, 1.11074635940232240000e+000) (31, 1.12313773389631440000e+000) (32, -9.49100889127488520000e-002) (33, 9.42990184481603540000e-002) (34, -3.62812087313720890000e-001) (35, 6.68634839507039610000e-001) (36, -6.49861130228047010000e-002) (37, 1.23838606865561940000e+000) (38, 2.26388614241558710000e-001) (39, 4.73454356165321830000e-001) (40, 1.13689776719876830000e+000) (41, -3.42151840396452190000e-001) (42, -4.14438039905753010000e+000) (43, 1.02031544393037540000e+000) (44, 4.10442314702091530000e-001) (45, 9.78177450169295250000e-001) (46, 5.28951082323699580000e-001) (47, 1.09435814396641780000e+000) (48, 8.26608778381416890000e-001) (49, 1.25558541481156590000e+000) (50, 1.39169061206379810000e-001) (51, -1.01905414323383110000e+000) (52, 1.00421792758869750000e+000) (53, 2.62735936536322710000e-001) (54, 1.31786746130859300000e+000) (55, -8.54459942244237490000e-001) (0, 1.72190814945800030000e+001) (1, 1.86238453656068970000e+000) (2, 4.41232835856754770000e+000) (3, -8.88552059237399880000e-001) (4, 2.14618850175809170000e-001) (5, -3.40279617207335330000e+000) (6, 1.69606471534813760000e-002) (7, 6.64330115649651720000e+000) (8, 3.82322152578927600000e-001) (9, 1.11441985096988950000e+000) (10, 1.57882033705307650000e-001) (11, 1.00375114620683490000e+000) (12, 2.43880890126659760000e-001) (13, -1.27114110914007880000e+000) (14, 8.67515263593251370000e-001) (15, 2.15705380175988950000e+000) (16, 1.53865317141129450000e+001) (17, 4.41602125701008250000e-002) (18, 3.74397552318950270000e+000) (19, 1.11039823220256650000e+000) (20, 9.00216411602936420000e-001) (21, 3.89663580440030520000e-001) (22, 2.74967691579285400000e+000) (23, 9.42857900256403810000e-001) (24, 6.36158716542323880000e+000) (25, 5.90408537444660490000e-001) (26, 1.58438741133720360000e+000) (27, 1.33715060378090480000e+001) (28, 4.36948651824223100000e-001) (29, -7.91712627300908630000e-001) (30, 1.26200062703048380000e+000) (31, 3.79760502301087840000e+000) (32, 6.06010648894554580000e-001) (33, -8.06012964597012880000e+000) (34, 1.03367884970385340000e+000) (35, 8.74207114486227340000e-001) (36, 1.96222963070248950000e-001) (37, 2.05547023517338030000e-001) (38, 1.63735912757517510000e+000) (39, 7.33810033286025790000e-001) (40, 1.06800926295939470000e+000) (41, 4.82086483692963640000e-001) (42, -2.54813420371867180000e+000) (43, 6.63615229929771400000e-001) (44, 4.20005244723081540000e+000) (45, 2.48074910888354650000e-001) (46, 5.68449516646723500000e-001) (47, 1.97465647108441030000e+000) (48, 9.96692216894077940000e-001) (49, 7.92876674786994640000e-001) (50, 1.08795572365452840000e-001) (51, 5.81943724190511210000e-001) (52, 6.89115950711029490000e-001) (53, 1.23750360912464410000e+000) (54, 5.52200114536780860000e-001) (55, 5.94173584378712330000e+000) (0, 1.34671362353630620000e+000) (1, -8.53558918656351810000e-001) (2, -1.25325377907481710000e+000) (3, 9.98683844417943970000e-002) (4, -1.43507545611709380000e-002) (5, 2.92094734719798080000e-001) (6, -3.67710873047685290000e-001) (7, -7.46341090000264690000e-002) (8, 2.04975678661670710000e-001) (9, -4.58622864844059060000e-002) (10, 1.97973795236057070000e-001) (11, 1.03167525567371370000e-001) (12, 1.15134175059614760000e-001) (13, 5.04338235480749190000e-001) (14, 1.52331868752610680000e-001) (15, 5.18258788799213390000e-001) (16, -3.87988833340259080000e-001) (17, -5.47860455646223430000e-001) (18, 3.99246800377602570000e-002) (19, 1.04453844249682960000e+000) (20, 6.82520283359896560000e-001) (21, 7.00983018435622160000e-001) (22, 1.08381740758286810000e-002) (23, 7.68758562794954030000e-001) (24, 8.02319162302644330000e-001) (25, 6.04249358215948880000e-002) (26, 4.38845010193658960000e-001) (27, 3.44251628875034190000e-001) (28, 8.08808617961824020000e-001) (29, -1.25788810768455610000e-002) (30, 5.11269453912228810000e-002) (31, 3.06172855627750980000e-001) (32, 3.58478673311909270000e-002) (33, 4.51466933152212260000e-001) (34, 2.77321247993988720000e-001) (35, 5.34563453716469520000e-001) (36, 5.07190803153667380000e-001) (37, 7.88536643530273420000e-001) (38, -4.50420344516669120000e-001) (39, 8.09096597710591840000e-002) (40, 5.66785116658647950000e-001) (41, 2.82687417924725900000e-001) (42, -8.67066590321288190000e-001) (43, -3.64701234599299280000e-002) (44, -1.93997513644786030000e-002) (45, 1.07912600323045820000e+000) (46, 8.09414524583987770000e-001) (47, -2.84062423168519760000e-001) (48, 9.80259003714249590000e-002) (49, 2.26749235758925470000e-001) (50, 6.31078786455959940000e-001) (51, -3.98319732632924530000e-001) (52, 3.81549465055903370000e-001) (53, -5.53912861287275240000e-001) (54, 4.45645455874068170000e-001) (55, 5.89724023896061110000e-002) (0, 3.09881502804898960000e-001) (1, 1.43672055113475170000e-001) (2, 1.72789492897391710000e-001) (3, -5.15333698391184370000e-002) (4, 6.79130640476817010000e-002) (5, -1.64120479752608430000e-001) (6, 1.19246503678745630000e-001) (7, 2.79436226021196830000e-001) (8, -2.44153894079913970000e-001) (9, 7.81469879339522360000e-002) (10, -5.31366599129336460000e-003) (11, -7.85250113807581110000e-002) (12, -2.28605593289549350000e-001) (13, 4.17068826721857190000e-001) (14, -3.64314725635957600000e-002) (15, 7.51711104452922110000e-001) (16, -1.97688144675345070000e-002) (17, 6.66267129847803450000e-001) (18, 8.67372059448563440000e-001) (19, -1.14121050542589890000e-001) (20, -3.50578739313699080000e-002) (21, 3.74626472661099220000e-001) (22, 9.80306885870912670000e-004) (23, 5.05826913117588540000e-002) (24, -5.20552664404690390000e-001) (25, -4.01694506697874430000e-001) (26, 1.00647482555910170000e-002) (27, 2.69886987357243980000e-001) (28, 1.09397508381320430000e+000) (29, 4.97071277636703330000e-001) (30, -1.05538536280641220000e-001) (31, 1.11255443319754950000e-001) (32, 1.11772443013383380000e+000) (33, 2.30175888687853630000e-001) (34, 8.42341469948874880000e-002) (35, 3.31692786690080230000e-001) (36, 1.10755149033201610000e+000) (37, -1.27317235367046240000e+000) (38, 2.92605974114783620000e-001) (39, 7.60689240803280460000e-002) (40, 4.40891136241409330000e-002) (41, 4.33461879608946440000e-001) (42, 2.11940970412435000000e-003) (43, -1.75554387971509710000e-001) (44, 2.08988326807755000000e-001) (45, 4.22998633221000060000e-001) (46, 3.81013775956324460000e-001) (47, 2.66781814027635730000e-001) (48, -2.40819474064456110000e-001) (49, -1.79185998462248610000e-001) (50, 5.66560292496311350000e-001) (51, 3.60369048795764530000e-001) (52, 1.40241611314541100000e-001) (53, 3.17792026915733380000e-001) (54, 7.94293542762400720000e-001) (55, 4.47858953494279950000e-001) (0, 3.47231525122280350000e+000) (1, 9.05233635979863620000e-001) (2, 8.07046294659675480000e-001) (3, -3.17442299516842770000e-001) (4, 4.59603254511425030000e-001) (5, 1.18279224536601140000e-001) (6, -6.73988628562802280000e-001) (7, 7.51685723522737550000e-001) (8, -8.81157473530888470000e-001) (9, -1.96689619379174780000e-001) (10, -1.72878398184120350000e-001) (11, -1.20458492982900940000e-001) (12, -9.63124361709238990000e-001) (13, 1.33892108738525030000e-002) (14, 1.32602743263991350000e-001) (15, 9.29996625704366360000e-001) (16, -4.38336055400724330000e+000) (17, 3.31094514236323860000e-001) (18, -1.05808064877676130000e+000) (19, -1.59637006259800040000e-001) (20, 1.06980402966537130000e-001) (21, 6.02447652752177570000e-002) (22, -3.25967863934027500000e-002) (23, 2.83534194912969660000e-001) (24, 1.31515552862742080000e-001) (25, 3.65513897173837780000e+000) (26, 8.41509210863966130000e-001) (27, 8.14860295493365690000e-001) (28, 6.70459044134484760000e-001) (29, 7.57129728113502650000e-001) (30, 3.14491213675219150000e-001) (31, 6.25732775887546250000e-002) (32, 1.26046332431491930000e+000) (33, -2.15503576053731740000e+000) (34, 5.43196540966113580000e-001) (35, 4.47423191880486460000e-001) (36, 4.08967969709901350000e-001) (37, -4.87756775320414670000e-001) (38, 4.10125096310110350000e-001) (39, 3.22025713633551420000e-001) (40, 1.88796393103495110000e-001) (41, 4.30169007512104800000e-001) (42, 1.49866593345799730000e+000) (43, -3.09062400867953060000e-001) (44, 9.00187450560793740000e-002) (45, 1.97941180041507740000e+000) (46, -1.50503989479527660000e+000) (47, -1.00158944179204770000e+000) (48, -5.44356172669942300000e-001) (49, -5.46368847442236680000e-001) (50, 3.11965354698383990000e-001) (51, 3.13679494932844120000e-002) (52, 3.33644336809743260000e-001) (53, 4.71251917092319780000e-001) (54, 1.91244383813532410000e+000) (55, -1.42074057783600760000e+000) (0, -5.52200375515377260000e-001) (1, -2.29161589754898980000e-001) (2, -7.12952419900755170000e-002) (3, -9.63843388487864790000e-003) (4, -1.87036763930514270000e-001) (5, 3.03371913839625280000e-002) (6, 2.84144753477891980000e-001) (7, 4.14344498275720900000e-001) (8, -2.54797322348728090000e-001) (9, -4.97336657558956340000e-002) (10, -1.12476606765961250000e-001) (11, -3.86958213358154920000e-002) (12, 2.92494985707982300000e-003) (13, -2.84029224576745180000e-001) (14, -4.54618731285494970000e-002) (15, -1.07145247374755230000e-001) (16, -4.89312113182291120000e-001) (17, 3.91033061731546950000e-001) (18, 4.81630515826033940000e-001) (19, -7.49627079680445250000e-003) (20, 8.67863008537900350000e-002) (21, 7.91532889155397550000e-001) (22, 6.43896434499569790000e-001) (23, 1.93821476532066370000e-002) (24, -8.39393985504806730000e-002) (25, -1.51904159793244150000e-001) (26, 3.35833123644087070000e-001) (27, -4.40954713513132120000e-002) (28, -8.80233688958402260000e-002) (29, -2.56014095019175050000e-001) (30, 7.65528607593616990000e-002) (31, 5.01349834579640010000e-002) (32, 3.75661227752527690000e-001) (33, 6.36561273382416530000e-001) (34, -3.98099382055262130000e-001) (35, 4.96136469406814090000e-003) (36, 8.14307673575604070000e-001) (37, 6.38141288253050720000e-001) (38, -5.84847509642398730000e-001) (39, -4.47166075812487410000e-001) (40, 1.71753461851954750000e-001) (41, 7.28192433980329070000e-001) (42, 1.01180194880168580000e+000) (43, 6.91766841204924520000e-002) (44, -3.70132748696756110000e-001) (45, 4.14039644165002000000e-001) (46, 7.15503406584628410000e-001) (47, -4.46457924564500840000e-001) (48, 6.32500979498861190000e-001) (49, 2.56763765653275190000e-001) (50, -6.13904931156664340000e-001) (51, 7.11452011471280230000e-002) (52, 4.09470935257021450000e-002) (53, -5.82835935278836370000e-001) (54, -3.09522593560777490000e-001) (55, 1.01550961852502150000e-001) (0, 1.51639596317315430000e+000) (1, -1.51565649272798030000e-001) (2, 1.95188733528536880000e-001) (3, 1.65813673881811200000e-001) (4, 5.24598741425323920000e-001) (5, 3.23808713027353980000e-001) (6, 1.89061933723459720000e-001) (7, 7.50211753322236660000e-001) (8, -1.69361514211242040000e-001) (9, 1.40890675878178470000e-001) (10, 2.08703583060990290000e-001) (11, -5.80629619626901740000e-002) (12, -1.76848655918755570000e-003) (13, 5.96184184737066580000e-001) (14, 4.10577364184920020000e-002) (15, 1.20903676642358590000e+000) (16, 6.33528045187548570000e-002) (17, -3.43312487119034950000e-001) (18, 8.23634019913964790000e-001) (19, 1.45340267234284750000e-001) (20, -1.22590804558051650000e+000) (21, 5.25143244223551660000e-002) (22, 2.53242508248922060000e-002) (23, -2.53701618836862410000e-002) (24, -5.93840011014481030000e-001) (25, 5.69868514150705720000e-001) (26, 6.26416801337222990000e-001) (27, 1.12308274580511490000e+000) (28, 6.33608302285765480000e-001) (29, -1.07160552338114280000e+000) (30, -1.89745825765363340000e-001) (31, -4.46450532045969410000e-002) (32, 2.23352596632416980000e+000) (33, -1.42371509001956160000e-001) (34, -4.59501489570049880000e-001) (35, -7.73543836086408640000e-001) (36, 9.55220468723772310000e-001) (37, -3.52307651602106360000e-001) (38, 8.50305206462986930000e-002) (39, 7.57584742817225540000e-001) (40, -6.69974291776666230000e-001) (41, 2.81875850100287220000e-002) (42, -1.64601727066696000000e+000) (43, -1.10743246143195780000e-001) (44, 3.81902952247839410000e-002) (45, 1.99249392825032840000e-001) (46, 1.43872332511958680000e+000) (47, -7.83351788859614320000e-001) (48, -9.12694899349964510000e-001) (49, -3.16518714984290180000e-001) (50, 5.08196219704897260000e-001) (51, -5.00481354125223650000e-001) (52, 4.07130151184853960000e-001) (53, 4.39375613054249160000e-001) (54, 4.02315963968514550000e-001) (55, -2.73291114035451640000e-001) (0, 2.00303597823141330000e+000) (1, 3.75927158206966590000e-001) (2, -2.96688889477686790000e-001) (3, 1.24431683818507460000e-001) (4, 3.20220308304686950000e-001) (5, 1.76189664303214060000e-001) (6, -2.00690811289987030000e-001) (7, -4.40362822422701750000e-001) (8, 5.82029403470417210000e-001) (9, -7.96664536306744280000e-002) (10, 1.29220600681842930000e-001) (11, 2.06134499969676530000e-001) (12, 2.74874463678180580000e-001) (13, -3.10124772031253380000e-001) (14, 1.77900495352714130000e-001) (15, 4.68064151111683480000e-001) (16, 2.00250143452166910000e-001) (17, 9.58253329899139920000e-001) (18, -5.81506449420555180000e-001) (19, -4.92163602548167790000e-002) (20, 3.72590295791681130000e-001) (21, -5.60908552563566670000e-003) (22, -4.30163211519554440000e-002) (23, -3.38757753629599920000e-001) (24, 5.62387986212936760000e-002) (25, -5.32434045185629650000e-001) (26, -4.62527524657956100000e-001) (27, 5.58725474247391050000e-001) (28, 2.15873457933078080000e-001) (29, 4.56770110625760120000e-001) (30, 9.39178683066954290000e-001) (31, 4.34043397800844170000e-001) (32, 1.15103700922766940000e-001) (33, -3.54707354570668990000e-001) (34, 9.14602479619692100000e-001) (35, 6.63639664050410970000e-001) (36, 9.58552275875674600000e-001) (37, 1.05417647986607800000e+000) (38, -1.46857960124894470000e-001) (39, 2.46177936705781950000e-001) (40, -4.45981259157612610000e-002) (41, -4.71961672917036060000e-001) (42, -3.12982206393361500000e-001) (43, 1.36352921400488670000e+000) (44, 2.04047483618061850000e-001) (45, -2.92268658356806120000e-005) (46, -1.76395096165780030000e-001) (47, 7.71835375846411710000e-001) (48, 1.15341210429723180000e+000) (49, 4.38204294533684870000e-001) (50, 2.26693695166246070000e+000) (51, -2.05861542060664870000e-001) (52, -4.49504701442773660000e-001) (53, -5.58645309423953180000e-001) (54, 3.70769396549477100000e-001) (55, -2.24760382523937350000e-001) (0, -5.53301086968832840000e-001) (1, -2.05910481590879920000e+000) (2, -2.14605951212614930000e-002) (3, -4.37594456279078560000e-001) (4, 1.75395341293332340000e-001) (5, -3.62925972097478790000e-001) (6, 5.91160949843205220000e-001) (7, 3.87778538463475210000e-001) (8, 5.64083352266695930000e-001) (9, -6.64598803203328290000e-002) (10, 2.11259626499825450000e-002) (11, 1.28179915441347760000e-002) (12, 4.19263231687824620000e-002) (13, -3.37530892232753120000e-001) (14, -8.30633070194647660000e-002) (15, 1.06409198544199170000e-001) (16, 3.30771737396589550000e-001) (17, -5.13823219757889860000e-002) (18, 1.26218831794982170000e+000) (19, -3.46124076980982800000e-001) (20, -4.78416852416553680000e-001) (21, -5.78255150111107840000e-001) (22, 3.43381952683668670000e-001) (23, -3.38713544707598680000e-001) (24, 5.86000240013186070000e-001) (25, 6.45294548951713810000e-002) (26, -3.37672020880652400000e-001) (27, 1.49037183820086880000e+000) (28, 1.04598106814321270000e+000) (29, -8.46379927262324030000e-001) (30, -2.92788740021541480000e-001) (31, 5.37143080272822200000e-001) (32, -1.80042868483551080000e-001) (33, -1.25799780096466130000e+000) (34, 1.85571007491716570000e-001) (35, -3.74698072760619230000e-001) (36, 1.05325276111670570000e+000) (37, 8.55098192321415980000e-002) (38, 1.78487216193806280000e-001) (39, 8.18717831806648480000e-001) (40, 1.61068553878426560000e-001) (41, 1.01299831170622000000e+000) (42, -4.90886345656267540000e-001) (43, -1.24414304337733030000e-001) (44, -4.75376489707498020000e-001) (45, -2.17217211026674160000e-001) (46, -3.78926452814008440000e-001) (47, 5.29165421366510120000e-001) (48, -1.49006486054077690000e+000) (49, 1.83988697213351450000e-001) (50, 1.16199131365648790000e+000) (51, -9.58574586609111800000e-002) (52, 2.69234100219221840000e-001) (53, -4.20058335182082300000e-001) (54, -2.09845298453107070000e-001) (55, 8.28419524545841780000e-001) (0, -7.06333498300560510000e+000) (1, -8.86770136708911580000e-001) (2, 6.47758423023097860000e+002) (3, 1.43448311265524000000e-003) (4, -1.11188336801238130000e-001) (5, -1.66972726286923150000e+000) (6, -7.30851681969517270000e+001) (7, 3.46049765309091040000e-001) (8, -3.70579536696088980000e+000) (9, 2.97453913411803940000e-001) (10, 4.33923374961575660000e+001) (11, 3.87746237670969440000e-001) (12, -7.16848219338156500000e+000) (13, 1.73529678406787430000e-001) (14, 3.07191711023142910000e+001) (15, 1.27623638428876940000e+000) (16, 1.74726502215747440000e+000) (17, 1.12038461836478280000e+000) (18, -4.02428469490612170000e-001) (19, 7.27167961070314830000e+000) (20, 8.28933432358354770000e+000) (21, 6.05042246779056380000e+000) (22, -1.10254542373784670000e+003) (23, 8.53744167446870870000e-001) (24, 3.10770431560335370000e+000) (25, -6.87913293474869820000e-002) (26, 5.02631682238214860000e-001) (27, -1.49958049148061100000e+003) (28, -1.37474628092090990000e+000) (29, 2.54231255781191090000e+002) (30, 5.80863562366864090000e-001) (31, 4.23311136642958350000e+001) (32, 4.92916781399140470000e-001) (33, 1.81251367317055490000e-001) (34, 1.49999105606357560000e+003) (35, 1.42258870073177390000e-001) (36, -1.07333781766962090000e+000) (37, -9.06063503362629240000e+000) (38, 1.41408617179561640000e+000) (39, 1.38540764410146570000e+001) (40, 4.31762090889007590000e+000) (41, -6.85700157352300500000e-001) (42, 5.50349030281808040000e-001) (43, 2.95517791403666100000e+000) (44, 1.80316363696536780000e-001) (45, 1.04116122583649000000e+000) (46, 4.95596159288067210000e+001) (47, 1.23971647924674580000e+003) (48, 8.77654213529992180000e-001) (49, 3.50910617220910080000e+000) (50, 8.22540411113422020000e-001) (51, 1.43065419285192120000e+003) (52, 5.03789596915235170000e-001) (53, 1.99306730042790650000e+001) (54, -7.37461240431699250000e-001) (55, -1.27957171059571740000e+003) (0, 1.78030067145865780000e+000) (1, -3.49678512302070530000e-001) (2, -1.41976118182689510000e+000) (3, -2.91768589469326920000e-002) (4, -3.45769687560757160000e-001) (5, -5.14433627166757330000e-001) (6, -2.34124284373452870000e-001) (7, -5.00214187952287780000e-001) (8, 7.72219506784535770000e-001) (9, 4.95845018230045220000e-003) (10, 3.05108898071425190000e-002) (11, 1.45992499345387690000e-001) (12, 5.27727333302673850000e-002) (13, 5.81716793995572970000e-001) (14, 5.90068945003412240000e-002) (15, -6.38922521237753060000e-001) (16, -9.08746578882530630000e-001) (17, -7.16865524693616750000e-001) (18, -1.15687923355437120000e-001) (19, 1.35525301113884060000e-001) (20, 8.77479925968321780000e-002) (21, 6.29883054726976250000e-001) (22, -2.80275818198894850000e-002) (23, -6.22879805198767180000e-002) (24, 9.28003316197202550000e-001) (25, 3.60112895756160010000e-001) (26, -7.40504338187323970000e-001) (27, 7.45061811028171480000e-001) (28, -2.24000090765677980000e-001) (29, 3.76983041818711560000e-001) (30, 5.82740445395305340000e-001) (31, 4.72491029684664330000e-003) (32, 5.43271470537652140000e-002) (33, 7.43632385035159600000e-001) (34, -7.35153456747543590000e-002) (35, -2.21469020109710780000e-001) (36, 6.18863196538337990000e-001) (37, 2.87347756686165360000e-001) (38, -2.05762736440936260000e-001) (39, -1.69547048872034200000e-001) (40, 9.20503595040184090000e-001) (41, 3.36393452653780290000e-001) (42, -3.52466525639878680000e-001) (43, 3.58579502061414530000e-001) (44, 6.76403389275613000000e-002) (45, 3.74698066223151220000e-001) (46, -5.62013209426840080000e-001) (47, 1.18778291042280100000e+000) (48, -4.60207477958782320000e-002) (49, 1.35695110151236090000e-001) (50, -2.29326163344005850000e-001) (51, -8.52866755435437860000e-002) (52, 1.89006963946761970000e-001) (53, -5.56800955043316610000e-001) (54, 5.43459159002287580000e-001) (55, 2.14856279264931000000e-001) (0, 1.36372918642013510000e-001) (1, 3.45009662401943200000e+000) (2, 4.55084475510857120000e-001) (3, 9.01244475908421270000e-001) (4, -6.46874642635350220000e-001) (5, 1.05950378293080320000e+000) (6, -8.31701599272410830000e-001) (7, 2.04792892432484770000e-001) (8, 6.34418103395321680000e-001) (9, 6.04258439624177440000e-004) (10, 1.44448333244236230000e-001) (11, -3.02869767510512640000e-001) (12, 4.66620889404477550000e-001) (13, 1.84294039495697150000e-002) (14, 1.63323242557463360000e-001) (15, 7.01231167528044150000e-001) (16, -3.21626554507368320000e-001) (17, 3.69831945184729730000e-001) (18, 5.52024980358929330000e-001) (19, 2.23431538144720940000e-001) (20, -1.56282146252006850000e+000) (21, 3.66019531186848880000e-001) (22, -2.08213275043032150000e+000) (23, 2.55523658568776960000e-001) (24, 1.60726971215880640000e+000) (25, -8.36154266579182460000e-001) (26, 2.28001771402101570000e-001) (27, 1.80112367657893960000e+000) (28, 2.67174885487336140000e-001) (29, -1.72028873479993570000e-001) (30, 1.00170254436903790000e+000) (31, 4.94488523307054080000e+000) (32, 2.65034164041138690000e-002) (33, -1.73160467137162020000e+000) (34, 2.90738113402800150000e-001) (35, -1.80395412250679230000e-001) (36, 7.97997257344652320000e-001) (37, -3.44204328536581670000e-001) (38, 8.67185927464565690000e-001) (39, 6.73688092073566610000e-001) (40, 8.40265148252865800000e-001) (41, 1.27570181967414880000e-001) (42, -1.11324975762515700000e+000) (43, 8.28294254389838060000e-001) (44, 2.38695452765983640000e-001) (45, 8.71081843308259270000e-002) (46, 1.12145627142875020000e-001) (47, -2.14012621206097760000e+000) (48, 6.75532386536406570000e-001) (49, 5.74261077831414670000e-001) (50, 3.86429772089703140000e-001) (51, 3.76909712465893610000e-001) (52, -5.59425413712604010000e-001) (53, 8.43171380914266240000e-001) (54, 6.90422476267372410000e-001) (55, -3.30966490678299110000e+000) (0, 1.96639187007985510000e+000) (1, -1.41475868295982910000e+000) (2, -4.70349790344335790000e+000) (3, -1.32434727045514580000e+000) (4, 4.60025831825649660000e-001) (5, -1.48535652318233840000e+003) (6, 1.37097986727471390000e+001) (7, 9.92038714414316660000e+000) (8, -1.46173667259422370000e+001) (9, -1.67415324050688550000e+002) (10, -1.15062645652136030000e+003) (11, 3.57348406651475550000e-001) (12, 2.09733014958241710000e+002) (13, -1.38422354146145770000e+003) (14, 1.87584896379846080000e+000) (15, 2.20261115099429720000e+000) (16, -3.20349137369966140000e+001) (17, 2.30917369800351180000e+000) (18, -1.01073776964384740000e+003) (19, 1.52527354722350770000e+000) (20, 8.85551415789271910000e+002) (21, 2.08942241284658040000e+000) (22, 1.50000000000000000000e+003) (23, 1.34540218166250060000e+000) (24, 6.43030535117982010000e+000) (25, 1.50000000000000000000e+003) (26, 2.41251693067191830000e+000) (27, 1.45206465365386770000e+003) (28, -1.52282822444331940000e-001) (29, 1.48650526070819910000e+003) (30, 1.08422246813559960000e+000) (31, 1.37867229997190810000e+000) (32, 1.86581998637907860000e-001) (33, -4.27798533252987170000e+001) (34, 7.34777457549902310000e-001) (35, 2.11802080227092530000e+000) (36, -7.19180438779611350000e-001) (37, 5.20063468504189430000e+000) (38, 1.63419619131517480000e+000) (39, -3.22492180489940490000e-001) (40, 1.83304660402775930000e+000) (41, 9.24936645919555850000e-002) (42, -1.46459118241841860000e+003) (43, 1.52223917213146740000e+000) (44, 1.49998512972519300000e+003) (45, 1.50000000000000000000e+003) (46, 1.31061703994347330000e+000) (47, 6.58722936894909450000e+001) (48, 2.35536028042715180000e+000) (49, 9.87491076429471870000e-001) (50, 1.08978361961792780000e-001) (51, 7.47281117235818250000e-001) (52, 1.15281352842887620000e+001) (53, 2.01742967737618000000e+000) (54, -7.18992203049437780000e+000) (55, -5.57050013961900730000e+002) (0, -2.92231402387985780000e-001) (1, 1.20582066523916950000e+001) (2, 5.16767216169855640000e+000) (3, -5.01232601145390620000e-002) (4, -9.36496121835936200000e-002) (5, 4.01108214628852320000e-001) (6, 4.21641686883676200000e-001) (7, -9.30986855564040040000e-001) (8, -8.77406569120303680000e-001) (9, -1.43311504898150890000e-001) (10, -3.79672408188395210000e-001) (11, 2.23692499432096960000e-001) (12, 1.23107796620856140000e-001) (13, -3.51365835067554090000e-001) (14, 1.04440650279738480000e-001) (15, 1.02897252276616060000e+000) (16, 9.31462675969587650000e-001) (17, -1.24345886463103030000e+000) (18, 5.18851243206713050000e-001) (19, 3.86678272229575400000e-001) (20, 5.37475224666142390000e-001) (21, 5.40975207833184550000e-002) (22, -2.44252856154424830000e-002) (23, 2.46236224945580620000e-001) (24, 5.34646523139393430000e-001) (25, 1.08292335255383940000e-001) (26, 1.71532720978624850000e-001) (27, 8.50631179878238890000e-001) (28, 4.09084478236368680000e-001) (29, -6.41887882020094610000e-001) (30, 5.43937880841574710000e-002) (31, 1.36860410532016520000e+000) (32, 4.81317646740783590000e-001) (33, 6.23544518236273680000e+000) (34, 1.03524136274463350000e+000) (35, -7.01742196133833820000e-001) (36, 2.24203266454694540000e-001) (37, -2.32680020049554130000e-001) (38, -1.68269029254540880000e+000) (39, 2.94137720963432880000e-001) (40, -1.30469964359461250000e+000) (41, -7.60584411803148090000e-002) (42, 1.96205205073175760000e+000) (43, 3.76894792416588690000e-001) (44, -2.66623822706530730000e-001) (45, 1.28480998885051300000e-001) (46, 2.07147474952602860000e+000) (47, 1.20117984768045890000e+000) (48, 3.14568390103566690000e-001) (49, -9.36075463765468240000e-001) (50, 2.02308890361730500000e+000) (51, -1.61587379476320650000e-001) (52, -1.86294126657674770000e+000) (53, 4.01066846997700730000e-001) (54, 1.58274227095154460000e+000) (55, 8.64072921256959920000e-002) (0, -4.59834014050586490000e-001) (1, -6.34334353087649740000e-001) (2, 1.26466236390653460000e-001) (3, 2.27743993947836070000e-001) (4, 6.52316239077584540000e-002) (5, 2.35091579435624640000e-001) (6, 2.95515331690223150000e-002) (7, 1.43715898963856890000e-001) (8, 9.60861434039552710000e-002) (9, 9.38458328963957530000e-002) (10, 1.42480008529062090000e-001) (11, 9.65476041531052320000e-002) (12, -9.17633553322622610000e-003) (13, 4.39796926127193900000e-001) (14, 6.20190404434824700000e-002) (15, -3.52988829866122900000e-001) (16, -5.64264100799440340000e-001) (17, 1.17065499260070930000e+000) (18, 2.39389689738827040000e-001) (19, -2.16649926812152470000e-003) (20, 3.44884641351366150000e-001) (21, 1.67779326392085870000e-001) (22, 9.62769752961792760000e-002) (23, 1.45881848882772590000e-001) (24, 4.39741519279930490000e-001) (25, 9.97483686775753390000e-001) (26, 1.54663932887430110000e-001) (27, -3.02301867202689370000e-001) (28, 6.49568522269045160000e-001) (29, -2.15329185329069940000e-001) (30, 3.14651012476287910000e-001) (31, 4.09035014935457340000e-002) (32, -1.92426343555451570000e-001) (33, -1.14707336450732120000e+000) (34, -1.34356145412838190000e-001) (35, 1.87233961586317170000e-001) (36, 6.78175937822239840000e-001) (37, -2.76978643755677320000e-002) (38, -4.41429245923701470000e-001) (39, -1.59343949440282460000e-001) (40, 8.16855078810146960000e-002) (41, 6.80767352890477300000e-001) (42, -2.70548469032471540000e-001) (43, -2.02392035250747700000e-001) (44, 8.10567457812782710000e-003) (45, 9.79578194648535130000e-001) (46, -4.32657043102826270000e-001) (47, 1.23808153155752300000e-001) (48, 6.62591117105155390000e-001) (49, 9.51740366277355750000e-002) (50, 2.22644032021475120000e-001) (51, -2.19369439736558230000e-002) (52, 1.35742614682256510000e-001) (53, 4.88578816745384890000e-001) (54, 7.44590178971980770000e-001) (55, -2.41632891695503530000e-001) (0, 1.95871447436225730000e-001) (1, 5.91558831658236970000e-001) (2, 4.38774455411370000000e-001) (3, -2.02738847049510730000e-001) (4, 1.57444136371797730000e-002) (5, 4.66516131354220920000e-002) (6, 3.15243689215142400000e-001) (7, 5.45375102459750290000e-001) (8, -1.61522781227358770000e-001) (9, 1.28330329325227780000e-001) (10, -1.75470747673385500000e-001) (11, -6.98101025915975610000e-002) (12, 5.44107995556052940000e-002) (13, 2.09025677870514320000e-001) (14, -9.03792537864207820000e-003) (15, 6.63174856396375300000e-001) (16, -1.23585014940919560000e+000) (17, -2.61687777533322720000e-002) (18, 2.95410227132695180000e+000) (19, 4.78446207945944890000e-001) (20, -3.03396843885882170000e-001) (21, 2.27868479104323590000e-001) (22, -7.48767610257605410000e-001) (23, 5.75742781229271920000e-001) (24, -5.48690080338122170000e-001) (25, 2.34220129643337690000e-001) (26, -1.64385529245772820000e-001) (27, 1.86759359694520480000e-001) (28, 7.67641603585189740000e-001) (29, 2.56791302929040680000e-001) (30, -2.90850659510009880000e-001) (31, 7.24857707338198760000e-001) (32, 9.78742320258155000000e-001) (33, 1.61246882326003620000e+000) (34, 2.02123711701021110000e-001) (35, 8.06333978154218640000e-002) (36, 6.34593647629429820000e-001) (37, 1.17472593985240410000e-002) (38, -7.89154637074933880000e-002) (39, 1.20619415552098400000e-001) (40, -8.19321672116829910000e-002) (41, 5.62653675215287860000e-001) (42, 1.09182731116333590000e+000) (43, -2.84507214011418930000e-001) (44, -1.75079656742765740000e-001) (45, 3.73598257152955640000e-001) (46, 2.90014736287669440000e-001) (47, 4.17634958152095170000e-001) (48, -7.61371713430307520000e-001) (49, -2.17133625822200500000e-001) (50, 8.50953508823819480000e-001) (51, -9.80919243881567540000e-002) (52, 4.51278460132799820000e-001) (53, 8.33654493449385250000e-001) (54, 3.68896472125916090000e-001) (55, 1.25529415805198740000e+000) (0, -5.12387781897991170000e-001) (1, 6.21052954095765000000e-001) (2, -1.91995216463566850000e-001) (3, 2.90796259362994300000e-001) (4, -2.02065266439166700000e-001) (5, 3.79964217360309330000e-002) (6, 4.66912528615769370000e-002) (7, -1.36276883087530080000e-001) (8, -6.85875636006072070000e-002) (9, -4.72383790096393140000e-002) (10, -8.12020934412640010000e-002) (11, 4.83304674690915940000e-002) (12, -8.83484061445127120000e-004) (13, -1.97332353087634250000e-001) (14, -5.00889896704871140000e-003) (15, 9.73952452299185620000e-002) (16, -7.78158059670642890000e-001) (17, -3.60706126403338930000e-001) (18, 1.05927093784765960000e-002) (19, -3.14860077842422150000e-001) (20, 4.95045846873399750000e-001) (21, 2.44981769050521490000e-001) (22, 1.36708819351133880000e-001) (23, -1.72450253267402680000e-001) (24, 3.21345523439345360000e-001) (25, 5.14824855716711660000e-001) (26, 5.05295888905204270000e-001) (27, 2.70771472944159350000e-002) (28, 1.00574426560788990000e+000) (29, -5.96611628609009510000e-001) (30, -3.55024725164054810000e-001) (31, -6.08620249943401030000e-001) (32, 2.29860608119542540000e-001) (33, 2.30337587681354340000e-001) (34, 3.34402713688904060000e-001) (35, -4.60405599704993730000e-001) (36, 6.35251294873263260000e-001) (37, 6.35029684967781780000e-001) (38, 2.50345977955132140000e-001) (39, -1.39179545886105540000e-001) (40, -2.27597828297601000000e-001) (41, 8.76106416102489960000e-001) (42, 7.26087464939360610000e-001) (43, -5.00527193327561350000e-001) (44, -1.09757655421767600000e-001) (45, 5.31303801591903380000e-001) (46, 7.99867179754883530000e-001) (47, -2.35980824164570670000e-001) (48, -6.46392335074538530000e-001) (49, 2.00200126409771500000e-001) (50, 1.00333610256610890000e-002) (51, 5.12948124786156150000e-001) (52, 5.53687250536604240000e-002) (53, 3.42621637214378770000e-001) (54, -6.81883860384520090000e-002) (55, 4.27127102155846760000e-001) (0, 1.20900616776735200000e+000) (1, 1.39591838040869910000e-001) (2, -9.35261578201189380000e-001) (3, 2.96978567173542600000e-001) (4, -5.10094106172128760000e-002) (5, 5.53051498579472460000e-002) (6, -1.72594745959355340000e-001) (7, 1.72884062796679480000e-001) (8, -3.29390838504780080000e-002) (9, 1.48701991107180330000e-001) (10, 1.67643131319535070000e-001) (11, 1.42421041824997100000e-001) (12, -5.41003874810082950000e-002) (13, 1.01628762910240140000e+000) (14, 1.06162214634648590000e-001) (15, -3.26233502170383880000e-001) (16, -4.49385695780063100000e-001) (17, 1.89424425356536750000e-001) (18, 7.66323616406566990000e-001) (19, 2.56129201859896100000e-002) (20, -3.60031018461924150000e-001) (21, 5.38036949497291530000e-001) (22, 4.03119164923696760000e-002) (23, 1.05124568277297670000e-001) (24, 1.33935496556422370000e-001) (25, 2.53068019639214160000e-001) (26, 1.49140163646003940000e-001) (27, -3.62789237594281990000e-002) (28, 8.32090878469524120000e-001) (29, -4.29721883701718270000e-001) (30, 1.16752239628404000000e-001) (31, 2.46752856026365990000e-002) (32, 4.33926030833277520000e-001) (33, -5.65911152814119520000e-001) (34, -5.76267563016153340000e-001) (35, 3.96886332411339420000e-001) (36, 1.11322682466052880000e+000) (37, -2.17357957315029910000e-001) (38, -4.86693357934779410000e-001) (39, -3.77013253002542180000e-001) (40, 1.11602980946287210000e-001) (41, 6.95271728085537390000e-001) (42, -2.47187151003298630000e-001) (43, -2.73066116857514140000e-001) (44, 1.76086341475257060000e-001) (45, 1.65657270632520140000e+000) (46, -5.11977339858190490000e-001) (47, 5.70609044720704170000e-001) (48, 1.15644977317049660000e+000) (49, -2.11976503539323870000e-001) (50, 7.70420730888067170000e-001) (51, 5.19712881569964310000e-001) (52, 7.36101399744032100000e-001) (53, -2.85463540414864550000e-001) (54, 1.50591649244935870000e-001) (55, -1.84112145560778480000e-001) (0, 5.65950476080227860000e-001) (1, -6.05210791932527470000e-001) (2, 3.02377019939343630000e-001) (3, 2.31941301614557730000e-001) (4, 2.31535044280312960000e-001) (5, 1.24314138477248830000e-001) (6, -8.77567644784521210000e-001) (7, 1.07009155068109930000e+000) (8, 6.56979727142791400000e-001) (9, -3.11702016533451360000e-002) (10, 1.41362848302727300000e-001) (11, -1.12259683398749030000e-001) (12, 1.98389284877900420000e-001) (13, 3.82963168846575500000e-001) (14, 7.02475987164957600000e-002) (15, 5.37762905962466010000e-001) (16, -8.20219487154549730000e-001) (17, -4.96060955716925500000e-002) (18, -4.01244411755805110000e-001) (19, -6.51691706664212640000e-002) (20, -1.22142804746098600000e+000) (21, -3.38024207637862780000e-001) (22, 8.20315599522507270000e-003) (23, -4.54629167237594170000e-001) (24, -3.44615212913583880000e-001) (25, 1.72345528076702590000e-001) (26, -6.15183557171046890000e-001) (27, -2.78492045907415550000e-001) (28, 3.14557951555477780000e-001) (29, -1.25757128678102630000e-001) (30, 3.64071250313748600000e-001) (31, 6.91206912852137640000e-001) (32, -3.34519538128404460000e-001) (33, 1.04454146158248570000e+000) (34, 1.38101650202790750000e+000) (35, 1.09623607352164410000e+000) (36, 1.02939609789619160000e+000) (37, 6.19348359769530950000e-001) (38, 8.10858100245586240000e-001) (39, 1.04179061640633110000e+000) (40, -4.22594877187401740000e-001) (41, 1.13749233339903390000e+000) (42, 4.19682506420915090000e-001) (43, -2.19353479024751660000e-001) (44, -2.05088624883739940000e-001) (45, 1.94166615722645990000e-001) (46, -3.66720388859819220000e-001) (47, -5.01272335329351440000e-003) (48, 2.78489797374077380000e-002) (49, 5.05939884471519720000e-001) (50, 5.14654734126395730000e-001) (51, 4.87517456813896300000e-001) (52, -9.24826874603860820000e-001) (53, -1.77804852640970210000e-001) (54, -6.33785436279152010000e-002) (55, 7.34054906380130050000e-001) (0, 3.14569410827399750000e+000) (1, -2.30247951306895970000e+000) (2, 3.53359509683796310000e-001) (3, 4.92180896877428330000e-001) (4, -2.68524374252393730000e-001) (5, -1.21285746766431420000e+000) (6, -1.82853450215422960000e+000) (7, 1.31337775878884270000e+000) (8, -1.08152192737478700000e-001) (9, 2.62637441014137110000e-001) (10, -3.38601442705572350000e-001) (11, 5.58540473903599510000e-001) (12, -4.27785651537071380000e-001) (13, -1.52823317769550900000e-002) (14, 2.11111329259355500000e-001) (15, -1.77450391800196890000e-001) (16, -7.06950314906883870000e-001) (17, 3.57232600282136660000e-001) (18, -3.10698866462842620000e-001) (19, 1.35844299117453990000e-001) (20, -3.62446761228014890000e+000) (21, 8.16075715839331140000e-002) (22, 3.52986702945994070000e-004) (23, 3.49727594435318370000e-001) (24, -8.45178415518423760000e-001) (25, -8.85376492958272480000e-002) (26, 1.38209202473368380000e-001) (27, -8.95818578224567230000e-001) (28, 1.02021332512998500000e+000) (29, 1.10035830845526870000e-001) (30, 2.79672768565462420000e-001) (31, -2.84460961277003490000e+000) (32, 2.15296676624654990000e+000) (33, 2.53256110836226790000e+000) (34, 1.24085832171214490000e+000) (35, 3.84221707397951420000e-001) (36, 7.29474215884330150000e-001) (37, -5.68479673780857630000e-002) (38, 9.72960571936212490000e-002) (39, 7.52594482762910110000e-002) (40, 3.87698297642998350000e-001) (41, 2.03099174738457800000e+000) (42, -1.88168039661590240000e+000) (43, -4.27725335069403250000e-001) (44, -8.38584178426034940000e-001) (45, 1.83659347509758450000e+000) (46, 5.30177418082749520000e+000) (47, 3.33489544216462040000e+000) (48, -5.00145341257522520000e+000) (49, 1.52884289940958280000e+000) (50, 6.22442766079703610000e-001) (51, 1.12832674508144830000e+000) (52, 7.22778757762714160000e-001) (53, 4.43413726617605810000e-001) (54, 4.37382230239487080000e-001) (55, 2.52746587023331990000e+000) (0, 1.15073088819422000000e+000) (1, -1.19225968903783030000e+000) (2, -1.39279881032812300000e+000) (3, 3.39390791335012560000e-002) (4, 2.46464223263617500000e-001) (5, -3.11542708249748220000e-001) (6, 1.02858574882450570000e-001) (7, -3.52076391898451190000e-001) (8, -3.74671665263830280000e-001) (9, 1.49367868361991290000e-001) (10, 4.06988422846474630000e-001) (11, 2.92118252098828520000e-001) (12, 6.32056381424938170000e-002) (13, 3.36063641456570310000e-001) (14, -4.58675084353896590000e-001) (15, -1.15672598949646340000e+000) (16, 