FANN_FLO_2.1
num_layers=4
learning_rate=0.700000
connection_rate=1.000000
network_type=0
learning_momentum=0.000000
training_algorithm=2
train_error_function=1
train_stop_function=1
cascade_output_change_fraction=0.010000
quickprop_decay=-0.000100
quickprop_mu=1.750000
rprop_increase_factor=1.200000
rprop_decrease_factor=0.500000
rprop_delta_min=0.000000
rprop_delta_max=50.000000
rprop_delta_zero=0.100000
cascade_output_stagnation_epochs=12
cascade_candidate_change_fraction=0.010000
cascade_candidate_stagnation_epochs=12
cascade_max_out_epochs=150
cascade_min_out_epochs=50
cascade_max_cand_epochs=150
cascade_min_cand_epochs=50
cascade_num_candidate_groups=2
bit_fail_limit=1.00000001490116120000e-001
cascade_candidate_limit=1.00000000000000000000e+003
cascade_weight_multiplier=4.00000000000000020000e-001
cascade_activation_functions_count=10
cascade_activation_functions=3 5 7 8 10 11 14 15 16 17 
cascade_activation_steepnesses_count=4
cascade_activation_steepnesses=2.50000000000000000000e-001 5.00000000000000000000e-001 7.50000000000000000000e-001 1.00000000000000000000e+000 
layer_sizes=10 31 31 7 
scale_included=0
neurons (num_inputs, activation_function, activation_steepness)=(0, 0, 0.00000000000000000000e+000) (0, 0, 0.00000000000000000000e+000) (0, 0, 0.00000000000000000000e+000) (0, 0, 0.00000000000000000000e+000) (0, 0, 0.00000000000000000000e+000) (0, 0, 0.00000000000000000000e+000) (0, 0, 0.00000000000000000000e+000) (0, 0, 0.00000000000000000000e+000) (0, 0, 0.00000000000000000000e+000) (0, 0, 0.00000000000000000000e+000) (10, 5, 1.00000000000000000000e+000) (10, 5, 1.00000000000000000000e+000) (10, 5, 1.00000000000000000000e+000) (10, 5, 1.00000000000000000000e+000) (10, 5, 1.00000000000000000000e+000) (10, 5, 1.00000000000000000000e+000) (10, 5, 1.00000000000000000000e+000) (10, 5, 1.00000000000000000000e+000) (10, 5, 1.00000000000000000000e+000) (10, 5, 1.00000000000000000000e+000) (10, 5, 1.00000000000000000000e+000) (10, 5, 1.00000000000000000000e+000) (10, 5, 1.00000000000000000000e+000) (10, 5, 1.00000000000000000000e+000) (10, 5, 1.00000000000000000000e+000) (10, 5, 1.00000000000000000000e+000) (10, 5, 1.00000000000000000000e+000) (10, 5, 1.00000000000000000000e+000) (10, 5, 1.00000000000000000000e+000) (10, 5, 1.00000000000000000000e+000) (10, 5, 1.00000000000000000000e+000) (10, 5, 1.00000000000000000000e+000) (10, 5, 1.00000000000000000000e+000) (10, 5, 1.00000000000000000000e+000) (10, 5, 1.00000000000000000000e+000) (10, 5, 1.00000000000000000000e+000) (10, 5, 1.00000000000000000000e+000) (10, 5, 1.00000000000000000000e+000) (10, 5, 1.00000000000000000000e+000) (10, 5, 1.00000000000000000000e+000) (0, 5, 1.00000000000000000000e+000) (31, 5, 1.00000000000000000000e+000) (31, 5, 1.00000000000000000000e+000) (31, 5, 1.00000000000000000000e+000) (31, 5, 1.00000000000000000000e+000) (31, 5, 1.00000000000000000000e+000) (31, 5, 1.00000000000000000000e+000) (31, 5, 1.00000000000000000000e+000) (31, 5, 1.00000000000000000000e+000) (31, 5, 1.00000000000000000000e+000) (31, 5, 1.00000000000000000000e+000) (31, 5, 1.00000000000000000000e+000) (31, 5, 1.00000000000000000000e+000) (31, 5, 1.00000000000000000000e+000) (31, 5, 1.00000000000000000000e+000) (31, 5, 1.00000000000000000000e+000) (31, 5, 1.00000000000000000000e+000) (31, 5, 1.00000000000000000000e+000) (31, 5, 1.00000000000000000000e+000) (31, 5, 1.00000000000000000000e+000) (31, 5, 1.00000000000000000000e+000) (31, 5, 1.00000000000000000000e+000) (31, 5, 1.00000000000000000000e+000) (31, 5, 1.00000000000000000000e+000) (31, 5, 1.00000000000000000000e+000) (31, 5, 1.00000000000000000000e+000) (31, 5, 1.00000000000000000000e+000) (31, 5, 1.00000000000000000000e+000) (31, 5, 1.00000000000000000000e+000) (31, 5, 1.00000000000000000000e+000) (31, 5, 1.00000000000000000000e+000) (0, 5, 1.00000000000000000000e+000) (31, 0, 1.00000000000000000000e+000) (31, 0, 1.00000000000000000000e+000) (31, 0, 1.00000000000000000000e+000) (31, 0, 1.00000000000000000000e+000) (31, 0, 1.00000000000000000000e+000) (31, 0, 1.00000000000000000000e+000) (0, 0, 1.00000000000000000000e+000) 
connections (connected_to_neuron, weight)=(0, -1.53086057609904190000e+000) (1, 2.07855739937966090000e+000) (2, -6.17809449539945650000e-001) (3, -1.10551810254160570000e-002) (4, -1.30159658763537050000e-001) (5, 1.23325371703928970000e-001) (6, 2.17473516074147310000e-001) (7, -4.27381002937760430000e-001) (8, 1.32874030697911730000e-001) (9, 2.45352231257910520000e+000) (0, -3.67095889844877180000e-001) (1, -1.04799123173518890000e+000) (2, 2.94257248464594580000e+000) (3, -2.51402734552930410000e-002) (4, -2.94046223179691560000e-002) (5, 8.49589194948158070000e-002) (6, 5.02476112513837010000e-003) (7, 3.04929658020275270000e-001) (8, -4.11782776313061430000e-001) (9, 2.02213860869104260000e-001) (0, 1.43463438584183280000e-001) (1, 1.26977111376477380000e+000) (2, -8.44500406449642080000e-001) (3, -1.27185579277527840000e-002) (4, -2.63302542828208340000e-002) (5, 1.34595181560846420000e-003) (6, -6.21070381914274550000e-003) (7, 2.88101863436255200000e-003) (8, 9.72549054096273350000e-002) (9, 1.99966259627353820000e+000) (0, -5.91433510940644670000e-001) (1, 9.56847019141727870000e-001) (2, 2.59394562639707700000e+000) (3, 3.39085309898588930000e-001) (4, -1.06874578056623540000e-001) (5, 3.58300801278460760000e-001) (6, -1.66190069732708450000e-001) (7, 5.67869337302047690000e-001) (8, -3.24734969677000270000e-001) (9, 2.79560029790502100000e+000) (0, 7.24619156981789610000e-002) (1, 2.89854681031234410000e-001) (2, -8.28243360847646600000e-001) (3, 2.19596788635732060000e-002) (4, 4.20528938725745000000e-002) (5, -1.12289882530751630000e-001) (6, -7.95972631271900790000e-002) (7, 1.39880635155481130000e-001) (8, 7.41085847793262200000e-002) (9, -1.22284060501586360000e+000) (0, 1.41484321758173300000e-001) (1, -9.26721148772847170000e-001) (2, -4.96110300543672220000e-001) (3, -3.06244399222482190000e-002) (4, 2.46543437628802160000e-002) (5, -9.74770532453586750000e-003) (6, 1.49133961957027360000e-001) (7, 2.01517061137803020000e-001) (8, 5.73454491667967080000e-002) (9, 9.50178353328936630000e-001) (0, 5.42245082055129780000e-001) (1, -3.45764599039087020000e-001) (2, -2.42348063630365070000e-001) (3, 1.24901740238601510000e-002) (4, -1.49125542719135300000e-002) (5, -2.73666511647579600000e-002) (6, -1.05843163031825100000e-001) (7, 2.02180933305523630000e-002) (8, 3.99241444299407860000e-002) (9, -1.49541414626825940000e-001) (0, 7.51238444299474060000e-001) (1, 1.00366603823353140000e+000) (2, 1.22864815387935260000e+000) (3, 5.69046104865147950000e-002) (4, 6.02472253385389110000e-004) (5, 5.34321168388756860000e-002) (6, -1.30403351270947790000e-001) (7, -1.88599558569253950000e-001) (8, -2.34335830302854430000e-001) (9, -1.29270922583304990000e+000) (0, -6.64968752753977270000e-001) (1, -1.59275948144127350000e-001) (2, -3.72593777198877760000e-001) (3, 8.15133250763840360000e-002) (4, 1.10637683781391540000e-002) (5, -1.34980095162948580000e-002) (6, 1.65617880517317930000e-001) (7, -2.43614380522497660000e-002) (8, 7.91317681713668560000e-002) (9, 9.15818220835875500000e-001) (0, -3.62284626905397310000e-001) (1, 4.65747389122625420000e-001) (2, -1.03966654448371880000e+000) (3, -4.33185354137299030000e-002) (4, 5.55975296145520410000e-002) (5, -8.24015602878313410000e-002) (6, 1.44948147433548970000e-001) (7, -1.68584438384114130000e-001) (8, 1.63513404563342850000e-001) (9, -4.82175067573345660000e-001) (0, -1.00689947315196940000e-001) (1, 6.82430701851597930000e-001) (2, 1.76854792646747550000e+000) (3, -2.70291696127632450000e-002) (4, 1.84529183516662640000e-002) (5, 1.70684257338027360000e-001) (6, -5.17996328230893670000e-003) (7, 4.76444927847763100000e-002) (8, -1.89672062441142760000e-001) (9, 4.11824002513935360000e-001) (0, 7.01073006949441970000e-002) (1, 2.42937288435870920000e+000) (2, 4.01832738548465860000e+000) (3, -3.00444150788042920000e+000) (4, 8.48537099484396820000e-001) (5, 7.24550844258647800000e-001) (6, -9.26790233659772310000e-001) (7, -1.22592086282644850000e-001) (8, 3.54670696298817060000e-002) (9, 4.50002135745549570000e+000) (0, -8.92969090958000030000e-001) (1, 1.75554350443783900000e-001) (2, 9.01572036541146040000e-001) (3, -6.30111446454711680000e-002) (4, 3.67720725693037540000e-001) (5, 3.04598094091549250000e-001) (6, -1.25877818818165010000e-001) (7, -2.44529394301407990000e-001) (8, -6.49656317767097090000e-001) (9, 2.84105563673428300000e+000) (0, -4.94286346833105350000e-001) (1, -5.58419653341513890000e-001) (2, 2.53884970747190500000e+000) (3, -1.04122172946346560000e-001) (4, 5.21153088617635690000e-002) (5, 1.72030110362182160000e-001) (6, 2.17808819333679400000e-002) (7, 2.13067402865176200000e-001) (8, -4.61738469140054670000e-001) (9, -1.56486539022454260000e+000) (0, 6.25748651934804220000e-001) (1, 3.22038927929841010000e-001) (2, -1.27768239748930260000e+000) (3, -6.95552266035983220000e-002) (4, -9.61400843738380310000e-002) (5, 7.42454465127608130000e-002) (6, -3.48806482455105980000e-002) (7, -5.13540279100405010000e-001) (8, 4.22939908677485380000e-001) (9, 2.75447395254617920000e+000) (0, -6.48291296275558590000e-001) (1, -1.65729313590505330000e+000) (2, 1.78644941044146970000e+000) (3, 2.66830244067949310000e-001) (4, 8.36821006854254980000e-001) (5, -4.45721975349990470000e-001) (6, -2.55259859517819040000e-001) (7, 9.74538151933213030000e-002) (8, -9.39199139797904040000e-001) (9, 3.53882884974411430000e+000) (0, 7.96244748837818040000e-001) (1, -9.15677772173556550000e+001) (2, 6.51283405430829300000e-001) (3, 2.46113652606471000000e-001) (4, -6.62929238561870970000e-002) (5, 1.35275303768840620000e-001) (6, -2.26897450532639880000e-001) (7, 1.89113572610147710000e+001) (8, -1.80749051592227930000e-001) (9, -8.21939243256198490000e-001) (0, 8.56620432380716170000e-001) (1, 8.30745413919958260000e-001) (2, 6.33399934780409790000e-001) (3, 9.40473025323639300000e-002) (4, 5.04157984853315850000e-002) (5, 4.95681794411790760000e-002) (6, -1.09624396056182840000e-001) (7, -9.08340736263977820000e-002) (8, -1.13792329524227990000e-001) (9, -1.27295049242042930000e+000) (0, 1.56648768478473530000e-001) (1, -5.40365489384402880000e-001) (2, -2.10728011410101560000e-001) (3, 8.47680052822098050000e-002) (4, -1.22870406160196290000e-001) (5, -1.53882801506773930000e-002) (6, 4.35427144507129080000e-002) (7, 1.00697035323352880000e-001) (8, 4.67531875779234820000e-002) (9, -9.68140662316754660000e-001) (0, 6.27230461350613220000e-001) (1, 8.69038309755049590000e-001) (2, -7.79570658442361950000e-001) (3, 2.02293583349625360000e-002) (4, 1.51944033315218490000e-002) (5, -5.29756746810754260000e-002) (6, -1.72807517849362210000e-001) (7, -3.07030027170016770000e-002) (8, 1.70340039988034930000e-001) (9, 1.16380299235617720000e+000) (0, -9.37437904479905940000e-001) (1, 2.03689991761611020000e-002) (2, 8.73773296429974260000e-001) (3, -1.46854127320677260000e-001) (4, 1.20446662822088600000e-001) (5, 3.15142129408028490000e-001) (6, 9.88919660711037180000e-002) (7, 3.94383985860154160000e-002) (8, -2.16186026013456600000e-001) (9, 1.25927709714294520000e+000) (0, -4.83150347693116930000e-001) (1, -1.35827145096032820000e+000) (2, 4.94073929078470200000e-001) (3, -6.87926475577495950000e-002) (4, -5.33950005589893040000e-002) (5, 1.10914836547760020000e-001) (6, 2.85163355205337620000e-002) (7, 1.30248405550247720000e-001) (8, 1.00901817878977390000e-002) (9, 1.10464607051068770000e+000) (0, 1.49695041515932120000e+003) (1, 1.49997129201469150000e+003) (2, 9.95863553215686690000e+002) (3, 8.12442918884131700000e+002) (4, 1.50000000000000000000e+003) (5, 2.92044204562784610000e+002) (6, 1.49935805078604430000e+003) (7, 1.49995201413582660000e+003) (8, -1.49960580936369160000e+003) (9, 1.49999985600000310000e+003) (0, -3.90451760432101390000e-001) (1, 4.00890838563975890000e-001) (2, 8.36116990707561210000e-002) (3, 4.98968615365783310000e-003) (4, 4.70887709972239460000e-003) (5, 8.19818703419448320000e-003) (6, 1.58956099083268240000e-001) (7, -6.93294654314799280000e-002) (8, -1.10650817132834450000e-002) (9, 3.60490250375440250000e-001) (0, 1.40641084069582890000e+003) (1, 1.41997417709536600000e+003) (2, 1.50000000000000000000e+003) (3, -1.36196404651408650000e+003) (4, -1.49965698956579010000e+003) (5, -1.50000000000000000000e+003) (6, -1.48436729822735130000e+003) (7, 1.50000000000000000000e+003) (8, 1.50000000000000000000e+003) (9, 4.97547936888921130000e+002) (0, -9.03274425621397370000e-001) (1, -2.78081444154568590000e-001) (2, -6.38162755521770490000e-001) (3, -8.63394940439140280000e-002) (4, 4.09111494923743090000e-002) (5, 7.80685640987530040000e-003) (6, 4.15380984987056760000e-002) (7, 1.49169881564513250000e-001) (8, 4.24250563193436650000e-002) (9, 1.37798514262783910000e+000) (0, -1.24007227530004870000e-001) (1, 6.29809844095862380000e-001) (2, -1.70366702773842640000e-001) (3, -4.83866574759269430000e-002) (4, -2.97206898801165160000e-002) (5, -5.11737659386172700000e-002) (6, -4.35461072666001870000e-002) (7, -1.29315315306449210000e-001) (8, 3.56867949691440510000e-002) (9, -3.87086367675724690000e-001) (0, 5.79365980804251610000e-001) (1, 1.53464421269492760000e+000) (2, -3.75375158720104190000e-001) (3, 1.30022236529758080000e-001) (4, 1.22326432664940280000e-001) (5, -5.72201851915586020000e-002) (6, -1.17668345897459310000e-002) (7, -2.95170559640195170000e-001) (8, -7.09733642007081000000e-002) (9, -1.36958840599643050000e+000) (0, 3.49131522836882310000e-001) (1, 1.05926577098697860000e+000) (2, -1.38805837269979730000e+000) (3, 1.23660636551765550000e-002) (4, 2.23516519927539560000e-002) (5, -3.04725875540843050000e-002) (6, -4.58333480612860490000e-002) (7, -2.22705297386883190000e-001) (8, 2.43305454770697980000e-001) (9, -6.13477995344828390000e-001) (0, 3.72326939180883220000e-001) (1, -1.03273078172694900000e-001) (2, 2.19222639590325980000e-001) (3, -5.90820963723115090000e-002) (4, -2.09926226289386670000e-002) (5, 3.39022632409703710000e-002) (6, -1.62791261475911640000e-001) (7, -2.41083702099323840000e-002) (8, -2.65914518082578170000e-002) (9, -1.13515624001758590000e-001) (10, -7.76619501576944760000e-002) (11, 1.24048886633932450000e+000) (12, -1.05088136799886270000e+000) (13, 1.95669608083442450000e+000) (14, 3.83611231782351590000e+000) (15, 7.09671101560965580000e-001) (16, 3.89399482179326410000e-001) (17, 2.12357258968390590000e+000) (18, 2.76940700315152190000e+000) (19, 1.89537003975771490000e+000) (20, -1.80884333876261640000e+000) (21, -1.69618011170107330000e+000) (22, -2.45241534687803490000e-001) (23, 4.29028108932692010000e-002) (24, -5.33259325660183750000e-001) (25, -7.13059875639265090000e-001) (26, -2.46712139207324400000e-001) (27, 3.59842232857535290000e+000) (28, 1.49079820707991910000e+000) (29, 1.28508392605448730000e+000) (30, -4.30944326550996770000e+000) (31, -1.54827718120861180000e+000) (32, 6.51844226264786290000e+000) (33, 1.37539576821870990000e+000) (34, -7.54377341123490110000e-002) (35, -7.62205586425509060000e-001) (36, 4.12477371598743040000e-001) (37, 2.30253168639972640000e-001) (38, 1.91571237618300190000e+000) (39, 2.92935257335970790000e+001) (40, -1.10340168883865130000e+000) (10, 2.61631251168193080000e+000) (11, -2.41265789968333890000e-001) (12, -1.01710391824981540000e+000) (13, 5.76125342168501310000e-001) (14, 6.75849847645356380000e-001) (15, 2.67700008537830230000e+000) (16, 1.53927838638420790000e+000) (17, 2.07688061229283040000e-001) (18, 2.10071001559810490000e+000) (19, 1.54267414399347440000e+000) (20, 3.89366445244727500000e+000) (21, -5.06161874393979970000e-001) (22, 2.89500426115853400000e+000) (23, 6.09196279223923050000e-001) (24, -3.92749510145632250000e-001) (25, 2.13770507158002140000e+000) (26, -2.17073782323757650000e-001) (27, 4.43616137648201650000e+000) (28, 3.93051011259932360000e+000) (29, -9.62462595521383250000e-001) (30, -2.66943803387795080000e-002) (31, 6.45325483950381780000e-002) (32, 2.95516478506990530000e-002) (33, -1.33051512636920170000e-001) (34, -9.68163908669232410000e-001) (35, 3.91838100841488930000e+000) (36, 4.19968447116041420000e+000) (37, 3.57951372655491880000e+000) (38, 3.82407301362469370000e+000) (39, 2.19741229028250860000e+000) (40, 3.90762309050114620000e+000) (10, 1.36878543198522970000e+000) (11, 1.64744035260706620000e+000) (12, 4.68207695432579010000e-001) (13, 8.67014389106922080000e-001) (14, 3.37175454933344910000e+000) (15, 2.40743817506648220000e+000) (16, 3.11204837554441880000e+000) (17, -8.69022795041037850000e-001) (18, 1.23521860019500270000e+000) (19, 4.92924107811814840000e-001) (20, 3.30116770246458190000e-001) (21, 3.24915882403666700000e-001) (22, -4.32047033740763310000e-001) (23, 1.81176632227146730000e+000) (24, -5.98873471676991450000e-001) (25, 1.54983447970013330000e+000) (26, 9.26736924530969010000e-001) (27, 2.49898604759484220000e+000) (28, 3.34689050894028830000e+000) (29, 3.84588870160425200000e+000) (30, 1.26549085528249460000e+000) (31, -1.74547590072103540000e-002) (32, 2.09102781207427710000e-002) (33, 3.82591076603005120000e-001) (34, 4.69967680923462290000e-002) (35, 5.01589232534617180000e-001) (36, 1.68566929557130240000e+000) (37, 1.45344500777708750000e+000) (38, 1.57538962169510580000e+000) (39, 1.73332108596709620000e+000) (40, 4.15438104418355550000e-001) (10, -1.87005199062625890000e-001) (11, 1.30504402689421480000e-001) (12, -9.43720972784278020000e-001) (13, 2.06323081374594960000e+000) (14, 5.03975833657495190000e+000) (15, 1.68252787793724190000e+000) (16, 1.39083903582510350000e+001) (17, 6.76682567193205480000e+000) (18, 2.37859320810474010000e+000) (19, 1.83204128838477680000e+000) (20, -2.05839154036133600000e+000) (21, -1.80366035831789030000e+000) (22, -1.47417654607780910000e+000) (23, 2.10175979936228030000e+000) (24, 6.07064501471642150000e-001) (25, -2.50435703944347000000e+000) (26, 2.44057200259252040000e+000) (27, 1.65727109503180440000e+000) (28, 5.32155516757757500000e+000) (29, 2.01616783003952630000e+000) (30, -4.00621640981730350000e+001) (31, -9.37883590204335320000e-001) (32, -2.94513054927399370000e+001) (33, -1.39940049312086790000e+000) (34, -6.76984126474530770000e-001) (35, -1.09239542826831840000e+000) (36, 2.61606263634309500000e+000) (37, 3.56384865810756810000e+000) (38, 4.11719865634095860000e+000) (39, 1.06695183943654920000e+002) (40, -2.46780962191145780000e+000) (10, 1.12987029544159550000e-001) (11, 3.75381169073822640000e+000) (12, 1.19709166882504970000e+000) (13, -2.98524244875701450000e-001) (14, 4.22249484727778950000e+000) (15, 3.60756269375587820000e+000) (16, 1.93823358978425620000e+000) (17, -3.51548713616468070000e-002) (18, 1.61527219197791720000e+000) (19, 8.02208641413796110000e-001) (20, 2.88797680481417270000e-002) (21, 4.20675429628372120000e-001) (22, -7.95430326737201150000e-001) (23, 1.69815029091424070000e+000) (24, 5.98219590315825830000e-001) (25, 2.23126549486561430000e+000) (26, 1.90489070682562820000e-001) (27, 4.58434978963638880000e-001) (28, 3.12313289634561640000e+000) (29, 1.20234068003938430000e+000) (30, 1.12838730671220790000e+000) (31, -2.05331890976672200000e-001) (32, 4.51148912497770780000e-002) (33, 4.45191836598273660000e-001) (34, 1.26431397520590460000e-001) (35, -2.02239968511400330000e-001) (36, 1.18174364390947040000e+000) (37, 1.35323866287749240000e+000) (38, 1.26302303072255940000e+000) (39, 2.66673684987760500000e+000) (40, -6.30133237744924910000e-001) (10, -7.97165788333257020000e-001) (11, -8.01089790404429400000e-001) (12, -1.02322091968808700000e+000) (13, 9.12400419090824370000e-001) (14, 3.12215552225922500000e+000) (15, 6.28058432171989870000e-001) (16, 1.19115713644544920000e+000) (17, 4.83791547965195630000e-001) (18, 2.66443501805212120000e+000) (19, 5.57907913047559270000e-001) (20, 1.22032403152806460000e+000) (21, -6.81141381741710160000e-002) (22, 1.59929482393317280000e+000) (23, 1.36862915514839890000e+000) (24, 1.06628609768436330000e+000) (25, 1.23916192704454090000e+000) (26, 1.56301755639794840000e-001) (27, 9.76861874120220630000e-001) (28, 1.96201858502531310000e+000) (29, 2.73419832179998950000e+000) (30, 1.66907475846761830000e-001) (31, 2.77590500418862220000e+000) (32, 1.86720492017213250000e-001) (33, 1.42187152090728760000e+000) (34, 1.34947190870130140000e+000) (35, 9.53976716820087560000e-001) (36, 6.25358792377158520000e-001) (37, 1.08509700032538100000e+000) (38, 2.23065588448557730000e+000) (39, 1.05677530089485970000e+000) (40, -1.75068715576123610000e-001) (10, 2.30055254181282860000e-001) (11, 1.51552990766681920000e+000) (12, 2.78042959828164350000e-001) (13, 8.80723963762608640000e-001) (14, 2.67186907106684930000e+000) (15, 7.23963192791308580000e-002) (16, -2.42443507683559560000e+000) (17, -2.63914311017826900000e+000) (18, 2.83338584124962000000e+000) (19, 1.16538633320236480000e+000) (20, -5.57447336730716450000e-001) (21, 5.62068152572663290000e-001) (22, 7.83948898920497680000e-001) (23, 1.22453297753305800000e+000) (24, 9.51865122869983590000e-001) (25, 8.58353910471750910000e-001) (26, 2.91317789237792810000e+000) (27, -7.48317006885829000000e-002) (28, 2.49748822137699960000e+000) (29, -2.29718958648618040000e+000) (30, -4.27694988345453770000e-001) (31, 1.32752845312149970000e+000) (32, -3.62657996678693630000e-004) (33, 5.64844657851569010000e-001) (34, -2.51605165532568890000e-002) (35, 1.38692509856118830000e+000) (36, 7.76055528387043720000e-001) (37, 9.00211698984284330000e-001) (38, 1.37152605854782370000e+000) (39, -6.80807825737322240000e-001) (40, 5.63763968946748410000e-001) (10, -6.88777279945343320000e-001) (11, 1.96562378218986410000e+000) (12, -1.94991723235491170000e+000) (13, -1.04766656445532580000e+000) (14, 5.00093845560883120000e+000) (15, 3.48598662696293720000e+000) (16, 1.54324056287727270000e+001) (17, 1.28204733509618900000e+000) (18, 2.29110483084892680000e+000) (19, 2.71650256416687250000e+000) (20, -1.42955790567825040000e+000) (21, 2.51009096866306130000e+000) (22, -1.02127159089212050000e-001) (23, 2.77055180704720170000e+000) (24, -1.90065358495877760000e+000) (25, -1.52295250169843980000e+000) (26, -5.61639920498695040000e-001) (27, 1.90553518303428810000e+000) (28, 4.04549970074725600000e-001) (29, 2.04062044039647270000e+000) (30, -2.33233085490421810000e+001) (31, 3.24283264890077930000e+000) (32, -8.70605495731261850000e+000) (33, -9.98401842852992720000e-001) (34, -9.98692348130469590000e-001) (35, -6.95453554319752090000e-002) (36, 3.45722770704574630000e-001) (37, 3.77536375177088730000e+000) (38, 3.88878283709653070000e+000) (39, 8.55343845390377310000e+001) (40, -1.45233053560663740000e+000) (10, -1.08425757007119520000e-001) (11, 9.05039042322165370000e-001) (12, 2.03717860587780990000e-001) (13, 2.51613001331650650000e-001) (14, 2.37801874552454380000e+000) (15, 2.56857173776077460000e+000) (16, 6.45652815470176210000e+000) (17, 1.17171441338309950000e-001) (18, 2.71400067063845360000e+000) (19, 1.52171105437119850000e+000) (20, 1.39508168803186110000e+000) (21, 2.58764149022435440000e-001) (22, -9.25688336400027900000e-002) (23, 9.52176401720273180000e-001) (24, 1.56904937087976410000e+000) (25, -5.65656350502176330000e-001) (26, 8.45041134048698520000e-001) (27, 2.36808500033836510000e+000) (28, 1.45470136882995100000e+000) (29, 1.17682946365257910000e+000) (30, 1.86013787338464190000e+000) (31, 9.86430881188653300000e-001) (32, 6.68604981552582970000e-002) (33, 1.60125446695854780000e+000) (34, -7.11365097938467670000e-003) (35, 9.67857371127379020000e-001) (36, 2.27189324257814820000e+000) (37, 9.92398782162562830000e-001) (38, 1.33112000941398280000e+000) (39, 4.17097619448186840000e+000) (40, -2.92953400458330520000e-001) (10, -2.56368955707775900000e-001) (11, 2.53566385261075130000e+000) (12, -2.44762839422261840000e-002) (13, 9.31185189092537780000e-001) (14, 4.44200259016645040000e+000) (15, -9.88192392816557130000e-001) (16, 5.86440483959813360000e+000) (17, 1.61978126235362390000e+000) (18, 2.39770016636919130000e+000) (19, 2.43292596463850150000e+000) (20, 2.25898327074422950000e-001) (21, -2.85597126952388480000e-001) (22, 3.12647170461800790000e-001) (23, 1.55518219029962790000e+000) (24, 3.10825535673064080000e+000) (25, 7.63710261121752500000e-002) (26, 5.05903384939910900000e-002) (27, -1.45547054654135310000e+000) (28, 2.42869295214243320000e+000) (29, 1.04431394241598060000e+000) (30, 1.51058923275913040000e+000) (31, 2.35899217374298730000e+000) (32, 6.47988403676173640000e-002) (33, 3.16131664920491500000e+000) (34, 8.70703894381238820000e-002) (35, 3.44035836275642690000e+000) (36, -8.91690074960048430000e-002) (37, 4.89637332593915680000e-001) (38, 5.12616161278115710000e+000) (39, -1.01420249231882820000e+000) (40, -1.19242716697522000000e+000) (10, 1.28217424721486070000e+000) (11, 5.42815757417841560000e+000) (12, 3.33525536464320190000e+000) (13, 1.40038583401941440000e+000) (14, 1.56358328998589120000e+000) (15, 1.01905649859848400000e+000) (16, 5.82771866736686130000e+000) (17, -8.25808536398487610000e-001) (18, 2.44755370691738290000e+000) (19, -7.44854312882239690000e-001) (20, 3.74570080754072570000e+000) (21, 2.07022634715165180000e+000) (22, 1.84983725572283240000e+000) (23, -9.70067622374178920000e+000) (24, 3.01478042253286520000e+000) (25, 2.34636688590980570000e+000) (26, 2.23185272059285420000e+000) (27, -6.70130635094054570000e-001) (28, 2.76065666330460680000e+000) (29, 2.13473990766336180000e+001) (30, 3.68782171011185490000e-001) (31, 4.28638047085393920000e-002) (32, 1.75468219348459510000e+001) (33, 1.59800021837038540000e+000) (34, 4.37335953641390550000e-001) (35, 3.67588676592610670000e+000) (36, 4.10917796270899500000e+000) (37, 2.38380427895218320000e-001) (38, 2.66327162749860680000e+000) (39, 7.90997070428957870000e+001) (40, 2.24163084435620700000e+000) (10, 6.01905027232562120000e-001) (11, 9.84632265233234220000e-001) (12, 2.11020341267329630000e+000) (13, -8.01942254011719810000e-001) (14, 1.85573691734662600000e+000) (15, 2.79177340680099780000e+000) (16, 2.74930674753137440000e+000) (17, 1.92307285803121530000e+000) (18, 3.10218586944927520000e+000) (19, 2.81918130301385710000e+000) (20, 1.47171378230463500000e-001) (21, 7.16781154828011860000e-001) (22, -1.21697685089559670000e+000) (23, 1.08691498733511320000e+000) (24, 2.65351407737236760000e+000) (25, 4.81024067116901100000e-001) (26, -1.25649662213021210000e+000) (27, 2.27371566902111640000e+000) (28, 2.45886756295708910000e+000) (29, 7.96578486366844920000e-001) (30, 1.37589100484000130000e+000) (31, 7.80103465392902870000e-001) (32, 3.49963518512346890000e-002) (33, 1.35907771035829490000e+000) (34, 2.73129020249959840000e+000) (35, -5.85295573941341350000e-001) (36, 2.02614038677774700000e+000) (37, 2.15212772249350690000e+000) (38, 2.24943264386981710000e+000) (39, 2.23340965706032750000e+000) (40, -2.52959561748614170000e-001) (10, 3.55090835848934510000e+000) (11, 2.96335052258391850000e+000) (12, -1.66543096143392780000e+000) (13, -6.52384660106309580000e-001) (14, 5.07981970661370140000e+000) (15, 9.15898509493920790000e-002) (16, 3.50805106460136520000e+000) (17, -1.27730613517175580000e+000) (18, 8.82823524546054060000e-001) (19, 2.32562204308053520000e+000) (20, -1.56958785228830490000e+000) (21, 3.80559796804453980000e+000) (22, -1.05253520235368540000e+000) (23, 3.29910639225231030000e+000) (24, -1.08379846002127690000e+000) (25, 2.09204959022697200000e+000) (26, 1.14565153324932000000e-001) (27, 4.29289593820785240000e+000) (28, 5.09422795634276950000e+000) (29, 3.31622878353697530000e-001) (30, 9.75966082523959890000e-001) (31, 3.23922366152719210000e+000) (32, -5.07256073713279670000e-002) (33, -6.29637345676785640000e-001) (34, 4.58860889131641600000e+000) (35, -5.17015982619454810000e-001) (36, 3.49368351983643510000e+000) (37, 2.53089542491040830000e+000) (38, -6.70847982068716430000e-001) (39, -1.53921285967015090000e+000) (40, 3.49300119247690510000e+000) (10, 2.41445851445128400000e+000) (11, -3.52043530859780850000e-001) (12, 3.85723575571632930000e+000) (13, 6.59777656982641240000e-001) (14, -3.68167171492605920000e-001) (15, 3.63463744207136850000e+000) (16, 5.49270775994047170000e+000) (17, 7.02143223906309370000e+000) (18, 3.77127542816275300000e+000) (19, 2.31065302774451680000e+000) (20, 3.28940657588185650000e+000) (21, 4.08646814556158140000e+000) (22, -5.60585100271895120000e-001) (23, 1.94687804312769510000e+000) (24, 7.98468484095376520000e-001) (25, 1.68802865516860770000e+000) (26, 1.79946538304949240000e+000) (27, 2.02160785762575120000e+000) (28, -5.15052266786460850000e-002) (29, 2.38218653054241130000e+000) (30, -5.06209902149009230000e+000) (31, 3.56553492077832910000e+000) (32, 9.45908277375794530000e+000) (33, 4.02321912119300600000e+000) (34, 2.85324421959693760000e-001) (35, 3.65840592680852470000e+000) (36, -2.57412530086895690000e-001) (37, 2.95956706517160880000e-001) (38, 3.53272594030705060000e+000) (39, 2.37411450781057500000e+000) (40, 4.33144890757203530000e+000) (10, 3.22719126351862670000e-001) (11, 2.43313431579148710000e+000) (12, 1.12578001810885220000e+000) (13, 4.17517613923054250000e-001) (14, 2.75532800584457640000e+000) (15, 2.78631252939701210000e+000) (16, 8.71134048341475700000e+000) (17, 5.84812538114294570000e-001) (18, 2.29975065397842120000e+000) (19, 1.56116465094005230000e+000) (20, -1.65720839186632330000e-001) (21, 1.24902155070498180000e+000) (22, 8.32056922734039750000e-001) (23, 1.98376932167498280000e+000) (24, 1.22701428074731940000e+000) (25, 3.51909769457983300000e-001) (26, 2.87823659328558130000e+000) (27, 1.43129328942554190000e+000) (28, 3.08610282775174480000e+000) (29, 3.04995174833610160000e+000) (30, 1.65219175911842630000e+000) (31, 2.22674052642654520000e-001) (32, 1.86026535433505350000e-003) (33, 9.97080665424663890000e-001) (34, 2.98731540525830970000e-002) (35, 9.23455023197864210000e-001) (36, 1.16746999010445430000e+000) (37, 1.01874489670148270000e+000) (38, 1.79997360757835010000e+000) (39, 3.02954946496125380000e+000) (40, 4.98152018579190280000e-001) (10, 2.64729457897746560000e+000) (11, 3.14748050993461080000e+000) (12, -2.27949375325537940000e+000) (13, 4.07534490719903770000e-001) (14, 4.49718628441842940000e+000) (15, 2.30317788293733330000e+000) (16, 3.25475959087934410000e+000) (17, 7.55593838402327860000e-001) (18, 3.96028221254319400000e+000) (19, 4.60225334894389530000e+000) (20, -9.09664404122993320000e-001) (21, 3.97989088378809130000e+000) (22, 2.77558141244746360000e+000) (23, 3.30527704682528520000e+000) (24, 2.93451464639314170000e+000) (25, 1.75990220058541990000e+000) (26, 3.47316493171948680000e-001) (27, 2.91254479890230620000e-001) (28, 2.99767580318824050000e+000) (29, 3.02428158193369120000e+000) (30, 4.68544480119071240000e-001) (31, 7.78688765981543910000e-001) (32, -1.54292023998178010000e-001) (33, 1.42890116454488040000e-001) (34, -2.37975217976272750000e-001) (35, 1.78173495756114880000e-001) (36, 2.66276877375745260000e+000) (37, 1.33693342274477020000e+000) (38, 3.15073559788975730000e+000) (39, 1.32055719754884220000e+000) (40, -2.81624019968402690000e-001) (10, -1.16913369700336700000e+000) (11, 1.18114209433943310000e+000) (12, 5.29174963745876820000e-002) (13, -8.45036367383502740000e-001) (14, 3.16623160961005290000e+000) (15, 6.68293551551211400000e-001) (16, 1.77706867067646600000e+000) (17, 8.85647503457600460000e-001) (18, 2.25134769119753870000e+000) (19, -1.47089223206763630000e-001) (20, 4.77183764683364600000e-001) (21, -8.89244435628437470000e-001) (22, 1.63769072228278120000e+000) (23, 2.56251241957064080000e+000) (24, 4.43529757085693870000e-002) (25, -6.74232084954586860000e-001) (26, 1.74627586605525050000e-001) (27, 2.66129515971486170000e+000) (28, 2.18168239871946450000e+000) (29, -4.07847361598004390000e-001) (30, 6.34601325669542300000e-001) (31, 2.71061468480202720000e+000) (32, 4.39013196242286980000e-002) (33, 1.57160075716689910000e+000) (34, 4.49122211608088140000e+000) (35, 2.46849304029342550000e+000) (36, 2.19721373804447320000e+000) (37, 1.90756560869021910000e+000) (38, -5.60544818637978670000e-001) (39, 1.89245425016268730000e+000) (40, -7.08265682516898590000e-001) (10, 1.29479026658709610000e-001) (11, 1.88580245818610190000e+000) (12, 1.45763036770178570000e+000) (13, -2.93894631584071920000e-001) (14, 3.97197548653656800000e+000) (15, 2.45425788521739460000e+000) (16, 2.83823926870810350000e+000) (17, 1.06862790749264590000e+000) (18, 3.17389166794892490000e+000) (19, 1.66611077337770120000e+000) (20, -4.57158566826771810000e-001) (21, 2.57582943390850470000e-001) (22, 1.80213469264037830000e+000) (23, 9.75143831698824900000e-001) (24, -8.92271701588871920000e-001) (25, 1.58091360520031990000e+000) (26, 3.64693241411593320000e-002) (27, 2.08228308375375620000e-001) (28, 2.70470709106088010000e+000) (29, 2.20485048041040170000e+000) (30, -2.52638291518191950000e-001) (31, 1.48408177257512430000e+000) (32, 2.74289831944796620000e-002) (33, 2.60623315435647380000e+000) (34, 1.72427188874956400000e-002) (35, 3.54666767696436850000e-001) (36, 5.37719486953078180000e-002) (37, 5.59617431349596410000e-001) (38, 2.72319633849424840000e+000) (39, 3.37904252884260890000e+000) (40, -3.87560493330021180000e-001) (10, -1.05938420373033660000e-001) (11, 2.09467015905405150000e+000) (12, 2.40933253720113690000e+000) (13, 4.98502930453047080000e-002) (14, 2.51466354919997230000e+000) (15, 3.78564834259807090000e+000) (16, 2.61570824055901020000e+000) (17, 2.46330656726047300000e+000) (18, 2.24492923000851130000e+000) (19, 6.00767943236463540000e-001) (20, 2.39181290984261580000e-001) (21, -2.54299667463594400000e-003) (22, -2.00149625944802740000e+000) (23, 1.21302719573629190000e+000) (24, 5.49310206024412300000e+000) (25, 1.96332921016721750000e+000) (26, 3.79927782538440040000e+000) (27, -5.22465790316121950000e-001) (28, 3.84536284374842770000e+000) (29, 2.89602447886035950000e-001) (30, -2.52995750605026660000e-001) (31, 2.29928542070707030000e+000) (32, -6.52503043754363720000e-002) (33, 1.57009330117177020000e-001) (34, -5.41001747370350100000e-002) (35, 1.50854855690910180000e-002) (36, 3.09323346261037910000e-001) (37, 7.25508709298308130000e-001) (38, 2.40574256465414970000e+000) (39, -2.49943376975754280000e+000) (40, 6.54514281797471180000e-001) (10, -1.08368490014178300000e+000) (11, 1.64613660975932530000e+000) (12, -4.00170408807253460000e-001) (13, 2.35279477423125490000e+000) (14, 3.89731675020207690000e+000) (15, 8.76791835762932070000e-001) (16, 1.77112951739774530000e+000) (17, -3.76569753235858280000e-001) (18, 4.21282326441658220000e+000) (19, 1.92866844785836690000e+000) (20, -9.92804257435419340000e-001) (21, 2.83372421845865400000e+000) (22, 1.99006349995086280000e+000) (23, 2.14080311654153870000e+000) (24, 3.09510193109109540000e+000) (25, -6.70895426574044550000e-001) (26, 1.62369056838620180000e-001) (27, 2.61386387305915640000e+000) (28, 4.33391079468056880000e+000) (29, 2.55746677309956330000e+000) (30, 5.39038562722168770000e-001) (31, -2.21268270613062900000e-001) (32, 2.69147842038725650000e-002) (33, 2.49741902632042080000e+000) (34, 3.46485698857679600000e-001) (35, 6.37329331054095060000e-001) (36, 1.62208268036070830000e-001) (37, 7.28760967411917430000e-001) (38, 3.48548065866029510000e+000) (39, 2.27625060506933300000e+000) (40, -1.51207985576548350000e-001) (10, 4.68587674380438580000e-001) (11, 2.26329927307419170000e+000) (12, 2.68970497305227420000e+000) (13, 6.28735634257180710000e-001) (14, 3.02310307795054940000e+000) (15, 2.38876582214298110000e+000) (16, 1.30123269511631820000e+000) (17, 2.10125453995840930000e-001) (18, 2.02613663325847600000e+000) (19, 9.30620746847334760000e-001) (20, 1.25968641678664820000e+000) (21, 2.27070098547072610000e-001) (22, -2.04184013086400200000e+000) (23, 1.41416057580305330000e+000) (24, -8.23132742540981680000e-001) (25, 1.59376242372314180000e+000) (26, 6.46044140569627450000e-001) (27, 2.35377403082843380000e-001) (28, 2.94089483842160560000e+000) (29, 1.13133905272083560000e+000) (30, 9.17749192983338570000e-001) (31, 3.75068861847546510000e-001) (32, -2.29816977940907470000e-003) (33, 1.72306288551004180000e+000) (34, -2.18716314774214800000e-002) (35, 9.83505329608897470000e-001) (36, 1.88640909670905650000e+000) (37, 3.06641043667487610000e+000) (38, 2.08807811794055050000e+000) (39, -4.81787755424679940000e-001) (40, 4.14582002697243880000e-001) (10, 1.23740142895019380000e-001) (11, 1.41830689909442050000e+000) (12, 5.15064643181776290000e+000) (13, 3.50152172574789410000e+000) (14, 2.52341466376851060000e+000) (15, 6.28752596159956050000e-002) (16, -2.71565239043291500000e-001) (17, -1.09033560336484950000e+000) (18, 3.23461613439612130000e+000) (19, 9.45363979365212660000e-001) (20, 2.56744489941588770000e-001) (21, 3.95424591591340000000e+000) (22, -4.14952927216010010000e-001) (23, 3.27202480191097060000e+000) (24, 1.42095622116403740000e+000) (25, 3.40874045872646960000e+000) (26, 8.32689872430441350000e-001) (27, 9.23083207101836890000e-001) (28, 1.27195945812458140000e+000) (29, -1.05146141716527540000e+000) (30, 1.04996634658550540000e+000) (31, 6.37141225065798400000e-001) (32, 7.95162811838286550000e-002) (33, 6.39423736178938880000e-001) (34, -3.68245128185115840000e-001) (35, -3.82393776120274030000e-001) (36, 1.77041957145040450000e-001) (37, 2.41674516288449000000e+000) (38, 2.90860920117499020000e+000) (39, 2.47513388871109080000e+001) (40, 1.60895274273382530000e+000) (10, 1.94012878592834510000e+000) (11, 1.94918167036146770000e+000) (12, 2.87370410106604850000e+000) (13, 3.85617460928564660000e+000) (14, 3.76979312239886650000e+000) (15, 3.20326082460653350000e+000) (16, 8.91987672034024850000e-001) (17, 2.01630184631199020000e+000) (18, 2.09627102697522670000e+000) (19, 1.12846963655206900000e+000) (20, -4.38615317520708090000e-001) (21, 1.03628064368372730000e+000) (22, 7.42913919118840530000e-001) (23, 3.52111590353828730000e+000) (24, 2.63757255622211510000e+000) (25, 2.38438935207459530000e+000) (26, 2.31477030841884710000e+000) (27, 2.68889364039521310000e+000) (28, 2.90378789690842300000e+000) (29, 3.01074522368789680000e-001) (30, 4.33076953846730280000e-001) (31, 4.67072842641249950000e+000) (32, -2.95968301629623180000e-001) (33, -9.37627817970190650000e-002) (34, -1.75077349734306080000e-001) (35, -3.47929111916587100000e-001) (36, 4.06474950968064510000e-002) (37, 1.71879294208310650000e+000) (38, 1.04163453347874020000e+000) (39, 9.97954579747606730000e+000) (40, 1.28827716724186910000e+000) (10, 3.35387611053584500000e-001) (11, 8.15269396166902190000e-001) (12, -1.63631310851436960000e+000) (13, 1.52797960568317240000e-001) (14, 2.96417799979760900000e+000) (15, 3.75728689756471220000e-001) (16, 1.79997530203907270000e+000) (17, -2.97604518757294490000e-001) (18, 1.77202498364931400000e+000) (19, 2.05755522665006700000e+000) (20, 2.01592528143237760000e+000) (21, 2.74518172138356000000e-001) (22, -1.17499847754899790000e+000) (23, 1.43873147236418490000e+000) (24, 1.29700414673925350000e+000) (25, 1.88977243477577090000e+000) (26, 6.34021218413093110000e-001) (27, 1.34024617361254330000e+000) (28, 2.05937542739735500000e+000) (29, -1.70815473611267340000e+000) (30, 1.61064520120337050000e+000) (31, 1.62503790032138910000e+000) (32, -1.65426118707880520000e-001) (33, -1.63861856386773060000e+000) (34, 3.08600777381820680000e+000) (35, 2.35450934363506150000e+000) (36, 1.20688617525819030000e+000) (37, 1.40764249643159990000e+000) (38, -3.97658591214617330000e-001) (39, 3.20329239526524830000e+000) (40, 1.95564381526744660000e-001) (10, -7.61136687902404190000e-001) (11, 2.01120971947937880000e+000) (12, 4.20564313566289980000e-001) (13, -7.30151254924386150000e-001) (14, 2.84011893878111150000e-001) (15, 3.03891248270575030000e+000) (16, 2.41983688856099500000e-001) (17, 1.38891741431779320000e-001) (18, 1.50442205602706380000e+000) (19, 1.51195724233488640000e+000) (20, 2.56140598064460390000e+000) (21, -4.15309006808105770000e-002) (22, -3.67843571461981210000e-001) (23, 2.07457428705529610000e+000) (24, -9.37234002501548870000e-001) (25, 3.39832833581602540000e+000) (26, -2.69642652024149220000e-001) (27, 8.91062868383050600000e-001) (28, 3.99126563244317630000e+000) (29, 7.06439139517539010000e-001) (30, 6.99689512432077220000e-001) (31, -6.99944834923481470000e-001) (32, 2.43123563242587720000e-003) (33, -1.94082871175627230000e-001) (34, -7.09734831235825650000e-002) (35, -7.36017418454738450000e-001) (36, 3.38283954671930820000e+000) (37, 3.14005631490847930000e+000) (38, 1.16352209391042430000e+000) (39, 1.27221685817533790000e+000) (40, 2.89216097159975090000e+000) (10, -2.83533058011044610000e-001) (11, 4.47550605974383560000e-001) (12, 9.63874024134454000000e-001) (13, -8.93985771428633530000e-002) (14, 3.84304129678709660000e+000) (15, 3.21938330831480890000e+000) (16, -4.03397569535168190000e+000) (17, -7.51654609906001860000e-001) (18, 2.95534107008689070000e+000) (19, 6.18208288139075610000e-002) (20, -7.03322458414501690000e-001) (21, -6.97681916332496430000e-001) (22, 1.67067072488182240000e+000) (23, 8.40371272557919990000e-001) (24, -3.12764620221023860000e-001) (25, 1.30194137524419150000e+000) (26, -1.08597354393187540000e-002) (27, 1.20736624561035510000e+000) (28, 1.95907043335654320000e+000) (29, -5.70292926395352560000e-001) (30, 3.48197915878026730000e-001) (31, 1.50343728990259900000e+000) (32, -1.74587573497515590000e-002) (33, 1.13552884597759720000e+000) (34, -5.73232970412821800000e-003) (35, -6.00985907733675110000e-001) (36, 3.36385233840442450000e+000) (37, 9.05780286770300310000e-001) (38, 8.83060450804138860000e-001) (39, 1.25058012462111680000e+000) (40, -4.70757805546121570000e-001) (10, 2.02619138733299260000e-001) (11, 8.35220706123081410000e-001) (12, -7.87427499301191270000e-001) (13, 1.21165630318214590000e+000) (14, 4.61457430567406130000e+000) (15, 7.80087385075909800000e-001) (16, 1.02232492426979570000e-001) (17, -1.54815055354657290000e+000) (18, 2.11779418457569960000e+000) (19, 1.41096868858543130000e+000) (20, -6.83651671975105010000e-001) (21, -8.27322745870812450000e-001) (22, 2.21769300873168440000e+000) (23, 1.16854725417764470000e+000) (24, 1.48535680577159420000e+000) (25, 1.48894979853316630000e+000) (26, 1.38767630036094800000e-001) (27, 1.33695371577648680000e+000) (28, 3.08351523902151970000e+000) (29, 2.40084186552288110000e+000) (30, 1.39050589794915290000e+000) (31, 4.23044713725160610000e-001) (32, 4.19299020715544270000e-002) (33, 3.28800961462260320000e+000) (34, 6.44483902017558420000e-002) (35, -4.73783491778374590000e-001) (36, 2.42860807424569170000e-001) (37, 8.45739455325471570000e-001) (38, 6.07500720599021490000e-001) (39, 2.56221237270836120000e+000) (40, -1.56297418521813340000e+000) (10, 2.60086179332627940000e+000) (11, 1.28227322957126330000e+000) (12, 2.56080855452422630000e+000) (13, 1.48572012907378160000e+000) (14, 3.14300584174818050000e+000) (15, 1.93448211958295160000e+000) (16, 7.52652743941635390000e-001) (17, 2.41304505320207220000e-001) (18, 3.04740428619293180000e+000) (19, 4.26741212092020030000e+000) (20, 1.05893837838482610000e+000) (21, -5.15867353065873950000e-001) (22, 4.52779655363157510000e-001) (23, 2.38131053741435260000e+000) (24, 2.09769293018512170000e+000) (25, -3.48689249777511920000e-001) (26, 2.21724702520974840000e-001) (27, 1.99318690061549500000e+000) (28, 2.70535364423784990000e+000) (29, 2.27340854641521790000e-001) (30, 6.65657255525572640000e-001) (31, 1.00867044146528760000e+000) (32, 1.84891121604824430000e-001) (33, -3.38152719114674370000e-001) (34, 2.54650532693586570000e+000) (35, 1.08584804357558770000e+000) (36, 3.07276645945307850000e-001) (37, 1.48475026414577990000e+000) (38, 2.04580186780030000000e+000) (39, 3.78415727701770210000e+000) (40, -3.39392199795388320000e-001) (10, -1.06727633929288750000e+000) (11, 3.64599893737363080000e+000) (12, 2.11571653399757140000e+000) (13, 2.93767902217713940000e+000) (14, 4.17106532191140470000e+000) (15, -5.14114545559113400000e-001) (16, 3.88211930217404020000e-001) (17, -2.26533459127468540000e+000) (18, 2.87430101403263590000e+000) (19, 4.42378836516789600000e+000) (20, -8.79354660368465770000e-001) (21, -8.73258808049533600000e-001) (22, 3.16252359466594600000e+000) (23, 3.89660753510290810000e+000) (24, 4.68707047954167160000e+000) (25, 3.68830876421089690000e+000) (26, 2.75090010263018620000e-002) (27, 1.93684856871948720000e+000) (28, 4.96640421493941810000e+000) (29, 1.32419252774077160000e+000) (30, 4.23230679965247940000e-001) (31, -4.17395493397222590000e-001) (32, 4.30631063808890460000e-002) (33, -4.31333390477194930000e-001) (34, -4.92913206990821750000e-001) (35, -3.27304684876608020000e-001) (36, -2.66713322337103100000e-001) (37, 2.86469150247688860000e+000) (38, 2.53825259813044110000e+000) (39, 3.85828821322969120000e+000) (40, -1.06532393632154210000e+000) (10, -8.01645628558328300000e-002) (11, 1.55496122104906510000e+000) (12, -7.46168409100759210000e-002) (13, 5.80607446816874930000e-001) (14, 3.47982218779039300000e+000) (15, 8.85354164656867780000e-001) (16, 1.02420898664550310000e+000) (17, 3.73371064154151670000e-001) (18, 1.95312635186891730000e+000) (19, 2.27626358835682390000e-001) (20, -8.33719345082921110000e-001) (21, 4.36919441283309730000e-001) (22, -6.10188407978320080000e-001) (23, 1.23054058565544630000e+000) (24, 4.43928992677949500000e-001) (25, 3.43115791947176830000e+000) (26, -7.09197896712727480000e-001) (27, 1.06955294957518370000e+000) (28, 2.62741992289647320000e+000) (29, 3.38731232526138330000e+000) (30, 1.09455790540954070000e+000) (31, -8.93078726345041680000e-002) (32, 3.09023831068612820000e-002) (33, 1.35452890035657010000e+000) (34, 2.68136730887049970000e+000) (35, -2.47015723602108020000e-001) (36, 1.02404184638534470000e+000) (37, 2.53342499788920380000e+000) (38, 3.12940010029493760000e+000) (39, 1.63152519468864730000e+000) (40, -2.26040363780252130000e-001) (41, 1.55127065232689780000e+000) (42, -5.46393321826229710000e-002) (43, -5.88638783537226290000e-002) (44, 1.61863716106144180000e+000) (45, -6.88235656858829090000e-002) (46, 8.11770005516282140000e-002) (47, 8.98279444038257880000e-001) (48, 1.42856919912483170000e+000) (49, 3.33454957006830420000e-001) (50, -3.43251143799945310000e-001) (51, 8.31301759270499100000e-001) (52, -1.43482058405373870000e-001) (53, -9.42885118019746450000e-002) (54, 9.13765692075697800000e-001) (55, -9.40131386789405780000e-001) (56, 2.67406352444844900000e-001) (57, 7.99571985858243960000e-002) (58, 5.48900296077167840000e-001) (59, -5.82416255389935360000e-002) (60, 1.44056447552951610000e-001) (61, 2.46276368209358450000e-002) (62, 5.91487570618392740000e-001) (63, 4.69149596213098430000e-001) (64, 3.76843005303892290000e-002) (65, 1.56966221669222670000e-001) (66, -2.48635690548658140000e-001) (67, -4.10933809372901190000e-001) (68, -1.78388614176806070000e-001) (69, -6.94335932985236240000e-002) (70, 3.15190084489091420000e-001) (71, 1.27556335164415620000e+000) (41, 4.27542279762588460000e-001) (42, 9.21139121706039540000e-002) (43, -6.14794676580018410000e-001) (44, 3.02516229102489160000e+000) (45, 7.76020338165526960000e-001) (46, -1.63990717240901250000e-001) (47, 3.12813831543067860000e-002) (48, 1.84032739621840120000e+000) (49, -4.27464171691543490000e-001) (50, -1.27408286636979810000e+000) (51, 4.71785960987144200000e-001) (52, 1.62935853785525770000e-001) (53, -4.88308594993532570000e-002) (54, 1.07497561481012850000e-001) (55, -1.57768912878115200000e-001) (56, -7.21998111248038140000e-001) (57, -1.85502072807976700000e-001) (58, 4.06634977852443120000e-001) (59, -4.66201939847939660000e-002) (60, 5.76617075984991730000e-002) (61, 6.44597790694145580000e-001) (62, 1.74434973302819630000e+000) (63, 1.45167100006677810000e+000) (64, -2.62314886542134650000e-002) (65, -1.26341524982802330000e+000) (66, -6.58782634921516450000e-001) (67, 3.50467378824509350000e-001) (68, 5.56394926910747880000e-001) (69, 7.27979136531023970000e-001) (70, -3.12991627108976040000e-001) (71, 5.60206897629523470000e-001) (41, -8.84134641916639820000e-001) (42, 7.51367724865623310000e-001) (43, -2.56005679054039540000e-001) (44, 2.66035053802841580000e+000) (45, -2.48486626308054960000e-001) (46, -8.86562974149498330000e-002) (47, 8.26152567988028830000e-002) (48, 1.87124177193624060000e+000) (49, -3.04550242677416480000e-001) (50, -6.85069066472202780000e-001) (51, 2.67773522257282570000e-001) (52, 2.97061403664205590000e-002) (53, 2.07731060611650920000e-001) (54, 2.36557207822891860000e-001) (55, -4.47474932049106160000e-002) (56, -6.56784087512113150000e-001) (57, -3.01377126838006660000e-001) (58, 6.47773276157146420000e-001) (59, 2.42149616690852530000e-001) (60, -6.47611263964413710000e-001) (61, 9.82216949867500550000e-002) (62, 4.39373144468650390000e-001) (63, 1.37740306523847060000e+000) (64, 3.08014658075824950000e-001) (65, -6.01354855528302030000e-001) (66, -1.17225501949366030000e+000) (67, 1.89455330409050780000e+000) (68, 4.36506551705713400000e-001) (69, 2.58623182914216820000e-001) (70, -3.65830863732608370000e-001) (71, -3.55475788649454890000e-001) (41, 1.44712667249544790000e+000) (42, -2.99222765680961730000e-001) (43, -1.51900161989335890000e+000) (44, 1.46188690883512630000e+000) (45, -2.57210119424506850000e-002) (46, 3.52579487724208880000e-001) (47, -5.75214624988438160000e-002) (48, 2.59779442931280080000e+000) (49, 1.04716805265048720000e+000) (50, -4.34766043315662930000e-001) (51, 8.15659532967522360000e-001) (52, -7.65612837215693620000e-001) (53, -1.27065423830521910000e-001) (54, 1.96785739754781930000e+000) (55, -9.26073943741886480000e-002) (56, 2.81823613076673030000e-001) (57, 1.76612251576095890000e-001) (58, 5.75866383386105850000e-001) (59, 3.62718741471963920000e-001) (60, -4.60670212905485990000e-002) (61, 8.06878508043890720000e-001) (62, 8.13651322193170600000e-001) (63, 1.72869148761807890000e-001) (64, -2.22467016482955000000e-001) (65, 1.02346635321719600000e-001) (66, 1.99850358398038050000e-001) (67, 4.24154070281709120000e-002) (68, -1.60456992899705280000e-001) (69, -5.20181293550338150000e-003) (70, 1.01752822104205730000e+000) (71, 1.25299844604670720000e+000) (41, 2.76777152137795920000e+000) (42, 8.31474931879696120000e-001) (43, 2.31629839755401270000e-001) (44, 2.42831490504212160000e+000) (45, -2.60589107695636700000e-001) (46, 3.23666717862379110000e-001) (47, 5.16187562291177680000e-002) (48, 3.94326409918838720000e-001) (49, -1.59520838319764270000e-001) (50, 3.27080635624703710000e+000) (51, 1.76577390683971400000e+000) (52, 1.33294248544609470000e-001) (53, 3.43605476712676850000e-002) (54, 1.46127550065943560000e+000) (55, -1.12272831883306990000e-001) (56, -1.09982474553985600000e-001) (57, -2.49586116404978510000e-002) (58, 1.77218342310577800000e+000) (59, 4.24837685345039740000e-001) (60, -1.04686178133497680000e+000) (61, 7.80096133563015100000e-001) (62, -7.45656490703305720000e-002) (63, 9.74890719438530780000e-001) (64, 2.58166812699078540000e-001) (65, 1.06975829133417240000e-001) (66, 6.41024051890747180000e-001) (67, -3.97632906720697980000e+000) (68, 4.67173233134867800000e-001) (69, 2.75729401071260590000e-001) (70, -4.93334162454408200000e-001) (71, 1.38616330830784330000e+000) (41, 4.02553501380930360000e+000) (42, 1.35135023421605620000e+000) (43, 7.53762963505887200000e-002) (44, 4.67285314138724050000e+000) (45, -6.04212262442041510000e-001) (46, -9.35119680267007980000e-001) (47, -1.25248488128302580000e-002) (48, 4.69366997376920030000e+000) (49, -1.65962975276736060000e-001) (50, -1.93653549027404560000e-001) (51, -1.04024276191562980000e+000) (52, 1.81289263155307130000e-001) (53, 1.38901761220739270000e+000) (54, 3.08707496089246060000e+000) (55, -3.56838448293820210000e-002) (56, 2.50261296175690930000e+000) (57, -1.77432467739652200000e+000) (58, 8.58971765697523870000e-001) (59, -6.23219807359232800000e-002) (60, 1.51799244452651490000e+000) (61, -3.45303689842632880000e-001) (62, 3.68797717907847790000e+000) (63, 3.29000380846526720000e+000) (64, 1.87245029678306750000e-001) (65, -3.94473842561354480000e-001) (66, 3.94506353555210240000e-001) (67, 6.36373392424154220000e-002) (68, 1.41905004787386680000e+000) (69, 1.95191040744621660000e+000) (70, -8.55038561406922360000e-001) (71, -1.06578365391670200000e+000) 
