FANN_FLO_2.1
num_layers=6
learning_rate=0.700000
connection_rate=1.000000
network_type=1
learning_momentum=0.000000
training_algorithm=2
train_error_function=1
train_stop_function=1
cascade_output_change_fraction=0.010000
quickprop_decay=-0.000100
quickprop_mu=1.750000
rprop_increase_factor=1.200000
rprop_decrease_factor=0.500000
rprop_delta_min=0.000000
rprop_delta_max=50.000000
rprop_delta_zero=0.100000
cascade_output_stagnation_epochs=12
cascade_candidate_change_fraction=0.010000
cascade_candidate_stagnation_epochs=12
cascade_max_out_epochs=150
cascade_min_out_epochs=50
cascade_max_cand_epochs=150
cascade_min_cand_epochs=50
cascade_num_candidate_groups=2
bit_fail_limit=1.00000001490116120000e-001
cascade_candidate_limit=1.00000000000000000000e+003
cascade_weight_multiplier=4.00000000000000020000e-001
cascade_activation_functions_count=10
cascade_activation_functions=3 5 7 8 10 11 14 15 16 17 
cascade_activation_steepnesses_count=4
cascade_activation_steepnesses=2.50000000000000000000e-001 5.00000000000000000000e-001 7.50000000000000000000e-001 1.00000000000000000000e+000 
layer_sizes=10 20 20 10 10 6 
scale_included=0
neurons (num_inputs, activation_function, activation_steepness)=(0, 0, 0.00000000000000000000e+000) (0, 0, 0.00000000000000000000e+000) (0, 0, 0.00000000000000000000e+000) (0, 0, 0.00000000000000000000e+000) (0, 0, 0.00000000000000000000e+000) (0, 0, 0.00000000000000000000e+000) (0, 0, 0.00000000000000000000e+000) (0, 0, 0.00000000000000000000e+000) (0, 0, 0.00000000000000000000e+000) (0, 0, 0.00000000000000000000e+000) (10, 5, 1.00000000000000000000e+000) (10, 5, 1.00000000000000000000e+000) (10, 5, 1.00000000000000000000e+000) (10, 5, 1.00000000000000000000e+000) (10, 5, 1.00000000000000000000e+000) (10, 5, 1.00000000000000000000e+000) (10, 5, 1.00000000000000000000e+000) (10, 5, 1.00000000000000000000e+000) (10, 5, 1.00000000000000000000e+000) (10, 5, 1.00000000000000000000e+000) (10, 5, 1.00000000000000000000e+000) (10, 5, 1.00000000000000000000e+000) (10, 5, 1.00000000000000000000e+000) (10, 5, 1.00000000000000000000e+000) (10, 5, 1.00000000000000000000e+000) (10, 5, 1.00000000000000000000e+000) (10, 5, 1.00000000000000000000e+000) (10, 5, 1.00000000000000000000e+000) (10, 5, 1.00000000000000000000e+000) (10, 5, 1.00000000000000000000e+000) (30, 5, 1.00000000000000000000e+000) (30, 5, 1.00000000000000000000e+000) (30, 5, 1.00000000000000000000e+000) (30, 5, 1.00000000000000000000e+000) (30, 5, 1.00000000000000000000e+000) (30, 5, 1.00000000000000000000e+000) (30, 5, 1.00000000000000000000e+000) (30, 5, 1.00000000000000000000e+000) (30, 5, 1.00000000000000000000e+000) (30, 5, 1.00000000000000000000e+000) (30, 5, 1.00000000000000000000e+000) (30, 5, 1.00000000000000000000e+000) (30, 5, 1.00000000000000000000e+000) (30, 5, 1.00000000000000000000e+000) (30, 5, 1.00000000000000000000e+000) (30, 5, 1.00000000000000000000e+000) (30, 5, 1.00000000000000000000e+000) (30, 5, 1.00000000000000000000e+000) (30, 5, 1.00000000000000000000e+000) (30, 5, 1.00000000000000000000e+000) (50, 5, 1.00000000000000000000e+000) (50, 5, 1.00000000000000000000e+000) (50, 5, 1.00000000000000000000e+000) (50, 5, 1.00000000000000000000e+000) (50, 5, 1.00000000000000000000e+000) (50, 5, 1.00000000000000000000e+000) (50, 5, 1.00000000000000000000e+000) (50, 5, 1.00000000000000000000e+000) (50, 5, 1.00000000000000000000e+000) (50, 5, 1.00000000000000000000e+000) (60, 5, 1.00000000000000000000e+000) (60, 5, 1.00000000000000000000e+000) (60, 5, 1.00000000000000000000e+000) (60, 5, 1.00000000000000000000e+000) (60, 5, 1.00000000000000000000e+000) (60, 5, 1.00000000000000000000e+000) (60, 5, 1.00000000000000000000e+000) (60, 5, 1.00000000000000000000e+000) (60, 5, 1.00000000000000000000e+000) (60, 5, 1.00000000000000000000e+000) (70, 0, 1.00000000000000000000e+000) (70, 0, 1.00000000000000000000e+000) (70, 0, 1.00000000000000000000e+000) (70, 0, 1.00000000000000000000e+000) (70, 0, 1.00000000000000000000e+000) (70, 0, 1.00000000000000000000e+000) 
connections (connected_to_neuron, weight)=(0, -6.72620944339186590000e-002) (1, -2.91865786821482280000e-002) (2, -1.18887979779940920000e-001) (3, 2.32963024603854900000e-001) (4, 3.94827831073890740000e-001) (5, 2.44316214465862940000e-001) (6, -4.19198936785992670000e-002) (7, -4.06390366293395140000e-001) (8, -5.57143797242982020000e-001) (9, -2.84030743280440700000e-001) (0, -4.41804701558508760000e-001) (1, 3.24206117639312620000e-001) (2, -1.48775403710090960000e-001) (3, -1.89706303370716670000e-001) (4, -1.30309001849826130000e-001) (5, 3.20744044179039900000e-001) (6, -1.22947365970880230000e-001) (7, -4.86687782050335580000e-001) (8, -4.83639831693050860000e-001) (9, -2.00530732137415620000e-001) (0, 1.51849173771887510000e+000) (1, 1.05087253649757020000e-001) (2, 2.01758908062220440000e-001) (3, 7.52395509089780060000e-002) (4, 4.73065876172685040000e-002) (5, 1.58207689328103310000e-001) (6, 2.40526739492416510000e-002) (7, 1.42615261335586580000e-001) (8, 2.52232679068071440000e-002) (9, 4.36832074259140220000e-001) (0, -2.91867443276135590000e+000) (1, 6.97345076693732140000e+000) (2, -8.88748392099957040000e-001) (3, 2.48543418227535510000e-002) (4, -4.53742501276257410000e-002) (5, -1.40322883634901910000e-002) (6, 7.88032790683032340000e-001) (7, -5.02567265449621710000e-001) (8, 7.26556589197081550000e-002) (9, 6.92252157448752350000e-001) (0, 1.65738621785125740000e-001) (1, -5.31521458156817170000e-001) (2, -2.23842733086569800000e-001) (3, 5.55085057246096570000e-002) (4, -9.51034679860924410000e-002) (5, -2.81587292832844120000e-001) (6, 2.96514322518157680000e-001) (7, 1.72742386040603380000e-001) (8, 1.35406553392632050000e-001) (9, -1.61111687287086050000e-001) (0, 1.15771346773669560000e+000) (1, -7.72813534511999860000e-001) (2, 1.36112681614364720000e+000) (3, -3.36046776775003390000e-001) (4, -3.00029284080647710000e-002) (5, -5.92708039306535590000e-001) (6, -1.77268514124166360000e-001) (7, 2.02916662426203570000e-001) (8, -1.36754362896526620000e-001) (9, 6.71109742272015470000e-001) (0, 3.63805048963083630000e-001) (1, 4.23124731843332100000e-001) (2, 2.97827585566799280000e-001) (3, 1.21194816488407730000e-001) (4, 9.25101345605896660000e-002) (5, 1.53362153762736380000e-001) (6, 7.18774853367410700000e-002) (7, -3.50413626354692740000e-002) (8, -1.53106237470537950000e-001) (9, 5.55118077977830860000e-001) (0, -4.22056729951624040000e-002) (1, -4.37669842004887400000e-001) (2, 3.81993819305030180000e-001) (3, 2.50581230161794510000e-001) (4, -1.36815545936714330000e-002) (5, -3.64257173524836710000e-002) (6, 1.07293493979049370000e-001) (7, 8.19925813678441940000e-002) (8, 6.54004099825086780000e-002) (9, 1.26573740099511290000e-002) (0, -6.90999294023129760000e-001) (1, -7.93096130756897750000e-002) (2, 7.26415563931885520000e-003) (3, -3.11618306182724400000e-001) (4, -1.88025524310558050000e-001) (5, 9.87186169890032360000e-002) (6, 7.29651676877590830000e-002) (7, 7.53901266790083510000e-002) (8, 1.50932457656623150000e-002) (9, -5.92074862065985470000e-001) (0, 9.39713059803198300000e-001) (1, -5.87278292085877670000e-001) (2, 1.14047709578647450000e-001) (3, -1.24228622741581130000e-001) (4, 3.09011279615383660000e-001) (5, 1.89932147297585710000e-002) (6, -1.93297322278670360000e-001) (7, -2.59758019258064850000e-001) (8, -5.29619251516362800000e-002) (9, 3.19097150299378240000e-001) (0, 1.29127226953750780000e-002) (1, -1.73780552366050170000e-001) (2, 3.09349919541649860000e-001) (3, -5.50418919734368540000e-002) (4, 7.16264179404554470000e-002) (5, 2.87677799312296420000e-001) (6, 1.49661029928325000000e-002) (7, 3.98984137911690070000e-001) (8, 5.01523552370337980000e-002) (9, 1.83984420693098950000e-001) (0, 1.21263787924376800000e+000) (1, 5.98007932833781060000e-001) (2, -1.93616700006012920000e-001) (3, 4.67576751442852910000e-002) (4, 3.06264723107212700000e-001) (5, 3.62579808969857140000e-001) (6, -4.60041995527194330000e-001) (7, 3.28503038222760280000e-001) (8, -3.16960366212678740000e-003) (9, -1.89664398102225800000e-001) (0, 4.11974377303870040000e-002) (1, -6.49392823656503970000e-001) (2, 8.45377688688810910000e-002) (3, -1.91181042782614660000e-001) (4, 3.80144165937960740000e-001) (5, 3.10754843471408130000e-002) (6, -9.04344461545968930000e-002) (7, 5.52476065937662850000e-001) (8, -5.13845019789572270000e-002) (9, -1.78349174696857460000e-001) (0, 1.44343184073139060000e-001) (1, 2.26467169071486530000e-001) (2, -6.89258825036137890000e-001) (3, 5.65238953619070990000e-002) (4, 1.45046568559678510000e-001) (5, -1.24013990439913040000e-001) (6, -3.59727446663635870000e-001) (7, -1.63528136903313300000e-001) (8, 3.55776702958104480000e-001) (9, -2.68818592866259860000e-001) (0, -1.09962843568913280000e-001) (1, 1.53591487922786830000e+000) (2, 8.00280348462763860000e-001) (3, 8.30982062713201820000e-002) (4, -4.57846540329378990000e-001) (5, -1.21762222906462960000e-001) (6, -2.81303372486367030000e-002) (7, -6.62218525967352280000e-002) (8, -1.62940743405522230000e-001) (9, 5.25703479044230430000e-001) (0, 6.92798440353489360000e-001) (1, -2.73488267803140230000e-001) (2, -1.20885792180446330000e-001) (3, -1.07776411647334450000e-001) (4, -1.98603735353699600000e-001) (5, -2.20651878354913540000e-001) (6, -6.13603382246670990000e-001) (7, 2.19000816807222720000e-001) (8, -8.10223616220233090000e-002) (9, -2.05961593666497220000e-001) (0, -9.87956295281120920000e-002) (1, -4.01280602396576920000e-001) (2, 2.87155694924871250000e-001) (3, 2.74609269890034920000e-001) (4, -1.32476788644670410000e-001) (5, -4.79310402215550050000e-001) (6, 6.37977251073699580000e-003) (7, 3.93844050355758700000e-001) (8, 1.15448945024393750000e-001) (9, 3.46046629397787770000e-002) (0, 5.78455659103106480000e-001) (1, -4.77300137825392820000e-001) (2, 3.05111414482220460000e-001) (3, 2.15807035424376240000e-001) (4, 2.08860339703737480000e-002) (5, 5.61142226336504010000e-001) (6, -1.88445932025256530000e-001) (7, 1.85376359468471560000e-001) (8, -8.68719960510428440000e-002) (9, 3.49192474578779110000e-001) (0, 1.47459267950428320000e+000) (1, 2.63878272174856350000e+000) (2, -5.69214663754971100000e-001) (3, 5.17608900192240240000e-003) (4, 4.44853854644480030000e-002) (5, -4.72143111938015180000e-002) (6, -5.04533152891067930000e-001) (7, -7.05614916932776450000e-001) (8, 1.47644322684469480000e-001) (9, 1.17432265748111280000e+000) (0, -7.12559716284666970000e-001) (1, -1.38849606314449230000e-001) (2, -2.59783612350977180000e+000) (3, 1.67274191941221040000e-002) (4, -6.43386995193376880000e-003) (5, -2.31226714359160230000e-002) (6, 1.78029549666388200000e-001) (7, 8.65117977648692530000e-002) (8, 6.10561981554601170000e-001) (9, 1.30131830834466940000e-001) (0, -1.04318912212689050000e+000) (1, -8.51910188947361700000e-001) (2, 3.71021216508803930000e-002) (3, -2.29839300527923840000e-001) (4, -1.98440401502091270000e-001) (5, 8.20676878757294480000e-002) (6, -7.26532316486238200000e-002) (7, 2.19347806112446810000e-001) (8, 2.38210749002848220000e-001) (9, 8.80461113879702490000e-002) (10, -2.77213467845357160000e-001) (11, -3.59886453563433350000e-001) (12, 9.63490274451035860000e-001) (13, 1.99820797700325680000e-001) (14, 2.32373720977642220000e-001) (15, 2.01008130333050010000e-001) (16, -5.81183919906941470000e-003) (17, -4.50576848240786090000e-001) (18, 5.67686894440155630000e-001) (19, 3.45315193230609220000e-001) (20, -3.21022018235125380000e-001) (21, -1.80046451041935420000e-001) (22, 2.20422465828101400000e-001) (23, -1.06707592402450590000e-001) (24, 2.50149835747879750000e-001) (25, -2.42634314577796430000e-002) (26, 7.89726758906007520000e-001) (27, -2.14351612706024320000e-001) (28, 5.92573787272911880000e-001) (29, 8.75422261720475660000e-001) (0, -1.38239976154217100000e+000) (1, -3.81817770648914420000e-001) (2, 1.22249528307070090000e-001) (3, -5.13055423460366320000e-002) (4, -2.52602888079765890000e-001) (5, -8.58459418169376510000e-002) (6, -1.46979931451414680000e-002) (7, -3.44260936320467000000e-001) (8, -4.08337152707161990000e-002) (9, 3.56548807048763170000e-003) (10, 2.99021017984034440000e-002) (11, 1.03881128668366640000e-001) (12, 1.01647783706955080000e-001) (13, -6.83949141381126890000e-002) (14, -2.12585477711220520000e-001) (15, 4.29446136807081490000e-001) (16, -3.21535916478890790000e-003) (17, 5.95097883713111010000e-001) (18, 3.51881951776759020000e-001) (19, 6.05137241865505850000e-002) (20, -7.72137007168003790000e-002) (21, -1.20706735348852860000e-001) (22, -1.55421470069200430000e-001) (23, -3.80195427412053370000e-001) (24, 4.77318746300940730000e-001) (25, -5.90586082746520470000e-001) (26, 3.49657981688455350000e-001) (27, -5.97746779887990480000e-002) (28, 5.77438678620515010000e-001) (29, -8.62612373154270220000e-002) (0, 1.40007279964559620000e+000) (1, 6.24606549508637460000e-002) (2, -3.38239772586178270000e-001) (3, -4.45523377805387480000e-001) (4, -2.99958060255206940000e-001) (5, -1.81960728421439570000e-001) (6, -4.70308371009767690000e-001) (7, -7.41031411272317640000e-001) (8, 1.66475707667451340000e-001) (9, -2.56427821040975170000e-001) (10, 8.46326404588356170000e-001) (11, 7.65832633557590130000e-001) (12, -1.13883544397383220000e+000) (13, -1.20380671023115310000e-001) (14, 1.01228039236697540000e+000) (15, -1.38545727145837150000e+000) (16, -1.01225748005509520000e-002) (17, 8.49838166393588670000e-001) (18, 1.47744180785461650000e+000) (19, 2.71660485764753550000e-002) (20, -3.78464894015730470000e-001) (21, 1.97720068565000790000e-001) (22, -6.60464442192143180000e-001) (23, 6.71920624072058100000e-001) (24, -7.55213351452590940000e-001) (25, 7.00725217983848130000e-001) (26, 3.74933180887356550000e-001) (27, 1.92546107964839230000e-001) (28, -1.48164832101589460000e+000) (29, 9.63646176015171140000e-002) (0, 1.09981497976390700000e+000) (1, -3.36487625769836190000e-002) (2, 4.27386652261184330000e-001) (3, -1.25122570314461860000e-001) (4, 4.15900147048179490000e-002) (5, -1.69494855984591800000e-001) (6, -7.80310445706856450000e-002) (7, -1.41373575680517560000e-001) (8, -1.74488149498018720000e-001) (9, 4.05459065067057150000e-001) (10, 2.40280707190818450000e-001) (11, 4.99638125140552230000e-001) (12, -1.99267069707603860000e-001) (13, 7.06052103721321540000e-001) (14, 6.15410404020668600000e-001) (15, -9.17675947280998110000e-002) (16, 7.74328596224010180000e-001) (17, 6.36054597037004950000e-001) (18, 6.01543684276459990000e-001) (19, 5.42920865541517530000e-001) (20, 6.58106523592011160000e-001) (21, -2.58304849683486880000e-001) (22, 2.33809124613838930000e-001) (23, 6.38076945904163080000e-001) (24, -8.16585677470440530000e-002) (25, 2.87929991492650080000e-001) (26, 4.79037573560638810000e-001) (27, 6.72882633569679260000e-001) (28, -1.62540929148589610000e-001) (29, 1.06035951796063070000e+000) (0, 4.39894380168100560000e-001) (1, 2.44468489642102800000e-001) (2, -9.05682734977242690000e-002) (3, -4.48755084340855150000e-001) (4, 3.39764060549681890000e-001) (5, -4.24855485191954830000e-002) (6, 5.72135468041627400000e-001) (7, 4.31973074675726270000e-001) (8, 7.20007859470246040000e-001) (9, -1.10688235797790020000e-001) (10, 8.80178156189901470000e-001) (11, 7.24665036746515500000e-001) (12, -1.81003913533783390000e-001) (13, -3.01366385123625740000e-001) (14, 1.74193314784536550000e+000) (15, -5.52673975929298120000e-001) (16, -3.20960759116457720000e-001) (17, 4.32095938399497740000e-002) (18, 1.36233447318787260000e+000) (19, 1.08508039868172920000e-001) (20, -2.46623536377145100000e-001) (21, 3.18982391738154460000e-001) (22, -3.58717182690490090000e-002) (23, 6.02384712154939940000e-001) (24, -1.52676453089092610000e-001) (25, 6.48896820761485140000e-001) (26, 1.31639742259025970000e-001) (27, -4.99739192331328960000e-001) (28, -1.39951489707698840000e+000) (29, -8.28948262611309270000e-001) (0, 1.19813802656565200000e+000) (1, -1.10630756091046390000e-002) (2, 4.71200360559588640000e-001) (3, 4.62646432565233800000e-001) (4, -8.88463218858304290000e-002) (5, 4.60269861899958170000e-002) (6, 4.93914824545805040000e-001) (7, 4.21222233589915120000e-001) (8, 1.80954593149021130000e-001) (9, 4.70414380258204650000e-001) (10, -1.23709155291128790000e-001) (11, 6.49876552616436840000e-001) (12, -1.45525386981913970000e-001) (13, -6.30167300383377980000e-001) (14, 1.95084860690425720000e-002) (15, -1.37452231629332340000e-001) (16, -8.03958001104649180000e-002) (17, -1.00136504582271950000e+000) (18, 5.72946411656850560000e-001) (19, 2.74796015536561630000e-001) (20, -5.61768483839346010000e-002) (21, 7.35623329595166740000e-001) (22, 2.58513718074449450000e-001) (23, 7.14151447436197630000e-001) (24, -1.58574747529755760000e-001) (25, 5.26634902213647620000e-001) (26, 5.53403943860528850000e-002) (27, -4.93449740330565600000e-001) (28, -3.05590489490690680000e-001) (29, 5.48744726848342080000e-001) (0, 5.70527698268865180000e-001) (1, 1.83595437233388710000e+000) (2, 9.01312860601087060000e-001) (3, 3.13147224037304110000e-001) (4, -8.39092821119882470000e-003) (5, -4.23483128404493130000e-002) (6, 2.12510469735304820000e-001) (7, 1.35513201406828630000e-001) (8, 4.12549145097655830000e-001) (9, 5.39080803597072000000e-001) (10, 8.05878191452300970000e-002) (11, 6.74330138552153400000e-001) (12, 1.69567215574082520000e-001) (13, 2.35805828957042080000e-001) (14, 4.60992339232238550000e-002) (15, 3.28842781394261330000e-002) (16, 6.47299986108098800000e-001) (17, 2.44770698678247610000e-001) (18, 4.30723306281420750000e-001) (19, 1.37900616493564440000e-001) (20, -9.88211176175935040000e-002) (21, 6.45646708694038840000e-001) (22, 3.53729069015657930000e-001) (23, 1.08220927528306160000e-001) (24, -3.39147421136875900000e-001) (25, 1.34788338671459090000e-001) (26, -1.79021018957370080000e-001) (27, -1.36861281708955720000e-003) (28, 2.04203845982605960000e-001) (29, 1.05166981071216320000e-001) (0, 7.93631531310917270000e-002) (1, 4.74702338112740820000e-001) (2, 4.92998995036564910000e-001) (3, 9.42884888072409860000e-002) (4, 1.70383450144614780000e-001) (5, 2.31525492119481670000e-001) (6, 8.72035776948866390000e-002) (7, -4.44611970976012610000e-002) (8, 2.36750545335585900000e-001) (9, 7.42708761311439480000e-001) (10, 3.89202459919085860000e-001) (11, 4.29123415052320600000e-001) (12, -3.35874198204461380000e-003) (13, 3.99290891914692530000e-001) (14, 5.04638991691779390000e-001) (15, 1.38176164636400700000e-001) (16, 7.50559506167066240000e-001) (17, 8.57834079802644380000e-003) (18, 6.65383312315438240000e-001) (19, 4.88613804482191550000e-001) (20, 4.28739597704640710000e-001) (21, 5.39178995068427590000e-001) (22, -1.60891133870758370000e-001) (23, 3.51705977785583100000e-001) (24, 7.77587002496931550000e-002) (25, 4.34182737599629050000e-001) (26, 6.77419413028656910000e-002) (27, -4.52969990289116050000e-001) (28, -5.80083480501448870000e-001) (29, 4.87735303419626790000e-001) (0, 9.36433226030460860000e-001) (1, 4.91653929493392690000e-002) (2, -1.05122108654963170000e-001) (3, 7.20561591185572840000e-002) (4, 5.17458600560276590000e-002) (5, 8.78424743799401390000e-002) (6, 3.90614585862676830000e-001) (7, 6.41177646864981160000e-002) (8, 1.36973448842387050000e-002) (9, -1.24803825360777140000e-001) (10, -1.08458068178118430000e-001) (11, 1.32273191148809410000e-002) (12, 4.89128654421105760000e-001) (13, -1.58395340257381920000e-001) (14, 4.48151505624550080000e-001) (15, 2.77582885101620050000e-001) (16, -3.53321707855794590000e-001) (17, 1.02552366314796750000e-001) (18, -2.42838323778911740000e-001) (19, 2.65177974491369150000e-001) (20, -3.27730796244927180000e-001) (21, -2.93154955790404570000e-001) (22, 3.72484086363714990000e-001) (23, 6.02099139045589250000e-002) (24, 3.50740147608694430000e-001) (25, -6.42318240559782290000e-002) (26, 9.50040993572105060000e-002) (27, 5.85562579555921280000e-001) (28, 4.71875458413365640000e-001) (29, -3.69011364292335220000e-001) (0, -7.73393862736340810000e-001) (1, -1.53547534921061120000e+000) (2, 2.77359770442327720000e-002) (3, -1.17934097281096100000e-002) (4, 2.17173334383659740000e-001) (5, 1.15032415145340920000e-002) (6, 1.61839257300933240000e-001) (7, 4.18123788616418020000e-001) (8, 6.40768597420749650000e-001) (9, 3.68727091285962090000e-001) (10, 1.25447614627499430000e-001) (11, -9.99296323841725450000e-002) (12, 2.07953930284527440000e-001) (13, -3.71709611163373530000e-001) (14, 1.94310439686478010000e-001) (15, 4.39781087876819130000e-001) (16, 2.67994089270922230000e-002) (17, -1.32377220083293960000e+000) (18, -2.14337271231054810000e-001) (19, 5.54134451215519520000e-001) (20, 6.39607755716203990000e-001) (21, -1.69929461638525680000e-001) (22, -2.11336833269050700000e-001) (23, -7.36424261136191860000e-001) (24, 5.56984823674434800000e-001) (25, -1.17006682751896250000e+000) (26, 2.74683041207845980000e-001) (27, 3.99053786652276480000e-001) (28, 8.47442477010399870000e-001) (29, 4.48931548362878520000e-001) (0, -3.98236511143890530000e-001) (1, 1.85439127018066060000e+000) (2, 1.76401070723956800000e-001) (3, -1.18697331811229810000e-001) (4, -2.69250223512238480000e-001) (5, -1.69586419287544890000e-001) (6, -2.10499215607907600000e-002) (7, 2.54022142410517520000e-001) (8, 6.87405914642666980000e-001) (9, 1.55816584236007030000e-001) (10, 5.00132465417052140000e-001) (11, -1.07058260198302380000e-001) (12, 5.05802288342765970000e-001) (13, -8.68713839854897140000e-002) (14, 1.85522176118725730000e-001) (15, 5.89002595164765390000e-001) (16, -1.41389610770614020000e-001) (17, -1.82939265799314830000e-002) (18, 5.99363481308567540000e-001) (19, 4.98687420625764650000e-001) (20, -2.29292130358397930000e-001) (21, -1.84293520316627660000e-001) (22, 3.43781011854091990000e-001) (23, 1.89792398135243610000e-002) (24, 5.65913535352780110000e-001) (25, -2.05130335394856780000e-001) (26, 4.06473084436395400000e-001) (27, 1.92387574437433320000e-001) (28, -4.02965996548257600000e-001) (29, 4.35631385183008260000e-001) (0, 2.20870812226319550000e-001) (1, -5.30601857501736050000e-001) (2, 4.91435775752581790000e-001) (3, -1.72180229390014730000e-002) (4, 3.60997319816266980000e-001) (5, 2.14458672461525540000e-002) (6, 1.10510980543562550000e-001) (7, 8.43090912006837390000e-001) (8, -3.00375693931208940000e-002) (9, 1.97138361014790130000e-001) (10, 4.03598972821550490000e-001) (11, 3.03355572420155710000e-001) (12, -1.06047214351223400000e+000) (13, 2.30311569301377420000e-001) (14, 5.62169890801101360000e-001) (15, -3.63812624519003090000e-001) (16, -1.62328650162341850000e-001) (17, 1.78918582380005330000e+000) (18, 7.88155667180718280000e-001) (19, -6.57014992657814490000e-001) (20, -1.82848179861242990000e-001) (21, 4.00228023602009760000e-001) (22, -5.78803821131809060000e-001) (23, 4.37351853553819000000e-001) (24, -3.76268932101123330000e-001) (25, 1.48117879009762740000e+000) (26, -1.97073451930480510000e-001) (27, 1.40182654974046440000e-001) (28, 1.31373026105070370000e-001) (29, 1.93806976929578180000e-001) (0, -1.15790296574898230000e+000) (1, -9.86704897371773250000e-001) (2, 2.84127627225886750000e-001) (3, 7.70761998376103820000e-001) (4, 8.96890994288037980000e-001) (5, -4.05548019215374420000e-001) (6, -1.12375189301965110000e+000) (7, -5.52564455838227660000e-001) (8, 6.32302853909468280000e-001) (9, 2.37401722180946430000e-001) (10, -1.13497060304099100000e+000) (11, -3.26019112770485060000e-002) (12, 3.50620296094344970000e-001) (13, 4.44265001981632990000e-001) (14, -5.66916745190877650000e-001) (15, 6.40166852809363360000e-001) (16, 6.49112936005690890000e-002) (17, 5.57727462165783620000e-001) (18, -1.27530641596299720000e-002) (19, 6.11732054609011480000e-001) (20, 4.82322367958760920000e-002) (21, -2.58245655456686260000e-001) (22, 3.08308661264531880000e-001) (23, -4.93480049230645370000e-001) (24, 5.79607609985623440000e-001) (25, -2.18310710466622290000e+000) (26, 5.48191746044773280000e-001) (27, 1.27448647657939370000e-001) (28, 1.02617303293401860000e+000) (29, -1.69291013380395760000e-001) (0, 4.92676783831015430000e-001) (1, 1.61314669525937910000e+000) (2, 9.25937045866572440000e-001) (3, 1.50644625993925890000e-001) (4, 1.65971792416221730000e-001) (5, -2.65390062116387100000e-001) (6, -1.40285338234394770000e-002) (7, 4.02611261547568490000e-001) (8, 5.73685022877256760000e-001) (9, 1.05314661534834000000e+000) (10, 4.69044954749208710000e-001) (11, 7.17398938062864920000e-001) (12, 1.08873612517197750000e-001) (13, 8.55419907299760140000e-001) (14, -2.65438620964255020000e-001) (15, -1.45184044041743980000e-001) (16, -6.68923274888087030000e-002) (17, -1.78588088556082020000e-001) (18, 4.25987918398896940000e-001) (19, -2.69544530911172480000e-001) (20, -1.42493452139965120000e+000) (21, 4.15233654996908120000e-001) (22, 9.61476691380687980000e-002) (23, 9.14364991838043620000e-003) (24, 6.65127299137682480000e-002) (25, 1.60487881878839360000e-001) (26, -1.93856902064403310000e-001) (27, 4.34527978561226050000e-002) (28, 1.16426375191059260000e-001) (29, 3.40132804047081630000e-001) (0, -3.61318038762135970000e-001) (1, 5.08292894335570120000e-001) (2, -3.66239623036658520000e-001) (3, 4.83303829471961990000e-001) (4, -1.87191976510197230000e-001) (5, -4.64165006700929810000e-001) (6, 5.94826571530264750000e-001) (7, 1.54783585459149940000e-001) (8, -1.46948110652336540000e-001) (9, 8.92594484046200230000e-002) (10, 2.92978494279788170000e-001) (11, 3.80662923994725230000e-001) (12, -2.56570767883409550000e-001) (13, 6.58300745941021280000e-001) (14, 5.42131328876583440000e-001) (15, 9.07123494622286280000e-002) (16, 1.16541244004629770000e-001) (17, -9.04642982498496510000e-001) (18, 6.49573402050543810000e-001) (19, 3.17025562730103790000e-001) (20, 1.31448285458517390000e-001) (21, 1.68262376325497810000e-001) (22, 4.71917864713647830000e-001) (23, 8.84954106569893820000e-001) (24, -2.96877681827697410000e-001) (25, 7.75846272780474130000e-001) (26, -2.01538131048137860000e-001) (27, 2.96898486268461330000e-001) (28, 5.13292130747049270000e-001) (29, 2.50163442802796120000e-001) (0, -2.67568963592270670000e+000) (1, -4.02351068184019670000e+000) (2, 2.69153514202442380000e-001) (3, -6.43819165940832110000e-002) (4, 2.05377928738697920000e-001) (5, 3.20074379699068820000e-001) (6, 4.64626680403413090000e-001) (7, 7.25886378452690660000e-001) (8, -1.46277751584203360000e-001) (9, -3.09742009648836800000e-002) (10, 8.62635248880625480000e-002) (11, 3.04768152951358990000e-002) (12, -9.23266098403328910000e-002) (13, -4.38114546391836830000e-001) (14, 3.93534818256933700000e-001) (15, 3.10639369981792590000e-001) (16, 2.73124761495186830000e-001) (17, 5.69319372002394130000e-001) (18, 7.23103651386661880000e-001) (19, -4.67354275596075010000e-001) (20, 2.76152806372196020000e-001) (21, -2.00787416976486470000e-001) (22, 5.74015400944724030000e-001) (23, 1.72642679319276880000e-002) (24, 4.49384181714700900000e-001) (25, -9.07394674800887920000e-002) (26, 3.48041568015075460000e-001) (27, -2.32040493209954040000e-001) (28, 1.38123263852381860000e-001) (29, -2.93467639242428190000e-001) (0, 3.60867441540755400000e-001) (1, 4.04532728401199910000e-001) (2, -1.09295253763399210000e+000) (3, -7.94921222652427840000e-002) (4, -4.20891650961954020000e-001) (5, 1.29690801993694840000e-002) (6, -3.86681650677860380000e-002) (7, 2.34580616746748290000e-001) (8, 5.40697681659647270000e-001) (9, 4.70195173342875640000e-001) (10, 3.35456443063679930000e-002) (11, 3.91180330211695180000e-001) (12, 9.80746744494357170000e-001) (13, 1.82597578794643110000e-001) (14, -4.80635997246123380000e-001) (15, 8.10692651933878630000e-001) (16, -4.67509756355662720000e-001) (17, -8.57133099143997490000e-001) (18, -2.83795995206726210000e-001) (19, 5.98692181501555910000e-002) (20, 2.44447059797756220000e-001) (21, -3.97676942549034860000e-002) (22, -2.53531694388199450000e-001) (23, 8.99927532080157240000e-002) (24, -4.58722047932290030000e-002) (25, -6.66054754222018120000e-002) (26, -7.29274331887536320000e-001) (27, 2.99569433637549320000e-002) (28, 1.73662546975291130000e-001) (29, -6.63797258116491510000e-002) (0, 1.15437828011043940000e+000) (1, -4.48229114283085650000e+000) (2, 6.23710363139247170000e-002) (3, 4.75564332731315260000e-002) (4, -1.72578919461844370000e-001) (5, 4.18835533332469420000e-001) (6, 5.47987505588974080000e-002) (7, 1.12332467502254010000e+000) (8, 2.84114979884502290000e-001) (9, 2.14437265340787570000e-002) (10, 2.97051216964965780000e-001) (11, 1.55586903077637560000e-001) (12, 2.90156877173004260000e-001) (13, -7.43176164999694080000e-001) (14, 1.67984291287096720000e-001) (15, 6.41306771512679450000e-001) (16, -1.22704350240907490000e-001) (17, -7.36259342229226840000e-001) (18, -3.31278458790594420000e-001) (19, -2.32188991531052800000e-001) (20, -7.30105928832883830000e-001) (21, 1.22617912909271580000e-001) (22, 7.33602685736096330000e-001) (23, 1.07286948682999710000e-001) (24, 3.38600427772142170000e-001) (25, 2.82102494633740430000e-001) (26, 5.23689403661863010000e-001) (27, 1.66152757969720430000e-001) (28, 5.46545733255486830000e-001) (29, -5.59273405308876150000e-001) (0, 9.50737349813549740000e-001) (1, 8.37111736310525420000e+000) (2, 1.17189829391746000000e+000) (3, 2.30980632204454390000e-001) (4, -2.27549486706262770000e-002) (5, 1.03568685947426910000e-001) (6, -8.73829551225773770000e-002) (7, -9.25806261614495530000e-001) (8, 3.14119475327745700000e-002) (9, 8.63603173567933590000e-001) (10, 3.67160220943798470000e-001) (11, 6.95677022304073360000e-001) (12, -2.46707998118119410000e-001) (13, -2.29837086966248740000e-001) (14, -4.95893162689797380000e-001) (15, -9.31572711960335640000e-002) (16, 7.92378481405675910000e-001) (17, 3.84433182531708670000e-003) (18, 4.17074560593899630000e-001) (19, 5.02969260957243850000e-002) (20, 1.33953678910776140000e-001) (21, -1.07119833920084120000e-001) (22, -1.25241939584142180000e-001) (23, 6.24140893974943210000e-001) (24, 6.16442593531367910000e-002) (25, 3.10153762504333850000e-001) (26, 1.03676100656815820000e-001) (27, -9.73753986788622790000e-001) (28, 1.40803775267813850000e-001) (29, 1.07541701336125820000e+000) (0, -4.64266533793870840000e-001) (1, -1.16980812568883210000e-001) (2, 5.25939932754853870000e+000) (3, -8.41610082597679800000e-002) (4, 1.84039158215982600000e-001) (5, 4.18806883369529870000e-001) (6, 3.09203976965777890000e-001) (7, 1.27545752672831550000e-001) (8, 2.69072792586757430000e-001) (9, 2.67744784370590410000e-001) (10, 5.32390746624374130000e-001) (11, 3.33787053445536830000e-001) (12, 1.92157189354152140000e-002) (13, 3.51869250033594540000e-001) (14, 1.77045155738783850000e-001) (15, 5.11010068549120270000e-002) (16, 7.27594325954349590000e-001) (17, -9.61877759659900520000e-001) (18, 1.60659340376065660000e-001) (19, -5.78738939275086570000e-001) (20, -1.81252298217710650000e+000) (21, 3.18852747225303660000e-001) (22, 5.40555482985716100000e-001) (23, -4.75789559923632190000e-002) (24, 5.11076429461057470000e-001) (25, 6.10530501759202090000e-001) (26, 5.18770764517922810000e-001) (27, 2.21465970828077950000e-001) (28, -6.02698313212677310000e-001) (29, 4.16294219503737290000e-001) (0, -1.54475335592390130000e-001) (1, -5.09709079752114550000e-001) (2, -2.68609626034431780000e-001) (3, 6.42450177920697250000e-001) (4, -3.33166518667300460000e-001) (5, -4.79259865645812300000e-001) (6, -2.25583449478962780000e-001) (7, 4.93712338208765590000e-001) (8, -8.31160519191543460000e-002) (9, 3.52348041546230230000e-001) (10, 5.58945203882860400000e-001) (11, 5.16136383293234190000e-001) (12, 2.74046465451614540000e-001) (13, 2.97552206592556880000e-001) (14, 1.59873558286895800000e+000) (15, -1.50525968623367840000e-001) (16, 4.52101464019895450000e-002) (17, 1.04890368072252470000e+000) (18, 8.19777930883632820000e-001) (19, 1.07651536529047960000e-001) (20, -8.24976725846100420000e-003) (21, 1.89298953297516030000e-001) (22, -3.85282515126728010000e-001) (23, 6.70949417977938720000e-001) (24, -2.70064560076975490000e-001) (25, 1.55607085908944160000e+000) (26, 4.73694132631932230000e-002) (27, -5.19811601510354990000e-001) (28, -3.11619932130225990000e-001) (29, 3.12087742944563320000e-001) (30, -5.83417767435278620000e-001) (31, 6.23327671296782790000e-002) (32, 2.23479119099332320000e-001) (33, -9.35217216332884680000e-001) (34, 1.75285903703233080000e-001) (35, 4.79771814631831880000e-001) (36, 2.14652290481299660000e-001) (37, -8.91751670857649610000e-001) (38, 2.33077136100345330000e-001) (39, 6.60585544732802350000e-003) (40, 4.47190937657940160000e-001) (41, 2.24135991993636650000e-001) (42, 2.83353152611265410000e-003) (43, -3.88596923533616250000e-001) (44, 1.22311651687863980000e-001) (45, -7.62535400590653390000e-001) (46, 4.19643707697705040000e-001) (47, 5.84210428662900290000e-001) (48, 3.20067151510354110000e-002) (49, 7.03146230979642130000e-002) (0, 7.77472229673689670000e-001) (1, 9.45919648418274690000e-001) (2, 7.43300019987389450000e-002) (3, 4.80911381781145560000e-002) (4, 1.44428888344950730000e-002) (5, 3.88445366366409810000e-001) (6, 7.30856866712624060000e-001) (7, -7.64326501646583780000e-001) (8, -5.17526464484177270000e-001) (9, 4.73848029111961290000e-002) (10, 3.18581385413199250000e-001) (11, -1.66891403390462820000e-001) (12, 5.66863256256039060000e-001) (13, -5.25478109484961430000e-001) (14, 3.42376489650142030000e-002) (15, 8.40209982678280620000e-001) (16, 6.02252146969487880000e-003) (17, -8.56700765129370880000e-001) (18, 1.09334523253255110000e-001) (19, 7.40931583701111340000e-001) (20, -3.07826574008762340000e-001) (21, -3.08147950933882530000e-001) (22, -6.39725998777241900000e-002) (23, -2.73786706034843670000e-002) (24, 6.80533560830751120000e-001) (25, 1.98227351865286230000e-001) (26, 1.26802008550859790000e+000) (27, -1.09346809478468520000e-001) (28, 6.18762504356996650000e-001) (29, 1.13901107461591970000e-001) (30, 2.25400708493582390000e-002) (31, 3.63429076193726940000e-001) (32, 3.02660381663994000000e-001) (33, -2.61370558178762470000e+000) (34, 1.29896773857063890000e+000) (35, 1.35443980083542680000e+000) (36, 9.60113563977955000000e-001) (37, 3.79850251421900710000e-001) (38, -8.26344708097172810000e-002) (39, -3.87959165721718580000e-002) (40, -2.49099245278261330000e-001) (41, 5.60278813254402960000e-003) (42, 3.11115479391031010000e-001) (43, 1.17222310610760030000e+000) (44, 6.80430738623800880000e-001) (45, -1.82673678020916540000e+000) (46, 4.19364348760987050000e-001) (47, -1.40752148822940930000e-001) (48, 3.70608537129886400000e-001) (49, 1.29974730085442450000e+000) (0, -6.36527211245629610000e-001) (1, 6.22450105449555370000e-001) (2, 5.65593311067272950000e-001) (3, -2.95424323198790750000e-001) (4, -1.96468092115286600000e-002) (5, 3.66430000917843610000e-001) (6, 2.43039992562472630000e-001) (7, 5.71101309359657100000e-002) (8, 4.15907090050955110000e-001) (9, 6.29435906755700160000e-001) (10, 3.66915378301358170000e-001) (11, 2.44405396606720920000e-001) (12, 1.09870505957424700000e-001) (13, 7.18365607411516670000e-001) (14, 1.84154745480058200000e-001) (15, 8.65119207675812410000e-002) (16, 4.96245182068397630000e-001) (17, -2.81872405639166710000e-001) (18, 1.92916044600859870000e-001) (19, 9.02632149500628870000e-001) (20, 3.04525895538441280000e-001) (21, 4.60403618382220160000e-001) (22, 1.69535625547390350000e-001) (23, 2.08873876097965070000e-001) (24, -7.57461600006842810000e-003) (25, 2.86804534847458550000e-001) (26, 6.83926594716203320000e-001) (27, 5.46750984847435120000e-001) (28, 3.31133583156355220000e-001) (29, 7.52575673487236200000e-001) (30, 4.25742962566424850000e-001) (31, 4.42499771932912120000e-001) (32, 6.34308878867172690000e-001) (33, -4.50120266080200670000e-001) (34, 1.13100957886590490000e+000) (35, 9.68572812397811570000e-001) (36, 1.05389207143152140000e+000) (37, -1.97266396109306790000e+000) (38, 1.57418199787871550000e-001) (39, 3.89904490385628520000e-001) (40, -1.22223106026454650000e+000) (41, 5.57197626863374370000e-001) (42, -7.64454569097819530000e-002) (43, 8.83219625696010760000e-001) (44, -1.16303507070750790000e-001) (45, -1.52329838063590430000e-001) (46, -1.78799706830050170000e-001) (47, 1.75264714304864370000e-001) (48, 1.24817284493273800000e-001) (49, 1.45003391860632070000e-001) (0, -9.70084189145063780000e-001) (1, 5.54803885753928580000e-001) (2, 3.40903663408938850000e-001) (3, 4.29526382246707640000e-001) (4, 2.08910127780341630000e-001) (5, 2.57463635922737350000e-001) (6, 1.19008779715620250000e+000) (7, 1.09307850807765310000e-001) (8, 2.60646070739587070000e-001) (9, -2.16067568377773860000e-001) (10, 2.17554677642693510000e-001) (11, 6.00412356114558450000e-001) (12, 8.04428033298492940000e-002) (13, 1.48674221735948350000e-001) (14, -9.03058838403506260000e-002) (15, 1.54308719901974310000e-001) (16, -7.23750255781777540000e-001) (17, -4.72504233501863320000e-001) (18, 3.48806997193004450000e-001) (19, -5.95079114344532270000e-002) (20, -5.64288721502950060000e-001) (21, 5.10586569106704570000e-002) (22, 7.31617886236129440000e-001) (23, 4.92274279420158220000e-001) (24, 5.54343015104026950000e-001) (25, 1.53200056074428050000e-001) (26, 1.65502081515268460000e-001) (27, 1.59711231000511680000e-001) (28, -2.68579484013982130000e-002) (29, -1.37039728544893770000e+000) (30, 4.94184264113685490000e-001) (31, 6.20459107493547820000e-001) (32, 6.58455117475743480000e-001) (33, -4.10705266321605590000e-001) (34, 4.66946226734053840000e-001) (35, -2.85633587264360280000e-001) (36, -2.44908897933488800000e-001) (37, -5.22438300784639930000e-001) (38, -1.36783657897751430000e-001) (39, 4.33876091334469470000e-001) (40, -4.66644019921339410000e-001) (41, -5.23672780844161020000e-001) (42, 6.52168850446526500000e-001) (43, -1.23034321877651540000e-001) (44, -6.18634225282614290000e-002) (45, 4.21123830772391680000e-001) (46, 6.59649992831943950000e-002) (47, -5.91345300185921690000e-001) (48, 3.40352138933835200000e-001) (49, 6.94855622399807170000e-002) (0, -1.98643442419459640000e+000) (1, 1.16024292716628750000e+000) (2, 6.16285161738358790000e-001) (3, -4.19988162361478070000e-001) (4, 1.02078365337414300000e+000) (5, 1.74942770452256370000e-001) (6, 6.88078866313179270000e-001) (7, 8.21333113359254190000e-001) (8, 3.11378395900192450000e-001) (9, 6.03364685123433000000e-001) (10, 2.25451166601555090000e-001) (11, 5.02748591698315320000e-001) (12, -8.63520198023437210000e-002) (13, 8.89965432347932790000e-001) (14, 2.81770048582467510000e-001) (15, 3.64835790177075600000e-002) (16, 3.92495857765020660000e-001) (17, -2.41982847653177900000e-001) (18, 4.08111170173702910000e-001) (19, 5.78174322445160540000e-001) (20, 4.62110233170741400000e-001) (21, 1.50863676257943500000e-001) (22, -1.02797294941242920000e+000) (23, 7.56138309958114600000e-001) (24, -1.04746868768028540000e-001) (25, 3.74320705287923160000e-001) (26, 2.29996556586104880000e-001) (27, 2.26472579687673370000e-001) (28, 1.02162741551046530000e-001) (29, 2.37312661095605980000e-001) (30, -8.39494131827908660000e-002) (31, -2.53614236748923250000e-001) (32, 6.99562121444498470000e-001) (33, -9.82338471123398670000e-001) (34, -5.04786206260562230000e-002) (35, 5.44048132351450220000e-001) (36, -8.59258346134700590000e-002) (37, -1.16427171031422550000e+000) (38, 3.00631882595119970000e-001) (39, 1.69015037756656240000e-001) (40, -5.46621551355293670000e-001) (41, 7.55991337843308080000e-001) (42, -2.63689776203050950000e-001) (43, -4.22980758598779320000e-001) (44, 3.13067373955227820000e-002) (45, 5.26613389369941180000e-001) (46, 1.43089286195430380000e-001) (47, -3.89273869591315990000e-001) (48, -1.06890631852880340000e-002) (49, -3.07668244847788440000e-002) (0, -4.14054341861792020000e-001) (1, -2.34184319139540920000e+000) (2, 5.73767798159742320000e-003) (3, -2.27854036414394930000e-003) (4, -6.46538801591509890000e-001) (5, -5.41745046401793440000e-001) (6, 5.21866581772500520000e-002) (7, -5.53929894982108430000e-001) (8, -5.81472855435273160000e-001) (9, -1.21382555150208670000e-001) (10, 5.92386255229947700000e-001) (11, -4.44721933837277090000e-001) (12, 3.08401373332897970000e-001) (13, -2.34139953103718880000e-001) (14, -1.34361604291080820000e-001) (15, 4.56680746758236940000e-001) (16, -1.89718141678013290000e-001) (17, -4.19043538461975950000e-001) (18, -3.33290084707593750000e-001) (19, -2.53772371149537100000e-001) (20, -5.56538427294990810000e-001) (21, -2.79806298590507930000e-001) (22, -3.40734399413232520000e-001) (23, -4.76893303923894910000e-002) (24, 4.83036801052527720000e-001) (25, -1.99358151450670900000e-001) (26, 5.00729526496474730000e-001) (27, -5.03194647492868570000e-001) (28, 9.12213558408771500000e-001) (29, 8.56926659755128700000e-003) (30, 3.86256316434900330000e-001) (31, 3.31124536196035990000e-001) (32, -4.02638226023385450000e-001) (33, -3.98740011908459870000e+000) (34, -1.43951731495162880000e-001) (35, -8.95637678483883480000e-002) (36, 3.31235086591804400000e-001) (37, 3.62525206039136540000e+000) (38, -3.35291451327641210000e-001) (39, 1.64502248597554500000e-001) (40, -1.62405969904136000000e-001) (41, -5.04681466766239480000e-001) (42, 7.88212363021304710000e-001) (43, 1.00927873035208630000e+000) (44, -2.65491470544086510000e+000) (45, -8.00785650601593350000e-001) (46, 5.02120729720953230000e-001) (47, -6.87435892077120030000e-003) (48, 5.74055035975373330000e-001) (49, 5.82948320388715020000e-001) (0, 1.10823496261838870000e+000) (1, -3.13290757319854720000e+000) (2, -5.75865118778498890000e-001) (3, 1.91956950671258480000e-001) (4, -4.97428163572817380000e-001) (5, -6.87650378934741010000e-002) (6, 1.61681909122036480000e-001) (7, 4.86016969728770340000e-001) (8, -2.81315707635638290000e-001) (9, -3.19959906670603390000e-002) (10, -3.93599081451640120000e-002) (11, 1.58562679182242570000e-002) (12, 3.89761860086443700000e-001) (13, -4.05519082494898870000e-001) (14, 2.78625745454215590000e-001) (15, 4.49791582891754750000e-001) (16, 1.49018773480561500000e-001) (17, 6.09385588195232360000e-001) (18, 1.63001423640109330000e-001) (19, -5.24848178527590540000e-002) (20, -6.59214296646084000000e-002) (21, -1.66523394372954450000e-002) (22, 8.89286410517372560000e-001) (23, 4.23275653494349310000e-001) (24, 3.14498945954799440000e-001) (25, 9.74568087414919020000e-002) (26, 3.17987769408533130000e-001) (27, 5.66822581492652630000e-001) (28, -6.99648717854271010000e-003) (29, -1.38724462216242970000e+000) (30, 3.94397839985497490000e-001) (31, 6.35886168650381170000e-001) (32, 2.94404869889468570000e-001) (33, 8.88812557791948450000e-001) (34, 5.22174246836071390000e-001) (35, 2.01804752508728310000e-001) (36, 3.50492416280357380000e-001) (37, 3.39659634021231950000e-001) (38, -1.03056011872043360000e+000) (39, 6.99399852205903620000e-001) (40, 2.51569533468585630000e-001) (41, -1.41456562148120720000e-001) (42, 7.69917680389677670000e-001) (43, 3.75701419514993530000e-001) (44, -4.10054188417914920000e-002) (45, -6.16538526116978680000e-001) (46, 2.31309756832535990000e-001) (47, 8.64148516437523220000e-001) (48, -7.42616518656077920000e-002) (49, 1.88474370581113440000e-001) (0, 1.20769803435352200000e+000) (1, -1.00943955999872480000e+001) (2, 4.47949423288629690000e-001) (3, 1.46025134307792130000e-001) (4, 1.37705280762197790000e+000) (5, 1.90703983722292200000e+000) (6, 1.57785416052710040000e+000) (7, 2.88982928237120750000e+000) (8, 8.84628759186663620000e-001) (9, -2.17410954234064510000e-001) (10, 3.09876016410365160000e-001) (11, -3.12112972756056870000e-001) (12, 1.97320294397057060000e-001) (13, 7.84955317769201050000e-002) (14, 3.33188447441734200000e-001) (15, 3.23180741039374220000e-001) (16, 1.75013892232135400000e-001) (17, -2.77832953052314540000e-001) (18, 3.49067112260185550000e-001) (19, 1.36288319885395380000e+000) (20, 4.56249229240467190000e-002) (21, 1.46066460293081600000e-001) (22, 4.31066213803859730000e-001) (23, 2.11999410608486870000e-002) (24, 3.68864953064361010000e-001) (25, -1.45245769183122400000e-001) (26, 5.02041619656914070000e-001) (27, 1.51264229200565660000e+000) (28, 7.27011913195588220000e-001) (29, -1.27607746472264390000e-001) (30, -1.15518743625800570000e-001) (31, 2.10655503152791580000e-001) (32, -1.78268584724022570000e-001) (33, -3.50263696030431610000e-001) (34, 1.44551924881237470000e-001) (35, -1.94068398337073150000e-001) (36, -1.40011265916225350000e+000) (37, 1.49333237838182000000e+000) (38, 2.63864668694796410000e-001) (39, 2.97230921433531640000e-001) (40, -5.09204313710103660000e-001) (41, -2.25839990134138000000e-001) (42, 6.17546635536264320000e-001) (43, 1.15184222559294350000e+000) (44, 8.66550941999271630000e-001) (45, -2.90573782677041980000e-001) (46, 1.10915350051468100000e-001) (47, -4.07242295872148110000e-001) (48, 1.78668090661095790000e+000) (49, 7.01222237139418780000e-001) (0, -2.81014722865271340000e+000) (1, -2.43597885237850860000e+000) (2, 5.53086000786863100000e-001) (3, 1.76367825368990670000e-002) (4, -5.56653504335968970000e-002) (5, 7.77426110555903130000e-002) (6, 4.85983296132907970000e-001) (7, 7.26246199800211280000e-003) (8, 7.57223662191494480000e-002) (9, 5.52035694379824580000e-001) (10, -1.11905685675874640000e-001) (11, 4.18545997188677690000e-001) (12, -4.13006637539126530000e-001) (13, 9.01261254765441500000e-001) (14, 4.33607165666513810000e-001) (15, -1.36534382196562610000e-001) (16, 2.89239042991775720000e-001) (17, 5.47352265148864040000e-001) (18, 6.16305214974266940000e-001) (19, 3.57355730556794700000e-001) (20, 6.28994584894869920000e-001) (21, 5.68573422380721500000e-001) (22, 4.05872965994691300000e-001) (23, 2.45157289819674660000e-001) (24, -1.34778846218067020000e-002) (25, 3.00254606236359300000e-001) (26, 6.12481549179705880000e-001) (27, -3.00665450236235420000e-001) (28, -1.85060755689823160000e-001) (29, -6.97390577483551490000e-001) (30, -2.59962070260660700000e-001) (31, 2.31837110149764210000e-001) (32, 6.32963381386815180000e-001) (33, 9.43729076420998240000e-001) (34, 5.40265947509279030000e-001) (35, 4.08154884810389080000e-001) (36, -1.16557299308138000000e-001) (37, -5.86525926438361430000e-001) (38, -4.68270018152516340000e-001) (39, 2.22422622689097960000e-001) (40, 5.20173539694367900000e-002) (41, 5.93107664991969210000e-001) (42, -2.78112691486688930000e-001) (43, -8.80033693081735960000e-001) (44, 2.75266461782449620000e-001) (45, 1.06016057722654630000e+000) (46, -1.09301677431357320000e-001) (47, 1.08255687802814940000e+000) (48, -2.62468976050315110000e-001) (49, -1.78041269877983660000e-001) (0, 4.83223383225346140000e-001) (1, 2.56015160292115460000e-001) (2, 1.50225673958336880000e+000) (3, 6.59625990279739450000e-001) (4, 4.18898807817267630000e-001) (5, -6.96142124798900700000e-001) (6, 5.18226212995493320000e-001) (7, -1.05235257262868980000e-001) (8, -7.59631320033790190000e-001) (9, -1.18394165433161780000e-001) (10, 4.64159775204196100000e-001) (11, -8.50063890303732640000e-001) (12, 6.13413495087919980000e-002) (13, 5.36041156113273960000e-001) (14, -4.52529672718931310000e-002) (15, -3.15609928891758810000e-003) (16, -2.61925945047147500000e-001) (17, -6.04952740067518510000e-002) (18, -7.50294149696979360000e-002) (19, 2.74630204596694180000e-001) (20, -2.40647261390837610000e-001) (21, -4.09925827521785470000e-001) (22, -1.21750519001854750000e-001) (23, 3.41689212310340500000e-001) (24, 5.91767614376252920000e-001) (25, 3.20049418970986100000e-001) (26, -3.10019928650381360000e-001) (27, -4.34702569209145520000e-001) (28, 3.28823134051454690000e-001) (29, -1.28230563640095640000e-001) (30, -8.62674057538799890000e-001) (31, 1.39886710181694270000e-001) (32, -3.99738617305413270000e-001) (33, 3.50023801950521190000e-001) (34, 7.87280931057016960000e-002) (35, -1.92812855377861970000e-001) (36, -2.52885847226631820000e-001) (37, 1.23181387880302840000e+000) (38, -1.66015198931336680000e-001) (39, 1.16161624449049180000e-001) (40, 8.14667925180890930000e-001) (41, -3.21893202484389460000e-001) (42, 8.77221865223046900000e-001) (43, -6.18830726724726300000e-002) (44, 4.45156959126154630000e-002) (45, 5.83670751518405420000e-001) (46, 8.39774733906396120000e-001) (47, -4.03262340378612790000e-002) (48, -6.84894125490444260000e-001) (49, -9.46408064366773690000e-002) (0, -1.49081367132563680000e+000) (1, 4.39492551953842500000e-002) (2, -5.57812585278812830000e-001) (3, 1.44161681395909350000e-001) (4, 2.35312381686480970000e-001) (5, 3.10517069839204190000e-001) (6, -1.01160515190654040000e-001) (7, -8.78835052407384240000e-001) (8, 5.48933152236561580000e-001) (9, 1.64623854235847990000e-001) (10, -5.08933447782281490000e-002) (11, -9.94965283770797050000e-003) (12, 4.16708929477512540000e-001) (13, -2.10715165770657490000e-001) (14, -5.86675589931638050000e-003) (15, 5.28645144455786590000e-001) (16, -1.05113687852060410000e-001) (17, -1.26124560605544530000e-001) (18, 2.19633477834740460000e-001) (19, -1.70300285411863120000e-001) (20, -1.14397106157207190000e-001) (21, -6.28769396348402680000e-001) (22, -3.44820801240442900000e-001) (23, -6.11578613551062860000e-002) (24, 4.62568114256307010000e-001) (25, -1.91305542165868840000e-001) (26, 6.45113652069042860000e-002) (27, -2.37944491976820130000e-001) (28, 4.13866120696731790000e-001) (29, 2.29662793202057400000e-001) (30, 4.28343135421227980000e-001) (31, 3.56669544636387230000e-001) (32, 3.65403103306060630000e-001) (33, 1.16457067606872600000e+000) (34, 7.29784086758884840000e-001) (35, 7.79758683409863120000e-002) (36, -3.48308837631671480000e-002) (37, 4.44758430413738860000e-001) (38, 3.74524578684327370000e-001) (39, -1.86965358678986640000e-001) (40, -4.28619601983849070000e-001) (41, 2.89236546563287660000e-002) (42, 3.95522905150435530000e-001) (43, 4.29608100880377390000e-002) (44, 2.35100499152417820000e-001) (45, -8.00927644449550450000e-001) (46, 6.53925646212938250000e-001) (47, 3.90140174241242420000e-001) (48, 3.23089088903705800000e-001) (49, 1.41141276094528640000e+000) (50, 8.39316361919457690000e-002) (51, 2.78499076025847560000e-001) (52, 5.36703421631293700000e-001) (53, -1.12666230159075090000e+000) (54, 9.20501951602228140000e-001) (55, -1.42554831490567580000e-001) (56, 9.33007116361045800000e-002) (57, -2.34935682707364530000e-001) (58, 6.37596593356001270000e-001) (59, -6.93130730140394390000e-001) (0, 1.73881301344727430000e+000) (1, 2.64919658305768420000e+000) (2, -8.62423417177845760000e-001) (3, 1.53562666502184140000e-001) (4, 3.73198394485957600000e-001) (5, 8.30780997764871240000e-001) (6, 7.38345062215564400000e-001) (7, 5.46899006323729340000e-001) (8, 3.56229382440723440000e-001) (9, -9.93641576438540060000e-002) (10, 1.31209716300931010000e-001) (11, 6.76691724012960520000e-001) (12, 5.36596974059311950000e-001) (13, -6.38264197319138970000e-001) (14, 5.12351674236109500000e-001) (15, 5.77009853297964170000e-001) (16, -9.99597680297319990000e-001) (17, -8.37560118688862040000e-001) (18, -4.68798747700762910000e-001) (19, -1.24422772760149100000e-001) (20, -1.46786789173946360000e+000) (21, 2.22726927752965760000e-001) (22, 4.65322951694895290000e-001) (23, -1.93984917055782140000e-001) (24, 5.47440550456417490000e-001) (25, 1.45500595059865850000e-002) (26, 3.44509398301827140000e-001) (27, 1.42549437004043850000e-001) (28, 6.91747018128538230000e-001) (29, 8.74880119142279760000e-002) (30, 6.26008346648754600000e-001) (31, 1.09341543176337570000e-001) (32, 1.80776259947442540000e-001) (33, -2.59692515287598960000e-001) (34, -6.40097068346511530000e-002) (35, 4.25958071309519790000e-001) (36, 5.59960119606298770000e-001) (37, -8.14053361804159880000e-001) (38, -4.03099557584615310000e-002) (39, 1.34432423408092080000e-001) (40, -2.13462787076956040000e-001) (41, 2.50934940996638210000e-001) (42, 2.55661111694264920000e-001) (43, 2.68578405079413550000e-001) (44, 8.31622250149595230000e-001) (45, -1.52311611312951360000e-002) (46, 1.45935573289297650000e-001) (47, 7.86026196529021610000e-001) (48, 1.17977365863007950000e+000) (49, 6.65601976570011520000e-001) (50, 2.93003104772256990000e-001) (51, -1.01853460215904680000e-001) (52, 4.35553452469445490000e-001) (53, -3.59432188645599890000e-001) (54, 4.07077077125654160000e-001) (55, 4.53759292982865100000e-001) (56, 2.24019923803358500000e-001) (57, -6.31259077601893370000e-002) (58, 3.10827704411139550000e-001) (59, 4.25197215338956550000e-001) (0, 5.46528841432039500000e+000) (1, -2.57271327360660830000e-001) (2, -3.17061237292294070000e-001) (3, 6.62022274413761900000e-003) (4, -6.83719058002146270000e-002) (5, 3.81196217159723350000e-001) (6, 5.01522247709142220000e-001) (7, -3.94121134925877530000e-001) (8, -4.65790279767620890000e-001) (9, -3.07424232228470600000e-001) (10, 7.80575667252603740000e-002) (11, 2.52065164304811130000e-001) (12, 1.05245113912272130000e-001) (13, -5.72549876503001710000e-001) (14, 1.27292485492180860000e-001) (15, -2.15394533111766400000e-001) (16, -1.19266214437622930000e+000) (17, 1.07839987120099430000e-001) (18, 2.77650478887414230000e-001) (19, 2.41386790073784140000e-001) (20, -5.09869252125459300000e-001) (21, 1.42671653156066360000e-001) (22, 3.67726913791111500000e-001) (23, 8.06788577896107810000e-001) (24, 3.15818127121768710000e-001) (25, 3.89173821932249700000e-001) (26, 3.07405259847246760000e-001) (27, -1.09776902264723630000e-002) (28, 3.47004019730150940000e-001) (29, -1.63457205005427320000e-001) (30, 7.02704862393202230000e-002) (31, 2.05574413267726550000e-001) (32, -5.25593444664798000000e-002) (33, -5.25640747286675520000e-002) (34, 2.57189451933801270000e-001) (35, 6.42855886960078390000e-002) (36, -4.94317021415269950000e-001) (37, -1.25543179030401880000e-001) (38, -2.05694493978122060000e-001) (39, -7.81042932008286230000e-002) (40, -9.49323316034525600000e-002) (41, 1.12901042091148820000e+000) (42, -5.77015890354544810000e-001) (43, 2.08117087403988240000e-001) (44, 1.58325302967490590000e-001) (45, 5.41186803728724960000e-001) (46, 1.47318946468024180000e-001) (47, 1.25483221007127140000e-001) (48, 2.31445032277215500000e-001) (49, -5.77021666832389300000e-002) (50, 3.94007351431042930000e-001) (51, -4.01491917842502270000e-001) (52, -3.06305609276455840000e-001) (53, -2.75732890899759050000e-001) (54, 5.54023435002540810000e-001) (55, 3.06469131689598160000e-001) (56, -3.22716448358222690000e+000) (57, -2.71219989884736060000e-001) (58, 1.32553312908698710000e-001) (59, 2.61501089161778060000e-001) (0, 7.18752691534820460000e-001) (1, -1.90201189902221260000e+000) (2, 5.68720685757556630000e-001) (3, 6.94020322061974390000e-001) (4, 1.58309429788932920000e-001) (5, 2.78385592523429650000e-001) (6, 4.35037083871802900000e-001) (7, -2.90930864088420000000e-001) (8, -7.58397977346311480000e-002) (9, 5.32932547940345170000e-001) (10, 2.96818289802292940000e-002) (11, 4.89918778738329060000e-001) (12, 7.63822012052380590000e-002) (13, 4.88022660636472590000e-001) (14, 4.07083260699808300000e-002) (15, -1.75926959101933290000e-001) (16, 4.42601741718471660000e-001) (17, -1.10182854246958350000e+000) (18, 5.63050094775142120000e-001) (19, 1.15129026065467000000e-001) (20, 2.98098985745192220000e-001) (21, 1.34160899693230170000e-001) (22, 5.68067380911319360000e-001) (23, 5.64969706800300450000e-001) (24, -1.25315123428522370000e-003) (25, 7.09665634474465510000e-001) (26, 6.72226210723470890000e-001) (27, 2.94533831254950470000e-001) (28, -6.08214207534728130000e-002) (29, 1.73069493123132800000e-001) (30, 1.24752459307097220000e-001) (31, 2.74243756860325930000e-001) (32, 1.18660834838721560000e-001) (33, -6.04251259446301760000e-001) (34, 3.49517997205661960000e-001) (35, 5.49121461912952190000e-001) (36, -8.03869863884981160000e-002) (37, 2.69682519737991340000e-001) (38, -2.78930134724220710000e-002) (39, 9.19220400979778530000e-001) (40, 7.01033358115844000000e-002) (41, 2.75004530765399630000e-002) (42, 2.22381262743340860000e-001) (43, -3.76925991675538180000e-002) (44, 1.09851866026930670000e-001) (45, 8.68961973689464510000e-002) (46, 2.96951154532059890000e-001) (47, -1.71950744594703030000e+000) (48, 1.67631427569935460000e-001) (49, -1.15033018024846400000e-001) (50, 1.31043680452770710000e-001) (51, -3.16427059516302070000e-001) (52, 3.20564185064622160000e-002) (53, -5.62184942841040880000e-002) (54, -9.31304999636694690000e-002) (55, 3.81097881265461290000e-001) (56, 9.44241328118175740000e-001) (57, -1.33827959230917280000e-001) (58, 3.67527529222096350000e-002) (59, 3.48940428238480370000e-001) (0, -3.63717748410581890000e+000) (1, 6.79983567641562380000e+000) (2, 1.23197619440266400000e-001) (3, -4.86822363403384830000e-002) (4, 6.80282265006040390000e-001) (5, 3.77380499402937160000e-001) (6, 8.32201707583038350000e-001) (7, -1.35124193546328410000e+000) (8, -1.97619783668432520000e-001) (9, -1.87451602390061060000e-001) (10, 2.40712505350548080000e-001) (11, 2.60834934482528700000e-001) (12, 1.18570798657342800000e-001) (13, 1.25208665042297380000e-001) (14, 7.31599741186418570000e-001) (15, 5.00635041549713500000e-001) (16, 4.11948420084449600000e-001) (17, -2.26411317021740000000e-001) (18, 4.76893745095356590000e-001) (19, 1.50020065253592070000e-001) (20, -3.00109093807601870000e-001) (21, 1.86675508950502670000e-001) (22, -1.36657478184487790000e+000) (23, 3.27735272958327330000e-001) (24, 5.35871932987337040000e-001) (25, -9.21635326355673690000e-002) (26, -1.38732515649913430000e-001) (27, 4.19388511911396760000e-001) (28, -3.65091214898936760000e-001) (29, 9.02539886268320380000e-001) (30, 3.39811249798142810000e-001) (31, 3.07137241803643270000e-001) (32, -1.04187202427988230000e-001) (33, -8.55394316861189720000e-001) (34, 5.91842454274041470000e-001) (35, 5.98839465238645620000e-001) (36, 3.49898151966516860000e-001) (37, 5.91198848150215280000e-001) (38, 3.86409915729104380000e-001) (39, 6.92381801769902160000e-001) (40, 4.17981012674590310000e-001) (41, 3.25668392475417840000e-001) (42, -7.89585546080069090000e-002) (43, 7.06518083918398540000e-001) (44, -1.12135724256324430000e-001) (45, -3.69087242214840180000e-001) (46, 2.00301051981419360000e-002) (47, 5.10439244624494750000e-001) (48, 1.22890037894946350000e+000) (49, 2.23468105764210280000e-001) (50, 1.15293538550434560000e-001) (51, 5.19564718363663690000e-001) (52, -2.89448971137262530000e-001) (53, 1.40689238093571640000e-001) (54, 4.21874544993460670000e-001) (55, 4.44406235239363900000e-001) (56, 5.84047951741921810000e-001) (57, -3.10060235072750550000e-001) (58, 8.74113105228057410000e-001) (59, 3.54204965122151050000e-001) (0, -3.46088617387893030000e+000) (1, -3.38281970240214940000e+000) (2, 1.13208954968217150000e-001) (3, 5.85474315575897350000e-001) (4, 1.18225490902142920000e+000) (5, 2.15803912549061700000e+000) (6, 8.05916115661310160000e-001) (7, 8.42910010494666850000e-001) (8, 6.02441236160017770000e-001) (9, 7.39908469785515610000e-001) (10, 4.56994790450624360000e-001) (11, 6.88342174211529210000e-001) (12, 7.28966258345416730000e-001) (13, 1.03199064153931540000e+000) (14, 1.98008129484007170000e+000) (15, 1.55948266935305780000e-001) (16, 1.45223963129294620000e+000) (17, 4.64697138303624300000e-001) (18, 4.38884201449305070000e-001) (19, 4.63476271392091470000e-001) (20, 1.79636842076991090000e+000) (21, 7.43375024810866150000e-001) (22, -2.05039869354208950000e-001) (23, -2.14760444618842920000e-001) (24, 1.52407163589694560000e-001) (25, 2.04166021124011850000e+000) (26, -1.20337068715131830000e-001) (27, -3.28431989071271160000e+000) (28, -5.60927365584064310000e-001) (29, 4.10013264626556630000e-001) (30, 5.77002634816455860000e-002) (31, 3.62868070395855720000e-001) (32, 5.38746766893372970000e-001) (33, -5.58287522109749410000e-001) (34, -8.18940936803778390000e-002) (35, 3.56267441777969210000e-001) (36, -1.40522335942219410000e-001) (37, 3.24250763519039420000e-001) (38, 6.00958693803070760000e-001) (39, 1.64725951967211290000e-001) (40, -2.71142964518648780000e-001) (41, 8.98477861207113150000e-002) (42, 1.64237991858179990000e-002) (43, -5.17601621135729940000e-001) (44, 7.93010717367912510000e-001) (45, -3.43432968385046110000e-001) (46, 1.91770709222569640000e-001) (47, 3.08858826935225870000e-001) (48, 5.52702525927408760000e-001) (49, 5.54265179865383040000e-001) (50, 6.50804367526518380000e-001) (51, 9.58977600060624550000e-002) (52, -3.72035967322229040000e-001) (53, 6.53800466041855270000e-001) (54, -1.40524259784225360000e-001) (55, 3.10120097924551420000e-001) (56, 4.03720148737533040000e-001) (57, 1.16762582674315780000e+000) (58, -1.41169486045146560000e-001) (59, 4.47832695558632480000e-001) (0, 1.62004605756911450000e+000) (1, 9.54934574928603670000e-002) (2, -5.01714627158363420000e-002) (3, 1.04547821862072010000e+000) (4, 2.38146757344851880000e-001) (5, -2.22149981488167560000e-001) (6, 1.23040868720524670000e+000) (7, 2.55310271790788300000e-001) (8, -4.24593761130258870000e-001) (9, 6.60131198586920990000e-002) (10, 7.39544190687278640000e-002) (11, -1.39509287551344650000e-001) (12, 5.07010365028877530000e-001) (13, -2.89354512665731590000e-001) (14, -1.03259660826796810000e+000) (15, 3.61381505160496550000e-001) (16, -1.95841931085208700000e-001) (17, 4.92141363300945660000e-001) (18, -1.04053339308198230000e-002) (19, -4.23603242433874090000e-001) (20, -1.24268946708572800000e+000) (21, -2.45866834883842230000e-001) (22, 3.96934128053981870000e-001) (23, -1.31727544115728120000e-001) (24, 3.56699211085346410000e-001) (25, -7.74101006859747450000e-002) (26, 2.11621836726302610000e-001) (27, -3.71817297329324340000e-001) (28, 1.04536172361348360000e+000) (29, -8.44356924161355910000e-002) (30, 5.05593360157688850000e-001) (31, 9.78249194520037560000e-001) (32, -5.53464772271237690000e-001) (33, -1.48592114878367430000e+000) (34, 2.11723777980929890000e-001) (35, -5.25725196517570150000e-002) (36, 1.78306877152730890000e-001) (37, -8.37542494197039300000e-001) (38, 2.82135714165896890000e-001) (39, 7.39425191977920560000e-001) (40, 2.87197902384285530000e-002) (41, -2.14103790671354270000e-001) (42, 8.09887821865679650000e-001) (43, 5.79296002597788460000e-001) (44, -9.56327223226500910000e-002) (45, 6.92554423714540350000e-002) (46, 1.12096616426617810000e+000) (47, 7.51734882074081680000e-001) (48, 2.03548592640189120000e-001) (49, 2.70181020809713230000e-001) (50, -6.89146910760660700000e-001) (51, 7.61604416312616630000e-002) (52, 1.66614170597047170000e-001) (53, -1.99408736101560350000e-001) (54, 2.46665497766238250000e-001) (55, 5.70816195924226940000e-001) (56, -1.48074894494290570000e-001) (57, -3.62195601510816870000e-002) (58, 3.93694456339596040000e-001) (59, -4.99138432058819910000e-002) (0, 4.30225863604448920000e-001) (1, 1.04159976674469400000e-001) (2, 4.82055790632010870000e-001) (3, 3.97822250654432110000e-001) (4, 2.30585850486137280000e-001) (5, 3.71357383237694020000e-002) (6, 4.05559037709571750000e-001) (7, 2.35385691331028410000e-001) (8, -4.38147244968505180000e-002) (9, -4.40142212892877870000e-002) (10, 6.90942248327758520000e-001) (11, 2.69143965402206420000e-001) (12, 5.52910499121551770000e-001) (13, -6.28049241782260180000e-001) (14, -1.18734745115468090000e+000) (15, 3.42675885014892880000e-001) (16, -3.40026262364768070000e-001) (17, 3.05010695316095200000e-001) (18, 2.99573191594315340000e-002) (19, -5.28387190201995200000e-001) (20, -2.34070805376166120000e-001) (21, 9.35223707620646690000e-002) (22, 6.61966537063436220000e-001) (23, -1.01678429526782420000e-001) (24, 8.08124480089817690000e-002) (25, -1.94908521277456390000e-001) (26, 3.05798528564056540000e-001) (27, 8.91772046530672910000e-002) (28, 5.54463070188557890000e-001) (29, -6.55295210720543970000e-002) (30, 4.91047842450501090000e-001) (31, 5.91229311810879010000e-001) (32, -3.51852847377346180000e-004) (33, 1.77045707494077970000e-001) (34, -2.98153520833915430000e-002) (35, 4.32044282493131980000e-002) (36, 6.15885002468229300000e-001) (37, 5.51192099507486490000e-001) (38, -1.50674205552226630000e-001) (39, 5.48387442269381410000e-001) (40, 1.46833932730031790000e-002) (41, -1.75323656415433100000e-001) (42, 5.84976180137417370000e-001) (43, 9.05417136048635300000e-002) (44, 1.31411038156233620000e-001) (45, -2.59161476843156770000e-001) (46, 3.91875163312931650000e-001) (47, 1.24971528602728740000e-001) (48, 4.65969491957657130000e-001) (49, 8.90410874276384770000e-001) (50, -2.42220701621808840000e-001) (51, 2.49059048594027420000e-001) (52, 6.23303151516450880000e-001) (53, -2.89698430983675930000e-001) (54, 3.60005839448770240000e-001) (55, 3.43551497528239770000e-001) (56, -3.34318462567811560000e-001) (57, -1.34647090483282720000e-001) (58, 5.43896070182421480000e-001) (59, 2.78763592517711490000e-001) (0, -1.20659640824350680000e+000) (1, -1.02830013306170320000e+000) (2, 2.90257380004125090000e-002) (3, 9.89717731598104140000e-002) (4, 2.51872168974737800000e-001) (5, 9.11908944659226890000e-001) (6, 3.38512788716602950000e-001) (7, 4.00852208084520710000e-001) (8, -3.93466638605001420000e-001) (9, -6.88878673790381260000e-002) (10, 4.20828965114439370000e-002) (11, 1.54821529370649840000e-002) (12, 5.57809857301486130000e-001) (13, -2.61621201166558960000e-001) (14, 4.74096990517044740000e-002) (15, 2.39179501950800510000e-001) (16, -5.57317463755993110000e-001) (17, 1.10723642194950280000e+000) (18, 1.82048287733300310000e-001) (19, -4.18206566007830740000e-001) (20, -9.98102279910351720000e-001) (21, 3.90892659684230150000e-001) (22, 6.29588374417054840000e-001) (23, -3.71510870939413040000e-001) (24, 2.77673197961661840000e-001) (25, -1.44180972823305280000e-001) (26, -5.19613609265320080000e-001) (27, -1.12618720206707530000e+000) (28, 4.80025968494321780000e-001) (29, -1.15093576439975820000e+000) (30, 4.93459805211480200000e-001) (31, 9.30790858687428060000e-001) (32, -1.43095501845499850000e-001) (33, 2.53289963062954260000e-001) (34, 2.78874922941311810000e-002) (35, -5.17410227198251140000e-002) (36, -5.77834191766940730000e-001) (37, 4.45477811279378020000e-001) (38, -7.73719620256501430000e-001) (39, 4.41221052335380670000e-001) (40, 2.60924143898617800000e-002) (41, -3.04207552213014880000e-001) (42, 5.56297322862790430000e-001) (43, 6.17443646776064320000e-002) (44, -7.94936155320737600000e-003) (45, 6.49230353077769550000e-001) (46, 6.78867553735439830000e-001) (47, -2.52887355781194870000e-001) (48, 3.57148048724501080000e-002) (49, 3.31162577159721750000e-001) (50, -4.45444698876588330000e-001) (51, 4.69316163406567070000e-001) (52, 1.85870714076839940000e-001) (53, -5.49294824895762310000e-001) (54, 6.57526539573235260000e-001) (55, -7.11223033193040390000e-002) (56, -4.14799711142301710000e-002) (57, -1.08025076666271660000e-001) (58, 4.35823685070930670000e-001) (59, 1.07537503688444630000e-001) (0, 1.38241594185478280000e+000) (1, 8.12819671568307920000e-001) (2, 6.68362076745129260000e-001) (3, 2.13415136622244410000e-002) (4, 7.49376874173729860000e-002) (5, 1.20970371467731350000e-001) (6, 2.22568484341239630000e-001) (7, -9.92510184709035070000e-001) (8, -7.40487229847737320000e-002) (9, 4.41794760967656850000e-001) (10, 6.50256266841722000000e-001) (11, 6.15434229481162550000e-001) (12, -3.10192218441385950000e-001) (13, -3.59809578981164290000e-002) (14, 6.24656902829962450000e-001) (15, -2.45992194663313100000e-001) (16, 8.17274297141004190000e-001) (17, -1.96636209306030120000e-001) (18, 2.42112689655015340000e-001) (19, 3.54445512604466110000e-001) (20, 7.24462817597484650000e-001) (21, -1.38236583302892960000e-001) (22, 4.04424216069630000000e-002) (23, 2.22565482680251340000e-002) (24, -1.40445227353193200000e-001) (25, 6.75713626184731630000e-001) (26, 5.27368992485647610000e-001) (27, 4.46822255724290910000e-001) (28, -7.94710359418212140000e-002) (29, 5.44917558730794730000e-001) (30, 6.54829913006836790000e-001) (31, 2.68287886108100730000e-001) (32, -1.81996735575970070000e-001) (33, 1.78701948403322350000e-001) (34, 5.12085522651964280000e-001) (35, 5.29680756283642420000e-001) (36, 1.27122751214526930000e-001) (37, -1.43968170914691380000e-001) (38, 2.23763815090006650000e-001) (39, 7.25927632512676000000e-001) (40, 6.91933199355311170000e-001) (41, 1.22063204560239140000e-001) (42, 1.85856770462815070000e-001) (43, 6.35184650614972310000e-001) (44, -4.36422356865528990000e-001) (45, -2.90148335166341180000e-002) (46, 1.79297793131199370000e-001) (47, -5.96559125077523620000e-001) (48, 1.51129542877710830000e+000) (49, 3.87111806599092560000e-001) (50, 2.83833960110646990000e-001) (51, 1.57202087184601340000e+000) (52, 4.20287233339241340000e-001) (53, 2.49650609868250300000e-001) (54, 5.65815724621228530000e-001) (55, 4.23181487522472200000e-001) (56, -2.11601645914119260000e-001) (57, -2.18612630132155730000e-001) (58, -1.04626813490756390000e-001) (59, 2.22005611446831790000e-001) (0, 1.11584545797785030000e-001) (1, 5.38999245821645820000e-002) (2, 5.17082973774111280000e-001) (3, -1.01147814511374150000e-001) (4, -1.03003368571186510000e-001) (5, 1.85599787971758270000e-001) (6, 5.74827612530094510000e-001) (7, 1.35596305339973080000e-001) (8, 1.65846341135847290000e-001) (9, 3.67036507118112250000e-001) (10, 7.46401968077984760000e-001) (11, 5.45356549467752800000e-001) (12, -1.91386424773913410000e-001) (13, -1.82958344021924190000e-002) (14, 3.95550935330156340000e-001) (15, -1.07482004771418130000e-001) (16, 1.48309924102367980000e-001) (17, 2.36439254172118580000e-001) (18, 3.69707352258346000000e-001) (19, 2.32286661238325420000e-001) (20, 3.31102167886654810000e-001) (21, 7.12090569923486180000e-001) (22, 7.65600429519680270000e-002) (23, 7.15094102781738460000e-001) (24, -1.56414016782373630000e-001) (25, 6.92468201326113530000e-001) (26, 2.64845672955253800000e-001) (27, -2.20913769232388670000e-001) (28, 7.51445659432440210000e-002) (29, 1.74681904179139400000e-001) (30, 2.58544944734757090000e-001) (31, 1.99179783518656640000e-001) (32, 9.22538913237746060000e-001) (33, -1.56383351207693870000e-001) (34, 4.64907812358662520000e-001) (35, 1.70861445795929160000e-001) (36, 2.13648631068611230000e-001) (37, -8.55611897648854370000e-001) (38, 1.47370924843509860000e-001) (39, 3.68977405779941150000e-001) (40, 6.31702694909138380000e-002) (41, 5.94211762654634710000e-001) (42, -8.51749062499141950000e-002) (43, 5.73759199342024560000e-002) (44, 1.99507382776220790000e-001) (45, 5.71017589456705330000e-001) (46, -7.28718795696646350000e-002) (47, -5.06245129470584980000e-001) (48, 6.39753821560464730000e-003) (49, 2.90021443046270500000e-002) (50, 7.38708754168321130000e-002) (51, -1.43640065847511160000e-001) (52, -8.48062812249524840000e-002) (53, 2.32082193117646330000e-001) (54, -5.72694183749768650000e-002) (55, 4.34815715088974040000e-001) (56, 1.97308771284857020000e-002) (57, 2.58606782475416520000e-001) (58, -4.20743074002829450000e-001) (59, 7.90496674134806620000e-001) (60, 1.85094933747722930000e-001) (61, -2.30810210795639930000e-001) (62, 2.67752972286210480000e-001) (63, 6.51027970417216940000e-001) (64, -5.53609604273650470000e-001) (65, -2.15956227360043050000e-001) (66, 1.88548026449983810000e-001) (67, 2.12474873786387160000e-001) (68, 3.53937530694194310000e-001) (69, 4.94741922632242930000e-001) (0, 4.91500516264834320000e-001) (1, -1.57115966695580210000e+000) (2, -1.08852173927483250000e+000) (3, 1.10320000152437080000e-001) (4, 2.51215281009817220000e-001) (5, 5.37487795014140460000e-002) (6, 8.88865364327363350000e-002) (7, 3.52063206908536540000e-001) (8, 4.77181290345468740000e-001) (9, 3.14765233036282180000e-001) (10, 4.84408476615285970000e-001) (11, 5.38774873123249790000e-001) (12, -2.44062900801220780000e-001) (13, 5.52268383746286280000e-001) (14, 2.18136014163420630000e-001) (15, -1.85723403515488880000e-001) (16, 7.75007190699701360000e-002) (17, 5.68101397009889150000e-002) (18, 7.86180651128838390000e-001) (19, 5.78855881009008800000e-002) (20, -6.69286235347662790000e-002) (21, 4.36383594231287310000e-001) (22, -2.11377018851572420000e-001) (23, 5.71292241819456370000e-001) (24, 1.02933699075394720000e-001) (25, 3.91424744743844640000e-001) (26, 1.17096238415017260000e-001) (27, -4.55871657545795620000e-001) (28, -1.34165517921309070000e-001) (29, -4.21384129956512590000e-001) (30, 1.02876172359171130000e-001) (31, 7.21998156730798150000e-002) (32, 3.35775152509095010000e-001) (33, -2.02859503766631060000e-001) (34, 1.43067474914518320000e-001) (35, 5.43214876276272520000e-001) (36, 7.51758209489424840000e-002) (37, -4.46242149377341360000e-001) (38, 2.49123941524172670000e-001) (39, 6.40973209134555190000e-002) (40, 5.56151968979846090000e-002) (41, 2.78059187985213120000e-001) (42, 6.10411577156500170000e-002) (43, -1.06758965396297230000e-001) (44, 5.20358561739262400000e-002) (45, 1.19049219895589460000e-001) (46, 1.05872813850948990000e-001) (47, 2.11215148650210130000e-001) (48, -6.68134078335569590000e-001) (49, 3.24483982722806320000e-001) (50, 3.17540475835979110000e-001) (51, 3.55947245930397890000e-001) (52, 2.86099040654478890000e-001) (53, 6.95863568747288390000e-001) (54, 2.24701024307270500000e-002) (55, -1.32819308237990570000e-001) (56, 3.70022649541475570000e-001) (57, 1.86482591578462560000e-001) (58, 2.73535240163395250000e-001) (59, 3.59720488646569640000e-001) (60, 2.47737673211067670000e-003) (61, -1.36145719413605680000e-003) (62, 3.19404151115128710000e-001) (63, 1.62630511811877210000e-001) (64, 6.93753966801572140000e-002) (65, -1.31505741744608880000e-001) (66, 5.86372018745702880000e-001) (67, 5.64527826319949910000e-001) (68, 5.68105371385370650000e-001) (69, 8.83515511560850200000e-002) (0, -1.58868388788213610000e+000) (1, -7.55228443170259830000e-001) (2, -2.13233445059622630000e+000) (3, 1.40051099238142880000e-001) (4, 1.28133236680406800000e-001) (5, 8.93576777609777220000e-002) (6, 4.83900785255949930000e-001) (7, 3.55257387133535390000e-001) (8, 5.95602677788058310000e-001) (9, 2.45559566033558630000e-001) (10, 7.35629034854523580000e-001) (11, 7.32833497885833410000e-001) (12, 2.97851299527604920000e-001) (13, 7.96157479668991420000e-001) (14, 1.15442374944574900000e+000) (15, -1.67843879556984380000e-001) (16, -1.08467956828278260000e+000) (17, -9.73248072404242490000e-002) (18, 1.42166750554297700000e-001) (19, 4.80055543197553720000e-001) (20, -9.53872315371352700000e-002) (21, 3.23017598102120330000e-001) (22, 1.19501553788494450000e-002) (23, 7.59777564025296950000e-001) (24, -8.36373907882516730000e-004) (25, 4.56150268709676730000e-001) (26, -2.04420754490272470000e-001) (27, 1.68772870706515120000e-001) (28, 6.57868720114633150000e-001) (29, -2.06033352590281970000e-001) (30, 1.02953281349209160000e-001) (31, 5.10871823565012610000e-002) (32, 2.38874610935228630000e-001) (33, -5.79351874423560400000e-001) (34, 1.95187909340807260000e-001) (35, 9.09412658820979020000e-002) (36, 5.06781846742076010000e-002) (37, -6.20067459683211200000e-001) (38, 3.33711807387499340000e-001) (39, 6.47949326884734580000e-002) (40, 3.88399036768630910000e-001) (41, 1.06159070085855370000e-001) (42, -1.00099921001476750000e-002) (43, -8.60900311148706520000e-002) (44, 1.05099860906869680000e-001) (45, -5.64988519802912730000e-003) (46, 2.03147976080754970000e-001) (47, 4.86503288704297540000e-001) (48, -1.46205583789009500000e-001) (49, 2.42487508981648130000e-002) (50, 1.87707395112375050000e-001) (51, -7.69046329131821140000e-002) (52, 1.16784939369988850000e-001) (53, 5.37266157159943970000e-001) (54, 5.37480515990654900000e-002) (55, -1.73853789283192890000e-001) (56, 6.84951802363617860000e-001) (57, -9.36091410090935660000e-002) (58, -2.16806423770569660000e-001) (59, -1.12635817294281470000e-001) (60, 1.62490741741646520000e-001) (61, -4.42793741623987710000e-002) (62, 3.70539675896335070000e-001) (63, 2.96309698810174500000e-002) (64, -2.78671454490317380000e-002) (65, 1.15690360972506480000e-001) (66, 4.82394751455158310000e-001) (67, 5.74471400965251070000e-001) (68, 5.69923729531293440000e-001) (69, -4.12290124137251950000e-002) (0, 6.37298696269270270000e-001) (1, 2.33601679634104610000e-001) (2, 2.68114477187924420000e-001) (3, 1.28113070232284800000e-001) (4, 1.23606388827936770000e-001) (5, -1.84659308891630290000e-001) (6, 5.42302112051993630000e-001) (7, -2.40260094123111860000e-001) (8, 1.03060209609933590000e-001) (9, 2.74250618506172440000e-001) (10, 5.64743316737069900000e-001) (11, 5.46304772392864120000e-001) (12, -1.57527147341476990000e-001) (13, 4.94287634612528350000e-002) (14, 5.41528424533617940000e-001) (15, -2.06323734654467130000e-001) (16, -2.02536527807498850000e-002) (17, -3.41033483662731900000e-001) (18, 5.14444052165537010000e-001) (19, 1.76925316544920080000e-001) (20, 1.54212414952382660000e-001) (21, 2.33656375637233040000e-001) (22, -2.06219727560414150000e-001) (23, 6.35811428934547340000e-001) (24, -8.72548506868608290000e-004) (25, 2.18474513123945640000e-001) (26, -5.50595159432808660000e-002) (27, 2.10997313813691970000e-001) (28, -2.24005284490405600000e-001) (29, 4.17794269905302830000e-001) (30, -5.54970961455269960000e-002) (31, 1.21465692995687920000e-001) (32, 3.17835877705282820000e-001) (33, -6.51473444004449400000e-001) (34, 5.28884264809134970000e-001) (35, 5.71846098860595560000e-001) (36, 2.54361026568773570000e-002) (37, -3.26820393808517570000e-001) (38, 1.75189360485407950000e-001) (39, 5.58289096056987840000e-001) (40, 4.87345408906163570000e-001) (41, 3.47740746738585680000e-001) (42, 1.65667662631547920000e-001) (43, -2.19359500776743490000e-002) (44, -9.07092689769686130000e-002) (45, 4.69481309423631980000e-001) (46, -7.95918445040883460000e-003) (47, -3.00264185343800320000e-002) (48, 4.53364991741548870000e-001) (49, -3.53613638650786600000e-001) (50, 1.66194897590053510000e-001) (51, -2.44073413871296360000e-001) (52, 3.21970521861859800000e-002) (53, 3.40592163310006910000e-001) (54, 2.29002626465330730000e-001) (55, 2.99847424241857790000e-001) (56, 4.49567470174954410000e-001) (57, -4.17053825163876120000e-002) (58, 3.72178348333265240000e-001) (59, 2.28947039272968810000e-001) (60, 1.34943217386947090000e-001) (61, 5.33349895943922900000e-001) (62, 3.23192122125534220000e-001) (63, 2.20288541208002200000e-001) (64, 4.37017816639915170000e-002) (65, -1.55052638511807320000e-002) (66, 6.04660844191843290000e-001) (67, 5.10166110221039080000e-001) (68, 4.60142425593130840000e-001) (69, 8.50173506288674220000e-002) (0, -1.74374060951444480000e-001) (1, 5.49128712326089510000e-001) (2, 1.16599886249407510000e-001) (3, 2.12298353896924560000e-001) (4, -8.47826185841197840000e-002) (5, -2.90213066933910640000e-001) (6, 1.62779458690374190000e-001) (7, -2.14970434700085980000e-001) (8, -7.24395638607699950000e-001) (9, 2.61037399781645140000e-001) (10, 5.19740173148408590000e-001) (11, 5.31584564371365590000e-001) (12, -1.49083387043383970000e-001) (13, 1.41507745146961320000e-001) (14, 3.99237946748643920000e-002) (15, -1.75096697788254430000e-001) (16, 2.54957591437930790000e-001) (17, 2.05608495293476990000e-001) (18, 6.52055182571185440000e-001) (19, 4.79132917065215670000e-002) (20, -1.27386027799315600000e-002) (21, 1.05293911480859740000e-001) (22, -6.08298718948862070000e-002) (23, 6.01935322056736610000e-001) (24, -2.28356640725575900000e-001) (25, 6.65222463974474490000e-001) (26, -2.51773648692062420000e-001) (27, -3.29028109799028360000e-001) (28, -3.60057387503994020000e-001) (29, 1.52306843384935870000e+000) (30, -4.63836945679944670000e-002) (31, 5.11577101775157470000e-002) (32, 3.00124129691618840000e-001) (33, -5.49252262830537550000e-002) (34, 6.36366513551423370000e-001) (35, 6.07709737496808570000e-001) (36, 1.15685902916912620000e-001) (37, 1.87139901216109680000e-001) (38, 1.00131469716055330000e+000) (39, 5.60746016012527440000e-002) (40, 6.06466044402089950000e-001) (41, 1.10732461790663890000e-001) (42, -1.60731484024221080000e-002) (43, -1.02033397941780570000e-002) (44, -1.17227044406233970000e+000) (45, 2.87286037972649950000e-001) (46, 6.77787594573893700000e-002) (47, -1.64965073134519220000e-001) (48, -1.78202192738320440000e-001) (49, 8.49812744925200430000e-001) (50, 3.26674569737007590000e-001) (51, 2.21136685989418300000e-002) (52, -1.69683875583643310000e-001) (53, -3.34176581684450640000e-001) (54, -3.68431698826961130000e-002) (55, 3.11989460250980730000e-001) (56, 1.00489483860550800000e-001) (57, -6.60379007240334690000e-002) (58, -1.48355457018119640000e-001) (59, 3.72229992851925040000e-001) (60, 4.25632016135163050000e-001) (61, -1.71421679824948320000e-002) (62, 4.09237722746044860000e-001) (63, 5.95673987574956570000e-002) (64, 4.72145645237338830000e-002) (65, 1.05381255399732590000e-001) (66, 5.73461820267013310000e-001) (67, 6.59712824111127750000e-001) (68, 4.31892103304019610000e-001) (69, 8.35784164258814370000e-003) (0, 2.93126301101597040000e-001) (1, -2.65778731260306770000e-002) (2, -2.96928293239883290000e-001) (3, 9.31905152044948530000e-002) (4, 3.53863857214625540000e-001) (5, 7.83356527358120340000e-001) (6, -8.77168258646824910000e-002) (7, -2.88263611107203200000e-002) (8, -5.85569177894385010000e-002) (9, -3.58056784241401820000e-002) (10, -8.87859207077366930000e-002) (11, 1.83889835406210760000e-001) (12, -2.15573998745026450000e-001) (13, -2.90581074390289240000e-001) (14, -6.32250091439398590000e-002) (15, 7.92331298522675810000e-001) (16, -1.61923012071575720000e-001) (17, 7.79621792999848790000e-001) (18, 1.98909597869634330000e-001) (19, 4.79462906706748100000e-002) (20, -3.98273360494448000000e-001) (21, -1.62349309695484170000e-001) (22, 2.23216340954837500000e-001) (23, -1.42492121171046180000e-001) (24, 5.85760573057623520000e-001) (25, -1.92679426460159290000e-001) (26, 8.06903007491660660000e-001) (27, -3.64532659435552190000e-001) (28, 6.55081897774791730000e-002) (29, -5.05328809942830190000e-002) (30, -1.07171304041544550000e-001) (31, 2.46729303760610860000e-001) (32, 2.66139267140189930000e-001) (33, 2.35573483252843640000e-002) (34, 2.21133864501072920000e-001) (35, -8.70705262647692020000e-002) (36, -1.97297635938909870000e-001) (37, 5.54619207400534610000e-001) (38, -8.62007417208999200000e-002) (39, 5.94716131191218910000e-001) (40, 1.29100320771044720000e-001) (41, 2.01257210186729070000e-001) (42, 9.21054364916012860000e-002) (43, 1.57189224363875110000e-001) (44, 3.82905368174881580000e-001) (45, -6.86183219824908210000e-002) (46, 8.22243399633543090000e-001) (47, 2.17566649981830310000e-001) (48, 6.44619969199349950000e-003) (49, 8.56862515005295950000e-002) (50, 2.35285244947556040000e-001) (51, 8.20271492013006780000e-002) (52, -3.50380620566065500000e-001) (53, 7.68665615390865110000e-002) (54, 2.72781569813590420000e-001) (55, 4.72206974458805400000e-002) (56, -1.99555615920744420000e-001) (57, -2.67973929601003980000e-002) (58, 9.90637278997726360000e-002) (59, 2.17611985845259230000e-001) (60, 3.12026321472145510000e-002) (61, -1.72211025404928820000e-002) (62, 1.12819601459779150000e-001) (63, 2.48113300211559140000e-001) (64, -4.05316243411971490000e-002) (65, 1.57335315961368540000e-001) (66, -4.15186443196460420000e-001) (67, -4.45437320685833690000e-001) (68, -3.35984216028345990000e-001) (69, 5.87708654609690810000e-002) 
