FANN_FLO_2.1
num_layers=5
learning_rate=0.700000
connection_rate=1.000000
network_type=1
learning_momentum=0.000000
training_algorithm=2
train_error_function=1
train_stop_function=1
cascade_output_change_fraction=0.010000
quickprop_decay=-0.000100
quickprop_mu=1.750000
rprop_increase_factor=1.200000
rprop_decrease_factor=0.500000
rprop_delta_min=0.000000
rprop_delta_max=50.000000
rprop_delta_zero=0.100000
cascade_output_stagnation_epochs=12
cascade_candidate_change_fraction=0.010000
cascade_candidate_stagnation_epochs=12
cascade_max_out_epochs=150
cascade_min_out_epochs=50
cascade_max_cand_epochs=150
cascade_min_cand_epochs=50
cascade_num_candidate_groups=2
bit_fail_limit=1.00000001490116120000e-001
cascade_candidate_limit=1.00000000000000000000e+003
cascade_weight_multiplier=4.00000000000000020000e-001
cascade_activation_functions_count=10
cascade_activation_functions=3 5 7 8 10 11 14 15 16 17 
cascade_activation_steepnesses_count=4
cascade_activation_steepnesses=2.50000000000000000000e-001 5.00000000000000000000e-001 7.50000000000000000000e-001 1.00000000000000000000e+000 
layer_sizes=10 20 20 10 6 
scale_included=0
neurons (num_inputs, activation_function, activation_steepness)=(0, 0, 0.00000000000000000000e+000) (0, 0, 0.00000000000000000000e+000) (0, 0, 0.00000000000000000000e+000) (0, 0, 0.00000000000000000000e+000) (0, 0, 0.00000000000000000000e+000) (0, 0, 0.00000000000000000000e+000) (0, 0, 0.00000000000000000000e+000) (0, 0, 0.00000000000000000000e+000) (0, 0, 0.00000000000000000000e+000) (0, 0, 0.00000000000000000000e+000) (10, 5, 1.00000000000000000000e+000) (10, 5, 1.00000000000000000000e+000) (10, 5, 1.00000000000000000000e+000) (10, 5, 1.00000000000000000000e+000) (10, 5, 1.00000000000000000000e+000) (10, 5, 1.00000000000000000000e+000) (10, 5, 1.00000000000000000000e+000) (10, 5, 1.00000000000000000000e+000) (10, 5, 1.00000000000000000000e+000) (10, 5, 1.00000000000000000000e+000) (10, 5, 1.00000000000000000000e+000) (10, 5, 1.00000000000000000000e+000) (10, 5, 1.00000000000000000000e+000) (10, 5, 1.00000000000000000000e+000) (10, 5, 1.00000000000000000000e+000) (10, 5, 1.00000000000000000000e+000) (10, 5, 1.00000000000000000000e+000) (10, 5, 1.00000000000000000000e+000) (10, 5, 1.00000000000000000000e+000) (10, 5, 1.00000000000000000000e+000) (30, 5, 1.00000000000000000000e+000) (30, 5, 1.00000000000000000000e+000) (30, 5, 1.00000000000000000000e+000) (30, 5, 1.00000000000000000000e+000) (30, 5, 1.00000000000000000000e+000) (30, 5, 1.00000000000000000000e+000) (30, 5, 1.00000000000000000000e+000) (30, 5, 1.00000000000000000000e+000) (30, 5, 1.00000000000000000000e+000) (30, 5, 1.00000000000000000000e+000) (30, 5, 1.00000000000000000000e+000) (30, 5, 1.00000000000000000000e+000) (30, 5, 1.00000000000000000000e+000) (30, 5, 1.00000000000000000000e+000) (30, 5, 1.00000000000000000000e+000) (30, 5, 1.00000000000000000000e+000) (30, 5, 1.00000000000000000000e+000) (30, 5, 1.00000000000000000000e+000) (30, 5, 1.00000000000000000000e+000) (30, 5, 1.00000000000000000000e+000) (50, 5, 1.00000000000000000000e+000) (50, 5, 1.00000000000000000000e+000) (50, 5, 1.00000000000000000000e+000) (50, 5, 1.00000000000000000000e+000) (50, 5, 1.00000000000000000000e+000) (50, 5, 1.00000000000000000000e+000) (50, 5, 1.00000000000000000000e+000) (50, 5, 1.00000000000000000000e+000) (50, 5, 1.00000000000000000000e+000) (50, 5, 1.00000000000000000000e+000) (60, 0, 1.00000000000000000000e+000) (60, 0, 1.00000000000000000000e+000) (60, 0, 1.00000000000000000000e+000) (60, 0, 1.00000000000000000000e+000) (60, 0, 1.00000000000000000000e+000) (60, 0, 1.00000000000000000000e+000) 
connections (connected_to_neuron, weight)=(0, -3.40716392747663300000e-001) (1, 9.26187784871165680000e-002) (2, -1.57367266087466460000e-001) (3, -5.05091555236208340000e-002) (4, -1.05281054246049600000e-002) (5, -3.66577170301520470000e-002) (6, -1.05517003560709780000e-001) (7, -2.84226537038902990000e-002) (8, -2.94699707495752810000e-001) (9, 3.82717807617311670000e-001) (0, -1.60595577862130610000e-001) (1, 3.76720359572261350000e-001) (2, -5.60496279423584600000e-001) (3, -2.27567096823945490000e-001) (4, 1.27333352222431450000e-001) (5, -4.12151174764045230000e-002) (6, 1.57532945167037200000e-001) (7, -1.17212040978863970000e-001) (8, 1.87776918059020750000e-001) (9, 9.79527624172017440000e-002) (0, 2.69126191507467250000e-001) (1, 5.86368996891054370000e-001) (2, 2.09302590787768970000e-001) (3, -3.62889451111582870000e-002) (4, 1.19733207948814570000e-002) (5, -7.11593377176033270000e-002) (6, 1.99533428374475070000e-001) (7, 2.12875421460078260000e-001) (8, -8.10054839210602310000e-002) (9, 2.11331755497255770000e-001) (0, 1.06615163902218980000e-001) (1, -3.19324382748085830000e-001) (2, 2.31416197193224730000e-001) (3, -7.64460147488832810000e-002) (4, -1.00507019154347410000e-001) (5, 1.32440838476273230000e-002) (6, 1.55188254117217040000e-001) (7, -1.19195066679607970000e-001) (8, -3.74668159092083060000e-001) (9, 9.65721357944450270000e-002) (0, 3.04322240120667690000e+000) (1, -3.57882512809907520000e-002) (2, 4.31115888051184390000e-001) (3, 8.68736921687333910000e-003) (4, 8.87254644725978400000e-002) (5, 1.61908312728600600000e-002) (6, 4.45248869755691670000e-001) (7, -4.27322618126034590000e-003) (8, 2.71630125283101840000e-002) (9, -1.76395830424681160000e-002) (0, -4.97383606355061240000e-001) (1, -8.50213914263189370000e-001) (2, -1.94649068817513840000e-001) (3, -4.72898465470534060000e-002) (4, -3.14820195937648290000e-002) (5, -2.29481981697402040000e-002) (6, -1.53679744791172370000e-002) (7, -9.92142301037020610000e-002) (8, 7.31902261085601160000e-002) (9, 1.75394737295368110000e-001) (0, -4.01607167397642630000e-001) (1, 3.85332927355416080000e-001) (2, 1.42714684159258640000e-001) (3, 1.69683911611110540000e-002) (4, 1.37825182527478250000e-001) (5, 9.47988718766753090000e-002) (6, 4.61542312666892660000e-001) (7, 3.99282958596088170000e-002) (8, 1.10881344175468590000e-001) (9, -2.08886005927302580000e-001) (0, 6.46849933689085390000e-001) (1, 2.41060532447543520000e-001) (2, -7.50150545855035380000e-001) (3, 3.45109196223092820000e-002) (4, -2.19141611799626680000e-002) (5, -4.06042318311788250000e-002) (6, -1.73254373578076580000e-001) (7, -5.28836142873603180000e-002) (8, 2.46936622854867890000e-001) (9, -4.50932399822568890000e-001) (0, -1.91314124196550060000e-001) (1, 5.37337734023306090000e-001) (2, 2.45923182675187980000e+000) (3, -6.47503460872315970000e-002) (4, -3.04290178879310400000e-002) (5, 4.00995066729620330000e-002) (6, 1.06872793304066840000e-002) (7, -3.66433316676517820000e-002) (8, -2.32462158623133190000e-001) (9, 2.51456102849523020000e-001) (0, 1.66349368610221400000e+001) (1, -1.20812054447735260000e+000) (2, -9.50013865170646620000e-002) (3, 3.58764386933309450000e-002) (4, -1.09887898994284210000e-002) (5, 2.19316883721379920000e-002) (6, -3.49452130276587880000e+000) (7, 3.33669714438659780000e-001) (8, -1.92012391516173110000e-002) (9, 5.22608339591199360000e-002) (0, -4.04817035726286300000e-001) (1, 6.71298343340307910000e-001) (2, 2.73930895724655680000e-001) (3, -3.30861484020885180000e-002) (4, 9.70048222912637540000e-002) (5, 1.12150217156452990000e-002) (6, 2.61339068140722050000e-001) (7, -3.35174077059465500000e-001) (8, -5.41535562950923100000e-002) (9, 4.50357959464787130000e-001) (0, 1.94693518795237360000e-001) (1, -5.84175617726987340000e-001) (2, 3.71080230546311450000e-001) (3, 9.92736031243107200000e-003) (4, -1.00663263588515410000e-002) (5, -1.81307128256723230000e-003) (6, -4.35481725882286290000e-001) (7, 7.12715788015107770000e-002) (8, -5.46760248846704310000e-003) (9, -1.69900949301687700000e-001) (0, -1.16469799379863750000e+000) (1, 5.66488876884379210000e-001) (2, -2.52268551493796460000e-001) (3, -9.65480353343831440000e-003) (4, 2.85975658439755340000e-002) (5, -1.95021038555733690000e-002) (6, 2.89307921492032110000e-001) (7, -1.56825724092061470000e-001) (8, 1.08285020200542040000e-001) (9, -7.81514543633243800000e-001) (0, 6.75232081811197980000e-001) (1, -2.90084725560335710000e+001) (2, 2.95624758752586340000e-002) (3, 5.12541720933414570000e-003) (4, -1.19276353867697600000e-003) (5, -1.97737817679952550000e-002) (6, -1.50282130456538600000e-001) (7, 6.01468733585254080000e+000) (8, -1.05634006854521940000e-002) (9, -1.78524866199951620000e-001) (0, -1.50095003784201530000e+000) (1, 2.45576771201204800000e-001) (2, 1.27196801206491600000e-001) (3, 4.70129192877125350000e-002) (4, 1.26419952304674990000e-002) (5, 9.21695245349694190000e-002) (6, 3.22501129805688400000e-001) (7, 3.80966506742916180000e-002) (8, 3.42729467665635890000e-002) (9, 7.23528208762419860000e-001) (0, 1.35305811563319940000e-002) (1, 2.36174153107725130000e-001) (2, 2.29151478599619770000e-002) (3, -6.76180421408189430000e-002) (4, -1.67877163640815400000e-002) (5, -6.16178659136311650000e-002) (6, 7.87616046440598740000e-002) (7, -1.29065482881777410000e-001) (8, -2.50965913275366160000e-001) (9, -2.05499488250160070000e-001) (0, 1.87062079272296370000e-001) (1, -1.18334524506189700000e-001) (2, -3.53311247793807680000e-001) (3, 1.00588813458719960000e-001) (4, -1.70678653032574460000e-001) (5, -1.23260647951668030000e-002) (6, -1.33022611386290460000e-001) (7, 4.63386449091363620000e-002) (8, 1.98062884899262740000e-001) (9, 2.24967240005053410000e-001) (0, 2.83450545883168090000e-001) (1, -7.01415645047303690000e-001) (2, 4.09531365611856480000e-002) (3, 5.69425762527954250000e-002) (4, 8.96864684478135550000e-002) (5, 1.34424711276517660000e-003) (6, 5.40793156322584070000e-001) (7, 2.93380655605861130000e-001) (8, 2.43459941454286680000e-001) (9, 1.66638868683508970000e-001) (0, 4.54213209222637140000e-001) (1, -4.64711416358315920000e-001) (2, -6.99219715199351220000e-001) (3, 7.74846610064109510000e-002) (4, -5.06176560459905210000e-002) (5, -2.45241736891103070000e-002) (6, -1.75971371799288930000e-001) (7, 1.13831198605764780000e-001) (8, 1.34189017749505200000e-001) (9, -5.15944526220072920000e-001) (0, 5.10312760508200400000e-001) (1, 6.28295804393362020000e-002) (2, -1.99909187296538450000e-001) (3, -2.32939120223122980000e-002) (4, -1.41995989338438960000e-001) (5, 1.63382247889029590000e-002) (6, -3.55864440959417050000e-001) (7, -1.39289349581449170000e-001) (8, 1.58921682370160050000e-003) (9, 3.21897751370642140000e-001) (0, 1.18771776490458050000e+000) (1, 1.89764079580408750000e+000) (2, 3.73633268356138300000e-002) (3, 2.45570649107475970000e-001) (4, 4.70321671686730470000e-002) (5, 1.04161751373508280000e-001) (6, -9.92931788681116960000e-003) (7, 4.29319822130864560000e-001) (8, 6.41197626574573800000e-001) (9, 2.02164461545000980000e-001) (10, 8.04944763243571560000e-001) (11, 6.42196790027823590000e-001) (12, 2.11503781729993430000e-001) (13, 5.71996907613676940000e-001) (14, 7.60780190830753770000e-001) (15, 2.07216680130284520000e-001) (16, -7.72708141283513230000e-002) (17, 5.21276118314267120000e-001) (18, 1.22842960572184120000e-001) (19, 1.12265263896908650000e+000) (20, -1.65012609852954600000e-001) (21, 1.06180210743950320000e+000) (22, 6.64408428965764800000e-001) (23, -1.57567286321180220000e+000) (24, 4.60753557437394880000e-001) (25, 9.61476779061014590000e-001) (26, 2.91641909067209580000e-002) (27, -8.47263583333723870000e-001) (28, -8.43435209787462590000e-003) (29, -9.24635158483606700000e-002) (0, 3.18424009594533820000e-001) (1, 1.50971516723158540000e+000) (2, -9.66839076407572660000e-002) (3, 3.11974515704040610000e-001) (4, 3.34000908164103220000e-001) (5, 1.84809853615019610000e-001) (6, 2.74344936421396620000e-001) (7, 3.33474482117312400000e-001) (8, 6.69196463061780600000e-001) (9, -2.39825091642636350000e-001) (10, 8.97314818360767320000e-001) (11, 1.02370472583597350000e+000) (12, 4.83739224706590920000e-001) (13, 1.07892553977008370000e+000) (14, 1.80625385391131270000e-001) (15, 1.29737939517455050000e+000) (16, 7.23027775114393870000e-001) (17, 2.06248627266354230000e-001) (18, 6.73890884477084120000e-001) (19, 2.06112872177645120000e-001) (20, 9.55751713653773120000e-002) (21, 1.30424013415294810000e+000) (22, 9.31119449704095440000e-001) (23, 9.22736899501605310000e-001) (24, 4.72111456190527190000e-001) (25, 1.41626864492210960000e+000) (26, 9.20309486525129230000e-001) (27, -3.84455744048227190000e-001) (28, 3.64447403085926990000e-001) (29, 8.89317638642049160000e-001) (0, 1.94934756013775940000e-001) (1, 1.06047915316410290000e+000) (2, -2.42043918684683130000e+000) (3, 1.81737247242984710000e-001) (4, 5.06028149216112550000e-002) (5, -9.24414231564985730000e-003) (6, 3.32168343060795680000e-001) (7, 2.99453327175135620000e-001) (8, 6.43922077153323170000e-001) (9, 2.51321198977593360000e-001) (10, 1.08593426968459790000e+000) (11, 8.62157294595452650000e-001) (12, 2.48780301862278870000e-001) (13, -2.50764499838501130000e-001) (14, 2.53209303041670960000e-002) (15, 2.04466819255188390000e+000) (16, -1.11831503262158390000e-001) (17, 3.24172566107743920000e-001) (18, -1.91421800495938490000e-001) (19, 1.61148733288667250000e-001) (20, 3.73099276346486540000e-001) (21, 1.06195481514596830000e-001) (22, -1.96259741465665770000e-001) (23, 2.10227942862074270000e-001) (24, 6.28476437333439720000e-001) (25, -1.24122539240043860000e-001) (26, 2.98166920821662850000e-001) (27, 1.91818805591775940000e-001) (28, 2.06962658868875680000e+000) (29, 2.06529567351562030000e-001) (0, 2.79999727397491520000e-001) (1, -1.30777318669668510000e+000) (2, -5.76240138365293090000e-001) (3, 4.70637300732444810000e-001) (4, 3.06160538516381090000e-001) (5, 2.17910452505673670000e-001) (6, -6.15479371815910730000e-001) (7, 6.42174469351028290000e-001) (8, 2.83622435853763290000e-001) (9, -8.98909727464279430000e-003) (10, 5.73826263236876800000e-001) (11, 5.08246588398202580000e-001) (12, 9.32306955348078610000e-001) (13, 1.34413860578147930000e+000) (14, 1.10001975521210190000e-002) (15, 1.56902457520543750000e+000) (16, 8.21104500077774470000e-001) (17, 1.38215985919070070000e+000) (18, -4.31828343283956810000e-001) (19, -1.09782263010780380000e-001) (20, 6.19235673738963930000e-001) (21, 6.53188571716755930000e-001) (22, 1.15317534247296400000e+000) (23, -9.13605598966849180000e-003) (24, 2.27832306121375450000e-001) (25, -2.04308239053956340000e-001) (26, 3.63629208130742120000e-001) (27, 6.51666729752873430000e-001) (28, -7.06660122920977910000e-002) (29, 8.03490780092893870000e-001) (0, 8.99321991110947770000e-002) (1, -3.93641424469215740000e-001) (2, 6.78448322107931050000e-001) (3, -7.23748269381999100000e-002) (4, 1.92555071297443310000e-001) (5, 1.40923175913671790000e-001) (6, 2.32317725771579470000e-001) (7, -6.70026923521705450000e-002) (8, 3.02825503855353890000e-001) (9, 4.77177996100676850000e-001) (10, 2.28244738714208810000e-001) (11, -7.99003885845802200000e-002) (12, 8.18104846697720770000e-001) (13, 4.06873849894095700000e-001) (14, 8.06521297040343620000e-002) (15, -3.28395606067728220000e-001) (16, 6.18218145228553030000e-002) (17, 1.87189026802389770000e-001) (18, -7.39266937205139470000e-001) (19, 1.54911305515948810000e-001) (20, 8.40838550524607760000e-001) (21, 6.68030870831515470000e-001) (22, 4.61406782935302680000e-001) (23, 1.60118712664067300000e-001) (24, 1.33688353987604310000e-001) (25, 1.08608051862424260000e+000) (26, 9.34131712084809940000e-001) (27, 1.04605379942297790000e-001) (28, 1.14387101374175200000e+000) (29, 2.84766735697879750000e-001) (0, -1.57709323251922620000e+000) (1, -1.65613023293603450000e-001) (2, 3.75706873615528140000e-002) (3, -1.60787890689584990000e-001) (4, 1.46306291273732760000e-001) (5, 3.32852255812652330000e-003) (6, 6.78202985504116620000e-001) (7, 5.18269930922098940000e-001) (8, -8.18416629232272260000e-002) (9, 7.24353945976208060000e-001) (10, 4.46289092146759600000e-001) (11, 4.04163331130934220000e-001) (12, -5.01365779188450160000e-001) (13, 2.98358292603749410000e-001) (14, -2.60832781127328700000e-003) (15, 2.12566458078186170000e-001) (16, -1.44261224718618490000e-001) (17, 2.29863693578602980000e-001) (18, 3.58325865853309110000e-001) (19, 3.97852056013481420000e-002) (20, -2.68197111906133710000e-001) (21, 3.20982397445683020000e-001) (22, 1.29099511370868610000e+000) (23, 8.44599154390246740000e-002) (24, -1.05548173241761520000e-001) (25, 4.64209187799781490000e-001) (26, 1.44560815536925900000e-001) (27, 4.60570766760229340000e-001) (28, 1.85980526519792000000e+000) (29, 1.30116530499811180000e+000) (0, -2.86923201992306030000e-001) (1, -5.68184144741426870000e-001) (2, 1.09297359950682900000e+000) (3, 4.16669822514918740000e-003) (4, 3.28949253436348180000e-001) (5, -1.56389820721049210000e-001) (6, 5.35519157501200830000e-001) (7, 5.19555468549881990000e-001) (8, -2.03773316674523310000e-001) (9, 1.14752310441815570000e+000) (10, 7.79588165576676210000e-002) (11, 5.36436184446998700000e-001) (12, -5.00176564120936140000e-001) (13, 2.10432829739090690000e-001) (14, 9.41275500552853640000e-002) (15, 5.94285526121811830000e-002) (16, 3.45910073862358610000e-001) (17, 2.05895694214714210000e-001) (18, -2.60284612171907400000e-001) (19, 6.70785309234654680000e-002) (20, 2.64211948934610700000e-001) (21, 2.56726952194128280000e-001) (22, 1.03117052242301100000e+000) (23, -3.18433003444420440000e-001) (24, 1.94028874299476600000e-001) (25, 4.52950033442974240000e-001) (26, 1.42831565713997000000e+000) (27, -5.60632174642815670000e-001) (28, 1.33413280783017680000e+000) (29, 4.87381983626585300000e-001) (0, -1.50908670063381050000e+000) (1, -7.53655693992456580000e-002) (2, -2.61897956005822500000e-001) (3, 3.74499436659311570000e-002) (4, 1.22274243969093680000e-001) (5, 2.13747676160976010000e-001) (6, 2.96581123406538530000e-001) (7, 6.41490065864629200000e-001) (8, 4.74147950039708000000e-001) (9, -2.03095809720639130000e-002) (10, 1.02258006923444290000e+000) (11, 3.32815183637709290000e-001) (12, -2.11573461267404840000e-001) (13, 1.76481457421746870000e-001) (14, 1.90591526675242600000e-001) (15, 1.00104634773589970000e+000) (16, 6.12147435298598730000e-002) (17, 8.09465439452147880000e-001) (18, -1.01176228670239980000e-001) (19, -3.68691855606496920000e-001) (20, 9.15964164406767760000e-001) (21, -3.79588711820988410000e-001) (22, 5.08847962172059410000e-001) (23, 2.62322793009099440000e-001) (24, 9.02051599720373410000e-001) (25, 7.94916011915414060000e-001) (26, 7.99206138986978900000e-001) (27, -2.05148832583413490000e-001) (28, 9.29419890976756370000e-001) (29, 3.52895591799578190000e-001) (0, -9.53053089146121830000e-002) (1, -1.20075067882213320000e+000) (2, 7.18057127595213670000e-001) (3, 2.59638302722817570000e-001) (4, 1.25982390222686560000e-001) (5, 2.22457376220054070000e-001) (6, 4.06216878904829880000e-001) (7, 6.74381904595250940000e-001) (8, 2.14822013992639420000e-001) (9, 7.13888863179709450000e-001) (10, 8.40225559793374320000e-001) (11, 3.86022824501030090000e-001) (12, 9.71416280314684740000e-002) (13, 3.25652798036508820000e-001) (14, -4.17620364225882000000e-001) (15, 1.02109595969893930000e+000) (16, -8.35939991975197860000e-001) (17, -2.52324515321679060000e-002) (18, 3.07646081371346860000e-001) (19, -1.36405466971209540000e+000) (20, 5.65474986691000940000e-001) (21, 2.16428192379304610000e-001) (22, 6.26956056812890680000e-001) (23, 2.82184701233965460000e+000) (24, 2.02830379422768130000e-001) (25, 7.91798563032077630000e-001) (26, 2.28905204317869730000e-001) (27, 5.64022646496985750000e-001) (28, 7.18832179371818540000e-001) (29, 7.72820324408036160000e-002) (0, -2.53202491280298040000e-001) (1, 2.75107426263773880000e-001) (2, 3.70389829228647770000e-001) (3, 2.15190425540754540000e-003) (4, 1.55062378353614500000e-001) (5, 3.22895236183968270000e-002) (6, -1.59935667599002960000e-002) (7, 1.92665560543394730000e-001) (8, 3.05953796078642540000e-001) (9, -8.89900439585555870000e-002) (10, 8.54855574110294090000e-002) (11, -2.37077892005410240000e-001) (12, 5.54570450960790500000e-001) (13, 1.01977365882020550000e+000) (14, 1.57614987710575000000e-001) (15, 2.70107296785426890000e-001) (16, 8.05300483506176560000e-001) (17, 8.45469578812989340000e-001) (18, 5.08578754099079040000e-001) (19, -1.24373456381021000000e-001) (20, 5.83739587758627000000e-001) (21, 7.10986050216789510000e-001) (22, 8.13597097142132020000e-001) (23, 6.05471510846219640000e-001) (24, -1.43972998306945590000e-002) (25, 7.19763761396459920000e-001) (26, 4.57722056816750380000e-001) (27, -1.81933962137110360000e-001) (28, 1.26830210255125510000e+000) (29, 4.62974903887917730000e-001) (0, 8.60739838285291770000e-001) (1, -1.09229422663253370000e+000) (2, 9.67141414232167370000e-001) (3, -5.39244673661234340000e-002) (4, 5.70272614084959220000e-001) (5, 1.10178225887176840000e-001) (6, -1.71429253189190220000e-001) (7, 8.82686785790091520000e-001) (8, 2.49650442206353560000e-002) (9, 7.83126927619644310000e-001) (10, 2.43246216278089040000e-001) (11, -3.52215737127253070000e-001) (12, 5.09267054577263840000e-001) (13, 1.37619780469008330000e+000) (14, 6.71907772749238410000e-001) (15, 5.15923529719192200000e-001) (16, -5.14600131566006920000e-001) (17, 1.42761908539369630000e+000) (18, -1.31792837634806150000e-001) (19, 1.17922029452486040000e+000) (20, -2.64667839953793770000e-002) (21, 7.72754811988939690000e-001) (22, 9.62786079744214480000e-001) (23, 1.43612573178787860000e+000) (24, 1.47448773989138170000e-001) (25, 1.25509929010745540000e-001) (26, 1.02295093102803510000e+000) (27, 2.08770812566010020000e-001) (28, 6.57115022594789380000e-001) (29, 1.47262294028830440000e+000) (0, 1.05878211661966510000e+000) (1, 1.18663046025778400000e+000) (2, 7.91136047950465330000e-001) (3, 1.38916455054322120000e-001) (4, 1.88645215063335450000e-001) (5, 8.72660394632234490000e-002) (6, 1.13270422139734500000e-001) (7, 2.51405116588968300000e-001) (8, 1.00069947522345760000e-001) (9, 3.60371895908399410000e-001) (10, 2.06227414232780150000e-001) (11, 4.66918177901751660000e-001) (12, 5.38247263209165880000e-002) (13, 1.92119063841312720000e-001) (14, 3.29391155595255770000e-002) (15, 1.27030762685763520000e-001) (16, 2.53642492957763250000e-001) (17, 2.12027746563557110000e-001) (18, 5.95582299642915740000e-002) (19, 1.43437253972924090000e-001) (20, 6.45026466990901580000e-002) (21, 2.51925618601820560000e-001) (22, 8.00376204380125470000e-001) (23, -1.65012078815424900000e+000) (24, 3.50034725701411920000e-001) (25, 1.05961293909588130000e+000) (26, 6.31807292627643790000e-001) (27, -5.06686814705237800000e-001) (28, 5.64905272726726300000e-001) (29, 8.50840530491083550000e-001) (0, -7.14782569269058700000e-001) (1, -1.14506553382820810000e-001) (2, 4.16920600737438420000e-001) (3, -2.77903177302979490000e-002) (4, 2.38290692995500210000e-001) (5, -4.89799884645584980000e-002) (6, 3.31629484226876940000e-001) (7, 2.02547510097951360000e-001) (8, 5.32114130646473730000e-001) (9, -2.45650781313238390000e-001) (10, -8.33626605712279590000e-002) (11, 3.79523433896571950000e-001) (12, -6.44171454126990510000e-002) (13, 4.33597086830293350000e-001) (14, 1.13245078558338400000e-001) (15, 8.40549769271642710000e-001) (16, 9.73989315280205380000e-001) (17, 6.65203333919603850000e-001) (18, -5.44033475331375390000e-002) (19, -4.60582515112195000000e-003) (20, -1.62914986623425930000e-003) (21, 7.23400494944460020000e-001) (22, -4.09891201556407290000e-001) (23, -4.04723226170556670000e-001) (24, -2.66076491386130590000e-002) (25, 2.19580316119121520000e+000) (26, 1.36869470698801310000e+000) (27, -2.80964281925104590000e-001) (28, 9.71299943263081670000e-001) (29, -1.58136780966247530000e-001) (0, 5.18229339921731370000e-002) (1, 1.49379839400619270000e+000) (2, 1.87188562028957880000e+000) (3, 5.21173407600825420000e-001) (4, 4.57439140277615560000e-001) (5, 2.17028163948686630000e-001) (6, 5.96767750638283690000e-003) (7, 4.50178816235949960000e-001) (8, 1.20494396157904030000e+000) (9, 1.70037441902440830000e-001) (10, 4.81156187048175030000e-001) (11, 2.65821139486095200000e-001) (12, 4.46858603276227120000e-001) (13, 1.09331385748391250000e+000) (14, 2.24458929599491490000e-001) (15, 1.42897454067024450000e+000) (16, -5.95006666522727920000e-002) (17, 6.44942249483570040000e-001) (18, 2.92171642834288870000e-001) (19, -4.44333211277606190000e-002) (20, -7.93786069962822970000e-002) (21, 1.89282617055136740000e+000) (22, 3.26075703523941050000e-001) (23, 3.94797512464262420000e-001) (24, 1.55339707257218110000e+000) (25, 3.73926837858491630000e+000) (26, 5.31996258830953810000e-001) (27, 4.83489302225653170000e-001) (28, 1.05805231021292780000e+000) (29, 2.84494076835502150000e-001) (0, -4.03118881723983020000e-001) (1, 1.84219728023765160000e-001) (2, 4.28488380868661590000e-001) (3, -9.49951213874395820000e-002) (4, 3.60104956319849290000e-001) (5, -1.81606982755926660000e-002) (6, -2.53007680838188360000e-001) (7, 1.76368661094068980000e-001) (8, -5.65461030122861090000e-001) (9, 2.49606969728703690000e-001) (10, 3.08925392710687700000e-001) (11, -3.66642137247328300000e-001) (12, 6.12480896410114380000e-001) (13, 9.81926516314776340000e-001) (14, -7.53745574679416140000e-003) (15, 3.04210884288408920000e-001) (16, 3.76356401977453070000e-001) (17, 4.02468543623913770000e-001) (18, 2.57322487316424760000e-001) (19, 5.59885511388866430000e-002) (20, 2.16702040202836230000e-001) (21, 2.79514886663239480000e-001) (22, 6.19147374141865050000e-001) (23, -1.63790950091938340000e-001) (24, -1.70771396509429270000e-001) (25, -8.97580322287972190000e-002) (26, 9.31064527160158640000e-001) (27, -4.25408194920061540000e-001) (28, 7.77586840707163880000e-001) (29, 8.59023289513044520000e-001) (0, -1.05817442040125510000e+000) (1, -4.26695756633857890000e-001) (2, 1.47841381791095290000e+000) (3, 4.66335409482285690000e-001) (4, -2.24149980117423760000e-002) (5, -2.37735940771061720000e-001) (6, 2.82819418669775610000e-002) (7, 2.72266348550033290000e-001) (8, -1.81232482611718150000e-001) (9, 4.09287035746741250000e-001) (10, 3.11429216222195600000e-001) (11, 4.39510129170396670000e-001) (12, -3.96909289158304950000e-002) (13, 1.04269910350282520000e+000) (14, 1.10184065194303000000e-001) (15, -7.29751744229573560000e-001) (16, -2.32890099663758370000e-001) (17, 1.20823731755408100000e+000) (18, 9.46845612225861940000e-001) (19, -1.28451043470791920000e-001) (20, 7.63216126371278890000e-001) (21, 9.54235959616731360000e-001) (22, 1.24228375616739230000e+000) (23, 8.09933915477326630000e-002) (24, 6.13217989495863700000e-001) (25, 1.41895474661246990000e+000) (26, 1.69880041383217860000e-001) (27, 6.33998966154717400000e-001) (28, 6.86175902369703380000e-002) (29, 3.68374453672782880000e-002) (0, 2.10325633758218940000e-001) (1, 3.49880512783428020000e-001) (2, 2.50520525162091890000e-001) (3, 2.52115248717449230000e-001) (4, 7.21728798141785250000e-002) (5, 3.39254350674854030000e-002) (6, 4.35184861539144430000e-001) (7, 1.57028357577786020000e+000) (8, 1.01806630946279130000e+000) (9, 3.09879818625337260000e-001) (10, 9.44652889460053990000e-001) (11, 7.54935651165220320000e-001) (12, -3.51038865507122430000e-001) (13, 3.63630344982233790000e-001) (14, 9.36153468833222040000e-001) (15, 1.58258757993303890000e+000) (16, 2.13745165988444840000e-001) (17, 2.74848340084402010000e-001) (18, 3.77470606564553560000e-001) (19, 3.63556155210919270000e-001) (20, 5.30120491114329310000e-002) (21, 7.49611332791590200000e-001) (22, 5.72534209616916920000e-001) (23, 1.08422810006642010000e-001) (24, 4.76156228944049850000e-001) (25, 6.60288705414534990000e-001) (26, -3.70949830243406320000e-002) (27, -6.48818912924546630000e-001) (28, 1.00684760131179840000e+000) (29, 6.63478937447885660000e-001) (0, -3.71649365665830680000e-002) (1, 8.47963012770293210000e-002) (2, 1.52594804988784930000e+000) (3, 4.18353195425291700000e-001) (4, 2.54741066402732420000e-001) (5, 1.62225453521536390000e-001) (6, -5.85305615760492660000e-002) (7, 5.07895045873490210000e-001) (8, 7.97277528088902320000e-002) (9, 8.04298656301398070000e-001) (10, 5.62953386797061420000e-001) (11, 1.16872543010621470000e+000) (12, 5.65497041853259770000e-001) (13, 1.04989869877675960000e+000) (14, 7.46270643167872440000e-003) (15, 7.90856781400937510000e-001) (16, 1.82909554484176120000e-001) (17, 1.53392546164520650000e+000) (18, 4.21606263883566650000e-001) (19, 2.33761213093323460000e-001) (20, 3.72237285529361580000e-001) (21, 5.55619959185032280000e-002) (22, 1.68854501714531620000e+000) (23, 1.88420777590571440000e-001) (24, 1.00024115713606160000e-001) (25, 5.24108722504467830000e-001) (26, 5.72861560486077500000e-001) (27, -3.46376478276092110000e-002) (28, 8.66012295557750940000e-001) (29, 1.22486540783901620000e+000) (0, 1.86360579392168850000e-001) (1, -3.45391108590052790000e-001) (2, 1.02769197498121980000e-001) (3, 1.44296785264808990000e-001) (4, 2.15017905374246420000e-001) (5, -4.40955516917487310000e-002) (6, 4.93172068461964820000e-001) (7, 6.23202961411562730000e-001) (8, 1.74558058617115070000e-001) (9, 4.01976941500151170000e-002) (10, 8.07663607352914060000e-002) (11, -1.32487997113109240000e-001) (12, 3.99140298246961290000e-001) (13, 1.55160304244947040000e+000) (14, -4.89120328293190410000e-001) (15, 1.43620299886889670000e+000) (16, 7.55959890228382060000e-001) (17, 8.22447457023705030000e-001) (18, 1.01809091088572040000e-001) (19, -9.27022898603462320000e-001) (20, 2.24094011446241190000e-001) (21, 1.00620996072977140000e+000) (22, 5.92172871226473770000e-001) (23, 1.62771533713779660000e+000) (24, 7.47206134004264280000e-001) (25, -3.79120049721428150000e-001) (26, 9.56711134460122290000e-002) (27, -3.49905896826701030000e-001) (28, 3.94179534612429440000e-001) (29, 3.39684897128956440000e-001) (0, 5.61170102764386610000e-001) (1, -6.44915522413033520000e-001) (2, 1.77019494102777330000e+000) (3, -6.38789348370473600000e-002) (4, 4.63846561617754230000e-001) (5, -4.82920579354274570000e-002) (6, 4.47432986917448430000e-001) (7, 2.82192532497433090000e-001) (8, 2.60013969236523260000e-001) (9, -3.57070615257866210000e-001) (10, 1.48411782057365050000e+000) (11, 7.29144128289939270000e-002) (12, 5.88632939962012270000e-001) (13, 3.29365638272664300000e-001) (14, -2.69485644793832690000e-001) (15, 6.31841609614792410000e-001) (16, -8.58751819751100290000e-002) (17, 1.60764932373632040000e-001) (18, 1.99893169198191220000e-001) (19, -3.96066777896583460000e-002) (20, 7.93643085016898400000e-001) (21, 7.47726009962152330000e-001) (22, -2.54409275988016550000e-001) (23, -2.28368067792586170000e-001) (24, 5.53940121931578160000e-001) (25, 1.57506286124834990000e+000) (26, 1.33852929685823700000e+000) (27, 2.21983390315271950000e-001) (28, 2.05761880615230460000e+000) (29, 2.75201244057719230000e-001) (0, 1.00663164246830930000e+000) (1, -1.05355813591171060000e-001) (2, 1.18826221778164330000e+000) (3, -5.76616576302397890000e-002) (4, 8.53805222418379860000e-001) (5, 2.27065140954368530000e-001) (6, 5.04278913102975230000e-001) (7, 3.38962571858521470000e-001) (8, 3.24205693427230100000e-001) (9, 9.88163699015006780000e-001) (10, 1.04358221695277090000e+000) (11, 1.57093668810245720000e-001) (12, 2.99360600209325200000e-001) (13, 2.04532914597562790000e-001) (14, -4.96583751029415150000e-001) (15, -2.75154117253576300000e-001) (16, -2.49648105206708990000e+000) (17, -4.25292800467858830000e-001) (18, 3.61110535652943210000e-001) (19, 9.29361077786028940000e-001) (20, 3.58402138677112790000e-001) (21, 5.64584021721423630000e-001) (22, 1.75731019908535350000e-001) (23, 4.77923847145145190000e-001) (24, 6.85973270535311870000e-001) (25, 9.90954973343456610000e-001) (26, -1.20133402345990890000e-001) (27, -2.57933627642825850000e-001) (28, 6.24152022339247020000e-002) (29, 7.23932489614901640000e-001) (30, 5.35939016840553120000e-001) (31, 4.74651669967191330000e-001) (32, -3.00646607208782330000e-001) (33, -8.58617238002412630000e-001) (34, 7.29121959087002500000e-001) (35, 1.79286701235582240000e+000) (36, 4.79183856595221560000e-001) (37, 6.71867212117631340000e-001) (38, -3.30648627616135500000e-001) (39, 1.20466719980840060000e+000) (40, 9.20990757276586720000e-002) (41, -2.35954348732634320000e-001) (42, 1.61387986788117000000e-001) (43, 2.05148630207378280000e-001) (44, -3.93431358671259110000e-001) (45, 8.13155715747055470000e-001) (46, -3.42895467030084720000e-001) (47, -6.54069665705703800000e-001) (48, 5.52537818857919640000e-001) (49, 1.33514289310308530000e+000) (0, 2.58195657310691830000e+000) (1, 1.53786676894539240000e+000) (2, 1.26045397819307810000e+000) (3, 8.34254375183538230000e-002) (4, 5.07087962767816400000e-002) (5, 7.37502465054826310000e-001) (6, -2.99587655071488550000e-001) (7, 2.18052128789933940000e-001) (8, 3.24249058628832130000e-001) (9, 2.78176279828969970000e-001) (10, 3.52920928268800560000e-001) (11, 1.45884807263362090000e-001) (12, 5.97311573861451390000e-001) (13, 5.30578522054357180000e-001) (14, 1.51287572956989690000e-001) (15, 1.47645734061124250000e+000) (16, -2.56593692460098300000e-003) (17, 7.51165136778989770000e-001) (18, 1.69899087921794480000e-001) (19, -5.95425302585691420000e-002) (20, -2.92818829324562880000e-001) (21, 6.91927610265075540000e-001) (22, -1.57885448143876840000e-001) (23, 7.45808326254074120000e-001) (24, 9.46727720137129030000e-001) (25, 2.07594985314030470000e+000) (26, 9.15915794115679390000e-002) (27, 1.28946675845307420000e-001) (28, 7.53462029177989210000e-001) (29, 5.34557541089642820000e-001) (30, -5.55235319073933860000e-001) (31, -7.39816905737312400000e-001) (32, 8.70125877135566880000e-001) (33, -5.11661345449275220000e-001) (34, -1.06202029897869100000e-001) (35, -3.69941178937979230000e-001) (36, 1.86601968091402810000e+000) (37, 6.63668089216402970000e-001) (38, 2.67127064930543560000e-001) (39, 5.78159497772004930000e-001) (40, 3.91384233685882600000e-001) (41, -5.90205417409665370000e-001) (42, 6.57851441247459760000e-001) (43, -1.42263076782538240000e-001) (44, 3.64169001945944700000e-001) (45, 7.82693982112608430000e-001) (46, 1.57287747904416710000e-001) (47, 1.13471203533437550000e-001) (48, -4.55672337290240540000e-001) (49, 1.10983626652852170000e+000) (0, 5.22815033056638230000e-001) (1, 3.57751836702225210000e-001) (2, 6.27960442165927390000e-001) (3, -8.69468718612369800000e-002) (4, -1.93195158674441850000e-002) (5, -1.21580106924873650000e-002) (6, 1.45980658548192340000e-001) (7, -2.10457216218824180000e-001) (8, 6.89286468160551610000e-001) (9, 3.81407874556141170000e-001) (10, 6.87307446456968290000e-001) (11, -1.00407192028959360000e+000) (12, 2.94581635799115340000e-001) (13, 2.83674323953751580000e-001) (14, 5.96885059603101340000e-001) (15, -8.83925345382170070000e-002) (16, 9.68335859294312320000e-001) (17, 6.68364248095834500000e-001) (18, 1.11756916947374420000e+000) (19, 1.18184808038915660000e-001) (20, 3.08772574455017490000e-001) (21, 1.22657077648392440000e+000) (22, 7.39229776027225390000e-001) (23, 1.08740464392842610000e-001) (24, 1.21144847700003070000e+000) (25, 8.40254784829265740000e-001) (26, 2.59374141476519560000e-002) (27, -1.87480424744726510000e-001) (28, -3.93973057940508530000e-002) (29, 1.08139612725404370000e-001) (30, 5.31719227146564940000e-001) (31, 2.22459416411883400000e-002) (32, 8.37628188218786370000e-001) (33, 4.62699369553164210000e-001) (34, 1.72167437019064420000e-001) (35, 5.10876941985579540000e-001) (36, 3.84560011095911260000e-001) (37, 6.35401403555233780000e-001) (38, 5.14166086208095010000e-001) (39, -2.41337741667273290000e-001) (40, -9.10995208645792750000e-001) (41, -6.05106192572751890000e-001) (42, 1.72481436092941360000e-001) (43, -1.08629224961484120000e-001) (44, 9.29779750865119770000e-001) (45, 2.37215751685139750000e-001) (46, 1.35452901589508350000e-002) (47, -2.74754929495593330000e-001) (48, 4.31965785809978350000e-001) (49, 2.68171346098774050000e-002) (0, -1.66915274964485820000e+000) (1, 1.35660416675360880000e+000) (2, 2.41455645185723240000e-001) (3, 2.09446887018028600000e-001) (4, 2.80108415287194490000e-001) (5, 2.70963020925406190000e-001) (6, 5.95601705143337100000e-001) (7, 2.14276089503605160000e-001) (8, 5.96561811221154260000e-001) (9, 4.20913795924617700000e-001) (10, -6.52681492090189550000e-001) (11, 4.30298075760899350000e-001) (12, 3.50760946990998580000e-001) (13, 2.88778065277162270000e-001) (14, 3.68247478712937170000e-001) (15, -4.30239978793745090000e-001) (16, 3.27291471736060880000e-002) (17, 9.46169553641646680000e-001) (18, 3.61342192746264500000e-001) (19, -1.89824089168770250000e-001) (20, -2.68558460519897070000e-002) (21, 1.06893930476075180000e+000) (22, 1.23342580469528440000e+000) (23, 3.69589309330077050000e-001) (24, -1.35011942992794080000e-002) (25, 2.46158454417253520000e+000) (26, 7.69291771544223120000e-001) (27, -3.22228100694737510000e-001) (28, 1.03247395897962120000e+000) (29, 8.78086542956648560000e-001) (30, -5.90271132514590850000e-001) (31, 7.85744685967628140000e-002) (32, -1.37560593062236640000e-001) (33, 1.18359875971323820000e-001) (34, -2.06432030228607230000e-001) (35, 3.08581494375334500000e-001) (36, 8.83658698215513680000e-002) (37, 7.40136021483496910000e-002) (38, 1.12069008750686840000e+000) (39, 2.58602367818920710000e-001) (40, -5.67552071180823510000e-001) (41, 3.98086369685652300000e+000) (42, 4.52957018066137310000e-001) (43, -5.38452373825313860000e-002) (44, 2.04544922923005800000e-001) (45, -3.20975564365762400000e-002) (46, -3.26359351822307080000e-001) (47, -8.39986716048402800000e-001) (48, -4.94408429909485690000e-001) (49, 3.54397212566874060000e-001) (0, -5.10682450417825010000e-001) (1, 1.66585987497010840000e-001) (2, 1.03008568651343670000e+000) (3, 1.17013836254914090000e-001) (4, 2.96507258920500450000e-001) (5, 8.27987410820517490000e-002) (6, 5.86392233619875690000e-002) (7, 1.28924456615599760000e-001) (8, 5.44968702570376220000e-001) (9, 6.71548772164535230000e-001) (10, 1.10709045295848120000e-001) (11, 1.45497893354898520000e-001) (12, -4.32885243911031780000e-001) (13, 1.57190872531227740000e+000) (14, -3.51272510300836390000e-001) (15, 1.28041740419431000000e-001) (16, 2.07828325743645210000e-001) (17, 2.22897031838543760000e-001) (18, 1.44289345593666710000e-001) (19, -5.18601369221229280000e-002) (20, -3.75622937581312040000e-001) (21, 9.96539509316140100000e-001) (22, 8.97367482533706460000e-001) (23, 4.38688141718898360000e-001) (24, 1.85354123181264350000e-001) (25, 4.64991632953463800000e-001) (26, 1.62735015871858930000e-001) (27, 2.79319679010572860000e-001) (28, 4.69874493505105070000e-001) (29, 9.02881097984903680000e-001) (30, 7.36879855191123870000e-001) (31, 4.31709729130525870000e-002) (32, 5.33444661308341560000e-001) (33, 2.42590389929568610000e-001) (34, 2.13097495583794320000e+000) (35, 3.37171371353721450000e-002) (36, 2.73622255429318060000e-001) (37, 5.34552951900158390000e-001) (38, 9.87347645209986640000e-001) (39, -7.93878258538900370000e-002) (40, 2.57930993002976890000e-002) (41, 9.52210522730303270000e-001) (42, 3.93333652997691190000e-001) (43, 2.21645902287677080000e-001) (44, 7.48076872517214000000e-001) (45, 2.55527690199318760000e-001) (46, 2.58090059403894640000e-002) (47, -1.10019439336910140000e+000) (48, 1.37719927339824690000e-001) (49, -1.43534154295831440000e-001) (0, 1.40567156413740600000e-001) (1, -6.79152948759751960000e-002) (2, 2.26379398445085570000e+000) (3, -3.21758355041498190000e-002) (4, 8.51501460347930950000e-001) (5, -3.75359809940554730000e-001) (6, 4.23356241366199320000e-001) (7, 6.35613238951901360000e-001) (8, 5.69707574938230770000e-002) (9, 1.11718546031807040000e+000) (10, 1.59169157235916940000e+000) (11, -4.83313032083436730000e-001) (12, 4.87659640775778780000e-001) (13, 9.25856738911897350000e-001) (14, 2.74106656865714120000e-001) (15, 4.13607813947472060000e-002) (16, 1.59597451158101280000e-001) (17, 5.05349453658504100000e-002) (18, 3.53840637734943060000e-001) (19, 6.33250983670378350000e-001) (20, 2.32803294774738550000e-002) (21, 3.21090120498751800000e-001) (22, 1.22406035333133100000e+000) (23, 3.67972261074474120000e-001) (24, -2.41626698664964670000e-001) (25, 7.61889861968608530000e-001) (26, 6.66476375738798140000e-001) (27, -4.93784664869489020000e-001) (28, 2.88490428835978700000e-001) (29, 5.33651143567625550000e-001) (30, 7.54429461379352070000e-001) (31, -5.60337181679521510000e-001) (32, 1.84658900337582480000e-001) (33, 7.74071686879456490000e-001) (34, 4.73819162318258710000e-001) (35, -5.92284507857884330000e-001) (36, -2.84451151907427540000e-001) (37, 1.34305673857942120000e+000) (38, 4.01629076405394140000e-001) (39, 1.59225222459659070000e+000) (40, 2.00925466658704340000e-001) (41, 3.82918910280543030000e-001) (42, 1.20658842010850000000e+000) (43, 3.45294490566948390000e-001) (44, 4.17895751614293430000e-001) (45, -8.32510707765989120000e-001) (46, 2.06620723481900470000e-001) (47, -1.07186666437177160000e+000) (48, 2.34886287049755890000e-001) (49, 9.81124281201258690000e-002) (0, -1.96039555434583360000e+000) (1, -1.07243981382074340000e+000) (2, 4.16195055809819750000e-001) (3, 3.02209015131434170000e-001) (4, 3.75192731799990350000e-001) (5, 2.32168794503413990000e-001) (6, 6.22366981004433660000e-001) (7, 6.66974356926477880000e-001) (8, 6.83447802685517410000e-001) (9, 4.13599231482308480000e-001) (10, 1.50910623551744010000e+000) (11, 6.54183695436746590000e-001) (12, 5.22301550010671800000e-001) (13, 1.41096164377424650000e+000) (14, 5.63903070660559810000e-002) (15, 6.98218058503222830000e-001) (16, -8.97160521920498550000e-001) (17, 7.83308531247888910000e-001) (18, 5.62149033296054920000e-001) (19, -5.38606480843480810000e-002) (20, 3.72283151062499100000e-002) (21, 4.05181179148770550000e-001) (22, -3.78025968507985640000e-001) (23, 9.48379700914088520000e-001) (24, 3.49447143231892580000e-001) (25, -1.09962465216504960000e-001) (26, 4.57816740157524880000e-001) (27, 8.59266625950844800000e-001) (28, 6.56046964084720930000e-002) (29, 1.38641279896174320000e+000) (30, 1.09637995968399250000e-001) (31, -5.77868940601077230000e-002) (32, -2.41476611659591830000e-001) (33, -2.20842624322144900000e-002) (34, -1.97672651833593480000e-001) (35, -1.69831133279805780000e-001) (36, 1.68981967963069240000e-002) (37, -1.74219616352019460000e-001) (38, -4.75907261058001630000e-001) (39, 1.05587838948955850000e+000) (40, 2.49063253457596580000e-001) (41, 1.39007202763262980000e-001) (42, -2.50312596009378200000e-002) (43, -1.90784109718940110000e-001) (44, -7.32388069534764960000e-002) (45, 1.16046736386603830000e-001) (46, -3.39504211044901610000e-002) (47, -2.25856967602628130000e-001) (48, 4.48875790472712370000e-001) (49, -1.23866476090976530000e-002) (0, 7.39759518201314030000e-001) (1, 6.86588462782163570000e-001) (2, 9.52156123643017190000e-003) (3, 9.19485470613307790000e-002) (4, 1.02715358337261610000e-001) (5, 2.41836440037868580000e-001) (6, -1.28502907484042420000e-001) (7, 2.50379023404927460000e-001) (8, 6.48717427711288490000e-001) (9, 6.13388109885320550000e-001) (10, 3.38306603487366080000e-001) (11, -6.86901554057820290000e-003) (12, 1.04103266186192770000e+000) (13, -4.70371387674040210000e-002) (14, -2.31631856955286570000e-001) (15, 1.55466191222610820000e-001) (16, 2.28996113079473150000e-001) (17, 6.82751874224426510000e-001) (18, 5.73738582511429950000e-001) (19, 5.61208649633801130000e-001) (20, 6.13401006311097400000e-001) (21, 1.02290995614303280000e+000) (22, 4.17916249476362190000e-001) (23, 5.68314888752185500000e-001) (24, 5.86262408487210670000e-001) (25, 5.50180049061226640000e-001) (26, 2.42262398000688520000e-001) (27, -3.84388637191605710000e-001) (28, 3.30671970809838400000e-001) (29, 5.69848530695100000000e-001) (30, 1.11876941829844450000e+000) (31, -1.16431745368235080000e-001) (32, 2.70816408567380370000e-001) (33, -2.96261540427433900000e-002) (34, 3.53437449401027340000e-001) (35, 1.01905731347846480000e-002) (36, 5.74157318013570170000e-001) (37, 7.71446721634925090000e-002) (38, -2.03129528422494210000e-001) (39, 9.90912863875595130000e-002) (40, -8.32170858157162960000e-001) (41, 2.87633038128791100000e-001) (42, 8.04892493937978240000e-001) (43, 1.31346637671049020000e-002) (44, 1.95733148939676220000e-001) (45, 1.73211543225446350000e-001) (46, -8.37605445869141540000e-001) (47, -8.88881666883544640000e-001) (48, 7.19724897357784670000e-001) (49, 6.06765397101892350000e-002) (0, 1.83530850275102250000e+000) (1, 4.82036387448624740000e+000) (2, 8.39953547210237410000e-001) (3, 4.13317601934596880000e-001) (4, 1.88891509868222280000e-001) (5, 3.34898099575427930000e-001) (6, -3.91615090699668140000e-002) (7, 6.30347737640379100000e-001) (8, 8.49492653708200600000e-001) (9, 1.29129527157147160000e+000) (10, 2.67799563400994370000e-001) (11, 9.26176028346741060000e-001) (12, 8.56585701243799070000e-001) (13, 3.44647502327635800000e-001) (14, 2.01836495247581930000e-001) (15, 1.52565290272707130000e+000) (16, 8.54788406129046440000e-003) (17, 8.69015115131752000000e-001) (18, 2.48650093883982540000e-001) (19, -4.65134771371624960000e-001) (20, 3.26511105304061690000e-001) (21, 3.49152815040522870000e-001) (22, 6.61287023120041060000e-001) (23, 9.84490239882930030000e-003) (24, 6.42660500030121320000e-001) (25, 7.65232987865948730000e-001) (26, 8.71189316371655860000e-001) (27, 7.19865897684264570000e-001) (28, 6.15171691777166570000e-001) (29, 7.64908471728045210000e-001) (30, 9.43269231101588890000e-002) (31, 9.97571221456050460000e-002) (32, 5.14323044798210560000e-002) (33, 3.66418675240051620000e-001) (34, 2.34029750205362180000e-001) (35, 8.82293278027498570000e-001) (36, -9.45078842702336800000e-003) (37, 2.10665384873206240000e-001) (38, -1.84843714761962180000e-001) (39, 1.11205266366206530000e+000) (40, -3.98525578978487060000e-001) (41, 1.84130179345888490000e+000) (42, 3.82057576932449020000e-001) (43, 9.40821951292154370000e-002) (44, 1.26167721486935050000e+000) (45, 1.81474056118131390000e-001) (46, -5.36514231151701160000e-001) (47, -1.58806507580861790000e+000) (48, 8.29659877731659610000e-001) (49, 6.75105065978214180000e-001) (0, 1.23995708448695590000e+000) (1, 1.94778559399818410000e+000) (2, 1.83540152845029490000e+000) (3, 2.55250130495904730000e-001) (4, 2.80747178836128150000e-001) (5, 2.25930263159800910000e-001) (6, 2.67631946382769940000e-001) (7, 7.28271269251088980000e-001) (8, 6.52312028672466290000e-001) (9, 7.34783183855350800000e-001) (10, 1.58694936338135780000e+000) (11, 1.77470275819422320000e-001) (12, 7.55824384748036810000e-001) (13, 2.23504823127885420000e+000) (14, 2.62966467336622930000e-001) (15, 2.47721610953144200000e+000) (16, 1.03115210958817170000e+000) (17, 3.60063982186881630000e-001) (18, 4.34407046079390790000e-001) (19, 4.58915448593051200000e-002) (20, 8.66203241451855680000e-001) (21, 1.11932998144666680000e+000) (22, 7.79832708900958930000e-002) (23, 1.39150951175263470000e-001) (24, 1.06713868179221590000e+000) (25, 2.17441292900471570000e-001) (26, 4.21480004929420780000e-001) (27, 1.88511361827687130000e-001) (28, 1.63243875550157900000e-001) (29, 1.82039942070159460000e+000) (30, 1.28469028840870060000e+000) (31, -1.00584921251554360000e+000) (32, 1.15684612937340310000e+000) (33, 2.25090383122115600000e-001) (34, 6.75149416040322750000e-001) (35, 1.32009830447195050000e+000) (36, -1.94296072345431920000e-001) (37, 1.03661344287959280000e+000) (38, 1.28232228444193130000e+000) (39, 5.78478870515082290000e-001) (40, 1.17619532379735520000e-001) (41, 1.52199054761592040000e-001) (42, 6.78713767370802580000e-001) (43, -9.59081539733682430000e-002) (44, 7.01953564457938440000e-001) (45, 3.58109492394525110000e-001) (46, 3.10507089892626930000e-001) (47, -2.31645644854716890000e-001) (48, 7.81173491604180810000e-001) (49, 4.94064618309527410000e-001) (0, 1.75639612054680950000e+000) (1, 6.66462428380911300000e-001) (2, 2.70294023150704780000e-001) (3, 7.49500572371532000000e-002) (4, 1.46384129520457570000e-001) (5, 1.47353838468522350000e-001) (6, -2.02062423241447030000e-002) (7, 1.47204844155930770000e-001) (8, 3.68566734800101210000e-001) (9, 2.34178638765851520000e-001) (10, 8.62502395911512900000e-001) (11, -2.02549224428415580000e-001) (12, 8.17216874204203520000e-002) (13, 2.70696239898494840000e-001) (14, -3.16497047765639310000e-001) (15, 9.48859947833316620000e-001) (16, -8.71255204593707340000e-002) (17, 6.58184597213805210000e-002) (18, 4.72483453503951820000e-001) (19, 1.94541376244424360000e-001) (20, 4.39330404353837360000e-001) (21, 5.12025145343486530000e-001) (22, 8.59913446774876800000e-001) (23, -1.71817094487668990000e-001) (24, 8.83633783574908180000e-001) (25, 9.54273150999118910000e-001) (26, 2.89985714382329340000e-001) (27, -1.44299193734724440000e-001) (28, 6.60442195872891770000e-001) (29, -4.75831795426967350000e-001) (30, 2.74626854874493010000e-001) (31, -2.97740710483018030000e-001) (32, 2.90011656534859550000e-002) (33, 3.98490226080911860000e-002) (34, 4.89798536782891980000e-001) (35, 1.13644999961766440000e-001) (36, 4.81566245234394290000e-001) (37, 1.34368222295886800000e-001) (38, 1.16865904135002970000e+000) (39, 4.24716121568019740000e-001) (40, 4.51135169421868490000e-001) (41, -7.21890075745030060000e-001) (42, 5.46063955731306010000e-002) (43, 1.23654978823255510000e-002) (44, 1.25996233036906160000e-001) (45, 5.68767612130050490000e-002) (46, 1.07199177993360500000e-001) (47, -2.37781688099332560000e-001) (48, -9.50427638893859730000e-001) (49, -2.07095296678610490000e-001) (50, 2.68073331726793560000e-002) (51, 6.82172413264564290000e-002) (52, -5.53759584034353300000e-002) (53, 1.32896243382434260000e+000) (54, -5.06761581837901070000e-002) (55, -2.14103049940342970000e-002) (56, 2.51914259682819440000e-001) (57, -6.25763824975735660000e-002) (58, -1.87191877176612150000e-001) (59, 4.95854393949637230000e-002) (0, -6.57598104903860390000e-001) (1, -1.13105635210567560000e+000) (2, -8.17838675559930510000e-001) (3, 4.47352313528828870000e-001) (4, 2.38402547024464870000e-001) (5, 2.89844861039938280000e-001) (6, 2.26596283482712010000e-002) (7, 4.76197373097159430000e-001) (8, 6.36287887185243980000e-001) (9, 7.11025809283647110000e-001) (10, 7.82145065108915460000e-001) (11, 1.48982908068432040000e+000) (12, 3.55941632552429890000e-001) (13, 4.82549172895674950000e-001) (14, 1.00281953698075620000e-001) (15, 2.98352059955148190000e-001) (16, -2.64239130278226710000e-001) (17, 3.22851798764858870000e-001) (18, 4.31861886032342660000e-001) (19, 4.36849790050822690000e-001) (20, 2.14946674660653400000e-001) (21, -6.99223046221459810000e-001) (22, 1.12119351065168370000e+000) (23, 2.50960995494404930000e-001) (24, 6.50906022327273680000e-001) (25, -2.52702534481445310000e-001) (26, 8.32510530456543880000e-001) (27, -2.63578347989486370000e-002) (28, 1.36442673903686340000e+000) (29, 1.40383080741083480000e+000) (30, 4.46846748525221380000e-001) (31, 6.64375666166750590000e-001) (32, -8.29261389834388680000e-001) (33, 2.11712592708832690000e-001) (34, -1.41050569137556650000e-001) (35, 2.76551600889922030000e-001) (36, -6.82728176652934590000e-002) (37, -4.58290605294925990000e-001) (38, 6.45354960611878470000e-001) (39, 1.45585215075713580000e+000) (40, -5.35639167828802610000e-001) (41, 1.54803870349199430000e-001) (42, 6.33036307252982100000e-001) (43, 3.58497012543880440000e-001) (44, 4.09061165920002080000e-001) (45, 3.96383722111243340000e-001) (46, -7.91358623890843770000e-002) (47, -2.39477761558991500000e+000) (48, -2.49223659978431850000e-001) (49, 7.83002737015608850000e-001) (50, -9.09891549715967220000e-002) (51, 1.27782108507353140000e-001) (52, -5.80112094172751110000e-001) (53, -1.29508929128893890000e-001) (54, -4.99846559153349130000e-001) (55, -9.41839081052450180000e-002) (56, -1.52814997783133260000e-001) (57, 4.57365977449955140000e-002) (58, 6.23395457144831220000e-002) (59, 3.87993726623859110000e-001) (0, -1.06057636036902180000e-002) (1, 2.92667671687114610000e+000) (2, -2.29750234733098500000e+000) (3, 4.15093938355747210000e-001) (4, 4.75214475232377480000e-001) (5, 1.38662198619103700000e-001) (6, -1.23162448660663960000e-001) (7, 4.05222060016837070000e-002) (8, 8.85534126502904530000e-001) (9, 3.86202629024630930000e-001) (10, 1.81149828419136100000e-001) (11, 7.47716127276448320000e-001) (12, -2.11299028032327090000e-002) (13, 4.02576613034436810000e-001) (14, -1.48675282426466140000e-002) (15, 1.50918949400438200000e+000) (16, 5.45803051379988080000e-001) (17, 4.98958421229214190000e-001) (18, -1.14468078762091640000e-001) (19, 1.05748285256070630000e+000) (20, -4.42905739613005940000e-001) (21, -9.50833854014407340000e-001) (22, 3.69375803345813660000e-001) (23, -4.59672665042665410000e-003) (24, 7.00939419885483470000e-001) (25, 1.53571073713955420000e+000) (26, 6.82386591454627770000e-001) (27, -1.89398207199704650000e-001) (28, 1.61373381218777270000e+000) (29, 1.51112098252537000000e+000) (30, 1.58684428897948150000e-001) (31, 7.85039344990508540000e-001) (32, -7.11930120835266440000e-002) (33, -1.52525532638872970000e-001) (34, -4.62561603298923040000e-001) (35, -7.03608297956180180000e-001) (36, -4.91519703437309940000e-001) (37, 2.77754210542991430000e-001) (38, 3.56527730515008190000e-001) (39, 1.20455737893537160000e+000) (40, 3.56729704918014380000e-002) (41, 6.55889645871051250000e-001) (42, 9.36732952798095870000e-001) (43, 3.16149074028159950000e-001) (44, 1.35992891986098260000e-001) (45, 3.73761874522587580000e-001) (46, 1.59458493636401230000e-002) (47, -3.46386805347785250000e+000) (48, 5.69285781093120740000e-002) (49, 6.90625687643701690000e-001) (50, 4.93793440677853110000e-002) (51, -2.88925652870540180000e-002) (52, 1.54576069769926630000e-001) (53, 3.20463681320250220000e-002) (54, -3.31770605513577680000e-001) (55, -2.02495447151176870000e-001) (56, 1.68502225673280390000e+000) (57, -6.00373641491693120000e-002) (58, 1.28479854855517320000e-002) (59, 9.90563650086350030000e-002) (0, -4.26737576136840930000e-001) (1, 2.63903825153900430000e-001) (2, 8.90221094394895440000e-002) (3, 3.41656406517794720000e-001) (4, -1.14627460405295500000e-002) (5, 2.26321555164398250000e-001) (6, 5.96018990723518490000e-001) (7, 1.74274316602146100000e-001) (8, 9.23294915818143710000e-001) (9, -6.34911633918033150000e-002) (10, 8.22796892959254180000e-001) (11, 1.10454683605792650000e+000) (12, 6.74850190635848500000e-001) (13, 2.33562751956589320000e-001) (14, 7.58544807223208610000e-001) (15, 3.82637472336531340000e-001) (16, 5.80789578878252000000e-001) (17, 9.77601917014007890000e-001) (18, 7.87885719353135780000e-001) (19, 5.66043526247282310000e-002) (20, 1.01737285500498920000e+000) (21, 8.02173359591006770000e-001) (22, -5.99263213723244870000e-001) (23, 8.03259005468099500000e-002) (24, -4.03118931056731310000e-002) (25, 9.21410756679095330000e-001) (26, 7.61355390256684190000e-001) (27, 6.35602011944691350000e-001) (28, 1.27023562677323860000e+000) (29, 4.70555013009422650000e-001) (30, 8.01189750917141290000e-001) (31, 6.46980529742401390000e-002) (32, -2.19380027821107580000e-001) (33, 2.05278611414270400000e-001) (34, 4.61743429832405680000e-001) (35, 3.02443926983611280000e-001) (36, 4.63007438024344130000e-001) (37, 2.64183782336638140000e-001) (38, 4.05286220192538630000e-001) (39, 9.87384032322503600000e-001) (40, 2.14639666144794960000e-001) (41, 9.11693810302404370000e-001) (42, -8.84370658607002150000e-002) (43, -1.77578219464421400000e-001) (44, 1.42417040718193140000e+000) (45, 9.89384666726619010000e-002) (46, -1.19797446656039720000e-001) (47, -1.08708994446740050000e+000) (48, 1.52389947854850360000e+000) (49, 2.59768753195184610000e-001) (50, -9.86067233299772750000e-003) (51, -2.10804366235424670000e-001) (52, 5.04482001314911050000e-001) (53, -2.69847809308748190000e-001) (54, -5.47583361361980580000e-002) (55, -3.03884040961585750000e-002) (56, 8.38857414951062890000e-002) (57, 1.49793271067346790000e+000) (58, -9.28269543043951040000e-001) (59, -8.22962957327616620000e-002) (0, 1.39754635404048710000e+000) (1, 8.74073616414502850000e-002) (2, 1.04812896096183470000e+000) (3, -3.81997316532221960000e-001) (4, -3.46345932069371320000e-002) (5, 3.22041034139355860000e-001) (6, 2.22145501912985380000e-001) (7, -5.09051223702128520000e-001) (8, -3.09324025240034380000e-001) (9, 9.04566975784066750000e-001) (10, 4.94474599916342740000e-001) (11, -9.82552016204141900000e-001) (12, 6.63780083750226460000e-001) (13, 8.43737927765959460000e-001) (14, 5.97565373816372980000e-001) (15, 1.07187221034775000000e+000) (16, 5.84596516730703900000e-001) (17, 9.20502781955306330000e-001) (18, 1.07162761234942170000e+000) (19, -1.85835503694227710000e-002) (20, -1.30807158334491890000e-001) (21, 1.05401709569175320000e+000) (22, 1.11778829073223940000e+000) (23, 3.66312552316160170000e-001) (24, 5.73014161933850910000e-001) (25, 7.67354215627145230000e-001) (26, 5.41411185792433080000e-001) (27, -4.84627198298074320000e-002) (28, 3.70924421360175340000e-001) (29, 3.37362704745108650000e-001) (30, 6.79264417874777760000e-001) (31, 5.13688562117174500000e-003) (32, 1.44169978433208510000e+000) (33, 7.92139987356452300000e-001) (34, -1.47615650872906930000e+000) (35, 1.71055950802107060000e-001) (36, -2.08444216483707780000e-001) (37, 3.79451885479080430000e-001) (38, 1.13364837714916990000e+000) (39, -4.08841979568674090000e-002) (40, 2.77579998748080310000e-001) (41, 8.64584408081927270000e-001) (42, 1.48564534555348930000e+000) (43, 5.93593666360381800000e-001) (44, 2.85918997971047310000e-001) (45, 1.84009057864954230000e-002) (46, -1.06758754734695440000e-001) (47, 1.38286859742552990000e+000) (48, 3.12560212273400790000e-002) (49, 1.11183797607372140000e+000) (50, -2.74953218956397020000e-001) (51, 1.21887110389285030000e-001) (52, 2.74157678413708140000e-001) (53, -2.05649316731673290000e-003) (54, -1.41966742832010450000e+000) (55, 2.23593395645002610000e-001) (56, 1.72248201838447520000e-001) (57, 2.16427972901658970000e-001) (58, 8.08842001341930210000e-002) (59, -7.63990841284814540000e-001) (0, -4.31225488079419950000e-002) (1, 1.28965713393395160000e-001) (2, 2.94658630432151400000e-001) (3, 3.15179022706392420000e-001) (4, 5.10897412738711590000e-001) (5, 9.76160592230947870000e-001) (6, -1.35694203695707420000e-001) (7, 7.59026626155048010000e-001) (8, 8.50550566396089530000e-002) (9, 1.49082445048943320000e+000) (10, -2.09420733411338520000e-001) (11, 1.40043387261029430000e+000) (12, -1.10792343971427250000e+000) (13, 6.51981802156873290000e-001) (14, 8.86808422091386190000e-002) (15, 5.51516627870565990000e-001) (16, 8.87302536908749720000e-001) (17, 8.01300142759658330000e-001) (18, 2.56566219671855610000e-001) (19, -7.52340610152519570000e-002) (20, 4.43068037341033280000e-001) (21, 4.61914015020682970000e-001) (22, -3.72977081968903890000e-001) (23, 9.88568855233757150000e-001) (24, 7.87645181559764320000e-002) (25, 1.66156301505279140000e+000) (26, 1.30118855759862370000e+000) (27, 1.15558841058642850000e-002) (28, 7.21783015668885140000e-001) (29, 2.91529156291778780000e-001) (30, 7.10897734862096950000e-001) (31, -1.07105845719711160000e+000) (32, 2.69110246117306440000e-001) (33, -8.19759777315737130000e-001) (34, 7.95416702620165170000e-001) (35, 8.46047997639589490000e-001) (36, 1.44106515431945550000e+000) (37, 4.62176691004080430000e-001) (38, 2.34725136795193800000e-001) (39, 9.52922758438434770000e-001) (40, 2.15467620418229870000e-001) (41, -5.98212984928829310000e-002) (42, 7.42573312494010710000e-001) (43, 6.49495155250270790000e-001) (44, 5.32162372628725680000e-001) (45, 7.34289805927599740000e-001) (46, 1.29396728847569090000e-001) (47, 1.65790925636033540000e-001) (48, -3.02398304302838870000e-002) (49, 8.21999660755226120000e-001) (50, 4.73609813354558320000e-001) (51, 1.12922083935564780000e+000) (52, -9.02444909555144820000e-004) (53, 2.11000519805039120000e-001) (54, -2.61670808067712200000e-001) (55, -8.34239982240578160000e-001) (56, -7.08520416547795410000e-001) (57, 4.38292372699430720000e-001) (58, 6.63221219723556660000e-002) (59, -5.13977227707865250000e-001) 
