FANN_FLO_2.1
num_layers=4
learning_rate=0.700000
connection_rate=1.000000
network_type=1
learning_momentum=0.000000
training_algorithm=2
train_error_function=1
train_stop_function=1
cascade_output_change_fraction=0.010000
quickprop_decay=-0.000100
quickprop_mu=1.750000
rprop_increase_factor=1.200000
rprop_decrease_factor=0.500000
rprop_delta_min=0.000000
rprop_delta_max=50.000000
rprop_delta_zero=0.100000
cascade_output_stagnation_epochs=12
cascade_candidate_change_fraction=0.010000
cascade_candidate_stagnation_epochs=12
cascade_max_out_epochs=150
cascade_min_out_epochs=50
cascade_max_cand_epochs=150
cascade_min_cand_epochs=50
cascade_num_candidate_groups=2
bit_fail_limit=1.00000001490116120000e-001
cascade_candidate_limit=1.00000000000000000000e+003
cascade_weight_multiplier=4.00000000000000020000e-001
cascade_activation_functions_count=10
cascade_activation_functions=3 5 7 8 10 11 14 15 16 17 
cascade_activation_steepnesses_count=4
cascade_activation_steepnesses=2.50000000000000000000e-001 5.00000000000000000000e-001 7.50000000000000000000e-001 1.00000000000000000000e+000 
layer_sizes=10 30 20 6 
scale_included=0
neurons (num_inputs, activation_function, activation_steepness)=(0, 0, 0.00000000000000000000e+000) (0, 0, 0.00000000000000000000e+000) (0, 0, 0.00000000000000000000e+000) (0, 0, 0.00000000000000000000e+000) (0, 0, 0.00000000000000000000e+000) (0, 0, 0.00000000000000000000e+000) (0, 0, 0.00000000000000000000e+000) (0, 0, 0.00000000000000000000e+000) (0, 0, 0.00000000000000000000e+000) (0, 0, 0.00000000000000000000e+000) (10, 5, 1.00000000000000000000e+000) (10, 5, 1.00000000000000000000e+000) (10, 5, 1.00000000000000000000e+000) (10, 5, 1.00000000000000000000e+000) (10, 5, 1.00000000000000000000e+000) (10, 5, 1.00000000000000000000e+000) (10, 5, 1.00000000000000000000e+000) (10, 5, 1.00000000000000000000e+000) (10, 5, 1.00000000000000000000e+000) (10, 5, 1.00000000000000000000e+000) (10, 5, 1.00000000000000000000e+000) (10, 5, 1.00000000000000000000e+000) (10, 5, 1.00000000000000000000e+000) (10, 5, 1.00000000000000000000e+000) (10, 5, 1.00000000000000000000e+000) (10, 5, 1.00000000000000000000e+000) (10, 5, 1.00000000000000000000e+000) (10, 5, 1.00000000000000000000e+000) (10, 5, 1.00000000000000000000e+000) (10, 5, 1.00000000000000000000e+000) (10, 5, 1.00000000000000000000e+000) (10, 5, 1.00000000000000000000e+000) (10, 5, 1.00000000000000000000e+000) (10, 5, 1.00000000000000000000e+000) (10, 5, 1.00000000000000000000e+000) (10, 5, 1.00000000000000000000e+000) (10, 5, 1.00000000000000000000e+000) (10, 5, 1.00000000000000000000e+000) (10, 5, 1.00000000000000000000e+000) (10, 5, 1.00000000000000000000e+000) (40, 5, 1.00000000000000000000e+000) (40, 5, 1.00000000000000000000e+000) (40, 5, 1.00000000000000000000e+000) (40, 5, 1.00000000000000000000e+000) (40, 5, 1.00000000000000000000e+000) (40, 5, 1.00000000000000000000e+000) (40, 5, 1.00000000000000000000e+000) (40, 5, 1.00000000000000000000e+000) (40, 5, 1.00000000000000000000e+000) (40, 5, 1.00000000000000000000e+000) (40, 5, 1.00000000000000000000e+000) (40, 5, 1.00000000000000000000e+000) (40, 5, 1.00000000000000000000e+000) (40, 5, 1.00000000000000000000e+000) (40, 5, 1.00000000000000000000e+000) (40, 5, 1.00000000000000000000e+000) (40, 5, 1.00000000000000000000e+000) (40, 5, 1.00000000000000000000e+000) (40, 5, 1.00000000000000000000e+000) (40, 5, 1.00000000000000000000e+000) (60, 0, 1.00000000000000000000e+000) (60, 0, 1.00000000000000000000e+000) (60, 0, 1.00000000000000000000e+000) (60, 0, 1.00000000000000000000e+000) (60, 0, 1.00000000000000000000e+000) (60, 0, 1.00000000000000000000e+000) 
connections (connected_to_neuron, weight)=(0, 4.30350422639284190000e-001) (1, 2.80866018002000620000e-001) (2, 4.15917365347858110000e-001) (3, 2.10909107037237310000e-001) (4, 1.81943568705978160000e-001) (5, 1.91534996138687350000e-001) (6, -1.87767308073807150000e-001) (7, -6.60362313791203450000e-003) (8, -1.23548802798004050000e-001) (9, 5.16488859884996270000e-001) (0, -1.78392027139890260000e-002) (1, -1.64297307917916800000e-001) (2, -1.19182394400788270000e-001) (3, -1.18006225345630950000e-001) (4, 1.16664632561699910000e-001) (5, 2.01396236874278430000e-001) (6, -2.42725939759741050000e-001) (7, -2.96548998147412650000e-001) (8, -1.48143242057751870000e-001) (9, -2.74857434443411040000e-001) (0, 1.99073010569832350000e+000) (1, 1.19415905044238360000e+000) (2, 3.52774747244706640000e-001) (3, 1.50731560997158370000e-001) (4, 1.04511100798101040000e-001) (5, -1.40614578304965740000e-001) (6, 1.13948897298467660000e-002) (7, 7.95201234347939040000e-003) (8, -1.94890218197448840000e-001) (9, 8.27928058566000160000e-001) (0, -8.34690009565981050000e-001) (1, 6.22527230339960160000e-001) (2, -3.75462645960942920000e-001) (3, -2.28658586496435610000e-001) (4, 6.42018776256705340000e-002) (5, -3.99958883931938530000e-002) (6, 4.37353569953405800000e-001) (7, -1.79303647922166460000e-001) (8, 3.78310061406657130000e-001) (9, 2.93361748581674050000e-002) (0, 1.07154274886918020000e+000) (1, 1.67376469017456230000e-001) (2, 2.45377150200751460000e-001) (3, -3.02011002042308410000e-001) (4, 5.20991798197894870000e-001) (5, 3.11494672541966780000e-001) (6, -2.92195978789855370000e-001) (7, -1.65716670327346690000e-001) (8, 5.01010812467614640000e-002) (9, 2.40394659272385430000e-001) (0, 8.22499251231979810000e-003) (1, -2.80700389191794740000e-001) (2, 2.42358216771664110000e-001) (3, -2.00258576672631560000e-001) (4, -4.35212486514925940000e-002) (5, 2.20299169073086940000e-001) (6, -6.24151347635144090000e-002) (7, 2.51447981658722080000e-002) (8, 4.84397950765631800000e-002) (9, -1.05022022380296730000e-001) (0, 8.44267971047387160000e-002) (1, -5.71069841113276520000e-001) (2, -4.39355359586207360000e-001) (3, -2.78862725915313240000e-002) (4, 2.56656342721242600000e-001) (5, 2.80470994549778490000e-002) (6, -2.48263515235818250000e-003) (7, 9.49619408284007590000e-002) (8, 1.05299587696111170000e-001) (9, 3.60884024451176700000e-002) (0, 8.46822361768192810000e-001) (1, -6.48016113433652480000e-002) (2, 1.21719872400200480000e+000) (3, -4.44524158014450650000e-002) (4, -1.08242788889217260000e-001) (5, 2.18157866898881250000e-001) (6, 3.53183858075283300000e-001) (7, -1.13168282790569120000e-001) (8, -5.43367257444638470000e-002) (9, 2.29708967145694910000e-001) (0, 4.09638932509725360000e-002) (1, -1.00688876759915100000e-001) (2, 4.17587305552320100000e-001) (3, -5.83700932555421830000e-002) (4, 1.09769670892547300000e-001) (5, 4.46773882551665740000e-002) (6, 1.27579933463652320000e-002) (7, -1.53137633374002460000e-001) (8, -1.75387313483615250000e-001) (9, -3.82461895601377830000e-001) (0, -1.13148697090858220000e-001) (1, -6.01231482326784920000e-001) (2, -1.40786687776169960000e-001) (3, 2.41583178566306980000e-001) (4, 4.50496945731005060000e-002) (5, -2.04037254099118460000e-001) (6, -1.55244015162906920000e-001) (7, 2.18809887191016740000e-001) (8, -1.48390462999361290000e-001) (9, 1.75208152035182670000e-002) (0, 2.24939886042143960000e-001) (1, -9.16546134268548920000e-001) (2, -4.90078271892895740000e-002) (3, 2.24383208682245660000e-002) (4, -4.03919231055454990000e-002) (5, -1.89999412845891090000e-001) (6, -2.55971220569138900000e-001) (7, 4.65784988373800220000e-002) (8, 2.93178573774893810000e-001) (9, 1.83594766095334570000e-001) (0, 2.20186780180134360000e+000) (1, -7.80142127617067110000e-002) (2, 9.71687959233401110000e-003) (3, 5.39831119383437640000e-002) (4, 4.70096919213960560000e-002) (5, -9.19105994689422970000e-002) (6, -5.07344748593878460000e-001) (7, 2.35406937100993740000e-004) (8, 5.03995837522440770000e-002) (9, -2.00425433442256470000e-002) (0, 1.58685019218613690000e+000) (1, 9.37436165502485990000e-002) (2, 5.27982446643200790000e-002) (3, -4.24548210154550130000e-001) (4, -2.30067231432599380000e-001) (5, 1.37518574294068470000e-001) (6, -5.40633259667445240000e-001) (7, 1.98013043722600700000e-001) (8, 8.79857413589842930000e-002) (9, 9.91313056385371150000e-001) (0, 2.51251974613883580000e+000) (1, 9.97065362964476560000e-001) (2, -4.42535813863220370000e-002) (3, -5.80336895150414120000e-002) (4, -4.33554441505450830000e-003) (5, 4.63098430215127050000e-002) (6, -3.86971716529778460000e-001) (7, -2.69007561346131740000e-001) (8, 8.06347596734309500000e-003) (9, 3.94754119074189670000e-001) (0, 1.14071897666496530000e-001) (1, -6.14759161754193320000e-001) (2, 7.04688899432611700000e-001) (3, -3.60688671038409190000e-002) (4, 4.04138000601670720000e-002) (5, -6.56937614298328670000e-002) (6, 2.88227049914117910000e-001) (7, 5.38463836263866620000e-002) (8, -7.20012912246244970000e-001) (9, -2.33400052743931340000e-002) (0, -2.70998370734556370000e+000) (1, -6.08657600480151270000e-001) (2, -1.97511476646376250000e-001) (3, -1.15785382583429090000e-001) (4, -7.06729951457023280000e-002) (5, 2.64160801020431840000e-002) (6, 8.40706651958739060000e-001) (7, 2.06044860577289050000e-001) (8, 6.10348250711389910000e-002) (9, 7.81682434297932270000e-001) (0, 4.43386020140570550000e-001) (1, 2.10689348595006190000e+001) (2, -1.33838410181875140000e-001) (3, -2.55695891125519820000e-002) (4, -7.90563141360753170000e-003) (5, -2.78629764674501910000e-002) (6, -1.79889283325036120000e-001) (7, -4.28683577252128160000e+000) (8, 4.08881972251509680000e-002) (9, 1.12556553018477400000e-001) (0, 1.47638485596217030000e-001) (1, 6.36764506547882050000e-002) (2, 1.00865405018588580000e-001) (3, 3.21147607482403400000e-001) (4, -6.13366698350696630000e-002) (5, -2.12523843784641180000e-001) (6, 8.29927814851309090000e-002) (7, -9.85312196166362450000e-002) (8, 8.50155656268942040000e-002) (9, -3.67842949246158680000e-001) (0, 2.29885320104407320000e-001) (1, 5.26389106045830890000e-001) (2, -1.35479272279900230000e-001) (3, 2.70525999843776400000e-001) (4, 2.95402261940476030000e-001) (5, 1.13778467838662990000e-001) (6, -7.24333111163011630000e-002) (7, -2.24896648052029660000e-002) (8, -7.03117240638842510000e-002) (9, -8.32659390599149590000e-002) (0, -2.47556230744622600000e-002) (1, -6.54609010902986840000e-001) (2, -4.12776978528878870000e-003) (3, -9.33713566385987460000e-002) (4, 2.41033332688107460000e-002) (5, -3.36499764512245650000e-003) (6, -1.61505777463394310000e-001) (7, -2.22755577085697990000e-001) (8, -1.75008775920001050000e-001) (9, -2.20659918342546240000e-002) (0, -2.63997224830414860000e+000) (1, 1.90496367145135820000e+001) (2, -4.57316909455058320000e-001) (3, -6.99740093287807510000e-003) (4, -4.71756713418219000000e-002) (5, -1.54928432125316750000e-002) (6, 5.49729832697967270000e-001) (7, -3.83552218749500810000e+000) (8, 1.34045830430387790000e-001) (9, -4.04991926070480510000e-001) (0, 9.28614178771162590000e-001) (1, 8.09932896599942830000e-001) (2, 3.26702599466068110000e-001) (3, 1.90031277903591790000e-002) (4, -3.53290701593023730000e-001) (5, 1.32007894114054610000e-001) (6, -6.83325913719643800000e-001) (7, 4.45506516117436180000e-002) (8, -1.51415331125107610000e-001) (9, 1.04216527852682100000e-002) (0, -9.16811146896365110000e-001) (1, -1.59168265971619090000e-001) (2, -2.19537801267157580000e-001) (3, 1.07595335707561720000e-001) (4, -1.30462390407860480000e-001) (5, -2.09237793808320430000e-002) (6, 4.64610194241701360000e-001) (7, 5.34540907752077630000e-001) (8, 2.53535672419020640000e-001) (9, -1.12543094245779860000e-001) (0, -6.01966525170431030000e-001) (1, -4.01549798859503260000e-001) (2, -7.81027604708244280000e-001) (3, -1.88906355182287740000e-001) (4, -2.47644459576554890000e-002) (5, -2.72558379530217000000e-001) (6, 1.08743839920388790000e-001) (7, 7.98144363304070650000e-002) (8, 1.34712446465688960000e-002) (9, -2.48633626955212540000e-001) (0, 1.16068629401694910000e-001) (1, 4.37363279222176770000e-001) (2, -1.16319781829192400000e+000) (3, 3.90484223812694740000e-002) (4, 1.36984757814843070000e-001) (5, -3.18923930429767300000e-001) (6, -9.32426532400309070000e-002) (7, -6.46142867049651490000e-002) (8, 3.00302088186523430000e-001) (9, 1.27473235071630440000e-001) (0, -2.11003930492053640000e-002) (1, -7.97977320647634820000e-002) (2, 1.45604899590583320000e-002) (3, 2.26414036153273880000e-001) (4, -7.47567168872002860000e-002) (5, -7.72847436739992070000e-002) (6, 3.54617401346355050000e-001) (7, -1.15893151001606090000e-001) (8, -2.91915832212925720000e-001) (9, -1.92323449875908940000e-001) (0, -4.73351703454077290000e-001) (1, 9.93858136163258690000e-001) (2, 3.56430040723184210000e-002) (3, 1.69599555708458800000e-001) (4, -1.27287734525010960000e-001) (5, -8.26905882719142090000e-002) (6, 2.21119423842069620000e-001) (7, 3.33585666242724900000e-001) (8, 2.38348592602602440000e-001) (9, 2.29475585422738300000e-001) (0, -8.08278563566117490000e-001) (1, 1.17127665969317270000e+000) (2, -2.43418376732345200000e-001) (3, -2.25913634024036730000e-002) (4, 1.30979594891887870000e-001) (5, 6.06992658897573340000e-003) (6, 3.48416264246999950000e-001) (7, -4.52157758894230490000e-001) (8, -1.72223639909146600000e-002) (9, -3.43274615214305130000e-001) (0, -3.18067476289398800000e-001) (1, 5.18891469904101070000e-001) (2, 3.90162803956582700000e-001) (3, -1.57141185081536930000e-001) (4, 3.94862479069056780000e-002) (5, -1.12667594826811310000e-001) (6, 1.66206300813889100000e-001) (7, 2.28585764680936690000e-001) (8, -7.89449348609666810000e-002) (9, 4.99061900432687440000e-001) (0, 1.45566033855764420000e-001) (1, 8.38820114150362890000e-002) (2, 3.03117718245483390000e-001) (3, 2.24822252632750600000e-001) (4, -2.00389490143500300000e-001) (5, -2.01809003009588230000e-001) (6, 3.34227494506361580000e-001) (7, 3.17239400327330000000e-001) (8, 1.44017718075670290000e-001) (9, 2.80789711995094730000e-001) (0, -1.79653860863326660000e+000) (1, 8.63384769324093250000e-001) (2, 1.72473906395341660000e-001) (3, -9.86833728673489340000e-002) (4, 1.04181057224585920000e-002) (5, -5.82109588933143810000e-002) (6, 5.07860802890974790000e-001) (7, -6.90958860509396140000e-001) (8, 1.58471057270959860000e-001) (9, -3.69264981561044580000e-002) (10, 4.96346052242368390000e-001) (11, 6.31656643178825420000e-001) (12, 1.22669589081396150000e-001) (13, 4.70374610490704780000e-001) (14, 3.32393020660142700000e-001) (15, 2.94630017377800090000e-001) (16, -1.50164597360685210000e-001) (17, -3.29967088896552350000e-001) (18, -4.08056218776501220000e-001) (19, 9.89180206258898580000e-001) (20, -1.94917324761598510000e-001) (21, -7.01630914624251530000e-001) (22, 2.76164063071803360000e-001) (23, 1.27888891722302860000e-001) (24, -4.22372837429354610000e-001) (25, -4.21356841066445680000e-002) (26, 8.80385242347085710000e-001) (27, 5.26169327136517650000e-001) (28, -6.15177751385161050000e-002) (29, 1.11424395872165040000e+000) (30, 5.03941541599883910000e-001) (31, 3.96205545499243970000e-001) (32, 1.54516811424771360000e-001) (33, -1.98127985996739880000e-003) (34, -4.09427703349572570000e-001) (35, 3.91324778004095430000e-001) (36, -1.11339492431694970000e-001) (37, 7.75739043632444840000e-001) (38, 5.60315302606695490000e-001) (39, 3.88675491168553540000e-001) (0, -3.66136804047759380000e-002) (1, -3.43485130429634020000e-001) (2, -9.46279103994073920000e-002) (3, 4.04718080363687170000e-001) (4, -5.22946564322295690000e-001) (5, 3.77611024110122210000e-001) (6, 3.33792354498408160000e-001) (7, 8.21034866350302760000e-001) (8, 3.27427810178145870000e-001) (9, 4.34522599165279920000e-002) (10, 5.71833964328408830000e-001) (11, 1.64827053258157270000e-001) (12, -2.27464737584976930000e-001) (13, 6.74114845919951520000e-001) (14, 3.56664626780404280000e-001) (15, 8.21533470230926380000e-001) (16, 4.13552698392354130000e+000) (17, -3.49746052492727120000e-002) (18, -4.18589943200168180000e-001) (19, 4.47539389170979300000e-001) (20, 4.52524403837505030000e-001) (21, 7.01619849335468390000e-001) (22, 5.79252626581231220000e-001) (23, -1.02833784980420710000e+000) (24, 1.32181050317700420000e-001) (25, -4.06912345634163340000e-001) (26, 1.42443520703058820000e-001) (27, -4.48163920909162520000e-001) (28, 2.43179071865455980000e-001) (29, 4.07584378623479680000e-001) (30, 4.84571624847463590000e-002) (31, 3.91218516588701770000e-001) (32, 5.10561296585625100000e-001) (33, 3.71484799103986800000e-001) (34, 5.62597677449253820000e-001) (35, 1.01098951083000420000e+000) (36, 2.45655598798879800000e-001) (37, 7.46784548626733380000e-001) (38, -1.18828762467281770000e-001) (39, -6.01045578325437480000e-001) (0, 2.51631940300179970000e+000) (1, 2.97386022366951440000e-001) (2, -2.80181098068270410000e-001) (3, 4.07483747645172420000e-001) (4, -3.71271596208496810000e-001) (5, 1.11522985175621080000e-001) (6, -1.91644713622345500000e-001) (7, -2.98281715444534450000e-002) (8, 2.54668118087017170000e-001) (9, 1.02423738705904110000e-001) (10, -5.39141040322671720000e-002) (11, 4.54955979764192500000e-001) (12, 9.09725378186749030000e-001) (13, 1.29179360796940420000e-001) (14, -1.14212050877901230000e-001) (15, 1.04754784027144020000e-002) (16, 5.24122332349499450000e-001) (17, 3.52707089870219260000e-001) (18, 9.11248286471734170000e-002) (19, 4.35287033485270260000e-001) (20, 2.31697213414920690000e-001) (21, 3.29768540966562270000e-001) (22, 4.41346092939503220000e-001) (23, -1.44680855809564830000e-001) (24, -8.36269319976270900000e-003) (25, 1.38780257432555680000e-001) (26, 4.52849629988299530000e-001) (27, -1.63555875083692960000e+000) (28, 9.98187169772762890000e-002) (29, 3.44898393540595820000e-001) (30, -1.88406629094631600000e-001) (31, -2.15708925623175170000e-001) (32, -1.28825859305985280000e-001) (33, 3.63955832957766230000e-001) (34, 1.02949401367530640000e-001) (35, 2.28866322068695090000e-001) (36, 3.09092265888282370000e-001) (37, -1.23969975487297880000e-001) (38, 5.22271417272430760000e-001) (39, 2.83664603846298930000e-001) (0, -5.89398552421026120000e-001) (1, 7.72242910191922590000e-003) (2, 3.38078486167570860000e-001) (3, -2.17972370490589850000e-001) (4, -1.28892838414980140000e-001) (5, 1.68142235633245070000e-001) (6, -1.87421206919852450000e-001) (7, 2.95291520562870170000e-001) (8, 4.51265505155837740000e-001) (9, -7.52507612399990340000e-002) (10, -6.34378808513429320000e-001) (11, 4.59898821823314540000e-001) (12, -1.03646601372036850000e-002) (13, -4.47209307998734790000e-002) (14, 3.57213361195005850000e-001) (15, 2.16295056743445400000e-001) (16, 5.45169269598758670000e-002) (17, 6.67823150462349830000e-002) (18, 2.34075638052145680000e+000) (19, 5.72142103622507500000e-001) (20, -6.83133154629883550000e-001) (21, -1.96642331547932130000e-002) (22, 1.30872655443332540000e-001) (23, 3.81202138057710920000e-001) (24, -4.39223158662006700000e-002) (25, -1.47470309682869170000e-001) (26, 6.30766575112560870000e-002) (27, 5.15512626654542670000e-001) (28, 4.45263126340808060000e-001) (29, 3.05919787625888280000e-001) (30, -3.31314571769403200000e-002) (31, -4.52736238063882120000e-002) (32, 4.68940354292925470000e-002) (33, 5.30683300541331740000e-002) (34, -1.35559585284175080000e-002) (35, 2.21087797978172630000e-001) (36, 4.86103055570498150000e-001) (37, 6.34104814683435940000e-001) (38, 3.34227225497321700000e-001) (39, 2.24903357367122050000e-001) (0, -1.87066732962728050000e-001) (1, 3.08334349064459560000e-001) (2, -1.63070649278930860000e-001) (3, 4.03171677163447710000e-003) (4, 8.28139772652485150000e-002) (5, 5.03138019777980340000e-001) (6, 1.75243058169629180000e-001) (7, 1.39691584389805950000e-001) (8, 3.07849003368861950000e-001) (9, -4.73070555476595930000e-001) (10, 6.87413930435997410000e-001) (11, 4.48973123409736500000e-001) (12, 4.09787272105358980000e-001) (13, 2.67245660426975950000e-001) (14, -2.09522969776846260000e-001) (15, -4.54131403124244710000e-001) (16, 8.02356045992339780000e-001) (17, -6.01026467026684720000e-001) (18, 3.64649915992892590000e-002) (19, -1.13413619106705260000e-001) (20, 7.53696258839690820000e-001) (21, 1.33848460466894670000e+000) (22, 2.14364689729635260000e-002) (23, -2.39765132639653910000e-001) (24, 4.91816104146240610000e-001) (25, 3.83804130907495930000e-001) (26, -1.63151603962353660000e-002) (27, 3.01251877758505480000e-001) (28, -2.35284451847566630000e-001) (29, 6.54496407472761170000e-001) (30, 5.67149661787044180000e-001) (31, 4.95667441670412710000e-001) (32, -1.61444180915299410000e-001) (33, 1.77709346957754030000e-001) (34, -1.28783742273997050000e-001) (35, 3.85669085094664580000e-001) (36, 1.20462525296802030000e-001) (37, 4.84602653126227690000e-001) (38, 7.09010074757008390000e-001) (39, 4.59636839298497910000e-001) (0, 9.55146754697171030000e-001) (1, 8.23056081635740180000e-002) (2, 3.66390459074994010000e-001) (3, 9.44189415825211210000e-001) (4, -1.04982794927120610000e-001) (5, 3.40098672194590450000e-001) (6, 7.23659260413994420000e-001) (7, 3.95014829899244080000e-001) (8, 4.44754836876528670000e-001) (9, -2.13475571674951510000e-001) (10, 2.65346193121547840000e-002) (11, 4.98875325801323430000e-001) (12, 2.63962927452575440000e-001) (13, 3.61336792494594550000e-001) (14, 1.46800964813992240000e-001) (15, 8.40486739649454200000e-001) (16, 1.81521022324415550000e-001) (17, -7.69600536499362550000e-001) (18, 2.01307590761743760000e-001) (19, 2.16068808089168340000e-001) (20, 5.17095240798151060000e-001) (21, 6.77491538606007970000e-001) (22, -2.82593823820120670000e-002) (23, 3.83715461061244630000e-002) (24, 2.25596175405631510000e-001) (25, 1.09595147579162390000e-001) (26, 4.09042520527495070000e-001) (27, -3.08841910977148690000e-001) (28, -4.65944811952762880000e-001) (29, 8.80005940974454610000e-001) (30, -1.00515947251588180000e-001) (31, 1.01911281861121730000e+000) (32, -6.27924575320797790000e-002) (33, 8.29752666391541220000e-001) (34, 7.74419126683263960000e-001) (35, 3.48086881831984440000e-001) (36, -3.62974826010390220000e-001) (37, 3.14156621934788550000e-001) (38, -9.33302099823573730000e-002) (39, 5.48574680098183000000e-001) (0, -4.84063321981080330000e-002) (1, 1.87220640049762580000e-001) (2, -2.84750890999716680000e-001) (3, 1.54514547385110030000e-001) (4, -2.22551818803197960000e-001) (5, 1.09914920405194730000e+000) (6, -2.74175135869516080000e-001) (7, -8.98409915451874650000e-001) (8, 1.78529127244777470000e-002) (9, -1.36472878020520080000e-001) (10, 2.19197624701234110000e-001) (11, 4.64503050540713610000e-001) (12, 1.10954467559948380000e-001) (13, 5.00645495099958590000e-001) (14, 1.21389050004469350000e-001) (15, 6.29735381687144160000e-001) (16, 1.76272565565406570000e-001) (17, -2.29821636545484010000e-001) (18, -3.40508360764215290000e+000) (19, 2.75367867934277200000e-001) (20, 2.44718092566325210000e-001) (21, -3.43344919452691850000e-001) (22, 4.52295305224312490000e-001) (23, 6.65212626794541180000e-001) (24, -3.09366868695856220000e-001) (25, 3.21724966868009000000e-001) (26, 1.62633698540879720000e-001) (27, -1.76187914719941080000e-001) (28, 1.36014738040068920000e+000) (29, 5.54949974206937920000e-001) (30, 8.73471881091470170000e-002) (31, -5.54352479723788870000e-001) (32, 3.70699811862116040000e-001) (33, 9.11159409727635150000e-002) (34, -3.37921310564676560000e-001) (35, 5.34016680344870040000e-001) (36, -2.78227614016244400000e-002) (37, 5.07881959946783650000e-001) (38, 4.56235243300285700000e-001) (39, 1.06651408465136720000e+000) (0, 1.00254869801586350000e+000) (1, -2.87816443019070330000e-001) (2, -9.66582607982154340000e-002) (3, -2.74139653796623470000e-001) (4, 2.62260218996922980000e-002) (5, 1.63087164123209500000e-001) (6, -1.62422330521075710000e-001) (7, 5.66767284581976340000e-001) (8, 4.30859565399154650000e-001) (9, 1.37846291685058080000e-001) (10, 4.56656602793354470000e-002) (11, 5.40445646013882790000e-001) (12, -1.29520899986622330000e-001) (13, -1.62561149432547540000e-001) (14, 1.15838666446065820000e-002) (15, 3.06132295575504920000e-001) (16, 4.14777782931834200000e-001) (17, -1.57904747052247020000e-001) (18, 4.80016113875706140000e-001) (19, 1.69802585592427250000e+000) (20, 5.55363926437115740000e-001) (21, -1.68795532897524580000e+000) (22, -2.51506560222284280000e-002) (23, 3.82826171658285530000e-001) (24, 3.64503958600431720000e-001) (25, 1.97827545280551880000e-001) (26, -1.13470474259862190000e+000) (27, 2.51089240444294590000e-001) (28, -1.32503647140921770000e-002) (29, 8.97503628124143530000e-001) (30, 3.12221240969656370000e-002) (31, 1.19360556359878260000e-001) (32, 6.12140317275561730000e-001) (33, 1.53263015052543750000e-003) (34, -1.16904794756099450000e-001) (35, -9.87216696755332860000e-004) (36, 5.68099726880664240000e-001) (37, -6.82294297931914510000e-003) (38, -6.98257077503122300000e-002) (39, 1.13766200186275310000e-001) (0, 2.45685331173430530000e-001) (1, 4.38315756523635640000e-001) (2, 2.53852819831819070000e+000) (3, 4.17268550812903150000e-001) (4, -2.07224538149179710000e-001) (5, 9.34403766184391110000e-002) (6, -2.16625029736555700000e-001) (7, 5.14314599189091500000e-001) (8, 3.29224675444804720000e-001) (9, 7.64840596895597250000e-001) (10, -1.45547892809249290000e-001) (11, 4.79751856963103960000e-001) (12, 1.32380687230488070000e-001) (13, 6.71171326786381580000e-001) (14, 2.70748851423765420000e-001) (15, 7.64431560649947660000e-001) (16, -4.45325674773061510000e-001) (17, 2.06408480804839170000e-001) (18, 4.01117183185167030000e+000) (19, 5.41366550235799830000e-001) (20, 2.19194759935088160000e-001) (21, -3.49935786580480020000e-002) (22, 3.42883732778539730000e-002) (23, -4.10234983610526900000e-001) (24, 4.42115610658212920000e-001) (25, -2.48232404019596700000e-002) (26, 1.56344220538679470000e-001) (27, 4.40687720006355640000e-001) (28, -2.25545050154786350000e-001) (29, 4.64980147730171050000e-001) (30, -1.10203047517744520000e-002) (31, 6.01531843980013140000e-001) (32, -1.32396662070445560000e-001) (33, 2.17875373060423230000e-001) (34, 3.47673021201976460000e-001) (35, -5.00058202925486170000e-002) (36, 8.76984860411472390000e-001) (37, 2.32170985364189900000e-001) (38, 4.67219273256033910000e-001) (39, 2.07968076221878880000e-001) (0, -8.30332282578949000000e-002) (1, 5.44912079263913720000e-001) (2, -1.87372996069437650000e+000) (3, 6.53575535443724490000e-002) (4, 1.02927819486043110000e-001) (5, 1.40254259093030050000e-001) (6, -1.19511762424057990000e-001) (7, -5.91162035322773570000e-004) (8, 2.34062542236322840000e-003) (9, -1.82938657858200020000e-001) (10, 1.23978493252021430000e-001) (11, 8.00528579934712270000e-001) (12, 1.84793831802918140000e-001) (13, 6.09919304234789790000e-001) (14, -3.45004478746003370000e-001) (15, 8.30769858994420460000e-001) (16, 1.78579678181759350000e+000) (17, 1.14876748531611260000e-001) (18, -2.19975557430635330000e+000) (19, 6.98337897350539970000e-002) (20, 6.13597066268196770000e-001) (21, 1.28161763607853720000e-001) (22, -1.08264337564249340000e-001) (23, 7.71009277448009620000e-001) (24, -4.74878500197236710000e-001) (25, 1.23097192451748650000e-001) (26, -5.66816052166397850000e-001) (27, 4.58802845160708680000e-001) (28, -2.89298690469521780000e-001) (29, 6.16884294593581630000e-001) (30, 9.69984576614248140000e-002) (31, 2.99598886493353760000e-001) (32, 3.10849133622481570000e-001) (33, 7.16754162141244210000e-001) (34, -1.84836934401603040000e-001) (35, 5.18522033212608370000e-001) (36, 1.37110800314306970000e-001) (37, 2.37235341545545380000e-001) (38, 2.72535088491362320000e-001) (39, 2.50368659871160750000e-001) (0, -1.70132452956939770000e-001) (1, -5.64436146543063400000e-001) (2, -3.28339014725341220000e-001) (3, 1.12553079373080440000e-001) (4, 1.45121151432535930000e-001) (5, 3.74911763811719370000e-001) (6, -2.74615812540336010000e-001) (7, 1.56964201200225530000e-001) (8, 1.28354725983637200000e-001) (9, -3.01946313023702280000e-001) (10, -3.31401473602151110000e-001) (11, 7.88187489504237780000e-001) (12, 7.55891242916269750000e-001) (13, 1.96614351175346360000e-002) (14, 5.67955742021046680000e-002) (15, 2.94866067817291740000e-001) (16, 1.18443222998402810000e-001) (17, 3.82602022997156510000e-001) (18, -1.26414360673285030000e-003) (19, 4.26035750859991510000e-001) (20, 3.05335549823025580000e-001) (21, 6.66286314947932560000e-001) (22, 3.21261558581378450000e-001) (23, 3.62236251157711020000e-001) (24, 5.06833845185511270000e-003) (25, -9.26083789264239840000e-002) (26, -5.01018132439616790000e-001) (27, 5.77301816432800430000e-001) (28, -7.52668511727063730000e-001) (29, 1.34371273222246850000e+000) (30, -3.13506063153381200000e-001) (31, -1.39324434913778940000e-001) (32, 3.81465548033620700000e-001) (33, 8.99957020010118120000e-002) (34, 2.06774361696847570000e-001) (35, 1.69704483531508050000e-001) (36, 2.97087960759459590000e-001) (37, 1.24672140703250600000e-001) (38, 2.71743950313690140000e-001) (39, 2.35966316403876550000e-001) (0, 7.91745946339300730000e-001) (1, 1.55139908200320000000e+000) (2, -2.50726431595898860000e-001) (3, -2.72325095345165360000e-001) (4, -2.68636951432593420000e-001) (5, 1.06616697107416350000e-001) (6, -1.55004344017069500000e-001) (7, -2.12130576617660410000e-001) (8, -3.17871253265703810000e-002) (9, -3.58234544948024480000e-001) (10, -1.13954084422182130000e-001) (11, 2.23316666397331580000e-001) (12, -2.94950744235222900000e-002) (13, 1.25664431219592230000e-001) (14, -5.11094112151755170000e-002) (15, -1.43711409719836230000e-001) (16, 1.88389183860809860000e-001) (17, -2.89469517443264710000e-001) (18, 7.48219953252382550000e-001) (19, -2.00102944627737760000e-001) (20, 3.82725100796730610000e-001) (21, 4.52695580863626820000e-001) (22, -4.38665858114518140000e-001) (23, 1.79176491661152380000e-001) (24, -4.74873740744817590000e-001) (25, 7.87840599245915870000e-002) (26, -1.07524235452958730000e+000) (27, 6.45311736186086060000e-001) (28, 6.23368991881463400000e-002) (29, 6.93214324255859160000e-001) (30, -6.53713956623547920000e-001) (31, -1.48569992287177990000e-001) (32, -1.82353729812963520000e-001) (33, -4.26246581117840690000e-001) (34, -3.97576716079699970000e-001) (35, 3.60593854709310440000e-001) (36, 9.20245594801962110000e-001) (37, 3.15658871101568210000e-001) (38, 3.53099706302104300000e-001) (39, -1.84763839463435000000e-001) (0, 3.32509253322886780000e-001) (1, -3.10158954060048510000e-001) (2, 1.45877800969688440000e-001) (3, 5.38678128534011200000e-001) (4, -1.91967512169978290000e-001) (5, -1.67304626290067510000e-001) (6, -3.77817108357943740000e-002) (7, -1.64155686889912440000e-001) (8, -5.41421394996566940000e-001) (9, 3.64034597490938800000e-001) (10, -1.20460020573512130000e-001) (11, 2.40534260990182130000e-001) (12, -5.48632271003861030000e-002) (13, 8.35543695667346210000e-001) (14, 3.53312127081896910000e-001) (15, 4.98437244412031910000e-001) (16, 6.77717010549403480000e-002) (17, 1.39125877257099790000e-001) (18, -1.16112545606674940000e-001) (19, -4.27079662151047150000e-001) (20, 1.36200651701465470000e-001) (21, 1.93169466458595620000e-001) (22, 2.45883355865496010000e-001) (23, -4.39368036691565320000e-001) (24, -5.68842002762176560000e-001) (25, -6.57815431080306710000e-001) (26, 5.27473195049328440000e-001) (27, -6.19356311149275470000e-001) (28, 1.06659031590951820000e-001) (29, 1.49417654450614940000e-002) (30, -1.03916822664739550000e-001) (31, 1.54909106092685710000e-001) (32, 8.23321132828374270000e-001) (33, 4.76160173351610590000e-001) (34, 1.07853294947233370000e+000) (35, -7.48590586654740430000e-003) (36, 2.77030178864487930000e-002) (37, 5.42879978551987660000e-001) (38, -2.66593832366928460000e-001) (39, -1.49598435598550490000e-001) (0, 4.06480859918485370000e-001) (1, -6.72131696070768610000e-001) (2, 4.16546237847915500000e-001) (3, -2.01746738666178590000e-001) (4, 2.36616389330624010000e-001) (5, -3.48728673135342140000e-002) (6, 1.20699290931642570000e-001) (7, 3.77064951912245980000e-001) (8, 3.91464773643732780000e-001) (9, 5.60687157743494420000e-001) (10, 3.02410952826670520000e-001) (11, -1.86460709251816960000e-001) (12, -3.02879012975897640000e-001) (13, -1.45588802067582320000e-001) (14, 4.10456698696176680000e-001) (15, -1.62146860775223390000e-001) (16, -3.51608675650614320000e-001) (17, 8.45737631657694220000e-001) (18, 2.28236675420216610000e-001) (19, 6.62191432774829060000e-001) (20, 4.08719393862095120000e-002) (21, 1.96475962043045040000e-001) (22, 4.25267721349180620000e-001) (23, -2.43642894605291510000e-001) (24, 7.80937091166427620000e-001) (25, 7.50932740603492550000e-002) (26, -6.06449457527595380000e-001) (27, -2.42843753100201760000e-001) (28, 3.08303797989468220000e-001) (29, 2.15395717976671620000e-001) (30, 2.36697874516450040000e+000) (31, 7.25291781317512490000e-001) (32, -1.98113129837090040000e-001) (33, 4.42906692180724090000e-001) (34, -6.81285433640285150000e-002) (35, 2.52774910654143590000e-001) (36, 3.85588083546248570000e-001) (37, -5.07539794472885440000e-001) (38, -1.82905771114830350000e-003) (39, -8.74930483084970790000e-002) (0, -6.42109425462917600000e-001) (1, 2.83114939693623110000e-001) (2, 4.92093550875175420000e-001) (3, 3.65318917291661380000e-001) (4, 5.65932935996198320000e-001) (5, -1.95400198089046460000e-001) (6, 2.91527582665932590000e-002) (7, 4.59638204755713210000e-001) (8, 2.30134645203493110000e-001) (9, 5.52661363890258770000e-001) (10, 2.46859346570589350000e-002) (11, 4.19157535700106050000e-001) (12, 5.09426913715913200000e-001) (13, -2.86467407628181790000e-001) (14, -3.08691972976453120000e-001) (15, 1.35348160661721130000e+000) (16, 1.24877248136160300000e+000) (17, 5.75162359023068560000e-001) (18, 7.63894474364971930000e-001) (19, 9.07502432430471240000e-001) (20, 3.93903237765412810000e-001) (21, -1.64285543803926440000e+000) (22, -6.00668082008601220000e-001) (23, 5.41863059207407180000e-001) (24, 1.27924658196886700000e+000) (25, -4.38760050812508300000e-001) (26, -4.07795883648198470000e-001) (27, 1.29942810958610670000e+000) (28, -5.71260378817066370000e-001) (29, 8.18394418200117490000e-001) (30, 8.48612899909859520000e-002) (31, 3.75202286659978730000e-001) (32, -2.33727806385258890000e-001) (33, 1.14917204200898570000e-001) (34, 2.63399010899608430000e-001) (35, -3.13762666465860260000e-001) (36, 3.61342482821473740000e-001) (37, -3.08802901832085160000e-002) (38, 6.74979073466797750000e-001) (39, 1.12912886370645980000e+000) (0, 4.66222465454269320000e-001) (1, -8.65766519753414680000e-001) (2, 4.31070725381650980000e-001) (3, 9.22680057256608510000e-001) (4, -7.16469411629879870000e-001) (5, 4.17503556932146470000e-001) (6, 3.34039083541843530000e-001) (7, -2.87066952797472240000e-001) (8, 1.88885567421200160000e-001) (9, 1.39001060159059720000e-001) (10, -1.60391305202870450000e-001) (11, 3.04292169412325620000e-001) (12, 7.33356835176676710000e-002) (13, 5.89128772020637180000e-001) (14, 1.06118665363665480000e+000) (15, 7.12323804800017110000e-001) (16, -8.05168140386796630000e-001) (17, 3.77101997792939900000e-001) (18, -3.03073328209473300000e-001) (19, 1.64614515850135910000e+000) (20, 2.61029574030348930000e-001) (21, 4.07277164474202200000e-001) (22, 6.69968468981251290000e-001) (23, -6.05844802447787600000e-001) (24, 7.83300755180453970000e-002) (25, 1.23200866177386300000e+000) (26, 6.83708461352673820000e-001) (27, -1.92906311629493790000e-001) (28, 2.78656614083073020000e-001) (29, -8.09894298113190690000e-002) (30, 5.54371984217885580000e-001) (31, 6.65747306183685270000e-001) (32, -2.21298953145697250000e-002) (33, 7.87233663122014700000e-001) (34, 1.06565816027518910000e+000) (35, 7.72572072139363080000e-001) (36, 3.10812097632855060000e-001) (37, 3.58276884112301910000e-001) (38, -1.61484325283097250000e-001) (39, -1.94698617563432350000e-001) (0, -2.37234476727503730000e+000) (1, 3.18506201154204360000e+000) (2, 3.36513641536687720000e-001) (3, 3.01363598150322210000e-001) (4, -3.74309476764114020000e-001) (5, -3.50645620023862010000e-001) (6, 3.55008071272149120000e-001) (7, -4.95118411429713690000e-001) (8, 3.31360090496427340000e-001) (9, 4.91119626931678430000e-001) (10, -6.08272225372692220000e-002) (11, -1.85126732870462160000e-001) (12, 1.58167037555924580000e-002) (13, -5.75622982768260520000e-001) (14, 2.31810262284176810000e-001) (15, 4.66572545212734170000e-001) (16, 1.52298997862217660000e+000) (17, 3.74717486972081680000e-001) (18, -6.46485983666810760000e-001) (19, -8.00871165097472580000e-001) (20, -7.70022847025179540000e-001) (21, 2.24690131826381290000e+000) (22, 2.14577068994244170000e-002) (23, 1.38239097695896510000e+000) (24, 3.35972785682007840000e-001) (25, 7.16811310462165510000e-001) (26, 1.01821601465276350000e+000) (27, -5.48267541554305680000e-001) (28, 4.08512432398801360000e-001) (29, 1.09534581649123130000e+000) (30, 1.12441276111720320000e+000) (31, 3.75827147222189130000e-001) (32, 5.63855967886012920000e-002) (33, 2.68516631450213710000e-001) (34, 4.55037178086986630000e-001) (35, 3.59776993815370040000e-001) (36, 1.98978462221321210000e-001) (37, -2.67542688451227400000e-003) (38, -2.07202987919884090000e-001) (39, -7.64910473659727030000e-002) (0, -2.30382574547881360000e+000) (1, -9.98357379492157640000e-001) (2, 1.94212340175716670000e-001) (3, 5.42105266001019710000e-001) (4, -1.29406388671689330000e-001) (5, 5.73387612988322750000e-001) (6, 3.63578288721354000000e-001) (7, 1.95755523736124510000e-001) (8, 4.50135490349041210000e-001) (9, 3.85572867708948770000e-001) (10, 6.45843610434457040000e-001) (11, 5.12750057770327780000e-001) (12, 6.58878091510058940000e-001) (13, 6.18093519598594150000e-001) (14, 2.66398308898722290000e-001) (15, -2.39989149583676650000e-001) (16, 9.27662474082951330000e-001) (17, 1.37374798841267770000e-001) (18, 2.61842004532654120000e+000) (19, 9.73008522792434440000e-001) (20, 3.98286931616786240000e-001) (21, -3.93056770669752480000e-001) (22, 6.53999508606070150000e-001) (23, -2.84993124501965340000e-001) (24, 2.97390000669219070000e-002) (25, 1.12767786322893600000e-001) (26, -1.57347680113923190000e+000) (27, 2.48952742555176820000e-002) (28, -1.94255552120649440000e+000) (29, 7.04657885391907990000e-001) (30, 2.73965681267855250000e-001) (31, 3.64053810442484140000e-001) (32, 3.90704884095999350000e-001) (33, 1.12151943290705700000e+000) (34, 6.35202790372617180000e-001) (35, 1.03216742894360650000e+000) (36, 3.67158239401311930000e-001) (37, 6.79388367604506490000e-001) (38, 4.88781437168111370000e-002) (39, -2.47618100122211030000e-001) (0, 7.91984507673499480000e-001) (1, -1.15144917716298910000e+000) (2, -1.37663201617275690000e-001) (3, -2.83840350510110690000e-001) (4, -9.91031637358588680000e-002) (5, 2.86658016510308810000e-001) (6, 5.51391452410938610000e-002) (7, 7.15122209844837990000e-001) (8, -4.34076746766897320000e-002) (9, -6.78842360994006270000e-002) (10, 1.67209244056858330000e-001) (11, 3.15202138288872890000e-001) (12, -2.87860781697705460000e-001) (13, 5.42086419616702180000e-002) (14, -3.63459960963886160000e-001) (15, 2.14626733629786140000e-002) (16, 4.69141504640397440000e-001) (17, -7.72317566249676040000e-002) (18, 3.29089817980336710000e-001) (19, -1.36132523614074960000e-001) (20, 3.66461554150411370000e-001) (21, 8.88151396164939320000e-001) (22, -3.22471582475070410000e-001) (23, 3.57214184859174610000e-001) (24, -2.05832161839273190000e-001) (25, -9.14815520160443650000e-001) (26, -1.30691463527204310000e+000) (27, 3.84531284428211110000e-001) (28, 1.33572082421524130000e-001) (29, 8.82501755716508130000e-001) (30, -1.49494504860952120000e-001) (31, -5.70835440710453570000e-002) (32, -4.34308544092933620000e-001) (33, -6.96819758722857090000e-002) (34, -6.77095851487392180000e-002) (35, 1.96430909014826180000e-001) (36, 8.21472196953703330000e-001) (37, -3.14112427981069250000e-001) (38, 4.81292784752391070000e-001) (39, -2.28776484486553840000e-002) (0, -6.51718558506606760000e-001) (1, -8.90654938772227460000e-001) (2, 2.97087566409297120000e-001) (3, 2.34716409432044580000e-001) (4, -4.46572186941454400000e-001) (5, 7.44639383311065110000e-002) (6, 2.71836093787639620000e-001) (7, 1.37593603149323920000e-001) (8, 1.39807470697663560000e-001) (9, 4.67774296324869550000e-001) (10, 6.71579875449539120000e-001) (11, 1.19254530988843910000e-001) (12, 5.95894925289415650000e-002) (13, 4.74357947214580580000e-001) (14, 3.10489702436645750000e-001) (15, 9.00823732539569040000e-001) (16, -2.97213833881899080000e-002) (17, 6.24777128958450830000e-001) (18, 2.32941887506106630000e+000) (19, 1.12712922351692570000e+000) (20, 2.07545310553944120000e-001) (21, 2.53935157223816770000e-001) (22, 1.17003704040988310000e-001) (23, 5.11823082015394730000e-001) (24, -4.57914528600428320000e-002) (25, -1.84025675102443860000e-001) (26, -1.85542291048398590000e-001) (27, -4.52633672536856100000e-001) (28, -4.56490113512088080000e-002) (29, 9.69996590702576380000e-001) (30, -1.67914910037255370000e-001) (31, -3.45154803642483910000e-001) (32, 1.68155630098151070000e-001) (33, 3.09788095407181660000e-001) (34, 1.05072505738095190000e+000) (35, 7.14165327246412960000e-002) (36, 6.54740315192248290000e-001) (37, -7.87733925095495670000e-001) (38, 4.00115589523711290000e-001) (39, 1.39854138684993720000e-001) (0, 4.73794296004832060000e-002) (1, -2.63186185881880030000e-001) (2, 1.66054921209705910000e-001) (3, 2.02131337811176090000e-001) (4, -3.26061915753677930000e-001) (5, 9.47573336675722880000e-002) (6, -5.39512968392897030000e-002) (7, 4.67903794678578340000e-001) (8, -5.20367270056349350000e-002) (9, -5.54020697735598050000e-002) (10, 4.55468340763586610000e-001) (11, 6.22062512635205070000e-001) (12, 2.64851512139792360000e-001) (13, 3.38803104746292660000e-001) (14, 4.07540365770579620000e-001) (15, 6.94791992183692360000e-001) (16, 6.16170054448777040000e-001) (17, 2.61290526669760770000e-001) (18, 6.48931157676644110000e-001) (19, 3.24126902441051800000e-001) (20, 9.73464591013313060000e-001) (21, 8.06785761468775810000e-002) (22, 1.31102314190762150000e-001) (23, -3.60810310334031990000e-001) (24, -1.11936907777150890000e-001) (25, 5.20834402542626030000e-001) (26, -1.48123114583716190000e+000) (27, 5.74664520386298670000e-001) (28, -1.81739976540587940000e-002) (29, 5.58758857469675020000e-001) (30, 4.02178431828116970000e-001) (31, 2.72414443128649540000e-001) (32, 5.25781907387081400000e-002) (33, 6.72936579008137190000e-001) (34, 1.64403277715021170000e-001) (35, 8.02780128949053710000e-001) (36, -1.14979440947689220000e-001) (37, 1.52571651567728450000e-001) (38, 3.59207535534272480000e-001) (39, 3.32968370065343630000e-001) (40, 6.27310630941586230000e-001) (41, -1.68774937238726530000e-002) (42, 3.68640695379982670000e-001) (43, 3.50838761421405080000e-001) (44, -2.00022307165969250000e-001) (45, -1.18984300213779380000e-001) (46, -1.33684413484960450000e-002) (47, 3.45534469043779380000e-001) (48, -2.37441663916365430000e-002) (49, -1.29878408765824820000e-001) (50, -9.04755808149652060000e-001) (51, 2.85258648399696780000e-001) (52, 3.43718562377435370000e-001) (53, 1.31109060041412320000e-001) (54, -2.18712075391604320000e-002) (55, -5.30990909699995340000e-002) (56, 1.92765498026292460000e+000) (57, 1.74400802325594070000e-001) (58, 1.17875141150958160000e+000) (59, -2.69973673682030790000e-001) (0, -2.79579349109652820000e-001) (1, -1.19706985786284890000e+000) (2, -1.48951564211826510000e+000) (3, 2.01677191932554100000e-001) (4, -1.77836542414284790000e-001) (5, 5.67782234023134490000e-002) (6, 1.37735430522254450000e-001) (7, 5.29770465962145940000e-001) (8, 1.77210346444956840000e-001) (9, -2.44295753837448020000e-002) (10, 2.61916797727810510000e-001) (11, 2.21634699426768480000e-002) (12, 2.18888679100648300000e-001) (13, 2.39551893735601180000e-001) (14, 1.59629715768178280000e-001) (15, 9.47956331541904510000e-001) (16, 7.34546159294494410000e-001) (17, -6.18648480264903720000e-002) (18, 9.65931840210287470000e-002) (19, 5.33014664275930360000e-001) (20, 4.88928940456694990000e-001) (21, -4.31678660565249820000e-003) (22, 2.01683721853923050000e-001) (23, 2.96622003014029740000e-001) (24, -4.35025466903711410000e-001) (25, 1.36106688536881880000e-001) (26, -5.93038609210428280000e-001) (27, 2.76713446259391370000e-001) (28, -7.68012543064996720000e-002) (29, -1.40443487238132240000e-001) (30, -7.71074740472757900000e-002) (31, 4.94915451838539800000e-001) (32, 4.37682646108391470000e-001) (33, 1.26426131342331560000e+000) (34, 6.15377472148562090000e-001) (35, 5.13639240462491650000e-001) (36, -3.57624422385522330000e-001) (37, 7.18223830945683870000e-001) (38, -7.33544033425552520000e-001) (39, -1.83149107195810370000e-001) (40, 1.41076824999805310000e-001) (41, -2.65452948531550840000e-004) (42, 9.67132577376691030000e-002) (43, 1.43486265800722380000e-001) (44, -3.98008349842449150000e-002) (45, -2.05619845053167440000e-001) (46, 1.20006352319787100000e-001) (47, -4.35307139230388330000e-001) (48, 5.23093575841094620000e-001) (49, -1.25440947553057150000e+000) (50, -2.14040004847435380000e-001) (51, 3.88140696882527610000e-001) (52, -8.08352076382492730000e-001) (53, 4.05340434438794420000e-001) (54, -2.65316151423870100000e-002) (55, -1.11589054301511460000e-001) (56, -2.10824183282455970000e-001) (57, -3.50730237875924330000e-001) (58, -2.78773583361697770000e-001) (59, 5.69737761988410090000e-001) (0, -5.86905564637452690000e-001) (1, 3.54222534415173930000e-001) (2, -3.01721637810324240000e+000) (3, 5.77825393339776450000e-002) (4, -5.49698125777508890000e-002) (5, 5.17837055571797180000e-002) (6, -1.98212135545391550000e-001) (7, 1.13513921843751450000e-001) (8, 4.88826101486124490000e-001) (9, -3.85710177348285330000e-001) (10, -5.28785595097171710000e-001) (11, 1.14336640037016810000e-001) (12, -1.25567481445651020000e-001) (13, 4.00736993181741550000e-001) (14, 1.06826765367286310000e-002) (15, -5.05216480286720280000e-001) (16, 1.07916813275644570000e+000) (17, -4.23279037771906620000e-001) (18, 3.44025003056493810000e-001) (19, -2.74730957934679280000e-001) (20, -3.72304417475992580000e-001) (21, 1.41506573782374720000e-001) (22, 3.18008196263977690000e-001) (23, 4.37254838486942690000e-001) (24, -3.96073612884768720000e-001) (25, 8.61517606733260830000e-001) (26, 8.08902022849917860000e-001) (27, 2.18947174616593100000e-001) (28, 2.08105918094674210000e-001) (29, -1.33116388401708420000e-001) (30, 2.84888211198328580000e-001) (31, 3.03315193633342190000e-001) (32, 2.60806168634702410000e-001) (33, 3.38714523299132380000e-001) (34, 1.41556682231992410000e-001) (35, 5.09934226749352740000e-001) (36, 1.36522522031651490000e-001) (37, 1.61014645179646810000e-002) (38, -4.86683225529101480000e-001) (39, -2.52186656988793610000e-001) (40, -1.04433929674804280000e-001) (41, -1.60468289685333300000e-001) (42, 4.16042652195014520000e-001) (43, -2.63242022158301780000e-001) (44, 6.37172685857601420000e-002) (45, -4.50439865260786330000e-002) (46, 5.89539977391862410000e-002) (47, 1.56154280290926180000e-001) (48, 3.14320685698069760000e-001) (49, -7.89426905671905880000e-001) (50, 6.19930888835277470000e-001) (51, 7.02392393216500710000e-001) (52, -9.17401645835563380000e-001) (53, 3.72086832537497500000e-002) (54, 4.87059249146921180000e-002) (55, -9.38815095858431950000e-002) (56, 1.55623650293345180000e-001) (57, 1.56630795589100170000e-001) (58, -3.32832065120140690000e-001) (59, 1.19166884665502690000e+000) (0, 9.39352803969755070000e-001) (1, -4.59038044195431590000e-001) (2, 2.91158106316533220000e-001) (3, 2.76262986038736340000e-001) (4, 8.08586630918104590000e-002) (5, 1.20897928086555100000e-001) (6, 3.83074881557766530000e-001) (7, 1.21025261005119840000e-001) (8, -6.28521867636321340000e-002) (9, 1.49534775870399090000e-002) (10, 6.72373666775720300000e-001) (11, 1.81571044641454650000e-001) (12, 8.06315060389241890000e-002) (13, 1.55862040978442890000e-001) (14, 1.22716464067313430000e-001) (15, -1.36832962719565740000e-001) (16, -8.22895009927946260000e-002) (17, 6.90278411094479430000e-002) (18, 4.54492302590623010000e-001) (19, -5.07356326647831480000e-002) (20, 6.54599069339291680000e-001) (21, -3.22804012593706360000e-002) (22, 4.83671618396674940000e-001) (23, -1.06836071122571370000e-001) (24, 3.00005937522198230000e-001) (25, 1.77472056941219370000e-001) (26, 7.80775548104426510000e-001) (27, -2.74144548929042110000e-001) (28, -3.25242113639055860000e-001) (29, 2.33248188520545850000e-001) (30, 2.94767834352502700000e-001) (31, 1.78078120548531370000e-001) (32, 2.71109189094072330000e-001) (33, 5.11683672446287540000e-001) (34, -5.50980073668127580000e-002) (35, 2.83701156512386250000e-001) (36, 1.69841166995159180000e-002) (37, 6.46103193384452770000e-001) (38, 4.82719186212866640000e-001) (39, 6.01322059852357870000e-001) (40, 1.06140560738826780000e+000) (41, 5.96121941736814030000e-002) (42, -1.12890877827457150000e-001) (43, 8.39798704371898240000e-002) (44, -3.91958163080325050000e-001) (45, 2.78897221684270040000e-002) (46, 2.28585524456969770000e-002) (47, 1.36553416534628960000e+000) (48, -4.56255533709200920000e-002) (49, -1.46065118536902100000e-001) (50, 9.60898113995341090000e-001) (51, 1.49460267299552250000e-001) (52, 4.01568681487517180000e-001) (53, -5.33670708630084030000e-001) (54, -5.05173578216205690000e-002) (55, -1.23309152718984720000e-001) (56, 1.12085079303140210000e-001) (57, -6.67348554402569680000e-001) (58, 4.90339150926687340000e-001) (59, -2.88961130259539570000e-001) (0, -5.87264181293581160000e-001) (1, 5.79889193654629320000e-001) (2, -8.85715280294796100000e-002) (3, 5.52854288108179380000e-002) (4, -3.35120962009109900000e-001) (5, 4.51355624590629450000e-001) (6, -1.12190026188291350000e-001) (7, 2.46515923603925410000e-001) (8, -3.47789359396261380000e-001) (9, -1.06795187751294850000e-001) (10, -2.08773109218823420000e-001) (11, 4.87264887086176930000e-001) (12, 1.02820162245767220000e+000) (13, 4.52930137185617310000e-001) (14, -3.80320415238160350000e-001) (15, 5.57638448187258830000e-001) (16, 6.71234262896473810000e-001) (17, -8.56401081915877100000e-002) (18, 2.36821394871637070000e-002) (19, 9.64039582326881920000e-001) (20, 2.12444837719969660000e-001) (21, -9.17071337133739340000e-001) (22, -2.70330220271956580000e-001) (23, 2.94169160929944990000e-001) (24, 2.48490029835920580000e-001) (25, -5.52430307306284950000e-001) (26, 2.57181235644770790000e-003) (27, 6.28309116576500900000e-001) (28, -2.29791316863377750000e-001) (29, 3.92840465730772190000e-001) (30, 4.67970330037553120000e-001) (31, -1.47920544794862800000e-001) (32, -5.14071948292492360000e-001) (33, 1.58309758988430630000e-002) (34, -3.45632764865221820000e-001) (35, 4.14118054661011590000e-001) (36, 2.84857133261873750000e-002) (37, 1.24565091187918010000e+000) (38, 6.36613314689914780000e-001) (39, 5.06591712113532040000e-001) (40, 1.01576556938062830000e-001) (41, 3.10227054812554080000e-001) (42, 1.07757018312385100000e-001) (43, 2.54841369859175550000e-001) (44, -3.40246757315197770000e-001) (45, -1.57145127859420140000e-001) (46, -1.69318641381802000000e-001) (47, -4.43823991522033640000e-002) (48, 1.42647133394327710000e+000) (49, 1.27078656254541270000e+000) (50, 6.23046345439512980000e-001) (51, -4.13862582842506770000e-001) (52, 1.02552904609297160000e+000) (53, 1.26722658162398060000e-001) (54, -5.71326427467867270000e-002) (55, -1.86430252957498770000e-001) (56, 6.85934723159444500000e-003) (57, -7.16470311450043000000e-002) (58, 3.71385044177702740000e-001) (59, 1.52035508040014890000e+000) (0, 7.36102644823415360000e-002) (1, -2.05556630284310160000e-002) (2, 1.34813079167902470000e-001) (3, 1.09977765519872590000e-001) (4, 6.89792556348725190000e-002) (5, 2.14636757785948370000e-001) (6, -4.66303792556855280000e-002) (7, 5.03449752521531460000e-001) (8, 2.41504911832118790000e-002) (9, 7.79580583157243880000e-001) (10, 2.72124167786159830000e-001) (11, 3.37517755010234570000e-001) (12, -5.65200699172613950000e-001) (13, 4.88847667536296490000e-001) (14, 1.11230241311658540000e-001) (15, 6.51937159886660570000e-001) (16, -2.81424205189559020000e-001) (17, -1.26311993382036000000e-001) (18, 5.63576433144691080000e-001) (19, 4.00333569538702800000e-001) (20, 3.88535977410848110000e-001) (21, 1.97355817131059100000e-001) (22, 4.38316353834006580000e-001) (23, 5.13751082658203410000e-002) (24, 7.20590159624509230000e-001) (25, -1.47948933555128500000e-001) (26, -1.25622144623664080000e-001) (27, -8.91975031376894130000e-002) (28, 3.14192963848747010000e-001) (29, 6.38319589169259900000e-001) (30, 2.81859585276221240000e-001) (31, 1.06403966904710140000e-001) (32, 3.36124382001597670000e-001) (33, 1.15921120039235380000e+000) (34, 7.50042062324267070000e-001) (35, 1.82810064232696300000e-001) (36, -9.07226627397317640000e-003) (37, 3.07430210347068690000e-001) (38, 8.42623694727547830000e-002) (39, 1.13542272694173270000e-001) (40, 1.61318928439815670000e-002) (41, -4.13354981346407580000e-001) (42, 3.84636797252488890000e-001) (43, 1.08675250972642590000e+000) (44, -9.20637662764361870000e-001) (45, 7.26994340270178400000e-001) (46, 5.43358691223632670000e-001) (47, -3.49068546259561420000e-002) (48, 2.84965688133914760000e-001) (49, 1.24243313496283240000e-001) (50, -9.06241267867038680000e-002) (51, 2.13850023213880440000e-001) (52, 5.56753937390604640000e-001) (53, 1.71430824648441980000e-001) (54, 4.94801617889732310000e-001) (55, 2.99658237801495750000e-001) (56, -8.14408505909549610000e-002) (57, -5.92106961104593780000e-002) (58, 1.80904632053804280000e-001) (59, 3.75240123121551530000e-001) 
