FANN_FLO_2.1
num_layers=3
learning_rate=0.700000
connection_rate=1.000000
network_type=1
learning_momentum=0.000000
training_algorithm=2
train_error_function=1
train_stop_function=1
cascade_output_change_fraction=0.010000
quickprop_decay=-0.000100
quickprop_mu=1.750000
rprop_increase_factor=1.200000
rprop_decrease_factor=0.500000
rprop_delta_min=0.000000
rprop_delta_max=50.000000
rprop_delta_zero=0.100000
cascade_output_stagnation_epochs=12
cascade_candidate_change_fraction=0.010000
cascade_candidate_stagnation_epochs=12
cascade_max_out_epochs=150
cascade_min_out_epochs=50
cascade_max_cand_epochs=150
cascade_min_cand_epochs=50
cascade_num_candidate_groups=2
bit_fail_limit=1.00000001490116120000e-001
cascade_candidate_limit=1.00000000000000000000e+003
cascade_weight_multiplier=4.00000000000000020000e-001
cascade_activation_functions_count=10
cascade_activation_functions=3 5 7 8 10 11 14 15 16 17 
cascade_activation_steepnesses_count=4
cascade_activation_steepnesses=2.50000000000000000000e-001 5.00000000000000000000e-001 7.50000000000000000000e-001 1.00000000000000000000e+000 
layer_sizes=16 5 6 
scale_included=0
neurons (num_inputs, activation_function, activation_steepness)=(0, 0, 0.00000000000000000000e+000) (0, 0, 0.00000000000000000000e+000) (0, 0, 0.00000000000000000000e+000) (0, 0, 0.00000000000000000000e+000) (0, 0, 0.00000000000000000000e+000) (0, 0, 0.00000000000000000000e+000) (0, 0, 0.00000000000000000000e+000) (0, 0, 0.00000000000000000000e+000) (0, 0, 0.00000000000000000000e+000) (0, 0, 0.00000000000000000000e+000) (0, 0, 0.00000000000000000000e+000) (0, 0, 0.00000000000000000000e+000) (0, 0, 0.00000000000000000000e+000) (0, 0, 0.00000000000000000000e+000) (0, 0, 0.00000000000000000000e+000) (0, 0, 0.00000000000000000000e+000) (16, 5, 1.00000000000000000000e+000) (16, 5, 1.00000000000000000000e+000) (16, 5, 1.00000000000000000000e+000) (16, 5, 1.00000000000000000000e+000) (16, 5, 1.00000000000000000000e+000) (21, 0, 1.00000000000000000000e+000) (21, 0, 1.00000000000000000000e+000) (21, 0, 1.00000000000000000000e+000) (21, 0, 1.00000000000000000000e+000) (21, 0, 1.00000000000000000000e+000) (21, 0, 1.00000000000000000000e+000) 
connections (connected_to_neuron, weight)=(0, 3.10412444686937070000e-001) (1, -8.13348820551930140000e-002) (2, -1.72405419403831250000e+000) (3, 2.94782175735407960000e-002) (4, -3.26686652152981260000e-002) (5, -2.82867756687535500000e-001) (6, -4.19385665425980950000e-002) (7, 3.01384635380446300000e-002) (8, 3.57193761149928180000e-001) (9, 4.87294770142413740000e-003) (10, -1.12630374288939930000e-002) (11, -4.79109768159666430000e-004) (12, 5.84529065580770190000e-003) (13, 2.14006348410211670000e-003) (14, -4.70902569632894280000e-003) (15, -4.54879655958689570000e-002) (0, -2.12386417078315850000e+000) (1, 6.72744407438144870000e-002) (2, -6.96920144070848460000e-001) (3, -4.43249073185645740000e-002) (4, 1.12018546085749260000e-002) (5, -1.08942959394839750000e-002) (6, 3.07686980186499090000e-001) (7, -1.72678181472531580000e-002) (8, 6.61187192379723570000e-002) (9, -1.25622045208252000000e-003) (10, -3.23349445109529560000e-003) (11, 3.86484947052237030000e-003) (12, -7.07597876234836990000e-004) (13, 2.76568764339786490000e-005) (14, 4.63515321252093610000e-003) (15, -6.17290971201514440000e-001) (0, 1.56315792330227100000e+000) (1, -2.72941249339984150000e-001) (2, -2.38111052903092760000e+000) (3, -1.92841024502408590000e-002) (4, 4.36935940309870170000e-004) (5, -1.62014349223937330000e-003) (6, -5.98722079336708400000e-001) (7, 1.24570298450746160000e-001) (8, 8.40671075317787180000e-001) (9, 6.90971625271115390000e-003) (10, -3.06413170358526070000e-003) (11, 6.96650662658679890000e-003) (12, -7.48333793990630090000e-003) (13, 1.92064084121333130000e-003) (14, -7.19616234495633050000e-004) (15, 2.78145991522548950000e-002) (0, 9.87212164932540490000e-001) (1, -2.12918841494659920000e-001) (2, -2.60722560087127860000e+000) (3, -3.07248668519711740000e-002) (4, 1.69134022173282990000e-002) (5, 6.18135267846965580000e-002) (6, -2.36442903200710680000e-001) (7, 7.43487224484692120000e-002) (8, 5.03133362191478310000e-001) (9, 8.28104743512412910000e-003) (10, -2.91360702436943560000e-003) (11, 3.13740251032747780000e-003) (12, -8.14020515071195270000e-003) (13, -4.79159728516432000000e-003) (14, 8.91270087081524600000e-005) (15, 2.14259792808153240000e-001) (0, 1.65144185355072510000e+000) (1, 2.76287208458196910000e-002) (2, 1.57239432858633840000e+000) (3, -4.60767583804039120000e-002) (4, -3.51673976151802360000e-003) (5, -2.01008918661995420000e-002) (6, -6.16969952164591610000e-001) (7, -9.06205286622369970000e-003) (8, -5.24627684070617550000e-001) (9, -2.58888130388950330000e-003) (10, -5.29141981498457410000e-003) (11, 8.06073100797573790000e-003) (12, -3.66645302115150870000e-005) (13, 6.82881621528558770000e-003) (14, -1.88287456929653710000e-003) (15, 1.23502628450652490000e-001) (0, -3.82742087365640190000e-001) (1, -2.34405738656584960000e-002) (2, -8.69845551253040080000e-002) (3, -6.99237470061454030000e-003) (4, 4.08427757125243500000e-003) (5, 1.23870559532273240000e-002) (6, -2.39333259481069320000e-002) (7, 1.73204735700373190000e-002) (8, 3.56035695493356690000e-003) (9, -4.93454073699413960000e-001) (10, -2.51074089331297610000e-003) (11, -7.72599169659550670000e-003) (12, -5.28529955535523340000e-003) (13, 7.05710173362974690000e-003) (14, -2.37068751902984410000e-003) (15, 3.62222684331607380000e-002) (16, 1.70884363880824610000e-002) (17, -8.83996492775000410000e-003) (18, -7.64904424916696000000e-002) (19, -1.78558850841763650000e-001) (20, -2.72313951882649170000e-001) (0, -6.56443150563433390000e-001) (1, -1.04877910833981390000e+000) (2, -2.26738657192702720000e+000) (3, -1.56224375164762240000e-002) (4, 7.30184129507420190000e-003) (5, -1.11061899995563010000e-002) (6, 1.52922896002678140000e-001) (7, 2.29953181537844280000e-001) (8, 4.86785978515594350000e-001) (9, 3.40710043423096690000e-003) (10, -5.02642862153200310000e-001) (11, -9.80873899977497850000e-004) (12, -1.55367132421619900000e-004) (13, 1.00529269162594120000e-004) (14, 2.77791614479135870000e-003) (15, -5.33859417812977520000e-001) (16, -2.86529558249751130000e-001) (17, -7.25677150958177090000e-001) (18, -8.19298339366081460000e-002) (19, -1.03211234852480850000e+000) (20, 5.46531335889360310000e-001) (0, -1.22887394332589930000e+000) (1, -1.07618348548645850000e+000) (2, -3.40253505602984730000e+000) (3, -2.67410141906808470000e-002) (4, 8.91893587655803560000e-003) (5, -1.06606980974983110000e-002) (6, 2.09727718647864690000e-001) (7, 2.12384138674564430000e-001) (8, 7.02982616387238690000e-001) (9, 3.24405608464068630000e-003) (10, -6.12187994624543550000e-003) (11, -4.97173878606943450000e-001) (12, -4.02299661636175590000e-003) (13, -2.68422185506838470000e-003) (14, 2.84488429474962900000e-003) (15, -2.10942651982609750000e-001) (16, -2.33112575539971920000e-001) (17, -1.25757071786092410000e+000) (18, -1.10469346279971100000e-001) (19, -8.56791788633151640000e-001) (20, 4.30500213453447580000e-001) (0, -2.05901292196912000000e-001) (1, -4.59546960633369120000e-003) (2, -6.26556075095685560000e-002) (3, -5.64909739364832970000e-003) (4, 8.61445481772737600000e-003) (5, 2.11171160535982420000e-002) (6, 2.33752843754176880000e-001) (7, 9.73540840042397960000e-003) (8, -7.81637287808939660000e-003) (9, 1.24453392487730770000e-003) (10, -2.86556964320599720000e-003) (11, -3.39080837174071020000e-004) (12, -5.02477034457221810000e-001) (13, -2.95201269404294110000e-003) (14, 2.95599831438630570000e-003) (15, 5.40596533840014900000e-002) (16, 4.99835434237145130000e-002) (17, 6.41509592182022280000e-002) (18, 8.00324925709603040000e-002) (19, -2.04360074438268480000e-001) (20, -6.57517243854315040000e-002) (0, -2.55708000439872240000e-001) (1, -1.39307604400276810000e-001) (2, 1.14699035083907350000e+000) (3, -6.88126888656006710000e-002) (4, 1.27747933585730250000e-003) (5, -5.33026537253371080000e-002) (6, -8.65942113592703950000e-002) (7, -1.09771857588967040000e-001) (8, -8.11109882075377150000e-001) (9, -1.61375893996674710000e-004) (10, -2.35914656502371040000e-003) (11, 2.13250045598176040000e-003) (12, 1.77808187580193630000e-003) (13, -4.96209181566278630000e-001) (14, 2.02415824880363340000e-003) (15, -7.85071877135852110000e-002) (16, -3.77579350354371230000e-001) (17, -1.14995624956358530000e+000) (18, 1.66294438110708920000e+000) (19, -1.07081466622375540000e+000) (20, -1.71208236887813350000e+000) (0, 3.74888012566935440000e-002) (1, -5.85556155059120850000e-003) (2, 9.49450198003379820000e-001) (3, -4.67525147874327600000e-002) (4, 1.70943811386685180000e-001) (5, 5.08356185249495220000e-001) (6, 3.22707080504864500000e-002) (7, -1.35240490191956570000e-002) (8, -1.80562764448498310000e-001) (9, 6.34805717676038290000e-004) (10, 2.40680137067616450000e-002) (11, 1.61235888562854200000e-003) (12, -1.30864080279636030000e-002) (13, -1.18783948508008970000e-002) (14, -4.86945118788253690000e-001) (15, 4.75141910630307810000e-001) (16, 2.60311299379037390000e+000) (17, 2.96570424687306930000e-001) (18, 7.35905580060923770000e-002) (19, -1.14764370105609510000e+000) (20, 3.76354153919185090000e-001) 
