FANN_FLO_2.1
num_layers=4
learning_rate=0.700000
connection_rate=1.000000
network_type=0
learning_momentum=0.000000
training_algorithm=2
train_error_function=1
train_stop_function=1
cascade_output_change_fraction=0.010000
quickprop_decay=-0.000100
quickprop_mu=1.750000
rprop_increase_factor=1.200000
rprop_decrease_factor=0.500000
rprop_delta_min=0.000000
rprop_delta_max=50.000000
rprop_delta_zero=0.100000
cascade_output_stagnation_epochs=12
cascade_candidate_change_fraction=0.010000
cascade_candidate_stagnation_epochs=12
cascade_max_out_epochs=150
cascade_min_out_epochs=50
cascade_max_cand_epochs=150
cascade_min_cand_epochs=50
cascade_num_candidate_groups=2
bit_fail_limit=1.00000001490116120000e-001
cascade_candidate_limit=1.00000000000000000000e+003
cascade_weight_multiplier=4.00000000000000020000e-001
cascade_activation_functions_count=10
cascade_activation_functions=3 5 7 8 10 11 14 15 16 17 
cascade_activation_steepnesses_count=4
cascade_activation_steepnesses=2.50000000000000000000e-001 5.00000000000000000000e-001 7.50000000000000000000e-001 1.00000000000000000000e+000 
layer_sizes=10 21 21 7 
scale_included=0
neurons (num_inputs, activation_function, activation_steepness)=(0, 0, 0.00000000000000000000e+000) (0, 0, 0.00000000000000000000e+000) (0, 0, 0.00000000000000000000e+000) (0, 0, 0.00000000000000000000e+000) (0, 0, 0.00000000000000000000e+000) (0, 0, 0.00000000000000000000e+000) (0, 0, 0.00000000000000000000e+000) (0, 0, 0.00000000000000000000e+000) (0, 0, 0.00000000000000000000e+000) (0, 0, 0.00000000000000000000e+000) (10, 5, 1.00000000000000000000e+000) (10, 5, 1.00000000000000000000e+000) (10, 5, 1.00000000000000000000e+000) (10, 5, 1.00000000000000000000e+000) (10, 5, 1.00000000000000000000e+000) (10, 5, 1.00000000000000000000e+000) (10, 5, 1.00000000000000000000e+000) (10, 5, 1.00000000000000000000e+000) (10, 5, 1.00000000000000000000e+000) (10, 5, 1.00000000000000000000e+000) (10, 5, 1.00000000000000000000e+000) (10, 5, 1.00000000000000000000e+000) (10, 5, 1.00000000000000000000e+000) (10, 5, 1.00000000000000000000e+000) (10, 5, 1.00000000000000000000e+000) (10, 5, 1.00000000000000000000e+000) (10, 5, 1.00000000000000000000e+000) (10, 5, 1.00000000000000000000e+000) (10, 5, 1.00000000000000000000e+000) (10, 5, 1.00000000000000000000e+000) (0, 5, 1.00000000000000000000e+000) (21, 5, 1.00000000000000000000e+000) (21, 5, 1.00000000000000000000e+000) (21, 5, 1.00000000000000000000e+000) (21, 5, 1.00000000000000000000e+000) (21, 5, 1.00000000000000000000e+000) (21, 5, 1.00000000000000000000e+000) (21, 5, 1.00000000000000000000e+000) (21, 5, 1.00000000000000000000e+000) (21, 5, 1.00000000000000000000e+000) (21, 5, 1.00000000000000000000e+000) (21, 5, 1.00000000000000000000e+000) (21, 5, 1.00000000000000000000e+000) (21, 5, 1.00000000000000000000e+000) (21, 5, 1.00000000000000000000e+000) (21, 5, 1.00000000000000000000e+000) (21, 5, 1.00000000000000000000e+000) (21, 5, 1.00000000000000000000e+000) (21, 5, 1.00000000000000000000e+000) (21, 5, 1.00000000000000000000e+000) (21, 5, 1.00000000000000000000e+000) (0, 5, 1.00000000000000000000e+000) (21, 0, 1.00000000000000000000e+000) (21, 0, 1.00000000000000000000e+000) (21, 0, 1.00000000000000000000e+000) (21, 0, 1.00000000000000000000e+000) (21, 0, 1.00000000000000000000e+000) (21, 0, 1.00000000000000000000e+000) (0, 0, 1.00000000000000000000e+000) 
connections (connected_to_neuron, weight)=(0, 6.58990526062727890000e+002) (1, -8.09200009202957290000e+002) (2, 1.50000000000000000000e+003) (3, 4.59308228187938250000e+002) (4, 1.00857923005732050000e+003) (5, -4.94457483833151120000e+002) (6, -1.57669755475064280000e+002) (7, 1.23981086600749730000e+001) (8, -2.63109023345695850000e+002) (9, -7.15604966840654110000e+000) (0, 1.03997873052965290000e+003) (1, 8.84200009202957290000e+002) (2, -1.50000000000000000000e+003) (3, 1.50000000000000000000e+003) (4, 9.83302793233720880000e+002) (5, 1.25937613153324040000e+003) (6, 7.25329835225668490000e+002) (7, -5.36322669399991130000e+001) (8, 1.11486070386244910000e+003) (9, 6.25514873428466970000e+000) (0, -1.31164970374935960000e+003) (1, -1.50000000000000000000e+003) (2, 1.27462821187543770000e+003) (3, -1.13029876677279550000e+002) (4, 1.38003664272045330000e+003) (5, 7.28014372228768000000e+001) (6, 3.48449965587525180000e+002) (7, -4.33611302163471860000e+002) (8, -3.01025424783824970000e+002) (9, 4.17130871506654560000e+002) (0, -8.37349782780033140000e+002) (1, -8.59200009202957290000e+002) (2, 1.50000000000000000000e+003) (3, -9.29402719929167120000e+002) (4, 1.02142897672317430000e+003) (5, 4.21898002044524730000e+002) (6, 1.49651714660164660000e+003) (7, -5.30186719641521900000e+002) (8, -6.88326677363640440000e+001) (9, -1.03889533495303880000e+001) (0, -8.10341867468931920000e+002) (1, -8.59200009202957290000e+002) (2, 1.50000000000000000000e+003) (3, 6.37149826834965670000e+002) (4, 1.03320572092819660000e+003) (5, 7.04567850196433370000e+002) (6, 2.30704269732975400000e+002) (7, -6.48606797491255950000e+001) (8, -5.74975217639751720000e+001) (9, -1.18942869009632890000e+001) (0, 1.50000000000000000000e+003) (1, 1.50000000000000000000e+003) (2, 7.91393706455513440000e+002) (3, 4.15259778919698420000e+002) (4, 1.77341919118806370000e+002) (5, 7.91785373124191620000e-001) (6, 2.59643029425853510000e+002) (7, -6.82381773361191220000e+002) (8, -1.19708721401373650000e+003) (9, -1.47123258156625930000e+001) (0, -1.50000000000000000000e+003) (1, -8.59200009202957290000e+002) (2, 1.50000000000000000000e+003) (3, 5.16254673969585720000e+002) (4, 4.59384086375042160000e+002) (5, 9.48063216366820370000e+002) (6, 1.46371764680711890000e+003) (7, -6.22010501468661460000e+002) (8, 1.35362751744987830000e+003) (9, -2.99646150687898550000e+000) (0, 1.02774380132177680000e+003) (1, 8.84200009202957290000e+002) (2, -1.50000000000000000000e+003) (3, 1.50000000000000000000e+003) (4, 4.64388480719474100000e+002) (5, 1.50000000000000000000e+003) (6, -1.29779170799666470000e+002) (7, 1.90300606874587690000e+002) (8, 8.47899359962651260000e+002) (9, 1.37534096997266370000e+001) (0, -9.10341867468931920000e+002) (1, -8.59200009202957290000e+002) (2, 1.50000000000000000000e+003) (3, 4.09159770420817780000e+002) (4, 1.18366713327652110000e+003) (5, 6.30763248548112640000e+002) (6, -4.81004286396032230000e+001) (7, -2.52462987567462390000e+002) (8, 4.57763394454591660000e+002) (9, 1.75849477461113920000e+000) (0, -8.83043631886789910000e+001) (1, -8.59200009202957290000e+002) (2, 1.50000000000000000000e+003) (3, 4.89800142092963770000e+002) (4, -8.79618997074796030000e+001) (5, 1.38173894147543840000e+003) (6, 1.08227985935265020000e+002) (7, 3.12216379793020950000e+001) (8, -1.60692499490202640000e+002) (9, 2.43150234522263280000e+001) (0, -6.67800956030693440000e+002) (1, -8.59200009202957290000e+002) (2, 1.50000000000000000000e+003) (3, 2.73879077039293690000e+002) (4, 1.12257889680744330000e+002) (5, -4.52554173258069910000e+002) (6, 9.49065629146780340000e+002) (7, 6.95782558372032330000e+002) (8, 6.88965625216408740000e+002) (9, -3.25210635365034320000e+000) (0, -6.96062904108621300000e+001) (1, -8.59200009202957290000e+002) (2, 1.50000000000000000000e+003) (3, 4.33297377723563880000e+001) (4, 1.28097982479342110000e+003) (5, 4.93888655857706000000e+002) (6, 6.57804786537893510000e+002) (7, 1.62999303821666250000e+002) (8, 6.71924573322632570000e+002) (9, -3.84210269838343430000e+000) (0, 9.32095601308409750000e+002) (1, 8.84200009202957290000e+002) (2, -1.50000000000000000000e+003) (3, 4.22932161625399710000e+002) (4, 9.93504572517602040000e+001) (5, -7.04759023631499990000e+002) (6, 5.00216807462166340000e+002) (7, -2.29192056126999490000e+002) (8, 9.19167551591734880000e+002) (9, 8.96535153407159670000e+002) (0, 1.50000000000000000000e+003) (1, 8.84200009202957290000e+002) (2, -1.50000000000000000000e+003) (3, 1.49283641579950270000e+003) (4, 1.24104304089798760000e+002) (5, 6.23768707093446210000e+002) (6, 1.50000000000000000000e+003) (7, 7.37022110654779110000e+002) (8, 7.39385910093845610000e+002) (9, 4.50591110784686770000e+000) (0, 1.50000000000000000000e+003) (1, -7.28738595662539860000e+002) (2, 1.50000000000000000000e+003) (3, -1.38257448879600020000e+003) (4, -5.04978150750061390000e+002) (5, -1.80635084097365250000e+002) (6, 1.23613946318439180000e+003) (7, 5.00219137352025030000e+002) (8, -1.73468532098370080000e+002) (9, -7.20063278043770420000e+002) (0, -8.28471231922687590000e+002) (1, -8.59200009202957290000e+002) (2, 1.50000000000000000000e+003) (3, 2.22427357068381270000e+002) (4, 5.66462235360076310000e+002) (5, 4.71350173615448540000e+001) (6, -3.58106875075510400000e+002) (7, 1.48065081599132670000e+003) (8, 6.83778638087106060000e+002) (9, -3.59117454879872180000e+002) (0, -7.01381874421218070000e+002) (1, -9.09200009202957290000e+002) (2, 1.50000000000000000000e+003) (3, 5.11548335842817780000e+002) (4, 6.08062841734099150000e+002) (5, 1.04505389638575230000e+003) (6, 1.47748151965350800000e+003) (7, 4.70958189068436520000e+002) (8, 4.88049133566955960000e+002) (9, 2.74132803010803890000e+000) (0, -1.36939999194145180000e+003) (1, -8.59200009202957290000e+002) (2, 1.50000000000000000000e+003) (3, 5.57203785692255680000e+002) (4, 8.61834549472029470000e+001) (5, 6.60937263634714550000e+002) (6, 5.57670888133761310000e+002) (7, 2.48636250325335400000e+002) (8, -1.31593244985909520000e+003) (9, 4.52546008862158370000e+000) (0, 8.40459525539532360000e+002) (1, -8.59200009202957290000e+002) (2, 1.50000000000000000000e+003) (3, 7.92353387433689480000e+002) (4, -3.38596886074837700000e+002) (5, -1.79195207058026010000e+001) (6, -7.81040936231631120000e+002) (7, 2.55482741432168040000e+002) (8, 3.82047354125993620000e+001) (9, 3.87061576913575190000e+000) (0, 1.06446380672911050000e+003) (1, 8.84200009202957290000e+002) (2, -1.50000000000000000000e+003) (3, 8.61658538507786600000e+002) (4, 2.53093484785931740000e+002) (5, 1.44708658805509590000e+003) (6, -8.36382220646109320000e+002) (7, 4.75337593004252650000e+002) (8, 7.57552758885802520000e+002) (9, 3.87882700183846510000e+001) (10, 3.93982663264588470000e-001) (11, 4.03713269050524470000e+000) (12, -6.93888265246593420000e-001) (13, 4.06086756488974190000e-001) (14, 2.07718201884840640000e-001) (15, 4.48094544507226190000e+000) (16, 5.78933344328450780000e-001) (17, 1.11151575172976450000e+000) (18, -3.29061819699099150000e-001) (19, -1.46081177289652810000e-001) (20, -5.43447370963495380000e-001) (21, 3.42579779636430880000e-001) (22, -3.26511686342005280000e-001) (23, 1.05369441835730250000e+000) (24, 2.62162914839545010000e+000) (25, -2.30087454822603780000e+000) (26, 3.03431502105291130000e-001) (27, -4.40217174333158320000e-001) (28, 1.37276217506074990000e+000) (29, 8.58459679597982080000e-001) (30, -5.35287162642837270000e+000) (10, -2.16818239431834560000e-001) (11, -5.38631036404595350000e-002) (12, -1.24447037144097900000e-002) (13, -3.69250853879316280000e-002) (14, -1.77936770413630120000e-001) (15, -6.12429556068522440000e-002) (16, 5.98456151419997850000e-002) (17, 4.47099856052630280000e-002) (18, 4.46170196598055620000e-003) (19, -4.39173994848041230000e-002) (20, 3.98049936775779910000e-002) (21, 9.78388394109659530000e-002) (22, 2.16077874159393360000e-001) (23, 1.44809630773868710000e-002) (24, 4.32195274820828330000e-002) (25, 4.14143080722530620000e-002) (26, 1.06643663145521670000e-002) (27, -1.33781175408349220000e-002) (28, -7.97755198749630220000e-002) (29, 3.40363301976354320000e-002) (30, 6.97782387507833060000e-001) (10, -1.04254469729912240000e-001) (11, -1.21999611471414690000e-001) (12, 5.61081469286167310000e-001) (13, -1.13667809425168710000e-001) (14, -1.41343810313917520000e-001) (15, 2.34526292990823590000e-001) (16, 1.18032723238535480000e-001) (17, 1.28354125261486400000e-001) (18, 3.08269725632925250000e-002) (19, 4.80212518959976240000e-002) (20, -6.13967440458417550000e-003) (21, 4.46660651671299260000e-002) (22, 1.58919602252525630000e-001) (23, 1.96542138997843100000e-002) (24, 4.43285451575001650000e-001) (25, 2.20903293570547840000e-002) (26, 7.94999512042795510000e-002) (27, 3.90036218119531180000e-002) (28, 4.06254713184273470000e-001) (29, 2.81420841646761570000e-001) (30, -5.15895498687489960000e-001) (10, 6.36840307392960380000e-001) (11, 5.77523628079377740000e-001) (12, -1.28291028902525170000e+000) (13, -1.19021583731455830000e-001) (14, -4.36429038607178980000e-003) (15, -7.87543322302553750000e-001) (16, -9.37796025915050510000e-001) (17, -1.21596471470547080000e-002) (18, 1.14192552716137390000e-001) (19, -3.35840618678439410000e-002) (20, -1.35275794027267860000e+000) (21, 1.75933637642547840000e+000) (22, -3.95554032824816380000e-001) (23, 1.96078316315806240000e-001) (24, 2.78493603354837840000e+000) (25, 8.54348822156242750000e-001) (26, 9.23409897443474430000e-002) (27, 1.16742610660985690000e-001) (28, 1.31180622878533050000e+000) (29, 4.89182096959488000000e-001) (30, 1.07375106893850950000e+000) (10, -7.97622132923404140000e-002) (11, 1.50761208470076850000e-001) (12, 2.38295615420479920000e-002) (13, 2.88937404149854640000e-002) (14, -5.36830310275884510000e-002) (15, 1.75742892569791310000e-001) (16, -2.77046242667379520000e-002) (17, -1.95459825460008870000e-002) (18, -8.09523425882115450000e-002) (19, -8.33633964437568010000e-002) (20, -6.53811852298987750000e-002) (21, 9.67292953062939410000e-002) (22, 1.90025857376633720000e-001) (23, 8.83227833649056770000e-002) (24, -2.54356507512173070000e+000) (25, -6.17069569518450960000e-002) (26, 9.56164671539253550000e-002) (27, 1.02842843936045150000e-001) (28, 1.57707219662739150000e-001) (29, 4.69761910449126990000e-002) (30, 4.34411716489822460000e-001) (10, 1.50000000000000000000e+003) (11, -1.50000000000000000000e+003) (12, 1.50000000000000000000e+003) (13, 1.50000000000000000000e+003) (14, 1.50000000000000000000e+003) (15, -2.51943981707694290000e+002) (16, 1.24222819454240700000e+003) (17, -1.50000000000000000000e+003) (18, 1.50000000000000000000e+003) (19, 1.50000000000000000000e+003) (20, 1.50000000000000000000e+003) (21, 1.50000000000000000000e+003) (22, -1.50000000000000000000e+003) (23, -1.50000000000000000000e+003) (24, 1.49423325880948940000e+003) (25, 1.50000000000000000000e+003) (26, 1.50000000000000000000e+003) (27, 1.50000000000000000000e+003) (28, 1.50000000000000000000e+003) (29, -1.50000000000000000000e+003) (30, 1.49788924196452650000e+003) (10, -2.45700436301397010000e-003) (11, 1.58417071954868680000e-001) (12, 1.78180576464652660000e+000) (13, -5.44954461508722900000e-002) (14, -2.68568687225436630000e-002) (15, 2.47929409440765360000e-001) (16, 5.56302910860190790000e-001) (17, -2.41551126630897200000e-001) (18, -2.20620227683747510000e-001) (19, -4.24539303955417720000e-001) (20, 4.83848388133475250000e-001) (21, 2.66460221142449280000e-002) (22, 5.03375845608713510000e-001) (23, 1.35671701820973350000e-001) (24, -6.55802677360224440000e+000) (25, 8.45467156395300350000e-002) (26, 2.90027928254452890000e-001) (27, -6.81126106841574430000e-002) (28, 6.49271552581047070000e-001) (29, 3.15176030058973170000e+000) (30, 3.98880949702426560000e+000) (10, 9.66126981236120900000e-002) (11, 4.49786559858251780000e-002) (12, -9.69148562223125510000e-002) (13, 1.13897903461223040000e+000) (14, 2.55519734168272340000e-001) (15, 2.72806033656849280000e+000) (16, -7.56139382688995170000e-001) (17, 9.50862268291061460000e-001) (18, -7.87866476113553870000e-001) (19, 2.30030689655315490000e-002) (20, 1.26417842216153710000e+000) (21, 6.56605392848763290000e-001) (22, 2.54162774055516290000e-001) (23, 2.58333304944047410000e+001) (24, 3.87831860062198790000e+001) (25, 1.94950081550512030000e+000) (26, 6.22514935586907290000e-001) (27, 2.94986996059440230000e+000) (28, -8.67010379717449570000e-002) (29, -1.00661093956856450000e-001) (30, -5.73847166420151320000e-001) (10, 6.25722746179748210000e-002) (11, 4.30833618721358920000e-002) (12, 4.10892642416415100000e-001) (13, -8.83209719462087210000e-002) (14, -1.32523534574366890000e-002) (15, 3.31854232202108190000e-001) (16, -5.15380881378089540000e-002) (17, -5.30147398077493310000e-002) (18, 5.12303552488872490000e-002) (19, -2.94815323538494610000e-002) (20, -1.30215521191177630000e-002) (21, 7.40414428343114520000e-002) (22, 1.54719812733696140000e-001) (23, -6.71186464785481720000e-003) (24, 1.95706596655637920000e+000) (25, 6.93657262630255620000e-002) (26, 1.16179230594736210000e-001) (27, -1.31434646525096400000e-001) (28, 1.64575057916352800000e-001) (29, 1.05144003273026530000e+000) (30, 1.31021679340538320000e+000) (10, -6.19508965927241810000e-001) (11, -5.50688807303409970000e-001) (12, 1.24620115683660830000e+000) (13, 1.13957443031085850000e-001) (14, 3.36122750934773550000e-002) (15, 7.23207121431009740000e-001) (16, 9.17161515043509960000e-001) (17, -1.98424333558194920000e-002) (18, -1.09731669459335380000e-001) (19, 1.93998197894107990000e-002) (20, 1.30790211066305930000e+000) (21, -1.74488248711076690000e+000) (22, 3.76475047376847670000e-001) (23, -1.88303079479296530000e-001) (24, -2.64893759378065940000e+000) (25, -8.22804606765389580000e-001) (26, -5.31612117035067670000e-002) (27, -1.02878379540399620000e-001) (28, -1.26064986620357810000e+000) (29, -4.60964794038312200000e-001) (30, -1.01867384334381920000e+000) (10, -5.61101042728899890000e-002) (11, -2.88217980669874010000e-002) (12, 5.60168544079614250000e-001) (13, -1.79285929261215060000e-002) (14, -6.51519627397275650000e-002) (15, -1.93518977347789700000e-002) (16, -3.61130519245817310000e-002) (17, -1.00003663117279070000e-002) (18, -3.67349792278571720000e-003) (19, 2.53685480599927240000e-002) (20, -1.66930088615316660000e-001) (21, 2.98207902173654690000e-002) (22, 1.82249768186409090000e-001) (23, -5.41248829515012520000e-002) (24, 1.70678736956663670000e+000) (25, -1.00795526827533010000e-001) (26, 1.70688900661350150000e-001) (27, 1.52596749211437480000e-001) (28, 2.34849579008510720000e-001) (29, 2.14832699948962620000e-001) (30, 9.82551839090158090000e-001) (10, -5.37669080351414130000e-002) (11, 2.70390592006152330000e-002) (12, 1.73418059683732960000e+000) (13, -4.32932264840354760000e-002) (14, 8.65488950205704420000e-003) (15, -3.39315330842884370000e-002) (16, -2.76080329042494260000e-002) (17, 4.28284262400369930000e-002) (18, -2.09020352899500980000e-003) (19, -8.57740112822897440000e-003) (20, -2.03240766237814120000e-001) (21, 2.12893066453710940000e-002) (22, 8.92967673318212360000e-002) (23, 7.71506306522068280000e-002) (24, 2.81205002043910040000e+000) (25, -2.23801428235224450000e-001) (26, -2.33385625321330630000e-003) (27, -1.47767776330918000000e-001) (28, 4.42636403855196650000e-001) (29, 3.37571770712297990000e-002) (30, 7.42882821810885500000e-001) (10, 9.42467899685287960000e-002) (11, -4.45081458393088940000e-001) (12, 4.93046654064251300000e+000) (13, 3.56539322579795590000e-001) (14, -2.50343275790380070000e-001) (15, 3.86978725442549020000e-001) (16, -5.31642029031239790000e-003) (17, -1.47453224627267180000e-002) (18, 2.20873167511535270000e-001) (19, 6.04735070649445980000e-001) (20, 1.79786197812838200000e+000) (21, 5.21360797608317120000e-002) (22, -6.01862932994310930000e-001) (23, -6.80618139164087090000e-001) (24, 2.22748712113880740000e+000) (25, 4.34348570541370830000e-001) (26, 1.06829591665794600000e-001) (27, 1.89981387330602790000e+000) (28, 7.24835964490491500000e+000) (29, 3.62696153986812150000e-001) (30, -3.53090837061793030000e+000) (10, 1.11660407461149860000e-002) (11, 6.73790583091705140000e-002) (12, 1.31808804022151310000e-001) (13, -4.91038809511027410000e-002) (14, 7.53843061435626600000e-002) (15, 6.60028049279408470000e-002) (16, -3.77306249293730900000e-002) (17, -1.32643061426352320000e-002) (18, 2.10096816110193900000e-002) (19, -8.93077034978723570000e-002) (20, 3.35333461798905320000e-002) (21, -1.41835287417913370000e-001) (22, -4.71045560048201710000e-002) (23, 3.50313638586683340000e-002) (24, 1.42779314691627500000e+000) (25, 2.66579784657018430000e-001) (26, -5.38897283965560710000e-002) (27, 7.24661871636206600000e-002) (28, 9.39697777145871370000e-003) (29, 9.47656364859397610000e-002) (30, 4.05773483980246150000e-001) (10, -1.62701504829653350000e+001) (11, 1.39577678126032540000e+000) (12, 1.31332003489791570000e+000) (13, 4.93557792083267780000e-001) (14, 2.41816628974106050000e-001) (15, -9.81346639831190970000e+001) (16, 4.57163286798410340000e+001) (17, -6.17702381682575170000e-002) (18, 6.43218177424559110000e-001) (19, -2.13196241931018630000e+000) (20, -1.26963316417847420000e-001) (21, 2.47838358412618450000e-001) (22, 6.83104493984889870000e-002) (23, 7.02002707522924870000e-002) (24, -1.88799938047492220000e+002) (25, -2.67758074915148400000e+001) (26, 1.76926643429634290000e+000) (27, 1.31326668048296560000e+000) (28, -3.05638432163764350000e-001) (29, -8.06757858208108910000e-002) (30, 9.61632266996689580000e-001) (10, -4.76628826066266240000e+001) (11, 1.90443594982843980000e+000) (12, 1.09461380452292490000e+002) (13, 2.27161632360418080000e+001) (14, 8.88098791724254990000e-002) (15, -2.23868309584174480000e+002) (16, -1.88250192157959640000e+000) (17, 2.41244085727579080000e+001) (18, -3.81162235857973290000e+000) (19, 1.10256682171150900000e+001) (20, -3.95145533137607860000e+001) (21, -9.41174340670309420000e+001) (22, 4.09866205725625840000e+000) (23, -3.86137595653786030000e-001) (24, -1.20451521557190720000e+000) (25, 2.52971699317428160000e+000) (26, -6.28809975991204340000e+001) (27, 1.02502817240819850000e+003) (28, -2.25642139367332910000e+000) (29, 8.71896711197912460000e-001) (30, 3.93523941783233110000e+002) (10, -2.00170694487406240000e-001) (11, 2.27446967856011510000e-001) (12, 1.83191580586561950000e+000) (13, -9.50063318874037470000e-002) (14, -2.17790260174629410000e-001) (15, -1.15970532601145430000e+000) (16, 4.05387279809101610000e-001) (17, 1.17652690384397670000e-002) (18, -1.82642359275749230000e-001) (19, 3.62671851400053150000e-003) (20, 1.60482502607749160000e-003) (21, 9.43131750435105000000e-002) (22, 6.11157149247578120000e-003) (23, -1.49908262275327300000e-001) (24, 5.58992538819150390000e+000) (25, -1.08020158932994740000e-002) (26, 3.57138919235803990000e-001) (27, 1.98966918955966580000e-001) (28, -1.20028250839932540000e+000) (29, -1.74131931450644710000e-001) (30, 3.63741513496502520000e-001) (10, -1.18772588673783460000e+000) (11, 6.11512811254646270000e-002) (12, 3.21345053736360510000e+000) (13, -1.96408727737846960000e-001) (14, -6.01705328097088880000e-001) (15, 1.30193064460195910000e-001) (16, 2.72657279988627710000e-001) (17, -2.03419363278670220000e-001) (18, -1.77889545711112300000e-002) (19, 4.84229907191754960000e-001) (20, 2.18730664127030930000e-001) (21, 2.92067132646939180000e-001) (22, 2.20902019211272020000e+000) (23, 9.43702330520465870000e-002) (24, 3.35105629673196990000e+000) (25, 1.70858715642357940000e-001) (26, 2.11416417152509890000e-001) (27, 2.99358863200560930000e-001) (28, 1.47079594575934890000e-001) (29, -7.07968931060747320000e-001) (30, 2.65326587996310970000e+000) (10, -1.54357270780861700000e-001) (11, 1.73597344428061050000e-001) (12, -7.04631991308628520000e-001) (13, 4.47129626802510240000e-002) (14, -9.92493602198578070000e-002) (15, -1.02565437600483640000e+000) (16, -1.54773483518427260000e-001) (17, 3.68193252757054930000e-002) (18, -2.99668942352901040000e-002) (19, 7.98133884176905060000e-002) (20, -2.16386418456183450000e-001) (21, -6.13713631266942640000e-002) (22, -1.38944632282074650000e-001) (23, -1.02133360781871070000e-001) (24, 4.66958545222412870000e-002) (25, -1.70942896566298270000e-001) (26, -1.07344192058286870000e-001) (27, -1.32946219505007320000e-001) (28, -3.53389869238605940000e-001) (29, -2.33854998196592940000e+000) (30, 1.71762066882086950000e+000) (10, -2.67070458990933510000e-002) (11, 4.71903865336377040000e-002) (12, -7.64437446070081320000e-002) (13, -2.06564836183350630000e-002) (14, 5.12256447974952090000e-003) (15, -1.20682929710564850000e-002) (16, -1.26551633103035200000e-005) (17, -1.87706558798735460000e-002) (18, -1.24129364812453260000e-002) (19, -5.09824561921149340000e-004) (20, 3.96174591511607030000e-002) (21, -2.06075554577261730000e-002) (22, -6.00372273530135960000e-002) (23, -1.77549908279334320000e-002) (24, 1.83105982772962240000e+000) (25, -2.36405610438420180000e-002) (26, -2.71859793532235670000e-002) (27, 9.84372433273195470000e-003) (28, -1.54003956585553550000e-001) (29, -7.99120877617113050000e-003) (30, -1.41026289995026270000e+000) (31, -1.08035473425368930000e-002) (32, 7.05985495454325290000e-002) (33, 1.51257123275480750000e-002) (34, 4.44690690631318720000e-001) (35, -6.40642591630090630000e-001) (36, 3.06740312662589150000e-002) (37, 3.58120846308917360000e-002) (38, -3.98876746551556420000e-001) (39, 3.51462856508638070000e-002) (40, 4.61135662419796260000e-001) (41, -2.94903174086507370000e-003) (42, -1.07046157458804900000e-001) (43, 2.41338654353623060000e-002) (44, 9.38245697207665260000e-002) (45, 1.22980754557968710000e+000) (46, 3.43173368462615020000e-002) (47, 8.79858527789159740000e-001) (48, 2.94038978005438450000e-002) (49, 4.06456762049088660000e-002) (50, 1.67743895048521140000e-001) (51, -4.31603297000723860000e-002) (31, -5.01381429270547350000e-002) (32, -1.37521130045177190000e-001) (33, 2.68405083932332610000e-002) (34, 4.99885698168364090000e-001) (35, -1.24311402087679530000e-001) (36, 7.78716118537169930000e-002) (37, -5.91810439300228810000e-002) (38, 1.30666420637904650000e-001) (39, -4.83273696262372380000e-002) (40, 4.97376036915365640000e-001) (41, -3.90685797985856900000e-003) (42, -1.21414296106020430000e-001) (43, 1.37757983870321620000e-001) (44, -1.46350422914832470000e-001) (45, -2.39296685546362270000e-001) (46, 8.32556825578563560000e-002) (47, -1.02559246764703110000e-001) (48, -1.61353878859430630000e-002) (49, 3.92899667951503300000e-002) (50, -2.53103673191224790000e-001) (51, -3.36558190179796980000e-002) (31, -1.74665145052592080000e-002) (32, 6.30148720385383170000e-001) (33, -1.43867694837452070000e-001) (34, 7.88687259286376950000e-001) (35, -1.32893746008388270000e-001) (36, 1.13089366206069670000e-002) (37, 3.11512433751801760000e-001) (38, 3.86706196554585010000e-003) (39, 3.24150919595637970000e-001) (40, 8.02740901029306060000e-001) (41, -1.05069064678534000000e-002) (42, 6.02639646725757430000e-001) (43, -1.67919833817252150000e-001) (44, 3.18932989517732630000e-001) (45, 4.52573544846788240000e-001) (46, 6.29717154248986970000e-002) (47, 3.81249755276022100000e-002) (48, -1.22980353716563310000e-001) (49, 2.32225113308423490000e-001) (50, -5.99357820141162350000e-001) (51, -9.63082292902690430000e-001) (31, 2.25812608029530710000e-002) (32, 3.58528975233046300000e-002) (33, 1.67139104270227040000e-002) (34, 6.01678390388528880000e-001) (35, 9.48105193387912660000e-001) (36, 3.79613389651576800000e-003) (37, -2.30325921534848960000e-002) (38, 8.22067294069808390000e-001) (39, -1.40182541199463670000e-003) (40, 6.10376123461090380000e-001) (41, 3.04249804614927300000e-002) (42, -9.26109935670550370000e-003) (43, -5.36900665573474770000e-003) (44, -7.17640854420849570000e-002) (45, 6.61949129056182450000e-003) (46, -4.17326215188422130000e-004) (47, 9.44595069097953630000e-002) (48, 3.81318745718140730000e-003) (49, 4.88690003401099560000e-004) (50, 1.09552945837680420000e-001) (51, 1.98380966445492780000e-002) (31, -7.79483511262627490000e-002) (32, -5.07139952179828430000e-001) (33, 3.30055843728310260000e-001) (34, 5.76434566439731120000e-001) (35, 6.91713671033565570000e-002) (36, -1.19870010363903880000e-002) (37, 3.12046226179079620000e-001) (38, -3.78130859318483660000e-002) (39, 6.19525900664156690000e-001) (40, 6.18486136526672840000e-001) (41, -7.35145139165728320000e-001) (42, 3.70549210861916560000e-001) (43, -9.26588962255702750000e-002) (44, -9.39741882057288370000e-001) (45, 8.56565617803262120000e-003) (46, -3.65452912501897140000e-003) (47, 2.03000150030659990000e-001) (48, 7.07423007120721590000e-002) (49, 3.64023982190145530000e-001) (50, 9.31018739474063880000e-001) (51, 4.33520801715433220000e-001) (31, 1.46349390394786870000e-002) (32, -1.86404374922361680000e-002) (33, -1.61417639970624260000e-002) (34, 2.92009858865638180000e-001) (35, 3.77191399866177860000e-002) (36, 4.84857003361751060000e-003) (37, 1.40352168994998580000e-003) (38, 2.17585176120148240000e-003) (39, 2.04930937922069780000e-002) (40, 2.83136480819648650000e-001) (41, -1.58897294130121570000e-002) (42, 1.67550557885205490000e-002) (43, 1.44843963769618680000e-003) (44, 1.37254009697327880000e-002) (45, 3.89381625668438550000e-002) (46, -9.94076720825159620000e-003) (47, 1.21995616341453050000e-002) (48, 1.09118311338060860000e-002) (49, 9.44285871984730690000e-003) (50, 3.43327870159644280000e-002) (51, -4.19798091476981570000e-004) 
