FANN_FLO_2.1
num_layers=4
learning_rate=0.700000
connection_rate=1.000000
network_type=0
learning_momentum=0.000000
training_algorithm=2
train_error_function=1
train_stop_function=1
cascade_output_change_fraction=0.010000
quickprop_decay=-0.000100
quickprop_mu=1.750000
rprop_increase_factor=1.200000
rprop_decrease_factor=0.500000
rprop_delta_min=0.000000
rprop_delta_max=50.000000
rprop_delta_zero=0.100000
cascade_output_stagnation_epochs=12
cascade_candidate_change_fraction=0.010000
cascade_candidate_stagnation_epochs=12
cascade_max_out_epochs=150
cascade_min_out_epochs=50
cascade_max_cand_epochs=150
cascade_min_cand_epochs=50
cascade_num_candidate_groups=2
bit_fail_limit=1.00000001490116120000e-001
cascade_candidate_limit=1.00000000000000000000e+003
cascade_weight_multiplier=4.00000000000000020000e-001
cascade_activation_functions_count=10
cascade_activation_functions=3 5 7 8 10 11 14 15 16 17 
cascade_activation_steepnesses_count=4
cascade_activation_steepnesses=2.50000000000000000000e-001 5.00000000000000000000e-001 7.50000000000000000000e-001 1.00000000000000000000e+000 
layer_sizes=10 31 11 7 
scale_included=0
neurons (num_inputs, activation_function, activation_steepness)=(0, 0, 0.00000000000000000000e+000) (0, 0, 0.00000000000000000000e+000) (0, 0, 0.00000000000000000000e+000) (0, 0, 0.00000000000000000000e+000) (0, 0, 0.00000000000000000000e+000) (0, 0, 0.00000000000000000000e+000) (0, 0, 0.00000000000000000000e+000) (0, 0, 0.00000000000000000000e+000) (0, 0, 0.00000000000000000000e+000) (0, 0, 0.00000000000000000000e+000) (10, 5, 1.00000000000000000000e+000) (10, 5, 1.00000000000000000000e+000) (10, 5, 1.00000000000000000000e+000) (10, 5, 1.00000000000000000000e+000) (10, 5, 1.00000000000000000000e+000) (10, 5, 1.00000000000000000000e+000) (10, 5, 1.00000000000000000000e+000) (10, 5, 1.00000000000000000000e+000) (10, 5, 1.00000000000000000000e+000) (10, 5, 1.00000000000000000000e+000) (10, 5, 1.00000000000000000000e+000) (10, 5, 1.00000000000000000000e+000) (10, 5, 1.00000000000000000000e+000) (10, 5, 1.00000000000000000000e+000) (10, 5, 1.00000000000000000000e+000) (10, 5, 1.00000000000000000000e+000) (10, 5, 1.00000000000000000000e+000) (10, 5, 1.00000000000000000000e+000) (10, 5, 1.00000000000000000000e+000) (10, 5, 1.00000000000000000000e+000) (10, 5, 1.00000000000000000000e+000) (10, 5, 1.00000000000000000000e+000) (10, 5, 1.00000000000000000000e+000) (10, 5, 1.00000000000000000000e+000) (10, 5, 1.00000000000000000000e+000) (10, 5, 1.00000000000000000000e+000) (10, 5, 1.00000000000000000000e+000) (10, 5, 1.00000000000000000000e+000) (10, 5, 1.00000000000000000000e+000) (10, 5, 1.00000000000000000000e+000) (0, 5, 1.00000000000000000000e+000) (31, 5, 1.00000000000000000000e+000) (31, 5, 1.00000000000000000000e+000) (31, 5, 1.00000000000000000000e+000) (31, 5, 1.00000000000000000000e+000) (31, 5, 1.00000000000000000000e+000) (31, 5, 1.00000000000000000000e+000) (31, 5, 1.00000000000000000000e+000) (31, 5, 1.00000000000000000000e+000) (31, 5, 1.00000000000000000000e+000) (31, 5, 1.00000000000000000000e+000) (0, 5, 1.00000000000000000000e+000) (11, 0, 1.00000000000000000000e+000) (11, 0, 1.00000000000000000000e+000) (11, 0, 1.00000000000000000000e+000) (11, 0, 1.00000000000000000000e+000) (11, 0, 1.00000000000000000000e+000) (11, 0, 1.00000000000000000000e+000) (0, 0, 1.00000000000000000000e+000) 
connections (connected_to_neuron, weight)=(0, 1.85052377067033590000e-001) (1, -8.40299448896405370000e-003) (2, 5.62132888581834480000e-002) (3, 8.74597090809635240000e-002) (4, 2.79115010510520900000e-001) (5, 1.15916822886874240000e-001) (6, 1.39724978847121650000e-001) (7, -2.92759616840607420000e-001) (8, -8.50714216188076940000e-002) (9, 1.80587710793069930000e-002) (0, 6.98001229527372310000e+000) (1, -5.25698639265660180000e+000) (2, -1.01284813033601320000e-001) (3, -2.83566405007495490000e-003) (4, -4.12746967231911450000e-002) (5, -3.32145733095656830000e-002) (6, -1.38500460475500490000e+000) (7, 1.05482662977694370000e+000) (8, 4.40677414168073740000e-002) (9, 2.27403309587274030000e-001) (0, -2.22590369619148380000e-001) (1, 6.47308113049335780000e-002) (2, -6.80153110245200890000e-002) (3, 3.03294438972376850000e-001) (4, 2.25032472597629040000e-001) (5, 9.42655018674713600000e-002) (6, 2.03152451900066280000e-001) (7, -1.26100242312388090000e-001) (8, -8.01107900951156800000e-002) (9, 1.09389990548053680000e-001) (0, 3.46596910436714810000e+000) (1, -2.60229835630817300000e+000) (2, 1.04499632411582820000e+000) (3, 1.87681913128014760000e-002) (4, -1.98116728997834200000e-002) (5, 4.42698833659438750000e-002) (6, -7.69268191829062140000e-001) (7, 2.67428309037949620000e-001) (8, -2.64386788252913120000e-001) (9, 1.15892052826891390000e+000) (0, -1.28022321270940490000e+000) (1, 3.28689748111568310000e-001) (2, 5.14505000049956530000e-002) (3, 1.41857900508109040000e-001) (4, -1.79936337923184420000e-002) (5, -3.83868346723079610000e-002) (6, 1.71644824590037210000e-001) (7, -4.46770639058302000000e-001) (8, 1.02050040373856380000e-001) (9, 2.67445881800886300000e-001) (0, 3.56172387071729090000e+000) (1, 4.23190123775332780000e+000) (2, -4.18325237577384520000e-002) (3, -2.09325529414479930000e-001) (4, 4.28892534997819400000e-002) (5, 7.46846968366996070000e-002) (6, -8.22244228745315110000e-001) (7, 6.39610610383025730000e-003) (8, 8.65861981759534770000e-002) (9, 4.42660132856419420000e-001) (0, -7.27165507345885110000e-003) (1, -2.32456120104258060000e-001) (2, -5.48796747639471030000e-002) (3, -1.80741645878713640000e-001) (4, -3.00288568214910170000e-002) (5, -6.55424612689581850000e-002) (6, 6.33476916840566840000e-001) (7, 4.66432059615027210000e-001) (8, 4.39245311393575700000e-002) (9, -2.63548127886447490000e-001) (0, 5.75310930972556260000e-001) (1, -9.48055541914168410000e-001) (2, 2.10033456260665080000e-001) (3, -6.46796847213704370000e-002) (4, 1.39730407901138440000e-001) (5, -1.36105874270101320000e-001) (6, 1.32997763074084230000e-001) (7, -1.20131033967781260000e-001) (8, -1.42342299333556850000e-001) (9, 3.77629085595143970000e-001) (0, -1.51756354641954830000e+000) (1, 2.55256564042514580000e+000) (2, 3.04736657017362910000e-001) (3, -2.27903657057762260000e-002) (4, 6.01291643919817510000e-002) (5, -4.99877734977530740000e-002) (6, 6.96470421426008350000e-001) (7, -1.08769606130260790000e+000) (8, -2.08954084692751510000e-001) (9, 5.53066417611079660000e-001) (0, -2.14312618047119350000e-001) (1, 2.40751903178379490000e-001) (2, -1.25327430022259900000e+000) (3, -3.01832678486095020000e-002) (4, 5.30451383693324870000e-004) (5, -2.43813665972927640000e-001) (6, -1.37957096336628370000e-001) (7, 3.85626068455901800000e-002) (8, 6.29978128771005230000e-001) (9, 2.29534005084930770000e-001) (0, 7.34565028890701990000e-002) (1, 5.32242910102411090000e-001) (2, -8.33381517279746520000e-001) (3, 1.90023425517371930000e-002) (4, -6.14112108475833720000e-002) (5, 9.21554792326675920000e-002) (6, -3.63020721733637030000e-001) (7, 1.25007530054116860000e-001) (8, -1.01985046639159850000e-001) (9, 4.10897882985570670000e-001) (0, 2.06120385647505840000e-001) (1, -2.44874288704943130000e+001) (2, 7.38047226163365130000e-002) (3, 2.26589965446732200000e-003) (4, 1.92990617416395890000e-002) (5, -6.13632706190439530000e-002) (6, 8.16332704014084700000e-002) (7, 4.98229702504946110000e+000) (8, -4.11196316225350200000e-002) (9, -3.80199179824627570000e-002) (0, 2.65117142451685660000e-001) (1, 1.21701042500625760000e-001) (2, 1.06677833006846390000e+000) (3, 1.38554042016902630000e-002) (4, -6.45659554252354660000e-002) (5, 2.73691189521291750000e-002) (6, -2.76315233237046930000e-001) (7, 6.56118748194772230000e-001) (8, 7.22497936539399310000e-001) (9, 1.71385686010194220000e+000) (0, -2.48338140537998330000e-001) (1, 6.62807208089073230000e-001) (2, -1.32498403556761550000e+000) (3, 1.50293342487125970000e-002) (4, 6.04035866268400060000e-002) (5, 8.09952392856438940000e-002) (6, -1.25067654502226120000e-001) (7, -1.10050407428874740000e-001) (8, 1.61617953246324970000e-001) (9, 1.69847850750815270000e-001) (0, -1.02053212489852510000e-001) (1, 2.00100336659551760000e-001) (2, 1.35818408426409550000e-001) (3, 7.36634784680163660000e-002) (4, 2.38374036687338500000e-002) (5, 1.00712525989201050000e-001) (6, -9.50711991579085420000e-002) (7, -2.82297113270485230000e-001) (8, 3.67597233496287980000e-001) (9, 1.55765491869361870000e-001) (0, 1.22894932191487190000e-002) (1, -5.07820606093899900000e-001) (2, -3.21447772081012020000e-002) (3, -1.51247299617384200000e-001) (4, -8.66654761642745710000e-002) (5, 6.00617420016743910000e-002) (6, -9.42820182426890310000e-002) (7, 6.20027746439627880000e-001) (8, -1.96361389130172590000e-001) (9, -1.57030562450114870000e-001) (0, 1.79694249813398430000e+000) (1, -2.19207675512603480000e-001) (2, 7.91077015810818910000e-001) (3, -9.83406664004201070000e-002) (4, -3.38653446017084500000e-004) (5, -9.54559039042676420000e-002) (6, -1.03796661547492410000e+000) (7, 8.39708268972838840000e-002) (8, -3.82316153673057050000e-001) (9, 6.03890017383763240000e-001) (0, 1.05184489532439660000e+000) (1, 2.65832776929296170000e+000) (2, -1.63315781944058350000e-001) (3, -4.19960596737908000000e-003) (4, 2.77942375276851170000e-002) (5, -1.17409887684767280000e-002) (6, 3.07184901676710920000e-001) (7, -7.87456376960039780000e-001) (8, -7.30211610312907630000e-002) (9, 2.79629122527663030000e-001) (0, -9.19392522130849540000e-001) (1, 3.13921807734943940000e+000) (2, 1.01940025926789220000e-001) (3, 8.63085569987028650000e-002) (4, 7.91751320630762060000e-002) (5, -4.31441657678364450000e-002) (6, 4.55167157568710900000e-001) (7, 1.52894056423617610000e-001) (8, -4.26339496850347810000e-003) (9, 4.91690472883804240000e-002) (0, -1.01120460988523940000e+000) (1, -1.20281761149035040000e+000) (2, -4.97497464854058940000e-001) (3, -1.63386244215486000000e-001) (4, -1.33132617834831300000e-001) (5, -2.56900685826671470000e-001) (6, 5.68513216386222430000e-001) (7, 7.70652094083863260000e-001) (8, 5.58053186901768640000e-001) (9, 9.56518203032505680000e-001) (0, 1.11469261018699270000e+000) (1, -2.25879835235233640000e-001) (2, -1.06052779947747050000e-001) (3, 7.70951624102167030000e-002) (4, 5.73833605968754180000e-002) (5, -3.22411382018037290000e-002) (6, 1.05337571092488220000e-001) (7, -5.26215716448758420000e-001) (8, 5.56596742540884200000e-001) (9, 3.25713167153791730000e-001) (0, 8.31606798253570640000e-001) (1, 1.52795401206194500000e+000) (2, 4.05057382316892500000e+000) (3, -2.48809402710069470000e-002) (4, -3.28609296482968880000e-003) (5, -2.77220665873227110000e-002) (6, -3.04028371388585570000e-001) (7, -2.42713792090510580000e-001) (8, -8.27799415210197510000e-001) (9, -3.81434608410703700000e-001) (0, -9.86396079588003020000e-001) (1, -2.73398296964920860000e+000) (2, 8.86446372737749620000e-001) (3, 2.36486442686728860000e-002) (4, 1.95148297501648410000e-002) (5, 5.72756210631901460000e-003) (6, 2.71534352866137250000e-001) (7, 8.34592683288791440000e-001) (8, -1.58656040855332780000e-001) (9, 5.45519417287367640000e-001) (0, -1.50515879198877680000e-001) (1, -3.29726203088509080000e-001) (2, 4.56692322870525390000e-002) (3, 1.44760692962844490000e-001) (4, 1.22447480684206990000e-001) (5, 1.49064634740647420000e-002) (6, 7.35829034115258350000e-001) (7, 5.26240091667772860000e-001) (8, 1.55775632519476680000e-001) (9, 3.96550297001550140000e-001) (0, 5.43832469506683740000e-001) (1, -8.42179902374239120000e-001) (2, -1.77094567125947950000e-001) (3, -1.08654597327800270000e-002) (4, -9.59719059086062560000e-002) (5, 2.10502650347894810000e-001) (6, -1.78472966967622470000e-001) (7, -2.91383382562132360000e-001) (8, 4.87985841087765220000e-001) (9, -2.34482509622995440000e-001) (0, 8.97149528451751000000e-001) (1, -7.02913923869331710000e-001) (2, 5.17689209869487300000e-001) (3, 3.31973648763019440000e-001) (4, -1.27132936654540340000e-001) (5, 1.14489440204725750000e-001) (6, -5.89543765267121160000e-001) (7, 4.72398939071862700000e-001) (8, -4.34076591547262680000e-002) (9, 2.03519033852793160000e-001) (0, 1.22332319519149520000e-001) (1, 3.76374789977990230000e-001) (2, -4.16384114775940620000e-001) (3, -1.93214190304894560000e-001) (4, -5.78056195702998930000e-002) (5, 4.53869849188446790000e-002) (6, 9.24329084219830540000e-002) (7, 5.46674277511765010000e-001) (8, -1.82287749587073170000e-001) (9, -2.49882133221534380000e-001) (0, 2.75256106452864750000e-001) (1, -4.02640451241684500000e-003) (2, -1.39549401814554360000e-001) (3, -3.76966237401380330000e-002) (4, -1.93826607181270180000e-001) (5, -1.50720005443873540000e-001) (6, 3.60881171053687500000e-001) (7, -5.28352983231312630000e-001) (8, 6.74847924090030830000e-002) (9, -1.09339828547279850000e-001) (0, -2.00263982722347040000e+000) (1, -6.09037877467101700000e-001) (2, -3.58561203268439430000e-001) (3, 8.88749634732082310000e-003) (4, 4.92819186475182210000e-002) (5, 1.08706764593295770000e-002) (6, -2.03746873440124930000e-001) (7, -1.65482373109986220000e-003) (8, 2.59195758240396590000e-001) (9, 5.93453854429334400000e-001) (0, -2.21605065745439310000e-001) (1, -9.63280992613163300000e-002) (2, -9.42387548368870950000e-002) (3, -4.46420619273424910000e-002) (4, -7.48889497027027260000e-002) (5, 1.32628516974217490000e-001) (6, -2.48388379975620770000e-001) (7, -3.46706205495836420000e-001) (8, -2.37189204770523150000e-002) (9, -1.39970802863974870000e-001) (10, 7.68451195141132470000e-001) (11, 1.07900500683824570000e+000) (12, 2.75894173462039150000e-001) (13, -2.84385165242783180000e-001) (14, 9.30101923184104700000e-002) (15, 5.15839394977668510000e-001) (16, 2.53841354382784880000e-001) (17, 3.57668484102573630000e-001) (18, 3.89688226902395520000e-001) (19, 4.02037823141891740000e-001) (20, 1.10301557073366880000e+000) (21, 2.77402643566968220000e+000) (22, 2.24049521095003260000e-001) (23, 1.47912667977247840000e-001) (24, -3.38782594476268440000e-003) (25, 2.55840613073080980000e-001) (26, 6.87189825523294580000e-002) (27, -3.78638546527603870000e-001) (28, -6.14201676655291230000e-002) (29, 1.90619201375329010000e-001) (30, 3.25166465246341910000e-001) (31, 1.28223139678471810000e+000) (32, -3.60376393457083960000e-002) (33, 9.40619918737875680000e-002) (34, 1.27238007092089630000e-001) (35, 3.80702635240588620000e-001) (36, 2.08689844933603670000e-002) (37, 5.53298041004379960000e-001) (38, 2.18211586744136290000e-002) (39, 3.99658515124375670000e-001) (40, -3.98670898271576220000e-002) (10, 4.37168060790647740000e-001) (11, -1.21152625061579160000e+000) (12, -9.74996398239811320000e-002) (13, 1.72983354274193090000e-001) (14, 7.21671533983106680000e-001) (15, -2.12220326335567620000e-001) (16, 2.82406363727653930000e-001) (17, 1.89407960203403250000e-001) (18, -4.31046511188484080000e-001) (19, 1.28220280096150190000e-001) (20, 6.37858099740067570000e-001) (21, 1.80371536272615910000e+000) (22, -2.40942950242011120000e-002) (23, -4.80377883409417390000e-001) (24, 5.94154492228482710000e-001) (25, 8.35397923672629770000e-001) (26, -2.71348333349316770000e-002) (27, -1.96548895260299670000e-001) (28, -6.21236160692036130000e-001) (29, 3.32240275396426530000e-001) (30, -2.33219459088113230000e-001) (31, 2.05377328233131480000e-001) (32, 7.83443389254418370000e-001) (33, 4.17051118356645710000e-001) (34, -2.19057348977523850000e-001) (35, -8.73187351084547120000e-003) (36, -2.63537799187301190000e-001) (37, 2.39995546687292640000e-001) (38, 3.37318876663655970000e-002) (39, 2.26121913314634740000e-001) (40, 3.02353849222884000000e-001) (10, -2.17274470106211590000e-001) (11, 5.44740454911703750000e-001) (12, 1.40859988555182950000e-001) (13, 3.21719510534265510000e-001) (14, 2.70395086496821090000e-001) (15, 7.39308425319536580000e-002) (16, -1.74482073740031080000e-001) (17, 4.57544929097439490000e-001) (18, -4.79132943563921470000e-002) (19, 6.21225641522767490000e-001) (20, 6.52786684857230900000e-001) (21, 2.20276961766992490000e-001) (22, -1.53660001965191250000e-001) (23, 1.67002168852806520000e+000) (24, 1.85977720640477410000e-002) (25, -7.06492530139106320000e-002) (26, 6.10387797832237620000e-001) (27, 2.07694934566147540000e-001) (28, 9.14739410231851460000e-001) (29, 6.26823383100614110000e-002) (30, 7.16848795315632730000e-001) (31, 1.14783847342863010000e-001) (32, 1.38452843295481990000e-001) (33, -1.00011585396148570000e-001) (34, 6.74184242283808800000e-001) (35, 3.19463682912498190000e-002) (36, 8.06468310170808670000e-001) (37, 5.16023984751130650000e-001) (38, 2.30482132728723980000e-001) (39, -1.55762461669105930000e-001) (40, 5.92341356739287890000e-001) (10, 1.05131912331197850000e-001) (11, -1.11005950269928950000e-001) (12, 3.90253534999514600000e-001) (13, 7.63899743156156500000e-001) (14, 3.11438394521862230000e-001) (15, -7.58694946107532080000e-002) (16, 3.61214065793688750000e-001) (17, -2.40689016809227500000e-001) (18, 1.33697102039757240000e-001) (19, 6.01611973030636180000e-001) (20, 3.66849460820516560000e-001) (21, -1.99330094449495230000e-002) (22, -5.65622570474620280000e-001) (23, -3.49307644041511110000e-002) (24, 2.14425841018546680000e-003) (25, 6.64701671252353350000e-001) (26, -2.69222745728236230000e-001) (27, 1.63329383621120590000e-001) (28, -1.95679444271024660000e-001) (29, -7.96272979960970830000e-003) (30, -1.34421124953308160000e-001) (31, 5.11026347930725540000e-001) (32, 5.46466532056710810000e-001) (33, 5.36120240915226730000e-002) (34, -3.93841393664122390000e-002) (35, -1.83149633299343080000e-001) (36, -1.21613630303739880000e-001) (37, 1.55601975368398760000e-001) (38, 1.94594236858180500000e-001) (39, 2.27455047051430830000e-001) (40, -1.53373132296798220000e-001) (10, -4.16217359730332410000e-001) (11, 5.99215871154366360000e-001) (12, 4.04977836616127300000e-001) (13, -6.78893992206455480000e-003) (14, 6.23011673038941560000e-001) (15, 7.94511054138183490000e-002) (16, -2.76144139223858530000e-002) (17, 9.91337403803918550000e-002) (18, -3.41631646190585430000e-002) (19, 2.06740388853094790000e-001) (20, 4.87094832872038530000e-001) (21, -5.08179583906903310000e-002) (22, -1.25313635172595610000e-001) (23, 5.43030913629572340000e-001) (24, 2.06656560726350970000e-001) (25, -2.05635054413382980000e-001) (26, 4.09156241959269080000e-001) (27, 4.62402679361489320000e-001) (28, 5.65627198213212940000e-001) (29, -2.23843542585545870000e-001) (30, 5.20523437837191020000e-001) (31, -5.30633214701356050000e-001) (32, -4.42186175025305810000e-002) (33, -2.22813058264396900000e-001) (34, -4.35530372765070490000e-002) (35, -3.62120356798086630000e-001) (36, 7.50379905483338660000e-001) (37, -7.69335703350399470000e-002) (38, -7.78295070299946380000e-002) (39, 2.73655546180838370000e-001) (40, 5.56477861721378030000e-001) (10, 4.38030793375968060000e-001) (11, -3.14294568339644820000e-002) (12, 6.61419803479891130000e-002) (13, 2.24883743722105820000e-001) (14, 1.53683302578813320000e-001) (15, 4.48850099833375370000e-001) (16, 1.59682778057883670000e-001) (17, 3.88954510366123140000e-003) (18, -1.58761034181724240000e-001) (19, 5.11369199151107680000e-001) (20, 2.34240458672134280000e-001) (21, -5.17804494246387640000e-001) (22, -2.24587006169617120000e-002) (23, 3.06349178472764580000e-002) (24, 1.05425899688897030000e-002) (25, 4.22750133026201960000e-001) (26, -4.48486231558538170000e-001) (27, -2.34891184600457050000e-001) (28, 2.57165840399709060000e-002) (29, -1.99262294309850010000e-001) (30, 6.40741628919369480000e-001) (31, -2.59326536469361660000e-001) (32, -2.78529469109714710000e-001) (33, -6.35626323009160640000e-002) (34, 3.13939023354828540000e-001) (35, -5.21807398641385980000e-002) (36, 5.27229943535380270000e-002) (37, 3.94060983595973910000e-001) (38, 6.01422045601315620000e-001) (39, 3.55106583242977720000e-001) (40, -1.70607558574600970000e-001) (10, 2.20324915135506920000e-001) (11, 1.00184985343600010000e-001) (12, -1.66566087939759220000e-001) (13, -1.51790547380490500000e-002) (14, 6.30828166507776070000e-001) (15, 4.10644110680725700000e-001) (16, 1.54151919385551700000e-001) (17, -1.42285365769107330000e-001) (18, 9.97632037755138310000e-001) (19, 3.41446579730911690000e-001) (20, -8.49981181181245990000e-001) (21, -2.89588892929149630000e-001) (22, -3.45664726393819450000e-001) (23, 2.00688764061899150000e+000) (24, 2.65655362962410160000e-001) (25, -2.01660739250832890000e-001) (26, 5.83869542094857970000e-001) (27, -1.52163309779615850000e+000) (28, 1.42771262593322790000e-001) (29, 2.78774603866854880000e-001) (30, 7.08384073691298300000e-001) (31, 8.13057997705497050000e-002) (32, -6.43486978240076500000e-003) (33, 4.77319681753024190000e-001) (34, 4.57172147588565720000e-001) (35, 3.79795865160345250000e-001) (36, 9.01492384789573050000e-001) (37, 2.52730996066189870000e-001) (38, -2.25654341639562410000e-001) (39, -7.34309057653012020000e-002) (40, 4.45351782755554040000e-001) (10, 3.33371215260600600000e-001) (11, 1.21627000271995790000e-001) (12, 9.78634746035025760000e-001) (13, -2.92385789830976020000e-001) (14, 6.96356587725613260000e-001) (15, 5.48243265086797330000e-001) (16, 4.77964490368542660000e-001) (17, 3.56081591639423430000e-001) (18, -2.21533108978798740000e-001) (19, 3.88292883347777010000e-001) (20, 6.73846358527573350000e-001) (21, 7.13205170123537850000e-002) (22, -2.82843630079926630000e-001) (23, -7.38536526307193690000e-001) (24, -1.94302886256253890000e-002) (25, 5.37080393103478330000e-001) (26, -2.71413898151942280000e-001) (27, 7.74567834768201820000e-002) (28, -5.33701174002657710000e-001) (29, -5.99047544464593320000e-002) (30, -1.21899332436525410000e-001) (31, 7.00491581725434690000e-001) (32, 9.42764012729253860000e-002) (33, -1.55199857919747110000e-001) (34, 1.95335416493329140000e-001) (35, -2.46534707625210960000e-001) (36, 1.12940874363591570000e-001) (37, 1.54391064611535650000e-001) (38, -2.01677518062791690000e-001) (39, 4.04693240508681500000e-001) (40, -3.24754792395929140000e-001) (10, -6.69143232342103850000e-002) (11, 3.56598046777417850000e-001) (12, 2.39217200388332750000e-001) (13, -8.17595325264786290000e-001) (14, -2.99205982903231030000e-001) (15, 2.46953981475900920000e-001) (16, -1.34019286158244710000e-001) (17, 6.62495902606908270000e-001) (18, 3.62879883742668050000e-001) (19, 5.90760714474110190000e-002) (20, 7.19279898200801520000e-001) (21, -4.42264386229854810000e-003) (22, 7.40108781364242070000e-001) (23, -2.80565972761244240000e-003) (24, -9.61508605466419590000e-001) (25, -4.97010756026835880000e-002) (26, 4.27411129700422220000e-001) (27, -9.00213008315199460000e-001) (28, 1.98087666690908940000e-001) (29, 1.64108652347335020000e-001) (30, 7.01835921882336230000e-001) (31, 4.15510818673060780000e-001) (32, -2.07468461336251580000e-001) (33, 5.70101214756123740000e-001) (34, 3.30369061239871920000e-001) (35, 2.75636169953683900000e-001) (36, 5.63748928568736150000e-001) (37, 9.44025387919488090000e-001) (38, -6.90960273046234640000e-001) (39, -4.04025975561758950000e-001) (40, 3.52936865536738860000e-001) (10, -2.13998649444123110000e-001) (11, 3.22991821028053360000e-002) (12, 1.11289433934055380000e-001) (13, -4.17849983798790070000e-001) (14, 7.88075390480005580000e-002) (15, -4.24185817219595750000e-001) (16, 9.68945232810677210000e-003) (17, 6.82354503154211920000e-002) (18, -3.14861415499175790000e-001) (19, 8.85218063979416270000e-001) (20, -5.84738100528688800000e-001) (21, 5.18234023959955120000e-002) (22, 2.11979307632611360000e-001) (23, -1.42332222261422040000e+000) (24, 6.56785356345035540000e-001) (25, 1.26984935264845830000e-001) (26, 5.26990992300205410000e-001) (27, -2.49206231361749440000e-001) (28, 8.25655952523302480000e-001) (29, -4.25960846426740870000e-001) (30, 2.05726740482269940000e-001) (31, 6.35996698699337170000e-001) (32, -1.99327091235369620000e-001) (33, 5.51244638504785000000e-001) (34, -5.06060904728828140000e-001) (35, 2.44521246105382530000e-001) (36, 3.06652817481902710000e-001) (37, -3.83620894277798440000e-001) (38, 4.80118038991949330000e-001) (39, 4.23872813343861340000e-001) (40, 7.10158923608482210000e-001) (41, -7.43921715919275470000e-001) (42, 1.08626208134564030000e+000) (43, 2.99057956822751050000e-001) (44, -6.32020840536706820000e-001) (45, 1.58254990512593670000e-001) (46, 1.99949419494223450000e-002) (47, -1.05772605383438160000e-001) (48, 5.33817217813165930000e-001) (49, 7.08135876180998050000e-002) (50, 1.36122637595274320000e-001) (51, -1.39618747860569940000e-001) (41, 3.37036327384386690000e-002) (42, -3.66635174659025290000e-001) (43, 9.36795143856551490000e-001) (44, 1.13975724175213800000e+000) (45, -1.18599784387497810000e+000) (46, 4.18847091365523590000e-002) (47, -1.28102355830228300000e-001) (48, 7.06015984254263150000e-001) (49, -1.11400823220823880000e-001) (50, 2.28169129377463280000e-001) (51, -2.59914259093083150000e-002) (41, -1.80927439776205970000e-002) (42, 9.54452224922828770000e-002) (43, 6.82351206058999570000e-001) (44, 1.80512489786220900000e+000) (45, 4.11859394448832570000e-001) (46, 1.97044887854133430000e-001) (47, 6.83094105608181150000e-002) (48, 3.71576538210302400000e-001) (49, 6.23020685307314820000e-002) (50, -4.02113140665710590000e-002) (51, -3.86697082300504810000e-001) (41, -3.19448541119119670000e-002) (42, 6.89234475661618110000e-002) (43, -3.02877294511918690000e-001) (44, 3.61544585488711160000e-002) (45, 9.64492291439259800000e-002) (46, 4.64001841633465210000e-002) (47, 2.58727528145852700000e-001) (48, 3.35679942036328280000e-001) (49, 3.46383693563078850000e-001) (50, -1.13726581817437130000e-001) (51, 1.00724638095232840000e-001) (41, 1.13545617367568880000e-001) (42, 2.59699769011979890000e-001) (43, -7.02847222352705140000e-001) (44, 3.86460739339186900000e-001) (45, 6.48147001286101140000e-001) (46, 1.41229428014382270000e+000) (47, -9.10733899524575290000e-001) (48, -2.51607225648309560000e-002) (49, 4.73497824271048860000e-001) (50, 6.82482181942431380000e-001) (51, 1.67655101462197200000e-001) (41, 1.86666684838217300000e-002) (42, 1.35625460792023650000e-002) (43, -4.23181801393830230000e-002) (44, 9.23376055921518860000e-002) (45, 1.22942156670964780000e-001) (46, -2.95052163284084240000e-003) (47, 5.24498119038662100000e-002) (48, 1.95542819043411980000e-001) (49, -4.89351897552826810000e-002) (50, 2.53185069586363110000e-001) (51, -1.21671466953768850000e-001) 
