FANN_FLO_2.1
num_layers=5
learning_rate=0.700000
connection_rate=0.300000
network_type=0
learning_momentum=0.000000
training_algorithm=2
train_error_function=1
train_stop_function=1
cascade_output_change_fraction=0.010000
quickprop_decay=-0.000100
quickprop_mu=1.750000
rprop_increase_factor=1.200000
rprop_decrease_factor=0.500000
rprop_delta_min=0.000000
rprop_delta_max=50.000000
rprop_delta_zero=0.100000
cascade_output_stagnation_epochs=12
cascade_candidate_change_fraction=0.010000
cascade_candidate_stagnation_epochs=12
cascade_max_out_epochs=150
cascade_min_out_epochs=50
cascade_max_cand_epochs=150
cascade_min_cand_epochs=50
cascade_num_candidate_groups=2
bit_fail_limit=1.00000001490116120000e-001
cascade_candidate_limit=1.00000000000000000000e+003
cascade_weight_multiplier=4.00000000000000020000e-001
cascade_activation_functions_count=10
cascade_activation_functions=3 5 7 8 10 11 14 15 16 17 
cascade_activation_steepnesses_count=4
cascade_activation_steepnesses=2.50000000000000000000e-001 5.00000000000000000000e-001 7.50000000000000000000e-001 1.00000000000000000000e+000 
layer_sizes=10 41 31 21 7 
scale_included=0
neurons (num_inputs, activation_function, activation_steepness)=(0, 0, 0.00000000000000000000e+000) (0, 0, 0.00000000000000000000e+000) (0, 0, 0.00000000000000000000e+000) (0, 0, 0.00000000000000000000e+000) (0, 0, 0.00000000000000000000e+000) (0, 0, 0.00000000000000000000e+000) (0, 0, 0.00000000000000000000e+000) (0, 0, 0.00000000000000000000e+000) (0, 0, 0.00000000000000000000e+000) (0, 0, 0.00000000000000000000e+000) (3, 5, 1.00000000000000000000e+000) (4, 5, 1.00000000000000000000e+000) (4, 5, 1.00000000000000000000e+000) (3, 5, 1.00000000000000000000e+000) (4, 5, 1.00000000000000000000e+000) (4, 5, 1.00000000000000000000e+000) (3, 5, 1.00000000000000000000e+000) (4, 5, 1.00000000000000000000e+000) (4, 5, 1.00000000000000000000e+000) (4, 5, 1.00000000000000000000e+000) (3, 5, 1.00000000000000000000e+000) (4, 5, 1.00000000000000000000e+000) (4, 5, 1.00000000000000000000e+000) (3, 5, 1.00000000000000000000e+000) (4, 5, 1.00000000000000000000e+000) (4, 5, 1.00000000000000000000e+000) (3, 5, 1.00000000000000000000e+000) (4, 5, 1.00000000000000000000e+000) (4, 5, 1.00000000000000000000e+000) (4, 5, 1.00000000000000000000e+000) (3, 5, 1.00000000000000000000e+000) (4, 5, 1.00000000000000000000e+000) (4, 5, 1.00000000000000000000e+000) (3, 5, 1.00000000000000000000e+000) (4, 5, 1.00000000000000000000e+000) (4, 5, 1.00000000000000000000e+000) (3, 5, 1.00000000000000000000e+000) (4, 5, 1.00000000000000000000e+000) (4, 5, 1.00000000000000000000e+000) (4, 5, 1.00000000000000000000e+000) (3, 5, 1.00000000000000000000e+000) (4, 5, 1.00000000000000000000e+000) (4, 5, 1.00000000000000000000e+000) (3, 5, 1.00000000000000000000e+000) (4, 5, 1.00000000000000000000e+000) (4, 5, 1.00000000000000000000e+000) (3, 5, 1.00000000000000000000e+000) (4, 5, 1.00000000000000000000e+000) (4, 5, 1.00000000000000000000e+000) (4, 5, 1.00000000000000000000e+000) (0, 5, 1.00000000000000000000e+000) (13, 5, 1.00000000000000000000e+000) (13, 5, 1.00000000000000000000e+000) (13, 5, 1.00000000000000000000e+000) (13, 5, 1.00000000000000000000e+000) (13, 5, 1.00000000000000000000e+000) (13, 5, 1.00000000000000000000e+000) (13, 5, 1.00000000000000000000e+000) (13, 5, 1.00000000000000000000e+000) (13, 5, 1.00000000000000000000e+000) (13, 5, 1.00000000000000000000e+000) (13, 5, 1.00000000000000000000e+000) (13, 5, 1.00000000000000000000e+000) (13, 5, 1.00000000000000000000e+000) (13, 5, 1.00000000000000000000e+000) (13, 5, 1.00000000000000000000e+000) (13, 5, 1.00000000000000000000e+000) (13, 5, 1.00000000000000000000e+000) (13, 5, 1.00000000000000000000e+000) (13, 5, 1.00000000000000000000e+000) (13, 5, 1.00000000000000000000e+000) (13, 5, 1.00000000000000000000e+000) (13, 5, 1.00000000000000000000e+000) (13, 5, 1.00000000000000000000e+000) (13, 5, 1.00000000000000000000e+000) (13, 5, 1.00000000000000000000e+000) (13, 5, 1.00000000000000000000e+000) (13, 5, 1.00000000000000000000e+000) (13, 5, 1.00000000000000000000e+000) (13, 5, 1.00000000000000000000e+000) (13, 5, 1.00000000000000000000e+000) (0, 5, 1.00000000000000000000e+000) (10, 5, 1.00000000000000000000e+000) (10, 5, 1.00000000000000000000e+000) (10, 5, 1.00000000000000000000e+000) (10, 5, 1.00000000000000000000e+000) (10, 5, 1.00000000000000000000e+000) (10, 5, 1.00000000000000000000e+000) (10, 5, 1.00000000000000000000e+000) (10, 5, 1.00000000000000000000e+000) (10, 5, 1.00000000000000000000e+000) (10, 5, 1.00000000000000000000e+000) (10, 5, 1.00000000000000000000e+000) (10, 5, 1.00000000000000000000e+000) (10, 5, 1.00000000000000000000e+000) (10, 5, 1.00000000000000000000e+000) (10, 5, 1.00000000000000000000e+000) (10, 5, 1.00000000000000000000e+000) (10, 5, 1.00000000000000000000e+000) (10, 5, 1.00000000000000000000e+000) (10, 5, 1.00000000000000000000e+000) (10, 5, 1.00000000000000000000e+000) (0, 5, 1.00000000000000000000e+000) (7, 0, 1.00000000000000000000e+000) (7, 0, 1.00000000000000000000e+000) (7, 0, 1.00000000000000000000e+000) (7, 0, 1.00000000000000000000e+000) (7, 0, 1.00000000000000000000e+000) (7, 0, 1.00000000000000000000e+000) (0, 0, 1.00000000000000000000e+000) 
connections (connected_to_neuron, weight)=(9, 8.01691701033425130000e-001) (2, -6.65893042441535470000e-001) (1, -9.61537325236365430000e-003) (9, 3.32186773880717050000e-001) (2, 6.02678908451027670000e-001) (3, 2.48179800140696930000e-002) (8, -2.36312694258387270000e-001) (9, -1.56252135069521990000e-001) (6, 6.35325882212201540000e-002) (4, -3.07522814356414010000e-002) (7, 1.00897890930502590000e+000) (9, 1.95553737512387190000e-001) (2, 4.97784052800098800000e-001) (4, 7.85924380849707810000e-002) (9, 1.00931200422949430000e+000) (5, 2.78245066917714110000e-001) (4, 6.98938234915669310000e-001) (1, -5.12814672977300550000e-001) (9, 5.11655097206902830000e-001) (8, -5.27802372690406520000e-002) (3, 1.93096339418620600000e-002) (2, 6.08222605470418180000e-001) (9, -1.82358143288814200000e-001) (6, 2.65283673257656840000e-001) (7, -7.15860638300089420000e-002) (9, 3.19600541601810230000e-001) (0, 9.48874769251292770000e-001) (3, 5.91395015100131330000e-003) (5, 2.62288329721853220000e-002) (9, 1.02408756683525690000e+000) (7, -3.45405149851715640000e-002) (2, 8.66042794058650480000e-001) (3, -1.91633490883376720000e-001) (9, 1.09238673308836120000e-001) (4, 4.44952898360464410000e-002) (1, -4.06624501192685720000e+000) (5, 2.10467734765235160000e-002) (9, 1.73748568464317330000e-001) (1, 7.96147550480735600000e-001) (2, -1.50808101387314040000e-001) (9, 5.64481757380940640000e-001) (0, 1.43491055921566880000e+000) (3, 7.69521885554465270000e-002) (1, -6.48033084276384060000e-001) (9, -6.04072363930401650000e-001) (4, -9.59704083506472680000e-002) (5, -4.61701467060242400000e-001) (8, 1.84719409481634180000e-002) (9, 2.58328417808958600000e-001) (7, -1.39226156700561110000e-002) (6, 3.67884122681008340000e-001) (9, 1.98622061973547950000e-001) (8, -1.31175294722360380000e-002) (1, -2.87168238170951630000e+000) (5, 2.34899438763590610000e-002) (9, 5.80589795414195380000e-002) (4, 8.20037580227856930000e-003) (2, 5.58969500168688060000e-002) (6, 3.39515553368095970000e-001) (9, -5.10423337563213670000e-001) (5, 6.14081625025482410000e-002) (3, 1.20429195690625350000e-001) (9, 1.86021318956658080000e-001) (2, -4.85636029411657450000e-001) (8, 1.03638001164388500000e-001) (1, 3.50926687916481160000e-002) (9, 2.58093646511610260000e-001) (2, 1.01959700867109090000e-001) (5, 2.38980330369490120000e-002) (7, -6.98576838007342940000e-001) (9, 5.41936732341103290000e-001) (5, 2.16595291787983950000e-001) (6, -1.41296721161103390000e-001) (7, 1.06793439088312140000e-001) (9, 9.84988613529581230000e-001) (6, 6.89083190675883640000e-001) (4, 1.38498794104011640000e-001) (9, 1.56012737922393300000e+000) (4, 1.71870086497670940000e-001) (6, 4.81672281511447250000e-001) (1, -1.64682515626706640000e+000) (9, 2.39303843010429760000e-001) (1, -1.93854141419339250000e+000) (6, 6.16280582047331670000e-002) (5, 6.60774141004464990000e-002) (9, -1.83239480679918830000e-002) (2, -2.18034536856790140000e-001) (7, 1.40484750377535580000e-001) (9, 5.42928672540932580000e-001) (6, -2.21225038473469760000e-002) (5, -1.93714153817329430000e-002) (7, 4.78172720506119310000e-001) (9, 2.73410502474275060000e-001) (3, -3.74614577999262680000e-001) (5, -2.47680157831844980000e-003) (0, -5.85446482249553650000e-001) (9, 1.68874372122633700000e-001) (4, -1.60083447525038450000e-001) (7, 1.32643223977135680000e-001) (9, 1.12455766362379850000e-001) (0, 6.70696896182273240000e-001) (4, 1.08589490148727680000e-001) (7, -1.48019390844164570000e-001) (9, -2.49472008154548560000e-001) (5, 1.16486852257804810000e-001) (6, 1.21141836231340480000e-001) (3, 1.74838732117599400000e-001) (9, 8.11011739481075300000e-001) (3, 8.78400697929435370000e-002) (2, -9.92271509844045580000e-002) (0, -1.19394877127530810000e+000) (9, -5.14022353431021650000e-001) (0, 1.28452161380212470000e+000) (3, 9.72355739907556500000e-002) (9, 3.22548492298303570000e-001) (5, 4.98688568771142180000e-002) (3, 3.49984058090220750000e-002) (6, 5.29709817070701190000e-001) (9, -2.90031129949092410000e-001) (4, -3.79054254874211310000e-002) (0, 7.42206147259868860000e-002) (7, 9.61791960441029990000e-001) (9, -2.39238920262598520000e-001) (4, -2.57767594147208350000e-001) (3, 4.01697418875032260000e-002) (9, -5.87533990184822550000e-001) (3, 3.35898411381671540000e-002) (2, -1.07463763448035680000e-001) (1, 2.52160876554842780000e+000) (9, -5.54812049476386630000e-001) (0, -9.15712402701000520000e-001) (8, 4.42112194724477310000e-003) (1, 1.23106541046777010000e+000) (9, -2.07125584216184710000e-001) (8, -3.33952490854488750000e-001) (6, 4.84284941143424020000e-001) (9, 8.97092988415983810000e-002) (5, -1.12385358600133720000e-002) (8, 4.67607781670329290000e-001) (3, -9.51137649902032180000e-003) (9, 1.32470056387459370000e+000) (3, -3.45346256710959370000e-001) (6, -3.46399484385503390000e-001) (2, -3.34634739267878550000e-002) (9, -6.87432364808051170000e-002) (3, -3.65226463083161480000e-001) (4, 2.30627314884764760000e-001) (8, 9.62282163782488820000e-002) (50, -6.10561310468023090000e-001) (40, 3.77773646808932500000e-001) (24, 4.08379135656253560000e-001) (47, -3.53829756775529250000e-001) (27, 3.69128879369395020000e+000) (20, 7.92790821682985980000e-001) (36, -7.41689884529059930000e-001) (14, 2.62739331774502760000e-001) (29, -1.73458131366924440000e-002) (31, -5.75592138980429600000e-001) (10, 1.23439613058272490000e+000) (13, -8.83660455172823100000e-001) (43, 1.88228777942055310000e-001) (50, -2.87752869643927380000e-001) (19, 4.19856757819509150000e-001) (26, 9.06984537586748020000e-001) (35, 4.27054064379281670000e-001) (48, -4.33974296602294580000e-001) (15, -7.53925780544823470000e-003) (33, 3.95609115369860490000e-001) (24, -1.30589437163576480000e-003) (20, -7.31001169988476220000e-002) (31, 1.05629872134505880000e-002) (21, -4.72056179259500830000e-001) (11, 1.29013004944039580000e+000) (13, 1.76495456901011800000e+000) (50, -6.93350003951561770000e-001) (45, -7.04141767876422240000e-001) (38, 3.51319289058161230000e-002) (20, 5.68680548761416310000e-003) (29, -2.17591060261447140000e-001) (34, 4.12476837844266310000e-001) (49, -1.78003205461948390000e-001) (33, -9.69545260049966270000e-002) (31, -6.42636259309200430000e-001) (24, 2.65450119900150380000e-001) (11, -9.60834099850191160000e-002) (18, 2.49777485347362910000e-001) (41, 5.45243961366254410000e-001) (50, -4.57174731851808650000e-002) (39, 1.53488308314101140000e+000) (22, 8.65329930538771140000e-002) (12, 1.44475560317780410000e-002) (23, 2.81503239070962260000e-002) (31, -3.40039479970754010000e-002) (18, -6.06473568736910380000e-001) (11, -1.89954145826315370000e-001) (21, 1.75080001225328020000e-001) (16, 1.25278948314046470000e+000) (24, -1.82553571423970080000e-001) (40, -3.55731777887875970000e-001) (49, 3.91647893663273740000e-001) (50, -5.36810330815400190000e-001) (21, -1.98735349360615350000e-001) (24, -2.33825672383840110000e-001) (16, -1.43347037019322940000e-001) (41, -4.22148177237961660000e-001) (27, -1.21328198591157780000e+000) (34, -8.58396137420635860000e-002) (12, 6.59050841677591760000e-001) (44, 3.64323679854023310000e-001) (45, -6.79465597491408670000e-001) (29, 1.55986365085924480000e-001) (20, -4.84737827750030980000e+000) (17, 1.93681285210783120000e-001) (50, 3.13333967346222040000e-001) (47, -3.27986896975780430000e-002) (43, 6.67727055115893140000e-001) (36, -4.65909710420252250000e-002) (48, -1.57437794805802440000e-001) (19, -4.33044837167192440000e-002) (23, -4.30246880242127980000e-001) (33, 6.83497519129195870000e-001) (37, 6.43770920153826530000e-001) (25, -7.49466259913958150000e-002) (42, -9.33589644491487070000e-001) (12, -3.55123317404998360000e-002) (32, -2.22092368495686390000e-001) (50, -1.05920434626255790000e-001) (47, 2.99678690403260150000e-002) (42, 1.33306267765412880000e+000) (45, 5.07874788408754770000e-002) (36, -9.08721241557096940000e-002) (17, -4.12001128721157710000e+000) (14, 1.56495945963365140000e-001) (39, 4.45507513261978290000e-001) (30, 1.10964815492017310000e+000) (43, 4.48078536095629420000e-001) (34, -3.64906775989540630000e-001) (32, 3.83651899885326310000e+000) (22, 5.07741199102066720000e-001) (50, 2.89325476805140540000e-001) (10, 3.91958708407279480000e-001) (45, 3.02051197768905820000e-001) (42, -6.95547717289270010000e-001) (48, 9.82667161245881160000e-001) (25, 7.25530485858221890000e-001) (46, 3.68174623248862460000e-001) (44, 5.54587603146036060000e-001) (43, -1.47637816903689410000e-001) (49, -3.89384407071856340000e-001) (40, -2.03390019739361550000e-001) (26, -4.13862955667334050000e-001) (27, -4.73412690860188070000e+000) (50, 9.67580926938691910000e-001) (13, -1.72972922611231870000e-001) (45, 3.01474171442995820000e+000) (25, 1.19328547930742550000e+000) (46, 1.14101580933961830000e-001) (15, -7.73381257735393430000e-003) (32, -9.27798557859758950000e-001) (37, -7.35192199842557900000e-001) (28, 1.95223242645203010000e+000) (41, 4.53441504056208090000e-001) (31, 1.05092185277114840000e+000) (17, -9.24990032534412700000e-001) (24, -2.05759904299501170000e-001) (50, 8.25443844452756540000e-001) (42, 3.09598606023662420000e-002) (25, 1.53577275914998900000e+000) (21, 4.09033095669571860000e-001) (37, -6.43122650923888100000e-001) (18, 2.76640696578730140000e-001) (26, -2.47524178529694110000e-001) (23, 3.99030213231723050000e-001) (14, -1.90226095535009110000e-002) (22, -5.28240954360599260000e-002) (11, -5.85535839200032160000e-001) (39, -5.30285756856823220000e-001) (17, -4.62799221462616290000e-002) (50, -3.17068981173822820000e-001) (14, 2.33812459516349050000e-001) (29, 1.01331017337227000000e+000) (15, 1.17538573747072770000e+000) (25, 4.33392360638289680000e-001) (48, 3.42671130335685360000e-001) (16, -2.35075909895260450000e-001) (22, 1.26698414849459920000e+000) (39, 5.64777725283224120000e-001) (23, 1.84718146896646650000e-001) (38, -4.77509730852199280000e-001) (40, 7.99994325081957670000e-001) (17, -3.07608533561669560000e-001) (50, 3.97487970746851550000e-001) (16, 4.68488868280122760000e-001) (45, 1.89967055289478370000e+000) (30, -4.14329118702896350000e-001) (15, 1.96534377393629100000e-002) (33, 1.23828696122478930000e-001) (25, -1.08959277434077890000e+000) (31, 6.01712609341261280000e-002) (27, -2.45270128951669130000e+000) (48, -1.91458598744494670000e-001) (19, -4.58564368564563620000e-001) (43, 1.18048839976098140000e+000) (38, 2.00228638940524010000e-001) (50, 1.15234744987084030000e-001) (18, -6.25548473378886080000e-001) (23, 1.62867543011397980000e-003) (32, 5.69397686689771530000e-001) (12, 9.75485446533171710000e-001) (14, 5.16706532517890000000e-001) (40, 6.80762534752325730000e-001) (13, 3.34934491543157850000e-001) (35, 9.83268743419018930000e-001) (28, 1.21874554339850880000e+000) (43, 6.99060980198191520000e-001) (27, 1.11778744350026590000e+000) (26, 2.56340073045267010000e-001) (50, -1.27166362871073110000e-001) (41, 1.48440267436028040000e-003) (48, 3.85860825690878210000e-001) (12, 3.33969360672877410000e-001) (32, 4.52907899280204140000e-001) (16, 1.86591041167064460000e+000) (47, 1.42841402903559710000e-001) (49, 4.86301492268407080000e-001) (39, 1.19750670258385370000e+000) (31, 2.60980318729753410000e-001) (33, 1.36260994381819240000e+000) (28, 5.89152032815747680000e-001) (37, -1.25340071701672070000e+000) (50, 3.56491154412123310000e-001) (46, -7.79963063212962050000e-001) (21, 7.76261442940956110000e-001) (33, -3.60903824458134400000e-001) (27, 1.44449977191814960000e+000) (28, 7.08454186837481070000e-001) (11, -9.63853736782836920000e-001) (30, 2.81878822260782200000e-001) (31, -1.34526014762867050000e-001) (48, -9.92800766390493220000e-002) (40, -1.44151765658344450000e-001) (12, -2.25180535102812410000e-001) (20, 2.53073761016996860000e+000) (50, 3.81783711578216560000e-001) (34, 1.64087909929157440000e+001) (39, -2.55606438513081680000e-001) (23, -8.59076428482107860000e-001) (48, -6.28284336157290850000e-001) (28, -3.45421145551315550000e+001) (24, 3.67928674434689570000e+001) (27, 6.40897431474378280000e+000) (46, 5.72777425469577660000e-001) (40, 9.93914161271681750000e-001) (38, -3.38637465679005160000e-001) (37, 6.85537188630635510000e-001) (20, -4.23864536699202570000e+001) (50, 7.49075481518125530000e-001) (37, 1.25936820354995930000e-001) (33, -2.41012151826506480000e-001) (32, 2.82325496965005750000e-001) (34, 4.35009642008069690000e-001) (28, -1.74338479072008220000e-001) (15, -1.08547913110753050000e+000) (46, -8.86772479973324810000e-002) (23, 1.29515899798712410000e+000) (12, -5.15771895868069490000e-001) (36, 3.27826310565594790000e-002) (45, 1.29914976184415230000e+000) (30, -4.37150975522676620000e-001) (50, 2.60612902939628130000e-001) (27, 2.89889780340737650000e+000) (33, -7.37225807693654310000e-001) (34, -9.17431279806903090000e-001) (11, -1.62400011126852230000e+000) (46, 2.50009814246660800000e-001) (19, 6.60963599209087980000e-001) (26, 1.81513304154556470000e-001) (13, 9.97459402316420130000e-003) (47, 2.30722801554858780000e-001) (36, -1.29872306650817340000e-001) (20, 3.31716231406037610000e+000) (40, -2.82202292215295640000e-001) (50, 5.11138429612820300000e-001) (32, -4.15273357105524040000e-001) (43, 1.19461176908050960000e+000) (44, 1.02925213647097440000e+000) (13, 1.88704743350674500000e-001) (25, -2.85390438611359490000e-001) (38, 5.90692645364816360000e-001) (11, 1.70051818759784450000e-001) (48, 3.48746766011815310000e-001) (18, 2.26628061986513140000e-001) (49, 3.05777564984805520000e-001) (42, -3.15610278635350350000e-001) (37, 1.68867640707091510000e-001) (50, -3.00612142399722450000e-001) (29, 5.34271333987382250000e-001) (36, 1.59348989823417050000e-001) (39, 8.20321644517098210000e-001) (34, -2.09167974757211690000e-001) (43, -1.36254043315042480000e-001) (41, 1.60622576606940460000e+000) (27, 9.20446122831134580000e-001) (18, -6.19690929594863270000e-002) (40, -1.00574361824707050000e+000) (31, -4.31613551492615540000e-001) (28, 4.29111422572581060000e-001) (32, -3.00952528993071410000e+000) (50, 2.18168418396855800000e-001) (40, 8.14359471128810800000e-001) (47, -4.63517258796877290000e-002) (37, 1.16962486958969390000e-001) (44, 1.63218673804646030000e+000) (13, -8.91210813496600580000e-001) (28, 2.54915688966084280000e+000) (25, -3.93824993847152580000e-001) (14, 1.34819944315195230000e-001) (33, -9.65857929386336740000e-001) (24, -1.49342955855138350000e+000) (21, 1.82194698304785270000e+000) (35, 7.19063285877745590000e-001) (50, -4.87475864880650840000e-003) (30, -2.82892154844802730000e-001) (31, 2.55912027393270070000e-001) (33, -6.93415250847511650000e-002) (39, 1.17351832692553180000e+000) (13, -3.27161469613707730000e-001) (16, 2.49827466689559820000e-001) (15, -5.87581789413518460000e-001) (32, 2.04121526009244800000e-001) (42, 6.54988563264469530000e-001) (28, 4.16649967092308840000e-001) (49, 4.81588613303362830000e-001) (38, 6.14519439804559360000e-001) (50, 4.62477953882311720000e-001) (28, 3.90729665234025360000e-001) (22, 1.45141607640187350000e-001) (39, -2.15491018841147960000e-001) (17, 1.66245123785791440000e+000) (49, 6.25917820432914800000e-002) (19, 1.03741569858167050000e+000) (25, 8.13303959801799260000e-001) (42, 1.52768513413272620000e+000) (38, -1.36008816113568520000e-001) (36, 5.44582795055343280000e-002) (11, 4.10943861484126260000e-001) (23, -1.52131603953166780000e+000) (50, -3.89591664904037900000e-001) (20, -6.78295063337547970000e-001) (41, -2.69151763571262750000e-001) (17, -8.65721675107118950000e-002) (43, 1.84604124714047140000e-001) (11, 1.31080879423554240000e+000) (37, 7.22756183669297500000e-001) (46, 4.09482524554188180000e-003) (34, 2.22170679039468800000e-001) (42, 9.55596180965495870000e-002) (35, 1.00298238680200340000e-001) (26, 3.65031619567280700000e-001) (28, 7.25498005640094060000e-002) (50, 9.62559866089695130000e-001) (10, -4.24636949294755480000e-001) (46, 1.21819354158786200000e+000) (27, 1.89184198883166950000e+000) (15, -2.68327777778813830000e-002) (42, 5.10549507788986000000e-001) (45, -1.94114689196520420000e-001) (36, 2.03223461819354660000e-001) (14, -2.93998705092092970000e-001) (31, 1.85640231939871910000e+000) (18, 8.01869280678539770000e-002) (47, 3.21869082997774260000e+000) (26, -5.81166671413419040000e-001) (50, 3.15963418129010020000e-001) (11, -9.45726349500602410000e-002) (12, 2.19955262175964640000e-001) (22, 1.93494493264135310000e-001) (25, 4.18658795780897650000e-001) (49, -3.43168440494326710000e-001) (29, 4.62870259281338900000e-001) (26, 1.04089600811728310000e+000) (33, 1.82312607384853580000e-001) (30, -7.51252131880602960000e-003) (40, -1.14818145766798610000e+000) (43, 1.43387901255559500000e-001) (35, 6.15059074825604070000e-001) (50, -1.53214070601554510000e-001) (17, 1.30941049691711160000e+000) (36, 2.81028593231153420000e-001) (49, 5.77856677721587390000e-002) (40, 3.71487043585299990000e-001) (48, 4.89499475255870060000e-001) (15, 1.40288127868220370000e-001) (11, 6.40007145141136210000e-001) (41, -8.63974948025698960000e-001) (47, -3.57845553952721050000e-001) (38, -2.61874513529380960000e-001) (25, -8.64402069452589180000e-002) (46, -5.04152027336678190000e-001) (50, -3.24698295519536330000e-001) (13, 1.00818871725995620000e-001) (15, -6.09825958927876280000e-001) (23, 3.59613754645040530000e-001) (42, -6.73501307322044380000e-001) (37, -7.47109860211426020000e-003) (35, 2.13957961896366820000e-001) (33, -1.51682158785055730000e-001) (46, -6.73694116440324430000e-002) (38, 3.90680946420344790000e-001) (25, -2.10349353135914070000e-001) (47, -1.37199991671956070000e-001) (30, 7.30173417343643270000e-001) (50, -1.56743458989569180000e-001) (15, 5.53086927817786000000e-002) (38, -4.63088783304296430000e-001) (24, 2.71666775982243200000e-001) (25, 1.14714203311688970000e-001) (26, 8.59813580300977100000e-001) (17, 3.41645949134328770000e-001) (18, 6.43772945154319230000e-003) (10, 1.62146251821606800000e+000) (32, -2.32036486175366160000e-002) (36, 8.17840053463598340000e-001) (11, -5.75737818413506130000e-001) (47, 4.41332464944919790000e-001) (50, -8.15369332958716830000e-001) (26, 6.27575253558610990000e-001) (42, -2.01569589680011650000e-001) (11, 7.55088623039758430000e-001) (41, -6.01755315256033980000e-002) (27, 5.87044814426144760000e-001) (28, -3.03294634147695560000e-002) (19, -7.89100595218120700000e-001) (46, 2.52542247767489350000e-002) (29, -7.01495559234247330000e-001) (14, 2.16187432222674340000e-001) (13, 1.95459166683405990000e-001) (18, -3.14552831238835260000e-001) (81, -1.54078122541370820000e-001) (72, 1.25096213657714280000e+000) (68, -2.15075045219007690000e-001) (54, 1.29124827998366840000e+000) (62, 6.82980563305954140000e-001) (53, 2.13317211265599440000e+000) (70, 6.69139615946141350000e-001) (74, -8.60910116476224950000e-001) (52, -2.59211826019304700000e-001) (73, -4.09203009542360720000e-001) (81, 5.15903664875798200000e-001) (55, 1.90608440632329670000e+000) (61, 4.12662311913620350000e+000) (67, 9.86853304784922840000e-001) (79, -1.10620474390650610000e+000) (59, -2.05446162112749630000e-001) (73, 1.55051105340810050000e-003) (56, 4.52541150071282370000e-001) (57, 8.02418566187194090000e-002) (53, 6.48235811359637930000e-001) (81, -5.40281160650503240000e-001) (70, 1.02735765758706200000e+000) (76, -7.37875802388362620000e-002) (52, 8.05889509146260790000e-001) (68, 2.25121643356175970000e+000) (67, 8.89061745109807180000e-001) (77, -1.85366626157014690000e-001) (72, -2.20661422781107720000e+000) (51, -1.45872546193008130000e+000) (78, -4.13463903651535010000e-001) (81, 5.45812443170237470000e-001) (54, -6.09713778830736140000e-002) (59, -5.53482755541808810000e-001) (74, 1.23125569925302190000e+000) (53, -4.96283684338791610000e-001) (67, -3.17676276235693610000e-001) (77, -2.60163684906568490000e-001) (52, -2.01211169888445420000e-001) (68, 1.10423886237695570000e+000) (71, -8.57603633392279570000e-002) (81, -1.75452987230050710000e-001) (71, -6.74157422314021760000e-001) (75, 7.21906348366033070000e-001) (77, 1.44296201158084010000e+000) (59, 2.83638973741693610000e-001) (54, 3.37178221853961400000e-001) (80, 7.15272778378901570000e-001) (51, 6.10676518719976340000e-002) (70, -8.33417182147214050000e-001) (61, -4.48436618617470250000e-001) (81, 1.27827885946551600000e-002) (51, -5.22197883861922340000e-001) (76, 2.64705366024159640000e-002) (75, -5.72909350641701900000e-001) (60, 3.39698180264296160000e-001) (57, -4.20229211041505180000e-001) (74, 2.10475748290538970000e+000) (59, 4.50940834358163840000e-001) (77, -8.06971691041824950000e-002) (70, 1.47141888069260730000e-001) (81, 6.61807370935596380000e-001) (58, -1.09304197805059890000e-001) (62, 2.27992556684683430000e-001) (77, 5.46605817862017340000e-001) (73, -1.47561389951021530000e+000) (64, -4.17372670872847570000e-002) (54, -2.23953474211598390000e-001) (56, -3.46529974362145500000e-001) (55, -5.22401492932952240000e-001) (67, 7.95771842199105850000e-002) (81, 6.86978003715360770000e-001) (59, 1.75252293070487290000e+000) (64, 2.12873201166534660000e-001) (74, 2.66959402712675100000e-001) (78, 4.57198764296145980000e-001) (76, 7.44911807930414340000e-001) (77, -2.07777216419581410000e-001) (66, 1.89748018683773000000e+000) (72, 2.16843867644688960000e-001) (71, -7.63947047758776640000e-001) (81, 5.57904897145761750000e-001) (52, -7.50950621551326750000e-002) (57, -5.73362006751071300000e-001) (60, 1.31497420212422140000e+000) (80, 7.45107180459366750000e-001) (65, 2.86787645416887760000e-002) (71, -1.71920939951941220000e-001) (54, -1.49482573953484920000e+000) (70, -4.44816794691379750000e-001) (69, -1.09490094797446890000e+000) (81, 1.27413587904526810000e-001) (61, -2.81646434938833990000e-002) (65, -7.37486015102897240000e-001) (76, 4.25530506584677670000e-001) (72, 5.80161269128715500000e-002) (75, -5.96117479808654150000e-001) (74, 2.16548683888919590000e+000) (59, 1.09635838679582880000e-001) (57, -1.08591390458972930000e-001) (79, 7.60618268526901400000e-001) (81, -4.05770438890266210000e-001) (65, 8.61626382603662870000e-001) (66, 1.64415862890171030000e-002) (74, 7.39104512964043000000e-001) (51, 9.62841793190628460000e-001) (62, 4.78552338436204370000e-001) (77, 5.87969184905219740000e-002) (73, -7.17381243104737170000e-002) (60, -5.83738741236340180000e-001) (64, 9.94618034862181810000e-001) (81, -4.19399120691335560000e-001) (62, -3.42257012418149210000e-001) (72, 2.35228380242775350000e+000) (78, 4.52147855383079170000e-001) (52, 5.73368640280859540000e-001) (76, -3.72813513959375560000e-001) (53, 1.00231323811841060000e+000) (77, 9.48798737150298390000e-001) (67, 8.13024809801098040000e-001) (69, 1.23184212917043070000e+000) (81, 6.86565004644148820000e-001) (56, 4.55085433777324800000e-001) (64, -2.24127216110969000000e-001) (77, 1.68779435541348000000e-001) (54, 8.22745197697920650000e-001) (58, -1.50786638241242170000e+000) (74, 3.51839242383202080000e-001) (55, -7.52804402262607030000e-001) (61, -2.25527920236216960000e-001) (51, -2.33050400619694840000e-001) (81, 3.34454294963817890000e-002) (63, -2.06194947834188120000e-001) (69, -1.13747488111739800000e+000) (79, 2.01569432322667060000e+000) (80, 7.71837536227589330000e-001) (72, 1.11146152751081370000e+000) (77, 5.74506994446332910000e-001) (62, -4.57865909036022020000e-002) (59, 3.08686970879749400000e-002) (52, -1.42190155505126290000e-001) (81, -2.74178028750060090000e-001) (53, 1.31243607798485540000e+000) (78, 1.43172950422118170000e+000) (52, 1.60743932958117810000e-002) (65, 1.04426449896321270000e-001) (71, 1.19771616849621010000e-001) (69, 1.03008342086387180000e+000) (56, -1.40484729835730300000e+000) (55, 5.08016433113808840000e-001) (54, 9.25045630107778740000e-001) (81, -2.28916544596367820000e-001) (76, 2.30586732870861950000e-001) (73, -2.28662799231516780000e-001) (78, 2.63342764993131810000e-001) (55, -1.76115522050091750000e-002) (63, -5.57418221381456020000e-001) (64, 1.33562149026894340000e+000) (58, -5.67378811907454720000e-002) (68, -7.74606411947258570000e-002) (51, 2.65247511082577330000e-001) (81, 1.35742348352860810000e+000) (51, 4.97856929649185040000e-001) (75, 2.37746165025887610000e-001) (59, -1.60899286717571560000e-001) (60, 5.23048603638476610000e-001) (63, 3.93036697913568600000e-001) (72, -6.43286765521056240000e-001) (52, 2.45708363997159520000e+000) (55, 1.52386777426691440000e+000) (69, 1.85644797384225860000e+000) (81, 8.74667493190849240000e-001) (77, -3.56036340005729370000e-001) (69, 2.40064213821546000000e-001) (58, 1.29839683068404290000e-001) (65, -3.66378213157364740000e-001) (72, -6.01507659368477720000e-001) (54, -2.45922508453280340000e-001) (60, 1.54576319973586590000e-002) (55, 6.45024852267381380000e-001) (52, 1.73367633275262000000e-001) (81, -1.11735232678982290000e+000) (68, -4.60898187453114070000e-002) (78, -2.43444821208608220000e-002) (53, 1.22077524880999300000e+000) (60, -4.83766742373311350000e-001) (69, 2.31856189791622040000e-001) (66, -1.87186823542243410000e+000) (54, 1.52599516539752680000e+000) (76, 2.92769112847922010000e-001) (79, -2.65590290911373910000e-003) (81, -6.89479103825259700000e-002) (73, 8.42623202319378590000e-002) (76, -3.56065267555437380000e-001) (66, -1.64096590792841630000e-002) (72, 9.55090068870412670000e-002) (71, 4.17097570108619290000e-002) (79, 1.62625033578982860000e+000) (80, 5.92049037178016490000e-001) (51, -3.79264815126855230000e-001) (74, 1.38363251550465490000e+000) (102, 2.32779818777844590000e-001) (100, 1.31054857142439340000e+000) (97, -1.46276016822316900000e+000) (92, 2.98934479075028350000e-001) (94, 3.40516171786487460000e-001) (89, 1.53104783095928340000e+000) (90, 6.06204095911079600000e-001) (102, -1.18551843152145820000e+000) (83, 1.34398924093819730000e-001) (87, 1.29683715110671160000e+000) (95, 1.59299845513045920000e+000) (98, 8.05479968438517100000e-001) (100, 5.40558845884216990000e-002) (85, -4.08701228061888190000e-001) (102, -5.20624467985630560000e-001) (89, 7.80523206789527080000e-002) (97, 8.15929171313045100000e-001) (99, -3.06424094243940410000e+000) (101, 1.82581996139530100000e+000) (87, 4.05467945103534180000e-001) (94, -8.52079858042788630000e-001) (102, 1.47212724226765570000e-001) (86, 1.42662490418680290000e+000) (90, 1.11918842760159620000e+000) (93, -2.44305345512173920000e-001) (96, 1.39014764802249150000e+000) (82, 5.98701138129308920000e-001) (88, 1.63512425736099790000e+000) (102, 3.82899890676640600000e-001) (82, 7.95950506697738480000e-001) (84, 4.77423369952299450000e-001) (85, 9.91007194002448300000e-001) (91, 1.98777194282277340000e+000) (92, -1.16827789278423990000e+000) (94, 2.14741417992199630000e+000) (102, -2.96843174239443290000e-002) (88, 3.77024320317867890000e-002) (98, -8.23921631093056830000e-001) (90, -7.57286033472294710000e-003) (83, 1.30352554944558930000e+000) (93, 2.42678589584778460000e+000) (97, -1.35710795874279810000e+000) 
