FANN_FLO_2.1
num_layers=4
learning_rate=0.700000
connection_rate=1.000000
network_type=1
learning_momentum=0.000000
training_algorithm=2
train_error_function=1
train_stop_function=1
cascade_output_change_fraction=0.010000
quickprop_decay=-0.000100
quickprop_mu=1.750000
rprop_increase_factor=1.200000
rprop_decrease_factor=0.500000
rprop_delta_min=0.000000
rprop_delta_max=50.000000
rprop_delta_zero=0.100000
cascade_output_stagnation_epochs=12
cascade_candidate_change_fraction=0.010000
cascade_candidate_stagnation_epochs=12
cascade_max_out_epochs=150
cascade_min_out_epochs=50
cascade_max_cand_epochs=150
cascade_min_cand_epochs=50
cascade_num_candidate_groups=2
bit_fail_limit=1.00000001490116120000e-001
cascade_candidate_limit=1.00000000000000000000e+003
cascade_weight_multiplier=4.00000000000000020000e-001
cascade_activation_functions_count=10
cascade_activation_functions=3 5 7 8 10 11 14 15 16 17 
cascade_activation_steepnesses_count=4
cascade_activation_steepnesses=2.50000000000000000000e-001 5.00000000000000000000e-001 7.50000000000000000000e-001 1.00000000000000000000e+000 
layer_sizes=10 50 10 6 
scale_included=0
neurons (num_inputs, activation_function, activation_steepness)=(0, 0, 0.00000000000000000000e+000) (0, 0, 0.00000000000000000000e+000) (0, 0, 0.00000000000000000000e+000) (0, 0, 0.00000000000000000000e+000) (0, 0, 0.00000000000000000000e+000) (0, 0, 0.00000000000000000000e+000) (0, 0, 0.00000000000000000000e+000) (0, 0, 0.00000000000000000000e+000) (0, 0, 0.00000000000000000000e+000) (0, 0, 0.00000000000000000000e+000) (10, 5, 1.00000000000000000000e+000) (10, 5, 1.00000000000000000000e+000) (10, 5, 1.00000000000000000000e+000) (10, 5, 1.00000000000000000000e+000) (10, 5, 1.00000000000000000000e+000) (10, 5, 1.00000000000000000000e+000) (10, 5, 1.00000000000000000000e+000) (10, 5, 1.00000000000000000000e+000) (10, 5, 1.00000000000000000000e+000) (10, 5, 1.00000000000000000000e+000) (10, 5, 1.00000000000000000000e+000) (10, 5, 1.00000000000000000000e+000) (10, 5, 1.00000000000000000000e+000) (10, 5, 1.00000000000000000000e+000) (10, 5, 1.00000000000000000000e+000) (10, 5, 1.00000000000000000000e+000) (10, 5, 1.00000000000000000000e+000) (10, 5, 1.00000000000000000000e+000) (10, 5, 1.00000000000000000000e+000) (10, 5, 1.00000000000000000000e+000) (10, 5, 1.00000000000000000000e+000) (10, 5, 1.00000000000000000000e+000) (10, 5, 1.00000000000000000000e+000) (10, 5, 1.00000000000000000000e+000) (10, 5, 1.00000000000000000000e+000) (10, 5, 1.00000000000000000000e+000) (10, 5, 1.00000000000000000000e+000) (10, 5, 1.00000000000000000000e+000) (10, 5, 1.00000000000000000000e+000) (10, 5, 1.00000000000000000000e+000) (10, 5, 1.00000000000000000000e+000) (10, 5, 1.00000000000000000000e+000) (10, 5, 1.00000000000000000000e+000) (10, 5, 1.00000000000000000000e+000) (10, 5, 1.00000000000000000000e+000) (10, 5, 1.00000000000000000000e+000) (10, 5, 1.00000000000000000000e+000) (10, 5, 1.00000000000000000000e+000) (10, 5, 1.00000000000000000000e+000) (10, 5, 1.00000000000000000000e+000) (10, 5, 1.00000000000000000000e+000) (10, 5, 1.00000000000000000000e+000) (10, 5, 1.00000000000000000000e+000) (10, 5, 1.00000000000000000000e+000) (10, 5, 1.00000000000000000000e+000) (10, 5, 1.00000000000000000000e+000) (10, 5, 1.00000000000000000000e+000) (10, 5, 1.00000000000000000000e+000) (10, 5, 1.00000000000000000000e+000) (10, 5, 1.00000000000000000000e+000) (60, 5, 1.00000000000000000000e+000) (60, 5, 1.00000000000000000000e+000) (60, 5, 1.00000000000000000000e+000) (60, 5, 1.00000000000000000000e+000) (60, 5, 1.00000000000000000000e+000) (60, 5, 1.00000000000000000000e+000) (60, 5, 1.00000000000000000000e+000) (60, 5, 1.00000000000000000000e+000) (60, 5, 1.00000000000000000000e+000) (60, 5, 1.00000000000000000000e+000) (70, 0, 1.00000000000000000000e+000) (70, 0, 1.00000000000000000000e+000) (70, 0, 1.00000000000000000000e+000) (70, 0, 1.00000000000000000000e+000) (70, 0, 1.00000000000000000000e+000) (70, 0, 1.00000000000000000000e+000) 
connections (connected_to_neuron, weight)=(0, 2.82772474129854290000e-001) (1, -9.37400240630303800000e-001) (2, 1.20883781161456410000e-001) (3, 6.99902341049811640000e-001) (4, -6.30173474699502250000e-001) (5, -3.90458206388697580000e-002) (6, -3.45815040734227360000e-001) (7, 3.33390114880254770000e-001) (8, 1.12213301833231450000e-002) (9, 5.21470486128862930000e-001) (0, 7.51854563994493790000e-003) (1, -1.66851056437070140000e+000) (2, 4.71383285444554380000e-001) (3, 2.14391332329806200000e-001) (4, 2.86916614940237530000e-002) (5, 1.65812830658588820000e-001) (6, 4.57392093883926600000e-001) (7, 6.96262840228736520000e-001) (8, -1.87159788920379410000e-001) (9, -2.43416138611994600000e-001) (0, -1.06492607585395760000e+000) (1, 1.40232981535423700000e+000) (2, 5.50231800440015030000e-003) (3, 1.80031252530468920000e-001) (4, 1.92449174363097910000e-001) (5, -1.73597975517364890000e-001) (6, 6.31023248028363180000e-001) (7, -5.42222187977614230000e-001) (8, -5.87635431213535610000e-002) (9, 3.22487200140564760000e-001) (0, 2.17436906209156690000e-002) (1, 5.58717392407981680000e-001) (2, 6.25443118334086110000e-002) (3, 3.47923464597168970000e-003) (4, 2.35271711482655490000e-001) (5, -1.30528611406294070000e-001) (6, -1.96119928996402320000e-001) (7, -1.88516565298792630000e-001) (8, 1.14740076587924710000e-001) (9, 1.43326688379175730000e-001) (0, 2.78679455949092820000e+000) (1, -7.04820017405091460000e+000) (2, 7.70195225144418070000e-001) (3, 1.51121999560295640000e-002) (4, 3.88169033948090530000e-002) (5, -2.59166315186435330000e-002) (6, -5.16195615183540180000e-001) (7, 1.43943605209180500000e+000) (8, -1.21113847378667320000e-001) (9, 2.37954328843743870000e-001) (0, -4.52483462238156110000e-001) (1, 2.02656788051119690000e+000) (2, 2.89447523350118810000e-001) (3, 1.51680229933286980000e-001) (4, -3.91213747138407900000e-001) (5, 1.11016751251798480000e-001) (6, -9.32010885287446330000e-002) (7, -9.44952569010130970000e-002) (8, 2.42287834422841440000e-002) (9, 5.07905369172265590000e-001) (0, -8.81194247698971810000e-001) (1, 1.11740354110250060000e-001) (2, 2.75592645261301830000e+000) (3, 3.21672006434430180000e-003) (4, -1.09111101004021000000e-002) (5, 8.57444091018283280000e-003) (6, 6.86810404163194080000e-002) (7, 2.07448657217536660000e-001) (8, -9.83977429008367660000e-003) (9, -6.19262070677299370000e-002) (0, 1.06452648742408530000e-001) (1, -8.47137246058679570000e-002) (2, -1.23150254044895530000e-001) (3, 9.39689930203186500000e-003) (4, 1.03173546792345350000e-001) (5, -1.70207078907027740000e-001) (6, 1.83811193872589730000e-001) (7, -9.74780807613822300000e-002) (8, -1.74609482447877800000e-001) (9, -1.60523829763262520000e-001) (0, 7.24774247941797570000e-001) (1, 1.10363720848979130000e-002) (2, 1.42712109003235860000e-001) (3, 1.49981561984553760000e-002) (4, -2.45861807605455620000e-001) (5, -2.21993300906527320000e-002) (6, -2.39045782848691850000e-001) (7, 3.75683866231124760000e-001) (8, 1.05508696097284220000e-001) (9, 1.28560917126173350000e-001) (0, 4.67517602224186920000e-001) (1, 4.83924524671951740000e-001) (2, -1.29634267778676150000e+000) (3, -2.13048087986364100000e-001) (4, -2.06412007032963970000e-001) (5, 5.73808830016854790000e-001) (6, -1.47085573617259990000e-001) (7, -6.06028863387840440000e-002) (8, 3.62409749205026610000e-001) (9, -5.39644660445473960000e-002) (0, -2.59682946949642000000e+000) (1, -3.97398176492915310000e+000) (2, -3.00245893422004030000e-001) (3, 1.09996058313542480000e-001) (4, 1.25054173796113580000e-001) (5, -7.44100479784839430000e-003) (6, 6.96723884067778630000e-001) (7, 9.53732654165194700000e-001) (8, 2.75696860998806870000e-002) (9, -2.01040150224481660000e-001) (0, 2.43212043406502430000e-001) (1, 3.28841853389906570000e-001) (2, -6.43323837006470190000e-002) (3, 6.78412105512645750000e-002) (4, 3.22020037195820670000e-001) (5, -3.23705925206540650000e-002) (6, -1.63445410269444720000e-002) (7, 3.06047013496224430000e-001) (8, -5.24956758858992510000e-001) (9, 3.90671064818434000000e-001) (0, -1.83888567744839530000e+000) (1, -4.82234079904896970000e+000) (2, -7.18496421584723520000e-002) (3, 1.06234561334206380000e-001) (4, -1.18204137268206800000e-002) (5, -3.29173537159044600000e-003) (6, -5.27570696085376680000e-002) (7, 1.20727048725281110000e+000) (8, 1.72687470091142050000e-001) (9, -3.24866017473517190000e-002) (0, -1.43139603690986610000e-001) (1, -1.78918905108452720000e+000) (2, 1.56307047051104960000e-001) (3, 1.05169440401346380000e-001) (4, -8.71081240002844620000e-002) (5, 1.85487541765328830000e-001) (6, -3.40315777999193940000e-001) (7, 2.82055370086075450000e-001) (8, 6.12252910470066770000e-002) (9, 1.86761890631723880000e-001) (0, -2.71281271118589460000e+000) (1, -5.65619964075495750000e-001) (2, 4.52629058230426650000e-001) (3, 1.93783446082349100000e-001) (4, -1.24932810841572580000e-002) (5, -2.34906791405452320000e-002) (6, 5.66030341107333190000e-001) (7, -7.14611181701895190000e-002) (8, -2.54719383507395260000e-001) (9, 4.83153729351505410000e-001) (0, -6.34274336362569580000e-001) (1, -3.96526959155752810000e-001) (2, 1.53848374967266390000e-002) (3, -4.58884722283241750000e-003) (4, -1.33082503707886300000e-001) (5, -4.37321538274594410000e-001) (6, 2.45215382645743800000e-001) (7, 3.56265158193044880000e-001) (8, 3.12475078155449230000e-001) (9, 2.10495355510347950000e-001) (0, -2.97063912453613370000e+000) (1, -8.10427349958298570000e+000) (2, 4.71334462805341800000e-001) (3, 2.88593355603873370000e-002) (4, -4.93783430383875740000e-003) (5, 7.16796812906307210000e-003) (6, 6.04634126927489080000e-001) (7, 1.71061076656695010000e+000) (8, -9.46590755613060250000e-002) (9, 4.46789099034714480000e-001) (0, -2.99652107426970240000e-001) (1, 9.60884673237458630000e-001) (2, -1.06536830903247460000e+000) (3, 1.14170171916819370000e-001) (4, -1.22802592301167970000e-001) (5, 1.28526592936566600000e-002) (6, 1.23658328157221360000e-001) (7, -3.46221288663574320000e-001) (8, 8.00600194473292110000e-001) (9, -4.32939973347861000000e-001) (0, 3.63932524921457560000e-001) (1, 6.31135115467079450000e-001) (2, -2.73397378501379070000e-001) (3, 1.71993034190871250000e-001) (4, 5.78988760603948090000e-002) (5, -3.97515769906260570000e-002) (6, -7.48721796693404830000e-002) (7, -7.26434410615430790000e-002) (8, 6.52629295525396840000e-001) (9, -3.06831061366884540000e-001) (0, -4.18467379828769030000e-001) (1, -1.66810678651166970000e-001) (2, -2.39957264847840550000e-001) (3, -2.79121151570029980000e-001) (4, 1.29543323208058170000e-001) (5, 7.39288282456178470000e-002) (6, 3.24033575218639510000e-001) (7, -1.09075887194444530000e-001) (8, 3.10193796019670730000e-001) (9, -1.86584650164966160000e-002) (0, -3.67604655200739210000e-001) (1, 1.54447392626315710000e-001) (2, 2.10841531718233390000e-001) (3, -2.21669884429713780000e-001) (4, 4.93398587694908740000e-001) (5, -1.72121596050350460000e-001) (6, 1.43458571760743110000e-001) (7, 3.88262916019977140000e-001) (8, -4.15105687409003320000e-003) (9, 1.00817419004395750000e-001) (0, -8.04960149505518920000e-002) (1, 1.24268595296734080000e-001) (2, -1.57135345131623940000e-001) (3, -8.95684887817793370000e-002) (4, -2.31953313343019580000e-001) (5, 1.58527942031211410000e-002) (6, -1.64576559133946610000e-001) (7, -1.78868888738892260000e-001) (8, 2.55017537070727720000e-001) (9, -1.30735989762526180000e-001) (0, 2.51522017196962210000e-001) (1, 4.32818033303848990000e-001) (2, 2.22550606140754770000e+000) (3, -2.92191156111069020000e-002) (4, -2.51663474397994750000e-001) (5, -5.15513940766845650000e-001) (6, -1.91276205079395630000e-001) (7, -9.57913216315022100000e-002) (8, -3.80159885912788710000e-001) (9, 1.97803829584328460000e-001) (0, 4.78817790133080550000e-002) (1, -3.38897844107242610000e-001) (2, -8.10553355842516090000e-001) (3, 1.97498914481368640000e-001) (4, -9.80303518568544640000e-002) (5, -1.04185250804044410000e-001) (6, -7.01665279209769820000e-002) (7, -9.82960708684838120000e-002) (8, 4.77401896065442060000e-002) (9, 2.31736486001276720000e-001) (0, 1.55943210747073650000e+000) (1, 3.51216656376498190000e+000) (2, 5.45495931396024260000e-001) (3, 2.86263888839747850000e-001) (4, 1.26322047768739200000e-001) (5, 2.27726144508896350000e-002) (6, -1.75163488894665290000e-001) (7, -7.91979881414482170000e-001) (8, -1.46951723866937220000e-002) (9, 3.36058870903995640000e-002) (0, 2.66530850884766800000e+000) (1, -7.18379219210796390000e-001) (2, 7.66258331858852700000e-002) (3, -3.95293987691879710000e-002) (4, 1.96031381118595350000e-002) (5, -1.54393843142410450000e-003) (6, 2.80774990817947160000e-001) (7, -1.99793528760440570000e-001) (8, 1.05203371623875640000e-001) (9, -3.30112525973387860000e-001) (0, -2.05620967022428850000e-001) (1, -3.20269106732091690000e-001) (2, -1.76359729170413900000e-001) (3, -1.09363026388476740000e-001) (4, -1.69475369701341110000e-001) (5, -7.67968723922660270000e-002) (6, 1.70827047070356900000e-001) (7, 1.91766506561338980000e-001) (8, -7.13765214285798370000e-002) (9, -1.77481610256559650000e-001) (0, 3.86184963709108950000e+000) (1, 2.86635406511463580000e+000) (2, -2.63161002468924040000e-001) (3, -1.00277259701474830000e-001) (4, 1.61363774444678930000e-002) (5, -7.89022352757323960000e-002) (6, -1.28200859514119830000e-001) (7, 1.69438206359658340000e-001) (8, -1.97647908632398230000e-001) (9, 3.02723018130407250000e-001) (0, 2.24533455240176720000e+000) (1, -5.26089281042048020000e+000) (2, 9.02149302150984210000e-001) (3, -1.04681827567255620000e-002) (4, 2.68877109615154110000e-002) (5, 3.60676466178231760000e-002) (6, -6.26934480616393120000e-001) (7, 3.16791960563858890000e-001) (8, -3.49088510914000380000e-002) (9, -5.67833413423597500000e-001) (0, -7.43819213630915300000e-001) (1, -4.88717098318173500000e-001) (2, -1.12385379067733170000e-001) (3, -2.40975279955380020000e-003) (4, 8.17770533687163240000e-002) (5, 2.16928475396336860000e-001) (6, 4.27284757058411010000e-001) (7, 6.28685145234315620000e-001) (8, 2.20229688373865330000e-001) (9, -3.20502578639463850000e-001) (0, 1.19284749508561250000e+000) (1, 1.44564743579921570000e+000) (2, -2.70878662484002000000e-001) (3, -6.95153916417620840000e-002) (4, 4.41516625964031500000e-002) (5, -1.89305336030562570000e-002) (6, 4.60534846090859820000e-002) (7, 1.01362782170125860000e-001) (8, -8.76571474817427200000e-002) (9, -3.18345573226118170000e-001) (0, 1.77346208676417530000e-002) (1, -5.86029845216440640000e-001) (2, -2.75954818298430990000e-001) (3, 1.97683201557766700000e-001) (4, -3.68890623695313170000e-001) (5, -4.19600053662181840000e-001) (6, -1.00239543471404930000e-001) (7, 1.59027049269692360000e-001) (8, 2.20470342590784460000e-001) (9, -3.35223027169339990000e-001) (0, 2.41932539954280480000e+000) (1, -7.75322700765232350000e-001) (2, -2.11800081066182010000e-001) (3, 3.68859634716165940000e-002) (4, -5.17735158205071890000e-002) (5, 1.83516710486703870000e-002) (6, -3.25157516025816160000e-001) (7, -7.76562836171251350000e-002) (8, 6.37846427095829780000e-002) (9, 5.00306369095866900000e-001) (0, 3.63913634089061970000e-002) (1, -1.72191141276968160000e-001) (2, 2.86606811200943170000e-001) (3, -6.26659038147780870000e-002) (4, 3.78077916440405500000e-001) (5, 1.63982722612662140000e-001) (6, -2.25715500100375780000e-001) (7, -7.17751755646573310000e-002) (8, 2.13197712777000690000e-002) (9, 2.50627475945408070000e-001) (0, 7.13090424813841000000e-001) (1, -1.80652914654063430000e+000) (2, -5.15548216618459180000e-001) (3, 2.09956528140188920000e-001) (4, -1.34561040983542170000e-002) (5, -1.34851804511963410000e-001) (6, 1.33842784346958050000e-002) (7, 7.03993800039579790000e-001) (8, 2.24985604769753990000e-001) (9, -1.28306697767413490000e-001) (0, 5.88971059078222450000e-001) (1, 3.93488071108845370000e-001) (2, 9.10800975718855100000e-002) (3, -3.06680095407573350000e-001) (4, -5.07943748909819750000e-001) (5, -7.78366667017312550000e-002) (6, -2.64893846015375130000e-001) (7, -3.79810873988932710000e-001) (8, -3.83223743379139000000e-001) (9, 1.90458801175541700000e-001) (0, 4.45992047181563040000e-001) (1, 5.76518192563531540000e-001) (2, -2.25807015790203290000e-001) (3, 4.63520146755956990000e-001) (4, 4.76587732930604860000e-001) (5, 3.51659135253274690000e-002) (6, 2.12681654191916060000e-001) (7, -1.19976202586685430000e-001) (8, 3.22296644624382530000e-002) (9, -8.27291275786473660000e-003) (0, -3.21908975683205310000e-001) (1, 1.64648341818148850000e+000) (2, -1.38188959438462880000e+000) (3, -9.05121913947451030000e-002) (4, 1.49123741819303880000e-001) (5, -3.49746586130869060000e-001) (6, 1.26661002577425910000e-001) (7, -4.10244927782131170000e-001) (8, 3.69914924077085320000e-001) (9, -1.24311571395691290000e-001) (0, 8.05770342326799640000e-002) (1, 4.56677296409925460000e-003) (2, 1.81004592056532410000e-001) (3, -1.88979054579914960000e-001) (4, 1.60233764469749490000e-001) (5, 2.80470424347804280000e-001) (6, 1.07703820547896940000e-001) (7, -1.92995776555172250000e-001) (8, -1.33931998317957740000e-001) (9, -3.31714814636114130000e-001) (0, 2.71838535343520700000e-001) (1, -8.59229024087303280000e-001) (2, -3.95595464283688410000e-001) (3, 3.02998234491243970000e-001) (4, -3.29840320115902700000e-001) (5, 2.00165309480193620000e-002) (6, 2.37215281424509790000e-001) (7, -2.92430978951862600000e-001) (8, 1.94484964817043830000e-001) (9, -2.72833970098554040000e-001) (0, 3.33530889564997210000e-001) (1, 3.24887349075699220000e-001) (2, -8.45850590890928800000e-003) (3, 8.90359440871641430000e-002) (4, 4.02511741031560790000e-001) (5, 3.87194144595044590000e-001) (6, 1.78324504238082960000e-001) (7, 2.76316207283166660000e-002) (8, 1.50320532946980560000e-001) (9, 1.05302561804427220000e-001) (0, -1.70815451868986420000e-001) (1, -5.68611788086849420000e-001) (2, -1.29379161470109000000e-001) (3, -1.98743118809795260000e-001) (4, -1.78136769615878070000e-001) (5, -7.75413492282279460000e-002) (6, -1.82684335177542120000e-001) (7, 5.92210248887540950000e-002) (8, 1.65222335707078450000e-001) (9, -9.90937434236899840000e-002) (0, 5.32475589696761790000e-001) (1, 8.94645697681213490000e-001) (2, -1.73167415598272620000e-001) (3, -4.40975453900313010000e-001) (4, -7.70910975322307980000e-002) (5, -7.85562462075507780000e-002) (6, 4.20829575601302310000e-002) (7, -1.70592632989098660000e-001) (8, 2.07920672236298950000e-001) (9, 3.13127619031829730000e-001) (0, 4.04838065933492970000e-001) (1, 1.79209884610007400000e+000) (2, -1.59576641792162220000e-001) (3, 9.52450998293658400000e-002) (4, 2.14030226293532330000e-002) (5, -7.36421681773306860000e-002) (6, 2.96953894863857090000e-002) (7, -3.51626854654121360000e-001) (8, 3.34927219483246550000e-001) (9, 4.27516848473427020000e-001) (0, -1.52463201919028850000e+000) (1, 3.78815625918475350000e+000) (2, -1.20168400935372760000e-001) (3, -1.93816179031421240000e-003) (4, 3.41646683833348500000e-003) (5, 4.65054453402993440000e-003) (6, 1.55463353572825870000e-001) (7, -9.34045803186225320000e-001) (8, -7.68907596649052590000e-002) (9, 2.19558305865899810000e-001) (0, -5.14878874792319970000e-001) (1, -3.44173865243219520000e-001) (2, -5.50246444093070300000e-002) (3, 1.07640378193122120000e-001) (4, 2.22990072165292740000e-001) (5, -9.75268506332616770000e-003) (6, -2.54793517404997730000e-002) (7, 5.95426097413203180000e-001) (8, 3.80181759776993260000e-001) (9, -1.43915046287257900000e-001) (0, -2.42078978695597300000e-001) (1, 2.70822849903990690000e-001) (2, 5.43794415096955590000e-001) (3, -1.05505717390957960000e-001) (4, 2.30124773749326490000e-001) (5, 2.49915845675427300000e-001) (6, -7.12684316661433700000e-002) (7, -1.03497046159542370000e-001) (8, -1.26836064199781020000e-001) (9, 6.40277442619660990000e-002) (0, 3.48603087532827700000e-001) (1, -8.10162184036352540000e-001) (2, 7.18195837251735860000e-001) (3, -2.30760163906941830000e-002) (4, 1.65544629267101890000e-001) (5, -8.69984194821991630000e-002) (6, -1.99467832881522280000e-001) (7, 4.06289419430473360000e-001) (8, -5.19486040384371520000e-001) (9, 2.16523585593763810000e-001) (0, 2.38048397341576260000e-001) (1, 4.47442538351256080000e-001) (2, -1.31327998137690300000e-001) (3, 4.84384288239417540000e-002) (4, 4.12095216934562690000e-001) (5, 1.01085093536104550000e-001) (6, -2.28264853689821860000e-001) (7, -3.25346670345204430000e-001) (8, -3.16601250580507070000e-002) (9, -1.49604598292407330000e-001) (0, 6.08443415999606830000e-001) (1, 3.93611972199093160000e-001) (2, 1.88020412876808850000e-001) (3, 2.87036890728420980000e-001) (4, -5.05176453881062470000e-001) (5, -6.19964137730039870000e-002) (6, -5.63470707452526640000e-002) (7, 3.90288798758573610000e-002) (8, 1.76549390648957640000e-001) (9, 4.24937573605078670000e-002) (0, 5.90972028173898710000e-001) (1, 3.86276211947664020000e+000) (2, -1.56373250536168630000e-001) (3, 2.37243364313525770000e-001) (4, -1.12487390302365670000e-001) (5, 4.28168530372327880000e-002) (6, -3.92757929215744540000e-001) (7, 2.90171184282842110000e-001) (8, -4.00273656245561830000e-001) (9, 3.60592339974696640000e-001) (10, -1.47832172233244880000e-001) (11, -4.00354361603124650000e-001) (12, -1.81977519244077400000e-001) (13, 4.52454697816049190000e-001) (14, -4.04843372893844030000e-001) (15, 6.79795730099884250000e-001) (16, -6.95197229275864030000e-001) (17, 3.60517726731921280000e-001) (18, -4.39782382986891320000e-001) (19, 9.07395885406692280000e-002) (20, -3.77627572034800680000e-001) (21, 2.50648275861524960000e-002) (22, 5.37305791854927990000e-001) (23, -1.50388811469760520000e-001) (24, -5.77746791486269810000e-002) (25, -5.08987721649933330000e-002) (26, 3.75650398939309180000e-001) (27, 3.59605697185714280000e-001) (28, -9.17469208197015520000e-002) (29, -1.11220629634307620000e-001) (30, -1.74351143143941820000e-001) (31, 1.13837154988606220000e-001) (32, 1.72795189801458550000e-001) (33, -1.58513555123492580000e-002) (34, 2.91601820936061910000e-001) (35, 5.70948260125628340000e-002) (36, 4.24770735656595950000e-001) (37, 5.00379616185777200000e-001) (38, 6.85278918240409870000e-001) (39, -8.46935698747287680000e-003) (40, 2.71004984756570640000e-001) (41, 4.88730874987975570000e-001) (42, 2.72207909735545590000e-001) (43, -1.56678205848193950000e-001) (44, 8.93766453673910250000e-002) (45, 6.79463543833647150000e-002) (46, 2.88941400659465500000e-001) (47, -1.09056912838213140000e-001) (48, 1.64247330345727500000e-001) (49, -2.44903404817619690000e-001) (50, 5.28838935473574970000e-001) (51, 6.06396812645175200000e-001) (52, 4.72363733367984870000e-001) (53, 7.20241342976283280000e-001) (54, 8.94518997053002530000e-001) (55, 3.91806475559079990000e-001) (56, 4.36377977464134200000e-001) (57, 9.72156500443793060000e-002) (58, -1.00739400035405440000e-001) (59, -1.29371683205917490000e-001) (0, 5.20653149305136400000e-001) (1, 4.74936848003037930000e-001) (2, -1.04237417622898310000e+000) (3, 3.63244369008623390000e-001) (4, 5.31755560927952510000e-001) (5, 3.75146378693641090000e-001) (6, 3.97338427529496110000e-001) (7, 4.68749598229406430000e-001) (8, -2.98935816235981200000e-002) (9, -8.71001013990086780000e-001) (10, -2.13727748389494130000e-001) (11, -2.44198761703147080000e-001) (12, 1.44780000862343740000e-001) (13, 3.22546191341845590000e-001) (14, 3.49819844508375330000e-001) (15, -2.21826052463762360000e-001) (16, 4.43348271165333210000e-001) (17, 6.93923008458813410000e-002) (18, 6.85566978500909530000e-001) (19, -2.46876552764476930000e-001) (20, -5.11405199853532830000e-001) (21, 1.87230697941808160000e-001) (22, 8.22201239092169990000e-002) (23, 1.98076279949900240000e-001) (24, 4.60560885326971810000e-001) (25, 2.45550680888127010000e-001) (26, 6.53697432472226000000e-001) (27, -4.49962221188458300000e-001) (28, 3.42174452178757250000e-001) (29, 7.52379504958579080000e-001) (30, 7.02705639269875090000e-002) (31, 1.08986667006442840000e+000) (32, 1.49234838956518460000e-001) (33, 1.80268640792684560000e-001) (34, -1.15930397934993860000e-001) (35, -1.25408810255036470000e-001) (36, 8.58794984761589000000e-001) (37, -3.24969562447486090000e-001) (38, 5.15972557990329320000e-002) (39, -2.40643241728668580000e-001) (40, -6.70400259903728090000e-001) (41, -3.14790279173521650000e-001) (42, -2.29625675208500080000e-001) (43, -8.61981207993497980000e-001) (44, -2.24684172786248080000e-001) (45, 4.85067351638777570000e-001) (46, -4.54967432924481620000e-002) (47, 4.32054474665325710000e-001) (48, -4.24760103078137210000e-002) (49, 2.11854259183476350000e-002) (50, 5.89182189543228320000e-001) (51, 2.34091311433270110000e-001) (52, -1.10624505122478400000e-001) (53, -2.64378771576495970000e-001) (54, 6.37422115351820470000e-001) (55, -3.06445294439886660000e-001) (56, 3.49868358030388900000e-001) (57, 7.23099868571564640000e-002) (58, 1.26969579535306350000e-001) (59, 2.26411424825735840000e-001) (0, 1.71422121920862550000e+000) (1, -6.25530098711067020000e-001) (2, 5.63293801467142470000e-001) (3, 3.92148033170259980000e-001) (4, -5.10248235434323650000e-002) (5, 6.44795918758422350000e-002) (6, 3.30991856047571250000e-001) (7, -1.75225993492287100000e-001) (8, -1.46791419262900040000e-001) (9, 8.18997858119564630000e-002) (10, -1.29309980485706020000e-001) (11, 2.46757914915006730000e-001) (12, -2.64860327975246060000e-001) (13, 3.42439536623831480000e-001) (14, 5.67943327936806570000e-001) (15, 1.87883096943149750000e-001) (16, 9.12297892183506760000e-001) (17, 5.08532692380921690000e-001) (18, -3.04854861648782340000e-001) (19, 4.85135939786461970000e-001) (20, 6.13537562757005110000e-001) (21, 1.76006798232241160000e-001) (22, 3.56666372807240560000e-001) (23, 5.58932537059001920000e-001) (24, 2.66498982108739510000e-001) (25, -1.86100337364581900000e-001) (26, -1.25620787100450570000e+000) (27, -1.53991516580012870000e-001) (28, 9.82923594827002230000e-002) (29, -2.42822609626391910000e-001) (30, 5.96976563249194570000e-001) (31, 1.95403538656098440000e-001) (32, 3.94056675583533860000e-001) (33, -1.43741210671376950000e+000) (34, 5.21792720803132830000e-002) (35, -6.33438995355197630000e-002) (36, 5.84251537642817900000e-001) (37, 1.95787238583433120000e-002) (38, 1.57415470968894330000e-001) (39, -1.50060058021444870000e-003) (40, 4.75260863510890250000e-001) (41, 4.15814973796090280000e-001) (42, 1.81831014043529720000e-001) (43, 9.84342762694421560000e-001) (44, -2.24416004508332320000e-001) (45, -8.16374972394531970000e-002) (46, -1.02212373302113370000e-001) (47, 7.80302509364383670000e-002) (48, -1.73595648034654600000e-001) (49, -2.22713837649150620000e-001) (50, -4.19644743929763480000e-001) (51, -8.12947071293166070000e-002) (52, 8.67246014940199210000e-002) (53, -4.71242515503215610000e-001) (54, 9.67097446776685520000e-001) (55, -4.57322555476597110000e-001) (56, -4.48567435014253110000e-001) (57, -1.29363913941955570000e-001) (58, 1.51762679069657320000e-001) (59, 5.01204805305055070000e-001) (0, -2.03436132153498810000e+000) (1, 6.01303188667847430000e-002) (2, -9.04867805342392810000e-002) (3, -3.12202702540261940000e-001) (4, 2.76155816841408390000e-001) (5, 4.06922406668336010000e-001) (6, 1.29247441378760160000e+000) (7, 1.20050507581283400000e-001) (8, 1.77014934189722780000e-001) (9, -2.69770889139521740000e-002) (10, 1.14469498266846010000e-001) (11, 1.11279574306394490000e-001) (12, 3.39518296166897050000e-001) (13, -3.26560232574421070000e-001) (14, -1.12252996125673080000e-001) (15, -2.35589227567233830000e-001) (16, 9.91521575238549920000e-002) (17, -1.15802814571523370000e-001) (18, -3.03982752056428770000e-002) (19, 6.54311207310546710000e-001) (20, -3.08629056065204510000e-002) (21, -6.24682026840263570000e-002) (22, -1.22062266479022630000e-001) (23, 9.39864493911595320000e-001) (24, 1.90792443219844820000e-001) (25, 1.14788885020953660000e-001) (26, -9.25199195545623780000e-005) (27, 1.12496551606612020000e-001) (28, 1.54586281515648900000e-001) (29, -3.08484530585164900000e-001) (30, 2.96134938483567700000e-001) (31, 6.57298500645374760000e-001) (32, 5.02110746109039160000e-001) (33, 5.16716835042983270000e-001) (34, -6.50201057985050900000e-002) (35, 1.44450069925531140000e-001) (36, 8.01907243564614350000e-002) (37, 1.00522903859824010000e-001) (38, -5.21467321519615970000e-002) (39, 1.43483557239115540000e-001) (40, 5.12484594338532340000e-002) (41, 5.82313296242108920000e-001) (42, -1.19229314756922490000e-001) (43, -7.32813809509216260000e-002) (44, 8.17469535492480050000e-003) (45, 3.86265506963638930000e-001) (46, -2.73425960747816330000e-001) (47, 1.38780655779564730000e+000) (48, 4.09200219604956340000e-001) (49, -1.53624835208857700000e-001) (50, -1.12935105411216400000e-001) (51, 3.99307544451520780000e-001) (52, -3.96394210692376570000e-001) (53, -4.26061927069773530000e-001) (54, 1.45070840619806240000e-001) (55, 3.26425607084593620000e-001) (56, -5.34093130994757080000e-001) (57, 6.80822027870422670000e-001) (58, 4.65887805460950650000e-001) (59, 8.16428524406982020000e-002) (0, -1.06441648296159190000e+000) (1, 1.03219960451077730000e+000) (2, -1.27272511285875830000e-001) (3, 6.70347525873183360000e-001) (4, 3.11724808620721940000e-001) (5, 5.75623071082796910000e-002) (6, 6.46659324644033970000e-001) (7, -2.29968016279278260000e-001) (8, 4.05318104305470440000e-001) (9, -2.41588192665153940000e-001) (10, 4.94748572020888230000e-001) (11, 3.28222333735228860000e-001) (12, 1.86378925056018390000e-001) (13, -4.52543734711722710000e-001) (14, -4.39571110680639420000e-001) (15, 5.72606779404296680000e-002) (16, -1.36324522516388050000e-001) (17, 3.60578897865726360000e-002) (18, 4.76977313867735670000e-001) (19, 5.02940696383698760000e-001) (20, 1.71728085080485650000e-001) (21, 2.56246105398284570000e-001) (22, -6.92846902681190990000e-003) (23, -6.47404914787876180000e-002) (24, 3.02866066242782010000e-001) (25, 2.43848866129748900000e-001) (26, 5.02922171780804880000e-002) (27, 9.06580659714566190000e-002) (28, 2.74619578348040850000e-001) (29, 1.81127311387844040000e-002) (30, 4.13734697405244990000e-001) (31, 1.10765309979416030000e+000) (32, 3.52679786173403900000e-001) (33, -6.06720107373303950000e-001) (34, -1.26325782249331860000e-001) (35, 2.76669943387727990000e-001) (36, 4.30233341078027740000e-001) (37, 9.01582251368282660000e-002) (38, 4.30011480564793050000e-001) (39, 1.37603666064757490000e-001) (40, 4.32954890757579420000e-001) (41, 2.27006840687282470000e-001) (42, -2.44805411226105360000e-001) (43, 2.12831248778644870000e-001) (44, -2.16687233061712280000e-001) (45, 8.08457546314898520000e-001) (46, -9.04523488866307120000e-003) (47, -1.94723584718813490000e-001) (48, -1.20694455627561870000e-001) (49, 8.70208290070024760000e-001) (50, -6.20848822362546570000e-001) (51, -3.25121710589646730000e-002) (52, -1.69458666423792350000e+000) (53, -2.00249202730053950000e-001) (54, 5.91472870109343800000e-001) (55, -1.48843368792310220000e-001) (56, 4.13229185679861100000e-002) (57, 2.69015563437081050000e-001) (58, 1.48680266647705450000e-001) (59, -3.18152906678030480000e-001) (0, -4.96338048394582790000e-001) (1, 9.79997899849806450000e-001) (2, 2.82925607322113800000e-001) (3, 2.03493229677014360000e-001) (4, 2.47778165826347760000e-001) (5, -9.30045627636493370000e-002) (6, -1.88892134238273190000e-002) (7, 2.06799215672833240000e-001) (8, 1.39202357339475980000e-002) (9, -1.48035024457892600000e-001) (10, 2.45319622717457830000e-001) (11, -8.96890302690080960000e-002) (12, 5.88224001185921660000e-001) (13, -3.81101049756089470000e-002) (14, 9.27618625883839590000e-001) (15, -1.47202772864328510000e-001) (16, 1.48560497964005330000e-001) (17, 2.90058441988401310000e-001) (18, 5.11000812171412690000e-001) (19, 6.77571101976142900000e-001) (20, 6.94797333205041220000e-001) (21, -3.39834740310132940000e-001) (22, -4.47838699061577310000e-001) (23, -7.64202706906799700000e-002) (24, 1.61125292599416330000e-001) (25, -1.09040462284796340000e-001) (26, 4.73043226716628350000e-001) (27, -2.79926068862983710000e-001) (28, 5.02643176629828600000e-001) (29, 2.88621434669138810000e-001) (30, 8.48157358443528410000e-002) (31, 6.17281082979788560000e-001) (32, 4.70436517787717720000e-001) (33, 3.28353016721499360000e-001) (34, -1.68110474912454900000e-001) (35, 1.92930289389280580000e-001) (36, 7.27628048832789420000e-001) (37, -1.35282594847653870000e-002) (38, -7.88092707644954400000e-002) (39, 7.68869809283577180000e-001) (40, 1.80176874602880090000e-001) (41, -6.61796043852568070000e-001) (42, 5.39986057550763010000e-001) (43, -4.53126994464373770000e-001) (44, -6.42081576562750080000e-002) (45, 5.82478792736460860000e-001) (46, 2.75308164525559170000e-001) (47, 3.45800379154678260000e-001) (48, 1.17425196138430480000e-001) (49, -7.82432135091193780000e-002) (50, -4.73301681063062640000e-001) (51, 8.49718012188044320000e-002) (52, -1.32740390507000480000e-001) (53, 7.53283763698728430000e-002) (54, 2.96091067909517340000e-001) (55, -9.14089063945860980000e-003) (56, 3.77791251792543860000e-001) (57, -2.74104690324792680000e-001) (58, 8.62727676366227940000e-001) (59, -2.85640168340467040000e-002) (0, -8.40483834175594690000e-001) (1, 4.30408155736077490000e-001) (2, -2.02032143494987470000e-001) (3, 3.81252239259504080000e-001) (4, 3.29386200806421280000e-001) (5, 3.61127048559139520000e-001) (6, 5.39837148067605630000e-001) (7, 1.01177034144807610000e-001) (8, 6.10414642850540810000e-001) (9, 1.71158618558886510000e-002) (10, 4.21591492972177410000e-001) (11, 1.17508798316646930000e-001) (12, 4.85826870426057210000e-001) (13, 3.72034542023420960000e-001) (14, 5.73308618093471440000e-001) (15, -3.39193858627986180000e-001) (16, -4.98638420066343900000e-001) (17, 3.23102729175488880000e-001) (18, 8.08391819651083860000e-001) (19, 2.75549650763247000000e-001) (20, -2.58290794919061150000e-001) (21, -3.55588393153140780000e-001) (22, 6.11055086364115430000e-001) (23, 2.54001461537484600000e-001) (24, 4.33142495346606870000e-001) (25, 3.11511645655244640000e-001) (26, -1.51470498105321790000e-002) (27, -1.05471850274914860000e+000) (28, 6.80692604225081820000e-001) (29, 2.65948757044737470000e-001) (30, 1.09133867527661300000e-001) (31, 4.97650208336915590000e-001) (32, 4.24142760338799720000e-001) (33, -1.65391555070855480000e-001) (34, 1.47803908987884090000e-001) (35, 1.40297883177718290000e-002) (36, 5.61830324785857830000e-002) (37, -1.81898176313133290000e-001) (38, 8.84047808945033760000e-002) (39, 9.13714340163931940000e-002) (40, 1.68409496922787220000e+000) (41, 5.03654056391514280000e-002) (42, -5.92496816655474420000e-002) (43, 2.22673369973768960000e-001) (44, -3.69843030976922120000e-002) (45, 5.88456247551586320000e-001) (46, -2.39444653709447760000e-001) (47, 3.44845148951457570000e-001) (48, 1.13017118509918000000e+000) (49, 5.15699785461273710000e-001) (50, -3.51596281498543990000e-001) (51, -8.10164912651260010000e-002) (52, -1.95893484192010730000e-002) (53, -1.46494125034763060000e-001) (54, 2.49275316428327200000e-001) (55, -2.01159933844462900000e-001) (56, -4.96772590106549730000e-001) (57, 6.50561603603449280000e-001) (58, 5.33609082974978000000e-001) (59, -1.47741846887340380000e-001) (0, 1.85727085328638960000e-001) (1, 1.19609838788534370000e+000) (2, -4.21883290737389450000e-001) (3, 3.28867656109308600000e-002) (4, 2.11807960955606530000e-001) (5, 1.15569744755583100000e-001) (6, -8.59581195830584200000e-002) (7, 2.67553113123846440000e-001) (8, -4.50478151483781400000e-001) (9, -2.87009756377514520000e-001) (10, 1.93074464209006090000e-001) (11, -3.88805086661323180000e-001) (12, 1.77235466341877730000e-001) (13, -2.58230234989747090000e-002) (14, 8.02913353683687100000e-001) (15, 3.90365509980896860000e-001) (16, 6.64265338919146080000e-001) (17, 1.84117422990397570000e-001) (18, -2.61358747842678100000e-001) (19, 4.07972567330858630000e-001) (20, 5.61044359599953800000e-001) (21, -4.03720128553258990000e-002) (22, 3.90850668547630340000e-001) (23, 6.49525417535225640000e-001) (24, -1.00737420547691140000e-001) (25, -1.67319265602466210000e-001) (26, -3.73903614110552340000e-001) (27, 1.61135352674109460000e-002) (28, 3.24967793721799740000e-001) (29, 9.55442838775329320000e-001) (30, 1.30405074244711540000e-001) (31, 7.68751453950795250000e-001) (32, 3.10040454660717450000e-001) (33, 3.14332334749079180000e+000) (34, -3.77646084461769000000e-001) (35, 5.50490179760870360000e-002) (36, 2.31361798873420200000e-001) (37, 2.04276109772103250000e-001) (38, 5.47212749753528340000e-002) (39, 6.62433031179060830000e-001) (40, 4.77156998406758290000e-001) (41, 2.99569968539077140000e-001) (42, 7.18301964805297950000e-001) (43, 1.52130415659856990000e-001) (44, 7.37825273559133520000e-001) (45, 2.84074678097112450000e-001) (46, -3.76055588936748900000e-001) (47, 6.38967621870035090000e-001) (48, 6.42322411309891760000e-001) (49, 1.20044817787035740000e-001) (50, 3.91305086138106990000e-001) (51, -1.34333964114537440000e-001) (52, 5.63936470662036780000e-001) (53, 4.92797328447204140000e-001) (54, 5.36511738373560140000e-001) (55, 2.22248964859137840000e-001) (56, -5.39353540598190520000e-001) (57, 1.77552248256484580000e-001) (58, 8.27022526271991240000e-001) (59, -1.37970832405608590000e-001) (0, 3.07153286632642740000e-001) (1, -2.45205818708364950000e+000) (2, 1.04528474013160250000e-001) (3, 7.99471933394965140000e-002) (4, -2.98437053495770700000e-002) (5, 1.40004730839696580000e-001) (6, 4.45354960240286040000e-001) (7, 1.89594428344809380000e-001) (8, 1.95786682433265300000e-002) (9, 4.30367779292622900000e-002) (10, 5.38254622018563560000e-001) (11, 4.12255020186815040000e-001) (12, 5.17041640182790090000e-001) (13, 5.47401773647952510000e-001) (14, 2.25927132221928340000e-001) (15, -1.03681265313193550000e-001) (16, 5.14426479639497610000e-002) (17, 5.05069461122273290000e-002) (18, -4.19104803016215890000e-002) (19, 2.87799184349173790000e-001) (20, -4.38828638402337430000e-001) (21, -1.60779080916732710000e-001) (22, -2.43832066100139380000e-001) (23, 1.47851323223562470000e+000) (24, 3.07846603819027840000e-001) (25, 8.18568868266813300000e-001) (26, 3.55960042475160910000e-002) (27, -6.36564193824165070000e-002) (28, 3.39391214848380530000e-001) (29, 3.56103920479236500000e-001) (30, 8.85382630714872000000e-001) (31, 2.38816075403820550000e-001) (32, 7.15844894710373380000e-001) (33, 1.23844602998074500000e-001) (34, 2.42224052269425280000e-001) (35, -1.76369664812300790000e-001) (36, 3.04142894380863450000e-001) (37, 1.64777865265313460000e-001) (38, -1.88804499656674510000e-001) (39, 2.52977508651530350000e-001) (40, 1.81234678712461520000e-001) (41, 1.71473184225201030000e-001) (42, 3.48293905715245590000e-002) (43, -3.15635537130594530000e-002) (44, -1.05722119297828330000e-001) (45, 5.77799477760348790000e-001) (46, 4.77174044746799110000e-002) (47, 1.48456368316993130000e-001) (48, 1.83213923427630760000e+000) (49, -1.63636327313768580000e-002) (50, -4.19305963555536510000e-001) (51, 1.75334097722005840000e-001) (52, -1.03908279195932640000e-001) (53, -7.97934976073168770000e-001) (54, 8.48764383471022570000e-001) (55, 4.58147688267978750000e-001) (56, -1.33353230370454100000e-001) (57, 1.18651852778878260000e+000) (58, 2.87127946865102180000e-001) (59, 2.86616099953820260000e-001) (0, 9.46625755963389210000e-002) (1, -1.79045904102784480000e-001) (2, -7.46068811380847240000e-002) (3, -4.62128119050722040000e-001) (4, -1.01167917955149320000e+000) (5, -2.30294604700234630000e-001) (6, -4.88067640288385450000e-002) (7, -5.57143946068669460000e-001) (8, -1.98756654085092740000e-001) (9, -8.38263619391547700000e-002) (10, -3.47053768056556190000e-001) (11, 5.91086371368213960000e-001) (12, -1.41957877697214850000e-001) (13, 5.50149632763059620000e-001) (14, -4.64081785954433670000e-001) (15, 1.59630940626673800000e-001) (16, 3.67392836002618460000e-001) (17, 1.79974437179983720000e+000) (18, 7.49499824348271170000e-002) (19, -8.09501739257730000000e-002) (20, -1.75971751550329760000e-001) (21, 3.91205943047529200000e-001) (22, 4.78406921724021440000e-001) (23, 4.65427252730634450000e-003) (24, -2.05122995041774090000e-001) (25, -1.00842094586078110000e-001) (26, -2.15759704793806680000e-001) (27, 1.88012984258673830000e-001) (28, -3.47391223399953930000e-001) (29, -8.86919896365768510000e-001) (30, 2.14710092918721440000e-002) (31, -7.57001176356428550000e-002) (32, -9.57686804021230960000e-001) (33, 4.68423096273210940000e-001) (34, 6.92725412820930360000e-001) (35, 8.32139929631309510000e-002) (36, 8.16787531257491040000e-001) (37, -4.73255386069585780000e-001) (38, 6.90274300121812710000e-002) (39, -2.44078504541356410000e-001) (40, 1.80194248397844260000e-001) (41, 2.80011453111638940000e-001) (42, 6.08566259191430860000e-002) (43, -9.46650393868473720000e-001) (44, -2.33093676587380060000e-001) (45, 2.01998880873213830000e-001) (46, 2.80716039018431980000e-002) (47, -4.82258182664535570000e-001) (48, -1.61539159937477610000e-001) (49, -9.65357214138552740000e-002) (50, 5.73820347060557730000e-001) (51, 6.55686747644447230000e-001) (52, 3.96401795903839780000e-001) (53, 1.05854787812414820000e+000) (54, -7.52688120305410660000e-001) (55, 1.05919482142184270000e+000) (56, 2.77948054545373770000e+000) (57, -5.65225130159417000000e-001) (58, 6.26763405153211270000e-001) (59, 5.38463178363061570000e-001) (0, 9.68785339945030240000e-001) (1, 9.17910451562399590000e-001) (2, 5.44925523102725640000e-003) (3, 8.25016240764492310000e-002) (4, 2.99708751539501610000e-001) (5, 4.69872143920875510000e-001) (6, 1.81197580438527510000e-002) (7, -4.60979841408804690000e-002) (8, 1.81113103665195260000e-001) (9, 1.31064275891711460000e-001) (10, 3.56454577071268820000e-001) (11, -4.24452648636680090000e-001) (12, 1.54471223685320090000e-002) (13, -3.30472736615602170000e-001) (14, -9.37706629154646640000e-001) (15, -1.60489303908674440000e-001) (16, -6.27953811741431120000e-004) (17, 3.43649683265152660000e-001) (18, 1.96000116585202000000e-001) (19, 2.71800850162252080000e-001) (20, 2.64753980309815280000e-001) (21, 6.13320969992671790000e-002) (22, -9.07269301675673550000e-001) (23, -2.43987782147003480000e-001) (24, 6.38711459162795920000e-001) (25, 3.68551859092337730000e-001) (26, 1.30597488165592490000e+000) (27, 4.35957996965994350000e-002) (28, 3.19239008877601760000e-001) (29, 1.04085382637592570000e-001) (30, 3.61464820198443780000e-001) (31, 3.80053828989746100000e-001) (32, 3.55793012303962100000e-001) (33, 3.89935415716709980000e-001) (34, 2.35707791822973020000e-001) (35, 3.26003501427079780000e-002) (36, -9.94986363795557530000e-003) (37, 1.97919203086414170000e-001) (38, 2.58531659957759230000e-001) (39, -5.01585745638318880000e-002) (40, 2.03883176047825830000e-001) (41, 1.71695627389959050000e-001) (42, -2.06356492195986980000e-001) (43, 2.77111843035271480000e-001) (44, 1.32187452033656280000e-001) (45, 4.00111197426528900000e-001) (46, 8.69207105410448040000e-002) (47, 3.50050719022639730000e-001) (48, 3.98171314119211210000e-002) (49, 1.25068084645235030000e-001) (50, -4.12521135955227940000e-001) (51, 1.53205083866696960000e-001) (52, -2.74193784334834490000e-001) (53, 2.93972542213836490000e-002) (54, -1.54269113848837390000e+000) (55, 1.46047235013194500000e-001) (56, 3.51726313178471470000e-001) (57, 3.10819115506219820000e-001) (58, 4.55561466330391910000e-001) (59, -1.78389495612704780000e-002) (60, 2.25384537206640090000e-001) (61, 5.40511534747343150000e-001) (62, -1.51778762313344390000e-001) (63, 1.00992303227710450000e-001) (64, 3.88154360723213450000e-002) (65, -6.19487531158239180000e-001) (66, -1.76969649346867900000e-001) (67, -7.70513528504750550000e-002) (68, 2.45976951161654130000e-001) (69, 5.09684805611372530000e-001) (0, -4.50891163754667700000e-001) (1, -1.28687518060422250000e+000) (2, -9.37941176318007890000e-001) (3, 1.22126416844167310000e-001) (4, 1.47380509314645580000e-001) (5, 1.63341471248354130000e-001) (6, 5.15792979081593630000e-002) (7, 2.10502101910151340000e-001) (8, 1.92768119458828440000e-001) (9, -1.05404265954556400000e-001) (10, 1.79578506433648750000e-001) (11, -1.67527982734313460000e-001) (12, 1.60296059947282160000e-001) (13, 3.09754113505254560000e-001) (14, -3.85375518694693190000e-002) (15, 2.21484636920468240000e-001) (16, -1.44658926952165170000e-002) (17, 5.45641470377992270000e-001) (18, -2.62850920121230660000e-003) (19, 1.55224791856087080000e-002) (20, -4.52331305894405340000e-001) (21, -3.25932452561319970000e-002) (22, 1.63191693201520350000e-001) (23, 1.67033696079921300000e-001) (24, -1.87032533150294330000e-001) (25, -2.40682971400612820000e-001) (26, 1.61751831706427980000e-001) (27, 3.72642143692064220000e-001) (28, 2.06267781941769060000e-001) (29, 7.35255516456399750000e-001) (30, -1.22044554506594090000e-001) (31, 2.36723850904393070000e-001) (32, 3.18252705099318410000e-001) (33, 1.33252045668440070000e+000) (34, -1.27377566132770630000e-001) (35, 1.14844011502756830000e-001) (36, 5.14149520427720660000e-001) (37, 3.91121258364008020000e-001) (38, -1.54325816794852970000e-001) (39, 4.18123003233197620000e-001) (40, 3.72237204726516830000e-001) (41, 4.15220937086215490000e-001) (42, -1.23798967556122780000e-001) (43, -1.72702167651360650000e-001) (44, 8.50872439923987090000e-001) (45, 1.65065444781043710000e-001) (46, 1.44709150867059420000e-002) (47, -1.29002444045670240000e-001) (48, 7.60076050023065500000e-002) (49, 2.55185350651851770000e-001) (50, -1.14778155497067980000e-001) (51, 9.03599697272699180000e-001) (52, -1.75191805434264210000e-002) (53, -1.76965269924897830000e-001) (54, 2.74338675602634530000e-001) (55, 3.10083653509423960000e-001) (56, 8.33750137579816750000e-001) (57, 7.59530413024657850000e-001) (58, 3.22772802329380330000e-001) (59, -2.89688444425545700000e-001) (60, -5.41078040141787990000e-002) (61, 4.02154821874487480000e-001) (62, 9.29189108015016970000e-001) (63, -3.17124562865981730000e-001) (64, -8.39278399765239040000e-003) (65, 2.11725253676192440000e-001) (66, -8.90712707848527600000e-002) (67, -1.05914415161316540000e+000) (68, 2.87505709373231720000e-001) (69, 2.13631053612643760000e-001) (0, -8.71573352799090870000e-001) (1, 9.83687427149294910000e-001) (2, -2.05081048972635970000e+000) (3, 6.90932405310503430000e-002) (4, -3.07180464173600930000e-002) (5, 7.65282700969340120000e-002) (6, -1.00011926239027870000e-001) (7, -5.42715202080163160000e-002) (8, -1.64595759675079420000e-002) (9, 1.46616855309426200000e-001) (10, -2.22227240373875150000e-001) (11, -9.49004586135168000000e-002) (12, -2.36214477770751660000e-001) (13, 2.59015355028031520000e-001) (14, -3.28650192477474350000e-001) (15, 3.43617210437315410000e-001) (16, 5.22407435797712510000e-002) (17, 8.02751192846541840000e-001) (18, 5.90571400125563110000e-002) (19, -4.37319733418928960000e-002) (20, -1.89422863344616550000e-001) (21, 1.41233052448313020000e-001) (22, 3.11429245043253870000e-001) (23, -1.46938721868378720000e-001) (24, 1.50934696827957600000e-001) (25, -2.36298346355222400000e-001) (26, -1.28720937023749650000e-001) (27, 1.97990059643162550000e-001) (28, -7.38874125546395700000e-002) (29, 2.97557283323142690000e-002) (30, -1.34211367341114550000e-001) (31, 2.77614288002512530000e-001) (32, -3.20198637555689950000e-001) (33, 4.79532964715651710000e-001) (34, -1.07772870319956190000e-001) (35, -9.76368351505079580000e-002) (36, 1.12445223942677820000e+000) (37, 1.69365835248491300000e-001) (38, -6.35049345692650660000e-003) (39, -9.64703436696574270000e-002) (40, -8.06699597936375990000e-002) (41, 2.50294539784016670000e-001) (42, 7.73604041028805760000e-001) (43, 2.30814667354355100000e-001) (44, 2.07172117291347960000e-001) (45, -1.83812642563798870000e-001) (46, 1.07297072867233960000e-001) (47, -6.76264444260584740000e-002) (48, -2.56100194091173800000e-002) (49, 5.52467164040026160000e-001) (50, 2.17528538939237240000e-001) (51, 8.65286161658564310000e-001) (52, 3.65549555001880130000e-001) (53, 5.20353363369005730000e-001) (54, -1.47395606175313530000e-001) (55, 5.73322383322470540000e-001) (56, -1.29726004455761270000e-001) (57, -3.59022445739456240000e-001) (58, 2.79203975007914270000e-001) (59, -2.01443294556611920000e-001) (60, 8.86019890344521690000e-002) (61, 4.23918284903102180000e-001) (62, 3.57026776595212700000e-001) (63, -7.11906801394520120000e-001) (64, -2.43677873422835540000e-002) (65, 6.56710873948621270000e-001) (66, 4.18653275848964030000e-002) (67, -4.69737683034633200000e-001) (68, 1.21846504752263200000e+000) (69, 5.65760815781913150000e-002) (0, 4.45596939424373950000e-001) (1, -1.77735750859659260000e-001) (2, 4.16716863283274830000e-002) (3, 1.68315685895018860000e-001) (4, 8.54255910637247010000e-002) (5, 8.47340130774075320000e-003) (6, 1.53976255489898180000e-001) (7, -2.18091064804638660000e-001) (8, -4.13344014926986190000e-001) (9, 1.12913890381572800000e-001) (10, 7.23717873650314420000e-002) (11, 2.84383610458104230000e-001) (12, 6.07664998110613030000e-001) (13, 5.33302145915936830000e-001) (14, 1.31589220541857590000e-001) (15, 2.41378317782718880000e-003) (16, -9.49026130673028820000e-002) (17, -1.21941447082957080000e-001) (18, 1.49693913372065030000e-003) (19, 3.93445905274690090000e-001) (20, 4.58378063828175530000e-001) (21, -6.22834744602357090000e-002) (22, 6.00790108256294970000e-001) (23, 4.27682199803348260000e-001) (24, 4.85982402864448940000e-001) (25, 4.85888014886339090000e-001) (26, 5.35836974818547220000e-002) (27, -2.55072328780924340000e-001) (28, 4.54997405547764080000e-001) (29, -1.72180176918167070000e-002) (30, 2.72764702987018550000e-001) (31, 4.93858818318266890000e-001) (32, 1.47505757767960710000e-001) (33, -2.90712369257104920000e-001) (34, -4.11409196459110230000e-001) (35, 6.03729568981581030000e-001) (36, 6.22574054874875940000e-001) (37, 5.68132201513383950000e-001) (38, 1.00443890468901140000e+000) (39, 6.11764507121106300000e-001) (40, 1.89136963167389090000e-001) (41, -8.94076957527814020000e-002) (42, -1.89945633975991230000e-001) (43, -6.84731554212120590000e-002) (44, -2.70698416526016730000e-001) (45, 2.42297761053837930000e-001) (46, -5.91268158852741800000e-002) (47, 3.33659189810525390000e-001) (48, 2.72477573363054060000e-001) (49, 1.03646465204245290000e-001) (50, 1.92600325209358820000e-001) (51, 2.02359898016432090000e-001) (52, 1.83138205827551660000e-001) (53, 1.46169321419644370000e-001) (54, 1.04980295519886720000e+000) (55, 6.15212638163526310000e-002) (56, -1.31327746979134270000e-001) (57, 1.28096351953691210000e-001) (58, 4.13563056681660320000e-001) (59, 3.90754735832895770000e-001) (60, 6.98332840159831330000e-001) (61, 2.85435527491069370000e-001) (62, 3.02223244548010690000e-001) (63, -6.65401668678041460000e-002) (64, 8.05254366414036170000e-002) (65, -3.72970370003650630000e-001) (66, -1.33213520829245840000e-001) (67, 2.25343292575954840000e-001) (68, 8.15598284547620900000e-003) (69, 1.71350560808994270000e-001) (0, 6.19792162643278190000e-001) (1, 1.92595671532526380000e-001) (2, 6.48117998473436210000e-001) (3, -8.86324771031052890000e-002) (4, 5.20834085925653420000e-002) (5, 6.48848557739516720000e-002) (6, 3.04833361972180920000e-001) (7, -4.17265674947732480000e-001) (8, -5.45744283196023320000e-002) (9, 2.97196552611330820000e-001) (10, 1.39758814774804920000e-001) (11, 3.21974690788264570000e-001) (12, -2.73297604700809550000e-001) (13, -1.85539807721576300000e-001) (14, 7.23622943756431770000e-002) (15, 2.39745433231574600000e-001) (16, 4.60304223330742330000e-001) (17, 6.34594239081788140000e-001) (18, -2.24341324415296500000e-001) (19, -4.04395985968981130000e-001) (20, -3.93573063942091810000e-002) (21, 5.87848323819887610000e-001) (22, 2.78403916728844010000e-001) (23, 1.86513822812282020000e-001) (24, 7.41288480704054010000e-003) (25, -8.41548790237324070000e-002) (26, -8.14410029509880920000e-002) (27, 2.20678877047904180000e-001) (28, -5.36079242278670390000e-002) (29, -3.33761571912835060000e-001) (30, -3.45823856155849100000e-001) (31, -1.33722231464783210000e-001) (32, -1.15837739414767290000e-001) (33, -2.48509359284258300000e-001) (34, 2.07318348266804040000e-001) (35, -4.84600471225855980000e-001) (36, 3.20328267532180910000e-001) (37, 1.60241739787864930000e-001) (38, -9.87695877786841090000e-002) (39, 6.14426635702427370000e-002) (40, -4.33446403291084590000e-002) (41, 6.85278185276928300000e-001) (42, 7.82014431449745920000e-001) (43, 4.63852088247987020000e-001) (44, 1.64012902006183070000e-001) (45, -6.37505317145174310000e-002) (46, -4.03669543886876200000e-002) (47, 3.35666924688273750000e-001) (48, 1.97949294476290450000e-001) (49, 7.88614773853120590000e-002) (50, 1.01399665792146580000e-001) (51, 2.89251605745568300000e-001) (52, 1.61429458421400330000e-001) (53, 1.26482719277584370000e-002) (54, -2.38153592544761070000e-001) (55, 1.64200632272123060000e-001) (56, 3.31213687700351590000e-001) (57, -3.88242081254185520000e-001) (58, 4.68995337553834320000e-001) (59, -3.48338699158281460000e-002) (60, -1.76067682053968710000e-002) (61, 4.82858412217324170000e-001) (62, 6.01845496450625790000e-001) (63, 6.62464802487051750000e-001) (64, 1.29667670011927060000e-001) (65, 4.89458076320577810000e-001) (66, -1.52062310051377670000e+000) (67, 8.27003713577212700000e-001) (68, 2.89317565301626220000e-003) (69, 4.33198645060992820000e-001) (0, -4.80360768091238010000e-001) (1, 5.36693950853639400000e-002) (2, 5.95483442586420720000e-001) (3, 3.15206164677296790000e-001) (4, 1.65158378423588020000e-001) (5, 7.37403470989141270000e-001) (6, -4.95730111605287740000e-001) (7, -1.72183861809333570000e-001) (8, -2.52332750571315660000e-001) (9, 3.46535398882917570000e-001) (10, -5.93423823389709450000e-001) (11, 7.13112710450465870000e-001) (12, -2.79601815449914800000e-001) (13, -2.71023003987963860000e-001) (14, -5.19787902823789730000e-001) (15, 7.04868821656375100000e-001) (16, -2.39901113493225480000e-002) (17, 8.27688818651171830000e-001) (18, 1.37296781989302340000e-001) (19, -9.46888581717777900000e-001) (20, -1.65427781808091060000e-001) (21, 4.47543792582682510000e-002) (22, 2.71100426493472020000e-002) (23, -3.61471356711503770000e-001) (24, -1.08287812505046500000e-001) (25, -3.52189244150953980000e-001) (26, -2.93704662248110810000e-001) (27, 2.15626263266541940000e-001) (28, 6.98755694027894110000e-002) (29, 1.93750720571188920000e-001) (30, -4.21821216267330930000e-001) (31, -1.35688066407155000000e-001) (32, 3.89720609582370980000e-001) (33, -1.12456749708222700000e-001) (34, -1.24883906296717850000e-001) (35, 5.00956752257249870000e-002) (36, 7.79313152207699260000e-001) (37, -1.40553149683816710000e-001) (38, 8.29659309096723170000e-002) (39, 7.88703812175495230000e-003) (40, 2.19877812793290380000e-001) (41, 3.11610271384702600000e-001) (42, 1.53675559808448630000e-001) (43, 5.22143950935231250000e-001) (44, 2.32746369935601080000e-001) (45, 9.32515193622501020000e-001) (46, 4.52307184546262120000e-001) (47, 4.76189284962846020000e-001) (48, 1.60313171794782990000e-001) (49, 4.15741147650239230000e-001) (50, -2.96298414185249440000e-001) (51, 5.91531299699796340000e-001) (52, 2.33219733406227480000e-001) (53, 3.42275424567789200000e-001) (54, -2.47233527364090210000e-001) (55, 7.22664768532450760000e-001) (56, 1.35135936865274390000e-001) (57, 8.78848290359687670000e-002) (58, 2.07183254407845520000e-001) (59, 4.26830315309131240000e-001) (60, -5.72258989827827070000e-002) (61, 4.19973887677247190000e-001) (62, 3.04707164684877920000e-002) (63, 4.64585689958288810000e-001) (64, -4.67669990915826060000e-001) (65, -1.80116763901471970000e-002) (66, 3.14740099315422630000e-001) (67, 2.78760043185607380000e-001) (68, 2.13897773249149940000e-001) (69, -6.97899465678441970000e-001) 
