FANN_FLO_2.1
num_layers=8
learning_rate=0.700000
connection_rate=1.000000
network_type=1
learning_momentum=0.000000
training_algorithm=2
train_error_function=1
train_stop_function=1
cascade_output_change_fraction=0.010000
quickprop_decay=-0.000100
quickprop_mu=1.750000
rprop_increase_factor=1.200000
rprop_decrease_factor=0.500000
rprop_delta_min=0.000000
rprop_delta_max=50.000000
rprop_delta_zero=0.100000
cascade_output_stagnation_epochs=12
cascade_candidate_change_fraction=0.010000
cascade_candidate_stagnation_epochs=12
cascade_max_out_epochs=150
cascade_min_out_epochs=50
cascade_max_cand_epochs=150
cascade_min_cand_epochs=50
cascade_num_candidate_groups=2
bit_fail_limit=1.00000001490116120000e-001
cascade_candidate_limit=1.00000000000000000000e+003
cascade_weight_multiplier=4.00000000000000020000e-001
cascade_activation_functions_count=10
cascade_activation_functions=3 5 7 8 10 11 14 15 16 17 
cascade_activation_steepnesses_count=4
cascade_activation_steepnesses=2.50000000000000000000e-001 5.00000000000000000000e-001 7.50000000000000000000e-001 1.00000000000000000000e+000 
layer_sizes=10 30 30 30 30 30 30 6 
scale_included=0
neurons (num_inputs, activation_function, activation_steepness)=(0, 0, 0.00000000000000000000e+000) (0, 0, 0.00000000000000000000e+000) (0, 0, 0.00000000000000000000e+000) (0, 0, 0.00000000000000000000e+000) (0, 0, 0.00000000000000000000e+000) (0, 0, 0.00000000000000000000e+000) (0, 0, 0.00000000000000000000e+000) (0, 0, 0.00000000000000000000e+000) (0, 0, 0.00000000000000000000e+000) (0, 0, 0.00000000000000000000e+000) (10, 5, 1.00000000000000000000e+000) (10, 5, 1.00000000000000000000e+000) (10, 5, 1.00000000000000000000e+000) (10, 5, 1.00000000000000000000e+000) (10, 5, 1.00000000000000000000e+000) (10, 5, 1.00000000000000000000e+000) (10, 5, 1.00000000000000000000e+000) (10, 5, 1.00000000000000000000e+000) (10, 5, 1.00000000000000000000e+000) (10, 5, 1.00000000000000000000e+000) (10, 5, 1.00000000000000000000e+000) (10, 5, 1.00000000000000000000e+000) (10, 5, 1.00000000000000000000e+000) (10, 5, 1.00000000000000000000e+000) (10, 5, 1.00000000000000000000e+000) (10, 5, 1.00000000000000000000e+000) (10, 5, 1.00000000000000000000e+000) (10, 5, 1.00000000000000000000e+000) (10, 5, 1.00000000000000000000e+000) (10, 5, 1.00000000000000000000e+000) (10, 5, 1.00000000000000000000e+000) (10, 5, 1.00000000000000000000e+000) (10, 5, 1.00000000000000000000e+000) (10, 5, 1.00000000000000000000e+000) (10, 5, 1.00000000000000000000e+000) (10, 5, 1.00000000000000000000e+000) (10, 5, 1.00000000000000000000e+000) (10, 5, 1.00000000000000000000e+000) (10, 5, 1.00000000000000000000e+000) (10, 5, 1.00000000000000000000e+000) (40, 5, 1.00000000000000000000e+000) (40, 5, 1.00000000000000000000e+000) (40, 5, 1.00000000000000000000e+000) (40, 5, 1.00000000000000000000e+000) (40, 5, 1.00000000000000000000e+000) (40, 5, 1.00000000000000000000e+000) (40, 5, 1.00000000000000000000e+000) (40, 5, 1.00000000000000000000e+000) (40, 5, 1.00000000000000000000e+000) (40, 5, 1.00000000000000000000e+000) (40, 5, 1.00000000000000000000e+000) (40, 5, 1.00000000000000000000e+000) (40, 5, 1.00000000000000000000e+000) (40, 5, 1.00000000000000000000e+000) (40, 5, 1.00000000000000000000e+000) (40, 5, 1.00000000000000000000e+000) (40, 5, 1.00000000000000000000e+000) (40, 5, 1.00000000000000000000e+000) (40, 5, 1.00000000000000000000e+000) (40, 5, 1.00000000000000000000e+000) (40, 5, 1.00000000000000000000e+000) (40, 5, 1.00000000000000000000e+000) (40, 5, 1.00000000000000000000e+000) (40, 5, 1.00000000000000000000e+000) (40, 5, 1.00000000000000000000e+000) (40, 5, 1.00000000000000000000e+000) (40, 5, 1.00000000000000000000e+000) (40, 5, 1.00000000000000000000e+000) (40, 5, 1.00000000000000000000e+000) (40, 5, 1.00000000000000000000e+000) (70, 5, 1.00000000000000000000e+000) (70, 5, 1.00000000000000000000e+000) (70, 5, 1.00000000000000000000e+000) (70, 5, 1.00000000000000000000e+000) (70, 5, 1.00000000000000000000e+000) (70, 5, 1.00000000000000000000e+000) (70, 5, 1.00000000000000000000e+000) (70, 5, 1.00000000000000000000e+000) (70, 5, 1.00000000000000000000e+000) (70, 5, 1.00000000000000000000e+000) (70, 5, 1.00000000000000000000e+000) (70, 5, 1.00000000000000000000e+000) (70, 5, 1.00000000000000000000e+000) (70, 5, 1.00000000000000000000e+000) (70, 5, 1.00000000000000000000e+000) (70, 5, 1.00000000000000000000e+000) (70, 5, 1.00000000000000000000e+000) (70, 5, 1.00000000000000000000e+000) (70, 5, 1.00000000000000000000e+000) (70, 5, 1.00000000000000000000e+000) (70, 5, 1.00000000000000000000e+000) (70, 5, 1.00000000000000000000e+000) (70, 5, 1.00000000000000000000e+000) (70, 5, 1.00000000000000000000e+000) (70, 5, 1.00000000000000000000e+000) (70, 5, 1.00000000000000000000e+000) (70, 5, 1.00000000000000000000e+000) (70, 5, 1.00000000000000000000e+000) (70, 5, 1.00000000000000000000e+000) (70, 5, 1.00000000000000000000e+000) (100, 5, 1.00000000000000000000e+000) (100, 5, 1.00000000000000000000e+000) (100, 5, 1.00000000000000000000e+000) (100, 5, 1.00000000000000000000e+000) (100, 5, 1.00000000000000000000e+000) (100, 5, 1.00000000000000000000e+000) (100, 5, 1.00000000000000000000e+000) (100, 5, 1.00000000000000000000e+000) (100, 5, 1.00000000000000000000e+000) (100, 5, 1.00000000000000000000e+000) (100, 5, 1.00000000000000000000e+000) (100, 5, 1.00000000000000000000e+000) (100, 5, 1.00000000000000000000e+000) (100, 5, 1.00000000000000000000e+000) (100, 5, 1.00000000000000000000e+000) (100, 5, 1.00000000000000000000e+000) (100, 5, 1.00000000000000000000e+000) (100, 5, 1.00000000000000000000e+000) (100, 5, 1.00000000000000000000e+000) (100, 5, 1.00000000000000000000e+000) (100, 5, 1.00000000000000000000e+000) (100, 5, 1.00000000000000000000e+000) (100, 5, 1.00000000000000000000e+000) (100, 5, 1.00000000000000000000e+000) (100, 5, 1.00000000000000000000e+000) (100, 5, 1.00000000000000000000e+000) (100, 5, 1.00000000000000000000e+000) (100, 5, 1.00000000000000000000e+000) (100, 5, 1.00000000000000000000e+000) (100, 5, 1.00000000000000000000e+000) (130, 5, 1.00000000000000000000e+000) (130, 5, 1.00000000000000000000e+000) (130, 5, 1.00000000000000000000e+000) (130, 5, 1.00000000000000000000e+000) (130, 5, 1.00000000000000000000e+000) (130, 5, 1.00000000000000000000e+000) (130, 5, 1.00000000000000000000e+000) (130, 5, 1.00000000000000000000e+000) (130, 5, 1.00000000000000000000e+000) (130, 5, 1.00000000000000000000e+000) (130, 5, 1.00000000000000000000e+000) (130, 5, 1.00000000000000000000e+000) (130, 5, 1.00000000000000000000e+000) (130, 5, 1.00000000000000000000e+000) (130, 5, 1.00000000000000000000e+000) (130, 5, 1.00000000000000000000e+000) (130, 5, 1.00000000000000000000e+000) (130, 5, 1.00000000000000000000e+000) (130, 5, 1.00000000000000000000e+000) (130, 5, 1.00000000000000000000e+000) (130, 5, 1.00000000000000000000e+000) (130, 5, 1.00000000000000000000e+000) (130, 5, 1.00000000000000000000e+000) (130, 5, 1.00000000000000000000e+000) (130, 5, 1.00000000000000000000e+000) (130, 5, 1.00000000000000000000e+000) (130, 5, 1.00000000000000000000e+000) (130, 5, 1.00000000000000000000e+000) (130, 5, 1.00000000000000000000e+000) (130, 5, 1.00000000000000000000e+000) (160, 5, 1.00000000000000000000e+000) (160, 5, 1.00000000000000000000e+000) (160, 5, 1.00000000000000000000e+000) (160, 5, 1.00000000000000000000e+000) (160, 5, 1.00000000000000000000e+000) (160, 5, 1.00000000000000000000e+000) (160, 5, 1.00000000000000000000e+000) (160, 5, 1.00000000000000000000e+000) (160, 5, 1.00000000000000000000e+000) (160, 5, 1.00000000000000000000e+000) (160, 5, 1.00000000000000000000e+000) (160, 5, 1.00000000000000000000e+000) (160, 5, 1.00000000000000000000e+000) (160, 5, 1.00000000000000000000e+000) (160, 5, 1.00000000000000000000e+000) (160, 5, 1.00000000000000000000e+000) (160, 5, 1.00000000000000000000e+000) (160, 5, 1.00000000000000000000e+000) (160, 5, 1.00000000000000000000e+000) (160, 5, 1.00000000000000000000e+000) (160, 5, 1.00000000000000000000e+000) (160, 5, 1.00000000000000000000e+000) (160, 5, 1.00000000000000000000e+000) (160, 5, 1.00000000000000000000e+000) (160, 5, 1.00000000000000000000e+000) (160, 5, 1.00000000000000000000e+000) (160, 5, 1.00000000000000000000e+000) (160, 5, 1.00000000000000000000e+000) (160, 5, 1.00000000000000000000e+000) (160, 5, 1.00000000000000000000e+000) (190, 0, 1.00000000000000000000e+000) (190, 0, 1.00000000000000000000e+000) (190, 0, 1.00000000000000000000e+000) (190, 0, 1.00000000000000000000e+000) (190, 0, 1.00000000000000000000e+000) (190, 0, 1.00000000000000000000e+000) 
connections (connected_to_neuron, weight)=(0, -5.40615395741638120000e-002) (1, 6.18241537156042910000e-001) (2, -1.07390222109788160000e-001) (3, -2.87797271126644660000e-001) (4, -9.31747723431567420000e-001) (5, 1.49036992795016530000e-001) (6, -2.01060526115956150000e-001) (7, -6.33921260686158950000e-001) (8, 7.30169007765563700000e-001) (9, -4.56114943480381350000e-002) (0, -2.62508879161064020000e-001) (1, 2.80494292142623280000e-001) (2, 8.95285375258858260000e-002) (3, 4.55206556092973500000e-001) (4, 1.83048854959954850000e-001) (5, 3.54975362233999060000e-001) (6, -5.55335841568692870000e-001) (7, 1.26695823947830730000e-002) (8, -4.64477730954165280000e-001) (9, 1.40346269994898160000e-001) (0, -3.82551783802997300000e-002) (1, 2.38606714326834220000e-001) (2, 1.98248657246523380000e-001) (3, 6.86370995189412470000e-001) (4, 5.15805622197299090000e-001) (5, -1.57552753175970730000e+000) (6, 4.05150070692502200000e-001) (7, 3.04054238186942110000e-002) (8, -4.28971653411342190000e-001) (9, 2.67012779495480860000e-001) (0, 8.51516022997666210000e-002) (1, 1.96885949277040450000e+001) (2, -6.55652250767608910000e-001) (3, -3.73494782969257530000e-001) (4, -3.59261063232925840000e-001) (5, 2.32645526990830630000e-001) (6, 1.25807406554304650000e+000) (7, -9.78053327578951860000e-002) (8, 1.60302563782081450000e+000) (9, 8.92378038573318900000e-002) (0, 2.47457816669697430000e-001) (1, 4.96130213369555710000e-001) (2, -1.16254735867937610000e-001) (3, -7.04518792974134440000e-001) (4, -2.89975382053873460000e-001) (5, -2.05656982937324620000e-001) (6, -7.62016988808031230000e-002) (7, 8.62635939443042730000e-002) (8, 1.00726813316152460000e-001) (9, -1.46200627103796840000e-002) (0, 8.53573025933848230000e-002) (1, 4.04610004250315240000e-001) (2, 1.37700036789595660000e-001) (3, 2.77922862000481610000e-001) (4, -8.89037074598806210000e-001) (5, -1.91750143928796860000e+000) (6, 1.24498791856775630000e-001) (7, -5.26016699170865020000e-001) (8, -1.00581120563835640000e+000) (9, 1.43398393934447230000e-001) (0, -7.08317218222009100000e-001) (1, -6.78733663347556030000e-001) (2, -1.25837179642404960000e-001) (3, 2.64419524822468110000e-001) (4, 5.12051677454768210000e-001) (5, 1.57683261407771020000e+000) (6, -9.39617411714251500000e-001) (7, 6.51441533474695020000e-001) (8, 1.82430926564315840000e-001) (9, -2.76176005134934730000e-001) (0, 8.17942409352595550000e-001) (1, -9.55487167185344180000e-002) (2, -1.50649086639931460000e-001) (3, -2.07162434677407830000e+000) (4, -8.44131255019975550000e-001) (5, 1.52663959957996980000e+000) (6, -3.26933430944216560000e-001) (7, -7.77774751893874240000e-001) (8, 1.44255825696750990000e+000) (9, -1.47661876013837680000e-001) (0, -6.31286212663829340000e-001) (1, -2.03919111460085840000e-001) (2, 2.93844185694475960000e-001) (3, 1.53773411135829900000e+000) (4, 3.63332249644667540000e-001) (5, -7.93019238952953900000e-001) (6, 1.54892508000929240000e+000) (7, 3.50232571691672160000e-001) (8, -1.72076635797743380000e-001) (9, 1.20204495711293820000e-001) (0, 1.42739237535193240000e+000) (1, 1.61989502616179060000e+000) (2, -3.26668156826671270000e-001) (3, 3.84397138785129710000e-001) (4, 6.38698710919219700000e-001) (5, -4.21546865780551730000e-001) (6, 3.68551244080722150000e-001) (7, 4.32616114800832400000e-001) (8, -1.15771285134127380000e-001) (9, 4.20599384600371050000e-001) (0, -4.00248144828255660000e-001) (1, -3.32828470888371920000e-001) (2, -5.01852159975410330000e-001) (3, -3.94305316376333260000e-002) (4, 5.28181442847815760000e-001) (5, -5.66077261809565630000e-001) (6, 2.35121545301486850000e-001) (7, 6.22347865217518950000e-001) (8, -5.95526328549186860000e-002) (9, -8.17406597235865950000e-001) (0, -3.75586931803879540000e+000) (1, -7.82023343889726500000e-001) (2, 2.23648120986119470000e-001) (3, -4.29873123626210940000e-001) (4, 1.38476630832575110000e-001) (5, 2.03949442548981340000e-001) (6, 2.71056748889824950000e-001) (7, 4.39667594027260690000e-001) (8, -2.81858598063789090000e-002) (9, 2.46328645712016320000e-001) (0, 5.96732940577549890000e-001) (1, 3.04675056248535360000e-001) (2, -7.17781796900292120000e-002) (3, 3.01605653573805980000e-001) (4, 5.03304551666392190000e-002) (5, -4.33314490311530690000e-001) (6, 4.85899269791634390000e-001) (7, -3.10574990065630110000e-001) (8, -5.53699028100836380000e-002) (9, 2.49182298883630390000e-001) (0, 4.16215473921091260000e-001) (1, 5.80500624268600750000e-002) (2, -1.59754029392856270000e-001) (3, -2.41689787826747190000e-001) (4, -2.33361719087428780000e-001) (5, 5.79852179890065770000e-001) (6, 3.76626918863353920000e-001) (7, -5.37739720074759340000e-001) (8, 7.94756311550996910000e-001) (9, 4.85617712434582520000e-001) (0, -8.57638388360945750000e-001) (1, 5.37841521932303390000e-001) (2, 3.03957178918656760000e-001) (3, 4.82514288533571700000e-001) (4, 1.57492492960979180000e+000) (5, 3.26115384847615260000e+000) (6, -2.13160837573949070000e-001) (7, 1.95688814040458860000e+000) (8, 5.71822355946626670000e-001) (9, 5.57652105363850790000e-001) (0, 1.67809623750720200000e-001) (1, 4.84029227671350650000e-001) (2, -1.42177069937675900000e-001) (3, -4.39515967298692860000e-001) (4, 5.97127888328836790000e-001) (5, -9.50431092688192700000e-001) (6, 1.16652433405110450000e+000) (7, 2.06219515191773030000e-001) (8, -2.19443765879531270000e-001) (9, 1.89747163848912020000e-001) (0, -1.41741680127201160000e+000) (1, -9.65419888890852730000e-002) (2, -1.60596148229803230000e-001) (3, -4.32539496014807680000e-002) (4, 5.45188382751430000000e-001) (5, 1.97351140562963120000e+000) (6, -6.73324171742909710000e-001) (7, 4.39264262935335380000e-001) (8, 3.85483639251663290000e-001) (9, 4.60154618238093960000e-002) (0, 6.47196118226631840000e-002) (1, -3.90478112708776300000e-001) (2, 1.29830726761961500000e-001) (3, 4.24225610151014840000e-001) (4, 7.00190216391086580000e-001) (5, 3.60317054630875970000e-003) (6, 1.86482953792845100000e-001) (7, 5.22003587337041660000e-001) (8, -4.75207000879644900000e-001) (9, 2.67909216565335730000e-001) (0, -2.62247379307170680000e+000) (1, 1.20241627988946870000e-001) (2, -2.21581432133784030000e-001) (3, 9.24362369826800090000e-001) (4, 1.37335948669362330000e-003) (5, 3.28066406458420560000e-001) (6, -3.70597270606573600000e-001) (7, -7.53060647147609790000e-002) (8, -1.29109400653406790000e-001) (9, -2.61912190278380750000e-001) (0, -1.84064626223231780000e-001) (1, -7.69785469100216060000e-001) (2, 1.45773100334610630000e-002) (3, 1.72601427754148110000e-001) (4, 6.92432568519450730000e-002) (5, 2.57888976379645920000e-004) (6, -2.80071916790418370000e-001) (7, -4.51394628821994440000e-001) (8, 1.64379806057681150000e-001) (9, 5.25247453988246380000e-002) (0, 9.65379367040898610000e-002) (1, -4.11548723885903410000e-001) (2, -5.56782975179228810000e-001) (3, -1.01301152158678350000e-001) (4, 1.45273608813811990000e-001) (5, -1.02642967161323460000e-001) (6, 1.00502511238345240000e+000) (7, 5.72248289097232240000e-001) (8, 3.84244945449631670000e-001) (9, 1.48690301783197420000e-001) (0, -7.29538236126536510000e-002) (1, 6.05592360335131420000e-001) (2, -3.05279580246068050000e-001) (3, -6.62067958540026310000e-001) (4, 1.40655867040510030000e-001) (5, 4.05336089513061990000e-001) (6, -5.24299413409878850000e-001) (7, -1.63735335947815560000e-001) (8, 3.90254302834726290000e-001) (9, 1.83330562333815590000e-001) (0, 5.57803024255877220000e-002) (1, -8.37569525695848640000e-001) (2, 8.76721464805534920000e-002) (3, 7.84102551610632690000e-001) (4, 8.84059943144279580000e-002) (5, -5.25887962917150120000e-001) (6, 5.80052978959496810000e-001) (7, 1.56305043790185370000e-001) (8, 6.64314949360455680000e-002) (9, -4.06074771827621030000e-001) (0, -1.03918527908595550000e+000) (1, 9.73404409538312500000e-002) (2, -6.71758971368384690000e-002) (3, 2.12188748836008550000e-001) (4, -1.44509548157541220000e-001) (5, 1.06463786763448940000e+000) (6, 1.21837529827572580000e-001) (7, -1.74267485846490770000e-001) (8, 3.15356945176757610000e-001) (9, -1.85650351713773390000e-001) (0, 1.39076870034953840000e-001) (1, -3.93315717071426710000e-001) (2, -8.56066219984026740000e-002) (3, -6.85852848105237060000e-001) (4, -3.40905130408188040000e-001) (5, -1.64872535339179560000e-001) (6, 3.52123067444732930000e-001) (7, -7.01935499331662550000e-001) (8, 4.41950048818844640000e-001) (9, -4.70151181697395370000e-002) (0, 1.34095574165809370000e+000) (1, -8.96795934580852050000e-001) (2, -1.44008139761138910000e-001) (3, 7.77234198414621380000e-002) (4, -2.91370560783129170000e-001) (5, -1.35738882988849020000e+000) (6, 1.39512232988160400000e+000) (7, -2.80416405682955390000e-001) (8, -5.23095144012594380000e-001) (9, 3.54262406660518780000e-001) (0, -3.28955224455968030000e-001) (1, -2.49502173371168170000e-001) (2, 8.83521742001720790000e-002) (3, 3.98018689473928210000e-001) (4, 3.19678198513018370000e-001) (5, 1.44327114738110240000e+000) (6, -1.23793386438279620000e+000) (7, 9.02807741993534200000e-001) (8, 1.84973866830152360000e-002) (9, -1.37390726763595290000e-001) (0, -1.85288492921596960000e-001) (1, -6.41325721156330570000e-001) (2, 3.36512750591307700000e-001) (3, 1.01230166729415070000e+000) (4, 2.46351136331221610000e-003) (5, -5.13919213618582280000e-001) (6, 8.25590137212439120000e-002) (7, 1.84732114236916770000e-001) (8, -5.54505892305188210000e-001) (9, 2.94199198759852680000e-001) (0, 6.69271530587412400000e-001) (1, 3.04246087879859130000e-001) (2, 2.35136179935720860000e-001) (3, 8.56716685382244570000e-002) (4, 3.78273478368558510000e-001) (5, -5.60951235640727240000e-001) (6, 4.37436364423982320000e-001) (7, 9.28131861984154210000e-001) (8, -1.92900298556605180000e-001) (9, 2.07890420997760530000e-001) (0, 2.62996526099153080000e-001) (1, 2.67338027051086560000e-001) (2, 4.81139393179424280000e-001) (3, 1.00766582293861020000e+000) (4, 5.80829562899738530000e-001) (5, -9.59980422426194300000e-001) (6, 1.17227906449738710000e+000) (7, 4.53659987848454790000e-001) (8, -7.74362515091491120000e-001) (9, 5.25283096076108680000e-001) (0, -4.97187531541364170000e+000) (1, 4.16999638791272670000e+002) (2, -1.22712166323207600000e-001) (3, 8.00440571782589090000e-001) (4, 2.22542296933137610000e+000) (5, 5.91878478897761790000e-001) (6, 1.58723830917007190000e+000) (7, 3.55321242117439030000e+000) (8, 1.29575320897539250000e+000) (9, 1.26296790318816200000e+000) (10, -4.46026670209633200000e-002) (11, 1.31136850054572160000e+000) (12, -6.43212040670777980000e-003) (13, 1.13197551948074930000e+000) (14, 1.97299732218838150000e-001) (15, -3.44563838833380490000e-001) (16, 5.54942089938732060000e-001) (17, -1.33549961816136070000e-001) (18, -2.49668477074139680000e-003) (19, 1.14949702717687360000e-002) (20, 4.82185242311100880000e-001) (21, 6.74854902402654440000e-001) (22, 1.18408587608362860000e-001) (23, -1.35892046773634400000e+000) (24, 1.18887106679208320000e+000) (25, 2.65961465211343510000e-001) (26, 3.03743887484796530000e-001) (27, 9.64301913948823470000e-001) (28, 8.37841424140360560000e-001) (29, 2.45947103798666470000e+000) (30, 1.68380585871671820000e+000) (31, 5.44121084699721090000e-001) (32, 1.55785720118835180000e-001) (33, 1.71009842187283550000e-001) (34, 2.11301649102708430000e-001) (35, -7.33315013080302750000e-002) (36, 6.60096848616873680000e-001) (37, -3.19208488158068400000e-002) (38, 5.70401585191458780000e-001) (39, -2.84206098323436350000e-001) (0, 6.01101152719580310000e-001) (1, 8.44221057529712240000e-002) (2, 4.84147361659111320000e-001) (3, 1.23152221332871340000e+000) (4, 6.76198943098915480000e-001) (5, -1.02996950083569880000e-001) (6, 1.22565207588279710000e+000) (7, 4.18986640513036090000e-002) (8, -3.20913838547437320000e-001) (9, 4.58574362991829740000e-001) (10, -3.06456864077448930000e-001) (11, 7.28158620014164540000e-001) (12, 7.72603808351675860000e-001) (13, -2.07859519919274850000e-002) (14, 3.67881392136972030000e-002) (15, 2.17996521130119910000e-001) (16, -4.35431564684104100000e-001) (17, -7.06780971422365730000e-001) (18, 5.78598558232206290000e-001) (19, 1.27515787709968440000e-001) (20, 3.54752210459510110000e-001) (21, 1.95082490133680510000e-001) (22, -2.65701220068742250000e-001) (23, 6.46648924206332380000e-002) (24, -9.87861604986853130000e-002) (25, 1.80941570048365000000e-001) (26, -3.69812125134972750000e-001) (27, 5.45242787973939320000e-001) (28, 4.32692668306210560000e-001) (29, 1.56848683267070060000e-002) (30, 3.00908004848355120000e-001) (31, 1.72715302386562690000e-001) (32, 5.20766032425260540000e-001) (33, 4.25090628815218360000e-001) (34, -1.78495518416918520000e-001) (35, 6.48521495563781690000e-001) (36, -4.47735571446154290000e-002) (37, 1.52861823581532730000e+000) (38, 1.03151290271421450000e-001) (39, 5.23522868656490780000e-001) (0, -9.59826478201777360000e-002) (1, -3.44551400477806690000e-001) (2, 3.17095339208646800000e-001) (3, 6.99547833324667300000e-001) (4, 1.47929215534177010000e-001) (5, 2.93808460589515060000e-003) (6, 2.16329312944988640000e-001) (7, 2.15036339043012000000e-001) (8, -4.27076905131471620000e-001) (9, 4.58310106930483190000e-001) (10, -2.04294651200279810000e-001) (11, 8.30289743987215000000e-001) (12, 9.22654725502637160000e-001) (13, -1.90431747505682730000e-001) (14, 4.31808662610083600000e-001) (15, 4.43810078960295060000e-001) (16, 1.01467009634859120000e-001) (17, -8.38058240894729690000e-001) (18, 4.58749498351478880000e-001) (19, 4.49361557846951810000e-001) (20, 5.29616565237833070000e-001) (21, 5.22450105779336700000e-001) (22, 4.88063212797375080000e-001) (23, -6.42089821959928360000e-001) (24, 4.82168880256562900000e-001) (25, 1.98015391877284480000e-001) (26, 3.63323548051518340000e-001) (27, 6.92289479897168710000e-001) (28, 5.32308415875767450000e-002) (29, -2.38630303279755080000e-002) (30, 1.70731131924663440000e-001) (31, 1.58078130826502410000e-001) (32, 7.09825659606089120000e-001) (33, -1.69219526296568030000e-001) (34, -1.80516633006556850000e-001) (35, 7.50602879908021990000e-001) (36, -4.17321233724245520000e-002) (37, 6.95362828579347720000e-001) (38, 9.32418076634369490000e-001) (39, 5.18563773996020160000e-001) (0, 2.39108264421156570000e-001) (1, -4.24584699350962680000e+000) (2, 1.11561318965348950000e-001) (3, -2.17712057876729050000e+000) (4, -6.26692491674140540000e-001) (5, -2.00628583704521160000e-001) (6, 4.33836912796952020000e-001) (7, -5.50027718035220100000e-001) (8, 4.45509446286931570000e-001) (9, 1.65591031741517650000e-002) (10, 8.55131084911096020000e-001) (11, -5.35385036593118090000e-001) (12, 4.28612916141256520000e-001) (13, -9.21691127572007330000e-001) (14, 2.64096159073123000000e-001) (15, -1.03170706774096800000e-003) (16, 4.38559320691041590000e-001) (17, 9.27614015507803760000e-001) (18, -7.26890257257028490000e-001) (19, -8.05130332315872750000e-002) (20, 7.68417628880262550000e-001) (21, -1.11818111169277050000e+000) (22, -4.74640126574672750000e-002) (23, 3.41571824492490410000e-001) (24, -8.41187736467518100000e-001) (25, -8.84508389469854000000e-001) (26, 1.97810060092534430000e-001) (27, -6.35457758883141290000e-002) (28, -5.14561079573300990000e-001) (29, 1.09668161012320040000e+000) (30, -5.01573854025872400000e-001) (31, 3.27005963859884290000e-001) (32, 2.33793235331900360000e-001) (33, 1.17227226834373500000e-001) (34, 3.07081736857892750000e-001) (35, -7.90871266794669210000e-002) (36, 1.52628190202878060000e+000) (37, -9.06573725895921560000e-001) (38, -2.43430721483679680000e+000) (39, -2.02598366998418210000e-001) (0, 1.17858685110278680000e+000) (1, -6.91062715206584020000e-001) (2, 7.04455907215042920000e-001) (3, -4.84617869617192050000e-001) (4, -1.41773921737035900000e-001) (5, 4.23699188214128660000e-001) (6, 2.72941633596140880000e-001) (7, -2.09513592842768600000e-001) (8, -4.52671295899929330000e-001) (9, 6.23969887680207110000e-001) (10, -1.40395022587006900000e-001) (11, 3.22184851574649660000e-001) (12, 5.94435391133661880000e-002) (13, 3.29849095808182220000e-001) (14, -6.22639268569814340000e-002) (15, 5.40694493258106700000e-001) (16, -1.53213278415721800000e-001) (17, 7.24272383458826610000e-001) (18, 4.15092099061911580000e-001) (19, 4.55856113433986630000e-001) (20, 3.96658197883687670000e-001) (21, 6.94067272720465260000e-002) (22, 3.29788719548488370000e-001) (23, 2.83290378541562860000e-001) (24, -1.37339073629076380000e-001) (25, -1.59501569220591190000e-001) (26, 2.69928620931862150000e-001) (27, 2.42217567204361240000e-001) (28, 2.44747322914506070000e-001) (29, 3.89377103191226040000e-001) (30, -1.76921699218191090000e-001) (31, 2.87258641370310430000e-001) (32, 4.90482548373425250000e-001) (33, 1.38288354943594950000e-001) (34, -2.27206006562081560000e-001) (35, 5.86148449948223900000e-001) (36, 2.78326832365632100000e-001) (37, 5.96975915450303040000e-001) (38, 3.34634921276572960000e-001) (39, 1.72665031645942800000e-001) (0, 2.50792516151983450000e-001) (1, 1.31778371184788920000e+000) (2, 4.45208111205797400000e-001) (3, -6.58505111358960950000e-001) (4, 6.87299489089307710000e-001) (5, 4.22621173730725270000e-001) (6, 4.34407441189802400000e-001) (7, -1.88310680760042610000e-002) (8, 3.55830372950734830000e-001) (9, -2.53217180820897760000e-002) (10, -1.82226346094277350000e-001) (11, -1.35447491406223420000e-001) (12, 5.09789724814079030000e-001) (13, -3.24800242188965720000e-003) (14, 1.25523116174180550000e+000) (15, -2.37428980847137840000e-001) (16, 2.87963615019214860000e-001) (17, -6.12578672766794720000e-002) (18, -1.50044369084640580000e-001) (19, -9.07766778123335620000e-002) (20, 2.92637942875019650000e-001) (21, -2.57235842578891870000e-001) (22, -2.62133598685118150000e-001) (23, 2.89466071602568040000e-001) (24, 6.11127413973377580000e-002) (25, -5.97256545397936600000e-001) (26, 2.31547799840754100000e-001) (27, 4.44537518694022360000e-001) (28, 5.06609765198733240000e-001) (29, 1.60284133350657800000e-001) (30, 4.64686169600993850000e-001) (31, 9.64056838530077730000e-001) (32, 4.67136976132929870000e-001) (33, 1.00403878879801800000e+000) (34, 2.87821047400975080000e-001) (35, -8.39641466349428160000e-001) (36, 4.31946600137159130000e-001) (37, 4.11998138177682990000e-001) (38, -1.93472405358227960000e-001) (39, -2.80449683718733130000e-001) (0, 7.62072920980865650000e-001) (1, 1.70820917902872880000e+000) (2, -1.13918825928813100000e-001) (3, -5.15825050495220870000e-001) (4, 9.86070918004855250000e-001) (5, -1.86160978997480440000e-001) (6, 6.20657715914211820000e-001) (7, 1.25413134348021590000e+000) (8, 4.99577577709515390000e-001) (9, -1.01793772781232490000e-001) (10, 1.47831039403632350000e-001) (11, 6.46180859448127750000e-001) (12, -2.92780654919311650000e-002) (13, 8.00351315102912020000e-001) (14, -2.53130131926902980000e-001) (15, 2.49157390820641510000e-001) (16, 4.43696304819292510000e-001) (17, 2.42331879233485230000e-001) (18, 6.34633501350202470000e-001) (19, 8.52851460817437430000e-002) (20, 9.42928542546620060000e-001) (21, 8.61609732653070950000e-001) (22, 3.86852977235508430000e-003) (23, 6.63677419139597320000e-001) (24, 1.98740548901636460000e+000) (25, 2.58468156913836790000e-001) (26, 2.39318385567838380000e+000) (27, 1.15154069128141770000e+000) (28, 5.23164488627798630000e-001) (29, 4.98378852723306400000e-001) (30, -3.56301299646781460000e-002) (31, 2.60954464750815240000e-001) (32, -1.35780413033457280000e-001) (33, -4.28473506253232610000e-001) (34, 5.64250338069789970000e-001) (35, -2.61106054942200410000e-004) (36, 2.80462621054863210000e+000) (37, -2.62236565537963470000e-002) (38, 5.81893642686722500000e-001) (39, 3.00699468955183850000e-001) (0, 1.28098935151306550000e+000) (1, -8.06540369492198320000e-001) (2, 3.15800299220794560000e-001) (3, 8.26537421061826210000e-002) (4, 7.02213621063364380000e-001) (5, 2.12573445093586170000e-001) (6, 6.60242554227817640000e-001) (7, 1.29007657921547270000e+000) (8, 1.82901936765217290000e-001) (9, 3.26758612991821070000e-001) (10, 7.37385539747264090000e-002) (11, 3.85112224787795390000e-001) (12, -2.38305615916148160000e-001) (13, -8.95085187186262230000e-002) (14, 4.95383127493485290000e-002) (15, -2.55603137336523680000e-001) (16, 7.49723358346637170000e-001) (17, 1.40437281221952480000e-001) (18, -2.80529788039835910000e-001) (19, 3.19824254348756390000e-001) (20, 7.08294938680852580000e-001) (21, 2.53550427345510090000e-001) (22, -5.14641357074640200000e-001) (23, 1.81715570045592690000e-001) (24, 5.76821406625408150000e-001) (25, 2.90721942065722330000e-001) (26, 6.58938291292625380000e-001) (27, 1.68728549895803050000e-001) (28, 2.06786202238555460000e+000) (29, 1.09493778620297770000e-001) (30, -5.52824785849927220000e-001) (31, 2.15066886213071680000e-001) (32, -3.40466551030908230000e-001) (33, -9.14084672480277170000e-002) (34, 5.38165553751595920000e-001) (35, -2.04593667168807280000e-001) (36, 4.20397079266385480000e-001) (37, -3.91758213289823850000e-001) (38, 7.07123033254286830000e-001) (39, -2.73000807214521140000e-001) (0, 4.61076987764968080000e-001) (1, 2.27766609715298910000e-001) (2, 4.09933147697240820000e-001) (3, 8.41784781706040210000e-001) (4, 7.00940584451824170000e-001) (5, 4.91043852959555380000e-001) (6, 1.15584770565755650000e+000) (7, 6.30684375838580720000e-001) (8, -2.86402089281750440000e-002) (9, 7.91154735418057450000e-002) (10, -2.91414092895733720000e-001) (11, 4.69592778486738360000e-001) (12, 9.30587021688830450000e-001) (13, 8.06108404655393910000e-003) (14, 1.67515212490039780000e-001) (15, 3.70556213543824120000e-001) (16, 2.01827640511907820000e-001) (17, -4.94388946849688370000e-001) (18, 1.04048933853245690000e-001) (19, 5.32905154352090180000e-001) (20, 2.76787132083163970000e-001) (21, 3.35394871004078670000e-001) (22, 4.01421720716170990000e-001) (23, -3.24711492046060090000e-001) (24, 1.08771822532933120000e-001) (25, 4.21318707025090330000e-001) (26, -5.25776195341585480000e-001) (27, 5.53468963823112060000e-001) (28, 3.49867725437130910000e-001) (29, -2.75327379449810290000e-002) (30, -2.16938178636705340000e-001) (31, 2.16853223054713630000e-001) (32, 9.49916550686095820000e-001) (33, 1.00534100998111340000e-001) (34, 7.16738276273177100000e-001) (35, 5.89094416076213980000e-002) (36, 6.41686071788259870000e-001) (37, 2.02033047976384460000e+000) (38, -1.59804032581978390000e-001) (39, 1.75989749138316780000e+000) (0, 1.09489996868020920000e+000) (1, 1.49063749609589920000e+000) (2, 5.39881249905404090000e-001) (3, 1.32680059699335910000e-001) (4, 8.31276631789874210000e-001) (5, 3.40512361508721490000e-001) (6, 1.04161466350948520000e+000) (7, 8.84330517340467860000e-001) (8, 3.38691426828618970000e-001) (9, 4.43907627315050400000e-001) (10, -1.92800743364744730000e-001) (11, 3.91871491134466010000e-001) (12, 4.99691965828737150000e-003) (13, -5.59734944924080780000e-002) (14, 7.57956458397645690000e-001) (15, -1.18418849053922570000e+000) (16, 1.30568718563085070000e+000) (17, -9.54421323460724060000e-002) (18, 7.20329690724342410000e-002) (19, 3.95582931837484900000e-002) (20, 9.55420652859992060000e-002) (21, 1.54180774411546010000e-001) (22, -1.49150570756145930000e-001) (23, 5.27849809921797750000e-001) (24, 6.05072188409208400000e-001) (25, -4.50984047160094880000e-001) (26, 2.02372782602457610000e-001) (27, 4.85410149249633160000e-001) (28, 8.78721052054164730000e-001) (29, -8.36684252430208860000e-002) (30, 5.75056499541604650000e-001) (31, 3.01675596717580760000e-001) (32, 1.44880768001722700000e-001) (33, -7.60113289622206810000e-002) (34, -1.74693639900900620000e-001) (35, -5.40723473761785760000e-001) (36, 9.95478126048826680000e-001) (37, 4.43403534242721280000e-001) (38, -8.57076332088576310000e-002) (39, 2.36747817641305200000e-001) (0, 2.90695484860188540000e-001) (1, -1.18955074438833920000e-001) (2, -2.00270904470889020000e-001) (3, -9.96407283165176130000e-001) (4, 2.22893610245828160000e-001) (5, 1.48102019062166710000e+000) (6, -3.47264606558158940000e-001) (7, 4.68577183229749730000e-001) (8, 1.02097238615927900000e-001) (9, -2.81347235085757490000e-001) (10, 6.72296152389158740000e-001) (11, -2.32821362665412230000e-001) (12, -1.06940919233972560000e-001) (13, 2.09544907078309670000e-001) (14, 2.55394975936661660000e-001) (15, 4.46765980748715040000e-001) (16, 5.56050146102129020000e-002) (17, 9.15666248357791310000e-001) (18, -2.43603659454259020000e-001) (19, 2.09234707166501830000e-001) (20, 9.26645956281182680000e-002) (21, 9.32844082505240040000e-002) (22, -3.61040344134354760000e-001) (23, -1.62278340356041660000e-001) (24, -2.01694054357838880000e-001) (25, 2.37698863293515720000e-001) (26, 3.16452645405306880000e-001) (27, -1.55144247565575380000e-001) (28, -5.24473046677678830000e-002) (29, 3.47119641875454080000e-001) (30, -3.04572016826305970000e-001) (31, 2.53953461198088390000e-003) (32, 2.94684380017066480000e-001) (33, 3.47747162329551500000e-001) (34, 4.66343855555355900000e-001) (35, -2.75232278759676430000e-001) (36, -5.05806595270047120000e-001) (37, -2.72018653979979430000e-001) (38, -1.00794232759159660000e-001) (39, -2.61628904108062220000e-001) (0, 6.87837564574892870000e-001) (1, -5.32196972382355300000e-001) (2, 5.40565311246375300000e-001) (3, 3.77851973640110750000e-001) (4, 2.56857910955685330000e-001) (5, 2.52136079940798230000e-001) (6, 2.81897940675902010000e-001) (7, 1.17324275998557660000e-001) (8, 2.52720622173294380000e-001) (9, 3.84544263708630260000e-001) (10, -3.53824430533889570000e-001) (11, 7.32201927607854740000e-001) (12, 2.25722803715623840000e-001) (13, -1.66212119503172130000e-001) (14, -4.24834584052413370000e-001) (15, 6.92436216946597960000e-001) (16, -8.15985835605115840000e-002) (17, -2.90852806431512350000e-001) (18, 1.71749996766982600000e-001) (19, 7.32337772521451520000e-002) (20, 4.16447319249382720000e-001) (21, 3.36821744434208090000e-002) (22, 6.24091445401377840000e-001) (23, -2.38371320736984940000e-001) (24, -1.66778395152551360000e-001) (25, 5.12012417977539600000e-001) (26, -1.47252053656301400000e-001) (27, 3.89373159123625580000e-001) (28, 9.98669013645005820000e-001) (29, 8.99256989915878930000e-002) (30, 3.64467721325978990000e-001) (31, -7.91676248862564380000e-001) (32, -1.26944538419843990000e-001) (33, -6.70637430832019130000e-002) (34, -3.27791230705429120000e-002) (35, 6.52223764741101220000e-001) (36, 4.19516295281351430000e-001) (37, 7.79415875653453830000e-001) (38, 7.40106876911301950000e-001) (39, 6.00423661762322310000e-001) (0, -6.78727468718599460000e-001) (1, -9.46970686786810650000e-002) (2, -2.05734654506118640000e-001) (3, -8.33880622203511780000e-001) (4, 2.64811547656771950000e-001) (5, 4.01219100818298650000e-001) (6, 5.00644902147394540000e-001) (7, 1.48834966766041220000e-001) (8, 5.40506966616509320000e-001) (9, -3.79507419060973240000e-001) (10, -1.69249991812176400000e-001) (11, -4.95323642031074760000e-001) (12, -8.45269832255824420000e-002) (13, -3.30169963248919050000e-002) (14, 7.11073692099661040000e-002) (15, -4.84266721991222060000e-001) (16, 5.36868729264524000000e-001) (17, -4.35700279231081290000e-001) (18, 1.50093411536837110000e-001) (19, -3.87610055950587190000e-002) (20, -1.77851142766324190000e-001) (21, -2.58842614204813470000e-001) (22, -5.06600293198522030000e-002) (23, 6.68753621609277200000e-001) (24, 4.85003628687932790000e-001) (25, -3.12719160778807960000e-001) (26, 4.23860817720310810000e-001) (27, 9.50592848329999410000e-002) (28, -8.71255481717714160000e-001) (29, 7.29449343660583560000e-001) (30, 6.44326604760668390000e-001) (31, 5.44542363898822930000e-001) (32, 1.57625392092123780000e-001) (33, -6.09981263446857990000e-001) (34, -2.10160744043487360000e-001) (35, -1.73620244434094320000e-001) (36, 7.75696572279965690000e-001) (37, -1.16326742794549370000e-001) (38, -2.79923839054757650000e-001) (39, 2.12127985186194050000e-001) (0, -2.15011670531473990000e-001) (1, -2.14522665135751470000e+000) (2, 4.32288240617315910000e-001) (3, -1.07125060136124990000e-001) (4, -3.60902687378946490000e-001) (5, 3.61742526078759900000e-001) (6, 6.34864912321607240000e-001) (7, 1.89849157105264570000e-001) (8, 3.24099213267778240000e-001) (9, 5.47259044070420480000e-001) (10, 2.79693232723671860000e-001) (11, -1.01789348699124690000e-001) (12, 7.54882717715099850000e-001) (13, 2.07918749577201660000e-001) (14, -2.72055649463059380000e-001) (15, 1.07364963591317770000e-001) (16, 2.28373330019274790000e-001) (17, 8.83363891580671080000e-001) (18, 3.87183031160256320000e-001) (19, 3.75599270004992270000e-001) (20, -2.69612068978749060000e-001) (21, -2.02551483580803100000e-001) (22, 9.61248577492419130000e-002) (23, 5.41729791177953960000e-003) (24, -1.34997145083405390000e-002) (25, -4.16800139906796100000e-001) (26, -1.68442153064144890000e-001) (27, -1.11830639661483020000e-001) (28, -3.50647571197276740000e-001) (29, 4.97423659572769350000e-001) (30, 4.73566661914175070000e-001) (31, 5.52517362113946860000e-001) (32, 6.27957019402800910000e-001) (33, 4.20454186009047770000e-001) (34, 4.87081363438266800000e-001) (35, 3.22701553785662680000e-001) (36, 2.01876661145041820000e-001) (37, 9.52210655739300970000e-001) (38, -2.27313022467514200000e-001) (39, 4.67804983389209340000e-001) (0, -9.80564885258666110000e-002) (1, 2.95785646599707560000e+000) (2, 1.37317713459132270000e-002) (3, 8.17498052259498900000e-001) (4, -3.35631519465214230000e-002) (5, 2.09047315051196360000e-002) (6, -8.32854255413488930000e-002) (7, 3.82477861540528740000e-002) (8, 7.76190047757769120000e-001) (9, 4.84382672746141110000e-001) (10, 2.88531751333015730000e-001) (11, -2.56464278723353700000e-001) (12, 1.94225470488687660000e-001) (13, 4.54065578688581990000e-001) (14, 1.79393719494585270000e+000) (15, 2.37332670663953920000e-001) (16, -1.49782941157822700000e-001) (17, 3.60599899085239930000e-001) (18, 4.72937611367038100000e-001) (19, 5.11245763143415850000e-001) (20, 5.46543860204313450000e-001) (21, 5.17038126634279840000e-001) (22, 6.84675793024926430000e-002) (23, 2.44652116703070050000e-001) (24, 1.16841160338257920000e-002) (25, 9.42619321482447980000e-001) (26, -4.59909954641791670000e-002) (27, -7.41512937253769880000e-002) (28, 2.22449273071791800000e-001) (29, 1.31187180548974450000e+000) (30, 2.28900195010213360000e-001) (31, 2.01474892100277860000e-001) (32, 4.73290539180801770000e-001) (33, 2.16938370059647940000e-001) (34, 4.23827475840246490000e-001) (35, 3.09701858667701000000e-001) (36, 1.84546509605140460000e-002) (37, 1.19632006083349980000e-001) (38, 1.13194492523897450000e-001) (39, 5.59973988458029480000e-001) (0, 2.17213243693216480000e-001) (1, 3.24657715379120360000e-001) (2, -1.16381426470454280000e-001) (3, 2.05279052325350100000e-001) (4, 4.96394689939816670000e-001) (5, -1.08407739425006660000e-001) (6, 2.79798222026706230000e-001) (7, 3.42952039117671190000e-001) (8, -2.49952704838434900000e+000) (9, 1.75629483673571310000e-001) (10, -3.25141053756847710000e-001) (11, 9.40827947472300920000e-001) (12, 2.18079796367322390000e-001) (13, -9.55926258647037950000e-001) (14, -1.66068718667047870000e-001) (15, 4.69646434513107060000e-001) (16, 2.66779066410969930000e-001) (17, -1.25414272639450460000e-001) (18, 9.72443903629073710000e-002) (19, -7.54067455684668710000e-001) (20, 1.16498228448524350000e-001) (21, 1.57025528664477500000e-001) (22, -3.66218763998634290000e-001) (23, -3.85618365396490060000e+000) (24, 1.99719722463995940000e-001) (25, 8.31389943055451770000e-001) (26, 7.24858865286105990000e-001) (27, 2.59345513673060910000e-001) (28, 8.37340556653336840000e-001) (29, -2.75942942557295730000e-001) (30, 3.62611846989173810000e-001) (31, -4.67981942777512760000e-001) (32, -9.87728858368567410000e-002) (33, -1.34250856786806570000e+000) (34, 8.10837976376731390000e-003) (35, -9.69861689415781740000e-002) (36, -1.67267672713928370000e-001) (37, 4.71352839868565690000e-001) (38, 4.68825340275047080000e-001) (39, -5.08206885984673560000e-001) (0, 9.36741346809806700000e-001) (1, 2.89828779907604570000e+001) (2, 9.06744279199636070000e-001) (3, 2.10468916760397060000e-001) (4, -6.64415076378151730000e-002) (5, 9.80540154187858560000e-001) (6, -3.17720554991776930000e-001) (7, 5.43835355339125750000e-001) (8, 9.69592846997987420000e-001) (9, -5.30447794729834610000e-001) (10, 7.35260501523808730000e-001) (11, 7.66766731614518360000e-001) (12, -1.95984408790402520000e-001) (13, 4.72470775611944170000e-001) (14, 3.51217296363916690000e-001) (15, 6.50928359795409970000e-001) (16, -6.90135267046679180000e-003) (17, 8.50098164015260500000e-001) (18, 2.96642065956076510000e-001) (19, 6.03675334048175300000e-001) (20, 6.38459092823741360000e-001) (21, -1.09365483912142250000e+000) (22, -4.45270514072363120000e-002) (23, -6.32570083583155580000e-001) (24, 8.01879820150078190000e-001) (25, 6.37339864692390570000e-001) (26, -3.64069804447347100000e-001) (27, -1.54724097874647330000e-001) (28, -9.51305080576783090000e-001) (29, -9.70952436954744490000e-004) (30, -6.76862989579619380000e-002) (31, 1.11088440775518990000e-001) (32, 2.52716395176813270000e-001) (33, -3.19038683970053970000e-001) (34, 7.23261857670840840000e-001) (35, 1.65821770125118170000e-001) (36, 3.93787300207294410000e-001) (37, 2.81038442801572470000e-001) (38, -1.16831641248387600000e-001) (39, -1.42005157396970530000e-001) (0, 3.56580567366529490000e-001) (1, -4.30745643783218560000e-001) (2, 5.02536315097632110000e-002) (3, 1.94259093573872080000e+000) (4, 6.26898828059189060000e-001) (5, 1.23066487460091740000e-002) (6, 6.25333881994646350000e-002) (7, 8.35795609774523610000e-001) (8, -6.09534837945042260000e-001) (9, 5.24203366690513820000e-001) (10, 1.44876354144405930000e-002) (11, 6.03507214432431270000e-001) (12, 1.24351147976291720000e+000) (13, -2.98773778495924510000e-001) (14, -2.37293578022093420000e-001) (15, 6.37002412220035840000e-001) (16, -1.12649845455432040000e-001) (17, -8.17337075046254860000e-001) (18, 1.97907062050843350000e-001) (19, 2.95571667329796390000e-001) (20, 3.80896370974708240000e-001) (21, 2.77520872384231620000e-001) (22, 5.79255242048429710000e-001) (23, -2.68572846729064010000e-001) (24, 8.85035987593837810000e-002) (25, 5.17284050405029670000e-001) (26, 2.28095965055471970000e-001) (27, 1.56656015751561520000e-001) (28, 1.06428339281585280000e+000) (29, -7.25549025478081780000e-002) (30, 2.48717104162641120000e-001) (31, -8.86805675758959630000e-001) (32, 1.61779484155274960000e-001) (33, 3.79474541735554280000e-001) (34, 5.18478907070264120000e-001) (35, 3.71202399112897320000e-001) (36, -1.23681935278498550000e-001) (37, 8.10972782434901010000e-001) (38, 6.88994208907620310000e-001) (39, 1.96058660820522460000e+000) (0, -2.62099630235267430000e+000) (1, -2.69365257755705120000e+000) (2, 7.11525928211241500000e-001) (3, 1.79528177929522360000e-001) (4, 2.78958869998452540000e-001) (5, -3.51772744444887210000e-001) (6, 4.00187343638488740000e-001) (7, 1.87406860928498010000e+000) (8, -6.70151808505462300000e-001) (9, 1.70397392809097180000e+000) (10, 1.06894723305779030000e+000) (11, 5.17715217601640300000e-001) (12, 4.71284570495493660000e-001) (13, -8.55371771698870410000e-002) (14, 3.86963755893187710000e-001) (15, 6.78270702669830080000e-002) (16, -4.86868818538310040000e-001) (17, 1.01241398818196370000e-001) (18, 3.82098406767640510000e-001) (19, 1.36862528888193030000e-001) (20, -9.81076520424129070000e-001) (21, 2.25912127551162590000e+000) (22, 5.66365847325403850000e-001) (23, 4.08408682166691410000e-001) (24, 9.07317314675453180000e-002) (25, 6.47626197663239920000e-001) (26, 4.79911383348608110000e-001) (27, 1.19986625999349130000e-001) (28, 7.06140758647368690000e-001) (29, 3.46568566381579790000e-001) (30, 4.21083467927082570000e-001) (31, 2.18824539720293340000e-001) (32, 7.11259648823583950000e-001) (33, 5.03025823968910490000e-001) (34, 5.40777243185445510000e-001) (35, -1.29632465652335520000e-001) (36, 3.23757209753738780000e-001) (37, 1.18419455799493010000e-001) (38, 3.67514281014309770000e-002) (39, 1.32768744224568410000e-001) (0, 1.98866920674735490000e-002) (1, 1.71687856448264870000e-001) (2, -2.42045107467637080000e-001) (3, -9.83629407158298160000e-001) (4, -5.93843068346175600000e-002) (5, 6.70742332001580400000e-001) (6, 5.48594802730230630000e-003) (7, 2.15579816252330110000e-001) (8, 3.36389308270385160000e-001) (9, -2.13990158049804900000e-001) (10, 1.42045626904504800000e+000) (11, 1.50950544966109270000e-001) (12, -7.32793776267116500000e-001) (13, 6.53798775744938720000e-002) (14, 7.63870717259443550000e-001) (15, 1.75529223151171500000e-001) (16, 3.27855412060072240000e-001) (17, 1.26006823156199330000e+000) (18, -1.04008646248128290000e+000) (19, 4.87715357444405640000e-001) (20, 5.31760649030879270000e-001) (21, -2.17795171281536530000e-002) (22, -1.38888883058455810000e-001) (23, 7.12356966198377180000e-001) (24, -2.68824147975444240000e-001) (25, -4.47957586535203010000e-001) (26, 2.28960712943050870000e-001) (27, -7.05813702656780670000e-001) (28, -7.04822098120197030000e-001) (29, 3.39531900732797710000e-001) (30, -4.12952286809515960000e-001) (31, 7.07916589965181590000e-001) (32, 1.02628787676674630000e-001) (33, 1.75503777007227390000e-001) (34, 1.14080177708835160000e+000) (35, -1.24920133129591130000e-001) (36, 3.84561205388609330000e-001) (37, -8.36433683266866290000e-001) (38, -1.33778740682919980000e-001) (39, -2.61983388520781140000e+000) (0, 3.58718705669850310000e-001) (1, 1.41304588092625470000e-001) (2, -2.49034375398986120000e-001) (3, -1.55588923288335890000e+000) (4, -3.88652770261079320000e-002) (5, 7.24673781603916930000e-001) (6, 1.92502325083443700000e-001) (7, 1.71127245935069370000e-001) (8, 8.18555551565346980000e-001) (9, -1.65517026608798080000e-001) (10, 8.26215977980783170000e-001) (11, -2.21138389307304530000e-001) (12, -1.05496521661941030000e+000) (13, 2.53268551809936960000e-001) (14, 9.19785246311149300000e-002) (15, -1.86256764839899110000e-001) (16, 5.35138911241736960000e-001) (17, 3.52098502725946500000e-001) (18, -7.43025457556102720000e-001) (19, -3.32068732511712760000e-001) (20, 5.12601765646217070000e-001) (21, -9.74365232527706420000e-003) (22, -3.59233373624452750000e-002) (23, 3.94696282853777280000e-001) (24, -2.89447457175181440000e-001) (25, -1.20452111380328620000e-001) (26, -1.33289292136675040000e-001) (27, -7.42230776784125190000e-001) (28, -2.07117878167819180000e-001) (29, 3.90846471126743480000e-001) (30, -5.95665028026734070000e-002) (31, 8.59973573841045340000e-001) (32, -4.57899101959792440000e-001) (33, -6.03918427123324980000e-003) (34, 8.82569799040807570000e-001) (35, 6.49245057259465460000e-002) (36, 2.95111364351713810000e-001) (37, -2.99958149720640610000e-001) (38, -5.98747243614343620000e-001) (39, -1.00385000015942440000e+000) (0, 7.84553442179696780000e+000) (1, -2.46209399203859420000e+000) (2, 2.80582677658160310000e-001) (3, -4.21236947609802290000e-001) (4, 2.28168106205462520000e-001) (5, 1.60485168379317850000e-002) (6, 4.80280490442033910000e-001) (7, 7.03098034402543040000e-001) (8, 7.01459042397504450000e-001) (9, 2.28769257766525600000e-001) (10, -5.39979398511052030000e-001) (11, 1.77684441843385110000e-002) (12, -4.51746096836406540000e-001) (13, 1.59917677199289200000e-001) (14, -7.48952940317586410000e-001) (15, -1.12189411986965680000e+000) (16, 1.74932143313858220000e+000) (17, -1.76892387859618500000e-001) (18, -2.48908164545202900000e-001) (19, 9.82276661037186690000e-001) (20, 4.55128215022087220000e-001) (21, 5.06187254081185150000e-001) (22, -5.42021223951694050000e-001) (23, 1.16527986668671590000e+000) (24, 1.14128729036704830000e+000) (25, -6.06698578433105150000e-001) (26, 1.02405617468519170000e+000) (27, 1.64731329993654890000e-001) (28, 2.11328237145022720000e-001) (29, 3.66294904162944460000e+000) (30, 1.28402807478830290000e-001) (31, 1.14836600455111930000e-001) (32, -5.55153929313329190000e-001) (33, 8.93641179215677180000e-002) (34, -1.97918687324271980000e-001) (35, -4.20797787396527790000e-001) (36, 1.55265669946320430000e+000) (37, -2.93595892824169650000e-001) (38, 7.66839047466569060000e-001) (39, 8.59718685604447250000e-002) (0, -4.67789602556343780000e-001) (1, 6.12300254891567020000e-002) (2, 1.13123904115864700000e+000) (3, 1.82432673461835780000e+000) (4, 6.40566132130853670000e-001) (5, -1.37780354980371420000e-001) (6, 3.72090211167762420000e-001) (7, -1.43815074247379050000e-001) (8, -7.64047634636321080000e-001) (9, 4.40151230356373440000e-001) (10, -5.36637644787673060000e-001) (11, 3.90456547643300290000e-001) (12, -3.96847260617773090000e-002) (13, 3.68106407014570920000e-002) (14, -2.09112972953448880000e-001) (15, 2.70052946656684610000e-001) (16, 1.52275166869097390000e-001) (17, -1.12918144331263530000e+000) (18, 6.86689107291022060000e-001) (19, 3.75101665647595670000e-001) (20, 5.69080543148345110000e-001) (21, 3.15995362090234380000e-001) (22, 5.15939125003306300000e-001) (23, -4.46120503660522800000e-001) (24, 1.36300295501968290000e-001) (25, 3.59777134818825340000e-001) (26, -5.05350843806603000000e-001) (27, 9.21611533849944650000e-001) (28, 3.54884289966623860000e-001) (29, -6.54387211690136000000e-002) (30, 1.80511751996235430000e-001) (31, 2.93860347262274620000e-002) (32, 6.28457794287742180000e-001) (33, -8.66653595736746160000e-001) (34, 3.19044558032518080000e-001) (35, 4.96248669340884850000e-001) (36, -9.17986726088775300000e-002) (37, 7.04074009903278950000e-001) (38, 5.27333289913988530000e-001) (39, 1.24261065891233650000e+000) (0, 5.20749204906616910000e-001) (1, -6.61064108407768970000e-001) (2, 4.84849765253860980000e-001) (3, 1.62962477206470260000e+000) (4, 1.16692471416084120000e+000) (5, 4.01288622711685250000e-001) (6, 3.46242765052067800000e-001) (7, 3.71127334520050480000e-001) (8, -9.93861742546364280000e-001) (9, 5.03477913078636650000e-001) (10, -5.51682980961496070000e-002) (11, 7.15557990545601210000e-001) (12, 4.19514003058096830000e-001) (13, -3.58204619371028240000e-002) (14, -3.89201660362449240000e-001) (15, 2.21646620318333290000e+000) (16, -1.19823974764061880000e-001) (17, -4.79681117508509000000e-001) (18, 5.24339138746917290000e-001) (19, 1.56731876101095540000e-001) (20, 1.76816763530353500000e-001) (21, 4.48063378122785180000e-001) (22, 2.60000459634907090000e-001) (23, 1.36539364057186640000e-001) (24, 5.86303659131372850000e-002) (25, 5.60749460975062950000e-001) (26, -4.41731548781189520000e-002) (27, 4.74175926036343070000e-001) (28, 4.48481860096441030000e-001) (29, 3.79946485351068470000e-002) (30, 5.14716410776883020000e-001) (31, -3.40311993341059660000e-001) (32, 2.93038486820159090000e-001) (33, 5.74065156802567310000e-001) (34, 6.16863804990966600000e-001) (35, 4.17613836703471870000e-002) (36, -8.52290445986391420000e-002) (37, 4.63065425896489360000e-001) (38, 3.55119154050605180000e-001) (39, 1.48928134665306210000e+000) (0, -1.53430989036219070000e-001) (1, -1.13825698266021800000e-001) (2, -3.12517770973614330000e-001) (3, -1.01127253651636510000e+000) (4, -1.95735634774963560000e-001) (5, 9.33755915387495580000e-001) (6, -4.68422442701444670000e-001) (7, -1.87230718556133160000e-001) (8, 1.46868421588536860000e-001) (9, -2.14904450986411780000e-001) (10, 2.82145334227814740000e-001) (11, -2.35037961764382640000e-002) (12, -1.53818626033957680000e-001) (13, 2.14377515888458520000e-001) (14, 3.46672679254575790000e-001) (15, -3.26387474264414890000e-002) (16, 4.11436982156360760000e-001) (17, 8.51604790527188630000e-001) (18, -2.60285048352247640000e-001) (19, -3.06565816405751920000e-001) (20, 4.42748689161135630000e-001) (21, -3.53467619351180980000e-001) (22, -1.37483756083648320000e-001) (23, 2.46097521669525170000e-001) (24, -1.60247121704168690000e-001) (25, -4.74579210781856550000e-001) (26, 5.98453390640021900000e-002) (27, -5.63799921786764970000e-001) (28, -4.17315442253364310000e-001) (29, 2.81761795050398500000e-001) (30, -1.58116956674057740000e-002) (31, 7.11111664973528510000e-001) (32, -1.46285413345566660000e-001) (33, -1.57254772230641380000e-001) (34, 3.36669244201045710000e-001) (35, -7.22702908675841170000e-002) (36, 3.94335520076135040000e-001) (37, -1.06675216700345270000e-001) (38, -4.41482372996851720000e-001) (39, -3.71965327102962820000e-001) (0, -2.15072085482727330000e-002) (1, -1.60937566859661680000e-001) (2, 5.09772014057789820000e-001) (3, -2.36222847809049200000e-001) (4, -9.36969299647432250000e-001) (5, 3.40834511515082030000e-002) (6, 3.89602188773717550000e-001) (7, -1.57996559729273710000e-001) (8, -6.12844115149105750000e-001) (9, 2.51056363523951390000e-001) (10, 7.26690332290295560000e-001) (11, 3.82292194469461670000e-001) (12, -2.56284052151994620000e-001) (13, 4.18201684708243980000e-001) (14, 5.45622308883393250000e-001) (15, 6.05991503093927690000e-001) (16, -7.55267133223017640000e-001) (17, 9.75658304004963640000e-002) (18, 3.27427937775136510000e-001) (19, 1.38256870148272260000e-001) (20, 4.87296738517262570000e-001) (21, -7.72639206095535490000e-001) (22, -2.14885154649550460000e-001) (23, -6.67181127377345640000e-002) (24, -5.33346731120058700000e-001) (25, 4.28501112504257460000e-002) (26, -3.59013606043971920000e+000) (27, 2.41367771865125090000e-001) (28, -2.83742578899033150000e-001) (29, 2.73948074435785670000e-001) (30, -6.90315151380904020000e-002) (31, 2.14720602699274770000e-002) (32, 3.96801141193916570000e-001) (33, -2.05166430433131540000e-001) (34, -8.94641939842911230000e-004) (35, -1.10720608026764460000e-002) (36, -1.90808491433093350000e+000) (37, 4.03143705100962980000e-001) (38, 1.86383173302399980000e-001) (39, 4.12866575373779630000e-001) (0, 1.58963590292689550000e-001) (1, -7.75405257361741930000e-001) (2, 4.49891786782630140000e-001) (3, -3.40553877835997500000e-001) (4, 8.44361870224880410000e-001) (5, 7.19220188217116640000e-001) (6, 4.13852766301941120000e-001) (7, 7.73819452139674850000e-001) (8, 4.90632012640871310000e-001) (9, 2.14281387303348890000e-001) (10, -2.13638381650701870000e-001) (11, 5.81489775380200520000e-001) (12, 2.56304819598478620000e-001) (13, -1.99388217758686430000e+000) (14, 3.41062593670578840000e-001) (15, 4.20768668882108680000e-001) (16, 1.30897254610853460000e+000) (17, -3.04848649810489040000e-001) (18, 5.69919039760835470000e-001) (19, -3.70515392089568130000e-001) (20, 5.84191945051492860000e-001) (21, 4.85363647770784890000e-001) (22, -8.12917283634790320000e-001) (23, -3.25558369831205500000e+000) (24, -1.55283084528124230000e-001) (25, -3.08210282715936150000e-001) (26, 7.03878818686032970000e-001) (27, 6.45978528884385450000e-001) (28, 3.15933324545936990000e+000) (29, -3.03135502502923270000e-002) (30, -1.18148373888084130000e-001) (31, -3.88563084028814120000e-001) (32, 9.57643448754050500000e-001) (33, 1.21431864116828940000e-001) (34, 5.61735744699391230000e+000) (35, 5.26460578152536220000e-001) (36, -1.10325490129550880000e+000) (37, 1.47120346689074880000e+000) (38, 3.83024754455702500000e-001) (39, -1.80327339612077140000e-001) (0, -4.05378244522712810000e+000) (1, 9.03424601872715780000e-001) (2, 1.87090461035446210000e-001) (3, -4.79522659374786790000e-002) (4, 2.35673254113656180000e+000) (5, -1.37282429658083480000e-002) (6, 5.65951213819300580000e-001) (7, 1.42444600707969090000e+000) (8, 5.42268583964763180000e-001) (9, 4.00804827752340940000e-001) (10, -2.38112701648976410000e-001) (11, 1.47031107179942470000e-001) (12, -3.89281257197777340000e-001) (13, -5.59234656916298480000e-001) (14, 2.74652763165190940000e-001) (15, -2.41862903166600450000e-001) (16, 3.81124662606110000000e-001) (17, -1.75548484414918770000e-001) (18, 9.79601581974521300000e-002) (19, 5.06416043147586370000e-001) (20, 5.11915546197272530000e-001) (21, 3.49950396349634820000e-001) (22, 4.83385814587909190000e-001) (23, -6.81148779215898430000e+000) (24, 5.11979977288909540000e-001) (25, 5.13219705910647470000e-001) (26, 2.59829528891154520000e-001) (27, 2.72172718308401170000e-001) (28, 1.93316712389256160000e+000) (29, -1.95406874653247520000e-001) (30, 6.41211957755513100000e-001) (31, 2.93288929453032250000e-001) (32, 1.33959599030222920000e-001) (33, 2.97141590173978680000e-001) (34, -2.06400646713716550000e-001) (35, 2.22125327344808220000e-001) (36, 8.07407506242335930000e-001) (37, -1.85141457684244860000e+000) (38, 4.32869196732078910000e-001) (39, 4.93056051873989430000e-001) (0, 5.48733871675471500000e-001) (1, 5.30444935744153880000e-002) (2, 4.41966050984107410000e-001) (3, 8.83419166807990040000e-001) (4, 3.89176995760042440000e-002) (5, -3.15887773082998760000e-001) (6, 1.63936577861404730000e-001) (7, -6.18426745796750860000e-002) (8, -4.26358331574904830000e-001) (9, 4.98211000768392980000e-001) (10, 3.68366354870188210000e-002) (11, 6.96175398135318810000e-001) (12, 6.33549231502508410000e-001) (13, -5.92280014257145010000e-002) (14, 4.75737178913942740000e-001) (15, 8.01796798240344780000e-001) (16, 2.29715736679813960000e-001) (17, -4.05363733206692000000e-001) (18, 7.61287651801441530000e-001) (19, 3.66541501449362650000e-001) (20, 3.53654128844093920000e-001) (21, 1.91967597432905590000e-001) (22, 2.31770744192854870000e-001) (23, 4.30442626800977280000e-002) (24, 1.17252738113016080000e-001) (25, 6.67733877090289090000e-001) (26, -2.29125404122240440000e-001) (27, 2.44157823930263330000e-001) (28, 3.91833470451944890000e-001) (29, 4.76814431701412240000e-002) (30, 3.11703486967924770000e-001) (31, 5.98959042429202950000e-002) (32, 5.08967194844242580000e-001) (33, -2.12783769523583130000e-001) (34, 1.21451963387852230000e-001) (35, 4.16818367362779610000e-001) (36, 8.29054554153669520000e-002) (37, 7.87341581202752550000e-001) (38, 5.18140453366328750000e-001) (39, 7.42931094993801940000e-001) (0, 3.72806262501547690000e-001) (1, -1.03226267101027810000e-001) (2, 1.18037723385031300000e-001) (3, -9.23598312333741010000e-001) (4, 6.99766584088617330000e-002) (5, 1.60790188553877860000e-001) (6, 1.41759808312002520000e-001) (7, -2.80945155108654700000e-001) (8, 2.49275659137294600000e-001) (9, -3.58536170135806240000e-001) (10, 3.71948324218660480000e-001) (11, -1.06115523607132630000e-001) (12, -1.56637206275151740000e-001) (13, 2.60460167186674530000e-001) (14, 8.84763506326731730000e-001) (15, -7.41749002209343480000e-001) (16, 7.53766717104949910000e-001) (17, -2.17158596774999850000e-001) (18, 4.41831773833649340000e-002) (19, 8.61104057819024880000e-001) (20, 4.68400742394602110000e-001) (21, 2.50674230346929040000e-001) (22, 2.54452160662221520000e-002) (23, 2.14443082174520040000e-001) (24, 7.22021288831649180000e-001) (25, -3.44676762845262050000e-001) (26, 5.73401677529865590000e-001) (27, -3.40168646913900430000e-002) (28, 6.63439379178685230000e-001) (29, 1.19046433258227660000e+000) (30, -1.29982604432788140000e-001) (31, 9.10745665368119180000e-001) (32, -4.99117317572262200000e-002) (33, 4.40297801419192780000e-001) (34, -6.17178877257887480000e-002) (35, -1.00861159807672000000e-001) (36, 9.58983430861375830000e-001) (37, -1.09596225665691090000e-001) (38, 2.96607365387571540000e-001) (39, 1.21046696815464030000e-002) (0, -8.40417121154754200000e-001) (1, -3.90978195054068670000e-001) (2, -3.09312548159696300000e-002) (3, 6.09241352410908600000e-001) (4, -3.93566427635063780000e-001) (5, 1.11907019285153560000e+000) (6, -2.75110872241507430000e-001) (7, -5.60550322846195440000e-001) (8, -2.10840469191434480000e-001) (9, 3.93901970082311650000e-001) (10, 4.45069219776761170000e-001) (11, 1.45563387674390500000e-001) (12, 2.26667415256849000000e-001) (13, 1.67046573365506850000e-001) (14, 2.68854458773830960000e-001) (15, 3.85217467697359710000e-001) (16, 1.45187990592769380000e-002) (17, 2.91328819484287130000e-001) (18, 6.10594406453197850000e-001) (19, 6.08657375401612580000e-001) (20, 2.83703156134973320000e-001) (21, 1.17917679498345350000e-001) (22, 2.31834373125792280000e-001) (23, 3.17890407486118630000e-001) (24, -1.40386036846581460000e-001) (25, 5.31005496753679360000e-001) (26, -9.28406010872397100000e-002) (27, -1.60102489682534070000e-001) (28, -3.08139289059803870000e-001) (29, 8.34969139011839110000e-001) (30, -1.81852931724483270000e-001) (31, 2.49964852550292720000e-001) (32, 6.32184311994038790000e-001) (33, 5.47666586718723150000e-001) (34, 2.66121082297252620000e-001) (35, 4.33780343581710470000e-001) (36, -1.16053593916340610000e-001) (37, -6.69738852707446600000e-003) (38, -1.06123404253455940000e-001) (39, 4.67988134857717670000e-001) (40, 3.55822631724994560000e-001) (41, -8.17965137126652970000e-001) (42, -7.29826978118914060000e-001) (43, 3.80531420486684590000e-001) (44, -1.46225310847783650000e+000) (45, -8.16157924094571830000e-002) (46, 1.14111448166274480000e+000) (47, 5.63664426222416080000e-001) (48, 1.44317562451918070000e+000) (49, 8.21461277223786980000e-002) (50, 1.56985868912115810000e+000) (51, 5.06290833937415920000e-001) (52, 8.70405934240249920000e-001) (53, -7.14307207492588580000e-001) (54, -1.22827264909908320000e+000) (55, -1.03429683851665060000e-002) (56, -6.11910859584757420000e-002) (57, 4.51130740355587640000e-001) (58, 2.73826960048055510000e-001) (59, 3.63844199355292220000e-001) (60, 2.57024959027301160000e-001) (61, 5.25968087473295150000e-001) (62, 1.77749946444259230000e-001) (63, 1.86097245148881480000e-001) (64, -1.91716509866314220000e-001) (65, -2.86193303320276430000e-001) (66, -1.63947777283476250000e+000) (67, -8.31917270503844670000e-001) (68, -1.66535098208825990000e+000) (69, 3.45973768483187500000e-001) (0, 5.73189622826747590000e+000) (1, 2.14663277984512660000e+000) (2, 4.38782995539189200000e-001) (3, 2.20229546303691130000e-001) (4, 9.61792471640491090000e-001) (5, 6.87873633293211830000e-001) (6, -1.42845258537887660000e-003) (7, 1.56960936237962280000e+000) (8, 5.24423872856643940000e-001) (9, 7.20773603495832420000e-001) (10, -3.74915668869651000000e-001) (11, 4.74440912987620310000e-001) (12, 2.85859301301936370000e-001) (13, 3.27190489795602560000e-001) (14, 1.55879053048459730000e+000) (15, -3.39860770971498520000e+000) (16, 1.14210439315373930000e-001) (17, -4.83995471677981570000e-001) (18, 1.43906072320925320000e+000) (19, -2.57822184591711580000e-001) (20, 2.41551265294372350000e-001) (21, 1.75108321261874010000e-001) (22, 1.02997667908781080000e-002) (23, 3.41787219148536880000e-001) (24, 3.58780375688104460000e+000) (25, -1.91924856402271000000e-001) (26, 3.88358342557609150000e-001) (27, 9.27606637341590880000e-001) (28, 5.01948148582255230000e-001) (29, -2.60377688031012340000e-002) (30, 4.94688143478157870000e-001) (31, 8.03924833176816290000e-001) (32, 3.49381839511448020000e-001) (33, 2.84419667961374720000e+000) (34, -6.09369591223425160000e-001) (35, -3.84740408815067440000e-002) (36, 4.65605658645922740000e+000) (37, 9.96464999118974240000e-001) (38, 5.46579830344648080000e-001) (39, 8.25933831533305130000e-001) (40, 2.50577924121077600000e-001) (41, -5.57585502729235770000e-002) (42, 1.03534174559398840000e+000) (43, 4.93918186254559850000e-001) (44, -5.33835218760292720000e-001) (45, 5.06503298863477670000e-001) (46, 1.01715706398283050000e+000) (47, 1.98669473789573360000e+000) (48, 1.95892694623540420000e-001) (49, 1.08119620884019360000e+000) (50, 2.23081265120384540000e-001) (51, 3.82141089161537270000e-001) (52, 4.55147753144160780000e-001) (53, 4.63235864636365120000e-001) (54, -3.92801166911199430000e-001) (55, 1.16952441330925560000e-001) (56, -4.64010123825069950000e-001) (57, 4.58085210785752040000e-001) (58, 1.02706497232854540000e+000) (59, 5.80066046278983270000e-002) (60, 2.17283221325852250000e-002) (61, 9.05650682819701850000e-001) (62, 2.79786829294047470000e-001) (63, 5.60231180175461920000e-001) (64, 5.98672016653808290000e-002) (65, -7.00439376275859170000e-001) (66, -1.57459566333910620000e-001) (67, 6.83997009557154920000e-001) (68, 3.69737534060919250000e-001) (69, 2.13048791086684240000e+000) (0, 4.93447373822120620000e-001) (1, -7.02884854593345980000e-003) (2, 6.60399204028755630000e-001) (3, -4.42033879767166180000e-001) (4, -2.16498259585315880000e-001) (5, 6.21526735799313390000e-001) (6, 1.77666601311812220000e-002) (7, 2.43140611216694570000e-002) (8, 1.04860818204260350000e-001) (9, 6.34331588244152480000e-001) (10, -2.39977668859971990000e-001) (11, 2.19864203576788850000e-001) (12, 5.70390325087545390000e-001) (13, -4.59068216482976660000e-002) (14, 9.19499636009727810000e-002) (15, -7.78468729361359250000e-001) (16, -1.91091207596890830000e-002) (17, -2.50041828854015550000e-001) (18, 5.67982084440357690000e-001) (19, 2.16397942318447590000e-002) (20, 8.70918738579203990000e-001) (21, -4.47215976587501510000e-001) (22, 3.22994592174481400000e-001) (23, 6.18528076450265530000e-001) (24, 1.59496594755301810000e-001) (25, -8.77523884826724170000e-002) (26, 2.54700672780324040000e-001) (27, 4.21595134030846250000e-001) (28, 3.93371209715644150000e-001) (29, 4.33795780038671090000e-001) (30, 6.13103751828705020000e-001) (31, 5.54489298957079100000e-001) (32, -2.54671697726865930000e-001) (33, 5.52856131143487190000e-001) (34, -1.89205049769279820000e-001) (35, 6.20073200407127540000e-001) (36, 1.16323960783157520000e+000) (37, 3.24581225951459380000e-001) (38, 4.96005429538388390000e-001) (39, 4.90197110246133660000e-001) (40, 3.94645602389262500000e-001) (41, 6.01640598944010780000e-001) (42, -4.00745187394063470000e-003) (43, 1.22045644836360980000e+000) (44, -1.83287751078123530000e-001) (45, 3.07435525027693330000e-001) (46, 4.90014636451579850000e-002) (47, 6.92208390987167630000e-002) (48, 1.52433807319803800000e-001) (49, 3.25387507101842170000e-001) (50, 4.02219402570868410000e-001) (51, 1.74295225099808410000e-001) (52, 7.16828409845490570000e-001) (53, -4.52380057117714230000e-001) (54, -7.03584806954752890000e-002) (55, -1.70153293118653210000e-001) (56, 2.17995976757883930000e-001) (57, 8.62919278736922760000e-002) (58, 4.39256388408755800000e-001) (59, -3.09013578418868950000e-001) (60, 1.94938833134531360000e-001) (61, 3.22748691940582420000e-001) (62, 2.16800556054287160000e-001) (63, 9.49871218743106590000e-002) (64, 2.89147807627630430000e-001) (65, -7.69152116094622140000e-002) (66, -3.99965984274513020000e-001) (67, 2.57496959358124670000e-001) (68, 1.13507242201587100000e-001) (69, 2.53201998025212980000e-001) (0, 4.74016504702158110000e-001) (1, 7.15593761306051120000e-001) (2, -1.55204409924897780000e-001) (3, 2.97259676942221050000e-001) (4, -3.48196728949763170000e-001) (5, -6.76206694621334760000e-001) (6, 9.06068672131774220000e-001) (7, 3.70368686093485170000e-001) (8, -1.71232972104068430000e-001) (9, -1.33883245005785940000e-001) (10, 4.25903602882465590000e-001) (11, 1.28475317625620230000e-001) (12, -2.13812387978929780000e-002) (13, 4.10261916163468690000e-001) (14, 2.64275085848497350000e-001) (15, 5.39316464370350750000e-001) (16, 1.77487576870421580000e-001) (17, -1.03187554774995640000e+000) (18, -1.97569602810123780000e-001) (19, 3.28083799190698190000e-001) (20, 1.45782607550184930000e-001) (21, 3.17840316003102470000e-001) (22, 1.42180840245991090000e-001) (23, 3.50535417984372490000e-001) (24, 1.96894183541652470000e-001) (25, 2.99527462520645160000e-001) (26, 3.38649109070172760000e-001) (27, -2.38478571707438390000e-001) (28, 6.99632340403569950000e-002) (29, 1.82400094140010220000e+000) (30, -1.58638366054139640000e-001) (31, 4.20410805475379460000e-001) (32, -6.99946892406841520000e-002) (33, -4.98457665980786450000e-001) (34, -1.71820377805467560000e-002) (35, 7.90741340237106850000e-001) (36, -8.76077737558174360000e-002) (37, 1.57458946762085720000e-001) (38, 5.20064035835125950000e-001) (39, -1.10067977696241770000e-001) (40, -1.46140078630218550000e-001) (41, 1.63619685174356570000e-001) (42, 9.13338313249320350000e-001) (43, -8.94243042325567060000e-001) (44, 2.77215520355728880000e-001) (45, -1.43991338296861090000e-001) (46, -6.41899605345535470000e-001) (47, 7.64650415306385860000e-002) (48, 3.88357919213422780000e-001) (49, 5.28525056223939640000e-001) (50, -4.13373552454315910000e-002) (51, 2.98349332878561430000e-002) (52, -1.02439088975563240000e-001) (53, -2.60679749795109310000e-002) (54, 1.03894730598987880000e-001) (55, 1.94777350675572560000e-001) (56, 2.54543300496373190000e-001) (57, 4.20399811771922540000e-001) (58, 2.35851378857537240000e-001) (59, 3.05009903404298120000e-001) (60, 3.13620427356940180000e-001) (61, -5.76790674851619280000e-001) (62, 1.67346148903114690000e-001) (63, 3.85360609535347680000e-001) (64, 3.88424940400126980000e-001) (65, 5.47155459084625260000e-001) (66, -2.31219160453247670000e-001) (67, 1.66999834373132180000e-001) (68, 2.83991356824223940000e-001) (69, -6.06943349170306570000e-001) (0, -2.29412444595146310000e-001) (1, 7.53916947649133640000e-001) (2, 1.30710692095445390000e-001) (3, 3.13133512334256960000e-001) (4, 1.11509191324824330000e+000) (5, 3.28176635280084230000e-001) (6, 7.87618358500348500000e-002) (7, 8.23264963029977200000e-001) (8, -6.20238369501949630000e-002) (9, 4.72546214147777090000e-002) (10, 2.76286470601723010000e-001) (11, 6.10066950219600890000e-001) (12, 8.02347677998052970000e-003) (13, 4.43558949637082810000e-001) (14, 3.12362462484302770000e-001) (15, 7.04391298287031400000e-001) (16, -4.59242492252334820000e-001) (17, 1.94545915317992960000e-002) (18, 8.20505832598434130000e-001) (19, 4.21384281696098980000e-001) (20, 5.37584537896750540000e-001) (21, 3.30717930046840520000e-001) (22, 1.25667245094134630000e-001) (23, -1.11249377967208960000e-001) (24, 1.94815620912333230000e-001) (25, 7.24854221871006120000e-001) (26, 3.49681301555483490000e-001) (27, 2.16832889370145050000e-001) (28, 8.10643284029399560000e-001) (29, 7.00048294961488460000e-001) (30, -7.95838423179076880000e-002) (31, 1.79864877009548310000e-001) (32, 4.82520941052954180000e-001) (33, 2.47415212961010110000e-002) (34, 1.22246029595063440000e-001) (35, 8.82163566968875880000e-001) (36, 7.28744581794215780000e-002) (37, 1.31995245527983220000e-001) (38, 3.70038491304062300000e-001) (39, 5.47247949432288700000e-002) (40, 1.50871292689178320000e-001) (41, 1.18655183262418890000e-001) (42, 7.59637593615915980000e-001) (43, -3.17962166705789640000e-001) (44, 1.30538812290276130000e+000) (45, 9.43157985717327450000e-001) (46, -4.98439521523785620000e-003) (47, 4.42632225460994570000e-001) (48, 8.49056251513580440000e-001) (49, 4.88257321502183210000e-001) (50, -4.31299927145027270000e-002) (51, 8.93457507794766400000e-001) (52, 8.99952642949953030000e-001) (53, -1.54824290260548110000e-001) (54, 3.61809004320749960000e-002) (55, 8.13582218654794190000e-001) (56, -4.43039084470063960000e-001) (57, 9.86977057225500220000e-001) (58, 2.55028635117950210000e-001) (59, -2.14391897440526530000e-001) (60, -4.62275697381034010000e-002) (61, -9.38274047302252170000e-002) (62, 1.04058249245408630000e-001) (63, -1.51963196768089630000e-002) (64, -1.00439146259295040000e-001) (65, 7.30716435405225130000e-001) (66, 5.51071809601881510000e-001) (67, 2.97235880551694640000e-001) (68, 4.54214962074799060000e-001) (69, 2.43622520503832510000e-002) (0, -2.65334890156584850000e-001) (1, 1.09790067834085140000e+000) (2, 4.80424135737170080000e-001) (3, 1.00305184462740920000e-001) (4, 2.25700489015281000000e-001) (5, 8.83568681768187810000e-001) (6, 1.31217173006406650000e-002) (7, 4.68084113510097380000e-001) (8, 3.08325271003697890000e-001) (9, 7.03577626750188870000e-001) (10, -1.05176255318348730000e-001) (11, -1.45257628338130750000e-001) (12, -1.32367167477140800000e-003) (13, 1.48788922440554970000e-001) (14, 7.85167864430098340000e-001) (15, -2.01989896374132670000e-001) (16, 2.14531024270141400000e-001) (17, -9.38450939330014170000e-002) (18, 5.36240172752593610000e-001) (19, 1.47619606371919090000e-001) (20, -4.33559827522687070000e-001) (21, 1.55794181536335420000e-001) (22, 7.86048314274000880000e-002) (23, 4.72477076254177450000e-001) (24, 1.54460260733570110000e-001) (25, 2.13303524420163980000e-001) (26, 3.53925848097751680000e-001) (27, 3.27936370514678780000e-001) (28, 2.66646139857669990000e-001) (29, 4.22748459022834750000e-001) (30, 5.30741864535716030000e-001) (31, 9.76550150591789400000e-001) (32, 2.32655940594787420000e-002) (33, 7.74002138853305150000e-001) (34, -4.09559180738303000000e-001) (35, 7.16651302682800970000e-001) (36, 3.06804526003507160000e-001) (37, -2.29408056119335790000e-001) (38, -2.53838273440657980000e-002) (39, 4.35760933919180420000e-001) (40, 2.29668886944698110000e-001) (41, 2.06312013855703220000e-001) (42, 2.09378146899543290000e-001) (43, 1.64635528566261050000e+000) (44, -1.35043172222819840000e-001) (45, 5.41308671063069120000e-001) (46, 4.89616938082890750000e-001) (47, 7.09333010839866550000e-001) (48, 2.49804692566135410000e-001) (49, 6.68367308235375820000e-001) (50, 4.38107754367406620000e-001) (51, 1.05897984618689620000e+000) (52, 1.49942214264514400000e+000) (53, 1.52762374767671930000e-001) (54, -3.45241552584523830000e-001) (55, 2.70221865361704950000e-001) (56, 1.31344560854236400000e-001) (57, 1.64230453605018090000e-001) (58, 5.32559795298448770000e-001) (59, 3.23625171570952500000e-001) (60, 2.56059416847143340000e-001) (61, 1.75637730487145840000e+000) (62, 1.31793338513308960000e-001) (63, 7.04227592989483540000e-002) (64, 1.87493434123713390000e-001) (65, 1.00611876143499980000e-001) (66, 1.32540934238830260000e-001) (67, -1.53311386361111520000e-001) (68, 2.09433230195448290000e-001) (69, 2.40820586998692830000e-001) (0, 1.00204788827790490000e-001) (1, 9.48276867413190560000e-002) (2, 7.29710314262070340000e-001) (3, 2.26122615111649360000e-001) (4, -1.53616634095724520000e-002) (5, 6.88620309110191540000e-002) (6, 5.68644182055687910000e-002) (7, 1.00958744978055540000e-001) (8, -7.05926602870915740000e-002) (9, 1.07087916909738380000e+000) (10, -8.05546549315329540000e-001) (11, 1.05301392520139810000e-001) (12, 4.29086361051203010000e-001) (13, 2.25737330997948880000e-001) (14, 6.40835022216523780000e-002) (15, 2.72762882981937790000e-001) (16, -9.67500754246546910000e-002) (17, -1.52466990390374480000e+000) (18, 3.49848809535952320000e-001) (19, 7.08407002559652940000e-001) (20, 2.98099961433675900000e-001) (21, -3.83851976153434530000e-002) (22, 3.57983940617556400000e-001) (23, -1.41092109054276800000e-002) (24, 2.48635597426224670000e-002) (25, -2.72981258684233340000e-001) (26, -4.47055937120448350000e-002) (27, 6.40977855772522090000e-001) (28, 4.39767337901236950000e-001) (29, -1.78296458024110000000e-002) (30, 1.35129242626111170000e-001) (31, -7.64850457223597710000e-002) (32, 1.72544646072434740000e+000) (33, 2.30158567353354190000e-001) (34, 8.53511491847744220000e-001) (35, 5.36541193379933330000e-001) (36, 3.14972944717372470000e-001) (37, 1.41428466681832330000e+000) (38, 1.96184082435032080000e-001) (39, 1.15265627829760260000e+000) (40, -5.51456917215733420000e-001) (41, -1.47911770283534800000e-001) (42, 4.37961061491943910000e-001) (43, 3.17933178748848970000e-001) (44, 5.82187001103986800000e-001) (45, 4.44382172568585030000e-001) (46, -1.67282913568193440000e-001) (47, 6.52554763645337020000e-002) (48, -1.90525264207404120000e-001) (49, 4.61420333585358170000e-001) (50, -1.76434616856858130000e-001) (51, 3.34815778852355920000e-001) (52, -7.91447234340757440000e-004) (53, -1.30918756441915620000e+000) (54, -7.35203819320572990000e-001) (55, 8.73798311853275170000e-001) (56, -3.04653363938997330000e-001) (57, 3.60052083797402830000e-001) (58, -9.24064062426910580000e-002) (59, -3.50912106552517480000e-001) (60, -1.98063788509622830000e+000) (61, -1.64542898000377580000e-001) (62, 1.85341004930613940000e+000) (63, 1.91098086679663750000e+000) (64, -2.52436399175732460000e-001) (65, 2.44806329048760350000e-001) (66, -2.94140105344110170000e-001) (67, -9.64422242444485930000e-002) (68, 1.87756750832092590000e-001) (69, -1.12026664727820110000e-001) (0, -7.35804269232224750000e-001) (1, -2.91114501323280370000e-001) (2, -4.92704996258378710000e-001) (3, 6.57845674062800590000e-001) (4, 4.66112817367453430000e-002) (5, 5.70816356178372790000e-001) (6, -5.65962180896648180000e-001) (7, 9.55377294708049660000e-001) (8, -2.93231195020008940000e-001) (9, -1.44936116335231680000e-001) (10, 1.00397393018666590000e+000) (11, -1.34264014331636590000e-001) (12, -3.02073733496621260000e-001) (13, -4.73794835613665160000e-002) (14, 3.33804667267423140000e-001) (15, 1.54165803020731480000e+000) (16, 1.63372015623868990000e-001) (17, 1.21496435660776790000e+000) (18, -3.29011130331720580000e-002) (19, 1.79346010264979290000e-001) (20, 1.36043447590446090000e+000) (21, -2.42732787771025080000e-001) (22, -6.05789920067904330000e-001) (23, -5.24686764396207320000e-001) (24, -8.82501831333174500000e-001) (25, -1.31824540322986570000e-001) (26, 1.85584389053005700000e-001) (27, 9.68134557824843590000e-001) (28, 7.84312211229053370000e-001) (29, -1.35894138900249650000e-001) (30, -5.24327258506996130000e-001) (31, -2.04611289572677180000e+000) (32, 8.40177731834518720000e-001) (33, -2.92103673177412930000e-001) (34, 1.23625229301045760000e+000) (35, 1.37269680185385550000e-001) (36, -1.25829473478255770000e+000) (37, -2.59057547785961740000e-001) (38, 9.92716934037391810000e-001) (39, -6.56880159604789180000e-001) (40, -9.32536157116914400000e-001) (41, -1.91876042753642400000e-001) (42, -1.25275609704815730000e+000) (43, 3.03130427667955060000e-001) (44, 6.71801816372126210000e-001) (45, 6.96292064381283660000e-001) (46, 2.09552486541072700000e-001) (47, -2.27524531499900370000e-001) (48, 3.06882337176130120000e-001) (49, -3.05312287102589790000e-001) (50, 9.89563638828287880000e-002) (51, -6.35263924569668960000e-001) (52, -2.11775597073900920000e-001) (53, 3.68084113722387420000e-001) (54, 4.39304953626645010000e-001) (55, 2.03738445346003270000e-001) (56, 9.98387183254441870000e-001) (57, -9.10546001015976600000e-002) (58, 3.18058588941182770000e-001) (59, 2.90300882397212410000e+000) (60, 7.97427035391437440000e-001) (61, 2.30856606554492920000e-001) (62, -9.28258986019491860000e-001) (63, -7.57499655862983290000e-001) (64, 5.52970520964337190000e-001) (65, 3.51902085669044240000e-001) (66, -2.17006410034686570000e-001) (67, -3.29758845867143200000e-002) (68, 7.31032892986539650000e-002) (69, 2.95362464309192220000e-001) (0, 2.18700684088617740000e+000) (1, 8.58237931174328510000e-002) (2, 2.14649990367814400000e-001) (3, 1.22069297418519970000e-002) (4, -1.90165579509206070000e-001) (5, 9.39764659975174330000e-001) (6, -5.93068038715250820000e-001) (7, 1.18401531763650360000e-001) (8, 5.19843329541589270000e-002) (9, -3.43524270157474500000e-002) (10, 1.44565990638873100000e+000) (11, -3.23280827053310900000e-001) (12, 9.53851143847718460000e-002) (13, 3.59279184202413060000e-001) (14, 1.38051868537827740000e+000) (15, 1.46728711626072370000e-001) (16, 9.29002325877640640000e-001) (17, 1.06745971828819370000e+000) (18, -1.44307574318761620000e-001) (19, 2.33832642587068730000e-001) (20, 5.60988102069519820000e-002) (21, 1.19534328616782760000e-002) (22, -3.74087786431285600000e-001) (23, 1.34958570385855900000e-001) (24, 1.51711813333478020000e-001) (25, -5.98347812094699450000e-001) (26, 3.24913813364559540000e-001) (27, -2.59429803802411600000e-001) (28, -1.52663830331492220000e-001) (29, 1.96733186609745670000e-001) (30, -9.24304172063308840000e-002) (31, 1.49141969175509120000e-001) (32, 3.07788548407805340000e-001) (33, 4.14158670102914520000e-001) (34, 4.62723733378434030000e-001) (35, -4.01470826590917350000e+000) (36, 7.92436149644397400000e-002) (37, -4.73322603455945900000e-001) (38, -4.23957173737245370000e-002) (39, -2.12364091578747030000e+000) (40, 3.34640168616658350000e-001) (41, -8.59355499495160880000e-001) (42, -3.93746440959112760000e-001) (43, -5.57659019510054960000e-002) (44, -5.60157172594737070000e-001) (45, 8.60886893592294310000e-001) (46, 7.91341312200063100000e-001) (47, 2.63566981258916260000e-001) (48, 2.06806658964264390000e-001) (49, -7.46413690037643910000e-002) (50, 2.08702912639722980000e+000) (51, -1.07283233929260850000e-001) (52, 5.98484054725197720000e-001) (53, 2.70895375973534410000e-001) (54, -2.28197004169240330000e-001) (55, -1.19174140761663620000e+000) (56, 2.64897289424355750000e-001) (57, 1.80773518046674020000e-001) (58, -1.35564669755774240000e+000) (59, 5.57453963925335860000e-001) (60, 8.57616892645202550000e-002) (61, 7.92384926872052420000e-001) (62, -2.65090131019792400000e-001) (63, -8.14590024563803530000e-002) (64, 3.11975857665758860000e-001) (65, -1.24238910800907340000e+000) (66, -4.08535390507848210000e-001) (67, 1.00708191516959950000e-001) (68, -4.58989380628554820000e-001) (69, 1.51375603131027160000e+000) (0, 1.29453771606442710000e+000) (1, 1.41719190211299040000e+000) (2, 7.90383164209595530000e-001) (3, 1.02970950219674130000e-001) (4, 6.18730226781841860000e-001) (5, 1.42142045539000200000e-001) (6, 2.99303774059652920000e-001) (7, 9.90663662781124050000e-001) (8, 3.18321770258241820000e-001) (9, 3.26837373765622500000e-001) (10, -3.38685617035367650000e-001) (11, 5.00132967326213260000e-001) (12, 4.78566090078128060000e-001) (13, 8.01332721926176990000e-001) (14, 3.00712254925060740000e-002) (15, -1.19592192952824990000e+000) (16, -1.82951168612110720000e-001) (17, -2.77223610655878030000e-001) (18, 6.81948258025092260000e-002) (19, 3.12612580077980820000e-001) (20, 4.70558273301559530000e-001) (21, -1.13073528248978080000e-002) (22, 1.61262167806559640000e-001) (23, 3.39321691615073420000e-001) (24, 8.38743920030487030000e-001) (25, 1.04800125511157870000e-001) (26, 8.61811253618744220000e-001) (27, 5.50834011116747240000e-001) (28, 2.57918844409980750000e-001) (29, 1.24228409925944170000e+000) (30, 6.17695553144041120000e-001) (31, 6.63940113742621410000e-001) (32, 1.27195080250294440000e-001) (33, 4.86540545576655270000e-001) (34, -1.66720304426399850000e-001) (35, -3.60925735419770190000e-001) (36, 1.19663463118098770000e+000) (37, 5.93840030465645930000e-001) (38, 3.96778824916552860000e-001) (39, 4.78786382546701860000e-001) (40, 3.43545228589476130000e-002) (41, 5.80270720810039390000e-001) (42, 3.33646133900348700000e-001) (43, 1.66894257826956440000e+000) (44, -9.09656367000844730000e-001) (45, 2.30362211246985110000e-001) (46, 2.43640475481735590000e-001) (47, 1.21863285750387780000e+000) (48, -5.87276774497660500000e-002) (49, -4.66090502354054640000e-001) (50, 8.46401156359409960000e-002) (51, 1.98027079533156790000e-001) (52, 8.81140915708061190000e-001) (53, 2.61152840215408130000e-001) (54, -4.47944408348248610000e-001) (55, 1.76249639864671540000e-001) (56, 2.41232924901954190000e-001) (57, 1.90221524518075140000e-001) (58, 8.74356460375162130000e-001) (59, -1.46110850337351410000e-001) (60, 3.38564264508263710000e-001) (61, 1.24996062198358240000e+000) (62, 6.44175876368815240000e-001) (63, 1.03661529180286250000e-001) (64, 2.64161837142993960000e-001) (65, -1.23955714412629940000e+000) (66, 4.73999538502975630000e-002) (67, 3.51448423759751880000e-001) (68, 2.01344844033009060000e-001) (69, 8.45361195084827100000e-001) (0, 2.37964808511125230000e+000) (1, -8.64489569372513090000e-001) (2, 2.75444478119830360000e-001) (3, 1.38710909925439720000e-001) (4, 8.31313193086122730000e-001) (5, -1.67480024012790880000e-001) (6, 1.25285600874609200000e+000) (7, 1.07423527269537190000e+000) (8, -4.22150237553525820000e-001) (9, -8.10655761729766470000e-002) (10, 6.78753978278259010000e-001) (11, 3.27350225587463850000e-001) (12, 5.51032299368657390000e-001) (13, -4.83601321080395720000e-001) (14, -6.61839806309146070000e-001) (15, 5.48907678248763300000e-001) (16, 3.41398829188571950000e-001) (17, -1.10522204765233380000e+000) (18, -3.16561647652502890000e-001) (19, -4.36040630620140700000e-001) (20, 1.54150262267343760000e-002) (21, -1.15995777078847950000e-001) (22, -4.42876444815516050000e-002) (23, 9.10051018827193750000e-002) (24, -3.29058162375701350000e-002) (25, 2.06801587057742630000e-002) (26, -1.32406286451237000000e-001) (27, 1.94893093299682460000e-001) (28, 4.98315198343012580000e-001) (29, 2.11882297562561740000e-001) (30, 7.56965895004958620000e-002) (31, -1.07526416581462720000e-002) (32, -6.51820007370162570000e-002) (33, 3.11678123200197770000e+000) (34, 2.29022559764334550000e-001) (35, -1.43597170787947540000e-001) (36, 2.94883643275146380000e-001) (37, 5.52620725235192230000e-001) (38, 1.88635162046684930000e-001) (39, 3.83826903274736010000e-001) (40, 3.36824919789169670000e-001) (41, 5.36493707669810420000e-001) (42, 1.19285826689100680000e+000) (43, -2.60967087053809390000e-001) (44, 3.92427778849747830000e-001) (45, 9.84695780867712170000e-002) (46, 7.18320470461325780000e-003) (47, -1.22948888479692360000e+000) (48, 5.60671802467691330000e-001) (49, 3.71828146484712680000e-001) (50, -1.48768213191903590000e+000) (51, -1.59999385670348020000e-001) (52, -2.41898497191752910000e-001) (53, -2.42642838894826050000e-001) (54, -2.09217816507050510000e-001) (55, 1.18703739668857140000e-001) (56, -4.88657667304911500000e-001) (57, 2.47328656441502260000e-001) (58, 8.10570271765634790000e-001) (59, 1.23366416569711030000e-001) (60, -7.24789627354995410000e-001) (61, -7.72870315512348750000e-001) (62, 1.01737505683386290000e+000) (63, 1.53656740889540840000e-001) (64, 2.93102759871430200000e-001) (65, 8.45317702493470490000e-001) (66, 6.67861965721407550000e-001) (67, 4.29400071163962450000e-001) (68, 1.44737858149319390000e+000) (69, 1.54671059868919610000e-002) (0, -5.21283279463342190000e-001) (1, 1.10366696137087180000e+000) (2, 8.35523431192064180000e-001) (3, 3.16935888642695470000e-002) (4, 4.56292445016045820000e-001) (5, 2.34001423867136150000e-001) (6, 2.00481587763387450000e-003) (7, 6.17106568632116660000e-001) (8, -5.85983918076538570000e-003) (9, 8.44385625507543590000e-001) (10, -8.23434093722027800000e-001) (11, 2.93571479967407960000e-001) (12, 1.38452447921821320000e+000) (13, 1.33762049501109010000e-001) (14, 7.75031051388873180000e-001) (15, 2.24429292501330150000e-001) (16, -1.65579228473509000000e-001) (17, -2.06280355082069770000e+000) (18, 1.31689680828210530000e+000) (19, 2.77318183115630500000e-001) (20, 8.34186127553652960000e-001) (21, 5.59449973773183400000e-001) (22, 3.77870383234023280000e-002) (23, 2.40077871502517280000e-001) (24, 2.13476941262137200000e-001) (25, 9.07925791136428460000e-001) (26, -1.65029423703023650000e-001) (27, 6.77831174840412550000e-001) (28, 7.48619070142238080000e-002) (29, -1.11170375609298520000e-001) (30, 5.11075708583451750000e-001) (31, 1.74669502911770270000e-001) (32, 1.19480438638147260000e+000) (33, 5.54445296956209810000e-001) (34, -1.83008542878538070000e-001) (35, 6.75831141234799370000e-001) (36, 9.57194303448958600000e-003) (37, 7.63927030981491730000e-001) (38, 3.45007202365263670000e-001) (39, 1.50309382330425120000e+000) (40, -3.87574774505652920000e-001) (41, 9.43320025054819040000e-001) (42, 2.52009529456572400000e-001) (43, 1.31630808227940790000e-001) (44, 3.88018949655526140000e-001) (45, 5.48178278127717360000e-001) (46, 2.79046794622460010000e-001) (47, 9.87938824262517970000e-002) (48, -2.47121263199799020000e-001) (49, 2.55499507714578080000e-001) (50, -5.63951308354385530000e-002) (51, 2.41442437754235020000e+000) (52, 4.42699530947508690000e-001) (53, -5.86899249030234830000e-001) (54, -1.22433820630194810000e+000) (55, 1.49216274206096090000e-001) (56, -6.95421742428038230000e-001) (57, 6.93179882453833770000e-001) (58, 8.11930294516848620000e-001) (59, -4.00249248650880680000e-001) (60, -8.65862168464391120000e-001) (61, 6.02369470256211570000e-001) (62, 8.91438644206803080000e-001) (63, 3.82639291285220060000e-001) (64, -3.30647144440304850000e-001) (65, 1.25210088369457320000e-001) (66, 6.22529838017024880000e-001) (67, -1.39065430935613300000e-001) (68, 7.59205914166654950000e-001) (69, -1.00278913589048040000e-002) (0, 5.41866713124354190000e-001) (1, -8.73147933891334490000e-001) (2, -7.95132653105872560000e-001) (3, -2.17086558712663690000e-001) (4, -4.30700872273188720000e-002) (5, 3.60998798455261920000e-002) (6, 1.63564894897735320000e-001) (7, 6.19583076724664280000e-001) (8, 4.86296920363194940000e-001) (9, -1.67801685516390990000e-001) (10, 1.85883752815326480000e+000) (11, 1.53402253514871930000e+000) (12, -6.81129854342051090000e-001) (13, 1.98109180675298540000e-002) (14, 3.42720963656589490000e-001) (15, 6.60593232876386240000e-002) (16, 4.52267221839729340000e-001) (17, 2.32586087393698420000e+000) (18, -6.97636418200677790000e-001) (19, -1.37915772739432450000e-001) (20, -2.82033732206828090000e-001) (21, 9.83005329197903510000e-001) (22, -3.95154607015791860000e-001) (23, 5.45544135705858690000e-001) (24, -3.01395615814790630000e-001) (25, 1.94546324462345020000e-001) (26, 5.49266192959096510000e-001) (27, -5.85600680268720470000e-001) (28, -5.75508309946337950000e-001) (29, 4.22963396008186780000e-001) (30, -6.55573262087964510000e-001) (31, 2.64497792999803140000e-001) (32, -4.49087890272903690000e-001) (33, -9.31939517617306480000e-002) (34, 5.64243751917556270000e-001) (35, 2.90782223523798070000e-001) (36, 1.63679856152742640000e-001) (37, -5.19133803832343640000e-001) (38, -6.93813267660266740000e-001) (39, -6.04310842689816940000e-001) (40, 1.90021276543929450000e-001) (41, -3.50987090417243350000e-001) (42, -4.76332498527491720000e-002) (43, 1.11867557838184490000e+000) (44, -1.63155543807323190000e-001) (45, 2.09353583460875730000e-002) (46, 5.50138546757572230000e-001) (47, 5.71734622196513280000e-001) (48, -7.35096873397756530000e-001) (49, 2.47010468068292850000e-001) (50, 1.14434697469318200000e+000) (51, -7.31048895677003490000e-001) (52, 2.85321398437348490000e-001) (53, 1.87200551179560050000e-001) (54, 1.61677514693252590000e-001) (55, -4.84363050359424170000e-001) (56, 5.62053205723678450000e-001) (57, -8.09043536779481380000e-001) (58, -1.13855568135512870000e+000) (59, 1.50976856304725950000e+000) (60, 5.43937999885093280000e-001) (61, 3.61130898986756280000e-002) (62, -3.92192824719254980000e-001) (63, -4.04111987503946560000e-001) (64, 1.57469250816412280000e-001) (65, -3.41551178722045270000e-001) (66, -4.53506539245043860000e-001) (67, -2.47601235549561320000e-001) (68, -2.04089611054343590000e-001) (69, 4.50565987202458660000e-001) (0, 5.98474309036932880000e-001) (1, 7.19720695466381290000e-001) (2, 7.58739977583378740000e-001) (3, -1.38148807551917330000e-001) (4, 1.40570144422672020000e-001) (5, 2.67562192077060690000e-003) (6, 4.89892867844687270000e-001) (7, 1.57012042562928220000e-001) (8, 4.62931370352645810000e-001) (9, 5.21068424116345800000e-001) (10, -4.85440559351619670000e-001) (11, 9.45388403227660930000e-001) (12, 1.09200476618221740000e+000) (13, 1.53642109766967820000e-001) (14, -2.29986487142468580000e-001) (15, -6.55906955441665000000e-001) (16, -2.56017173297146130000e-001) (17, -9.07623177827949550000e-001) (18, 2.00778833629619770000e+000) (19, 3.18681139271454140000e-001) (20, 7.68470389830089170000e-002) (21, 1.02360017981351070000e-001) (22, 6.12638103568246330000e-001) (23, -5.49975134757108460000e-001) (24, 9.54998425802519810000e-001) (25, 5.68726435017975710000e-001) (26, 9.69252491281247380000e-002) (27, 1.00986627519087360000e+000) (28, 2.93309024827725250000e-001) (29, -1.70994573041654690000e-001) (30, 2.00023258762462710000e-001) (31, 2.53764965674335930000e-001) (32, 1.88601928956149800000e+000) (33, 6.26134641064312710000e-001) (34, -1.03980853850492410000e+000) (35, 5.08071307741790210000e-001) (36, 3.45452987782137950000e-001) (37, 9.55238038722972970000e-001) (38, -2.63999081015463820000e-002) (39, 1.10335118108390850000e+000) (40, 1.16203710078211310000e-001) (41, 6.20025899262647400000e-001) (42, 1.02796463723239670000e+000) (43, -3.32752878358497320000e-001) (44, 3.53426216497205130000e-001) (45, 6.47190008342626410000e-001) (46, 2.31459600132151470000e-001) (47, 1.16080938109647080000e+000) (48, 4.66183075128194730000e-001) (49, 3.12278614058749850000e-001) (50, -4.16124823411411270000e-001) (51, 2.84521271717062100000e-001) (52, 7.44727542031115130000e-001) (53, -4.70041812549309880000e-001) (54, 2.39725785757254030000e-001) (55, 3.21593911180436950000e-001) (56, -2.39462359808654910000e-001) (57, 8.69350676572867910000e-001) (58, 8.95191932662782960000e-001) (59, -5.55206383250979820000e-001) (60, 8.52503249935447070000e-002) (61, 1.57323899113609060000e-001) (62, 1.20549792297649330000e+000) (63, 1.82487683105608260000e-001) (64, 1.20638023491278030000e-001) (65, 3.23865495002536700000e-001) (66, 6.54040465108203790000e-001) (67, 6.19863915931394010000e-001) (68, 4.48436003379578670000e-001) (69, 3.62150072426452310000e-001) (0, -4.21652308059842940000e-001) (1, -2.94239545766733950000e-001) (2, -3.44264305988370490000e-001) (3, 5.75745060390166490000e-001) (4, 9.65795460903749570000e-001) (5, 1.84262735428208560000e-001) (6, 5.66172343297460580000e-001) (7, 7.02046720571105730000e-001) (8, 1.17006102264240010000e-001) (9, 1.33447884910289240000e-003) (10, -1.56196071735513300000e-002) (11, 1.12745350398538290000e-001) (12, 8.20566563131801960000e-002) (13, 8.13768824066690710000e-001) (14, 1.48807006393350820000e-001) (15, 2.65342949410266070000e-002) (16, 2.62951154684782250000e-001) (17, 1.40784665132184630000e-001) (18, 1.00788547019121170000e+000) (19, 9.92003857616231550000e-001) (20, -2.52084093717291620000e-001) (21, 3.80957827022446630000e-001) (22, 4.34211042821457390000e-001) (23, 1.07025132933313170000e-001) (24, 1.05801068488389790000e+000) (25, 3.76317607532991320000e-002) (26, -1.65525446934865210000e-001) (27, 9.37520641186910110000e-002) (28, -3.05425160084930370000e-001) (29, 3.38623582941828210000e-001) (30, 1.38204532077860710000e-001) (31, -1.06128125050395970000e-001) (32, 5.37039001829501400000e-002) (33, 8.07026644318331600000e-001) (34, 5.62048368603481170000e-001) (35, 2.08736422324430240000e-002) (36, 4.12969774726979100000e-001) (37, 3.46676354089630100000e-001) (38, 1.92967553694107340000e-001) (39, 1.75442224268963360000e-001) (40, 8.17909739610803710000e-002) (41, 4.65259173032404330000e-001) (42, 3.08938412825853440000e-001) (43, 9.95445224247683560000e-002) (44, 2.23646808321087660000e-001) (45, 1.65217148383659810000e-001) (46, 2.26255862919980400000e-001) (47, 3.28193334185442050000e-001) (48, 4.28188311730801960000e-001) (49, 2.37502643252903600000e-001) (50, -6.72059466456609990000e-002) (51, 5.70953604846386800000e-001) (52, -1.03647291865508150000e-001) (53, -2.09256905054245490000e-001) (54, 5.49984246098429770000e-001) (55, 5.18635226128902890000e-001) (56, 4.54330779944608630000e-001) (57, 7.00590713412384770000e-001) (58, 2.66655663136275870000e-001) (59, -6.09998761968610840000e-002) (60, -3.10921499336134170000e-001) (61, 4.36452271899920240000e-002) (62, 1.07037344448178700000e+000) (63, 6.28987300610067690000e-001) (64, -3.63007522900242910000e-001) (65, 2.38394154273484590000e-001) (66, 3.11139925086992290000e-001) (67, 2.14661767196842240000e-001) (68, 2.78614675981071650000e-001) (69, 2.94711226860982720000e-001) (0, -9.94564585833635160000e-001) (1, 2.23835922617678760000e-001) (2, -5.52120844544394700000e-001) (3, -2.29120303026152440000e-001) (4, 6.66032387997735680000e-001) (5, -7.19946587103586170000e-001) (6, -3.67834229826213070000e-002) (7, 5.41004270183960470000e-001) (8, -5.52987124998439090000e-002) (9, -1.75803079029076050000e-001) (10, 1.85656578168544390000e-001) (11, 1.00688893141750930000e+000) (12, 1.50727821024970370000e-001) (13, -2.35020515949348500000e-001) (14, -1.14463415123629830000e-001) (15, 2.11104911883744670000e-001) (16, 6.17294247035083510000e-001) (17, -3.85986859651883900000e-001) (18, -2.04626247084952830000e-001) (19, -1.59637483405033170000e-001) (20, -8.95135098188541280000e-002) (21, -2.14032327596621970000e-001) (22, -1.80549234155421730000e-001) (23, -1.25817983930683290000e+000) (24, -6.71709792841277410000e-002) (25, -6.44687160080033160000e-002) (26, -2.43577078952163300000e-001) (27, -2.89883112562885510000e-001) (28, 3.77780577296388700000e-001) (29, 2.06355440256632410000e-001) (30, 2.97619214822739900000e-001) (31, -6.63820115205029480000e-001) (32, -3.74890997286516260000e-001) (33, 2.72430364102085710000e-001) (34, 2.60275271457861670000e-001) (35, -2.27692454347139060000e-001) (36, 8.03799060632428450000e-001) (37, -5.88157332333376290000e-002) (38, 2.24399967663906210000e-001) (39, -7.20689429749929580000e-002) (40, -3.61810992741829690000e-002) (41, 2.32092842619988670000e-001) (42, 2.27217355220643100000e-001) (43, -8.15402476512271520000e-002) (44, 2.27387407657002550000e-001) (45, 1.32391967419959540000e-001) (46, 4.59437324598696750000e-003) (47, 1.65342143998014170000e-001) (48, 1.16136325328705630000e-001) (49, 1.26067778167294420000e-001) (50, -2.69188522768926300000e-001) (51, 3.76163725685946580000e-001) (52, -8.92514288425180070000e-002) (53, -5.98537269237657600000e-001) (54, 1.42697067574430760000e-001) (55, -5.36361396059209070000e-001) (56, 1.17412971514012620000e-001) (57, -2.39891601421284960000e-001) (58, -2.35515553872196800000e-001) (59, 6.18291192284168180000e-001) (60, 2.16857922707872740000e-001) (61, -3.95187193103120680000e-002) (62, 5.20527695682755920000e-001) (63, 4.70338217643968440000e-001) (64, -2.68779454811657380000e-001) (65, 1.93781340681353360000e-002) (66, 1.61393394624562760000e-001) (67, -9.88621838947607020000e-002) (68, 2.05295008050746740000e+000) (69, -5.84190651469660150000e-002) (0, 1.48339485484189380000e-001) (1, 1.02030291926647760000e+000) (2, 6.33882149038619970000e-002) (3, 6.13356651747405180000e-002) (4, 8.94192579072325060000e-003) (5, -1.51157919173736220000e-001) (6, 7.42989131771865240000e-002) (7, 3.11663253208051770000e-001) (8, -9.18275974665571650000e-002) (9, -5.61955568678156670000e-002) (10, 3.49783676527053720000e-001) (11, 3.97040410801981160000e-001) (12, -6.67277868445242060000e-001) (13, -7.12815339423928830000e-001) (14, 1.12497287138133650000e+000) (15, 1.48970037662523420000e-001) (16, 3.21164034271793460000e-001) (17, 2.12092825719907370000e-001) (18, -7.40846570024340400000e-001) (19, -4.32164117536992630000e-001) (20, 3.18788411164608150000e-001) (21, 3.05159926814495550000e-001) (22, -4.42602868609346330000e-001) (23, 1.02174693926350340000e-001) (24, 1.28853915176297770000e-001) (25, -1.01954892799626650000e-001) (26, 4.10420041791443520000e-002) (27, -3.66258122568231980000e-001) (28, 4.71466394854892610000e-001) (29, 3.32348836531166370000e-001) (30, -3.61196993052523120000e-001) (31, 3.24389274179625260000e-001) (32, -5.68035754515668010000e-001) (33, -1.63292994313695120000e-001) (34, 9.90930434135638830000e-002) (35, 2.21093035477240380000e-001) (36, 1.24053719801819200000e-001) (37, -4.09983755757989070000e-001) (38, 2.07119532534635690000e-001) (39, -5.64897749891385080000e-001) (40, -1.48650798874299770000e-001) (41, 4.66464342508115300000e-001) (42, 8.27522557828645200000e-002) (43, 5.59992409016896840000e-001) (44, -6.87415225329960910000e-001) (45, 4.10865410199939770000e-001) (46, -2.39321267307951280000e-001) (47, -4.84247574025874090000e-001) (48, -4.20277639645072140000e-001) (49, 1.46128756734578150000e-001) (50, 9.89566265834439240000e-002) (51, -4.63382805129016080000e-001) (52, -1.74244127749097140000e-001) (53, 8.48103248049072440000e-001) (54, 4.20318422904737310000e-001) (55, 1.29857875942309410000e-001) (56, 7.61472413427637380000e-001) (57, -9.51691130929316560000e-001) (58, -5.18130368521965260000e-001) (59, 1.43324078007330550000e-001) (60, 2.42737200532596790000e-001) (61, -3.08967394488546320000e-001) (62, 1.23986989033576850000e-002) (63, 