FANN_FLO_2.1
num_layers=10
learning_rate=0.700000
connection_rate=1.000000
network_type=0
learning_momentum=0.000000
training_algorithm=2
train_error_function=1
train_stop_function=1
cascade_output_change_fraction=0.010000
quickprop_decay=-0.000100
quickprop_mu=1.750000
rprop_increase_factor=1.200000
rprop_decrease_factor=0.500000
rprop_delta_min=0.000000
rprop_delta_max=50.000000
rprop_delta_zero=0.100000
cascade_output_stagnation_epochs=12
cascade_candidate_change_fraction=0.010000
cascade_candidate_stagnation_epochs=12
cascade_max_out_epochs=150
cascade_min_out_epochs=50
cascade_max_cand_epochs=150
cascade_min_cand_epochs=50
cascade_num_candidate_groups=2
bit_fail_limit=1.00000001490116120000e-001
cascade_candidate_limit=1.00000000000000000000e+003
cascade_weight_multiplier=4.00000000000000020000e-001
cascade_activation_functions_count=10
cascade_activation_functions=3 5 7 8 10 11 14 15 16 17 
cascade_activation_steepnesses_count=4
cascade_activation_steepnesses=2.50000000000000000000e-001 5.00000000000000000000e-001 7.50000000000000000000e-001 1.00000000000000000000e+000 
layer_sizes=10 11 11 11 11 11 11 11 11 7 
scale_included=0
neurons (num_inputs, activation_function, activation_steepness)=(0, 0, 0.00000000000000000000e+000) (0, 0, 0.00000000000000000000e+000) (0, 0, 0.00000000000000000000e+000) (0, 0, 0.00000000000000000000e+000) (0, 0, 0.00000000000000000000e+000) (0, 0, 0.00000000000000000000e+000) (0, 0, 0.00000000000000000000e+000) (0, 0, 0.00000000000000000000e+000) (0, 0, 0.00000000000000000000e+000) (0, 0, 0.00000000000000000000e+000) (10, 5, 1.00000000000000000000e+000) (10, 5, 1.00000000000000000000e+000) (10, 5, 1.00000000000000000000e+000) (10, 5, 1.00000000000000000000e+000) (10, 5, 1.00000000000000000000e+000) (10, 5, 1.00000000000000000000e+000) (10, 5, 1.00000000000000000000e+000) (10, 5, 1.00000000000000000000e+000) (10, 5, 1.00000000000000000000e+000) (10, 5, 1.00000000000000000000e+000) (0, 5, 1.00000000000000000000e+000) (11, 5, 1.00000000000000000000e+000) (11, 5, 1.00000000000000000000e+000) (11, 5, 1.00000000000000000000e+000) (11, 5, 1.00000000000000000000e+000) (11, 5, 1.00000000000000000000e+000) (11, 5, 1.00000000000000000000e+000) (11, 5, 1.00000000000000000000e+000) (11, 5, 1.00000000000000000000e+000) (11, 5, 1.00000000000000000000e+000) (11, 5, 1.00000000000000000000e+000) (0, 5, 1.00000000000000000000e+000) (11, 5, 1.00000000000000000000e+000) (11, 5, 1.00000000000000000000e+000) (11, 5, 1.00000000000000000000e+000) (11, 5, 1.00000000000000000000e+000) (11, 5, 1.00000000000000000000e+000) (11, 5, 1.00000000000000000000e+000) (11, 5, 1.00000000000000000000e+000) (11, 5, 1.00000000000000000000e+000) (11, 5, 1.00000000000000000000e+000) (11, 5, 1.00000000000000000000e+000) (0, 5, 1.00000000000000000000e+000) (11, 5, 1.00000000000000000000e+000) (11, 5, 1.00000000000000000000e+000) (11, 5, 1.00000000000000000000e+000) (11, 5, 1.00000000000000000000e+000) (11, 5, 1.00000000000000000000e+000) (11, 5, 1.00000000000000000000e+000) (11, 5, 1.00000000000000000000e+000) (11, 5, 1.00000000000000000000e+000) (11, 5, 1.00000000000000000000e+000) (11, 5, 1.00000000000000000000e+000) (0, 5, 1.00000000000000000000e+000) (11, 5, 1.00000000000000000000e+000) (11, 5, 1.00000000000000000000e+000) (11, 5, 1.00000000000000000000e+000) (11, 5, 1.00000000000000000000e+000) (11, 5, 1.00000000000000000000e+000) (11, 5, 1.00000000000000000000e+000) (11, 5, 1.00000000000000000000e+000) (11, 5, 1.00000000000000000000e+000) (11, 5, 1.00000000000000000000e+000) (11, 5, 1.00000000000000000000e+000) (0, 5, 1.00000000000000000000e+000) (11, 5, 1.00000000000000000000e+000) (11, 5, 1.00000000000000000000e+000) (11, 5, 1.00000000000000000000e+000) (11, 5, 1.00000000000000000000e+000) (11, 5, 1.00000000000000000000e+000) (11, 5, 1.00000000000000000000e+000) (11, 5, 1.00000000000000000000e+000) (11, 5, 1.00000000000000000000e+000) (11, 5, 1.00000000000000000000e+000) (11, 5, 1.00000000000000000000e+000) (0, 5, 1.00000000000000000000e+000) (11, 5, 1.00000000000000000000e+000) (11, 5, 1.00000000000000000000e+000) (11, 5, 1.00000000000000000000e+000) (11, 5, 1.00000000000000000000e+000) (11, 5, 1.00000000000000000000e+000) (11, 5, 1.00000000000000000000e+000) (11, 5, 1.00000000000000000000e+000) (11, 5, 1.00000000000000000000e+000) (11, 5, 1.00000000000000000000e+000) (11, 5, 1.00000000000000000000e+000) (0, 5, 1.00000000000000000000e+000) (11, 5, 1.00000000000000000000e+000) (11, 5, 1.00000000000000000000e+000) (11, 5, 1.00000000000000000000e+000) (11, 5, 1.00000000000000000000e+000) (11, 5, 1.00000000000000000000e+000) (11, 5, 1.00000000000000000000e+000) (11, 5, 1.00000000000000000000e+000) (11, 5, 1.00000000000000000000e+000) (11, 5, 1.00000000000000000000e+000) (11, 5, 1.00000000000000000000e+000) (0, 5, 1.00000000000000000000e+000) (11, 0, 1.00000000000000000000e+000) (11, 0, 1.00000000000000000000e+000) (11, 0, 1.00000000000000000000e+000) (11, 0, 1.00000000000000000000e+000) (11, 0, 1.00000000000000000000e+000) (11, 0, 1.00000000000000000000e+000) (0, 0, 1.00000000000000000000e+000) 
connections (connected_to_neuron, weight)=(0, 1.49226618144114330000e+003) (1, -1.50000000000000000000e+003) (2, 1.50000000000000000000e+003) (3, 5.97354901342174680000e+002) (4, -1.13740267345779060000e+003) (5, -1.98815821916546810000e+002) (6, -2.07612141359894720000e+000) (7, 6.59188756095166700000e+002) (8, -1.45858426664265080000e+003) (9, 8.11937992878889790000e+001) (0, 9.22975011860136310000e+002) (1, 1.50000000000000000000e+003) (2, -1.47394415608545480000e+003) (3, 3.81522096337149380000e+002) (4, 1.09971372552844200000e+001) (5, -7.17498110871103560000e+002) (6, 8.19531799792717720000e+002) (7, -1.32243808284765370000e+001) (8, 1.49675064289262170000e+003) (9, 8.11277248507877500000e+000) (0, 1.17978165521821370000e+003) (1, -1.50000000000000000000e+003) (2, 1.50000000000000000000e+003) (3, 6.71280068929501450000e+002) (4, 1.49362692309420390000e+003) (5, 5.12139707788508870000e+002) (6, -1.13061015743117890000e+002) (7, 2.31787241285839170000e+002) (8, -1.45864522327246100000e+003) (9, 2.85217930666232110000e+001) (0, 1.10611877960445870000e+003) (1, 1.50000000000000000000e+003) (2, -1.47394415608545480000e+003) (3, 2.36043319436126950000e+002) (4, 5.85351881050166640000e+002) (5, 6.16649050644229650000e+002) (6, 8.31786163154828050000e+002) (7, 2.93541212302563510000e+002) (8, 1.49462414070470440000e+003) (9, 2.25889746399768400000e+000) (0, -7.01468849980949240000e+002) (1, 1.50000000000000000000e+003) (2, -1.47394415608545480000e+003) (3, 4.94524477898320920000e+002) (4, 1.49598354033836950000e+003) (5, -1.89863324812782590000e+000) (6, 5.04048200226833390000e+002) (7, 1.04738221517394880000e+002) (8, 1.49677846013525140000e+003) (9, 2.42709344689911210000e+000) (0, 1.15659459635256800000e+003) (1, -1.50000000000000000000e+003) (2, 1.50000000000000000000e+003) (3, -8.47215712731370440000e+001) (4, 8.75590326629831450000e+002) (5, 1.04001954583096680000e+003) (6, 5.14240911482364250000e+002) (7, 1.20639332232980770000e+001) (8, -1.45684916583086150000e+003) (9, -3.11294240707517210000e-001) (0, 1.21419886757448760000e+003) (1, -1.50000000000000000000e+003) (2, 1.50000000000000000000e+003) (3, 1.23600471823451080000e+003) (4, 6.72200145864819890000e+002) (5, 5.31018760843067530000e+002) (6, 4.03521722787517490000e+002) (7, 2.65589493256775770000e+002) (8, -1.45768218062354530000e+003) (9, 3.79989386147619430000e+000) (0, -6.26167283056166410000e+002) (1, 1.50000000000000000000e+003) (2, -1.47394415608545480000e+003) (3, -1.98879806453630690000e+001) (4, -4.03372196043035050000e+002) (5, 1.36372996150590800000e+003) (6, -6.41961929545959380000e+002) (7, 7.28523272533085330000e+002) (8, 1.49684143343842290000e+003) (9, 3.39398255468993360000e+001) (0, 4.23699815288422140000e+002) (1, -1.50000000000000000000e+003) (2, 1.50000000000000000000e+003) (3, 8.53921689163595370000e+002) (4, 8.60302150315894440000e+002) (5, 1.41534996659929330000e+003) (6, 3.20314040947179360000e+002) (7, 8.40048929669073800000e+002) (8, -1.45685826726503460000e+003) (9, -1.44181379929529200000e-001) (0, -1.50000000000000000000e+003) (1, -1.50000000000000000000e+003) (2, 1.50000000000000000000e+003) (3, -8.65930138456283880000e+002) (4, 1.49999987999999530000e+003) (5, -1.50000000000000000000e+003) (6, -1.46625055906113880000e+003) (7, 1.43868127559688510000e+001) (8, -1.45867273242614420000e+003) (9, -4.03828408868156960000e+000) (10, -1.49978681850389670000e+003) (11, 1.50000000000000000000e+003) (12, -1.48812151117868480000e+003) (13, 1.50000000000000000000e+003) (14, 1.50000000000000000000e+003) (15, -1.49911005480200130000e+003) (16, -1.49471328295976490000e+003) (17, 1.50000000000000000000e+003) (18, -1.49889914364172160000e+003) (19, -1.49842695101831620000e+003) (20, -1.05787253243091160000e-001) (10, -1.49954961936770910000e+003) (11, 1.50000000000000000000e+003) (12, -1.45675773232590250000e+003) (13, 1.50000000000000000000e+003) (14, 1.49956198732361390000e+003) (15, -1.49987296934178630000e+003) (16, -1.49992865538615230000e+003) (17, 1.50000000000000000000e+003) (18, -1.49901373194060470000e+003) (19, -1.49492452688534580000e+003) (20, 5.91884135917045470000e-001) (10, 1.49978466726041280000e+003) (11, -1.49976953568050660000e+003) (12, 1.50000000000000000000e+003) (13, -1.49953663232481840000e+003) (14, -1.49889456017828180000e+003) (15, 1.50000000000000000000e+003) (16, 1.49970648320627790000e+003) (17, -1.49991758664709550000e+003) (18, 1.49985314662325320000e+003) (19, 1.50000000000000000000e+003) (20, -1.29052744822527310000e+000) (10, 1.50000000000000000000e+003) (11, -1.46226639183686960000e+003) (12, 1.50000000000000000000e+003) (13, -1.45845457056100510000e+003) (14, -1.49863549819690710000e+003) (15, 1.50000000000000000000e+003) (16, 1.50000000000000000000e+003) (17, -1.48270185830265750000e+003) (18, 1.50000000000000000000e+003) (19, 1.50000000000000000000e+003) (20, 3.77690286200150980000e+002) (10, 1.50000000000000000000e+003) (11, -1.49999288399586980000e+003) (12, 1.50000000000000000000e+003) (13, -1.49999238719583060000e+003) (14, -1.49966099588092240000e+003) (15, 1.50000000000000000000e+003) (16, 1.50000000000000000000e+003) (17, -1.48270185830265750000e+003) (18, 1.50000000000000000000e+003) (19, 1.50000000000000000000e+003) (20, 4.48647596311914860000e-001) (10, 1.49998749797585240000e+003) (11, -1.46507668839855430000e+003) (12, 1.50000000000000000000e+003) (13, -1.46502222743094280000e+003) (14, -1.49809170688341600000e+003) (15, 1.50000000000000000000e+003) (16, 1.50000000000000000000e+003) (17, -1.49699745702811400000e+003) (18, 1.50000000000000000000e+003) (19, 1.50000000000000000000e+003) (20, 2.54033454766726010000e+000) (10, -1.49866863003319740000e+003) (11, 1.50000000000000000000e+003) (12, -1.48350210017042040000e+003) (13, 1.50000000000000000000e+003) (14, 1.50000000000000000000e+003) (15, -1.49999461444948450000e+003) (16, -1.49694118036338160000e+003) (17, 1.50000000000000000000e+003) (18, -1.43932808056377850000e+003) (19, -1.49093743419902690000e+003) (20, -1.71408359825285640000e+000) (10, -1.48679492475791790000e+003) (11, 1.50000000000000000000e+003) (12, -1.45720163894914870000e+003) (13, 1.50000000000000000000e+003) (14, 1.49997870255076710000e+003) (15, -1.49990311181254060000e+003) (16, -1.49691934698920890000e+003) (17, 1.50000000000000000000e+003) (18, -1.45325071921144240000e+003) (19, -1.48494959513656750000e+003) (20, -3.84540103922776220000e+000) (10, 1.49998788603463090000e+003) (11, -1.37118979075333710000e+003) (12, 1.50000000000000000000e+003) (13, -1.49558463011773940000e+003) (14, -1.49976743325185000000e+003) (15, 1.50000000000000000000e+003) (16, 1.50000000000000000000e+003) (17, -1.26386063889202980000e+003) (18, 1.50000000000000000000e+003) (19, -1.19458478140224250000e+003) (20, 6.28858249397458660000e+001) (10, -1.49793430799688300000e+003) (11, 1.50000000000000000000e+003) (12, -1.39995012281210820000e+003) (13, 1.50000000000000000000e+003) (14, 1.50000000000000000000e+003) (15, -1.49985175107129380000e+003) (16, -1.49506751945305680000e+003) (17, 1.50000000000000000000e+003) (18, -1.49510867483491940000e+003) (19, -1.47711708912206360000e+003) (20, 1.13224258764065700000e+000) (21, 1.50000000000000000000e+003) (22, 1.50000000000000000000e+003) (23, -1.49996820585380760000e+003) (24, -1.11068917744617010000e+003) (25, -1.31574279432324170000e+003) (26, -1.30073625317563530000e+003) (27, 1.41197970824170720000e+003) (28, 1.50000000000000000000e+003) (29, -1.48889907508894430000e+003) (30, 1.48377066907788530000e+003) (31, 1.24057474082153800000e+000) (21, 1.50000000000000000000e+003) (22, 1.49878496710769400000e+003) (23, -9.13527397692768430000e+002) (24, -1.25891934536521790000e+003) (25, -1.27504803327121820000e+003) (26, -1.27491369238158930000e+003) (27, 6.15799908305284250000e+002) (28, 1.50000000000000000000e+003) (29, -1.48889907508894430000e+003) (30, 1.50000000000000000000e+003) (31, 1.43645657853889140000e-001) (21, 1.50000000000000000000e+003) (22, 1.49878496710769400000e+003) (23, -9.14309879971036590000e+002) (24, -8.56052824989940860000e+001) (25, -8.80241146054419800000e+001) (26, -1.27491278688552730000e+003) (27, 5.04609648033161750000e+000) (28, 1.05467189137325830000e+001) (29, -1.48889907508894430000e+003) (30, 1.50000000000000000000e+003) (31, -3.20750258236984940000e-001) (21, -1.38633859897811340000e+003) (22, -1.38148983356018180000e+003) (23, 1.42178285528101450000e+003) (24, 1.40320613984483200000e+003) (25, 1.45245948668110990000e+003) (26, 1.46329492375015390000e+003) (27, -1.31735973601703790000e+003) (28, -1.42361170767371250000e+003) (29, 1.50000000000000000000e+003) (30, -1.37988865470033280000e+003) (31, 2.12593039788960340000e+000) (21, 8.08442070507883950000e+002) (22, 1.50000000000000000000e+003) (23, -9.71899585309388850000e+000) (24, -2.36659054808117300000e+001) (25, -7.63907733806391410000e+000) (26, -2.14160270916345220000e+001) (27, 1.07290557103307480000e+001) (28, 2.01356785620075700000e+001) (29, -5.55408017669949570000e+002) (30, 4.76962302420273330000e+001) (31, 3.38530140628539880000e+000) (21, 1.48567155594500700000e+003) (22, 1.50000000000000000000e+003) (23, -6.82691688667340200000e+001) (24, -3.62431456996432070000e+000) (25, -2.86930155993692230000e+000) (26, -1.44933681422843140000e+003) (27, 2.20206997094901300000e+000) (28, 4.47983571921478510000e+000) (29, -1.10223564823976590000e+003) (30, 9.18687583249365730000e+002) (31, 1.47264615503697920000e+000) (21, -1.49426704973828810000e+003) (22, -1.47892980618460460000e+003) (23, 1.50000000000000000000e+003) (24, 1.50000000000000000000e+003) (25, 1.49359820731103510000e+003) (26, 1.48270383297363490000e+003) (27, -1.45190095365018990000e+003) (28, -1.48096932158492720000e+003) (29, 1.50000000000000000000e+003) (30, -1.42174679793428530000e+003) (31, 9.28439139354297940000e+002) (21, 1.50000000000000000000e+003) (22, 1.50000000000000000000e+003) (23, -1.16771756349453040000e+003) (24, -8.03878132715278860000e+000) (25, -2.59767876370020870000e+002) (26, -1.29288438126106120000e+003) (27, 4.57223009150771360000e+000) (28, 7.38643853554661260000e+001) (29, -1.44559294693493850000e+003) (30, 1.50000000000000000000e+003) (31, 1.41369651944573490000e-001) (21, 1.50000000000000000000e+003) (22, 1.49652049546087410000e+003) (23, -9.14431160397015560000e+002) (24, -3.11915549399236110000e+002) (25, -1.38657183679039580000e+002) (26, -1.27491380694240710000e+003) (27, 1.19978706260670740000e+003) (28, 1.50000000000000000000e+003) (29, -1.48889907508894430000e+003) (30, 1.50000000000000000000e+003) (31, 2.03195286231632850000e-001) (21, 1.46325752972375770000e+003) (22, 1.50000000000000000000e+003) (23, -8.93577263755460650000e+000) (24, -1.99647604923547870000e+000) (25, -8.23226541148781910000e+001) (26, -1.44933721742847390000e+003) (27, 8.96467053202869410000e+001) (28, 7.81467707677499700000e+001) (29, -1.13029390135259750000e+003) (30, 1.50000000000000000000e+003) (31, -3.64988400129266870000e-001) (32, 2.19872750514208710000e+000) (33, 4.13191485999156070000e+000) (34, 1.33835994973904750000e+000) (35, 3.48528691065105700000e-001) (36, 7.73389891599290650000e+002) (37, 2.48450826036586310000e+002) (38, 3.13505038322252090000e+000) (39, 1.94886192056073230000e+000) (40, 8.69773301459004950000e+000) (41, 4.17965084690983520000e+000) (42, 2.98243468379209840000e-001) (32, 1.26979440704561680000e+002) (33, 1.48941837562247220000e+003) (34, 1.47411409603588730000e+003) (35, -1.29775473101144260000e+003) (36, 1.50000000000000000000e+003) (37, 1.50000000000000000000e+003) (38, -2.83195089750662100000e+001) (39, 1.46152741674185880000e+003) (40, 1.49922661383496510000e+003) (41, 1.13534899682772330000e+003) (42, -9.87682039638064560000e-001) (32, 1.49903408965979320000e+003) (33, 1.49477445967882410000e+003) (34, 1.47124877063724470000e+003) (35, -1.24739595578050830000e+003) (36, 1.49987126518175570000e+003) (37, 1.49573730351489140000e+003) (38, -6.52515163964600760000e+001) (39, 1.46156122576176680000e+003) (40, 1.49939833066394680000e+003) (41, 6.70269227747737320000e+002) (42, -1.42811643071638770000e-001) (32, -1.46416355217802310000e+002) (33, -1.39207902676849630000e+003) (34, -1.37686159847013760000e+003) (35, 1.49953723284076890000e+003) (36, -1.31004282771217000000e+003) (37, -1.49031837808912880000e+003) (38, 3.89874398960815970000e+001) (39, -1.32383941492703750000e+003) (40, -1.48446285278278760000e+003) (41, -9.57508004888098980000e+002) (42, 9.35557101258058470000e-001) (32, 1.50000000000000000000e+003) (33, 1.49992016769212020000e+003) (34, 1.44261344980332520000e+003) (35, -1.45571145071450060000e+003) (36, 1.50000000000000000000e+003) (37, 1.23387952395978710000e+003) (38, -1.38153696963936450000e+003) (39, 5.98115709632116020000e+002) (40, 1.49990294243994780000e+003) (41, 1.53063163781101220000e+002) (42, -3.13567495997069370000e+001) (32, 6.05863957996537470000e+002) (33, 8.05370091881586530000e+000) (34, 7.08423945936115910000e+000) (35, -8.38795595423148650000e+001) (36, 1.47927634663067920000e+003) (37, 8.46843616554064480000e+000) (38, -9.72788126672806540000e+000) (39, 1.62694764163000410000e+001) (40, 6.33795108466209280000e+000) (41, 8.46145655552569130000e+000) (42, 4.66259174266471010000e-001) (32, -9.27101306686338060000e-001) (33, 2.26908252231221530000e+000) (34, 2.09706145453381330000e+000) (35, -1.84177540005279460000e+000) (36, -6.65878262870188990000e+001) (37, 8.26643117679374130000e+000) (38, 2.06144471114329130000e+001) (39, -1.70228888222583350000e+000) (40, -1.50949171249916050000e-001) (41, 1.18139751772350260000e+001) (42, -3.51821008240182030000e+000) (32, 1.41010849834199580000e+003) (33, 1.46256933752403530000e+003) (34, 1.46531929796572380000e+003) (35, -1.30827305395968070000e+003) (36, 1.50000000000000000000e+003) (37, 1.48850530422782140000e+003) (38, -3.38025336963859900000e+002) (39, 1.48505542287818430000e+003) (40, 1.44984095848119890000e+003) (41, 1.46583180670475420000e+003) (42, 5.95865229424607180000e-001) (32, 4.91014908017372850000e-002) (33, 5.83197255312762120000e-001) (34, 1.29190224375804920000e+000) (35, -1.23668921599991080000e+000) (36, 1.50000000000000000000e+003) (37, 3.23617768883246850000e+000) (38, -2.01033872956085960000e-001) (39, 4.11697559585578250000e+000) (40, 1.58010056976981160000e+000) (41, -5.43711560243826500000e+000) (42, -3.88217386257232460000e-001) (32, 1.27144235705596160000e+001) (33, 1.48996626744880430000e+003) (34, 1.43527038838672770000e+003) (35, -1.23629411269937620000e+003) (36, 1.49152274704101820000e+003) (37, 1.43527103693422850000e+003) (38, -1.42723924782547260000e+003) (39, 1.43222287661761720000e+003) (40, 1.44659744721854350000e+003) (41, 2.32540104303510270000e+001) (42, -2.31062444270725560000e-001) (43, 1.49999987999999530000e+003) (44, 6.03658151128295200000e+000) (45, 1.07528239706332120000e+000) (46, -5.67429800024074210000e+001) (47, -1.10851064707985230000e+000) (48, 2.38716495226525320000e+000) (49, 1.11378050944136520000e+003) (50, 8.34639565255702260000e-001) (51, -4.20701915610469600000e+002) (52, 1.94532391700363330000e+001) (53, 5.49578485423934730000e-001) (43, -1.49818869710038390000e+003) (44, -7.49926535777043450000e+001) (45, -1.85847613904204660000e+000) (46, 3.65577306281754630000e+001) (47, -4.43735835766826710000e+002) (48, -1.26352943707388160000e+003) (49, 3.85471537289742680000e+002) (50, -9.88444231917801370000e+000) (51, -1.37758182350394150000e+003) (52, -8.55814109875248440000e+000) (53, -1.20696970990282960000e+000) (43, -7.63493584883850530000e+002) (44, 7.34623475711418910000e+002) (45, 1.67541333404206260000e+002) (46, -2.50817588642338650000e+002) (47, 1.49819433096442160000e+003) (48, 1.49980630171252160000e+003) (49, -1.45572144127576940000e+003) (50, 1.36758438133243040000e+003) (51, 1.50000000000000000000e+003) (52, 1.36181976290978970000e+003) (53, -4.55139714767142040000e+002) (43, -1.49703717530011550000e+003) (44, -1.32762222903735140000e+003) (45, -1.45785734994572750000e+003) (46, 1.49778275725229720000e+003) (47, -1.63170467634651970000e+002) (48, -1.49879957701175390000e+003) (49, -2.92103944490036270000e+002) (50, -1.32881820349348440000e+003) (51, -1.38433325248024720000e+003) (52, -1.49980485607624470000e+003) (53, 2.02678716705422040000e-001) (43, 7.08053327782056270000e+002) (44, 1.49867981184641080000e+003) (45, 6.47687567713845170000e+002) (46, -1.48594542054181120000e+003) (47, -8.05371034859915940000e+001) (48, 7.08053327782056270000e+002) (49, 1.49905524491904980000e+003) (50, 1.49712766002180390000e+003) (51, -6.48944126687984410000e+002) (52, 7.96351525682985650000e+001) (53, 8.67139952241698930000e-001) (43, -1.49172604365353250000e+003) (44, -1.32743896640335900000e+003) (45, -1.45767396392647970000e+003) (46, 1.49739799621384600000e+003) (47, -1.58936144205844310000e+001) (48, -1.49318083467672660000e+003) (49, -3.72429446092521000000e+002) (50, -1.33200540017563280000e+003) (51, -7.30818637625836910000e+002) (52, -7.25637859113479520000e+002) (53, 2.13590817417460800000e-001) (43, 1.49419320506794090000e+003) (44, 1.04358007225309000000e+002) (45, 2.86089147265723370000e+001) (46, 3.78177200521478270000e+001) (47, -1.40866092795419040000e+003) (48, -1.38297663653645740000e+003) (49, 1.05956154857168580000e+003) (50, 2.35803501003198940000e+001) (51, -1.21548854113585680000e+003) (52, 8.17758077894754250000e+002) (53, 7.00919702980573050000e+001) (43, 1.49249000649987260000e+003) (44, 1.49818931738792390000e+003) (45, 1.49007749231168420000e+003) (46, -4.44645261803121340000e+002) (47, 3.45676273078221070000e+001) (48, 1.49249000649987260000e+003) (49, -5.30701429562732410000e+002) (50, 1.49932174765046350000e+003) (51, 1.18984088852017000000e+003) (52, 3.63165525940436140000e+001) (53, 2.83617093243269610000e-001) (43, 1.49994069239666170000e+003) (44, 1.49994336657126150000e+003) (45, 1.49994181598025970000e+003) (46, -1.41675333138454150000e+003) (47, 8.72059266536659730000e+000) (48, 1.49994069239666170000e+003) (49, -9.87031171457994110000e+001) (50, 1.46143672684390660000e+003) (51, 1.49993553485893130000e+003) (52, 2.90668319733748890000e+002) (53, -2.81762406567920950000e+000) (43, 2.67207359768518370000e+000) (44, -5.03144458078380200000e+000) (45, -5.29902775010238170000e+000) (46, 1.17193798203361600000e+001) (47, -1.54193571265188360000e+000) (48, 1.08802709700103000000e-001) (49, -4.59452162758485230000e+001) (50, -1.03484801938078840000e+001) (51, 7.86246760099356660000e+000) (52, -5.06625698414531470000e+000) (53, 7.58649323569252230000e+000) (54, 1.49999987999999530000e+003) (55, -1.25431686792318600000e+000) (56, 2.18000999701466070000e+000) (57, -1.58977822302817070000e+000) (58, 9.12365932177645060000e-001) (59, 3.16591452615072540000e-001) (60, 1.88405517378085180000e+001) (61, 9.02850136615767410000e-001) (62, 8.88621050286020680000e-001) (63, -1.40933833520764480000e+003) (64, -2.84253889085921240000e+000) (54, 6.34132445247165060000e+000) (55, 5.66856855417552710000e-001) (56, -1.54397200774796260000e+000) (57, 8.26888831677544340000e-001) (58, -1.50579419245320950000e-001) (59, 8.27762968648426360000e-001) (60, 1.94510121692092760000e+000) (61, -2.64803932714174110000e+000) (62, 2.56352548405925160000e+000) (63, 4.60473185524909390000e-002) (64, 1.78760407023133180000e+000) (54, 1.49952291173133220000e+003) (55, -1.39238771434244750000e+003) (56, -1.16870806610770640000e+003) (57, -1.40011854954196790000e+003) (58, 1.46746470831057200000e+003) (59, -1.49302453640268750000e+003) (60, 6.54655001507706520000e+002) (61, 1.27948477025450690000e+003) (62, 1.47625124004167980000e+000) (63, 1.49569249655215940000e+003) (64, 1.18490286201974800000e+003) (54, 1.38034547669586640000e+003) (55, 5.97711455939200850000e+002) (56, 1.32531558595339580000e+003) (57, -1.23150269799519110000e+003) (58, 1.34226211970967640000e+003) (59, -1.07863686685920650000e+003) (60, 1.49967453703885190000e+003) (61, 2.89619996666306120000e+002) (62, 1.27640095106378110000e+003) (63, -7.60919677840968120000e+002) (64, 2.60408294830024150000e+000) (54, 9.33688172296448330000e+002) (55, -9.00631442120885770000e+000) (56, -3.81769863479814520000e+000) (57, 1.94432363793852370000e-001) (58, 1.09934114349000420000e+000) (59, 5.60514358270644340000e-002) (60, 9.62745835531632960000e+001) (61, 1.10786032131127570000e+000) (62, 1.06619681999378210000e+000) (63, -6.86714293351918400000e+002) (64, -5.45379228436134510000e+000) (54, 1.49129573118314280000e+003) (55, -1.46437194932651120000e+003) (56, -1.35728139410644440000e+003) (57, -1.26837542965890790000e+003) (58, 1.49991334101341540000e+003) (59, -1.48303827210361460000e+003) (60, -1.30824922098108250000e+003) (61, 1.44580752024644610000e+003) (62, 6.40109044228273660000e+001) (63, 1.17079795326726640000e+003) (64, 1.49334767701062670000e+003) (54, -1.37397454375733280000e+001) (55, -4.57070848883787040000e+000) (56, -4.71774041406276010000e+000) (57, 1.03588607259982300000e+001) (58, 5.81631039598989830000e+000) (59, 7.63524294589490890000e+000) (60, -9.01793661517081980000e+000) (61, -3.25727021271525930000e+000) (62, -4.89691932070618390000e+000) (63, -1.06619618881418020000e+002) (64, 1.39626100714137940000e+001) (54, 4.14606227572151320000e-001) (55, 3.47706223521224160000e-001) (56, 8.37920597140470560000e-004) (57, 4.42386418190406860000e-001) (58, 1.47425351652084370000e-001) (59, 8.82657367110648460000e-001) (60, 2.70578754119529640000e-001) (61, 2.51958053909690010000e-001) (62, 2.17691936507139140000e-001) (63, 1.13090916382297730000e+000) (64, -2.87749179220021300000e+000) (54, -1.48193930802418660000e+003) (55, 4.95367820942230530000e+000) (56, 2.05656062328615120000e+001) (57, 1.03902884996748810000e+001) (58, 2.71118442753071950000e-001) (59, 9.00909895700687140000e-001) (60, 1.14349724587035110000e+001) (61, 3.31618507172689980000e-001) (62, 1.03566908407904080000e-001) (63, 1.49212211225420330000e+003) (64, 1.05499318000911010000e+000) (54, 1.49991616383868680000e+003) (55, 2.08793783819214780000e+000) (56, -1.45897295029178670000e+003) (57, -1.17803805444403190000e+000) (58, 9.59486931325561070000e-002) (59, -9.79978962374368660000e+000) (60, 3.05382263632575250000e+002) (61, 1.08793321048852980000e+000) (62, -1.04317299775380250000e+000) (63, -1.38987098735222710000e+003) (64, 2.50524225074929950000e+000) (65, -1.61846445818134360000e-002) (66, -1.14868901404909270000e-001) (67, 1.24566698012531100000e-001) (68, 2.17602421012733530000e-001) (69, -5.29468693045814700000e-004) (70, 1.80127198651474890000e-001) (71, -7.57048093459099100000e-002) (72, 1.04973764904615340000e+000) (73, 2.12652601804031140000e-001) (74, 1.00179309856792420000e-001) (75, 3.78853459518022960000e-001) (65, 1.55732327634042290000e+002) (66, 1.28193697863034280000e+003) (67, 4.19429911454980790000e+000) (68, 2.99629004597902590000e+001) (69, 1.37133289322679590000e+003) (70, 1.46275492309803010000e+000) (71, -4.69413760117353550000e+002) (72, -2.78292948894653010000e-002) (73, -2.33586367143184430000e+001) (74, 2.31067926014479710000e+001) (75, 4.66394714178542990000e+000) (65, 8.34717668204112860000e+000) (66, 7.87379722899178350000e+000) (67, -3.56334646155296420000e-001) (68, 9.17408366100278760000e-001) (69, 7.07190277036634850000e+001) (70, 7.80606821380224300000e-001) (71, 3.13332945425399020000e+000) (72, 8.26187854319641350000e+000) (73, -7.55395716516593580000e+001) (74, -6.86761565344787780000e+000) (75, -1.85527669981605410000e+000) (65, 1.50362158515477250000e+000) (66, -1.01306248004948740000e+000) (67, 1.05420456220248430000e+000) (68, 1.70274030212279310000e+000) (69, 1.91239079568853440000e+000) (70, 1.65231061562249320000e+000) (71, -1.64983107114605750000e+000) (72, 2.20817719483139510000e+000) (73, 1.28372280703555200000e+000) (74, -9.05902257569357830000e-001) (75, 1.41243106291946980000e+000) (65, 2.62722005668936390000e-001) (66, -1.61348336909842710000e-001) (67, 3.17380273015426430000e-001) (68, 1.26945035142610120000e-002) (69, 4.14262389758209670000e-001) (70, 6.79716672241460820000e-001) (71, 1.29327830581126850000e-001) (72, 2.32632622049119770000e-001) (73, -8.15829941234660900000e-002) (74, 2.44344342489095030000e-001) (75, -1.70814966205164000000e-002) (65, 2.92000608322934230000e-001) (66, -1.23043183111030780000e-001) (67, -9.39401814726086860000e-002) (68, 2.21287485043521660000e-001) (69, 6.61690496194718290000e-002) (70, 1.64553350903476780000e-001) (71, 7.26176357154131450000e-002) (72, 7.32975953079092610000e-002) (73, -6.95218576874889890000e-002) (74, -1.03415250094839580000e-001) (75, -2.04565811875891650000e-001) (65, 4.86980988331048150000e+001) (66, -2.00242556592361110000e+001) (67, 7.87938904871208620000e+001) (68, 1.03813919002231290000e+001) (69, 8.00696505766237150000e+001) (70, 2.91055317669662830000e+001) (71, -3.76830705814329430000e+001) (72, 4.58216932362564080000e+001) (73, 1.01298847823543170000e+002) (74, -3.67716227979826580000e+001) (75, 9.04243764656003370000e-002) (65, 1.47259064425378820000e+003) (66, 1.42366952309079080000e+003) (67, 2.18212764574404830000e+001) (68, 1.48404629942990660000e+003) (69, 1.41803518925229290000e+003) (70, -2.38054737559047570000e+001) (71, 3.86422774001404600000e+002) (72, 5.83802780513259380000e+000) (73, -1.49449587370527300000e+003) (74, 4.03230363306209370000e+002) (75, 2.16285470357155530000e-001) (65, 1.49999987999999530000e+003) (66, 6.79463956956792460000e+002) (67, 1.14935330141428890000e+000) (68, 2.37736482063362910000e+000) (69, 1.49999987999999530000e+003) (70, 1.23719180060783770000e+000) (71, 9.25595037917475740000e+001) (72, 1.41691685764252410000e+001) (73, -1.44045781875003010000e+003) (74, 9.04402402398282220000e+002) (75, 6.80522348101152970000e-001) (65, -1.88403916539620800000e-001) (66, 9.73151255456187890000e-002) (67, -7.17814889280742880000e-002) (68, -5.74570735136901570000e-002) (69, -2.38389324875731060000e-001) (70, -1.33066284140546690000e-001) (71, 1.93822420574212420000e-001) (72, 1.31839706454786000000e+000) (73, 5.57358635101366630000e-001) (74, 3.80575502838892520000e-001) (75, 5.19362073592496860000e-001) (76, 2.99199095582379340000e-001) (77, 2.44201878421940830000e-001) (78, 3.13337689855563540000e-001) (79, 5.28376797323642290000e-001) (80, -1.73892176605296850000e-001) (81, 2.12011443346377590000e-001) (82, 1.54307533064035690000e-001) (83, 1.71416289683045590000e-001) (84, 3.46937760185421330000e-001) (85, 4.04448364925462160000e-001) (86, 8.42287931330927140000e-002) (76, -6.86482841626629430000e-001) (77, -1.69339216336014510000e-001) (78, 3.97007400548198000000e-002) (79, -7.65485590038869070000e-001) (80, -3.10048258179354310000e-002) (81, -2.20300289032023280000e+000) (82, 1.17430474983829030000e-001) (83, -3.21423490002594040000e-002) (84, -2.69087590782752020000e-001) (85, 4.08228243181404220000e-001) (86, 7.63845464508120850000e-001) (76, 3.82410962309417510000e-001) (77, 9.75418734465916810000e-002) (78, 2.67857161918884760000e-001) (79, -4.21579681158880890000e-001) (80, 2.97774279448912770000e-001) (81, 5.79383239321425440000e-002) (82, -5.42204431488157510000e-002) (83, 8.87212075059706510000e-002) (84, 1.25987068466290320000e-001) (85, 3.92653764222593350000e-001) (86, -1.02098997739410710000e+000) (76, -2.12688419930791460000e+000) (77, 5.68252150619956930000e-001) (78, 1.91549127051120570000e-001) (79, 9.01915994937689260000e-001) (80, 6.27855913384192890000e-001) (81, -6.01669123195572660000e-002) (82, 5.91045752311194050000e-001) (83, 6.80963220844913790000e-001) (84, 7.29259252235792690000e-002) (85, 2.03613295987733310000e-001) (86, 3.84295262276538100000e-001) (76, -9.12334700262132370000e-002) (77, 6.14025268296353840000e-001) (78, 3.98729239425007760000e-001) (79, 8.46587691548843390000e-001) (80, -1.22605321697021650000e-001) (81, 6.11261559822454110000e-002) (82, 5.04685509136347910000e-001) (83, 6.09851528415243040000e-001) (84, 6.83054097839355450000e-001) (85, 4.43944907137722610000e-001) (86, 6.63538632346408610000e-002) (76, 9.53362381656726150000e-001) (77, -7.61235396930013520000e-001) (78, -4.31301878667666780000e-001) (79, 1.02733487108400980000e+000) (80, 1.18028543939277510000e+000) (81, 1.21662734912754520000e+000) (82, 3.24516765237687020000e-001) (83, 9.26613095528063400000e-002) (84, -5.49292106103368540000e-001) (85, 2.06177401031719270000e+000) (86, 1.58443293536515520000e+000) (76, 1.41194429665740690000e-001) (77, 6.55946790653623850000e-002) (78, 1.02218781109055790000e-001) (79, 3.25536728747574170000e-001) (80, 1.37479521013517210000e-001) (81, 1.15842319053294800000e-001) (82, 8.63071054593298890000e-002) (83, 1.33192398934069020000e-002) (84, 3.16406348616391550000e-001) (85, 1.88650400145398860000e-001) (86, 1.98546166790986970000e-001) (76, 1.04915164758750650000e-001) (77, -7.23031470498307180000e-001) (78, -3.89554335252492610000e-001) (79, -4.69830850730866890000e-001) (80, 5.55215597573765820000e-001) (81, 6.08800224488663110000e-001) (82, -2.65311745999323110000e-001) (83, -3.65954068548853650000e-001) (84, -4.59759368939130050000e-001) (85, 4.60847146909900470000e-001) (86, 6.87759544799615650000e-001) (76, 1.52097497244829380000e-001) (77, 1.50392559099983610000e-001) (78, 2.37950910240887380000e-001) (79, 2.73644957200586850000e-001) (80, -7.51539159513820580000e-002) (81, 2.93296766225326950000e-003) (82, 2.02558356512837710000e-001) (83, 1.88656475375596460000e-001) (84, 3.06473243440829880000e-001) (85, 2.01038887582143500000e-001) (86, 5.85652168379853650000e-002) (76, -2.88474094433823210000e-001) (77, 4.91560610757732500000e-001) (78, 3.80022010004585800000e-001) (79, 1.10182987705834990000e+000) (80, -7.90628030926533440000e-002) (81, 2.78748377562156200000e+000) (82, 3.87502263146396690000e-001) (83, 2.51334568382272190000e-001) (84, 1.14986915276407090000e+001) (85, 1.82612397521911700000e+001) (86, 2.92802685029674590000e+000) (87, 2.60450524306297610000e-001) (88, 4.21602009115004530000e-002) (89, 2.54474758796875700000e-001) (90, -1.23471870499500310000e-001) (91, 3.13940604537903180000e-001) (92, -7.96810360426164070000e-002) (93, 1.30706775844332150000e-002) (94, 5.78890041255697760000e-001) (95, 2.97477451117693080000e-001) (96, -6.27093086368132050000e-002) (97, 2.08009746902321820000e-001) (87, -1.89381167064534340000e-001) (88, 9.99459264717584560000e-002) (89, 6.85080248866500760000e-001) (90, 5.87964866042325010000e-001) (91, -1.62604451325514070000e-001) (92, -3.67862275648801960000e-002) (93, -6.81206951692729100000e-002) (94, 6.34118092867322790000e-001) (95, -6.69315854739491180000e-003) (96, 4.42535528239645480000e-001) (97, 5.60624817856264060000e-001) (87, 3.38407578845103250000e-001) (88, 1.13475952131639680000e-001) (89, 2.84732404460629860000e-001) (90, -3.10002509853469170000e-001) (91, 2.80610573883744880000e-001) (92, 7.98069179282560010000e-003) (93, 1.94871457987438710000e-001) (94, 3.40717767195983460000e-001) (95, 3.83468182128212650000e-001) (96, -3.28304779242428240000e-001) (97, 2.49948357308833360000e-001) (87, 2.77787760083232800000e-001) (88, 7.71683280528135950000e-002) (89, 2.45679296656847370000e-001) (90, -2.28452552897146640000e-001) (91, 3.57478928810318290000e-001) (92, 7.97486530957139220000e-003) (93, 1.03487062303558660000e-001) (94, 5.83252891241692880000e-001) (95, 3.31033085507216330000e-001) (96, -1.45486846651658670000e-001) (97, 2.16092511165033950000e-001) (87, 4.46844734443874620000e-001) (88, 6.98054375425758430000e-001) (89, 3.76786685015785720000e-001) (90, -4.01967788228334900000e-001) (91, 4.44769861754127470000e-001) (92, -2.74687970768777490000e-001) (93, 6.98630819914595080000e-001) (94, 5.72086550748330590000e-001) (95, 4.31321983905024740000e-001) (96, 7.67875785555912400000e-003) (97, 2.11104853841363790000e-001) (87, -1.83265270703327630000e-002) (88, -9.13018226001769130000e-002) (89, 4.67667238949594330000e-001) (90, 2.77113762642798130000e-001) (91, -2.30208891685728890000e-001) (92, 3.52986114228718210000e-002) (93, -1.49305784542083960000e-001) (94, 1.20630067997702080000e-001) (95, -4.11368483701396790000e-002) (96, 1.17730999727830200000e-001) (97, 4.07714983753235170000e-001) 
