FANN_FLO_2.1
num_layers=3
learning_rate=0.700000
connection_rate=1.000000
network_type=0
learning_momentum=0.000000
training_algorithm=2
train_error_function=1
train_stop_function=1
cascade_output_change_fraction=0.010000
quickprop_decay=-0.000100
quickprop_mu=1.750000
rprop_increase_factor=1.200000
rprop_decrease_factor=0.500000
rprop_delta_min=0.000000
rprop_delta_max=50.000000
rprop_delta_zero=0.100000
cascade_output_stagnation_epochs=12
cascade_candidate_change_fraction=0.010000
cascade_candidate_stagnation_epochs=12
cascade_max_out_epochs=150
cascade_min_out_epochs=50
cascade_max_cand_epochs=150
cascade_min_cand_epochs=50
cascade_num_candidate_groups=2
bit_fail_limit=1.00000001490116120000e-001
cascade_candidate_limit=1.00000000000000000000e+003
cascade_weight_multiplier=4.00000000000000020000e-001
cascade_activation_functions_count=10
cascade_activation_functions=3 5 7 8 10 11 14 15 16 17 
cascade_activation_steepnesses_count=4
cascade_activation_steepnesses=2.50000000000000000000e-001 5.00000000000000000000e-001 7.50000000000000000000e-001 1.00000000000000000000e+000 
layer_sizes=7 26 7 
scale_included=0
neurons (num_inputs, activation_function, activation_steepness)=(0, 0, 0.00000000000000000000e+000) (0, 0, 0.00000000000000000000e+000) (0, 0, 0.00000000000000000000e+000) (0, 0, 0.00000000000000000000e+000) (0, 0, 0.00000000000000000000e+000) (0, 0, 0.00000000000000000000e+000) (0, 0, 0.00000000000000000000e+000) (7, 5, 1.00000000000000000000e+000) (7, 5, 1.00000000000000000000e+000) (7, 5, 1.00000000000000000000e+000) (7, 5, 1.00000000000000000000e+000) (7, 5, 1.00000000000000000000e+000) (7, 5, 1.00000000000000000000e+000) (7, 5, 1.00000000000000000000e+000) (7, 5, 1.00000000000000000000e+000) (7, 5, 1.00000000000000000000e+000) (7, 5, 1.00000000000000000000e+000) (7, 5, 1.00000000000000000000e+000) (7, 5, 1.00000000000000000000e+000) (7, 5, 1.00000000000000000000e+000) (7, 5, 1.00000000000000000000e+000) (7, 5, 1.00000000000000000000e+000) (7, 5, 1.00000000000000000000e+000) (7, 5, 1.00000000000000000000e+000) (7, 5, 1.00000000000000000000e+000) (7, 5, 1.00000000000000000000e+000) (7, 5, 1.00000000000000000000e+000) (7, 5, 1.00000000000000000000e+000) (7, 5, 1.00000000000000000000e+000) (7, 5, 1.00000000000000000000e+000) (7, 5, 1.00000000000000000000e+000) (7, 5, 1.00000000000000000000e+000) (0, 5, 1.00000000000000000000e+000) (26, 0, 1.00000000000000000000e+000) (26, 0, 1.00000000000000000000e+000) (26, 0, 1.00000000000000000000e+000) (26, 0, 1.00000000000000000000e+000) (26, 0, 1.00000000000000000000e+000) (26, 0, 1.00000000000000000000e+000) (0, 0, 1.00000000000000000000e+000) 
connections (connected_to_neuron, weight)=(0, -1.49391033733927200000e-001) (1, -3.02865770189856390000e-001) (2, 1.69252896302822410000e+000) (3, 1.89964339188449180000e-001) (4, 9.55718985666573760000e-001) (5, -2.09080108889068590000e-002) (6, 5.16268853283069930000e-001) (0, 8.64726077164581770000e-002) (1, 2.51421468641391370000e-001) (2, -1.26490817875572090000e-001) (3, -3.64162911194227880000e-002) (4, 6.71726418479655360000e-002) (5, 8.96513821327463820000e-001) (6, 3.79422734417196090000e-001) (0, -2.07141836195378430000e+000) (1, 1.66908441975551920000e+000) (2, -5.91621205209967080000e-001) (3, 3.25809846766489180000e-002) (4, 1.76672882466304140000e-002) (5, 2.41093129762588560000e-002) (6, 1.06003394384320030000e+000) (0, 1.97415995473047860000e-001) (1, 6.71908096706281040000e-001) (2, 8.72848231796089840000e-001) (3, -9.06435383578863830000e-002) (4, 1.56707273893938260000e-001) (5, -6.82636831121537780000e-002) (6, 5.28622500737879860000e-001) (0, -8.65966364530191270000e-002) (1, -1.90008856784377010000e-001) (2, 2.07530323525601250000e-001) (3, -9.93171189719268270000e-002) (4, 1.37341335830922530000e-001) (5, -2.49648779431495940000e-001) (6, -6.66216641356557120000e-001) (0, 2.33670178941357030000e-001) (1, 1.15293802572257610000e+000) (2, -1.09292964444514570000e+000) (3, 1.87948994838678750000e-003) (4, -1.08466169173855640000e-001) (5, -1.69888866400579650000e-003) (6, 4.77612805393505760000e-001) (0, -8.65503606872538910000e-001) (1, -4.78643813173395900000e-002) (2, -2.04830839478297300000e+000) (3, -2.01013215216922480000e-001) (4, 2.45964669325038080000e-002) (5, 1.65253876983220890000e+000) (6, 1.68050292522941150000e+000) (0, -1.80544732360290760000e+000) (1, 1.32274263738895080000e+000) (2, 2.16085315267220380000e-001) (3, -9.99381943070592330000e-002) (4, -4.96206817135505170000e-002) (5, -5.05323871382589230000e-002) (6, -1.16543996642681950000e-001) (0, 1.50710996715076010000e-001) (1, 6.71689463685601450000e-001) (2, 6.78026627756461160000e-002) (3, 2.12278120803249950000e-001) (4, 8.14149452186040730000e-001) (5, -2.70400746172221140000e-002) (6, 6.35877219091889880000e-001) (0, 6.51733337744018430000e-001) (1, 9.86175098712092190000e-001) (2, 7.59086502357923630000e-001) (3, 4.87288250611466740000e-001) (4, -6.64533922215803320000e-001) (5, 3.73613743232689700000e-001) (6, 2.09002776493000950000e-001) (0, -8.74540897424818530000e-002) (1, -4.53365167346449550000e-001) (2, -1.96441119385778820000e+000) (3, -1.47672758625089500000e-001) (4, 4.62362324078876840000e-001) (5, 5.82077158096796010000e-002) (6, 4.51661815361344070000e-002) (0, 7.51031223383537450000e-001) (1, -3.53126177259109610000e-001) (2, -4.14350730020286160000e-001) (3, 7.08383971145030570000e-002) (4, 1.09682320242015060000e-001) (5, 1.85045258743542330000e-001) (6, 2.37939588850728860000e-001) (0, 3.55003959668847620000e-001) (1, -1.41552116270728080000e-002) (2, -3.20874893577846600000e-001) (3, -6.24753911438559900000e-003) (4, -3.00729207770989600000e-001) (5, -5.63321996750845990000e-002) (6, -4.28600881535489200000e-001) (0, 8.11151659166831910000e-002) (1, -2.75015268985019020000e+000) (2, -6.78011026332075330000e-001) (3, -5.55952236051280440000e-002) (4, 1.86813938028683210000e-001) (5, 3.94173201081616520000e-002) (6, 7.54009916558412320000e-001) (0, 9.78605905265393650000e-002) (1, 8.79580579463938080000e-001) (2, 3.77524868556452460000e+000) (3, 3.56225139860789980000e-002) (4, -1.47074744746743090000e-001) (5, -1.02866046964136580000e-001) (6, -4.56906441153197510000e-001) (0, 3.78535420510757000000e-001) (1, 8.11192689876976570000e-001) (2, -1.40803534716749050000e+000) (3, -1.93175109410212290000e-002) (4, -7.16119516256529670000e-002) (5, -9.19422488266691600000e-001) (6, 1.38590324470707250000e+000) (0, 2.49604623720957930000e-001) (1, 8.55259999684561900000e-001) (2, -3.57403554933627850000e-001) (3, 6.99207088034256570000e-002) (4, -2.23590184768298090000e-001) (5, 1.39134989976262110000e-001) (6, -1.60658358160928020000e-001) (0, 2.37466173169445520000e-001) (1, 2.82182626679920450000e-001) (2, 2.56792061251920330000e-001) (3, 6.79821363973712460000e-002) (4, -7.91429306875110830000e-003) (5, -1.68135792983286600000e-001) (6, 1.16559310029389180000e-002) (0, -1.83512499910863340000e+000) (1, -1.43341798734231780000e+000) (2, 6.56302183559299700000e-001) (3, 5.87011136217239550000e-004) (4, 6.74787675173990210000e-002) (5, -1.92295680897299590000e-002) (6, 6.36903398252632980000e-001) (0, -1.59058643814308900000e+000) (1, -1.17374398151080750000e+000) (2, -9.05040459386503020000e-001) (3, -7.06071136541683630000e-001) (4, -6.31824863090791890000e-002) (5, 9.72477626973500600000e-001) (6, -2.05053972818318530000e-001) (0, -8.65712627798923880000e-001) (1, 4.26567906119602660000e-001) (2, -1.92575372401324110000e-001) (3, 7.26045023994274920000e-002) (4, -8.31035176205036430000e-003) (5, 5.72583873979851040000e-002) (6, 4.31257536033683770000e-001) (0, 1.76508102333367870000e+000) (1, 9.82015160134220410000e-001) (2, 3.47034695341443320000e-001) (3, 9.48267575028891920000e-001) (4, -3.87306974096419730000e-001) (5, 9.84854822950545720000e-001) (6, 1.83958786491601160000e-001) (0, 7.56392950011993410000e-002) (1, 5.26811997974740990000e-002) (2, 1.71280414483302380000e-002) (3, -1.43802536313178300000e-001) (4, -7.50511971174818850000e-002) (5, 1.96395115230205280000e-002) (6, -6.63912528030727090000e-001) (0, -1.35163162087186310000e+000) (1, 3.61352218753751840000e-001) (2, 4.16299515697596160000e-001) (3, -7.59086422105750840000e-001) (4, -1.08721132160936710000e-001) (5, -1.10740748740128960000e+000) (6, 2.12874027468505310000e-001) (0, 2.33041770933038040000e+000) (1, 2.21095041427104010000e-001) (2, 1.35460486888555390000e-001) (3, 1.09572046412457550000e+000) (4, 2.92914912937945250000e-001) (5, 1.02395584337249320000e-001) (6, -3.63489964135906700000e-002) (7, -1.00018207949221770000e-001) (8, 4.39036796533269820000e-001) (9, -1.07425226266886350000e+000) (10, -3.51771021584319610000e-001) (11, 6.05918373761837660000e-001) (12, 3.98066618922322480000e-001) (13, -1.04172919828945960000e-001) (14, 1.14017429933314920000e+000) (15, 6.85416552958516970000e-002) (16, -4.70922514791604000000e-002) (17, 1.68391900874383850000e-001) (18, 1.26917788711104750000e+000) (19, 2.96154491454682920000e-001) (20, 1.33304386641577120000e-001) (21, 1.44068179736447670000e-001) (22, -4.38516087827445150000e-002) (23, 5.56263204180077800000e-001) (24, 1.91961249122202270000e+000) (25, 1.12336748707711820000e+000) (26, 1.89078917911659820000e-001) (27, 3.57858720754878400000e-001) (28, -4.01966592259504000000e-002) (29, 1.83976008176126750000e-001) (30, 1.63334858906466980000e-001) (31, 9.04660540020668920000e-002) (32, 4.55012426216575230000e-001) (7, 1.55731783005765430000e-001) (8, -1.49635541710836200000e+000) (9, 4.63792621338740440000e-001) (10, -2.19565406913338900000e-001) (11, 8.13835601192141710000e-001) (12, -4.16541803790854200000e-001) (13, 6.94704366245965880000e-001) (14, 7.79982360532001650000e-001) (15, -6.51490113713152350000e-001) (16, -4.81447618087791130000e-001) (17, 7.29117020227443510000e-001) (18, 3.70288694111890800000e+000) (19, 1.04986912708477000000e+000) (20, 2.11801359615139320000e-001) (21, 1.64208690860215030000e+000) (22, -6.62894062432745850000e-001) (23, 1.60620438299186040000e-001) (24, -6.26437544552708950000e-001) (25, 7.19434019915939360000e-001) (26, -6.34537131332642450000e-001) (27, 2.28140167119396140000e-001) (28, 8.10326212732515700000e-001) (29, 7.10962511076562940000e-001) (30, 8.75984102530262600000e-001) (31, -5.52104071642764910000e-002) (32, 3.12089921916623160000e-001) (7, 1.39652793591676590000e-001) (8, 3.02912891932991700000e-001) (9, 1.59326738766214730000e+000) (10, -2.25402334209715670000e-001) (11, 2.78238281744107850000e+000) (12, 2.57035230673043280000e+000) (13, 5.27250449681228580000e-001) (14, -4.50889070749069700000e-001) (15, -2.44051923585598800000e-001) (16, -3.50897138446206460000e-001) (17, 5.11119186609896970000e-001) (18, 2.14512607852824380000e+000) (19, 1.73129893308173010000e+000) (20, 1.12923850559459350000e+000) (21, 9.76373035494605750000e-001) (22, -9.88970631747433600000e-001) (23, 7.02416885680511300000e-002) (24, 2.64249980715306210000e+000) (25, 1.86519140370485270000e+000) (26, -3.31727008964267160000e-001) (27, -2.67531651898257370000e-002) (28, 8.08461223737603320000e-001) (29, 1.25475778962412620000e+000) (30, 7.58944017514282750000e-001) (31, -5.00949861805436570000e-002) (32, -2.28681564353207990000e-001) (7, -3.65367976381317030000e-002) (8, 9.71504236893832450000e-003) (9, -2.00135669338364990000e-001) (10, 4.89671544804825780000e-001) (11, 6.65993648843905880000e-001) (12, 4.77582014541163900000e-002) (13, 6.74601455591573860000e-002) (14, -5.94743290408971230000e-001) (15, 2.05292364014083540000e-001) (16, 2.96844434168330950000e-001) (17, 7.27481855779290730000e-002) (18, -4.22027072448984060000e-002) (19, 2.14948856980975770000e-001) (20, -7.94795171657402060000e-003) (21, 5.31430672193874960000e-002) (22, -2.84553465950045970000e-002) (23, 3.19252051014797810000e-001) (24, 8.50137254944734330000e-002) (25, 1.88657888827436140000e-001) (26, 6.70760988678979620000e-002) (27, 1.09825901997294980000e+000) (28, -1.70372493315886410000e-001) (29, 6.33024817580467910000e-001) (30, 6.09911798082220930000e-002) (31, -4.77640916577583810000e-003) (32, 5.83580853601033560000e-003) (7, 8.73713992726476810000e-003) (8, 6.60423463021479030000e-001) (9, 8.76545156827994390000e-001) (10, 1.00182487346863210000e-001) (11, 6.72396648506594750000e-001) (12, -9.62495755906943920000e-001) (13, -7.27517394940079170000e-001) (14, 2.75941400228206680000e-001) (15, 8.17475748310231180000e-001) (16, 1.19198315446238220000e+000) (17, 8.93801316992247850000e-001) (18, 1.04742018032285330000e+000) (19, 1.35965853490428000000e+000) (20, 5.23802493395318810000e-001) (21, 8.95669501744766230000e-001) (22, 1.31395950575532480000e+000) (23, 1.79665424429029510000e+000) (24, 2.98091898623368710000e-001) (25, 9.53923270540356310000e-001) (26, 6.22860905220578690000e-001) (27, -7.22631344727948540000e-001) (28, -1.14682579883179200000e+000) (29, 1.29061946940570740000e+000) (30, -9.07140535018985730000e-001) (31, 4.19609513610006490000e-002) (32, 3.50252070869548350000e-001) (7, 1.31698424829941450000e+000) (8, 1.90943894020442760000e-002) (9, -3.29686929301697820000e-002) (10, 1.26244525580254100000e+000) (11, -6.88570148733193550000e-002) (12, -1.50983674430803020000e-001) (13, 1.66048862478308770000e-002) (14, 8.90455469788050120000e-002) (15, -1.24379630059634480000e+000) (16, 5.10788087850521720000e-002) (17, 1.26985528676492130000e+000) (18, -8.32681510185544700000e-001) (19, 6.49999984901707410000e-001) (20, 2.62523645958737620000e-001) (21, 8.38218290955638350000e-002) (22, -3.97128106107179570000e-002) (23, 8.24827159112794690000e-001) (24, 1.45469450750416590000e-001) (25, 9.09198593509400430000e-003) (26, -5.10030300992122130000e-002) (27, 2.75621205899022840000e-001) (28, 4.68276753882556770000e-002) (29, 6.76461564058089990000e-001) (30, 4.76797267001230550000e-002) (31, 4.94156029384011430000e-001) (32, 1.70519395175190800000e-001) 
