FANN_FLO_2.1
num_layers=6
learning_rate=0.700000
connection_rate=1.000000
network_type=0
learning_momentum=0.000000
training_algorithm=2
train_error_function=1
train_stop_function=1
cascade_output_change_fraction=0.010000
quickprop_decay=-0.000100
quickprop_mu=1.750000
rprop_increase_factor=1.200000
rprop_decrease_factor=0.500000
rprop_delta_min=0.000000
rprop_delta_max=50.000000
rprop_delta_zero=0.100000
cascade_output_stagnation_epochs=12
cascade_candidate_change_fraction=0.010000
cascade_candidate_stagnation_epochs=12
cascade_max_out_epochs=150
cascade_min_out_epochs=50
cascade_max_cand_epochs=150
cascade_min_cand_epochs=50
cascade_num_candidate_groups=2
bit_fail_limit=1.00000001490116120000e-001
cascade_candidate_limit=1.00000000000000000000e+003
cascade_weight_multiplier=4.00000000000000020000e-001
cascade_activation_functions_count=10
cascade_activation_functions=3 5 7 8 10 11 14 15 16 17 
cascade_activation_steepnesses_count=4
cascade_activation_steepnesses=2.50000000000000000000e-001 5.00000000000000000000e-001 7.50000000000000000000e-001 1.00000000000000000000e+000 
layer_sizes=10 11 11 11 11 7 
scale_included=0
neurons (num_inputs, activation_function, activation_steepness)=(0, 0, 0.00000000000000000000e+000) (0, 0, 0.00000000000000000000e+000) (0, 0, 0.00000000000000000000e+000) (0, 0, 0.00000000000000000000e+000) (0, 0, 0.00000000000000000000e+000) (0, 0, 0.00000000000000000000e+000) (0, 0, 0.00000000000000000000e+000) (0, 0, 0.00000000000000000000e+000) (0, 0, 0.00000000000000000000e+000) (0, 0, 0.00000000000000000000e+000) (10, 5, 1.00000000000000000000e+000) (10, 5, 1.00000000000000000000e+000) (10, 5, 1.00000000000000000000e+000) (10, 5, 1.00000000000000000000e+000) (10, 5, 1.00000000000000000000e+000) (10, 5, 1.00000000000000000000e+000) (10, 5, 1.00000000000000000000e+000) (10, 5, 1.00000000000000000000e+000) (10, 5, 1.00000000000000000000e+000) (10, 5, 1.00000000000000000000e+000) (0, 5, 1.00000000000000000000e+000) (11, 5, 1.00000000000000000000e+000) (11, 5, 1.00000000000000000000e+000) (11, 5, 1.00000000000000000000e+000) (11, 5, 1.00000000000000000000e+000) (11, 5, 1.00000000000000000000e+000) (11, 5, 1.00000000000000000000e+000) (11, 5, 1.00000000000000000000e+000) (11, 5, 1.00000000000000000000e+000) (11, 5, 1.00000000000000000000e+000) (11, 5, 1.00000000000000000000e+000) (0, 5, 1.00000000000000000000e+000) (11, 5, 1.00000000000000000000e+000) (11, 5, 1.00000000000000000000e+000) (11, 5, 1.00000000000000000000e+000) (11, 5, 1.00000000000000000000e+000) (11, 5, 1.00000000000000000000e+000) (11, 5, 1.00000000000000000000e+000) (11, 5, 1.00000000000000000000e+000) (11, 5, 1.00000000000000000000e+000) (11, 5, 1.00000000000000000000e+000) (11, 5, 1.00000000000000000000e+000) (0, 5, 1.00000000000000000000e+000) (11, 5, 1.00000000000000000000e+000) (11, 5, 1.00000000000000000000e+000) (11, 5, 1.00000000000000000000e+000) (11, 5, 1.00000000000000000000e+000) (11, 5, 1.00000000000000000000e+000) (11, 5, 1.00000000000000000000e+000) (11, 5, 1.00000000000000000000e+000) (11, 5, 1.00000000000000000000e+000) (11, 5, 1.00000000000000000000e+000) (11, 5, 1.00000000000000000000e+000) (0, 5, 1.00000000000000000000e+000) (11, 0, 1.00000000000000000000e+000) (11, 0, 1.00000000000000000000e+000) (11, 0, 1.00000000000000000000e+000) (11, 0, 1.00000000000000000000e+000) (11, 0, 1.00000000000000000000e+000) (11, 0, 1.00000000000000000000e+000) (0, 0, 1.00000000000000000000e+000) 
connections (connected_to_neuron, weight)=(0, 2.74124614194361760000e+000) (1, -2.94141638744158570000e+000) (2, -1.83464956883381130000e-001) (3, -1.02339197296850500000e-003) (4, -1.57956292090929270000e-003) (5, -1.68873370310351070000e-003) (6, -7.47600943488776590000e-001) (7, 6.24660034879171990000e-001) (8, 1.10387530890049850000e-001) (9, -5.12403564576067380000e-002) (0, 2.52975636373396760000e-001) (1, 2.87606272370540990000e+000) (2, 1.15355102167357160000e+000) (3, -3.04046079053928750000e-004) (4, 4.26678171296299930000e-003) (5, 4.25455511635589990000e-003) (6, -1.52817593833644520000e-002) (7, -6.38004237042951170000e-001) (8, -2.41437779107555090000e-001) (9, -7.29403270674871870000e-001) (0, 2.22341028704104090000e-002) (1, 2.74211053695510020000e+000) (2, -1.36421038704434090000e+000) (3, -2.53153795633259250000e-003) (4, -1.82189815546945890000e-003) (5, -6.26482457951877800000e-003) (6, -8.73389653035772790000e-002) (7, -5.16675761312404890000e-001) (8, 3.12071046037097730000e-001) (9, 6.84229982270890600000e-001) (0, 5.13938179500361470000e-001) (1, 1.00776583956735450000e+000) (2, -1.65200668370684390000e-001) (3, 1.01816565685635830000e-003) (4, 1.06579307071997670000e-002) (5, 7.06569412434279730000e-003) (6, 1.48036842997125220000e-001) (7, 1.33345563395848380000e-001) (8, 2.12480792397637830000e-003) (9, -2.19200496847627740000e-001) (0, -1.64875226507024990000e-001) (1, 1.31518796356613850000e+000) (2, -2.19407969402903720000e-001) (3, -3.79752028746578900000e-003) (4, 1.19160182367538470000e-003) (5, -3.62813905358601870000e-003) (6, -6.60160973385743870000e-002) (7, -1.23564086668277490000e-001) (8, -1.82583355446861080000e-001) (9, 8.13984121095340460000e-001) (0, -1.72454511019879360000e+000) (1, 2.48211600774643370000e+000) (2, -7.72746953577824190000e-001) (3, 5.01674213553984180000e-003) (4, -6.54112297494373850000e-004) (5, 1.15697630853012730000e-002) (6, 3.23585302011390190000e-001) (7, -7.09581376151766860000e-001) (8, 1.67140174806945980000e-001) (9, 9.80998834095495600000e-001) (0, 1.30936832375712630000e+000) (1, -3.15652280426627070000e-001) (2, 9.00718706256073310000e-001) (3, -7.26747536537415520000e-003) (4, -1.08510238485174980000e-003) (5, 8.44677418126722760000e-003) (6, 3.17966871198721190000e-001) (7, -1.07306602926513840000e-001) (8, -2.63151943029308440000e-001) (9, 7.05368070514864390000e-001) (0, -6.24890248712850150000e-001) (1, -6.16492693710102850000e-001) (2, -1.80529054316886130000e+000) (3, 4.14553701340558780000e-003) (4, -1.47249993039905480000e-003) (5, -2.06847029898497540000e-003) (6, 1.86898310383346730000e-001) (7, 1.58451348947358520000e-001) (8, 4.81485934883224500000e-001) (9, -1.47958546374578140000e-001) (0, 1.06232488104873500000e-001) (1, 1.40812192523149400000e+000) (2, 4.85893331998258390000e+000) (3, -5.11098105379794580000e-003) (4, 1.76871205947297380000e-002) (5, 2.89551147823669670000e-002) (6, -6.43828243307806720000e-002) (7, -1.43363794569285140000e-001) (8, -6.83142357556494330000e-001) (9, -5.76455546774382270000e-001) (0, 1.60958677095536880000e+000) (1, -5.96238320735529740000e-001) (2, -1.27816087013821360000e-001) (3, -2.91237122307677450000e-003) (4, -8.87289532474010180000e-004) (5, -7.16053983030956460000e-004) (6, -2.92225480723494050000e-002) (7, 4.73512638931482820000e-002) (8, -2.72811362427679420000e-002) (9, 6.72881463398767420000e-001) (10, 8.84154843076885190000e-001) (11, 9.33536441443503230000e-001) (12, 1.02066743368728100000e+000) (13, 1.76329862989262180000e-001) (14, 7.41662468206624180000e-002) (15, 4.82174577173260620000e-001) (16, -4.45092774718643880000e-002) (17, 1.28603075943703180000e-002) (18, -1.66295843014317550000e-001) (19, 7.81225302277489650000e-001) (20, 1.29481003765729550000e-001) (10, -4.77595717063028360000e-002) (11, 2.89349476730456810000e-002) (12, -2.90863214543282070000e-001) (13, -4.39327456317983640000e-001) (14, -3.48688651024532950000e-002) (15, 7.23106804037164100000e-002) (16, -2.52895390729240000000e-001) (17, 5.68182765030472270000e-001) (18, -3.73540596780767010000e-001) (19, 4.59624076418158110000e-001) (20, 4.67542193117351680000e-001) (10, 3.94543066771176120000e-001) (11, -4.99791204048632980000e-003) (12, 9.14979086971581530000e-002) (13, 5.47039304657945920000e-001) (14, -2.71440881831030380000e-001) (15, 2.61236591586258120000e-001) (16, -2.80453485940786900000e-001) (17, 1.43621517713348360000e-001) (18, -3.23631578032328620000e-001) (19, -1.27011965744641660000e-001) (20, 8.84297038103809880000e-001) (10, -5.97557849583504110000e-001) (11, -9.68614316696757240000e-001) (12, 1.12907282926173680000e-002) (13, -2.67992637143700080000e-002) (14, 1.19141658845936360000e-001) (15, 1.09434181920394540000e-001) (16, -4.99828683423827520000e-001) (17, 1.88407230248645250000e-001) (18, 3.04209401749032160000e-001) (19, -2.15451789629686390000e-001) (20, 3.38858546814943540000e-001) (10, 5.75466488348584270000e-001) (11, 4.48866935297820680000e-001) (12, -5.26005223125403170000e-002) (13, 4.93733464004376620000e-001) (14, 9.72940811515326410000e-001) (15, 2.89435311039120570000e-001) (16, 3.45879266523578420000e-001) (17, 9.93128048611962470000e-001) (18, 3.88335685302453380000e-001) (19, 4.29212181690515550000e-002) (20, 8.98789471243933990000e-002) (10, -3.41425752592727120000e-001) (11, 8.51142536869295800000e+000) (12, 6.88015333119338110000e+000) (13, 1.12422804249478950000e+000) (14, 8.38561795171807070000e-001) (15, 1.76503303884392610000e+000) (16, 4.33020643808993520000e-001) (17, 1.49597872588478060000e-001) (18, -4.47651163794064790000e-002) (19, -1.29357721280195430000e-001) (20, 4.01840389984758290000e-001) (10, 6.52312957519327390000e-001) (11, 5.23527035679947520000e-001) (12, 4.92003440960889160000e-001) (13, -1.08607029811562530000e-001) (14, 1.27040564461424980000e-001) (15, -3.38597571114133410000e-001) (16, -1.10374432925352750000e-001) (17, 1.07582536059736000000e+000) (18, -7.65109293611022920000e-003) (19, -4.30565769367115990000e-001) (20, 1.53448951184219560000e-001) (10, 2.96822501121308700000e-001) (11, -3.42997658075660460000e-001) (12, 7.56765626822669540000e-002) (13, 8.09839281969523820000e-002) (14, -1.62459400244243480000e-002) (15, -1.36510016835042240000e-001) (16, -5.87855420508231590000e-001) (17, -2.09637838872384960000e-001) (18, 2.36657949272366520000e-001) (19, 3.31342555047349110000e-001) (20, 2.77980550919381290000e-001) (10, 3.91253525437578580000e-001) (11, -7.02062172830619340000e-001) (12, -1.80145162624994000000e-001) (13, 5.18061367386294710000e-001) (14, -2.70722725844410870000e-001) (15, 1.00061450324074430000e+000) (16, 2.62095958624381900000e-001) (17, 4.16851562609674870000e-001) (18, 2.12627417542448240000e-001) (19, 3.25892122715985220000e-001) (20, 2.29742659881715440000e-001) (10, 1.26377971428718560000e+000) (11, 1.38111291100862200000e+000) (12, 1.52375814695273680000e+000) (13, -2.39627082114882620000e-001) (14, 1.52507767887703650000e-001) (15, 1.05126554496522220000e+000) (16, 4.14560988950051610000e-001) (17, 3.77356473668358440000e-002) (18, 2.92405844128702190000e-001) (19, 6.27108989797682150000e-001) (20, 1.52723359516194150000e-001) (21, -5.39859740690514680000e-001) (22, 6.33300412921993240000e-001) (23, -4.40296946464012630000e-001) (24, 7.64335845562615690000e-001) (25, 9.23568916725293340000e-002) (26, 1.94940797863676570000e-001) (27, 8.83737729556465120000e-001) (28, -4.54904351169588770000e-001) (29, -4.07038472843803680000e-002) (30, 4.88668072303157450000e-001) (31, 2.73819160800834850000e-001) (21, 6.47953494109037710000e-002) (22, 7.34035012656759740000e-001) (23, -3.54324728974998620000e-001) (24, -3.05363949353035900000e-001) (25, 7.36294454185686400000e-001) (26, 1.23234685044941130000e-001) (27, 7.27901667205936960000e-001) (28, -1.35887702076254890000e-001) (29, -1.62289457633062710000e-001) (30, 1.90563154555771250000e-001) (31, 2.81975112305451360000e-001) (21, -6.13431042314415630000e-002) (22, 2.65689714595474140000e-001) (23, -1.18856154499790410000e+000) (24, 7.20461109123876840000e-001) (25, 6.02732806381595210000e-001) (26, -2.85697437562933530000e-001) (27, 5.02207194985116680000e-001) (28, 4.26350483729691710000e-002) (29, 5.36073598103176230000e-001) (30, -6.36998870997365410000e-001) (31, 2.41101287754957460000e-001) (21, 6.76402772780453910000e-001) (22, 1.11639937043196100000e+000) (23, -3.79991788376316700000e-001) (24, -1.43796530038951460000e-001) (25, -1.00441643278737780000e-002) (26, -5.97113259855080680000e-001) (27, 1.77203019095522990000e-002) (28, 2.62996529010435130000e-001) (29, 5.22344415683788750000e-001) (30, 2.19596430168375680000e-001) (31, -1.72664098593935860000e-001) (21, 3.12760202889436400000e-001) (22, -4.85268750063167550000e-001) (23, 1.74175705381594530000e+000) (24, -7.37028193595833820000e-001) (25, 7.14087447615522790000e-001) (26, 4.79337417832284730000e-001) (27, 5.39878976845978630000e-001) (28, 1.35128337422691790000e+000) (29, 1.89240247169884550000e-001) (30, 2.60521150789191860000e-001) (31, -1.56823660436989250000e-001) (21, -2.51761514300957940000e-001) (22, 8.91989187132214980000e-002) (23, -1.01780636248499200000e+000) (24, 1.73130954038543090000e-001) (25, 5.86793715401640710000e-001) (26, 5.04103451728495290000e-002) (27, 5.79189976288202240000e-001) (28, -1.29184062621948180000e-001) (29, 8.38103512290260810000e-002) (30, -3.45084767278556530000e-001) (31, 2.05010570852264820000e-001) (21, 4.11523109335746100000e-001) (22, -1.65841324528062470000e-001) (23, -1.15005410716796440000e+000) (24, 3.79856148737235460000e-002) (25, 1.43513476803938080000e-001) (26, 8.30081807141297760000e-001) (27, 1.99436339825521110000e-001) (28, 2.71219098538676260000e-001) (29, 1.22071235910736850000e-001) (30, 1.66048423028620470000e-001) (31, -4.40125165536523700000e-001) (21, 3.68448060165326160000e-001) (22, -1.63630761820875210000e-001) (23, 5.64270546591980960000e-002) (24, 1.59334124434158090000e+000) (25, 5.77734011183270170000e-001) (26, 2.71175853514634730000e-003) (27, 1.14016430331702250000e-002) (28, -2.59616986258312870000e-001) (29, -1.66262078867150470000e-001) (30, 5.32176646984767190000e-001) (31, -1.54565738500609150000e-001) (21, -8.85755337023718110000e-002) (22, 1.08254342482372810000e-001) (23, -3.95586083763078130000e-001) (24, 2.26008465287545950000e-001) (25, 5.25033938615871550000e-001) (26, -1.97217661704918250000e-001) (27, 3.42686035437348050000e-001) (28, 2.75324861752068610000e-001) (29, -4.01469526707829370000e-001) (30, -1.80606188066303950000e-002) (31, 6.04263748565549320000e-001) (21, 9.55992100851601910000e-001) (22, 1.01409855623799670000e+000) (23, 3.35215812843116870000e-002) (24, 3.77927475615426390000e-001) (25, -4.18281497843261200000e-002) (26, 9.64822268279288960000e-002) (27, 2.11925394548330900000e-001) (28, 1.87150913292270690000e+000) (29, -5.09674849679296990000e-001) (30, 3.27724731191945780000e-001) (31, -1.95331277812467700000e-001) (32, 1.61988212338998890000e+000) (33, 1.50118045645365960000e-001) (34, 1.40212665212773340000e-001) (35, 1.66823929189836850000e-001) (36, -2.53101833430213370000e-002) (37, 3.73352731774198530000e-001) (38, 7.84548886931766830000e-001) (39, 2.46481284187832470000e-001) (40, 1.84011870064072770000e-001) (41, -1.44076184490407100000e-001) (42, 2.30620075345980870000e-002) (32, 8.52667208971907840000e-001) (33, -3.54006355857912350000e-001) (34, 5.06415968634130410000e-001) (35, -5.15275611021507870000e-001) (36, 4.92377981928539150000e-001) (37, 9.62478990204697520000e-001) (38, -1.65625367629163800000e+000) (39, 9.30637862927111930000e-001) (40, 1.48074837865547370000e-001) (41, -6.28361617409228690000e-001) (42, 5.92923752039088150000e-002) (32, -6.48930745700129100000e-001) (33, -4.35266358899830060000e-001) (34, 5.53324959938598650000e-001) (35, 3.54100674154588010000e-001) (36, -3.00617088529383960000e-001) (37, 8.14208163700797740000e-001) (38, 4.72796482985000990000e-001) (39, 1.01314113416927270000e+000) (40, -2.89093942396180190000e-001) (41, 1.07571633002527940000e+000) (42, 8.85689082519566930000e-002) (32, 2.44231537810518030000e+000) (33, -1.25409957832765180000e-001) (34, -3.19993519738431710000e-001) (35, -1.62393390961632390000e+000) (36, 2.29598833411687710000e-001) (37, 1.63352475129651810000e-001) (38, 1.20005800953056440000e+000) (39, 1.17568163456497050000e-002) (40, -2.34758798864355530000e+000) (41, -1.22130087601951100000e-001) (42, -3.06609867982915290000e-001) (32, 4.39243379748170570000e-001) (33, 1.22944235820891110000e+000) (34, 3.11000176163704730000e-001) (35, -3.58454025720257860000e-001) (36, -2.78668112963720680000e-001) (37, 1.11391755342521260000e+000) (38, -4.99707895862643890000e-004) (39, 1.11109028450273640000e-001) (40, 7.73049104418048750000e-001) (41, 4.05977109883306040000e-001) (42, 2.84374890598681820000e-001) (32, 8.74544177824317370000e-001) (33, -1.92512172120047880000e+000) (34, 4.44336830094575590000e-001) (35, 1.04933618153617170000e+000) (36, -3.14822205779060950000e-001) (37, -3.45279937549884260000e-002) (38, -2.37865059366043050000e+000) (39, 6.01932160190483680000e-001) (40, 2.30264742928538490000e+000) (41, -8.66473809905523140000e-001) (42, 6.34569409270904220000e-001) (32, 1.08927696711261550000e+000) (33, 2.45386683651013020000e+000) (34, 3.37669311032961990000e-001) (35, -8.68377529574624880000e-001) (36, 7.29909143872611020000e-002) (37, -1.23656498698730410000e+000) (38, -7.19521661215703270000e-001) (39, 3.31793293334873230000e-001) (40, -3.28174790114867050000e-001) (41, -2.80188285504970940000e-001) (42, -1.12489870824751790000e-001) (32, -5.24805957555945500000e-001) (33, -6.00494134073679820000e-002) (34, 3.26898695151184800000e-001) (35, 3.08337189548461340000e-001) (36, 4.94938396350637420000e-002) (37, 3.18449107120055420000e-001) (38, 1.91083978717393880000e-001) (39, 1.81219255582802050000e-001) (40, 2.09942602461118230000e-002) (41, 5.68244285239996390000e-002) (42, -4.06000336489424490000e-002) (32, -1.67633174045405610000e+000) (33, 4.47389730339616820000e-001) (34, 5.24753625396906300000e-002) (35, -2.70619768967399700000e-001) (36, 6.57465715113942920000e-001) (37, 2.29596876889448350000e-001) (38, -9.74249070158336620000e-001) (39, 8.38255303678684390000e-002) (40, 1.60231319801595330000e+000) (41, -3.32515169354132890000e-001) (42, 1.10864308317247980000e+000) (32, -8.95999323225481260000e-001) (33, 1.11270067867296870000e+000) (34, 3.11098075224402140000e-001) (35, 1.34973256102655540000e+000) (36, 2.84913118443319850000e-001) (37, 1.58308674762139010000e+000) (38, 6.17893335708187390000e-001) (39, -1.51786508267848060000e-001) (40, -7.20035800109177560000e-001) (41, -4.72324239355448710000e-001) (42, -2.68933314940180860000e-001) (43, -5.53280602571918580000e-001) (44, -6.24261531281353640000e-001) (45, 1.05998235031071860000e-001) (46, 1.39949081887084840000e+000) (47, 7.68846597112702450000e-002) (48, 1.10547480871265620000e+000) (49, 4.31209705238648210000e-001) (50, 1.23544115098755960000e+000) (51, 4.77699730691870160000e-001) (52, 1.90496237499854640000e-001) (53, -1.62591595708112020000e-001) (43, 5.96963221564690060000e-001) (44, -1.78722167062971420000e-001) (45, 2.61534381501218830000e-001) (46, 2.13588909893116020000e-001) (47, -2.24913792245322900000e-001) (48, 4.37625530254346360000e-002) (49, -1.13320045252550550000e+000) (50, 9.88300426357816450000e-001) (51, 5.98550964662077360000e-002) (52, -1.60337553356662800000e-001) (53, -1.78567140140469120000e-001) (43, 6.17225539246340600000e-001) (44, 2.76409532532068740000e-001) (45, 1.48079330703496480000e+000) (46, -1.72209193361887450000e-002) (47, -1.06748108485590910000e+000) (48, -5.45320425438262300000e-002) (49, 4.37907008384622820000e-001) (50, 1.12235945536572080000e+000) (51, -1.18604251912998140000e-001) (52, 2.62241643020214780000e-002) (53, -6.43364183808190710000e-001) (43, 9.70303564971432890000e-001) (44, 6.32521827909413360000e-001) (45, -2.19012731949717900000e-001) (46, 3.27367105309544050000e-001) (47, -1.28652643468739790000e+000) (48, 9.13888027114818060000e-003) (49, 5.14511739676716540000e-002) (50, 5.40440527805849720000e-001) (51, 7.13798073993897280000e-001) (52, 1.44487092444259100000e+000) (53, 5.14745282756362670000e-001) (43, 4.77876182604049960000e-001) (44, -4.17623101560379500000e-002) (45, -7.05745469544021730000e-001) (46, 7.85217789749796810000e-002) (47, 1.30662483779357900000e+000) (48, 1.64910321201208490000e-001) (49, 9.36966130623679280000e-001) (50, 4.56635482854043580000e+000) (51, -2.71141810805596180000e-001) (52, 2.67114415367328380000e-001) (53, 2.99228405441121560000e-001) (43, 5.69369182775657580000e-003) (44, -1.10684682554763490000e-003) (45, 9.22561325104896340000e-003) (46, -3.99907769951766970000e-003) (47, -1.79352782180758970000e-002) (48, 3.51101541673362430000e-003) (49, -5.55205705144917650000e-003) (50, -4.23644884668467750000e-002) (51, 5.96822323220722650000e-003) (52, 6.44454682950661940000e-003) (53, -1.82316747718150690000e-003) 
