FANN_FLO_2.1
num_layers=4
learning_rate=0.700000
connection_rate=1.000000
network_type=1
learning_momentum=0.000000
training_algorithm=2
train_error_function=1
train_stop_function=1
cascade_output_change_fraction=0.010000
quickprop_decay=-0.000100
quickprop_mu=1.750000
rprop_increase_factor=1.200000
rprop_decrease_factor=0.500000
rprop_delta_min=0.000000
rprop_delta_max=50.000000
rprop_delta_zero=0.100000
cascade_output_stagnation_epochs=12
cascade_candidate_change_fraction=0.010000
cascade_candidate_stagnation_epochs=12
cascade_max_out_epochs=150
cascade_min_out_epochs=50
cascade_max_cand_epochs=150
cascade_min_cand_epochs=50
cascade_num_candidate_groups=2
bit_fail_limit=1.00000001490116120000e-001
cascade_candidate_limit=1.00000000000000000000e+003
cascade_weight_multiplier=4.00000000000000020000e-001
cascade_activation_functions_count=10
cascade_activation_functions=3 5 7 8 10 11 14 15 16 17 
cascade_activation_steepnesses_count=4
cascade_activation_steepnesses=2.50000000000000000000e-001 5.00000000000000000000e-001 7.50000000000000000000e-001 1.00000000000000000000e+000 
layer_sizes=10 30 30 6 
scale_included=0
neurons (num_inputs, activation_function, activation_steepness)=(0, 0, 0.00000000000000000000e+000) (0, 0, 0.00000000000000000000e+000) (0, 0, 0.00000000000000000000e+000) (0, 0, 0.00000000000000000000e+000) (0, 0, 0.00000000000000000000e+000) (0, 0, 0.00000000000000000000e+000) (0, 0, 0.00000000000000000000e+000) (0, 0, 0.00000000000000000000e+000) (0, 0, 0.00000000000000000000e+000) (0, 0, 0.00000000000000000000e+000) (10, 5, 1.00000000000000000000e+000) (10, 5, 1.00000000000000000000e+000) (10, 5, 1.00000000000000000000e+000) (10, 5, 1.00000000000000000000e+000) (10, 5, 1.00000000000000000000e+000) (10, 5, 1.00000000000000000000e+000) (10, 5, 1.00000000000000000000e+000) (10, 5, 1.00000000000000000000e+000) (10, 5, 1.00000000000000000000e+000) (10, 5, 1.00000000000000000000e+000) (10, 5, 1.00000000000000000000e+000) (10, 5, 1.00000000000000000000e+000) (10, 5, 1.00000000000000000000e+000) (10, 5, 1.00000000000000000000e+000) (10, 5, 1.00000000000000000000e+000) (10, 5, 1.00000000000000000000e+000) (10, 5, 1.00000000000000000000e+000) (10, 5, 1.00000000000000000000e+000) (10, 5, 1.00000000000000000000e+000) (10, 5, 1.00000000000000000000e+000) (10, 5, 1.00000000000000000000e+000) (10, 5, 1.00000000000000000000e+000) (10, 5, 1.00000000000000000000e+000) (10, 5, 1.00000000000000000000e+000) (10, 5, 1.00000000000000000000e+000) (10, 5, 1.00000000000000000000e+000) (10, 5, 1.00000000000000000000e+000) (10, 5, 1.00000000000000000000e+000) (10, 5, 1.00000000000000000000e+000) (10, 5, 1.00000000000000000000e+000) (40, 5, 1.00000000000000000000e+000) (40, 5, 1.00000000000000000000e+000) (40, 5, 1.00000000000000000000e+000) (40, 5, 1.00000000000000000000e+000) (40, 5, 1.00000000000000000000e+000) (40, 5, 1.00000000000000000000e+000) (40, 5, 1.00000000000000000000e+000) (40, 5, 1.00000000000000000000e+000) (40, 5, 1.00000000000000000000e+000) (40, 5, 1.00000000000000000000e+000) (40, 5, 1.00000000000000000000e+000) (40, 5, 1.00000000000000000000e+000) (40, 5, 1.00000000000000000000e+000) (40, 5, 1.00000000000000000000e+000) (40, 5, 1.00000000000000000000e+000) (40, 5, 1.00000000000000000000e+000) (40, 5, 1.00000000000000000000e+000) (40, 5, 1.00000000000000000000e+000) (40, 5, 1.00000000000000000000e+000) (40, 5, 1.00000000000000000000e+000) (40, 5, 1.00000000000000000000e+000) (40, 5, 1.00000000000000000000e+000) (40, 5, 1.00000000000000000000e+000) (40, 5, 1.00000000000000000000e+000) (40, 5, 1.00000000000000000000e+000) (40, 5, 1.00000000000000000000e+000) (40, 5, 1.00000000000000000000e+000) (40, 5, 1.00000000000000000000e+000) (40, 5, 1.00000000000000000000e+000) (40, 5, 1.00000000000000000000e+000) (70, 0, 1.00000000000000000000e+000) (70, 0, 1.00000000000000000000e+000) (70, 0, 1.00000000000000000000e+000) (70, 0, 1.00000000000000000000e+000) (70, 0, 1.00000000000000000000e+000) (70, 0, 1.00000000000000000000e+000) 
connections (connected_to_neuron, weight)=(0, 1.15601204491350500000e+000) (1, -6.68762597537106650000e-001) (2, -3.64793816963094100000e-001) (3, -3.22159831296893130000e-001) (4, 3.15783769794991680000e-001) (5, 2.79554884004920070000e-001) (6, 3.29543519844257450000e-001) (7, -4.41511151609040790000e-002) (8, -2.51916508636206640000e-002) (9, -2.24716190746989340000e-001) (0, -8.53868004531204590000e-001) (1, -4.87474064559515810000e-001) (2, 1.24621937973863540000e+000) (3, 1.84758379406877890000e-001) (4, -4.20266359715327430000e-002) (5, -2.64201270098052330000e-001) (6, 1.97575929607140520000e-001) (7, 1.65431399648896690000e-001) (8, -3.43569790886446510000e-001) (9, 1.99478080367123750000e-001) (0, -2.03688216903467140000e-001) (1, -4.01168251551584750000e-001) (2, -1.92901949137212430000e-001) (3, 3.65153206114524900000e-001) (4, 3.54925637015983180000e-001) (5, -2.23263162006836400000e-003) (6, 3.02759381657755120000e-001) (7, 2.54621438490127530000e-001) (8, 3.91227659681204320000e-001) (9, -2.40342917048645470000e-001) (0, -4.82739205982076700000e-001) (1, -2.44590855840347950000e-001) (2, -2.49537957113503040000e-001) (3, 3.59365467348140500000e-002) (4, -3.40814554529792480000e-002) (5, 1.93570008899503320000e-001) (6, -3.13174251015617620000e-002) (7, 3.22317122256460090000e-001) (8, -8.11771170461676180000e-002) (9, -3.51438150749273260000e-001) (0, -5.46225999727525950000e-001) (1, -2.25797434685222200000e+000) (2, 5.37065894347872330000e-001) (3, -1.16235159234909580000e-002) (4, 3.87003668138980530000e-002) (5, -6.57515810471610840000e-002) (6, 1.27800365950992370000e-001) (7, 5.11056458028732790000e-001) (8, -1.17647568316931350000e-001) (9, -6.42623015197527740000e-001) (0, 2.13677549768625240000e-002) (1, -8.83413417023253380000e-001) (2, 2.14616776961084720000e-001) (3, 5.73472423314552170000e-002) (4, 2.39457614029199880000e-001) (5, -3.20492113927948600000e-002) (6, -1.13915585745141920000e-001) (7, -1.45467296257385970000e-001) (8, -5.70610326543334390000e-002) (9, 6.12435981875436130000e-001) (0, -3.20010772107147510000e-001) (1, 3.48679841194449060000e-001) (2, -1.86526755791995850000e-001) (3, 1.48464521292031330000e-001) (4, 3.77944897707184410000e-002) (5, -5.09578966629080640000e-002) (6, 2.37109703728085790000e-001) (7, -4.13801198898320070000e-001) (8, -2.89112714722681960000e-001) (9, 1.78519491856666100000e-001) (0, -2.50718738369249570000e-001) (1, -4.21144357505833290000e-001) (2, 3.02684359037377610000e-001) (3, 1.81130900301274680000e-001) (4, -2.30993694096986060000e-001) (5, -7.83068935507015840000e-002) (6, -7.03791689535001460000e-002) (7, 4.85603402045245160000e-001) (8, 2.30847829182690810000e-001) (9, 2.68752868102297810000e-001) (0, -2.66110388760534220000e-001) (1, -9.96951711332769050000e-001) (2, 2.53318412816040530000e-002) (3, 3.60545198998287190000e-002) (4, -1.89000984371240100000e-001) (5, 6.42667176943765290000e-002) (6, -3.34582599765184010000e-001) (7, 2.35128887491782370000e-001) (8, 1.42467810996824180000e-001) (9, -4.07198366283709810000e-001) (0, -1.75650306583703650000e-001) (1, 4.89281180988516860000e-001) (2, 2.94839417705168140000e-001) (3, 2.24567457214232460000e-001) (4, 1.67220764826808480000e-001) (5, -1.72746378371565420000e-001) (6, -4.97829017646742420000e-001) (7, -7.58827255979020590000e-002) (8, -3.78721573647662120000e-001) (9, 1.00781139552810960000e-001) (0, 4.72087575249987400000e-001) (1, -9.28443960864968500000e-001) (2, -1.16360570340956750000e-001) (3, 3.86744660230031040000e-002) (4, 2.85396587346735120000e-001) (5, 1.00811437126288940000e-001) (6, -9.52778474201371460000e-002) (7, 2.95395238264231420000e-001) (8, -9.12494447638144410000e-002) (9, 5.35308250171658510000e-001) (0, 2.17257991036033970000e-001) (1, -3.96909021357259420000e-001) (2, -3.43411963720151150000e-001) (3, -1.75104299741737670000e-002) (4, -8.84139874944758490000e-002) (5, -7.28209059443280100000e-002) (6, 9.52719488122687340000e-002) (7, 2.71342590774197700000e-001) (8, 3.70211971200599230000e-001) (9, -7.52825579694252010000e-001) (0, -1.11219998510358930000e+000) (1, -7.57834405581463280000e-002) (2, 2.13732869670444540000e+000) (3, 3.94866715515976230000e-002) (4, -2.34599264280408140000e-002) (5, -1.32827108559567550000e-002) (6, -7.76016179757631900000e-002) (7, 1.76461351497930020000e-001) (8, -1.52560531751265020000e-001) (9, 2.28757654783627790000e-002) (0, -4.23752359849476010000e-001) (1, -6.42080058668890950000e-001) (2, -2.24427477481114770000e-001) (3, 9.75280936399247620000e-002) (4, 3.39157084207234590000e-002) (5, 1.53574030226519110000e-001) (6, -2.61320504538195550000e-001) (7, 4.94727715521980860000e-001) (8, 6.60567185034532710000e-001) (9, 1.67112233451006990000e-002) (0, -3.66750299700616290000e-001) (1, 1.43749725483242110000e-001) (2, -2.50069535127462940000e-001) (3, -4.45349705347199750000e-001) (4, 1.66470968438322010000e-001) (5, 1.25709065507907450000e-001) (6, 3.19884371422943130000e-001) (7, -7.90377629974084310000e-002) (8, 8.64907626305880110000e-002) (9, -2.12678286480278370000e-001) (0, -1.32641256894728550000e-002) (1, 6.89158240686732810000e-001) (2, 4.37679006856093070000e-001) (3, 3.26167038704069210000e-001) (4, -1.72749792979987350000e-001) (5, 9.29671301809079360000e-002) (6, -1.07062706157109600000e-001) (7, -2.94315350261676490000e-001) (8, -6.86673149617550440000e-002) (9, 3.70338555059773760000e-001) (0, -4.50720436063176190000e-001) (1, 3.79288977425209840000e-001) (2, -1.11291444586795550000e-001) (3, 2.18328423867109600000e-001) (4, -2.40410412638521640000e-001) (5, 3.04902846118269570000e-001) (6, -1.12696003857784330000e-001) (7, -2.70012414670459170000e-001) (8, -2.07271810852443260000e-002) (9, 4.51856942568204630000e-001) (0, -1.59869938918457240000e-001) (1, -2.21250508504736150000e-001) (2, 1.03206490944458400000e+000) (3, -8.58054371846627690000e-002) (4, -1.83565831122929180000e-001) (5, 3.40992084344740760000e-001) (6, 7.04155542659506830000e-002) (7, -2.04706214988323250000e-001) (8, -2.20286437871650280000e-001) (9, 4.03109657721301030000e-001) (0, -1.94622599217678830000e-001) (1, 3.14531175368500390000e-001) (2, 3.32124515973716890000e-001) (3, 4.53904462778220110000e-001) (4, 1.59687577923666060000e-001) (5, -3.26160299865278710000e-002) (6, 1.95283517981776010000e-001) (7, 9.99232247228098860000e-002) (8, 3.83766850588715750000e-002) (9, 3.82011866694023540000e-001) (0, 8.64375769779368250000e-001) (1, 1.84088308940728300000e+000) (2, 4.21815155003971040000e-001) (3, 1.20003160349445350000e-001) (4, 2.88785326970517400000e-001) (5, -1.65756535732275110000e-001) (6, -1.19148502512016890000e-001) (7, -4.31134171789203270000e-001) (8, -2.49886210893370040000e-001) (9, 3.08325194308537160000e-001) (0, -1.08541231725103100000e+000) (1, 9.84579826221396950000e-001) (2, 2.99776106858997430000e+000) (3, -1.22785486925023040000e-001) (4, 1.75344618440083670000e-001) (5, 1.71130363965348170000e-001) (6, 2.42996506501411250000e-001) (7, -2.66273689560046770000e-001) (8, -7.23305191291505720000e-001) (9, -2.56658739127275660000e-001) (0, 3.57521685486651310000e-001) (1, 2.86571285830623410000e-001) (2, -2.29075742966971610000e-001) (3, 7.77887639674707670000e-002) (4, 4.33798138220520340000e-002) (5, -7.00787205777650270000e-002) (6, 1.19777771247394500000e-001) (7, 3.33712305224781130000e-001) (8, -3.33989341566634900000e-001) (9, 4.10598834850183890000e-001) (0, 2.37771202600796270000e+001) (1, -1.68344482323824350000e+000) (2, -1.00754216144899180000e-002) (3, 5.43164548125729980000e-004) (4, -3.90102406968913590000e-002) (5, -1.25415431911265230000e-003) (6, -4.77106449720781710000e+000) (7, 3.03671157985498990000e-001) (8, 7.55724707226149760000e-003) (9, 4.97029101551799140000e-002) (0, -2.71068723886072390000e-001) (1, 5.44355437783197470000e+001) (2, -9.56002851037608960000e-002) (3, -2.77762871960225980000e-002) (4, -7.17030080608457770000e-003) (5, 1.08056569753931510000e-003) (6, 4.66809351196876620000e-002) (7, -1.11293110624663960000e+001) (8, -2.33303461476340280000e-002) (9, 1.00173038959400190000e-001) (0, 7.53504848479833230000e-001) (1, 2.18160639873973410000e-001) (2, 1.88640649058638920000e-001) (3, -1.62626717855850120000e-001) (4, -1.20990675586176810000e-001) (5, -1.43392570142407190000e-001) (6, 2.31813942891536760000e-001) (7, -1.56174225543983470000e-001) (8, -3.89696174284411760000e-002) (9, 4.17049722910992900000e-002) (0, 4.48768468352268580000e-001) (1, -4.07379221322487660000e-001) (2, -9.01088858671561080000e-001) (3, -8.96064483843180270000e-002) (4, 1.29949996019635390000e-001) (5, -1.76916863524686250000e-001) (6, -1.46324118395388060000e-001) (7, 1.07228237212780780000e-002) (8, 2.12991518086714040000e-001) (9, 2.57524062150520370000e-001) (0, -1.67738658259996180000e-001) (1, 1.35419700450909900000e-001) (2, 5.39166186899240230000e-001) (3, 9.57283531786805310000e-002) (4, -1.29546123950801060000e-001) (5, 1.46961739130510440000e-001) (6, -1.99821405299975220000e-001) (7, -4.33874782416001640000e-002) (8, -2.33408918500771780000e-001) (9, 2.01285180708706960000e-001) (0, -1.23516597707700630000e-001) (1, 9.79023083554528970000e-002) (2, -3.03639331076997700000e-001) (3, -1.84174529872450060000e-001) (4, 3.33374655825781770000e-002) (5, -3.18026365475116810000e-001) (6, 1.51437338938505920000e-001) (7, 1.52251539111662830000e-003) (8, 1.89618299615098880000e-001) (9, -2.25059358451392970000e-001) (0, -2.67183489899620600000e-001) (1, -4.21952441488129440000e-001) (2, -1.97779305411461100000e-001) (3, -5.57359833391844540000e-002) (4, -2.46687628820240240000e-002) (5, 6.38431453016569950000e-002) (6, -1.59933326345871650000e-001) (7, -1.27766958038065310000e-001) (8, -9.92706799040812480000e-003) (9, -3.66537677403226570000e-001) (0, -2.20343571981299060000e-002) (1, 1.45377536874795320000e-001) (2, 1.82502130205356050000e-001) (3, -1.79761640909996880000e-001) (4, -2.00095486757908480000e-001) (5, -7.19729621443018220000e-002) (6, 1.05367956405243680000e-001) (7, 2.72321391636960950000e-001) (8, 2.38755162612464960000e-001) (9, -3.23132967119271200000e-001) (0, 1.17479626353315040000e+000) (1, -6.14695626026893760000e-001) (2, 3.07073684113734420000e-001) (3, 5.02190754672123930000e-001) (4, 1.50281978861820760000e-001) (5, -1.79645486397050500000e-001) (6, 2.44585262989221290000e-001) (7, 2.63608855520158950000e-001) (8, 5.51766804818036300000e-001) (9, 3.90784291542112670000e-002) (10, 2.23038720387600920000e-001) (11, 2.28040635110796220000e-002) (12, -2.80811279574023350000e-001) (13, 6.30870630845227320000e-001) (14, 4.57441358327588810000e-001) (15, 6.50896970685528600000e-002) (16, 4.55986072238891480000e-001) (17, 3.88818865318267930000e-001) (18, 9.44515970302617580000e-001) (19, 3.10023831732575420000e-001) (20, 8.83974203304925040000e-001) (21, 3.27136767272014910000e-001) (22, -8.46793414335001770000e-001) (23, -1.02843155936516870000e+000) (24, 5.34840151016237280000e-001) (25, 2.38065264241663220000e-001) (26, 9.17579957253873840000e-002) (27, 6.43059947098904160000e-002) (28, 2.78583349808920080000e-001) (29, -1.94621852828689430000e-001) (30, 1.63286899699011720000e-001) (31, -9.44200751136053400000e-001) (32, 1.03255302801061000000e-001) (33, -1.34216040492699180000e-002) (34, 1.74773012759947030000e-001) (35, -6.82125682968870440000e-001) (36, 8.69740385875440560000e-001) (37, 5.15747424809252950000e-001) (38, 9.43742928470502780000e-001) (39, 7.12127608599713800000e-001) (0, -4.70566959913485900000e-001) (1, -3.71969340868998580000e-001) (2, 2.05830325357249490000e-001) (3, -4.09705693255469700000e-002) (4, 6.26100701882048030000e-002) (5, 2.11811137102669330000e-001) (6, 1.04871825165564350000e+000) (7, -1.80767677084474170000e-001) (8, 9.76844975595221460000e-002) (9, 5.66860328628775450000e-002) (10, 3.67423007532536430000e-001) (11, 4.49474585468365880000e-001) (12, 9.47207021561851660000e-002) (13, 5.56365844553270210000e-001) (14, 2.24532361405613170000e-001) (15, 3.90737372226754860000e-001) (16, 4.58329999648599880000e-001) (17, 4.76766271426172340000e-001) (18, 3.61851953857625700000e-001) (19, 7.29067011359627150000e-001) (20, -1.87435766858983500000e-001) (21, 8.17316349050320800000e-001) (22, -3.65578456121913530000e-001) (23, 1.05943671127317910000e+000) (24, 5.57577203422158660000e-001) (25, 8.41052088619465450000e-001) (26, 5.18242124133732830000e-001) (27, -8.05984978517695490000e-002) (28, -3.53454462343747940000e-001) (29, 4.55006618216943100000e-001) (30, 5.27313628794059190000e-001) (31, 9.03709314279401040000e-001) (32, -5.63313863542099560000e-001) (33, 5.73317509171000220000e-001) (34, 7.79194600292438370000e-001) (35, 7.74088131952459850000e-001) (36, 3.18791004288380480000e-001) (37, 5.44019086610150190000e-001) (38, 5.93313430849407570000e-001) (39, 2.53298100469319660000e-001) (0, -7.46998772181151070000e-002) (1, 3.25334683835330110000e+000) (2, 3.15386292113277010000e-001) (3, 1.06468063658476530000e-003) (4, -2.12971213969752580000e-001) (5, -8.00950519963870840000e-002) (6, 8.87356874605917390000e-001) (7, 8.11389872135484640000e-001) (8, 5.46038500415448550000e-001) (9, 3.53244349296556510000e-001) (10, 1.88170587784043160000e-001) (11, 8.29117952197360180000e-002) (12, -1.48785153893142010000e-002) (13, 1.08399627078954340000e+000) (14, -1.58654081215580220000e-001) (15, 3.09035748012772620000e-001) (16, 5.76071443024169680000e-001) (17, 1.61751007460373570000e-001) (18, 1.01738971577875170000e+000) (19, 1.77956885806170860000e-001) (20, -1.75905675394638420000e-001) (21, -1.29553776842874060000e-001) (22, 8.40024140686774080000e-002) (23, -7.26758704574008260000e-001) (24, 4.80427977965890820000e-001) (25, -1.23408222099720790000e-001) (26, 4.88131409113956860000e-001) (27, 3.34040895714663220000e-001) (28, 2.10688376608145930000e-001) (29, 8.08093311752232090000e-001) (30, 3.19016331696570950000e-001) (31, -3.81342909348291010000e-001) (32, -8.50353944711353500000e-001) (33, 1.49629700638227670000e+000) (34, -7.79824452703166580000e-001) (35, 9.84329326639744480000e-001) (36, 1.95198835596410740000e-001) (37, 6.50322845241108280000e-001) (38, 9.26683198801890540000e-001) (39, 1.99434327300915510000e-001) (0, -8.10911628496597540000e-002) (1, -4.10207548467040000000e-001) (2, 2.69485873047108420000e-001) (3, -8.17220898935232860000e-001) (4, -2.48468351262883390000e-001) (5, 1.39500139665657470000e-001) (6, 1.08831444451842270000e-001) (7, 1.55629830511615220000e-001) (8, -5.58653482508738100000e-002) (9, 4.51314650761107990000e-001) (10, 6.37172197775396800000e-001) (11, 3.41018581328536520000e-001) (12, 4.78288661574697350000e-001) (13, 5.27927987168856250000e-001) (14, 3.45020390704792350000e-001) (15, -3.58794413664523750000e-001) (16, 4.32935352053291420000e-001) (17, 2.10160752320382620000e-001) (18, -2.89377750888638840000e-002) (19, 1.13048828172894410000e+000) (20, -9.47403962372509680000e-001) (21, 4.71878500039080770000e-001) (22, -8.61386127497790750000e-002) (23, -1.86936253007267540000e-001) (24, 2.22229884006504420000e-001) (25, 7.98149015508564930000e-002) (26, -8.63531981219828880000e-002) (27, 2.17703618264406510000e-001) (28, 3.76108946859827380000e-001) (29, -6.75527778922370590000e-001) (30, -7.36247017954241970000e-001) (31, 4.34795420996761940000e-001) (32, 1.58950949502670330000e-001) (33, -1.11412680770587580000e-001) (34, 3.60907651970487460000e-001) (35, -7.38028379725797380000e-001) (36, 2.44977208261870750000e-001) (37, 1.95556472690429640000e-001) (38, 2.45419128508461510000e-001) (39, 1.00750611629388110000e-001) (0, 9.77128357608380130000e-001) (1, 1.18307186448185700000e+000) (2, 3.40513417565495080000e-001) (3, 7.49467920011847700000e-001) (4, -4.53173619674475890000e-001) (5, 1.09000986575027040000e+000) (6, 1.21004654709629580000e-001) (7, 3.21199150277100440000e-001) (8, 3.91647660264267170000e-001) (9, 6.84504928044449430000e-002) (10, 1.39546563562484630000e-001) (11, 4.60311814866713690000e-001) (12, -1.74439345467386180000e-001) (13, 4.51923974562060630000e-001) (14, 7.79710084713170050000e-001) (15, 3.67845224624008200000e-001) (16, 1.40986440536481150000e+000) (17, -9.60160168519701100000e-001) (18, 7.87627765144231270000e-001) (19, 6.20012899114647740000e-001) (20, 8.69574349473361540000e-001) (21, 1.35974229169431300000e-001) (22, 2.72534944704555030000e-001) (23, -8.71239827631252600000e-002) (24, 4.14626765224615670000e-001) (25, 2.86960165616672870000e-001) (26, -7.43163734622491470000e-002) (27, 2.27330505241080120000e-001) (28, -2.07952823958899110000e-001) (29, 4.32849233404899720000e-001) (30, -2.43543079282836530000e-001) (31, 1.45455172970812510000e-001) (32, 1.39416306946530180000e-001) (33, 3.81802745420537440000e-001) (34, 3.82141088408129510000e-003) (35, 2.75993920092801330000e-001) (36, 2.84443312160689990000e-002) (37, 1.20802306427121530000e-001) (38, 9.31554937824579100000e-001) (39, 2.47933123425915950000e-002) (0, -4.19394854352632410000e-001) (1, -5.36605194280147970000e-001) (2, 1.44960543426760900000e-001) (3, 2.02377864791561080000e-002) (4, 3.93526198086419960000e-003) (5, -5.18435373839314650000e-002) (6, 3.78064613604703170000e-001) (7, 4.23845731856480560000e-001) (8, 2.61779348777778200000e-001) (9, 3.55151999013164910000e-001) (10, 4.74949410948179830000e-001) (11, 5.11753191299263110000e-001) (12, -1.48061972886530000000e-001) (13, 5.01567449203320860000e-001) (14, 5.03190741371504770000e-001) (15, -2.57650473822181810000e-001) (16, 9.69350392165536870000e-001) (17, 5.17251618400692450000e-001) (18, 3.73311180002707350000e-001) (19, 6.51014679462243560000e-001) (20, -1.85034427788573120000e-001) (21, 3.71124902665504740000e-002) (22, -6.22875529715446130000e-001) (23, 5.32263651093397900000e-001) (24, 8.58080675730374720000e-001) (25, -1.30759084614957360000e-001) (26, 1.78217149214425610000e-001) (27, -3.43507520243727440000e-001) (28, 3.38188531943674490000e-002) (29, -1.67564398813815800000e-001) (30, -6.43396146105679740000e-002) (31, -1.62910077026478940000e-001) (32, 1.36402724191403180000e-002) (33, 7.33143360699241910000e-001) (34, -1.07004536615789500000e-001) (35, 5.19702424087677750000e-001) (36, 2.82061751903840310000e-001) (37, 1.63540456946280640000e-001) (38, 8.52224907433526520000e-001) (39, -1.79363712115075850000e-001) (0, 2.32902224899649510000e+000) (1, 1.56159786957889460000e+000) (2, 5.42637891449546220000e-001) (3, 8.37950287918003830000e-002) (4, 1.82485660154942470000e-001) (5, -2.13188411792355370000e-001) (6, 6.39562178796886260000e-001) (7, -6.75563968108722130000e-003) (8, 1.22747972807005150000e-001) (9, 6.93183009584790180000e-001) (10, 1.88351641376667540000e-001) (11, -4.41468686459981640000e-002) (12, -2.78501926552097820000e-001) (13, 2.04314389718829560000e-001) (14, -1.28059706557875130000e+000) (15, 2.49845045793142350000e-001) (16, 4.97616973954332520000e-001) (17, -3.21494485960041320000e-002) (18, 1.32752126083972310000e+000) (19, 7.61717945049887880000e-001) (20, -6.00875604421514320000e-002) (21, 1.05273133162689060000e-001) (22, 1.38140063010773560000e-001) (23, 4.01978559734924160000e-002) (24, 2.48199927256024380000e-001) (25, 9.15746142702301700000e-002) (26, 1.16548951489179780000e-001) (27, -7.94102495371957760000e-002) (28, -5.00816448603854990000e-001) (29, -2.64462078954403210000e-001) (30, 2.80661264647826590000e-001) (31, -1.13285036411819570000e-001) (32, 1.12640462579238810000e+000) (33, 2.20024708832022500000e+000) (34, -7.09029383801151770000e-001) (35, 2.88433825588827570000e-001) (36, -8.04617137659492660000e-002) (37, 1.05494426203142830000e-002) (38, 7.61153865023760780000e-002) (39, 1.26200105112481110000e-001) (0, -3.94726615085261580000e-001) (1, 6.62356860123098580000e-001) (2, 5.08149860118162880000e-001) (3, 7.59631940022361230000e-001) (4, 1.11668532060099970000e-001) (5, 1.58239276079480990000e-001) (6, 5.54727022450244190000e-001) (7, -2.99625095187149800000e-001) (8, 5.12873934612875160000e-002) (9, 2.36401482861640960000e-002) (10, 7.12395129410500760000e-001) (11, -7.00763700240673440000e-002) (12, -2.19436560666884970000e-001) (13, 7.99725811749008590000e-001) (14, 5.39183492182887410000e-001) (15, 4.12915288260479070000e-001) (16, 5.14520274906475340000e-001) (17, 6.59873710846325820000e-002) (18, 1.06834106167357560000e+000) (19, 5.25621717442033450000e-001) (20, 1.71347557285724500000e-002) (21, 4.13870216896805420000e-001) (22, 2.20314405982693810000e-001) (23, 1.81768217755598900000e-001) (24, 7.44990247340518550000e-001) (25, 4.56059954548873660000e-001) (26, 5.50919645621004010000e-002) (27, 5.15704838731100070000e-001) (28, 1.76615968740039160000e-002) (29, -2.40741301688827900000e-001) (30, 3.56217289387518070000e-001) (31, 6.91867095086823200000e-001) (32, 3.97668648120462820000e-001) (33, 7.63132428833680040000e-001) (34, 7.09386739452435580000e-001) (35, 6.84600980768838570000e-001) (36, 2.91206828361761320000e-001) (37, 5.73229043719697740000e-001) (38, 2.73506408167400290000e-001) (39, 3.36274974403321380000e-001) (0, -1.43855585597840440000e+000) (1, 2.41890240439603280000e-001) (2, 5.10574883369395050000e-001) (3, 1.19841130198332420000e+000) (4, -5.71367446152194810000e-001) (5, 7.13922657588880630000e-001) (6, 4.44410512856350300000e-003) (7, 3.06830417883298180000e-001) (8, 2.42686600531325710000e-001) (9, 5.00721238496204420000e-001) (10, 5.08775901291954600000e-001) (11, 6.81217993175142640000e-001) (12, -3.53003105572710420000e-001) (13, 8.41421936423517480000e-001) (14, -6.38675143997041510000e-001) (15, 7.41606417863834410000e-001) (16, 6.54517731617898950000e-001) (17, -3.32612624274608140000e-001) (18, 3.57274173802582470000e-001) (19, -8.28228874456653940000e-001) (20, 9.42582603854092090000e-001) (21, -1.41919153200829290000e-001) (22, 4.33309028682684280000e-001) (23, 6.06678352720226080000e-001) (24, 9.74398386704853680000e-001) (25, -4.05063440680854650000e-001) (26, 8.67491884974327050000e-001) (27, -3.72314143634352170000e-001) (28, -2.80352716317628650000e-001) (29, 9.14067474349753660000e-001) (30, -1.97030937477250890000e-001) (31, -6.85529005681844440000e-002) (32, -3.87437354937122060000e-001) (33, 4.93461171615553360000e-001) (34, 1.25729696963835140000e+000) (35, 2.07731835084717980000e+000) (36, 8.74614279876035660000e-003) (37, 6.59562746269557800000e-001) (38, 7.73786667715091300000e-001) (39, 1.76894484181132930000e-001) (0, 1.26993618109605410000e+000) (1, -1.47859750382248920000e+000) (2, 6.66949680577534230000e-001) (3, 2.33181101799083970000e-001) (4, 1.47076329687717490000e-002) (5, 1.02724192690317910000e-001) (6, -1.32572569932333490000e-001) (7, 1.45335435804148400000e-001) (8, 6.71794372724185680000e-002) (9, 5.37583839191599690000e-001) (10, 2.40481082977843210000e-001) (11, 3.55862328437982820000e-001) (12, -1.93994134750516720000e-001) (13, 4.09128197742213430000e-001) (14, -3.06906044805477620000e-001) (15, 4.58915680554125630000e-001) (16, 3.22228678116474100000e-001) (17, 4.65269701884936380000e-001) (18, 2.22584559929115080000e-001) (19, 1.98293238785300110000e-001) (20, 2.44488620110859030000e-001) (21, 1.35903580431585990000e-001) (22, 1.49699809657131780000e-001) (23, 6.87428348870569720000e-002) (24, 1.79252328531778890000e-001) (25, -5.02935903957122400000e-001) (26, 2.48799722354119600000e-001) (27, -1.47986755558811300000e-001) (28, -1.59299508919464900000e-001) (29, 2.09429635174516710000e-001) (30, -7.83189744663865960000e-002) (31, 5.22143837890489790000e-001) (32, 8.93491678404701010000e-001) (33, -2.19139212559531190000e+000) (34, 4.51971661306251490000e-001) (35, 8.87964204455957920000e-001) (36, 4.31930995785877510000e-001) (37, -1.66512966926748110000e-001) (38, 6.99323195439419120000e-001) (39, 5.67415216822673710000e-001) (0, -1.89591127387023730000e+000) (1, -3.69287920414119620000e-001) (2, 2.27849795467535420000e-001) (3, 1.62234837426138560000e-002) (4, -6.13599515744118080000e-001) (5, 4.68358812678888460000e-002) (6, 7.72697824149141010000e-001) (7, 2.61288667978182070000e-001) (8, 1.40569393461651510000e-001) (9, 5.37018551861346170000e-001) (10, 5.11748064471541090000e-001) (11, -2.79600638139772710000e-001) (12, -1.13594175950133990000e-001) (13, 1.14868918728135250000e+000) (14, 4.19104196299630580000e-001) (15, 4.14340906059759760000e-001) (16, -5.04514157606978170000e-003) (17, -3.90369679963550490000e-001) (18, 1.94304532007816360000e-001) (19, -8.94889545038618230000e-002) (20, 2.07846129879816740000e-001) (21, 2.01035428044354060000e-002) (22, 5.01357870038508400000e-001) (23, 5.05577814113874480000e-002) (24, 5.08762045743161860000e-001) (25, 3.82295854304341080000e-002) (26, 7.75180944945870750000e-002) (27, -7.07235918817907930000e-001) (28, -7.57848396015184250000e-002) (29, 4.12368775003435880000e-001) (30, -1.08433655189501100000e+000) (31, 9.50951784493169330000e-002) (32, -3.67243437102265920000e-001) (33, 3.96174514723397930000e-001) (34, 1.46882476333598770000e-001) (35, 5.33209946964968260000e-001) (36, 5.52246021703454490000e-001) (37, 7.93186844087402030000e-001) (38, 7.37056634752307430000e-001) (39, 3.88130867380365450000e-001) (0, -3.11139375224262270000e-001) (1, 3.16750417873789270000e-001) (2, 3.68754352081102740000e-001) (3, 1.51907658596758530000e-001) (4, 1.89664841171247160000e-001) (5, 1.94741540320025660000e-001) (6, -3.97525210816749710000e-002) (7, 2.94445577858936820000e-001) (8, 1.82166816601190000000e-001) (9, 1.49652728148839230000e-001) (10, 2.29995693198331410000e-001) (11, 2.03398510102878540000e-001) (12, 1.82590420225767210000e-001) (13, 8.96172439774715750000e-002) (14, 9.93816685911905420000e-001) (15, 5.67628447391384070000e-001) (16, 4.24026690367914240000e-001) (17, 6.89595489687458570000e-002) (18, 2.21577800328132850000e-001) (19, 1.38228051003902060000e-001) (20, -5.93975239698552370000e-001) (21, 5.33579460512837110000e-001) (22, -2.40347902167346690000e-001) (23, -5.45376756736008830000e-001) (24, 5.43494046947472050000e-001) (25, 3.38604263513348380000e-001) (26, 8.18326074910737670000e-002) (27, 2.50502393711831140000e-001) (28, -2.32976352169953410000e-001) (29, 1.25802279528472010000e-001) (30, 8.30450030336589150000e-002) (31, 1.85357396663919650000e-001) (32, -1.28480972628704140000e-001) (33, 7.24836728818050450000e-002) (34, -1.87419190912211400000e-001) (35, -6.83163998523989010000e-001) (36, 7.64140177370048360000e-001) (37, 1.00986095310068080000e+000) (38, 7.13125748700268350000e-001) (39, 3.31056419228674400000e-001) (0, 7.79403552261016990000e-001) (1, -4.07213956402899810000e-001) (2, 2.39598167940950400000e-001) (3, 1.59396421489236990000e-001) (4, -1.13499712551709510000e-001) (5, 5.68424814507191400000e-001) (6, -3.11228637687137540000e-001) (7, 1.44629325374313170000e-001) (8, 5.52236715236532950000e-001) (9, 2.04947125301212200000e-001) (10, 5.40990674736263170000e-001) (11, -7.14237567189988100000e-001) (12, 2.04640230370731260000e-001) (13, 2.26885181864061850000e-003) (14, 1.10677358827869550000e+000) (15, -7.03705973608054900000e-003) (16, 9.55225138319418940000e-003) (17, 5.18045003087390430000e-001) (18, 2.71556276339446510000e-001) (19, 1.62318067695700160000e+000) (20, -5.44708375255836040000e-001) (21, 7.12272694298507810000e-001) (22, 1.07749208513069530000e-001) (23, -8.54030410495922100000e-001) (24, 2.11598869735965030000e-001) (25, 6.15674826218408300000e-001) (26, -1.73057041445351280000e-001) (27, 7.17424435141975960000e-001) (28, 8.89483386160071500000e-002) (29, 1.62514903221406850000e-001) (30, 7.41894140769859160000e-001) (31, 7.84869637643936910000e-001) (32, -1.43119155488776020000e-001) (33, 3.76853058884838940000e-001) (34, 1.36197379110710060000e+000) (35, -1.42279736278106080000e-001) (36, 8.46121131190322730000e-001) (37, 5.14737128065255180000e-002) (38, 3.53553252777404680000e-001) (39, 4.64778284745678620000e-001) (0, 1.27289152368917610000e-001) (1, 6.09195076115852440000e-001) (2, -6.21660752543397920000e-001) (3, -5.08072636981115880000e-002) (4, 2.68656907326502990000e-001) (5, -7.00037663198400660000e-002) (6, 8.27038470171353460000e-002) (7, 2.86949892353034090000e-001) (8, 9.02626350091503940000e-001) (9, -1.84179640179661320000e-001) (10, 1.20268518892082620000e-001) (11, 9.46324700156398050000e-002) (12, 6.24937920110511660000e-002) (13, 5.07184726128463510000e-002) (14, -2.10769007394564890000e-001) (15, 2.79907662521294900000e-001) (16, 8.60887044376605680000e-001) (17, -7.16158327585669550000e-001) (18, 5.25976525664529790000e-001) (19, 1.99800680761117290000e-001) (20, -1.16976657899480140000e-001) (21, 5.36823420171279820000e-001) (22, 1.99766519860482550000e-001) (23, -2.05159354368048890000e-001) (24, 4.06830499480043070000e-001) (25, 1.08466919935229330000e-001) (26, 6.14728962668114280000e-001) (27, -2.96486938343413440000e-001) (28, 5.12182629100078280000e-001) (29, -2.21285768905551960000e-001) (30, -1.97256094817600420000e-001) (31, 2.12555173897186510000e-001) (32, -1.42773097722395140000e-002) (33, 2.98642849073136760000e-001) (34, 1.85589637051868430000e-001) (35, 3.80964819519018450000e-001) (36, 7.52734624004521740000e-001) (37, 1.04251555024561180000e+000) (38, 5.88241969635035390000e-001) (39, -6.59290548126084400000e-002) (0, 2.67709151741075680000e-001) (1, 6.63841467189360210000e-001) (2, 3.83759215825104690000e-001) (3, 3.97172055586855250000e-001) (4, -1.30102682716273950000e-001) (5, 1.80170672040999210000e-001) (6, 7.72149244826273560000e-001) (7, 4.58819614787030930000e-001) (8, -4.22277150054450880000e-002) (9, -1.58493235321450070000e-001) (10, 2.78342171724740960000e-001) (11, 2.45055314127385520000e-001) (12, -4.89130395673755160000e-001) (13, 3.29514197130123250000e-001) (14, -2.74033203609213400000e-001) (15, 3.73172053536663610000e-001) (16, 1.17714132887465310000e+000) (17, 1.41403531195212710000e-001) (18, 1.43392485182700560000e-001) (19, -1.37517548192792110000e-001) (20, 5.24562351317998440000e-001) (21, 7.52359393974770810000e-001) (22, 6.65619779017759680000e-002) (23, -1.60408770399032060000e-001) (24, 6.46405370325569330000e-001) (25, 4.97143137051007930000e-001) (26, 1.65928074601136510000e-003) (27, -3.21173564717043560000e-002) (28, -4.10542125699837750000e-002) (29, 1.42528680808226590000e-001) (30, 7.96232142777202750000e-002) (31, -2.02246349682350490000e-002) (32, -2.08412564460562970000e-001) (33, 4.58626227984613670000e-001) (34, 7.19594353584093520000e-001) (35, -6.31003050885629250000e-001) (36, -1.22638063360696260000e-002) (37, 8.00571572620087710000e-001) (38, 5.51787641415468430000e-001) (39, -2.97185284419819400000e-001) (0, 4.45245089740434970000e+000) (1, -5.59831892198143440000e-001) (2, 1.23689093780250480000e+000) (3, -5.15655305769538110000e-001) (4, 4.27945189801783870000e-001) (5, 1.59369106636869100000e-001) (6, -2.79570646415788830000e-001) (7, -6.69992984777502270000e-002) (8, -1.93313693751488020000e-001) (9, -2.03313477397619930000e-001) (10, -8.71232680969567240000e-002) (11, -4.81740949257938530000e-001) (12, -7.71955926528063720000e-002) (13, 3.15259845765630540000e-001) (14, 9.94487573835592390000e-001) (15, -8.42360435289501160000e-002) (16, 1.24746579335762680000e+000) (17, 7.15313681560139520000e-001) (18, 1.09485731370539190000e+000) (19, 9.15077679876099670000e-001) (20, -3.50585857292837200000e-001) (21, 1.00540510483004830000e+000) (22, -3.78941366854786690000e-002) (23, 3.01822907521499930000e-001) (24, 1.75106624598870800000e-001) (25, 4.53282186345925100000e-001) (26, -3.43151368445775650000e-001) (27, -2.60883627913730760000e-001) (28, 3.03268475657965500000e-001) (29, -2.28242197022660660000e-001) (30, -2.90912591078800630000e-001) (31, 3.04085276572868750000e-002) (32, -1.54937616149510290000e-001) (33, 1.87991548372097830000e-001) (34, 3.90367307488726610000e-001) (35, -3.43355577687767140000e-001) (36, 1.08081754045015520000e+000) (37, 3.12107977192938700000e-001) (38, 1.22447107663544700000e-001) (39, 3.73953495035146270000e-002) (0, 1.34805752802155830000e+000) (1, 2.08523246207606220000e-002) (2, -4.59124127331475730000e-001) (3, 6.81967772558635940000e-001) (4, 5.31735938945971790000e-002) (5, -1.47242448110059680000e-001) (6, -7.57648525704325730000e-001) (7, 2.82203308959430690000e-001) (8, 1.79219992739165880000e-002) (9, -1.71663499671275170000e-001) (10, -3.12042392540933860000e-001) (11, 5.63221102037262390000e-001) (12, -3.63794852967027560000e-002) (13, 4.13245581985840910000e-002) (14, -4.68483841474599820000e-001) (15, 1.07108459599620720000e-001) (16, 3.27301239087824490000e-001) (17, -4.32855229388949440000e-001) (18, 2.22474745325932530000e-001) (19, 1.16467445192435560000e-001) (20, 5.32200146508293730000e-001) (21, 1.12444593341368760000e+000) (22, 4.05240805449348710000e-001) (23, -3.47600277465357420000e-002) (24, 1.14187821334945890000e+000) (25, 5.49877881011438110000e-002) (26, -1.34793780978233410000e-001) (27, 2.75650289544516760000e-001) (28, 5.71162088465160370000e-001) (29, -3.20241988785160030000e-001) (30, 2.76468292261744130000e-001) (31, -6.26508587220959370000e-001) (32, 1.22955621279333950000e-001) (33, -1.08372784010759910000e-001) (34, 8.72618577147014410000e-001) (35, -7.75060756002911990000e-002) (36, -6.70566472524402740000e-002) (37, 2.11890316140473850000e-001) (38, 1.73135912772009570000e-001) (39, 9.83905390627382860000e-002) (0, 1.20486711038749110000e+000) (1, -1.12642522659221620000e-002) (2, 2.10543862363545550000e-001) (3, -6.23805012548281020000e-001) (4, 2.91322428611979430000e-001) (5, 1.55507089873514050000e-001) (6, 1.28401005667928610000e-001) (7, 6.36789623239667370000e-001) (8, 9.00740626298894060000e-001) (9, 4.32569104065659630000e-001) (10, 6.04310349526312250000e-002) (11, 4.25462436233736420000e-001) (12, -8.01044728245283940000e-001) (13, 8.91084671406282000000e-001) (14, -2.72237213977480800000e-002) (15, 4.70900491629730580000e-001) (16, 5.87560229602387740000e-001) (17, -3.40879566614627320000e-001) (18, 6.50516009247477880000e-001) (19, 8.93288234554995290000e-002) (20, 3.29452610064777220000e-001) (21, 3.61244610976958090000e-001) (22, -4.81850717402506400000e-001) (23, -3.98884693245447970000e-002) (24, -5.60565804694471590000e-001) (25, 3.87014406915439260000e-001) (26, 4.09747789377412740000e-001) (27, -3.23107486194191160000e-001) (28, 5.89124076152818320000e-002) (29, -1.29038716475300800000e-001) (30, -1.34211375917938800000e-001) (31, 4.10164850462891690000e-001) (32, 2.02012779727139740000e-001) (33, 1.81405017869291310000e-001) (34, -3.22989776494021830000e-001) (35, 4.41541076861740990000e-001) (36, 2.14527772889373470000e-001) (37, 8.98573046917237050000e-001) (38, 4.55071771558913040000e-001) (39, -6.58252808644300690000e-001) (0, 2.02906667499121250000e+000) (1, -2.07850340180611880000e-001) (2, 5.44092903675039710000e-001) (3, -2.22457826290715390000e-001) (4, -2.35604561888679200000e-001) (5, 1.46630694992816360000e-001) (6, 1.75812866243409390000e-001) (7, 2.30676521060303150000e-001) (8, 2.06132276508305120000e-001) (9, 3.03194824331565080000e-001) (10, 2.75112649098259670000e-001) (11, 2.47126416635816860000e-001) (12, -8.30824293653316950000e-002) (13, 1.78694781229241070000e-001) (14, 3.34919233042624000000e-001) (15, 6.03916170927669470000e-001) (16, -7.49299644468163220000e-002) (17, -2.86781243312518310000e-001) (18, 4.06302487711175720000e-001) (19, 8.47776495060809320000e-001) (20, -9.33801984453633690000e-002) (21, 6.83054810006937380000e-002) (22, 6.80273515697538130000e-001) (23, 2.28788776821798380000e-001) (24, 3.76004915589565720000e-001) (25, 3.51388333632629450000e-001) (26, 9.21424236939849820000e-002) (27, 1.30509566655036520000e-001) (28, 3.82511049291527420000e-002) (29, 5.32790161703313840000e-001) (30, 1.33432367177542480000e-001) (31, 1.04509078485356100000e-002) (32, 4.88122269426184360000e-001) (33, -2.71511545917694610000e-001) (34, -3.29285330499683060000e-001) (35, -4.08041872741999100000e-001) (36, -3.31138699400106100000e-001) (37, 3.84143846007579060000e-001) (38, -6.57439871442307840000e-003) (39, 3.74968275482536580000e-001) (0, 2.23704944548742860000e+000) (1, 9.30029959950548770000e-002) (2, 4.18412401055925850000e-002) (3, -1.83610463909627510000e-001) (4, -1.18926488058440100000e-001) (5, 6.66741272697647050000e-003) (6, -1.95988715015310400000e-001) (7, -5.92149627682343360000e-001) (8, -6.13291782074417010000e-002) (9, -1.09140985914743260000e-001) (10, 4.86002359532414500000e-001) (11, 1.68566840614685240000e-001) (12, 2.76306280023991050000e-001) (13, 1.82895557636926250000e-001) (14, -8.70964418588989100000e-001) (15, 2.46255285902339500000e-001) (16, -7.24983686575811500000e-002) (17, 1.88880788901404190000e-002) (18, 5.69667352908364010000e-001) (19, 5.52434398134586390000e-001) (20, -4.50953848714830850000e-001) (21, 1.00368032061181610000e+000) (22, 2.86029083355078150000e-001) (23, 3.52334911550631120000e-001) (24, 3.96699588330124530000e-001) (25, 5.18985012825150300000e-001) (26, 3.38931412044733770000e-002) (27, 4.21038229605111770000e-002) (28, 3.53808880034928500000e-001) (29, 9.76540949179140330000e-002) (30, 2.36938927150948000000e-001) (31, 7.93110398989162470000e-001) (32, 7.38156980810779300000e-001) (33, 1.53825786116638730000e+000) (34, -1.71306653667986750000e-002) (35, 2.02402108472309400000e-002) (36, 1.52467306238028510000e-001) (37, 5.92457993131134450000e-001) (38, 3.38449171312363130000e-001) (39, -4.20924397420617550000e-002) (0, 7.54633842622515650000e-001) (1, 8.47121671148189590000e-001) (2, -1.05503531172217670000e-001) (3, 6.27441691615507000000e-001) (4, -3.73289008631413070000e-001) (5, -2.25736414093941630000e-001) (6, -5.51777438953492470000e-002) (7, 8.09473236165857150000e-002) (8, 1.21973057524209350000e-001) (9, 1.70616119964043470000e-001) (10, 3.92295814201043330000e-002) (11, -7.08201114162095520000e-001) (12, -3.11937947198228430000e-001) (13, 5.87470377689695680000e-001) (14, -3.99466486926083260000e-002) (15, 1.95127605416261700000e-001) (16, 7.31144210360264890000e-001) (17, -1.13402786708199300000e+000) (18, 2.39810895321718900000e-001) (19, -5.62821010682754810000e-001) (20, 4.39732032635347210000e-001) (21, 3.32877253084193580000e-001) (22, 5.21273317646267500000e-002) (23, 8.22956444657533810000e-002) (24, 7.27782385421918980000e-002) (25, -3.70630551829008950000e-001) (26, -3.64110955770807610000e-004) (27, -4.76460263155860240000e-002) (28, -2.90981577032528530000e-001) (29, 2.93510235025014720000e-001) (30, 6.14946631132933940000e-002) (31, -3.21186729644434770000e-002) (32, -4.24578321766454880000e-001) (33, 9.88776120243738400000e-002) (34, -3.02172804855811330000e-001) (35, 1.79706968624859350000e-001) (36, 5.48565181051639210000e-001) (37, 5.76021732467041800000e-001) (38, 2.84050771658319710000e-001) (39, 1.63277358115851840000e-001) (0, 9.73597265640738010000e-001) (1, -2.42946172205038840000e-001) (2, 2.74625556024933380000e-001) (3, -4.10814828979550250000e-002) (4, -3.31564973319718350000e-001) (5, 3.57228389548230220000e-001) (6, -1.63448678226954630000e-002) (7, -4.76803783876356360000e-001) (8, 1.33775761040488490000e-001) (9, 6.48187826269142180000e-001) (10, 3.00566218290590550000e-001) (11, 1.29126261145560890000e-001) (12, 3.38849475656245570000e-001) (13, 6.30064139333379600000e-002) (14, 5.83374971649832720000e-002) (15, 1.89051679429469740000e-001) (16, 3.61202704710923140000e-001) (17, 9.10360317341701450000e-002) (18, 6.56896420467469650000e-001) (19, 3.78893748915003210000e-001) (20, -1.17693117724053680000e-001) (21, 6.84476715511104510000e-002) (22, -1.67903294725736700000e-001) (23, 3.36281408683210690000e-002) (24, 4.55223356593721650000e-001) (25, 5.31917154136860360000e-001) (26, 7.61614300604541580000e-002) (27, -7.18342021154258600000e-001) (28, 7.81055085215072960000e-003) (29, -2.79047472152911570000e-002) (30, 2.81374603125972680000e-001) (31, 7.70018084687934760000e-001) (32, 5.80792355221241730000e-001) (33, -2.44882762469963600000e-001) (34, -6.75333200684522520000e-002) (35, 1.20302785961649490000e+000) (36, -9.58423760938335730000e-002) (37, 7.86989753426567060000e-003) (38, -5.01920991010215480000e-001) (39, -1.15334989180969250000e-002) (0, 1.00674573415989750000e+000) (1, 2.58130417068085860000e+000) (2, 3.51552180634957690000e-001) (3, 1.71280806981327010000e-002) (4, -1.82331397333842520000e-001) (5, 1.22116566674335160000e-002) (6, -9.71431163486302870000e-001) (7, 7.06396194274903770000e-002) (8, 4.55328418234756620000e-001) (9, 3.57791110889274840000e-001) (10, 6.19347728638856010000e-001) (11, -1.53581888401974290000e-001) (12, 5.98846475646959920000e-001) (13, 6.61761645222663790000e-001) (14, -7.35876966788808870000e-001) (15, -5.18984342065435760000e-001) (16, 9.20441718309347400000e-001) (17, 3.56577610194089180000e-001) (18, 5.61858297302516680000e-001) (19, 6.39248699210250960000e-001) (20, -3.11049905132172460000e-001) (21, 3.54863142489603490000e-001) (22, 2.73338876019903030000e-001) (23, -3.03952722889143430000e-001) (24, 5.13578505058086670000e-001) (25, -5.84836426130450680000e-002) (26, -3.10887747549263090000e-002) (27, 2.64031587719913470000e-001) (28, 2.43990424763833900000e-001) (29, 2.03377047151501040000e-001) (30, 2.80358440867776120000e-001) (31, 6.80531077580662670000e-001) (32, 8.51084507490797560000e-001) (33, 1.70946593933672710000e+000) (34, 3.61887679108450540000e-001) (35, 3.53374632913391380000e-001) (36, -1.77622159475255640000e-001) (37, 9.81319070189614200000e-002) (38, 1.75303309731124730000e-001) (39, 3.80947317798678080000e-001) (0, -1.95281811790931360000e+000) (1, 2.35088396141068090000e+000) (2, 3.15055595035185320000e-001) (3, -2.70971986548501850000e-001) (4, -9.25564602712265340000e-002) (5, 9.35994446999196120000e-002) (6, -7.67075812197609670000e-001) (7, -4.04383748609996210000e-001) (8, 8.97405827499403590000e-002) (9, 5.16758866334917290000e-002) (10, -4.93808114903817940000e-002) (11, 4.20569199771716360000e-001) (12, -4.07818480018994410000e-002) (13, 2.53218400370325950000e-001) (14, 3.82160473909933800000e-001) (15, -1.31274564717053010000e-001) (16, 2.44046724397065470000e+000) (17, 3.18978754625702100000e-002) (18, -6.36331703188569400000e-003) (19, -4.59546192927187570000e-001) (20, 1.78475605800493540000e-001) (21, 5.97083570880846400000e-001) (22, 8.81351309921762220000e-002) (23, 4.39933095022420560000e-001) (24, 5.07274687133027590000e-001) (25, 3.69522581475994040000e-001) (26, 1.87354304666134420000e-001) (27, 3.52050354801112030000e-003) (28, 4.49201006964182030000e-001) (29, 1.52795582673751460000e-001) (30, 6.00854222320560270000e-002) (31, -2.48514419887632840000e-001) (32, -5.31109992391446960000e-001) (33, 1.35814302406477580000e+000) (34, 3.03638498909877600000e-001) (35, 4.75406362913553760000e-001) (36, -5.17434198165819370000e-001) (37, -6.76431871865277800000e-003) (38, -6.19451595353396820000e-002) (39, 3.67097426303421130000e-001) (0, 1.17667222165754680000e-001) (1, 7.88259423653282280000e-001) (2, 6.78334840060391580000e-001) (3, 6.14491987587105770000e-001) (4, 1.40957704414317040000e-001) (5, 2.13831289999103120000e-004) (6, 3.64911245203494830000e-001) (7, 7.39328475917758850000e-001) (8, 1.55922571824344850000e-001) (9, 2.73208228612676020000e-001) (10, 9.21567600893641450000e-002) (11, 2.68344345844587050000e-001) (12, -2.41679003183111060000e-001) (13, -6.15636749489587460000e-001) (14, 6.41436779284562110000e-001) (15, 5.38219571554822470000e-001) (16, 5.36363104340606520000e-001) (17, 2.35441286959700370000e-001) (18, 5.35415074676967920000e-001) (19, 2.37103840268451130000e-001) (20, 3.30864829652148530000e-001) (21, 6.33985878116595790000e-002) (22, 8.08439888358487290000e-002) (23, -9.62231755435770660000e-001) (24, 4.74629242482337340000e-001) (25, 6.14159991761825120000e-002) (26, 2.38607533508082670000e-001) (27, 4.72686797357708850000e-001) (28, 3.47866897739880720000e-001) (29, -3.40769531212944730000e-001) (30, 1.14106690781407550000e-001) (31, 1.03815832119894630000e-001) (32, -2.53633013436883830000e-001) (33, -3.33594824349316750000e-001) (34, -1.80375584405687320000e-001) (35, -2.51236029602039560000e-001) (36, -2.19981421243670760000e-001) (37, 4.57548266122554950000e-001) (38, 7.97103947491475170000e-001) (39, 5.10426322105741570000e-001) (0, 1.30083415508131850000e+000) (1, 7.99812834009837710000e-001) (2, 1.48104532919463130000e+000) (3, -2.61003627135099000000e-001) (4, 8.70509755220802150000e-002) (5, 6.30406922818656510000e-001) (6, 4.13544100496513860000e-001) (7, -4.18727819890418570000e-001) (8, 2.59323970352047240000e-001) (9, 4.66002286263770440000e-001) (10, 9.47345974210985630000e-002) (11, 1.94486308121201020000e-001) (12, 2.47060430144509180000e-001) (13, 2.50516739731390830000e-001) (14, 8.01359284450672730000e-001) (15, 5.14786719356955730000e-002) (16, 1.87485139650057230000e-001) (17, 9.30038973325340470000e-001) (18, 1.32385993866869780000e-001) (19, 6.01207785882173050000e-001) (20, -2.24381034013139890000e-001) (21, 1.51841059739014690000e+000) (22, 7.29454789837484240000e-001) (23, 7.59834944191085660000e-002) (24, -7.44400600381500550000e-002) (25, 6.44135046284922690000e-002) (26, 3.79189275573421030000e-001) (27, -4.21709291140175750000e-001) (28, 2.16002713145533180000e-001) (29, 7.83500077463313070000e-001) (30, 9.25882208952828910000e-001) (31, 8.49366439596616620000e-001) (32, 1.60201634606563420000e-001) (33, 5.00533004409056420000e-003) (34, 5.72183452620569690000e-001) (35, 1.43189767362222660000e+000) (36, 3.65060810797844360000e-001) (37, 1.92970679852965870000e-001) (38, 2.21410402858312400000e-001) (39, 2.26478634176616210000e-001) (0, 3.06736414877464990000e+000) (1, 1.98180207786591890000e+000) (2, 9.19890312877088330000e-001) (3, 2.67626490862848010000e-001) (4, 5.71502749552932120000e-001) (5, -1.65719875655303550000e-001) (6, -8.96811381160657060000e-001) (7, 1.79178687679310920000e-001) (8, -3.37003130577150980000e-001) (9, 5.04934550616048190000e-001) (10, 3.47861417835405860000e-001) (11, 4.81610341928863760000e-001) (12, 1.40479642687353830000e-001) (13, 1.30880851221140630000e-002) (14, 1.05773804984549510000e+000) (15, 7.06407623712269390000e-001) (16, -4.83731110561101520000e-001) (17, -2.50357905901053590000e-002) (18, 1.37221043908293950000e-001) (19, 1.18266914608771950000e-001) (20, -1.11753534578932020000e+000) (21, 6.69261188969088820000e-001) (22, 9.26127103891098310000e-001) (23, -1.04542943389331660000e+000) (24, 2.01154737736541360000e-001) (25, 8.76272887877149740000e-001) (26, 5.97241768370320170000e-001) (27, 2.09984912320994750000e-001) (28, -3.16971484917889620000e-001) (29, 9.42297659463358220000e-002) (30, 1.20576819301577680000e-001) (31, -7.13870569899348940000e-001) (32, 9.62845314453542600000e-002) (33, 3.33426149127942270000e-001) (34, 1.23586714306955910000e+000) (35, -8.78412176676310220000e-001) (36, 6.90137810698745470000e-001) (37, 4.81878169105394050000e-001) (38, 3.06014992108416540000e-001) (39, 3.99642602300810280000e-001) (0, 8.03367792591340500000e-001) (1, 2.23103938604353490000e+000) (2, 4.34318586637954250000e-002) (3, 4.56200449647905740000e-001) (4, 3.17449163233782420000e-001) (5, 2.76863096466821330000e-001) (6, 4.85566498440587330000e-002) (7, -4.78672333240658110000e-001) (8, -3.22907216623673440000e-001) (9, 1.24730239190766660000e-001) (10, -6.71126552699585770000e-002) (11, 6.22456168786785780000e-002) (12, -7.17835710080628850000e-001) (13, -6.05995865864842330000e-002) (14, -2.62488917953583640000e-001) (15, -3.02613532380454740000e-001) (16, 9.62082897939763870000e-002) (17, 4.94526578533376230000e-001) (18, 5.42731569266157180000e-001) (19, 2.23370415469866770000e-002) (20, 5.61322506064110270000e-001) (21, 6.60396682456738440000e-001) (22, -2.43234086716353630000e-001) (23, 1.97848573745311670000e-001) (24, 2.01909045461409950000e-001) (25, 1.05423600438724810000e+000) (26, -2.37125824798460280000e-001) (27, 5.63228608751153210000e-001) (28, -2.76970249561357060000e-002) (29, 5.79228472161580130000e-001) (30, 4.41910766996838620000e-001) (31, 5.75838986581701100000e-002) (32, -3.50984942746611410000e-001) (33, -4.54802637481826530000e-001) (34, 9.83583434944547810000e-001) (35, 1.78194342750947030000e+000) (36, 5.38204731606522050000e-001) (37, 4.77617184618685630000e-001) (38, 5.29468690982083160000e-001) (39, 8.19956154527297640000e-001) (0, -1.25819746399103030000e-002) (1, 2.45158760568504520000e-001) (2, -6.14731155401996520000e-001) (3, -1.11896573523077280000e-001) (4, 4.43870241265943320000e-001) (5, -6.33855963906152790000e-002) (6, 2.30444468409320230000e-001) (7, 2.85550355224751920000e-001) (8, -8.37709419494558770000e-002) (9, -4.64083797369737710000e-001) (10, -4.83044813740209010000e-002) (11, 1.59578884601912140000e-001) (12, -4.20752695575047020000e-001) (13, -4.19418318269670280000e-002) (14, 7.90007498327255360000e-002) (15, -6.71725047145931430000e-002) (16, 2.45558002264439500000e-001) (17, 1.24963312289329870000e-001) (18, 2.64166130225820860000e-001) (19, 3.35676702123558710000e-001) (20, 2.79654554957652900000e-001) (21, 6.99118417387427530000e-001) (22, 9.56390149069830110000e-002) (23, 2.18978323166601260000e-001) (24, 1.09611478681194250000e-001) (25, 6.54442910396105470000e-001) (26, -5.09673510919306130000e-001) (27, 1.63375437381385390000e-003) (28, 1.00382505361552620000e-001) (29, 3.56990348673779100000e-002) (30, -3.06417489955772000000e-001) (31, -3.92084662502663050000e-001) (32, 1.18252248694057580000e-002) (33, -2.00897217357843630000e-001) (34, 6.79866434056260240000e-001) (35, -5.15432556436110630000e-001) (36, 7.17676776511565920000e-001) (37, 2.29538036844854160000e-001) (38, 2.91125750440476510000e-001) (39, -2.64332439634623920000e-002) (0, 1.59695410237999310000e+000) (1, 2.29726510112281580000e+000) (2, 5.70289643935229740000e-001) (3, 2.72385736290458420000e-001) (4, -1.72284873172387110000e-001) (5, -1.28543603105731100000e-001) (6, -2.82206698590913050000e-002) (7, -3.39809338136155490000e-001) (8, 1.47916773892121330000e-002) (9, 4.24465042422700390000e-001) (10, 3.67133639873430450000e-001) (11, 4.99576683747597280000e-001) (12, -1.95836027744957730000e-001) (13, 1.00022649472387240000e+000) (14, 9.08159869399622760000e-002) (15, -2.15286461736853040000e-001) (16, 4.13561134481935490000e-001) (17, -3.41449766101830810000e-001) (18, 5.19957064670850010000e-001) (19, 4.49102490869071840000e-001) (20, 3.62608395539579190000e-001) (21, 3.90323318208212480000e-001) (22, -1.74228533894961350000e-001) (23, 3.28307234798820510000e-001) (24, 5.66291474367812910000e-001) (25, 1.10789689915033920000e-001) (26, 4.38422001854931190000e-002) (27, -2.30301976453864850000e-001) (28, -4.24126296557513350000e-002) (29, 5.47148448596924240000e-001) (30, 6.23777239056042610000e-002) (31, -3.14745161652992710000e-001) (32, -2.15692290099867320000e-002) (33, 6.39387833134990590000e-002) (34, 1.71585708866675900000e-001) (35, -2.83431921088025280000e-001) (36, 3.30709138590780990000e-001) (37, 2.42148443048435770000e-001) (38, 8.70245777787012060000e-001) (39, 3.90659585013023780000e-001) (0, -4.18636759822027580000e-001) (1, -1.62143844294501700000e+000) (2, -4.79963395453413040000e-001) (3, -8.69911955620964460000e-002) (4, 9.19405445022479230000e-002) (5, 3.18859010004556850000e-001) (6, -3.72564845082234840000e-002) (7, 7.37702931271072980000e-002) (8, 5.88461102287711620000e-002) (9, -3.22894791759307300000e-001) (10, 2.26502481777718030000e-001) (11, 6.20543802127497160000e-001) (12, 2.28959231461700690000e-001) (13, -4.57241748393229990000e-002) (14, -2.55766392969557780000e-001) (15, 1.45153659899963230000e-001) (16, 3.57455658656034010000e-001) (17, 4.95287725531050050000e-001) (18, 1.14871117503088720000e-001) (19, 3.64739708685000110000e-001) (20, -2.75716777799840270000e-001) (21, 6.08952287858357530000e-001) (22, 3.67094185742888490000e-001) (23, 1.96417620800843380000e-001) (24, 2.43032127696282520000e-001) (25, 5.56753407718454940000e-001) (26, -1.13971765867954180000e-001) (27, 3.26054344225648440000e-001) (28, 7.75700501399440160000e-002) (29, -9.38346876992350730000e-002) (30, 1.75450844080045100000e-001) (31, 4.90441648849531290000e-001) (32, 1.45293496537146240000e-001) (33, -7.81999389549304150000e-001) (34, 4.56273910652407580000e-001) (35, 8.31072765076028340000e-001) (36, 1.14038821808378180000e-001) (37, 3.36644774788371020000e-001) (38, -7.95725912306889800000e-002) (39, 2.93769683782029110000e-001) (40, -1.80748206546101040000e-002) (41, -3.57511876898767120000e-001) (42, -1.56412550745133190000e-001) (43, 8.24158956494798340000e-002) (44, 6.17667349963075190000e-002) (45, 3.48919583359946700000e-002) (46, 1.71530993873508190000e+000) (47, -1.27209624576094250000e-001) (48, 7.80285613774589490000e-002) (49, -1.39183268031066490000e+000) (50, -5.08492443472654920000e-003) (51, 2.44020040676829920000e-001) (52, -3.31067301602036910000e-002) (53, 1.28173674368027900000e-001) (54, -3.04518436482212160000e-002) (55, 1.32535319181521710000e-002) (56, -8.24100927830964250000e-002) (57, -5.40539924628946070000e-002) (58, 1.63200673505034780000e-001) (59, -1.00725976534022980000e+000) (60, 4.53894309762903010000e-001) (61, 3.10559740503867190000e-002) (62, -3.63183601973568750000e-001) (63, -4.15445759645710120000e-001) (64, 6.46900080130331650000e-002) (65, 5.32433705769274210000e-002) (66, -7.44841386905524120000e-002) (67, 4.05079747232494680000e-001) (68, -9.22486967345495340000e-003) (69, 2.31785064643399010000e-001) (0, 7.38676772218740400000e-001) (1, -2.97616863539739060000e+000) (2, -1.02624664804488820000e+000) (3, 9.05167658937236640000e-002) (4, -1.34442121480575300000e-001) (5, 1.74611224686172100000e-001) (6, 8.52763049511054830000e-002) (7, 9.28697115417262960000e-002) (8, 3.02612879238205210000e-002) (9, 6.01490242413699190000e-001) (10, 1.27649629032845380000e-001) (11, 2.55908931754219860000e-001) (12, 1.67044702971088920000e-001) (13, 7.46301857980517070000e-001) (14, 1.56046285553376050000e-001) (15, 3.74466599541740110000e-001) (16, 3.23177117681662630000e-001) (17, 1.17270082194019260000e-001) (18, 6.67239926060385400000e-001) (19, -3.81652724335260930000e-001) (20, 1.32151665781477970000e-001) (21, -3.34816344602858890000e-002) (22, 2.70914444025968810000e-001) (23, 2.37857576269566050000e-001) (24, 9.60838628046161020000e-002) (25, 2.42954291277028670000e-001) (26, 8.20160028724180660000e-003) (27, 2.08881050312636650000e-001) (28, -3.83080148422866810000e-001) (29, 2.24330636530702450000e-001) (30, 8.06267780377655450000e-001) (31, 5.50792126477707260000e-001) (32, 2.27720882444348930000e-001) (33, -5.67703396963964550000e-001) (34, -6.91795156630211850000e-001) (35, 6.60356392649860120000e-001) (36, -7.05119748659350560000e-001) (37, 1.98238438276317900000e-001) (38, 2.17949475558885470000e-001) (39, 5.64279512899880540000e-001) (40, -8.96512891355998910000e-003) (41, 7.85773332902355570000e-002) (42, 2.64260756759654820000e-001) (43, 4.88970371249446770000e-002) (44, 3.05666005333377590000e-002) (45, 4.13900648701681860000e-001) (46, -3.09561382043070480000e-002) (47, -4.84066165794077070000e-001) (48, 1.64255236788751130000e-002) (49, 1.23248642682025860000e-001) (50, -2.74367212481651730000e-002) (51, -9.32465234498263410000e-002) (52, 1.87423180782593540000e-001) (53, -6.59324277889006550000e-002) (54, 7.65391738837876420000e-002) (55, -6.00949074133134810000e-001) (56, 4.93039508759388400000e-001) (57, -1.13097998285109190000e-001) (58, -4.76627495121537400000e-002) (59, 4.99716819893416430000e-001) (60, 1.63416740483205090000e-001) (61, -1.87202691039003390000e-001) (62, 2.78597587531145690000e-002) (63, 4.63239211743951000000e-001) (64, 8.34658100471869810000e-003) (65, 2.30678597400539780000e-001) (66, 6.31084128127779480000e-001) (67, 2.39409513411339310000e-001) (68, 8.22044822222157250000e-001) (69, 3.66070644029711730000e-001) (0, 1.65615117735259050000e+000) (1, -1.50443575361568450000e+000) (2, -2.32459900554058100000e+000) (3, 3.66114205326548980000e-002) (4, 5.15707093773321860000e-002) (5, -4.35696847198862450000e-002) (6, -9.41416852751620070000e-002) (7, 1.33766155057989610000e-001) (8, 4.96571779666401150000e-001) (9, 2.26982532262557970000e-002) (10, 7.28170081818580120000e-001) (11, 7.23579923143741310000e-001) (12, 1.93155793193689700000e-001) (13, 7.03154280284488560000e-001) (14, -1.39090233074898460000e-001) (15, -1.04197303603217180000e-001) (16, 4.50914443150943480000e-001) (17, 1.75582813116409220000e-001) (18, 8.74574476538650840000e-001) (19, 6.45816401775189060000e-001) (20, -1.53974882705153720000e-001) (21, 3.15113389606288540000e-001) (22, 1.28818985452289340000e-001) (23, -1.21022179387486370000e-001) (24, 5.08811981908483980000e-001) (25, 9.48831008383762930000e-003) (26, 3.04583015223306830000e-001) (27, -1.71413520290508130000e-001) (28, -3.53718544063105430000e-001) (29, 3.43251356551959710000e-001) (30, 2.32642565869948440000e-001) (31, -1.52226911396428520000e-001) (32, -2.90956897304691490000e-001) (33, 5.40780124564672060000e-001) (34, -3.57153777028072050000e-001) (35, -1.80803132526968980000e+000) (36, 1.15031266066364770000e-001) (37, 7.72577686779312600000e-001) (38, 4.67329910617516050000e-001) (39, 7.24249167548396080000e-001) (40, -4.00718042161125330000e-002) (41, -2.84195581960002310000e-002) (42, -1.38962592586118670000e-002) (43, 4.60012266157815290000e-002) (44, 1.95798460566696980000e-002) (45, -1.14689124353763050000e-001) (46, 2.61923742438416980000e-002) (47, -4.75644628661960540000e-002) (48, 9.86994767622336320000e-002) (49, -9.68968605340131410000e-002) (50, -2.60335506282712070000e-001) (51, -8.37084109220738390000e-001) (52, -7.93168706281554140000e-002) (53, -2.44444971497104340000e-001) (54, 1.65010315812799680000e-002) (55, -1.13077820615919930000e+000) (56, 5.11312149503459050000e-001) (57, 2.30203309523306700000e-001) (58, 4.01363279639473770000e-001) (59, -4.52969736953559370000e-002) (60, 4.39099846993886770000e-001) (61, 1.78393156065398520000e-001) (62, -6.21930375623397720000e-003) (63, -4.52497122948262720000e-002) (64, -2.36664481091585360000e-002) (65, 6.49833826177155790000e-002) (66, 1.45567921434352630000e-001) (67, 4.69344295284207240000e-001) (68, 7.23667211021500110000e-001) (69, -1.32695093944562560000e+000) (0, 4.63879496033403340000e-001) (1, 8.33336641617550560000e-002) (2, 3.96462156092605710000e-001) (3, 2.00319816558558490000e-001) (4, 2.84360125259832400000e-001) (5, 1.18040316097274680000e-001) (6, 5.59580442141278110000e-001) (7, 1.06163174384805130000e-001) (8, 2.90731334710680740000e-001) (9, 4.75775966916530010000e-001) (10, 1.92653756679778240000e-001) (11, -9.74753021946866000000e-002) (12, -4.45724475923540920000e-001) (13, 4.69302712764473940000e-001) (14, 3.94055964979073360000e-001) (15, 6.96066029197736190000e-001) (16, 7.62203875580611310000e-001) (17, 3.27578073423082320000e-001) (18, 1.56410497527330440000e-001) (19, 3.79616219824998270000e-001) (20, 1.01678923476832730000e-001) (21, -1.31358679553707250000e-001) (22, -5.78098417405968000000e-002) (23, 4.15379404210393860000e-002) (24, 2.70634534401521460000e-001) (25, 2.08925169146742280000e-001) (26, 5.99446442038546470000e-001) (27, -1.10630266517883440000e-001) (28, -1.30025863687720070000e-001) (29, 1.33973425558451870000e-002) (30, -3.21508701970938670000e-001) (31, 5.24527865189154730000e-001) (32, 1.14139952020488700000e-001) (33, -1.34716834632373610000e-001) (34, 7.83673012444856100000e-001) (35, -4.26143573835304550000e-001) (36, 2.50492206381159770000e-001) (37, 4.07673388829018380000e-001) (38, 7.94133123918099090000e-001) (39, 4.99033870987199590000e-001) (40, -2.50442770718973580000e-001) (41, 5.58551395367663960000e-001) (42, -8.72104498290388830000e-001) (43, 3.03987221473564500000e-001) (44, -2.77270984545530060000e-001) (45, 6.94078035262133410000e-001) (46, -1.02469871566804540000e-001) (47, 1.95899443843137370000e-001) (48, 2.45912128299585110000e-001) (49, 9.65743374834366620000e-002) (50, -1.65144081223598330000e-001) (51, -4.20525915054137330000e-001) (52, 1.68150838383143010000e-001) (53, -1.02661555027986850000e-001) (54, -2.43663183030939530000e-001) (55, 3.06913031694076410000e-001) (56, 2.32335292763251790000e-001) (57, -1.53173130447041620000e-001) (58, 2.60075486141807810000e-001) (59, -1.08930038729075410000e+000) (60, 5.37820702114307660000e-001) (61, 1.94664571898223860000e-001) (62, 1.07565932201746550000e+000) (63, 9.15269524186403170000e-001) (64, -1.79236140941623740000e-001) (65, 1.44638431855345940000e-001) (66, -4.14166946469239490000e-002) (67, 2.85606859504320130000e-001) (68, 6.05714288074494340000e-001) (69, 3.66172624553941170000e-001) (0, -3.02281601340986980000e-002) (1, -1.43107518173116600000e+000) (2, -2.71103312453438110000e-001) (3, 4.41676199578799060000e-001) (4, -2.34069508198285840000e-001) (5, 2.90477361093735340000e-001) (6, -1.92214703406921730000e-001) (7, 1.32721813936526460000e-001) (8, -6.57554728076931300000e-002) (9, -1.31983526008653600000e-001) (10, 2.80386407447227430000e-001) (11, -2.72769904511425340000e-002) (12, -3.05821581918135970000e-001) (13, -7.01981073218631290000e-003) (14, -2.37855746426656520000e-001) (15, 4.15518058402005620000e-001) (16, -3.50067997639905090000e-001) (17, 6.71829564403339780000e-003) (18, 1.11577444211180380000e-001) (19, 3.43728406926997020000e-001) (20, -4.49571793284521740000e-001) (21, 5.70178714178609320000e-001) (22, 1.22776575494783780000e+000) (23, -3.10442267058524350000e-001) (24, 4.21416320643244580000e-001) (25, 1.80457997560990510000e-001) (26, -1.80263286414684590000e-001) (27, 6.32828052171077290000e-001) (28, 2.03223038788646500000e-001) (29, 2.39546639502906670000e-001) (30, -4.60371301278274530000e-001) (31, 6.91076077885690030000e-001) (32, -2.51805233869053120000e-001) (33, -1.12716728982131350000e-001) (34, 3.39938643776909470000e-001) (35, 4.65200599385625800000e-001) (36, 6.74110079640826810000e-001) (37, 2.62436900448356550000e-001) (38, -2.08320312534557990000e-001) (39, -3.44634305978058330000e-001) (40, -9.64877524004645100000e-001) (41, -3.59756946090712070000e-001) (42, 2.86811814369386030000e-002) (43, 2.81240911632974820000e-001) (44, -8.10312523477682010000e-002) (45, -7.14639235799166550000e-001) (46, 1.51326404641862590000e-001) (47, 3.27952430266351680000e-001) (48, -4.94724692150273620000e-002) (49, -6.60763357959006930000e-002) (50, 5.75452906046160510000e-001) (51, 4.02774412287636440000e-001) (52, -7.10141662226724260000e-002) (53, 1.10099330829372200000e+000) (54, -7.56723410384631520000e-003) (55, 2.16460191530917890000e-001) (56, 1.10984921551793220000e-001) (57, -3.86327330410753730000e-001) (58, 3.25627082886295050000e-001) (59, -7.38475734207665600000e-002) (60, 8.15294931759687700000e-001) (61, 2.72346875601713780000e-001) (62, -8.58050002824965220000e-003) (63, 4.77162978986438170000e-002) (64, -5.37307437217135140000e-001) (65, 1.04024567396769930000e+000) (66, -3.11632663997619350000e-001) (67, -2.45396292272608590000e-001) (68, 4.53404196490513890000e-001) (69, -4.95995029980969390000e-001) (0, 2.32478074959203390000e-001) (1, 1.49855175222205510000e-001) (2, -2.92328429258538190000e-001) (3, 1.14877227449775670000e-003) (4, 8.53546847428210830000e-002) (5, 5.07708784931929500000e-001) (6, -1.43210557519488410000e-001) (7, 2.62520743705611130000e-001) (8, -1.51493851803012590000e-001) (9, -8.47102627343014340000e-002) (10, -1.22288557080118950000e-001) (11, 8.38098821232058920000e-001) (12, -2.46884512177568790000e-001) (13, -4.27621103083849210000e-001) (14, -2.11002059536995330000e-001) (15, 2.93620909566694450000e-001) (16, 2.99845969052406180000e-001) (17, 1.32672892671661350000e-001) (18, -8.90029875168147360000e-002) (19, 5.23205382098726910000e-001) (20, 6.86527338847634280000e-001) (21, 4.90796729648072580000e-001) (22, 3.48434194006276730000e-001) (23, 2.43530602431649340000e-001) (24, 9.01852930551965550000e-002) (25, 5.51070785061948400000e-001) (26, 2.69196783328212840000e-001) (27, 3.35738495700018900000e-001) (28, 5.36559739356713640000e-001) (29, 7.61255953093007000000e-002) (30, 3.50476481909293980000e-001) (31, -3.10612492459316100000e-001) (32, 6.89459316195588780000e-002) (33, 1.12557863380714720000e-001) (34, 4.43972169687969650000e-001) (35, 7.19642163099156630000e-001) (36, 3.92502739925499220000e-001) (37, 1.01120905922959240000e+000) (38, -2.70473988652480310000e-003) (39, -1.11864197678437690000e-002) (40, 4.63951214311925040000e-001) (41, -2.30255560730612960000e-001) (42, 3.69213929815186690000e-002) (43, 7.82767624033159910000e-001) (44, 2.15747160505154690000e-001) (45, 6.96632230244884160000e-003) (46, -4.71290929924339310000e-002) (47, -4.51008626643387030000e-001) (48, 8.20762135803740690000e-001) (49, 3.04163855914604850000e-002) (50, 8.27392917185614580000e-001) (51, 9.00564320609358090000e-001) (52, -4.15807321010519260000e-001) (53, 7.52135057120125520000e-001) (54, 1.79068463905070500000e-001) (55, -9.13256847606931650000e-002) (56, 5.06384600746309870000e-001) (57, 7.24784129556423130000e-001) (58, 4.81904729506419940000e-001) (59, 1.71035383688073530000e-001) (60, 4.65970461168119240000e-001) (61, 1.72809220283750060000e-001) (62, -1.64668092568000750000e-001) (63, -6.73110950568856920000e-002) (64, 3.49045295302407130000e-001) (65, -4.00417925359486230000e-001) (66, 5.24526204853107640000e-001) (67, 2.95886251124755860000e-001) (68, 2.66691555585537310000e-001) (69, 2.22230703182502070000e-001) 
