FANN_FLO_2.1
num_layers=4
learning_rate=0.700000
connection_rate=1.000000
network_type=1
learning_momentum=0.000000
training_algorithm=2
train_error_function=1
train_stop_function=1
cascade_output_change_fraction=0.010000
quickprop_decay=-0.000100
quickprop_mu=1.750000
rprop_increase_factor=1.200000
rprop_decrease_factor=0.500000
rprop_delta_min=0.000000
rprop_delta_max=50.000000
rprop_delta_zero=0.100000
cascade_output_stagnation_epochs=12
cascade_candidate_change_fraction=0.010000
cascade_candidate_stagnation_epochs=12
cascade_max_out_epochs=150
cascade_min_out_epochs=50
cascade_max_cand_epochs=150
cascade_min_cand_epochs=50
cascade_num_candidate_groups=2
bit_fail_limit=1.00000001490116120000e-001
cascade_candidate_limit=1.00000000000000000000e+003
cascade_weight_multiplier=4.00000000000000020000e-001
cascade_activation_functions_count=10
cascade_activation_functions=3 5 7 8 10 11 14 15 16 17 
cascade_activation_steepnesses_count=4
cascade_activation_steepnesses=2.50000000000000000000e-001 5.00000000000000000000e-001 7.50000000000000000000e-001 1.00000000000000000000e+000 
layer_sizes=10 10 10 6 
scale_included=0
neurons (num_inputs, activation_function, activation_steepness)=(0, 0, 0.00000000000000000000e+000) (0, 0, 0.00000000000000000000e+000) (0, 0, 0.00000000000000000000e+000) (0, 0, 0.00000000000000000000e+000) (0, 0, 0.00000000000000000000e+000) (0, 0, 0.00000000000000000000e+000) (0, 0, 0.00000000000000000000e+000) (0, 0, 0.00000000000000000000e+000) (0, 0, 0.00000000000000000000e+000) (0, 0, 0.00000000000000000000e+000) (10, 5, 1.00000000000000000000e+000) (10, 5, 1.00000000000000000000e+000) (10, 5, 1.00000000000000000000e+000) (10, 5, 1.00000000000000000000e+000) (10, 5, 1.00000000000000000000e+000) (10, 5, 1.00000000000000000000e+000) (10, 5, 1.00000000000000000000e+000) (10, 5, 1.00000000000000000000e+000) (10, 5, 1.00000000000000000000e+000) (10, 5, 1.00000000000000000000e+000) (20, 5, 1.00000000000000000000e+000) (20, 5, 1.00000000000000000000e+000) (20, 5, 1.00000000000000000000e+000) (20, 5, 1.00000000000000000000e+000) (20, 5, 1.00000000000000000000e+000) (20, 5, 1.00000000000000000000e+000) (20, 5, 1.00000000000000000000e+000) (20, 5, 1.00000000000000000000e+000) (20, 5, 1.00000000000000000000e+000) (20, 5, 1.00000000000000000000e+000) (30, 0, 1.00000000000000000000e+000) (30, 0, 1.00000000000000000000e+000) (30, 0, 1.00000000000000000000e+000) (30, 0, 1.00000000000000000000e+000) (30, 0, 1.00000000000000000000e+000) (30, 0, 1.00000000000000000000e+000) 
connections (connected_to_neuron, weight)=(0, -2.26176812471152760000e-001) (1, 4.41771354062314550000e-001) (2, 2.41580984363099850000e-001) (3, 2.15204569862108290000e-001) (4, 6.74184370280783010000e-002) (5, 3.52383580425188820000e-002) (6, -2.37650424054281860000e-001) (7, -6.12778189005887750000e-002) (8, 7.94394024232196180000e-002) (9, 3.68286513444936110000e-002) (0, 3.80746784653385070000e-001) (1, -9.01595038039282430000e-001) (2, 6.75439417822730310000e-001) (3, 2.83294954559915840000e-002) (4, 8.41784741838471350000e-002) (5, 4.83370134303223250000e-002) (6, -3.16061305171747640000e-002) (7, 2.66227972867128290000e-001) (8, -3.76371061997559210000e-001) (9, -2.69966277296337760000e-001) (0, 2.51180753092545350000e+000) (1, 4.15371070618427100000e-001) (2, -1.60369114529323730000e-001) (3, -2.45877423447738080000e-001) (4, 3.17222992131874900000e-005) (5, 9.94342522805025800000e-003) (6, -7.83407029493369710000e-001) (7, 1.30571929601719090000e-001) (8, 8.32224341861586700000e-002) (9, 9.47809824144241200000e-001) (0, -8.37491875842189320000e-001) (1, 1.96922016360710720000e+000) (2, -8.47119004954241310000e-001) (3, -7.26596334347219710000e-003) (4, -1.76942190944635970000e-002) (5, -1.57707285480517680000e-002) (6, 7.79962403086504470000e-002) (7, -1.47680865092517040000e-001) (8, -3.31428505968473440000e-002) (9, -3.56216549902293070000e-001) (0, 4.01288063084764830000e-001) (1, 7.00485341276651190000e-001) (2, 2.35635571941085750000e-001) (3, -3.17166057833001610000e-001) (4, -1.44480354742398060000e-001) (5, 3.78783012092783340000e-002) (6, 1.66849432606072910000e-001) (7, -3.08121386142984170000e-002) (8, -7.72750325282696850000e-002) (9, 1.83614649896282260000e-001) (0, -8.81448317492870340000e-001) (1, 2.06701007285482820000e+000) (2, -1.37427564297071500000e+000) (3, -9.71721878004780240000e-002) (4, 1.57911586098180510000e-001) (5, -1.53256972949019880000e-001) (6, 2.53716172709532060000e-001) (7, -6.04633439629251420000e-001) (8, 4.50709991108712570000e-001) (9, -1.86872683678208560000e-001) (0, -2.04595882685790100000e+000) (1, -2.29795773046942080000e+000) (2, 1.21649574814356010000e+000) (3, 4.65473273360089010000e-002) (4, -1.69508062094101100000e-002) (5, 6.02395032697379280000e-003) (6, 4.16033595558794160000e-001) (7, 4.77995608472257310000e-001) (8, -2.28692453003965980000e-001) (9, 9.46136210652182560000e-002) (0, -1.20241223483324960000e-001) (1, -1.47338743820178890000e+000) (2, -1.48023865959754470000e+000) (3, -1.24493223421489540000e-001) (4, 4.35438256671574820000e-001) (5, 3.17395794441046150000e-001) (6, 5.25630654649310300000e-002) (7, 4.46483740327395740000e-001) (8, 4.13699525154998530000e-001) (9, -3.67223749875887070000e-001) (0, -3.05469951775304840000e-001) (1, -2.88257037987835810000e-001) (2, -2.84904415336294130000e-001) (3, -1.71871819020379730000e-001) (4, -2.39562224365222870000e-001) (5, -1.54514113377215850000e-001) (6, -1.14327739384044470000e-001) (7, -3.94016081084863020000e-001) (8, -3.94564633904770230000e-002) (9, 1.30963674214179870000e-001) (0, 1.75236459405310980000e+000) (1, 8.22502094982655580000e-001) (2, 1.91867475830086810000e-001) (3, -6.45999737518528070000e-002) (4, -4.70043740885220380000e-002) (5, 1.51712145559804190000e-002) (6, 6.06952946397303560000e-002) (7, 1.67557365650750160000e-001) (8, -9.02981172709313300000e-002) (9, 6.70845282605831870000e-001) (0, -1.99696521508610920000e-002) (1, 1.43000769446487140000e+000) (2, -2.10637700555435290000e-001) (3, 2.26351414733950320000e-001) (4, 1.19740432315673020000e-001) (5, 1.67833386767583030000e-001) (6, -1.53455537465989360000e-001) (7, -5.61047801378859460000e-002) (8, 1.01903364629759660000e-001) (9, 1.57186048720007880000e-001) (10, -4.50269893816062530000e-001) (11, -2.85870369751604900000e-001) (12, -3.20334674031266920000e-001) (13, 3.35627657706875800000e-001) (14, 1.88221473504779610000e-001) (15, 5.32060393286020730000e-001) (16, 7.75876480902958690000e-001) (17, 1.83874760200000540000e-002) (18, 4.89034111306804020000e-001) (19, 1.90450991684285970000e-002) (0, -1.48163728553654490000e+000) (1, 1.07506660125887900000e+000) (2, 3.75985735973045010000e+000) (3, -7.26013199549823960000e-002) (4, 8.77470518272625150000e-002) (5, 2.04358854719281670000e-001) (6, 2.93252059058268230000e-001) (7, -4.22161128643862130000e-001) (8, -3.34856163891968760000e-001) (9, -3.32459475487636210000e-001) (10, 2.06740970931119540000e-001) (11, 1.93831056648307580000e+000) (12, 4.91022137010653990000e-002) (13, 3.70359153149110720000e-001) (14, 9.96321243851445710000e-002) (15, 1.65618990784984400000e-001) (16, -4.45226091442082690000e-001) (17, -4.18182695352149190000e-001) (18, 2.58555170790480900000e-001) (19, 1.70326820836301410000e-001) (0, -8.46017944622239120000e-001) (1, 3.19549846654562600000e-001) (2, 1.32280460688272550000e-002) (3, 1.38279461642172670000e-001) (4, -1.10026804088294490000e-001) (5, 1.66322632985220820000e-001) (6, -4.14680051892855170000e-001) (7, 2.92784208182562460000e-001) (8, -5.25256650131939560000e-001) (9, -3.22845216934117620000e-002) (10, 3.74074596998822120000e-001) (11, -3.21232969121412580000e-001) (12, 4.02910244794163490000e-002) (13, -1.49806397762036690000e-001) (14, 1.49920917163601670000e-001) (15, 2.81461382504703710000e-001) (16, -7.94135662652133840000e-002) (17, -1.85291971998250370000e-001) (18, 5.22561451598561110000e-002) (19, 4.80439859873756040000e-001) (0, -2.42195911414724990000e-001) (1, 1.52574541226144140000e-001) (2, -4.36368347370892530000e-001) (3, -1.53841272264782110000e-001) (4, 1.01556423126554390000e-002) (5, -3.64156274273550600000e-002) (6, 1.18225700001273440000e-001) (7, 1.24872329293628030000e-001) (8, -5.70122374242662750000e-002) (9, -1.88701888771420020000e-001) (10, 3.08934775559153720000e-001) (11, -1.36261189439447340000e-001) (12, -1.56878179452078490000e-001) (13, -6.31677278658963500000e-001) (14, -4.35394862178704050000e-002) (15, -4.39789021907029470000e-003) (16, -2.50449664150717980000e-002) (17, 7.70682363545519830000e-002) (18, 3.55123683851994220000e-001) (19, 3.32215357706015900000e-001) (0, -1.56681443260340880000e+000) (1, -7.79603938668574220000e-002) (2, -3.68264003807109890000e-001) (3, -2.60915125736189250000e-001) (4, -1.72631273943713660000e-001) (5, 3.92913492068934920000e-002) (6, 2.50337716578949540000e-001) (7, 3.01814752618563520000e-002) (8, 4.01439357109588830000e-001) (9, 5.83611616861950260000e-002) (10, -7.43923550249294680000e-001) (11, 1.21333196654556490000e+000) (12, -1.47233649983332520000e-001) (13, 3.91813125056819810000e-001) (14, 5.17086325064619160000e-001) (15, 4.71078016293446590000e-001) (16, 3.63273159441606320000e-001) (17, 2.06566394108479210000e-001) (18, 1.19968168182880630000e-001) (19, -4.08973272964629540000e-001) (0, 5.80119244235688500000e-001) (1, -4.15161659511212200000e-001) (2, 5.87397327581090020000e-002) (3, -4.80676357288435590000e-002) (4, 4.41754930322672890000e-002) (5, 4.39764132386960440000e-001) (6, -1.09978507284997270000e-001) (7, -8.81579844553195130000e-002) (8, 1.39321332982091570000e-001) (9, -8.22242344276543640000e-001) (10, 1.97663713128718940000e-001) (11, 3.39297644284761380000e-002) (12, 5.72622912008643180000e-002) (13, 2.29054428485772840000e-001) (14, 3.98830444148293110000e-001) (15, 3.29599204416758520000e-002) (16, 4.45679752745596900000e-001) (17, -3.75511889331312240000e-001) (18, -3.58585573024888190000e-001) (19, -3.93486343131478960000e-001) (0, 6.74190946030199910000e-001) (1, 1.34588539429409360000e+000) (2, -2.17421296243821280000e-001) (3, 2.24877607346135520000e-001) (4, -2.23519467870779000000e-001) (5, 5.53125381778284850000e-001) (6, -9.70198401581916780000e-002) (7, -2.53206690188896740000e-001) (8, 2.30539093633736090000e-001) (9, 3.00709409325248260000e-001) (10, -3.00310766271044580000e-001) (11, -1.00222569480504590000e+000) (12, -4.77254351875570250000e-001) (13, 5.68774426077157670000e-001) (14, -2.08431562088601830000e-001) (15, -2.06130346960071650000e-001) (16, 3.76840263578992270000e-002) (17, 9.78237567357548520000e-001) (18, 5.04397379418630170000e-001) (19, 2.52081255827837300000e-001) (0, -6.26406607754649510000e-001) (1, 3.62853166596427080000e-001) (2, 3.20276940090481020000e+000) (3, -4.25211460258874480000e-002) (4, -1.17614532811604460000e-001) (5, -2.26102257358453180000e-001) (6, 1.49606920733282970000e-001) (7, 1.74978464226086900000e-001) (8, 1.36328929395075650000e-001) (9, -5.61445884609759530000e-001) (10, 1.14989191256270810000e+000) (11, 4.55419392920607740000e-001) (12, 9.99109948917759060000e-002) (13, -6.18989308730446340000e-002) (14, 6.03420196706634490000e-001) (15, -2.23038945430340670000e-002) (16, -1.85983420257548810000e-002) (17, -2.44783439040691280000e-001) (18, 3.70031682060147130000e-003) (19, -3.44800856825717360000e-002) (0, -2.01595861884092260000e-001) (1, 1.19215152254272620000e-001) (2, -1.08522728706897190000e+000) (3, 2.97557423275071240000e-002) (4, 1.87504379158353360000e-001) (5, 3.40486319474529660000e-002) (6, 2.33043032984544620000e-001) (7, 2.22971841170639150000e-001) (8, -2.52969661507479880000e-002) (9, -1.46119114903214580000e-001) (10, 2.59812104390527990000e-001) (11, -9.12110449155858260000e-001) (12, 4.33896500334369110000e-001) (13, -7.21877121174449350000e-001) (14, 1.98920143315158630000e-002) (15, -6.26399812975379940000e-001) (16, 5.70071618036278820000e-001) (17, 6.84998561261155050000e-002) (18, 3.75362050508228680000e-001) (19, 6.01639934198010750000e-002) (0, 5.00662498875005690000e-001) (1, 1.51153941284920800000e-001) (2, -3.05437603787154790000e-001) (3, 3.53983609365378930000e-002) (4, 1.60561716857240300000e-001) (5, 8.53568077441121950000e-002) (6, -2.36296435671510350000e-001) (7, -1.91681622570758300000e-001) (8, -5.77492703774795950000e-002) (9, -2.75403917527715330000e-002) (10, -3.11985540003843040000e-001) (11, -3.64776033840954860000e-001) (12, 2.72942142469193960000e-001) (13, -9.18087569109584670000e-001) (14, -1.04031397803767540000e-001) (15, -6.08787378802129030000e-003) (16, -4.86251384821374030000e-001) (17, -4.20715637050947610000e-001) (18, 1.85140481785724400000e-001) (19, 4.54194847532636840000e-001) (0, 3.61693749467805410000e+000) (1, -1.71041181148451660000e+000) (2, -1.20506579479447510000e-001) (3, -8.09484796107080300000e-002) (4, 1.66235150620972970000e-001) (5, -2.15961328147932730000e-001) (6, -5.28678020396890820000e-001) (7, 1.86493512478296240000e-001) (8, 2.17469008275593730000e-001) (9, -1.38152195741674010000e-001) (10, -9.44851353270415030000e-002) (11, 7.35661043358440850000e-001) (12, 3.82067198527705270000e-001) (13, 6.20212610617651980000e-002) (14, 2.40455281905922300000e-001) (15, -1.95191051583707860000e-001) (16, 6.93435228270300690000e-001) (17, -1.66515318551295780000e-001) (18, 3.00273076120597280000e-001) (19, 9.55385881278638520000e-002) (20, 2.55087414295948940000e+000) (21, 7.06823547887664850000e-002) (22, 2.75291285991252300000e-001) (23, -6.86885152144409930000e-001) (24, -5.51800513003951540000e-002) (25, 1.04318241378223510000e-001) (26, 1.94706087385467690000e-001) (27, -2.48621185034481610000e-002) (28, 2.55955155474478950000e-001) (29, -2.48058502048535020000e-001) (0, -7.84873058639735000000e-001) (1, -9.55886839118521460000e-001) (2, -1.60480496628642010000e+000) (3, 1.20834920960241840000e-001) (4, -1.95312014178992850000e-001) (5, -1.75281480988429110000e-001) (6, 9.10990878139048140000e-002) (7, 8.35505827389584900000e-002) (8, 6.05254095192455210000e-001) (9, -2.17908544897119500000e-001) (10, -3.67213404637018680000e-001) (11, 6.18419698928976190000e-001) (12, -2.72959657111217280000e-001) (13, 9.69147530676317310000e-001) (14, 2.47551839240254990000e-002) (15, 1.22950230193190610000e-001) (16, 3.95504060943818180000e-002) (17, 4.73849204375405670000e-001) (18, -1.58133360142299700000e-001) (19, -8.82410352106149790000e-002) (20, -2.46745300188739300000e-001) (21, 1.37841780021019630000e+000) (22, 1.25241644585299930000e-001) (23, 6.42334332099654850000e-001) (24, -2.98224992917732690000e-001) (25, 4.17753627812144760000e-001) (26, -2.54796032928598480000e-001) (27, 2.72657685385758300000e-001) (28, 9.77334674465039080000e-001) (29, 7.59675427306965130000e-001) (0, -1.55357860906132790000e+000) (1, 1.83625847616301830000e+000) (2, -2.08965737977134940000e+000) (3, -1.37863636703715790000e-002) (4, -2.16459185102855220000e-001) (5, -1.73870491020906380000e-001) (6, 3.25220393176801510000e-001) (7, -2.72434345351673770000e-001) (8, 3.92351007009712090000e-001) (9, -3.63449693884424550000e-001) (10, -3.05009275424258320000e-001) (11, -2.55907026366912700000e-001) (12, -2.57538044793718110000e-001) (13, 1.00394429500534140000e+000) (14, -8.43769796041348390000e-001) (15, 2.79185313260713050000e-001) (16, -7.68051564869683400000e-002) (17, 4.48024247201797010000e-001) (18, 3.46948537335046710000e-002) (19, 4.04604588149740930000e-001) (20, -4.29701806787874010000e-001) (21, 6.77812054106184610000e-001) (22, -6.15034650217342950000e-002) (23, 8.12789703985930530000e-001) (24, -4.03905360209365900000e-001) (25, 8.98791787806424100000e-001) (26, -2.98382384173786710000e-001) (27, 1.99090680759674260000e-001) (28, 2.28265005898633880000e+000) (29, 1.05139609280367850000e+000) (0, 1.08615340310050920000e-001) (1, -1.32666018031832230000e-001) (2, 1.37606258152608550000e-001) (3, 5.90578044983064920000e-002) (4, 1.03626828187534480000e-001) (5, 3.49869607301082350000e-002) (6, 3.08103883270478110000e-001) (7, -2.38337982874969460000e-001) (8, 4.44688470916453710000e-002) (9, -1.24230188254087030000e-001) (10, -2.68121889706729620000e-001) (11, -3.21880940342976260000e-001) (12, 6.64872877213123050000e-001) (13, 2.11546260820942630000e-001) (14, -3.93644015779905710000e-001) (15, 2.51635040125928470000e-002) (16, 4.69973762339571670000e-002) (17, -9.09039982501990420000e-002) (18, 1.42041323375625470000e-001) (19, 3.63003015564029250000e-001) (20, -3.16438966047064900000e-001) (21, 8.11943627668325170000e-003) (22, 2.52397186687463470000e-001) (23, 5.03810907297476800000e-001) (24, -4.99616003143734180000e-002) (25, 1.21296504133762830000e-001) (26, -6.08298392864834410000e-003) (27, 4.82315042280789740000e-002) (28, -1.77882870154141560000e-002) (29, -9.29874117519371770000e-001) (0, 2.18302383917623990000e-001) (1, -1.70785810042491050000e-001) (2, 4.54504826320893510000e-001) (3, 3.08855456281599050000e-001) (4, 4.43564214957155660000e-002) (5, 1.65568005906115890000e-001) (6, -2.79675693667119530000e-001) (7, -6.92302159990910490000e-001) (8, 1.27649439835335580000e-001) (9, -8.33233314041878780000e-002) (10, -7.52749808428192640000e-002) (11, 2.12421522773100160000e+000) (12, -5.59347952009321860000e-001) (13, 2.93067900438508110000e-002) (14, 4.98893587367570370000e-003) (15, 1.28435657175005290000e+000) (16, 1.16065091040506940000e-001) (17, 4.52401555753507660000e-001) (18, -2.54778707309064930000e-001) (19, 8.62924600790527680000e-001) (20, -7.48283659102260410000e-002) (21, -5.92049301750748100000e-001) (22, 9.74770340190242560000e-001) (23, 3.29018961869680120000e+000) (24, 1.83953929411874970000e-001) (25, -5.19350527197240170000e-001) (26, 5.74262287130141380000e-001) (27, 1.34045736505844700000e+000) (28, -1.16696112721890300000e-001) (29, 1.04719507136128210000e-001) (0, -6.28678044902479250000e-002) (1, -6.35098884298488040000e-001) (2, -5.05525726492455150000e-002) (3, 5.08600915647725140000e-001) (4, 2.37027166607577720000e-001) (5, 2.68420840834603600000e-001) (6, 1.11071216930159160000e-001) (7, 2.51260640706438280000e-001) (8, -3.32379508536497090000e-002) (9, 1.35594935635814370000e-001) (10, -9.80651323958418170000e-002) (11, -5.37065560253523140000e-001) (12, 2.32092127457679180000e-001) (13, 5.51072132479566300000e-002) (14, 1.24797420189486670000e-001) (15, 4.33992266057205420000e-001) (16, -3.89902749009426450000e-001) (17, -1.73150041161965610000e-001) (18, 5.20251882771171070000e-001) (19, 2.98177986390593790000e-001) (20, -2.87887780429444790000e-002) (21, -3.76338073268013720000e-001) (22, 2.89281824028084280000e-001) (23, -2.85902617226132080000e-001) (24, 8.88936550915994220000e-001) (25, 9.26480990507426830000e-001) (26, -1.05210388205035120000e+000) (27, 2.43383736286960420000e-001) (28, -3.53495956982229010000e-002) (29, 3.53566409231360570000e-001) 
