FANN_FLO_2.1
num_layers=4
learning_rate=0.700000
connection_rate=1.000000
network_type=1
learning_momentum=0.000000
training_algorithm=2
train_error_function=1
train_stop_function=1
cascade_output_change_fraction=0.010000
quickprop_decay=-0.000100
quickprop_mu=1.750000
rprop_increase_factor=1.200000
rprop_decrease_factor=0.500000
rprop_delta_min=0.000000
rprop_delta_max=50.000000
rprop_delta_zero=0.100000
cascade_output_stagnation_epochs=12
cascade_candidate_change_fraction=0.010000
cascade_candidate_stagnation_epochs=12
cascade_max_out_epochs=150
cascade_min_out_epochs=50
cascade_max_cand_epochs=150
cascade_min_cand_epochs=50
cascade_num_candidate_groups=2
bit_fail_limit=1.00000001490116120000e-001
cascade_candidate_limit=1.00000000000000000000e+003
cascade_weight_multiplier=4.00000000000000020000e-001
cascade_activation_functions_count=10
cascade_activation_functions=3 5 7 8 10 11 14 15 16 17 
cascade_activation_steepnesses_count=4
cascade_activation_steepnesses=2.50000000000000000000e-001 5.00000000000000000000e-001 7.50000000000000000000e-001 1.00000000000000000000e+000 
layer_sizes=16 40 40 6 
scale_included=0
neurons (num_inputs, activation_function, activation_steepness)=(0, 0, 0.00000000000000000000e+000) (0, 0, 0.00000000000000000000e+000) (0, 0, 0.00000000000000000000e+000) (0, 0, 0.00000000000000000000e+000) (0, 0, 0.00000000000000000000e+000) (0, 0, 0.00000000000000000000e+000) (0, 0, 0.00000000000000000000e+000) (0, 0, 0.00000000000000000000e+000) (0, 0, 0.00000000000000000000e+000) (0, 0, 0.00000000000000000000e+000) (0, 0, 0.00000000000000000000e+000) (0, 0, 0.00000000000000000000e+000) (0, 0, 0.00000000000000000000e+000) (0, 0, 0.00000000000000000000e+000) (0, 0, 0.00000000000000000000e+000) (0, 0, 0.00000000000000000000e+000) (16, 5, 1.00000000000000000000e+000) (16, 5, 1.00000000000000000000e+000) (16, 5, 1.00000000000000000000e+000) (16, 5, 1.00000000000000000000e+000) (16, 5, 1.00000000000000000000e+000) (16, 5, 1.00000000000000000000e+000) (16, 5, 1.00000000000000000000e+000) (16, 5, 1.00000000000000000000e+000) (16, 5, 1.00000000000000000000e+000) (16, 5, 1.00000000000000000000e+000) (16, 5, 1.00000000000000000000e+000) (16, 5, 1.00000000000000000000e+000) (16, 5, 1.00000000000000000000e+000) (16, 5, 1.00000000000000000000e+000) (16, 5, 1.00000000000000000000e+000) (16, 5, 1.00000000000000000000e+000) (16, 5, 1.00000000000000000000e+000) (16, 5, 1.00000000000000000000e+000) (16, 5, 1.00000000000000000000e+000) (16, 5, 1.00000000000000000000e+000) (16, 5, 1.00000000000000000000e+000) (16, 5, 1.00000000000000000000e+000) (16, 5, 1.00000000000000000000e+000) (16, 5, 1.00000000000000000000e+000) (16, 5, 1.00000000000000000000e+000) (16, 5, 1.00000000000000000000e+000) (16, 5, 1.00000000000000000000e+000) (16, 5, 1.00000000000000000000e+000) (16, 5, 1.00000000000000000000e+000) (16, 5, 1.00000000000000000000e+000) (16, 5, 1.00000000000000000000e+000) (16, 5, 1.00000000000000000000e+000) (16, 5, 1.00000000000000000000e+000) (16, 5, 1.00000000000000000000e+000) (16, 5, 1.00000000000000000000e+000) (16, 5, 1.00000000000000000000e+000) (16, 5, 1.00000000000000000000e+000) (16, 5, 1.00000000000000000000e+000) (16, 5, 1.00000000000000000000e+000) (16, 5, 1.00000000000000000000e+000) (56, 5, 1.00000000000000000000e+000) (56, 5, 1.00000000000000000000e+000) (56, 5, 1.00000000000000000000e+000) (56, 5, 1.00000000000000000000e+000) (56, 5, 1.00000000000000000000e+000) (56, 5, 1.00000000000000000000e+000) (56, 5, 1.00000000000000000000e+000) (56, 5, 1.00000000000000000000e+000) (56, 5, 1.00000000000000000000e+000) (56, 5, 1.00000000000000000000e+000) (56, 5, 1.00000000000000000000e+000) (56, 5, 1.00000000000000000000e+000) (56, 5, 1.00000000000000000000e+000) (56, 5, 1.00000000000000000000e+000) (56, 5, 1.00000000000000000000e+000) (56, 5, 1.00000000000000000000e+000) (56, 5, 1.00000000000000000000e+000) (56, 5, 1.00000000000000000000e+000) (56, 5, 1.00000000000000000000e+000) (56, 5, 1.00000000000000000000e+000) (56, 5, 1.00000000000000000000e+000) (56, 5, 1.00000000000000000000e+000) (56, 5, 1.00000000000000000000e+000) (56, 5, 1.00000000000000000000e+000) (56, 5, 1.00000000000000000000e+000) (56, 5, 1.00000000000000000000e+000) (56, 5, 1.00000000000000000000e+000) (56, 5, 1.00000000000000000000e+000) (56, 5, 1.00000000000000000000e+000) (56, 5, 1.00000000000000000000e+000) (56, 5, 1.00000000000000000000e+000) (56, 5, 1.00000000000000000000e+000) (56, 5, 1.00000000000000000000e+000) (56, 5, 1.00000000000000000000e+000) (56, 5, 1.00000000000000000000e+000) (56, 5, 1.00000000000000000000e+000) (56, 5, 1.00000000000000000000e+000) (56, 5, 1.00000000000000000000e+000) (56, 5, 1.00000000000000000000e+000) (56, 5, 1.00000000000000000000e+000) (96, 0, 1.00000000000000000000e+000) (96, 0, 1.00000000000000000000e+000) (96, 0, 1.00000000000000000000e+000) (96, 0, 1.00000000000000000000e+000) (96, 0, 1.00000000000000000000e+000) (96, 0, 1.00000000000000000000e+000) 
connections (connected_to_neuron, weight)=(0, -1.61899486686257230000e-002) (1, -1.47574727636946900000e-001) (2, -2.70841335159911430000e-001) (3, 3.75541090091425220000e-001) (4, 9.01073637765122950000e-001) (5, 2.03633389692545350000e-001) (6, 4.57748295001371710000e-001) (7, -2.60416531217469490000e-001) (8, 1.85491608798369790000e-001) (9, 3.41564282206309910000e-001) (10, 5.29107103629327670000e-001) (11, -1.85007755522546740000e+000) (12, -2.23362407855316000000e-001) (13, -1.28762601249509330000e-001) (14, -1.43268351439168470000e-001) (15, 2.82673629192785660000e-001) (0, 5.79742007280483640000e-001) (1, 1.32478558689508450000e-001) (2, 2.41627739042196170000e-001) (3, 4.90346847187537460000e-001) (4, 1.97064463514277600000e+000) (5, -2.10066913644514240000e-001) (6, 4.18978745873774540000e-001) (7, 3.11928020090017130000e-001) (8, 4.11836683132424180000e-002) (9, -3.24404250242238350000e-001) (10, 2.73783597267188820000e-001) (11, -2.55742771416554550000e+000) (12, -3.47472017878368340000e-001) (13, -2.62735712382127670000e-001) (14, -7.78356200045541070000e-001) (15, 3.04187034437558290000e-001) (0, 8.22778080498596910000e-001) (1, 9.91179972740082180000e-002) (2, -4.50277044163614030000e-001) (3, 2.65214022877116820000e-001) (4, 1.62340299443932830000e-001) (5, -5.49154272328465920000e-001) (6, 4.40108834536119990000e-001) (7, 5.89223574466407500000e-001) (8, 2.45516561020774290000e-001) (9, 2.97145721785207590000e-001) (10, 5.91568535333754640000e-001) (11, -7.82697601680960810000e-001) (12, 1.42214079670091500000e-001) (13, 1.96145587797132560000e-001) (14, -7.41428473102036970000e-001) (15, 5.64614202446639730000e-001) (0, -2.28308296109868050000e-001) (1, 3.51361365433156770000e-001) (2, 4.38136237841656950000e-001) (3, 2.73593849798380170000e-002) (4, -4.56973885282052850000e-001) (5, 8.49550508615900810000e-002) (6, -1.72539508859751470000e-001) (7, -3.09537063395492060000e-002) (8, 5.53240516797689930000e-001) (9, 4.05104298867033030000e-001) (10, 2.17294926291336570000e-001) (11, 8.85207408088805270000e-001) (12, 5.72884464969745770000e-001) (13, 1.41656246146969700000e-001) (14, 2.58409196880590550000e-001) (15, 3.75475057052406860000e-001) (0, -8.78522720593515740000e-002) (1, -4.67040119068090290000e-001) (2, 2.52143133341266480000e-001) (3, 6.07754625680257620000e-001) (4, -2.49145111859427640000e-001) (5, 1.25316529581286700000e-001) (6, 2.71355693881623450000e-001) (7, -1.87830305243216130000e-002) (8, 1.54989481873802170000e-002) (9, 9.59374043466799250000e-002) (10, 6.74930725117247830000e-001) (11, 3.15520518314851170000e-001) (12, 5.46494851315494020000e-001) (13, 1.25088193642751920000e-001) (14, 4.49281089283374460000e-001) (15, 4.36752189847560280000e-002) (0, 4.31581820956035980000e-002) (1, 1.02692644270284790000e-001) (2, 5.58786794265347800000e-002) (3, -6.36498170213534580000e-002) (4, -3.57945984382394110000e-001) (5, -1.98152530538467040000e-001) (6, 2.10512440315052400000e-002) (7, -1.63564279953402130000e-002) (8, 4.20511403165918560000e-001) (9, -3.42458790897914450000e-002) (10, 3.41251755817531090000e-001) (11, -1.53841573596698070000e-002) (12, 1.46806240455541250000e-001) (13, 6.82802086249281400000e-001) (14, 8.58385412051886450000e-001) (15, 7.13877111395436750000e-002) (0, -5.50668198215324980000e-001) (1, -8.83722150441429290000e-002) (2, 2.18209103235893900000e-001) (3, -2.28415704957267290000e-001) (4, 1.02931950117491410000e+000) (5, 3.31602761681552950000e-001) (6, -3.31894370036462220000e-001) (7, -7.06964278336784520000e-002) (8, -2.05089342790044200000e-001) (9, 2.24701676243919930000e-001) (10, -2.62079602046881080000e-001) (11, 6.10236060274451100000e-001) (12, -5.37720857744077740000e-001) (13, 3.05243410396674960000e-001) (14, -3.47370338317759490000e-001) (15, -3.80670422431251610000e-002) (0, 3.13369559287704880000e-001) (1, -4.79293448624258600000e-001) (2, -3.01602719840737550000e-001) (3, 5.02546706638151150000e-001) (4, 4.76718199481165340000e-001) (5, 5.34094292622437000000e-002) (6, 3.25332449912704880000e-001) (7, 3.74435301094323160000e-001) (8, 1.03582177314369690000e-001) (9, 1.24042301231495030000e-001) (10, -4.13401401519228720000e-001) (11, -5.86716434382386080000e-001) (12, -4.00702099638803710000e-001) (13, 4.96727767520728560000e-001) (14, -1.03095747489182540000e-001) (15, -4.36640290668401880000e-001) (0, 4.32115321486661600000e-001) (1, 7.47079612936360410000e-003) (2, 2.75336560365615210000e-002) (3, 5.10822881247801060000e-001) (4, -2.00697475087500080000e-001) (5, -1.83601260932398370000e-001) (6, 8.37550953341977960000e-002) (7, 4.30542922231135980000e-002) (8, 1.21734084575120800000e-001) (9, 2.92513142487388580000e-001) (10, 4.40670644795481070000e-001) (11, -2.61058842412870860000e-001) (12, 1.10341514314570300000e-001) (13, 1.52303614154995330000e-001) (14, 9.93810082467407730000e-002) (15, -5.71704305019547080000e-003) (0, -1.44979588893077780000e+000) (1, 2.45782695742535580000e-002) (2, 1.84444944944650080000e-001) (3, -1.22982093129655930000e+000) (4, -5.36376728272168980000e-001) (5, 3.27096685839603220000e-001) (6, -1.50577123668811730000e+000) (7, 1.06143137807459490000e-001) (8, -2.21407943919094710000e-001) (9, 1.27700193114034310000e+000) (10, -3.11022288816951990000e-001) (11, 5.26829273233225040000e-001) (12, 4.58942670570985580000e-002) (13, 1.12024696001109740000e-001) (14, 7.15988278683709290000e-001) (15, 1.53357228267463230000e-001) (0, 2.36865918839993500000e-001) (1, -4.02087609424982510000e-001) (2, -4.49585168763790570000e-001) (3, 3.00913967207036840000e-001) (4, 7.01116361953614710000e-001) (5, 2.14104434075913480000e-001) (6, 2.51233596111359700000e-001) (7, -3.44342242136393030000e-001) (8, -2.16382248436718520000e-001) (9, 2.89572259279362750000e-001) (10, 8.89434774047309970000e-001) (11, -1.30661782747532310000e+000) (12, 5.39642346615035630000e-001) (13, 1.85792071900379360000e-001) (14, 3.65046791611536030000e-001) (15, -3.14776818409357510000e-001) (0, 1.89769567694266390000e-001) (1, -4.05810753956232510000e-001) (2, -3.89579772108934190000e-001) (3, 3.57341962819000320000e-001) (4, -5.16787855750174830000e-001) (5, 2.09955278068396540000e-002) (6, 3.25409624482216940000e-001) (7, 1.02608826059881590000e-001) (8, -4.76922116227766260000e-001) (9, 1.37954331396505840000e-001) (10, 1.25009551540413430000e-001) (11, 1.71740688831906660000e-001) (12, -1.42833218778489510000e-001) (13, -6.12968984305003390000e-002) (14, 3.48698057525793530000e-001) (15, 1.91414978403631590000e-001) (0, 1.95723278014341250000e-001) (1, -5.64686158144820080000e-003) (2, -9.92540915994747920000e-002) (3, 2.03965917323546800000e-001) (4, -2.20346710909174630000e-001) (5, 3.34814938287305640000e-002) (6, 2.90800475557601080000e-001) (7, -1.41630803564082030000e-001) (8, -1.93170644019064590000e-001) (9, 1.90276342225838420000e-001) (10, 5.10871007337366790000e-001) (11, -2.24993226010119900000e-001) (12, -1.73876805379543640000e-001) (13, -5.59363272823009680000e-001) (14, 1.83173617211751240000e-001) (15, 1.28599617838834020000e-002) (0, -4.24166137861322400000e-001) (1, -2.77031502236336770000e-002) (2, 7.58918234597235620000e-002) (3, 2.55561319072041660000e-001) (4, -1.59675693757051430000e-001) (5, 1.51306095554594650000e-001) (6, -4.92330207066845160000e-001) (7, -2.00127205361336770000e-002) (8, -3.06502020614572600000e-001) (9, -1.87185867558170600000e-001) (10, 3.38524024865328400000e-001) (11, 2.09954858210850610000e-001) (12, -8.93360408253235720000e-003) (13, -4.74341081390102020000e-002) (14, 2.49049663000868840000e-001) (15, -1.77788353074997960000e-002) (0, 4.54983762618657790000e-002) (1, 2.34136767017424700000e-001) (2, -2.45827959681718170000e-001) (3, 2.11038973873793090000e-003) (4, 1.29957839894571490000e-001) (5, 3.52629016862070880000e-001) (6, 2.83212126617873870000e-001) (7, -9.78523627960346390000e-002) (8, 2.52809305081999610000e-001) (9, -5.20023603497238030000e-002) (10, 4.61477678840808920000e-001) (11, 1.42035918188022190000e-001) (12, 1.82773259628181830000e-001) (13, 1.78648949999115870000e-001) (14, -4.80410691702182420000e-001) (15, -2.60358413579923840000e-001) (0, 1.45217674610852890000e-001) (1, 1.17899528068231150000e-001) (2, -6.18250562268575220000e-001) (3, 2.43324120319284130000e-001) (4, -4.17368759582409150000e-001) (5, -4.63867633082746330000e-002) (6, -9.16029246031076490000e-002) (7, -1.85606741996201890000e-001) (8, -6.72285633805410760000e-002) (9, 9.58113574039663570000e-001) (10, 9.38448383478978350000e-002) (11, 2.63794151486654800000e-001) (12, 3.13191698400325510000e-001) (13, -2.15829741675033910000e-001) (14, 7.10899185012967560000e-002) (15, -1.09034741379948090000e-001) (0, 5.78379441290306830000e-001) (1, 6.27326736257023510000e-001) (2, 7.89807245616320490000e-002) (3, 4.66949777274323910000e-001) (4, -1.12725327993602740000e-001) (5, 2.81766803990058210000e-001) (6, 3.52118122745326890000e-001) (7, 6.79450759694523400000e-001) (8, -3.01879895928921230000e-001) (9, 1.12895314364573370000e-001) (10, 6.89150680647496290000e-001) (11, -9.17684296508391450000e-002) (12, 7.61500863591027250000e-002) (13, -8.09667677983314240000e-002) (14, 5.32188768865164200000e-001) (15, 1.99964615750730430000e-001) (0, -1.83254167124553420000e-001) (1, 3.64474039854902620000e-001) (2, 1.63403200674261920000e-001) (3, 7.41937624733358530000e-002) (4, -6.90023428189676660000e-001) (5, 8.04278349795207600000e-002) (6, 1.85429462894873800000e-001) (7, 1.30995548867798410000e-001) (8, -2.99844444247794990000e-001) (9, 2.54022357280880740000e-001) (10, -3.28414447982885090000e-002) (11, 3.88950201673649300000e-001) (12, 3.78480156145641900000e-001) (13, 7.58118069048725700000e-001) (14, 4.49849204499717380000e-001) (15, 1.97248652263191470000e-001) (0, -5.27242643014359520000e-001) (1, 1.12707858309650600000e-001) (2, -7.83489627679531010000e-001) (3, -1.50848412273766890000e-001) (4, -2.28767157524887940000e-001) (5, 1.64540703188914310000e-001) (6, -3.44238806150788830000e-001) (7, 8.47863856953424840000e-002) (8, -6.64138805018127390000e-002) (9, 3.87499188861048950000e-001) (10, -1.22870937905621190000e-001) (11, -3.47781899625123130000e-001) (12, 6.35623055413565790000e-001) (13, -4.67368491043802180000e-001) (14, -7.90624149822060920000e-002) (15, 2.06752939076846030000e-001) (0, 1.78544808177090400000e+000) (1, 6.50640763135815200000e-002) (2, 1.14935226531887500000e-002) (3, 5.28541121323535480000e-001) (4, 4.97905462856345900000e-001) (5, 6.27843378894241470000e-001) (6, 5.06102973219166200000e-001) (7, -8.77862610129450940000e-002) (8, -3.34164101009671030000e-001) (9, -1.45707473831005220000e+000) (10, 2.57477166744312700000e-001) (11, -6.17646743623486040000e-001) (12, -5.75427176794659270000e-001) (13, -2.21623288558860130000e-001) (14, -8.53589101523535840000e-001) (15, 4.08575422855282160000e-002) (0, -5.05560826881599980000e-001) (1, 5.67476560111828010000e-001) (2, -8.71506786386306160000e-002) (3, 3.82750322386112400000e-001) (4, 3.93178668724388670000e-001) (5, 2.03066659187258640000e-001) (6, -1.94405894482294720000e-002) (7, 3.83101557131595770000e-001) (8, -2.99507720351609610000e-001) (9, 4.76093178716453290000e-001) (10, 8.49806407979070140000e-002) (11, 1.39682620675541090000e+000) (12, 5.36713079921636750000e-001) (13, 1.81404606225147200000e-001) (14, 3.41503308425724000000e-002) (15, 4.41951651807613530000e-001) (0, 6.66457602224024390000e-001) (1, -9.86439339999567870000e-002) (2, 4.30384170662938940000e-001) (3, 9.75256806878246060000e-002) (4, 4.98113946292562340000e-001) (5, -1.13432991739831090000e-002) (6, 7.46843461245756850000e-001) (7, 1.32701270099271060000e-002) (8, -1.47714871081250890000e-001) (9, -1.47499639240014040000e+000) (10, 2.57941123793822720000e-001) (11, -3.08489582557761880000e-001) (12, -2.96603421649585860000e-001) (13, 4.38381044074132420000e-001) (14, -6.07101560624931370000e-001) (15, 7.62950353141415710000e-002) (0, -2.18697275178318020000e-001) (1, 3.55291701646709770000e-002) (2, -2.82037444619273640000e-002) (3, -4.18845393974388410000e-001) (4, 6.93070007538909710000e-002) (5, -5.53274102717396630000e-001) (6, -2.38337347558061140000e-002) (7, 6.87811262699032370000e-002) (8, -8.27079733358227600000e-001) (9, -3.12444144917619630000e-001) (10, 3.10121568749621610000e-002) (11, -1.10551342832497730000e-001) (12, 2.72645641937626910000e-001) (13, -1.92197246271743620000e-001) (14, -6.24060045960122210000e-001) (15, 5.23199327083492610000e-002) (0, -2.84452411319540080000e-001) (1, 1.77934410028042000000e-001) (2, 1.93345786981167000000e-001) (3, -1.95219939679444590000e-001) (4, -2.10168641074173800000e-001) (5, -5.82671150572757550000e-002) (6, -2.98655304099844030000e-001) (7, 8.91465712113992390000e-002) (8, 1.98386454741395160000e-001) (9, -9.60459228769089120000e-002) (10, -6.27654438335057520000e-001) (11, 2.87420699139215590000e-002) (12, -5.07757578294781850000e-001) (13, -5.37315366579155020000e-001) (14, -1.41070857144573040000e-001) (15, 1.44456419869081420000e-002) (0, 1.53763174214408160000e-001) (1, -1.30498761793305520000e-001) (2, -1.86284894605805550000e-001) (3, 1.76809244474408540000e-001) (4, 7.84550448357406620000e-001) (5, 4.20559761875111270000e-002) (6, -4.46112720915007310000e-001) (7, 6.58756536677675970000e-002) (8, -2.03700794732256800000e-001) (9, -3.19968576361163380000e-001) (10, -1.22693915642364900000e-001) (11, -1.46475785514538040000e+000) (12, -5.12121665559815860000e-001) (13, 1.38027099763503050000e-001) (14, -6.04889547863118880000e-001) (15, -7.84663888379734250000e-002) (0, -2.09505418229635310000e-001) (1, -1.03413548542819290000e-002) (2, 7.16595769814433180000e-001) (3, -1.13914365613136130000e-001) (4, -1.69742807310991300000e-003) (5, 5.24009370598723430000e-001) (6, 2.40924948087747420000e-001) (7, -9.00233386241020700000e-002) (8, 2.96193186150164390000e-002) (9, -1.29947627939365100000e-001) (10, 5.78687503691540030000e-002) (11, -3.30161164243520100000e-001) (12, -1.30081510315594400000e-001) (13, 2.23525847712028710000e-001) (14, -9.87650573537175310000e-002) (15, 6.32790377507721270000e-001) (0, 2.95966973347267960000e-001) (1, -1.27476842829068740000e-001) (2, -7.22086489508579790000e-001) (3, 2.24374338941151020000e-001) (4, 5.78356661233513590000e-001) (5, -1.74813524157773880000e-001) (6, 4.33807889961876190000e-001) (7, -2.11040073760827530000e-001) (8, 2.35769965838661530000e-001) (9, 9.33232016995773960000e-001) (10, 3.73323170144390700000e-001) (11, 3.26221543359646480000e-001) (12, 4.50433465259385050000e-001) (13, -2.08339981336150590000e-001) (14, 6.16029884992197570000e-001) (15, -1.46776163705667100000e-001) (0, -2.74513435936870390000e-001) (1, 2.90813695475113150000e-001) (2, 2.06990903359514950000e-001) (3, 6.90992935685305070000e-002) (4, -7.49457760978902990000e-002) (5, -1.58983107719355250000e-002) (6, -2.57656777623321400000e-001) (7, 9.68695376726093630000e-002) (8, -4.32385431947103220000e-002) (9, 6.36842762892884000000e-001) (10, -7.49343326388053900000e-001) (11, 8.51724162057599240000e-002) (12, 3.85444800290050570000e-001) (13, 9.52681459592558950000e-002) (14, 5.07283092178625880000e-001) (15, 7.34826010881488300000e-002) (0, 2.11893154017604640000e-001) (1, -1.57333904621335170000e-001) (2, -9.60179881427012660000e-002) (3, -1.53532882098979140000e-001) (4, 1.33512986522202360000e-001) (5, -6.43545448681680950000e-001) (6, 4.61825471322677760000e-001) (7, -9.48766262504779080000e-002) (8, 7.52796901201425030000e-002) (9, -4.42696614159383160000e-001) (10, 7.39323541088142910000e-001) (11, -5.77385577884110160000e-001) (12, -4.58637996028825050000e-001) (13, -1.38360503701574990000e-001) (14, -1.51789598125664750000e-001) (15, -9.64574382874690270000e-002) (0, -3.07853352599202490000e-001) (1, 1.15128373841182030000e-001) (2, 1.03023913759250410000e-001) (3, 2.16269850292549830000e-001) (4, -6.13283458959829160000e-001) (5, -2.80522991630726800000e-001) (6, 2.10425085791274590000e-001) (7, -1.02331113693438060000e-001) (8, 3.07948457311819580000e-001) (9, 2.73607210591912680000e-001) (10, 8.18282821105354550000e-001) (11, 1.27252868053860970000e-002) (12, 1.18329999604260850000e+000) (13, 4.59925660717781350000e-001) (14, 1.30006612128326720000e+000) (15, 2.18607067920150920000e-001) (0, -1.48897820167823020000e-001) (1, 2.27937353627952560000e-001) (2, 2.38070501383781860000e-001) (3, 1.09777439100292280000e-001) (4, -1.48216946686257210000e-001) (5, 2.78751344058414510000e-001) (6, -2.07263942140245210000e-001) (7, 8.68742468753922610000e-002) (8, -5.55631683335131350000e-001) (9, 1.28742609469979670000e-001) (10, -2.67628953338824250000e-001) (11, 1.02957961856594740000e+000) (12, 2.94976922827148770000e-001) (13, 1.31590139969088470000e-001) (14, 5.27761295516697700000e-001) (15, 1.34060532132731750000e-001) (0, -7.10061368326321270000e-001) (1, 4.39349249397453840000e-001) (2, 5.24597056602177040000e-001) (3, 1.20571572137303330000e-002) (4, -6.32733884881960140000e-001) (5, 9.71318100273197570000e-003) (6, -2.29970268348826860000e-001) (7, 5.47747694348034280000e-001) (8, 3.58742781469241160000e-001) (9, 2.05773624172976210000e-001) (10, 3.97993996685122860000e-001) (11, -1.09622949148167340000e-001) (12, -1.05106091317115150000e-001) (13, -7.72903755734661160000e-002) (14, -6.29385419919413660000e-001) (15, 5.82318000887569800000e-001) (0, -3.63047316539610480000e-001) (1, 1.76392178873601090000e-001) (2, 1.78681512252345580000e-001) (3, -3.23378012228777770000e-001) (4, 1.27220640690102420000e-001) (5, 2.70343913804725780000e-001) (6, -4.55173782873476600000e-001) (7, 1.61341425851836750000e-001) (8, 1.32700422565377400000e-001) (9, -5.91493955406474510000e-002) (10, -9.38244564000072280000e-001) (11, 3.34933643817157620000e-001) (12, 7.10283903033427470000e-003) (13, 1.31882352533206210000e-001) (14, 4.64322044314509070000e-001) (15, 1.60963007138028690000e-001) (0, 6.91781242054939740000e-001) (1, 9.28169525988747500000e-002) (2, 2.31384836243162560000e-001) (3, 8.77713095364197500000e-001) (4, 2.26488532535878330000e-001) (5, 6.12796435453619840000e-001) (6, 4.66702906714956120000e-001) (7, 1.26685366017406180000e-001) (8, 2.48371759050905470000e-002) (9, -9.53396008951965380000e-002) (10, 4.52082836046409140000e-001) (11, 2.04699340536844690000e-001) (12, -6.08211024780644930000e-001) (13, 6.14942315327693910000e-003) (14, 1.97347773448373040000e-001) (15, 1.63103712268224540000e-001) (0, -2.87168586856769440000e-001) (1, 2.33700059191627450000e-001) (2, 2.40411811229267940000e-001) (3, -6.72930097606817410000e-002) (4, 2.05751908958868090000e-002) (5, 1.27141632284769020000e-001) (6, -8.29568128234070700000e-002) (7, 2.46674898520909570000e-001) (8, 2.12702153384001670000e-001) (9, -1.35494318233603030000e-001) (10, -1.91483516460423010000e+000) (11, -3.65800875322047080000e-001) (12, -4.81483393064765060000e-001) (13, -5.60795930557857550000e-002) (14, -3.62009782456797380000e-001) (15, 4.01713946038311840000e-001) (0, -4.05553214415284020000e-001) (1, -5.84125038229222350000e-001) (2, 1.41254998429325350000e-001) (3, -5.30698781218281070000e-001) (4, -3.63393901633308590000e-001) (5, 7.54734038033417880000e-001) (6, -2.13537284551269440000e-001) (7, -3.57526996544353710000e-001) (8, 3.43283944777503790000e-001) (9, -1.85792410104313440000e-001) (10, 1.22258165189294970000e-003) (11, 3.13267630989995330000e-001) (12, 5.38675452265013900000e-002) (13, -2.25330189799404850000e-002) (14, 5.99131249711065570000e-001) (15, -3.62702167186598480000e-001) (0, 1.01944167363386850000e+000) (1, 4.78961444736533020000e-001) (2, 5.02063251377158130000e-001) (3, -7.30033063518878980000e-002) (4, 5.04798250064386610000e-001) (5, 8.29689981413963770000e-001) (6, 4.15444106726563120000e-001) (7, 4.93872336388640250000e-001) (8, -2.46168120883425610000e-002) (9, 2.39559709492320000000e-001) (10, 9.37420683112414610000e-002) (11, -1.53801657234271310000e-001) (12, 3.57540440443152700000e-001) (13, -3.49178386118498330000e-001) (14, 8.36581616951728860000e-002) (15, 4.95060433243861510000e-001) (0, 4.52380072116507280000e-002) (1, -1.67091853360309180000e-001) (2, -2.16592915174615570000e-001) (3, -1.59558921740341390000e+000) (4, 6.59767459771865130000e-001) (5, -7.33631726632558930000e-001) (6, 3.84935272071622920000e-001) (7, -2.14247613588942980000e-001) (8, -6.54846767809041110000e-002) (9, 2.02777309140800250000e-001) (10, 1.09416665989543430000e-001) (11, 3.85151461432306440000e-001) (12, -1.61520258044719010000e-001) (13, 4.09459979096981290000e-001) (14, 1.27224042359515650000e-001) (15, -3.31284075793874310000e-001) (0, -7.84321603042918150000e-002) (1, -1.74021485886860230000e-002) (2, -9.33909181199359950000e-002) (3, 2.10278207085285270000e-001) (4, -1.07909388925219460000e+000) (5, -7.14759675445265750000e-001) (6, 5.10765860723690900000e-002) (7, -7.11191881141948760000e-002) (8, -1.18198114572903160000e-001) (9, 2.49003640151385100000e-001) (10, -3.40092955822243960000e-002) (11, 3.10376386408725280000e-001) (12, 4.69185001534532800000e-001) (13, 1.49474271196138570000e-001) (14, 2.76403469705925330000e-001) (15, -1.01502491875677110000e-001) (0, 1.83413308725970630000e-002) (1, -3.75155722513590470000e-001) (2, 3.60478552765277240000e-001) (3, -1.09141423027085740000e-001) (4, 3.32876474148198490000e-001) (5, -1.12161852996102960000e-001) (6, 6.17171009948518990000e-002) (7, -4.98330777302180060000e-001) (8, -1.40172503133210420000e-001) (9, -2.62013081685011700000e-001) (10, -5.19110865445527800000e-002) (11, 6.25457113959711600000e-001) (12, -5.75932850492819480000e-002) (13, -1.53636370352557980000e-001) (14, -2.10757066554388220000e-001) (15, -5.78560121498398190000e-002) (0, 3.88069362067262060000e-002) (1, 3.02033078094055830000e-001) (2, 1.69769639400109720000e-001) (3, -2.25359432083525010000e-003) (4, 1.29629710797513340000e-001) (5, 2.67313611031306690000e-001) (6, 1.67522670039176870000e-002) (7, 3.37444422069947290000e-001) (8, 3.33751416993083100000e-002) (9, 2.64942164054878390000e-002) (10, 2.17378081039469150000e-001) (11, 3.04731000365356110000e-001) (12, -1.17789524867821170000e-001) (13, -7.49933872855657740000e-002) (14, 8.96912243132402110000e-002) (15, 4.04195356191845160000e-001) (16, 2.83242365918297930000e-001) (17, 1.14863093328625220000e-001) (18, 7.09289490158864670000e-001) (19, 8.26783488820851510000e-001) (20, 6.49643479610812260000e-001) (21, 1.76593792990460270000e-001) (22, -1.37899018256125160000e-001) (23, 2.77920008441858050000e-002) (24, 5.07131008904458810000e-002) (25, 4.23320847375575130000e-001) (26, 3.56048633920216860000e-002) (27, -4.11525609155273700000e-001) (28, 4.54157028082883830000e-001) (29, 2.82971440166560670000e-001) (30, -8.41451496705217350000e-001) (31, 2.60225603754678130000e-001) (32, -2.92305797662001770000e-001) (33, 1.12465897401833790000e+000) (34, 1.73025028062959690000e-001) (35, 3.70533662997210740000e-001) (36, 8.07797843276544250000e-001) (37, -1.49174882857907980000e-001) (38, 4.02278574745840440000e-001) (39, 2.78149223865859050000e-001) (40, 3.85581752240972300000e-001) (41, 2.94741007508487920000e-001) (42, 3.67629203872320790000e-001) (43, 7.12127021344908240000e-002) (44, 5.67392547089879410000e-001) (45, -1.07295793363455140000e-001) (46, -7.28449838181148040000e-003) (47, 3.26992365175964690000e-001) (48, 4.54177992694872630000e-001) (49, -9.53569041132592000000e-002) (50, 1.09068751993770350000e+000) (51, -2.42211576250079830000e-002) (52, 1.62999358115714780000e-001) (53, 8.74174387201415490000e-001) (54, -3.23642767795990790000e-003) (55, -2.07087091718029280000e-001) (0, 6.75748692816643180000e-001) (1, 7.21285932867137130000e-002) (2, 1.03074170338730290000e-001) (3, 2.88927539023322240000e-001) (4, 4.16320684503646230000e-001) (5, -1.63612832484570150000e-001) (6, 2.66462707747804890000e-002) (7, -1.72929496802859450000e-003) (8, 2.13355603731132440000e-001) (9, 3.52473627976461870000e-001) (10, -1.22628211664409040000e-001) (11, 1.01988113085691500000e-001) (12, 9.21382161056638840000e-001) (13, -3.07380581309718630000e-001) (14, 5.27230682720567940000e-001) (15, -2.72232395829475410000e-002) (16, 4.58796117239514910000e-001) (17, 3.17868015216761000000e-001) (18, 2.19131832304660210000e-001) (19, -8.73392262318571090000e-002) (20, 4.08785102041922250000e-001) (21, 1.85225844142236560000e-001) (22, 5.61358794653993960000e-001) (23, 5.39109548424683950000e-001) (24, 2.22619766808133310000e-001) (25, 1.84987060733559460000e-002) (26, 8.29488162967426670000e-001) (27, 5.19595216197721980000e-001) (28, -3.63928778874606230000e-001) (29, 7.65543543312179610000e-002) (30, 1.39210933937375690000e+000) (31, -4.83108454342079560000e-003) (32, 7.44863481836849920000e-001) (33, -5.31390307463869280000e-001) (34, 2.36404675882017150000e-002) (35, 5.43754287504630400000e-001) (36, -7.14037378736640800000e-002) (37, 1.30096089780283400000e+000) (38, 1.26303729996562030000e-001) (39, 3.42851784385685030000e-001) (40, 2.37008774931458000000e-001) (41, -6.49909633208599850000e-001) (42, -3.79901599630831090000e-001) (43, 2.25302449454726860000e-001) (44, 4.18906026045625660000e-001) (45, -3.42734655778797190000e-001) (46, -1.37443871517512470000e-002) (47, -4.85796010646409700000e-001) (48, 4.70853958092209080000e-002) (49, 6.61085582504669530000e-001) (50, 8.61338875740748770000e-002) (51, 5.29106185296626540000e-002) (52, 3.77452507534440370000e-001) (53, -2.51730761704461290000e-001) (54, 1.06949526134939740000e-001) (55, 9.12594516247549280000e-001) (0, 4.57922985281884190000e-001) (1, -1.92962797829741130000e-001) (2, -6.32390888330862520000e-002) (3, 1.86449742868216310000e-002) (4, 6.02386944720528120000e-001) (5, 6.06917262039843860000e-001) (6, -2.12565673922304470000e-001) (7, -5.37776070808623770000e-003) (8, 1.39374557249771600000e-001) (9, 4.09013793183828080000e-001) (10, -6.75065623139715630000e-001) (11, -1.04422614095271570000e-001) (12, 4.37384023033777820000e-001) (13, 4.16990924220337460000e-001) (14, 1.21415028682554740000e+000) (15, -1.18242031879126520000e-001) (16, 5.77417719636628020000e-001) (17, 2.01093092404815930000e-001) (18, 2.19697125978208950000e-001) (19, 6.17992550897653480000e-001) (20, 6.65447659409061370000e-001) (21, -6.29099560234940990000e-002) (22, -9.16524965918551200000e-002) (23, 4.24010969618257960000e-001) (24, -5.78627408357813340000e-001) (25, 6.33741422465157630000e-001) (26, 4.66393647127639870000e-001) (27, 8.90144877610306580000e-001) (28, 4.05677122832512840000e-001) (29, 6.44446392422988620000e-001) (30, 1.42078055686006040000e-001) (31, 2.49219232848794030000e-002) (32, -4.00775053803230250000e-001) (33, 5.61953812764075410000e-001) (34, 1.09787007330915020000e-001) (35, 7.33286027955493360000e-001) (36, 1.34027519102995540000e-001) (37, 1.69334232428183620000e-002) (38, -3.76406319893145790000e-003) (39, 2.66467103747831110000e-001) (40, 6.21725604625741560000e-001) (41, -1.37769612102389360000e-001) (42, 1.41197685644353870000e-001) (43, 3.01763690704027200000e-001) (44, 1.24313260766955680000e+000) (45, 6.58417444544626250000e-001) (46, 1.36071823653396100000e-001) (47, 8.89991008415008670000e-001) (48, 3.99749279095219900000e-001) (49, 4.20279005383546250000e-002) (50, 4.46859310139763880000e-001) (51, -1.40979788304458290000e-002) (52, 4.52129539028061840000e-002) (53, 1.09853975751494360000e+000) (54, -3.48914796114152210000e-001) (55, 1.84109591934725790000e-001) (0, 1.23532438914092600000e-001) (1, 4.77650194355294490000e-001) (2, -6.62102554006567120000e-002) (3, 5.88438409398698290000e-001) (4, -8.60910479672700960000e-001) (5, 1.34072242896803470000e-001) (6, 1.62220775233438700000e-001) (7, 4.06572560958563120000e-002) (8, 4.83630679263832690000e-001) (9, -1.95802435341402210000e-001) (10, 1.86840054826316470000e-001) (11, 4.17963257010279390000e-002) (12, 2.30299183052241510000e-001) (13, -5.52151920280199090000e-002) (14, 6.45587510551966500000e-001) (15, -5.12067598111928670000e-002) (16, -1.28402206633616590000e+000) (17, 1.57525875768914910000e-001) (18, -1.59433253739210450000e-002) (19, 3.41941850729992820000e-002) (20, 4.33650103068369710000e-001) (21, 5.04843397498680900000e-001) (22, 3.22781809657455950000e-001) (23, -3.11770840574191580000e-001) (24, -5.07186075372165530000e-001) (25, 1.23605809380719680000e-001) (26, 2.83343098103376380000e-001) (27, 3.31500050988014840000e-002) (28, 1.03679812829953020000e+000) (29, 9.53177761910589450000e-001) (30, 2.40523914981928740000e-001) (31, 3.26645034308268520000e-001) (32, -3.84368624887108660000e-001) (33, 4.11816510619918810000e-001) (34, -4.48311550862527390000e-001) (35, 1.09384553101977850000e-001) (36, -4.21606303805324430000e-001) (37, -1.04870102538047820000e-001) (38, 6.98367150253002420000e-002) (39, -9.04872724386505820000e-002) (40, 7.63852358624339530000e-001) (41, 3.71047411817174210000e-001) (42, 2.24844977788734830000e-001) (43, -6.40774490622017940000e-002) (44, 4.39307714663647040000e-002) (45, 9.91733449391525520000e-001) (46, -1.75007621258623260000e-001) (47, -2.17979887289732580000e-002) (48, -2.97738001684821840000e-001) (49, -1.38304093679692940000e+000) (50, -2.51623725851893470000e-002) (51, 2.02220751386151280000e-001) (52, 7.54612508330724240000e-002) (53, 3.10290410086771530000e-002) (54, 2.52641893503071540000e-001) (55, -6.45898371821203240000e-001) (0, -7.04789436655161030000e-002) (1, -1.08615864467201190000e-001) (2, -1.08786293086266240000e-001) (3, 1.21647260016714660000e+000) (4, -2.11432709720146550000e-001) (5, 3.87473121858881940000e-001) (6, -2.94290098136634870000e-001) (7, 4.81651384119415810000e-002) (8, 5.25137046768815590000e-002) (9, -1.93019226255937730000e-001) (10, -8.04554189089283920000e-002) (11, 3.64415062958864060000e-001) (12, -2.71577581825777290000e-001) (13, -9.14966170193388940000e-002) (14, -1.73034800786528970000e-001) (15, 5.12367523301086520000e-002) (16, 2.13354631039801650000e-001) (17, -6.63285510668489290000e-002) (18, -8.54181211019019730000e-002) (19, 1.40113674383523100000e-001) (20, 3.31871691349909790000e-001) (21, 2.28258901081198700000e-001) (22, 3.66972430354908180000e-003) (23, -5.96651441288865090000e-002) (24, 3.19390948860276910000e-001) (25, -5.45042241639488330000e-001) (26, -1.10783270478417680000e-002) (27, -1.02557984822025450000e-001) (28, 5.39923500819604940000e-001) (29, 7.19194147316627450000e-001) (30, -1.19227938844591460000e-001) (31, 3.28150778814388480000e-001) (32, -3.78118615946411940000e-001) (33, 2.43501079543646470000e-001) (34, -9.19231299126636870000e-002) (35, 3.42458150908670540000e-001) (36, 2.41690824548262300000e-001) (37, -2.25400991014762710000e-001) (38, 7.82627247089081740000e-002) (39, 2.13927982663718790000e-001) (40, 4.95993209245950690000e-001) (41, 2.03441146225370740000e-001) (42, 6.45493517861940310000e-001) (43, 1.35488507746759050000e-001) (44, 1.17074183438904950000e-001) (45, 1.58493967119396310000e-001) (46, -4.72610054456896810000e-002) (47, 3.10533628379412010000e-001) (48, 2.63785402390983580000e-001) (49, -3.09895512781179380000e-001) (50, 5.51779546208730040000e-001) (51, 8.20042548075444520000e-001) (52, 5.53042611549407410000e-002) (53, 2.00807389847305620000e-001) (54, 1.80919475433232110000e-001) (55, -4.89052848968174080000e-001) (0, 1.43492744058550610000e-001) (1, -3.45093647724013580000e-003) (2, 1.49793278484903730000e-001) (3, 3.02531733159735610000e-002) (4, 6.23982758858561910000e-001) (5, 1.95487074425985650000e-001) (6, 5.95754654026494300000e-001) (7, 1.40534248262010970000e-001) (8, 3.08298372305104710000e-003) (9, 6.32577889379342780000e-001) (10, -4.68777726955597830000e-001) (11, 3.78573109320538630000e-002) (12, 6.28531259265025840000e-001) (13, 1.18479047527502460000e-001) (14, -8.39859602727190400000e-001) (15, 2.88165366586348120000e-003) (16, 5.88623960109657560000e-001) (17, -1.74599095320058960000e-001) (18, 8.49322679079493880000e-002) (19, 2.53308116246445450000e-001) (20, 2.78599998296361730000e-001) (21, 2.68516166727630570000e-001) (22, -1.26396470535339120000e-001) (23, 7.51831809584599280000e-001) (24, -2.71890507824138710000e-001) (25, 3.07364074634052410000e-001) (26, 5.32854164421289630000e-001) (27, -4.12101928197770250000e-001) (28, 3.86045235598581670000e-001) (29, 3.12503282417962820000e-001) (30, -3.48453128970181770000e-001) (31, 4.55312670599029230000e-002) (32, -3.54398536058373460000e-001) (33, 5.30389285023482040000e-001) (34, 4.53362788339826290000e-001) (35, 1.55294161959758200000e-001) (36, 7.83998289433006530000e-001) (37, -3.00100083237092810000e-001) (38, 1.01859385373083850000e-001) (39, 7.56507520124436030000e-002) (40, 5.03215210319465810000e-001) (41, -3.50507181954680890000e-001) (42, 1.16616824120598460000e+000) (43, 7.72403623662927590000e-001) (44, 1.98879531855957890000e-001) (45, 2.15985783036807960000e-001) (46, -2.27715987023257790000e-001) (47, 2.35932623047772930000e-001) (48, 2.32312015176896840000e-001) (49, -5.92704417787090600000e-001) (50, 5.07352888965963870000e-001) (51, 2.55888175605706980000e-001) (52, -8.70092658226981060000e-002) (53, 8.19873939834547370000e-001) (54, 1.24532229070116750000e-001) (55, 2.73682877327384860000e-002) (0, 7.59763532558989540000e-001) (1, 3.82602792706308810000e-001) (2, 4.52768814291773180000e-001) (3, 9.01946468510729900000e-001) (4, -8.97263240263385330000e-001) (5, 1.38034180036406000000e-003) (6, 3.02951712035467280000e-001) (7, 4.61551396341998770000e-001) (8, 3.19393999392386590000e-002) (9, -1.01605307221945290000e-001) (10, 8.70419376738403580000e-002) (11, -5.50278553426385210000e-001) (12, 3.45452386854093240000e-001) (13, -6.00574067452843350000e-002) (14, 2.64317218200413210000e-001) (15, 4.64298349346933700000e-001) (16, 1.52089699176383010000e-001) (17, 3.54980106959334460000e-001) (18, -4.56701116718784770000e-001) (19, 8.32970873488130260000e-002) (20, 1.55634563095373520000e-001) (21, 5.36705890248908250000e-001) (22, 1.35061756550979350000e-001) (23, 1.96627635588358660000e-002) (24, 1.70204106310197910000e+000) (25, -2.29992803223178550000e-001) (26, 1.79425954305143350000e-001) (27, 4.24822230871374010000e-002) (28, -1.72160010652137650000e-001) (29, 3.34404067280253960000e-001) (30, 5.19400359060752990000e-001) (31, -7.30459300192249920000e-002) (32, 1.15259706201928540000e+000) (33, 6.92336099318327650000e-002) (34, 2.49871324716012620000e-001) (35, 5.91352577175291110000e-001) (36, -2.32821592838654470000e-001) (37, 2.97671219569083930000e-001) (38, 6.25279702885981670000e-001) (39, -1.92651243457150210000e-002) (40, -2.24417391223009840000e-002) (41, 3.39176279034433810000e-001) (42, 1.72565215088047670000e-001) (43, -2.07656903949725520000e-001) (44, 3.72582477209406460000e-001) (45, 1.18462493837130110000e-002) (46, 2.22918882184370590000e-001) (47, -1.36982626654532400000e-002) (48, -2.38410759460354370000e-001) (49, 1.35748221001993690000e-001) (50, 4.97351647126550000000e-001) (51, 5.87744898100699850000e-001) (52, 4.11136394735056750000e-001) (53, -4.34675933058462970000e-001) (54, 3.34759135981299240000e-002) (55, 1.61809604388287590000e-001) (0, -1.72445765577075330000e-001) (1, 4.57577210013522180000e-002) (2, -2.16133674646284440000e-001) (3, 9.76670807503119520000e-001) (4, 2.14295808311407350000e-001) (5, 1.50150338443679450000e-001) (6, 4.93581618855955970000e-001) (7, 6.74190957193030600000e-002) (8, -4.51543492220140340000e-001) (9, -4.04671554693368410000e-001) (10, 6.21316362027708940000e-002) (11, -4.93597493641313450000e-001) (12, -3.09178896486951020000e-001) (13, 1.68447521492870510000e-001) (14, -3.03683996565420720000e-001) (15, -2.20375618005659440000e-001) (16, -1.43936354769606950000e-001) (17, 1.57639609644851880000e-001) (18, 6.23628401342617880000e-001) (19, 3.35740144397962400000e-001) (20, -5.48212806714637680000e-001) (21, -2.04203833801383600000e-001) (22, -2.27750408189077770000e-001) (23, 5.74690920944734510000e-001) (24, -3.54850665124831140000e-002) (25, -7.79616941310814490000e-001) (26, 2.47620515474581800000e-002) (27, 1.16575834616807080000e-001) (28, 6.41815062588909080000e-002) (29, -2.37272536685102290000e-001) (30, -4.59883805425058520000e-001) (31, 2.04048229259496640000e-002) (32, 4.08939737297485560000e-001) (33, 4.61351097783764990000e-001) (34, 4.26266458166106480000e-001) (35, 1.35338834119378860000e-001) (36, 4.79852871892517350000e-001) (37, 1.69233187813518450000e-001) (38, -3.08866053153846800000e-001) (39, -1.55883407062403640000e-001) (40, 3.17441703684774030000e-001) (41, -2.92580211574699710000e-001) (42, 6.93997866656669630000e-001) (43, 6.46486031642977410000e-002) (44, 4.97909666311906470000e-001) (45, 5.52256968543782810000e-001) (46, -3.94161017643173790000e-001) (47, 3.94327073032106290000e-001) (48, 8.01046485224592010000e-002) (49, 4.30372604595748160000e-001) (50, 2.57876898761634710000e-002) (51, -3.64124225102825600000e-001) (52, 9.66915748987135470000e-003) (53, 2.63113355332147750000e-001) (54, 5.45452473724749810000e-001) (55, -2.88307104885918150000e-001) (0, -1.70094486481850380000e-001) (1, -1.93770751210603410000e-001) (2, -5.69652549881570140000e-002) (3, -2.26489649074335660000e-001) (4, 6.57763878623879310000e-001) (5, 4.15701223536935730000e-001) (6, 2.88237679155974200000e-001) (7, 3.91900886121837930000e-001) (8, -1.70226913945256940000e-001) (9, 7.67349978901015860000e-001) (10, 2.87431114608687030000e-001) (11, -2.51567668545133240000e-001) (12, 2.33472293052889110000e-001) (13, -6.70577358472361220000e-001) (14, -2.78953356707203730000e-001) (15, 3.95001475039570170000e-001) (16, 9.06360524220831020000e-001) (17, 6.84565627597765510000e-001) (18, 5.17809921551602770000e-001) (19, -1.34814344371886750000e-002) (20, -1.81312027346144020000e-001) (21, -1.96413705074856860000e-001) (22, 9.37777004922027250000e-003) (23, -2.98565206913485930000e-001) (24, 5.51345433119295400000e-001) (25, -3.16066314026862920000e-001) (26, 1.57822131434988410000e-001) (27, 5.38610744429690370000e-001) (28, -1.07609990593711470000e-001) (29, 1.47875081151402970000e-001) (30, 1.52612361209128440000e-001) (31, -1.59316501242648510000e-001) (32, -2.57466389240158240000e-001) (33, -2.17801392285536830000e-001) (34, -7.81067061153438490000e-001) (35, 4.51444420421567410000e-001) (36, -1.28297572313257920000e-001) (37, 6.43427259012053330000e-001) (38, 5.46309601409314390000e-001) (39, 2.54982425595337850000e-001) (40, 7.88999539536125670000e-001) (41, -8.14947449971100830000e-002) (42, 5.04570656925907750000e-001) (43, 2.79210900179873990000e-001) (44, 2.91343277825997570000e-002) (45, -2.21152703222045580000e-001) (46, -2.41334168207943980000e-001) (47, -2.89120805925141610000e-001) (48, 1.81250328831441130000e-001) (49, 3.94552652679992120000e-001) (50, 2.07136142519069640000e-001) (51, -1.00812107447213720000e-001) (52, 4.85696471001807460000e-001) (53, -4.54933226906095330000e-001) (54, 4.34500427231927830000e-001) (55, 3.76922164811411550000e-001) (0, 3.62572897880932440000e-001) (1, -1.36438608729114060000e-001) (2, 4.59304187683907540000e-002) (3, 3.15625677403283680000e-001) (4, 3.65637963850054330000e-002) (5, 3.06416098107861330000e-002) (6, -9.57793765786938420000e-002) (7, -4.78264298839420340000e-003) (8, 2.03115320388330240000e-001) (9, 5.43889762284798910000e-001) (10, 4.54455774462076300000e-001) (11, 4.85943243391835810000e-001) (12, 1.32494824227818910000e+000) (13, 8.15924742429932180000e-001) (14, 2.20587562984206590000e-001) (15, 2.33107913522568700000e-002) (16, 6.85422020410231700000e-001) (17, 1.51920409755324700000e-001) (18, 1.48374798663427930000e-001) (19, 1.24488332181795590000e-001) (20, 3.05784496687852130000e-001) (21, 3.67433044975775780000e-001) (22, -8.09548281087786180000e-002) (23, 2.97216424463921210000e-001) (24, 6.03354902807615500000e-001) (25, 1.18903017461665410000e-001) (26, 3.99556151004705040000e-001) (27, 1.28317413160761090000e-001) (28, 6.11316374206158700000e-001) (29, 4.25636661570420740000e-001) (30, 3.33966982163413640000e-001) (31, 5.36797087164490700000e-001) (32, -5.31044781724909000000e-002) (33, 1.71228474465242250000e-001) (34, 9.39387244386011950000e-001) (35, 1.20082887301069310000e-001) (36, 1.02541536815222760000e+000) (37, -7.06936717998423280000e-001) (38, 2.46669978006692420000e-002) (39, 5.73461121256230720000e-001) (40, 9.63917021533112320000e-001) (41, -4.24484912068995510000e-002) (42, -1.18253974894938840000e-002) (43, 5.09732385040532750000e-001) (44, 2.03069312102931440000e-001) (45, 4.20679697770863560000e-001) (46, -4.43843584331751200000e-001) (47, 6.94516965985045750000e-001) (48, 1.63531148333848910000e-001) (49, -2.87070634457253620000e-001) (50, 3.00070721718490090000e-001) (51, 2.60410806487274940000e-001) (52, -1.98955035177897390000e-001) (53, 7.98695033043104960000e-001) (54, 6.60087743171064220000e-001) (55, 2.15218522536758080000e-001) (0, 1.36983096205807290000e-001) (1, -5.50073997675634700000e-001) (2, -6.99800677710835980000e-001) (3, -1.93777504967594970000e-001) (4, 4.45256347062858160000e-001) (5, 4.45163676329944520000e-001) (6, 3.51450283645671820000e-001) (7, -3.79053482412554150000e-001) (8, 9.75939506805477140000e-002) (9, 1.98065549009282640000e-001) (10, -7.23255738908667870000e-002) (11, -3.34738089911285510000e-001) (12, -1.24241854924500470000e-001) (13, -1.70291867770611120000e-001) (14, -6.25847088465089630000e-002) (15, -5.47218889111344860000e-001) (16, 2.10497670989517300000e-001) (17, -3.96204132522867290000e-001) (18, 1.60481631362057290000e-001) (19, 2.19636373501183670000e-001) (20, 1.90687072484273970000e-001) (21, -2.31648944035931920000e-002) (22, 7.73727835290356350000e-002) (23, 4.25025369259818600000e-001) (24, 1.81883546729527080000e-001) (25, 2.83513961466388860000e-002) (26, 7.23001046693141360000e-002) (27, 7.79404594743089540000e-001) (28, -4.88324249666050650000e-001) (29, -2.87418122586131470000e-001) (30, 1.23648188363024340000e-001) (31, 3.24922886463061830000e-002) (32, -2.87983038887851090000e-002) (33, 4.94661140239301060000e-002) (34, 2.53444722221866650000e-001) (35, -2.02732308141970990000e-001) (36, -3.13149547530952030000e-001) (37, 1.48675410361093580000e-001) (38, -6.44897468980436090000e-001) (39, -8.41698378566361170000e-003) (40, 1.99579468048558000000e-001) (41, -3.19078057164094710000e-001) (42, 4.20992102332705230000e-001) (43, 1.90552358299901580000e-001) (44, 3.68303950024000900000e-001) (45, -3.09981241468254900000e-001) (46, 1.44788379443892390000e-001) (47, -4.56572174965110040000e-001) (48, 1.08052992998431320000e+000) (49, -3.65070320183367550000e-001) (50, -5.20955371460562810000e-001) (51, 7.06014008527252600000e-002) (52, 2.43631727882298390000e-001) (53, 2.58303979809133390000e-001) (54, 2.38226822256757400000e-001) (55, 9.12585958220362370000e-001) (0, 1.45224653981393680000e+000) (1, 1.01992685771356300000e-001) (2, 1.36586921020666940000e-001) (3, 6.72501663570308830000e-001) (4, 4.22580398420509470000e-002) (5, -2.00792155302218640000e-001) (6, 4.69608252552021650000e-001) (7, 4.26421057943207820000e-002) (8, 4.95445828100076200000e-001) (9, 1.84600026529246730000e-001) (10, 1.04324302925104110000e+000) (11, -4.54543838876258650000e-001) (12, 7.98447170898271330000e-001) (13, 5.07478021629457540000e-001) (14, 4.98952949964066420000e-001) (15, 2.77028819277207180000e-001) (16, 4.45682351003044100000e-001) (17, 5.51570154895200780000e-001) (18, 9.58343449447679120000e-004) (19, 1.60783020621222350000e-001) (20, -2.49100545873622570000e-001) (21, 4.68375859941244090000e-001) (22, 2.47993632743887190000e-001) (23, 2.77036553546509970000e-001) (24, 3.53946275918173710000e-002) (25, 2.68913099374013590000e-001) (26, 1.82839051722628180000e+000) (27, 2.21077115759533090000e-001) (28, 2.61434217798036610000e-001) (29, -1.34066207019010310000e-001) (30, 5.91351662715154490000e-001) (31, 9.04681844283394930000e-001) (32, 5.77584273220414060000e-001) (33, -2.88773397436122570000e-001) (34, 4.51787808092749100000e-001) (35, 2.69328046240229880000e-001) (36, 1.04130184119623990000e-001) (37, 3.44207768808502010000e-001) (38, 1.14844894696685600000e-001) (39, -4.32264932968345620000e-001) (40, -2.83061499944138870000e-001) (41, 2.26407280887476940000e-001) (42, -3.83593060116823260000e-001) (43, -8.24067178005183920000e-002) (44, 1.05721723304528520000e-001) (45, 2.42937019799562810000e-001) (46, -3.09787102695040060000e-001) (47, 2.64614274456421720000e-001) (48, -4.49763257293542050000e-001) (49, -1.03411943902701670000e-001) (50, -1.44114340223942400000e-001) (51, 3.23802432268941790000e-001) (52, 4.41192879662883230000e-001) (53, -1.09379752678669660000e-001) (54, 2.32623577928846690000e-001) (55, 4.10264367230945390000e-001) (0, -6.36428468678289060000e-001) (1, 5.38005261044452380000e-002) (2, 4.96387276371020760000e-001) (3, 2.71136757338646390000e-001) (4, -6.22597725754367120000e-001) (5, 6.26882834371148000000e-001) (6, -1.15198507883451510000e-001) (7, -1.30674767356963590000e-001) (8, -3.76925782442669720000e-001) (9, -1.62649241692431780000e-001) (10, 4.67358513486994600000e-002) (11, -8.53314708656856320000e-001) (12, 1.32274715262720300000e+000) (13, -3.39441623969179640000e-002) (14, 5.47837823425447850000e-001) (15, 1.34885517554460350000e-002) (16, 3.13197040385064130000e-001) (17, 3.22066069430434700000e-001) (18, 7.13227632454707440000e-001) (19, 1.77405468969830530000e-001) (20, 8.11177352438425260000e-001) (21, -1.34972580737870020000e-001) (22, -4.30977540602347010000e-002) (23, 1.25390081950909640000e+000) (24, 1.59837926927787840000e-001) (25, 3.26576047774290780000e-001) (26, 7.69750486444001350000e-001) (27, 6.08880049487971590000e-001) (28, 5.65670635365412180000e-001) (29, 3.00320394960808090000e-001) (30, 3.18678619543744380000e-001) (31, 1.01553482387157560000e+000) (32, 2.36700683510922080000e-001) (33, 4.04215264823412800000e-001) (34, -2.03897663569262560000e-001) (35, -1.34163422740260580000e-001) (36, 4.56736016776537860000e-001) (37, 2.45454952089898230000e-001) (38, 9.50245478738802470000e-002) (39, -2.60099127494289710000e-001) (40, 2.00595975366565730000e-001) (41, -9.59849560197809510000e-002) (42, -1.45541662110659050000e-001) (43, 1.59650937902646110000e+000) (44, 5.37695899895663940000e-002) (45, 2.36844884209134410000e-001) (46, 1.69890609369940520000e-001) (47, -3.92396310637645800000e-001) (48, 5.88067878659251480000e-001) (49, 3.51517676265860170000e-001) (50, -6.00948367602369360000e-001) (51, -9.66805695018502500000e-002) (52, -6.47736820193568070000e-002) (53, 2.37106885576762210000e-001) (54, 9.42701060328657720000e-002) (55, -2.41692533808274430000e-001) (0, 4.81607996996859300000e-001) (1, -2.46896621045707780000e-001) (2, 6.90273894311374400000e-002) (3, 7.69622355915780990000e-001) (4, -6.07785705818701950000e-001) (5, -1.67811082478558720000e-001) (6, 2.71150393154409690000e-002) (7, 6.06962203397213260000e-003) (8, 1.17785429789521630000e-001) (9, 5.40436664532870980000e-001) (10, 2.47116300980761210000e-001) (11, 7.90207596194311580000e-001) (12, 5.51845188276794190000e-001) (13, 3.06110943503852370000e-001) (14, 8.93959605348727090000e-001) (15, 1.19930709743637400000e-001) (16, -5.81391571491624130000e-001) (17, 7.04559221597456620000e-003) (18, 1.82888152138338560000e-001) (19, 2.98447705187693920000e-001) (20, 1.63570567850726410000e+000) (21, 7.76769593480971190000e-001) (22, -5.46679918758204920000e-002) (23, -3.98662046370555690000e-001) (24, 5.32189723497085500000e-002) (25, 2.22302310756015840000e-001) (26, -1.74612242472060780000e-001) (27, -1.39675967455883540000e-001) (28, 8.20411934949981330000e-001) (29, 2.80411628241244370000e-002) (30, -1.10669549360107740000e-001) (31, 4.06095251410630350000e-001) (32, 2.84971962458518410000e-001) (33, 1.04306634092396980000e+000) (34, -2.96088709976891740000e-001) (35, -5.32359875525642740000e-003) (36, 3.15581051881578980000e-001) (37, -1.27395879253949060000e+000) (38, 1.00909525511970980000e-001) (39, 4.85590578068058280000e-001) (40, 2.24304114350263510000e-001) (41, 1.12899462723869650000e-001) (42, 1.17802318892037340000e+000) (43, 2.43548642549314880000e-001) (44, 5.73184256593639700000e-001) (45, 2.54809519614045300000e-001) (46, 4.27899765074522060000e-002) (47, 4.51405585776848140000e-001) (48, 3.51166630170022810000e-001) (49, -1.91663611524630710000e-001) (50, 3.92460719817049280000e-001) (51, 3.06252972586688490000e-001) (52, -6.93211787341074580000e-001) (53, 5.46783637480620310000e-001) (54, 2.35496768263410680000e-001) (55, -2.34284429861322030000e-001) (0, 5.80504574084496070000e-001) (1, 3.12791877979577860000e-001) (2, -2.26864028709371810000e-002) (3, 4.92510897392181680000e-001) (4, 6.11800817610723020000e-001) (5, 3.11832509154700950000e-001) (6, 4.88379358606442830000e-001) (7, 1.56499148899854470000e-001) (8, 6.62297818751861110000e-001) (9, 1.68201175377280160000e-001) (10, 3.74235844461818790000e-001) (11, 1.62669063056599420000e-001) (12, 1.45099368736655160000e-001) (13, -3.55577980065353920000e-002) (14, 1.06337006556385920000e-001) (15, 7.99191071341105900000e-001) (16, 5.24514400935086060000e-001) (17, 1.68720114157785710000e-001) (18, -1.23188001341399960000e-001) (19, 2.68826813599625070000e-001) (20, 1.19341083562553960000e-001) (21, -3.33494580835435650000e-001) (22, -2.22774652226053920000e-001) (23, 2.09727209988197240000e-001) (24, 5.69093436881354720000e-001) (25, -8.97584484740625910000e-001) (26, 2.22644273710591840000e-001) (27, 3.14356737439322800000e-001) (28, 1.73921023276087720000e-001) (29, 1.98680057189049270000e-001) (30, 2.62193036261161750000e-001) (31, 4.35987479532261580000e-002) (32, 9.19716304949715570000e-001) (33, 2.26609272772414940000e-001) (34, -2.80851628472611300000e-002) (35, 1.26315362378883340000e+000) (36, 1.53598540625133840000e-001) (37, 9.20301603439324210000e-001) (38, 4.84946861141958510000e-001) (39, 1.54176556537886200000e-001) (40, 7.48790627067183190000e-002) (41, 6.33322528086715410000e-001) (42, 6.63810468658146080000e-001) (43, 4.12145142640063910000e-001) (44, 4.78788080361069120000e-001) (45, 2.29331610723393890000e-001) (46, 5.54994732711990220000e-002) (47, 2.29659818124430480000e-001) (48, -6.25765195777440940000e-001) (49, 5.84581156598713790000e-001) (50, -1.27121025192875520000e-001) (51, 2.64547952898685550000e-001) (52, 4.01554734548417060000e-001) (53, 8.33621127165787290000e-002) (54, 1.69188284574443540000e-001) (55, 2.35400637134885880000e-001) (0, -2.80291018280979240000e-001) (1, -3.41262367449360500000e-001) (2, -5.02525788580387430000e-001) (3, -8.65685761050779550000e-001) (4, 2.48178051277282320000e-001) (5, 2.89478044936903810000e-002) (6, 3.10103642532289280000e-001) (7, -2.27491594011743790000e-001) (8, -5.77423828914858770000e-001) (9, 4.38079305611185520000e-001) (10, -1.86371977047397860000e-001) (11, 1.18742853893297680000e+000) (12, 2.99012514670130570000e-001) (13, 1.01072760513847130000e+000) (14, 2.22133400470385880000e-001) (15, -5.04399564897030190000e-001) (16, -3.26135371378553860000e-001) (17, -1.06665302147454020000e+000) (18, -4.14523276644813870000e-001) (19, 4.11468320385857960000e-001) (20, 3.03954793531270250000e-001) (21, 2.53438739145375680000e-001) (22, 1.72274662029693260000e-002) (23, 6.42986260079040690000e-001) (24, 3.92599886929668670000e-002) (25, 5.64710599446124780000e-001) (26, -6.67961410023938110000e-002) (27, -1.00710721858347370000e-001) (28, 4.42982533599842580000e-001) (29, 1.97864389795114670000e-001) (30, 1.80092530316363690000e-001) (31, 4.57599397755420250000e-001) (32, 1.63878518312246480000e-001) (33, 5.00996456457995510000e-001) (34, 5.65977707768015700000e-001) (35, -3.34428277191807230000e-001) (36, 2.27808238507708540000e-001) (37, -2.50105061041434910000e-002) (38, -2.91724567602053620000e-001) (39, 6.74061912469930190000e-001) (40, 2.74203097697169940000e-001) (41, -2.73021808564165470000e-001) (42, 4.06861754482800820000e-001) (43, 5.41329176916128470000e-001) (44, 2.57279092720858920000e-001) (45, 4.71788091148377890000e-001) (46, 1.67835923404970670000e-001) (47, 4.05248832933486180000e-001) (48, 8.99607952177198800000e-001) (49, -1.61120121601130480000e-001) (50, 2.70199685628123080000e-001) (51, 9.11773280339333470000e-001) (52, -2.74432041001874520000e-001) (53, 2.67951736863559720000e-001) (54, 8.43233394512015510000e-001) (55, -1.44720548831583890000e-001) (0, 8.00977603558610030000e-001) (1, -5.10835935613887400000e-001) (2, -4.79195301673190740000e-001) (3, 5.16345538567945850000e-001) (4, 4.91758002878640520000e-001) (5, 1.34448247698667620000e-001) (6, 1.93253150074185450000e-001) (7, -4.46987052700297980000e-001) (8, 1.00923867024298000000e-002) (9, 4.85683786561452780000e-001) (10, 3.03582697966764400000e-001) (11, 6.27525091316119830000e-002) (12, 6.26586950545928500000e-001) (13, 7.46369406912708870000e-002) (14, 6.07217917315531100000e-001) (15, -4.79244132778422980000e-001) (16, 2.31504210685701570000e-001) (17, 5.94371028352028850000e-004) (18, 6.41390996378241930000e-001) (19, 3.82119528464270610000e-001) (20, 2.83253728017483550000e-001) (21, 3.30742598264832150000e-001) (22, -8.55243326251806450000e-003) (23, 2.83878032446640340000e-001) (24, -4.92936390289315520000e-002) (25, 6.63689811737460670000e-001) (26, 9.90893216708783610000e-001) (27, 2.18103953459921170000e-001) (28, 2.95997910530773620000e-001) (29, 3.72391966202729130000e-001) (30, 1.37866161633271060000e-001) (31, 3.94425275680922310000e-002) (32, 1.98189416054045690000e-001) (33, 3.95162738374663370000e-001) (34, -1.20810162139178200000e-001) (35, -2.39671528040442140000e-001) (36, 2.79358873917912310000e-002) (37, 5.06387439177445550000e-001) (38, 3.86384364618206560000e-002) (39, 4.20278437195123420000e-001) (40, 3.00641045748514860000e-001) (41, -6.37349610469119750000e-001) (42, -1.06629885601449010000e-002) (43, 2.54937626465246980000e-001) (44, 4.63326883883882710000e-001) (45, 4.15535610597739190000e-001) (46, -6.27913752354211650000e-002) (47, -5.45579191645194860000e-001) (48, 2.85801327298056300000e-001) (49, 1.09663845276662730000e-001) (50, 4.91380855542443710000e-001) (51, -3.94386020461814700000e-001) (52, 3.86941148701265450000e-001) (53, 1.89983058376735010000e-001) (54, 2.95936850031035810000e-001) (55, -1.19274913837613430000e-001) (0, -6.41880622374446540000e-001) (1, 3.81093041382827360000e-002) (2, 4.49208186350860200000e-002) (3, -1.72652010120285330000e-001) (4, 5.50023676024353200000e-001) (5, 2.69135060922135850000e-001) (6, -1.01644734161930320000e-001) (7, -9.65708776034317480000e-002) (8, 1.72147218371966530000e-001) (9, 2.17501045196802960000e+000) (10, -5.74676945012833200000e-002) (11, 2.74555994375870190000e-001) (12, 8.69397108381661290000e-001) (13, 7.19174844068127930000e-001) (14, 6.42114223749978290000e-002) (15, -6.01389913476906220000e-002) (16, 2.50122203204337200000e-001) (17, 9.24838983247697750000e-002) (18, 3.16712178942768650000e-001) (19, 2.52056762028160350000e-001) (20, 3.60532012030880420000e-001) (21, 9.33634937605448000000e-003) (22, -3.39413956631043900000e-001) (23, 3.10941553263118010000e-001) (24, -2.15232268429984640000e-001) (25, 3.29114995927157260000e-001) (26, 1.36294634105844410000e+000) (27, -3.00969280052555470000e-001) (28, 9.86272241743630150000e-001) (29, 1.19176196077315280000e-001) (30, -1.63864263408778050000e-001) (31, 1.15802746499123210000e+000) (32, -9.95172180453750670000e-001) (33, 1.74860944315012560000e-001) (34, -3.59572791805253980000e-001) (35, -2.25520573338735260000e-001) (36, 3.24018428283721130000e-001) (37, -9.11047122731910910000e-001) (38, -1.83076461561588430000e+000) (39, 2.87513055537393510000e-002) (40, 7.21922880204654670000e-001) (41, -5.35194872668629750000e-001) (42, 6.88875478203468840000e-001) (43, 6.68305115752441780000e-001) (44, 2.15985803695104700000e-001) (45, 1.12725675200846840000e+000) (46, -2.43475652478625990000e-001) (47, 2.07855902482278890000e-001) (48, 1.91815875086273930000e-001) (49, -1.90035674054527730000e-001) (50, 1.99445472585765200000e-001) (51, -1.79745340663925090000e-001) (52, 2.02881503326598290000e-001) (53, 3.99202882246699090000e-001) (54, 6.00290960213243240000e-001) (55, -6.64030372725254450000e-001) (0, -2.92356786998297480000e-001) (1, 6.17597995468880170000e-001) (2, -3.95969102839540540000e-002) (3, 5.01909590435270390000e-001) (4, 9.94000227974318310000e-001) (5, 4.24801108861740500000e-001) (6, 1.65282898164045760000e-001) (7, 4.00712385385276480000e-002) (8, -5.42659165232227240000e-001) (9, 3.51704656657687690000e-001) (10, 6.77257020208169580000e-001) (11, 3.02474245027598840000e-001) (12, 4.13099925544968990000e-001) (13, 3.34866077667619500000e-001) (14, 4.42443331552809180000e-001) (15, -3.39094803125618220000e-002) (16, 3.74597974278256420000e-001) (17, -4.21334842414488820000e-001) (18, -1.98760989259736230000e-001) (19, 7.07810540128126050000e-001) (20, 1.46588366261122450000e-001) (21, 2.69171375563738550000e-001) (22, 9.50162443591170750000e-001) (23, -2.22221481194385370000e-001) (24, 1.95266541920911170000e-001) (25, 4.83666755792705630000e-001) (26, 4.98418577489950550000e-001) (27, 1.48012809033095230000e-002) (28, 2.19709458486457120000e-001) (29, 5.26403941894055820000e-001) (30, -1.37862865145119020000e-002) (31, 4.34770067349722290000e-001) (32, 1.68709136618977660000e-001) (33, 2.30823914532244410000e-001) (34, 6.58834249984567410000e-001) (35, -5.42342457576222350000e-001) (36, -2.98119322147887610000e-001) (37, -2.61292500656339130000e-001) (38, 1.76880098675309680000e-001) (39, -2.22988856878212930000e-001) (40, 3.11445076472898600000e-001) (41, -8.04888758966905600000e-003) (42, -3.23422079322303190000e-002) (43, 2.41445814339490860000e-001) (44, -3.16529245296382710000e-001) (45, -1.70714753339051370000e-001) (46, 8.98931552936630850000e-001) (47, -9.97274902895093490000e-002) (48, 5.39666703034202170000e-001) (49, 1.72400634611887730000e-001) (50, 3.87607567530299850000e-001) (51, 4.22665787362667690000e-001) (52, 8.41512557405287440000e-002) (53, -7.48348881838287320000e-002) (54, 7.96892644219482920000e-001) (55, -7.47581932249419820000e-002) (0, -1.58406521068318430000e-001) (1, -1.80938912883196220000e-001) (2, -1.05037856457340430000e-001) (3, -1.59745000543426720000e-001) (4, -7.18209560053090220000e-001) (5, -2.53712733764757450000e-001) (6, 2.90401517286009990000e-001) (7, -9.00880828050711900000e-002) (8, 1.69568531906555380000e-001) (9, 2.30999859774522480000e-001) (10, -1.39940045851822540000e-001) (11, 1.25394625146956320000e-001) (12, 4.09872084294476640000e-001) (13, 4.35375671533006100000e-001) (14, 2.88934709233081950000e-001) (15, -1.01660346939955070000e-001) (16, -3.94690386147986020000e-001) (17, -1.22147359115476890000e+000) (18, -1.50275123242636620000e-001) (19, -1.00608059541864450000e+000) (20, -2.78499155359555880000e-002) (21, 2.11206114834570010000e-002) (22, 5.90808801349993700000e-001) (23, -2.95814282018009580000e-001) (24, 1.40641694818306320000e-001) (25, 1.24529264437578260000e+000) (26, 1.51283262752478580000e-001) (27, 4.15342027603254200000e-002) (28, 4.81704676266021370000e-001) (29, 9.01132400757718720000e-002) (30, 1.04607588954133160000e+000) (31, 1.19881006046827500000e-001) (32, -5.48967972518605740000e-001) (33, 2.08716953210412660000e-002) (34, -2.19773457083661390000e-001) (35, -1.14189222501967170000e+000) (36, -5.76012677642106620000e-001) (37, -1.19987265007504280000e-001) (38, -3.74678284257081880000e-001) (39, 5.53887631993766560000e-001) (40, -7.71708103550904580000e-001) (41, -1.52119895419722290000e-001) (42, -3.56902622197385400000e-002) (43, 2.07464126574797210000e-001) (44, -1.34025871685240630000e+000) (45, 2.83270001515584070000e-001) (46, 8.55248904237421950000e-001) (47, -8.73898469282471390000e-001) (48, 2.08426772424787990000e-001) (49, 2.21106578105608430000e-003) (50, 7.06599089073389490000e-003) (51, 6.34294748209908940000e-001) (52, 1.73177670735899350000e-001) (53, -8.58616152557232890000e-001) (54, 8.82157240514781170000e-001) (55, -1.17544346769835860000e-001) (0, -1.71035862916777220000e-001) (1, 5.62040308620605500000e-001) (2, 5.30186062808904680000e-001) (3, 6.87435731343006700000e-002) (4, 4.86847463258343940000e-001) (5, 4.47362953495219410000e-002) (6, 5.07167392981647590000e-001) (7, 6.30425760883872370000e-001) (8, 1.62034976308624120000e-001) (9, 1.50693103737742580000e-001) (10, -1.25183791622677760000e-001) (11, -4.40780896184872870000e-001) (12, -3.66540961053926150000e-002) (13, -2.20431674747764040000e-001) (14, 2.48908990958366800000e-001) (15, 6.47424051899497250000e-001) (16, 5.34643585007807070000e-001) (17, 5.49981521117096860000e-001) (18, 6.92115082898694170000e-001) (19, -2.37362921594521460000e-001) (20, -1.93880635832114430000e-001) (21, -5.37272491937278110000e-001) (22, 2.88369352464383500000e-001) (23, 5.43554572801400290000e-001) (24, -2.59616151040383490000e-001) (25, -7.96215913624734540000e-001) (26, 5.87164191942025400000e-001) (27, 5.58334825154420610000e-002) (28, 2.38212230461686770000e-003) (29, 2.36809891348464890000e-001) (30, 5.03926273277772060000e-001) (31, 2.26642611674598010000e-002) (32, 3.27493794443506570000e-001) (33, -3.69108424966929920000e-001) (34, -2.32729857872590070000e-001) (35, 6.18244145253560860000e-001) (36, -1.10979847169832560000e-001) (37, 4.43417804217227580000e-002) (38, 7.19675354613659610000e-001) (39, -4.59242354612784780000e-003) (40, 1.13881434388294300000e+000) (41, -1.89081601812630150000e-001) (42, -2.11104599423772780000e-002) (43, 2.25632367770476430000e-001) (44, 4.11448614552740400000e-001) (45, 7.26574391766201310000e-003) (46, -3.71734622879567250000e-002) (47, -6.42708130321792690000e-002) (48, -2.95370900080736720000e-002) (49, 3.07561947904117450000e-001) (50, -1.32785437420958410000e-001) (51, 8.05104784114392120000e-002) (52, 5.26098987575146390000e-001) (53, -5.93247304101124290000e-002) (54, -1.10872757924608640000e-001) (55, 2.60541488409773430000e-001) (0, 3.94232746710032390000e-001) (1, 4.98913245337262390000e-001) (2, 4.84800686921505570000e-001) (3, 3.55383085524883460000e-001) (4, 5.66338726426711350000e-001) (5, -4.83768897824558730000e-001) (6, 7.14170336838239940000e-001) (7, 3.90173012452378510000e-001) (8, 5.77243258943446300000e-001) (9, -1.66320551227308320000e-001) (10, 3.16232449036698340000e-001) (11, -1.29311699735881570000e-002) (12, -3.22435738461521960000e-001) (13, -2.09643536247592330000e-001) (14, -3.17231861173302210000e-001) (15, 4.11645183401360750000e-001) (16, 7.37777458286691170000e-001) (17, 3.82596400310599660000e-001) (18, 5.17782428523125390000e-001) (19, -3.90265349294552200000e-001) (20, 2.12109026413409420000e-001) (21, -7.81023483584253190000e-002) (22, -4.63940120567655270000e-001) (23, 5.12988647867775320000e-001) (24, 3.48499143504195360000e-001) (25, -1.13224701477412730000e-001) (26, -2.33126651510126740000e-001) (27, 1.30087607668412040000e-001) (28, -1.57743000053614500000e-001) (29, -4.14285496426407880000e-001) (30, 4.67688234308302250000e-001) (31, -6.59203285141680000000e-002) (32, 6.54530023457740250000e-001) (33, -2.24392086491807970000e-001) (34, -1.35132207270356550000e-001) (35, 6.74702935647155780000e-001) (36, -1.49950706821422860000e-001) (37, 6.77368751594217830000e-001) (38, 1.83728827619539150000e-001) (39, 5.19575408442218070000e-002) (40, -1.22137255893881160000e-001) (41, 5.72784097926869570000e-001) (42, 4.39057253821305000000e-001) (43, 4.19032995186779250000e-003) (44, 2.66905692983979760000e-001) (45, -1.41066321336466570000e-001) (46, -7.42370747492178800000e-001) (47, -2.04807726929757350000e-001) (48, -6.98331873942985130000e-001) (49, 4.01425258506560910000e-001) (50, -1.58221250100415160000e-001) (51, 4.84244197833443860000e-002) (52, 2.92790937055972310000e-001) (53, 7.51700992914841190000e-002) (54, -2.36049434088553970000e-001) (55, 6.10963999281434300000e-001) (0, 1.70658669451960400000e-001) (1, 3.48325408788491830000e-001) (2, 2.80954800339509590000e-001) (3, 4.46206577364267720000e-001) (4, 6.09052490991232260000e-001) (5, 6.71249944557527180000e-001) (6, 1.55636343993381510000e+000) (7, 1.74125176014982320000e-003) (8, 2.90564164745492900000e-001) (9, -8.65555674838010210000e-001) (10, 1.48822034743509790000e+000) (11, -3.75925336751818220000e-001) (12, -8.83847959788485180000e-002) (13, -1.14856460432145800000e-001) (14, -1.47484797062948920000e-001) (15, 4.58213105591107950000e-001) (16, -1.85513866553756930000e-001) (17, 5.31678830105422270000e-001) (18, 6.01031533470760990000e-001) (19, 1.07461047049128590000e-001) (20, 1.11514763294177850000e-001) (21, -8.33104608704655220000e-003) (22, -2.17585981257219850000e-002) (23, 1.94358436461527530000e-001) (24, 8.36968860524185950000e-001) (25, -8.04389994850605170000e-002) (26, -4.26475806733250180000e-002) (27, 2.39585171328718230000e-001) (28, 7.39637618727078670000e-002) (29, 2.88419674790695370000e-002) (30, 5.87536658999623300000e-002) (31, -2.15895966943181060000e-002) (32, 4.89324154167348090000e-001) (33, -1.00617515035254120000e-001) (34, -2.26809130776361110000e-001) (35, 4.77883328736802450000e-001) (36, -2.28647193174212170000e-001) (37, 3.65061790104074910000e-001) (38, 2.61768292031882450000e-001) (39, -1.14344680023111590000e-001) (40, -6.58407964233975740000e-002) (41, 4.62696851127768870000e-001) (42, 6.27814842827314260000e-001) (43, -1.57613236025448610000e-001) (44, 3.45283214621530220000e-001) (45, 6.93096820146165420000e-002) (46, 4.16539152096760610000e-002) (47, -4.89576601482520470000e-001) (48, -3.94764649768498900000e-001) (49, 4.87040766724501970000e-001) (50, 2.18371293669657740000e-002) (51, 7.09697469284501780000e-002) (52, 6.96917061591593060000e-001) (53, -5.08304510564175250000e-001) (54, -1.88140757913453800000e-001) (55, 2.32734887147010240000e-001) (0, 1.76729115832270530000e+000) (1, 3.94386559826915890000e-001) (2, 5.08705407483165950000e-001) (3, 5.00470996715651830000e-002) (4, 3.42437688144600290000e-001) (5, 1.05428086092607260000e-001) (6, 7.66946157532059970000e-001) (7, 4.42238122326915890000e-001) (8, 5.34223385260253040000e-001) (9, 2.15309238717389500000e-001) (10, 1.81917457850538200000e-001) (11, -1.27957489702046260000e-001) (12, 1.81664751757544240000e+000) (13, 3.46496124538232420000e-001) (14, 5.18881111757304560000e-001) (15, 3.52325192761122900000e-001) (16, 4.15682067766145520000e-001) (17, 7.85919740750730790000e-001) (18, -7.51699250869243270000e-002) (19, -1.21069146020691780000e-001) (20, -1.83313072910041170000e-001) (21, -1.18474436127260690000e-001) (22, 3.26019097453314750000e-001) (23, 4.59925518516186570000e-001) (24, -2.66374129900471930000e-001) (25, -7.31723226363568400000e-002) (26, 4.89709358204489690000e-001) (27, 1.90552272835791630000e-001) (28, -3.00146170196267270000e-001) (29, 6.38483212207126120000e-001) (30, 5.20455138364564580000e-001) (31, -1.67419281948338160000e-001) (32, 1.02918506969573340000e+000) (33, -1.77488379910401150000e-002) (34, 5.42500757600210880000e-001) (35, 1.03288495640574380000e+000) (36, 6.60517436953388280000e-003) (37, 3.59895948065392770000e-001) (38, 4.86655858255582610000e-001) (39, 3.06368753497701930000e-001) (40, 1.58863042393687620000e-001) (41, 3.18145085021468990000e-001) (42, -1.79403707256708260000e-001) (43, -4.03174535232853630000e-002) (44, 2.04583498089685430000e-001) (45, -4.21241647889195050000e-002) (46, 2.42855624482232750000e-002) (47, 4.86413329016863960000e-001) (48, 1.34837421392522830000e-001) (49, 2.78904707979473750000e-001) (50, -2.21257097884914490000e-001) (51, -1.04684891933125790000e-001) (52, 3.89613258486758320000e-001) (53, -1.07090564123288750000e-001) (54, -4.39271713525705880000e-001) (55, 6.60403703419512930000e-001) (0, -2.73001987342550660000e-001) (1, 5.84392963326231810000e-001) (2, 4.25762584781901270000e-001) (3, 3.87828911159598830000e-001) (4, -1.51751956518383510000e+000) (5, 1.73304643085544110000e-002) (6, -7.44814983084110650000e-001) (7, -6.95192916509955600000e-002) (8, 5.42705432862822020000e-001) (9, -1.63323773516309360000e-001) (10, 7.49235236364412030000e-001) (11, 3.96096578293087590000e-001) (12, -2.38962080864613490000e-001) (13, 2.83300436533273860000e-001) (14, 1.08748440214556500000e+000) (15, 6.05682028806464050000e-001) (16, 9.21534475418957360000e-002) (17, -6.14899607661156460000e-002) (18, -3.44362883088438970000e-002) (19, -8.75598624120255410000e-002) (20, -3.09061628868873230000e-001) (21, 3.38350707352796710000e-001) (22, 3.95671828888267300000e-001) (23, -8.34991113123414450000e-002) (24, 2.60975675497363280000e-001) (25, 5.99290013378598000000e-001) (26, -1.16311019913617350000e-001) (27, -2.14372333004972550000e-001) (28, 5.76315955345729440000e-001) (29, 5.23968089478472840000e-001) (30, 3.39294699450073900000e-001) (31, 6.09039586479499630000e-001) (32, 6.11496344585130020000e-001) (33, 4.30303883469543900000e-001) (34, 1.03310581895429300000e+000) (35, -7.15302439692406390000e-002) (36, 4.60144755084223980000e-001) (37, -3.21109262788618340000e-001) (38, -3.10808698327437220000e-002) (39, 1.69886111773449390000e-001) (40, -7.89446713709753170000e-001) (41, 5.31493788934008450000e-001) (42, -1.84666293780365340000e-001) (43, -1.13295843564893740000e-001) (44, -3.66012064744899670000e-001) (45, 4.49797183148371750000e-001) (46, 5.60470364054720840000e-001) (47, 4.50658826506392380000e-001) (48, 1.32613838320767530000e-002) (49, 1.03243162799134910000e-001) (50, 3.96998671367438440000e-001) (51, 5.03540297468243470000e-001) (52, -3.13616629925700330000e-001) (53, -2.91876861154499180000e-001) (54, 3.27933755283293550000e-001) (55, -2.42349351662189380000e-001) (0, -5.91683656202062650000e-001) (1, -4.30619732955007250000e-003) (2, 8.46647469558427230000e-002) (3, -5.99038323291835480000e-001) (4, -9.49691566483898520000e-001) (5, -2.09412111551539440000e-001) (6, -8.57397163499764580000e-002) (7, 1.66505473120715980000e-001) (8, 5.04546716662315560000e-002) (9, -3.85000977182372140000e-001) (10, -2.99825685275955320000e-001) (11, -1.42412172245877350000e-001) (12, -2.35758244825345210000e-001) (13, 4.17026566105453340000e-002) (14, -5.77794654012950160000e-001) (15, 1.39394968584985430000e-001) (16, -4.17954887485758210000e-001) (17, 9.34316970056477130000e-002) (18, -3.84728757819863990000e-001) (19, -3.97019085729746760000e-001) (20, -1.63256333311364050000e-001) (21, -1.67071240596137840000e-001) (22, 4.03814391957294240000e-001) (23, -4.03006579110142760000e-001) (24, 1.15300363484436040000e-002) (25, 2.64862452565642730000e-001) (26, 2.45679546769234720000e-002) (27, 3.12195415026943090000e-001) (28, -1.07322224775631600000e+000) (29, -2.66825826445146630000e-001) (30, 8.79016843205935090000e-001) (31, 1.27045863118474990000e-001) (32, 6.35524922344363420000e-001) (33, -3.19302703640103160000e-001) (34, 6.27553023372092870000e-002) (35, 3.09338662960708500000e-001) (36, 4.48958905096217760000e-004) (37, 3.89473290665823200000e-001) (38, 1.07432644981481310000e-001) (39, 1.81178122147752880000e+000) (40, -5.95449524595657480000e-001) (41, 9.66886727370927230000e-002) (42, -7.76261905537144470000e-001) (43, -2.00349671988258650000e-001) (44, 2.16659138272191100000e-001) (45, -5.84853346589927270000e-001) (46, 1.37895023050670890000e-001) (47, 1.83473246558215980000e-001) (48, 1.11663080251220970000e-001) (49, 2.13290045414641060000e-001) (50, -4.74370171687251150000e-001) (51, 1.37135597110316890000e-001) (52, 5.55815787405554260000e-001) (53, -6.05535768180766040000e-001) (54, 4.07053463962960160000e-001) (55, 8.73470902559172700000e-001) (0, 1.92717230500474510000e-001) (1, 9.98666421423575760000e-002) (2, 1.62013386673218660000e-001) (3, 4.27041466285612290000e-001) (4, -7.96791564014494250000e-001) (5, -3.07941836861916510000e-001) (6, 4.68768054450236390000e-001) (7, 2.62234445464333330000e-001) (8, -2.15055135865081430000e-001) (9, 1.00286554281954280000e-001) (10, 2.60855275246759280000e-001) (11, -1.27160787092860740000e-001) (12, 1.79555792164119790000e-001) (13, 9.27634150943300150000e-001) (14, 1.77461050389724320000e-001) (15, 1.69758005524697030000e-001) (16, -4.62351376562596890000e-001) (17, -1.10142247564441880000e-002) (18, -2.51011055733423970000e-001) (19, -1.90596927487895720000e-001) (20, -8.93307486502752710000e-001) (21, -6.48863865611119640000e-001) (22, 5.82831819221077300000e-001) (23, 7.13149431817308170000e-002) (24, 8.65351190593713070000e-002) (25, 3.13653184515674530000e-001) (26, 8.07837848502585890000e-001) (27, 9.46204596539271360000e-001) (28, -1.30259853720165380000e-001) (29, 1.03528240333630850000e-001) (30, 7.73490886126613210000e-001) (31, 2.59240206361625810000e-001) (32, 5.85140027873455650000e-001) (33, -6.97154885706468000000e-001) (34, 3.76446257001418320000e-001) (35, 2.12176093449015250000e-001) (36, -8.06774467389790080000e-001) (37, 1.10520428210450120000e+000) (38, 1.69697257845276060000e-001) (39, 1.05242953115374460000e-001) (40, -4.29524334988504400000e-001) (41, 8.15809958778051240000e-002) (42, 1.67065733257005440000e-001) (43, 1.37522380775320060000e-001) (44, 5.76368893482139270000e-002) (45, 2.61353181005967720000e-001) (46, 1.05129388296670200000e+000) (47, 2.03178449421540560000e-001) (48, 4.83471590086487300000e-003) (49, 3.96763596092696180000e-001) (50, -4.71539837646881010000e-001) (51, 3.39056996506236110000e-001) (52, 4.47115439203460140000e-001) (53, -1.41101730026571950000e-001) (54, 1.67074013238924010000e-001) (55, 1.29105718952088930000e+000) (0, 7.89225540758205830000e-001) (1, 6.47637373122383670000e-001) (2, 7.02810189671226880000e-001) (3, 1.89936034950860090000e-001) (4, 1.34687652600955700000e+000) (5, -5.99258613814996900000e-001) (6, 5.07361959304298170000e-001) (7, 8.76668998687871960000e-001) (8, 2.52850323289627420000e-001) (9, 2.98429720954189390000e-002) (10, 2.48316351809577480000e-001) (11, -2.09430772951804370000e-001) (12, 1.12612745995927830000e-001) (13, -2.12975830233153170000e-001) (14, -5.16097245495260940000e-002) (15, 7.31588432281622180000e-001) (16, 1.43664585846946210000e+000) (17, 4.33444433141235820000e-001) (18, 5.33185373028701170000e-001) (19, 1.42167621889023350000e-001) (20, -6.92622291812686890000e-002) (21, 1.56388979412222850000e-001) (22, 2.87994728728673040000e-001) (23, -3.67926340252829160000e-001) (24, 3.36708375864110400000e-001) (25, -2.85925509253301240000e-001) (26, 4.35279886120759520000e-001) (27, 1.35384463150120930000e-001) (28, -1.03373089355733010000e-001) (29, 1.79272978902004050000e-001) (30, 3.38874849373303920000e-001) (31, -2.88682937960973510000e-002) (32, 9.95156409409415080000e-001) (33, 1.71812875427151190000e-002) (34, -1.53133573176526430000e-001) (35, 6.81296718456556590000e-001) (36, 9.85886138668431480000e-003) (37, 4.78455699322476610000e-001) (38, 6.93658048574331000000e-001) (39, 2.07484494924994790000e-001) (40, -8.13936184855814230000e-002) (41, 6.21528624970733020000e-001) (42, -5.92148192552931010000e-002) (43, 2.24072124802551900000e-001) (44, 8.09881089361743770000e-002) (45, -2.80303740069729880000e-002) (46, -4.64769324199805210000e-002) (47, -9.48895966747387160000e-002) (48, -1.99624549082801610000e-001) (49, 6.21947946440104320000e-001) (50, 7.50351230234418520000e-001) (51, 1.47154298697317220000e-001) (52, 6.30087171835040590000e-001) (53, 2.76100997628631990000e-001) (54, 8.65864566040730200000e-002) (55, 2.32115798049851360000e-001) (0, 4.19608835634858070000e-001) (1, -2.45098580351271270000e-001) (2, -2.87315147971610840000e-001) (3, -1.60836543009670790000e-001) (4, -2.69687943610285640000e-001) (5, 2.13689321434209180000e-001) (6, 4.73563913759858070000e-001) (7, -4.61790365228849590000e-001) (8, 7.78477803300851370000e-001) (9, 3.36095387969260200000e-001) (10, 1.81994439385210340000e-001) (11, 5.90453277590171970000e-001) (12, -1.02804496528111340000e-001) (13, 5.66712661952683880000e-001) (14, 9.39737597973448880000e-002) (15, -1.93391767740875710000e-001) (16, -1.82845113719483860000e-001) (17, -9.31035266053448910000e-002) (18, -6.00105201755832610000e-002) (19, 2.57817902836433850000e-001) (20, -2.39285955831033540000e-001) (21, -3.08747006744136740000e-001) (22, 1.70808349957430630000e-001) (23, 6.86225825631533230000e-001) (24, 2.75624689581672580000e-001) (25, 5.56549176667220150000e-001) (26, 5.03398993083907510000e-002) (27, -5.27360135444610370000e-002) (28, -2.56206697643853340000e-001) (29, -2.49139891377088200000e-001) (30, 2.17934523610367030000e-001) (31, 3.35409045910700590000e-001) (32, 1.81558198424201820000e-002) (33, 7.38676631799202620000e-001) (34, 1.17742100673680060000e-001) (35, -2.02827181700553190000e-001) (36, 3.22380886647335390000e-001) (37, 1.72945867030912000000e-001) (38, -5.51993695984904570000e-002) (39, 4.74452080220438670000e-001) (40, 2.35417372976760300000e-001) (41, 2.47725990653000360000e-001) (42, 2.67317271657466550000e-001) (43, 6.92769426656997920000e-001) (44, 2.78263588305988570000e-001) (45, 1.30194327637929620000e-001) (46, 8.19807493953586320000e-001) (47, 2.18965386281084940000e-001) (48, 5.18382291178515090000e-001) (49, 7.60486804104337890000e-001) (50, -2.16860829230012930000e-001) (51, 3.72205940249286590000e-002) (52, -8.33609819899871760000e-002) (53, 4.38483029244037810000e-001) (54, 6.05838198997394110000e-001) (55, -6.60317023556386900000e-003) (0, 3.61360241449245280000e-001) (1, 4.04552945161919470000e-001) (2, 3.62686701882751040000e-001) (3, 1.15960735084917040000e-001) (4, 4.03707185251870990000e-001) (5, -1.40274173239367970000e-001) (6, 1.11246711354035850000e-001) (7, 5.62849219033753730000e-001) (8, 4.88764518456394290000e-001) (9, -4.79983114495865560000e-001) (10, 2.45567076789178440000e-001) (11, -2.65210880411222870000e-001) (12, -1.92997337063508050000e-001) (13, -3.25360326646950860000e-001) (14, -7.18589806314866570000e-002) (15, 4.50754330325992160000e-001) (16, -8.07200602992840830000e-003) (17, 8.65760250915762140000e-001) (18, -7.82434272940516210000e-002) (19, -5.70914962667686150000e-001) (20, -2.82861053217628890000e-001) (21, -5.17190988924320780000e-002) (22, -1.54603885185846110000e-001) (23, -9.40851440903819340000e-002) (24, 3.86336467883896470000e-001) (25, 2.62327200204142100000e-002) (26, -5.68438208143613390000e-002) (27, 2.63142461705086260000e-001) (28, 1.23661477121757150000e-001) (29, -1.02234452766546180000e-001) (30, -2.20194669135570370000e-001) (31, -3.01927923486847600000e-001) (32, 2.14122274033082650000e-001) (33, -1.36889395483485690000e-001) (34, -1.21400931854396960000e-001) (35, 3.74320205339029770000e-001) (36, 3.47976575551281360000e-001) (37, 4.50802646425800200000e-001) (38, 2.00070300284337390000e-001) (39, 5.53777907374912730000e-001) (40, -1.08670593411264440000e-001) (41, 4.20053646732242160000e-001) (42, 4.83956219036465520000e-001) (43, -3.87169440368938870000e-002) (44, 5.61629454812415220000e-001) (45, 2.34674275158137240000e-002) (46, -6.30736424204869640000e-001) (47, 3.37139705200689530000e-001) (48, 5.96685526559533540000e-002) (49, 2.26424048400298120000e-001) (50, -1.69919215968714790000e-001) (51, -1.23815283383381660000e-001) (52, 2.44620890818146610000e-001) (53, 5.07610627273143290000e-002) (54, -3.82429826722422590000e-001) (55, 5.89272437980087990000e-001) (0, -3.57828880633638440000e-001) (1, -6.11075075135830100000e-003) (2, 1.17476633923318420000e-001) (3, -6.19063074816836870000e-001) (4, 8.04550886176071290000e-001) (5, -4.82382184346528340000e-002) (6, -3.63547879244611790000e-001) (7, 1.86360902326371700000e-001) (8, 2.29264428152538840000e-001) (9, -6.68183085699245230000e-001) (10, -3.48010707017499590000e-001) (11, -4.15199272411289230000e-001) (12, -1.21231026065325920000e-001) (13, 3.66880140923113440000e-002) (14, -5.00688779154153000000e-001) (15, 4.41304510572237340000e-002) (16, 5.90864837382266250000e-001) (17, 1.39937905122683840000e-001) (18, -4.81808877136038090000e-001) (19, -7.29365146914799700000e-001) (20, -2.39420831260785430000e-002) (21, -2.67859260722076890000e-001) (22, 5.58067432428165480000e-001) (23, -3.12544020581308760000e-001) (24, 4.95137011473986530000e-001) (25, 5.66788041150827200000e-003) (26, 1.58269320192823300000e-001) (27, 4.51176287104897600000e-001) (28, -5.40721803640716980000e-001) (29, -3.73436074117192320000e-001) (30, 8.71371629257778670000e-001) (31, -7.03067437382136340000e-002) (32, 6.71264901185290920000e-001) (33, -6.77722643694748800000e-002) (34, 7.82281400795560160000e-002) (35, 7.15227137289468350000e-002) (36, -4.40299305002421590000e-001) (37, 4.57633395801264330000e-001) (38, 1.39516977016911240000e-001) (39, 2.20634917840523190000e-001) (40, 1.84371048073820020000e-001) (41, -2.03690269181443190000e-002) (42, -2.65204114866748330000e-001) (43, -1.16931006992240250000e-001) (44, -2.83683066938235570000e-002) (45, -8.96326089081847300000e-001) (46, -8.23068266599237120000e-002) (47, 3.73006081321520170000e-002) (48, -4.64843140056999670000e-002) (49, 9.43605221691053990000e-002) (50, 2.86837769267811180000e-001) (51, 2.65431495547816860000e-001) (52, 2.19328610475328980000e-001) (53, -3.17833720661772460000e-001) (54, 1.69139123158989770000e-001) (55, 8.56630373198390860000e-001) (0, 8.92626276009397260000e-002) (1, 4.91408690125383850000e-001) (2, 5.61159662217535550000e-001) (3, -6.33064900445967190000e-001) (4, -4.36253620285716740000e-001) (5, 3.99545573152532640000e-001) (6, 2.64893095845626480000e-001) (7, 3.66364820960970560000e-001) (8, 3.84127847704498870000e-001) (9, -4.25913959634086140000e-002) (10, 9.07450203304316690000e-001) (11, 1.66805193464503560000e-002) (12, -5.49348355636112840000e-001) (13, -1.48355697063151960000e-001) (14, 6.89326907694874040000e-001) (15, 5.20791015834250030000e-001) (16, 4.74571853642643930000e-001) (17, 5.08662777774514410000e-001) (18, 3.30200574782163190000e-001) (19, -7.57355641482077290000e-002) (20, -1.37137262359424440000e-001) (21, -1.52138667902586790000e-001) (22, 7.48081769494176260000e-001) (23, 4.92963887662556670000e-001) (24, 1.94327019516523010000e-001) (25, -1.40710924682134530000e-001) (26, 4.15699587974357960000e-001) (27, 7.51243113121091600000e-001) (28, -9.52579851439527970000e-002) (29, 4.33540209891758570000e-001) (30, -1.32474200806360270000e-002) (31, -1.69561359774763830000e-001) (32, 3.14146339989723810000e-002) (33, -3.66731386231386680000e-001) (34, -3.54221070910179180000e-001) (35, 5.10674778900772730000e-001) (36, -3.56217953226778540000e-002) (37, 2.79662071946849670000e-001) (38, 2.71040094160191200000e-001) (39, 1.53167775574364510000e-001) (40, -3.85608555101409730000e-001) (41, 3.23499835196943920000e-001) (42, -2.81164472874110620000e-001) (43, -1.95578023662958260000e-001) (44, -2.17509766122061490000e-001) (45, -2.32192377349970700000e-001) (46, -9.71314491026959990000e-002) (47, -3.77599095278612980000e-002) (48, -4.43986802813654440000e-001) (49, 2.95039399164096330000e-001) (50, -4.47504310119015650000e-001) (51, -1.35201400772992310000e-001) (52, 3.52534309333424170000e-001) (53, -1.03533946533936690000e-001) (54, -2.45406106890148500000e-001) (55, 1.44562096561871470000e+000) (0, 5.82414133607877420000e-001) (1, -1.20251717996343950000e-001) (2, -2.15388880253157920000e-001) (3, 2.70127407024531970000e-001) (4, 1.76080561574846560000e-001) (5, 6.19947979254010570000e-001) (6, 3.30551837522587650000e-001) (7, 9.66161953236169100000e-003) (8, 1.06816298595813850000e-001) (9, 1.98629970276935650000e+000) (10, -6.37453528397434080000e-001) (11, 1.45884316779808090000e-001) (12, -3.79053061247168810000e-001) (13, -1.77061467749353550000e-001) (14, 1.17775486828430100000e-001) (15, 2.34372513177544400000e-002) (16, 5.45551301032347390000e-001) (17, -4.01215540531067520000e-002) (18, 4.87566789961115740000e-001) (19, 4.12217971059130660000e-001) (20, 2.98085218661007840000e-001) (21, -6.34080376533173170000e-002) (22, -4.78037618484697170000e-001) (23, 4.52107998129906430000e-001) (24, -1.18071548393734430000e-001) (25, 4.18356913295234720000e-001) (26, -1.15681765885671930000e-001) (27, -1.20127938553592770000e-001) (28, 6.41361795655709500000e-001) (29, 8.74422519080434170000e-002) (30, -9.07122849539130080000e-002) (31, 5.75604539806678580000e-001) (32, 2.12348964850983980000e-001) (33, 9.39407723446266000000e-001) (34, -7.68845975348550620000e-002) (35, -3.45717598169246960000e-001) (36, 4.82493625734640720000e-001) (37, -2.14016097371976800000e-001) (38, -1.25843728603600240000e-001) (39, 1.76007937200266330000e-001) (40, 4.02193604174603310000e-001) (41, 3.45029281261116860000e-002) (42, 3.16112332671130150000e-001) (43, 6.24684816095227520000e-001) (44, 5.54591196826836440000e-001) (45, -9.22362095053612110000e-002) (46, -8.71326645812314090000e-002) (47, -9.85231986460536470000e-002) (48, 5.86012548537008130000e-001) (49, 3.14310787801816150000e-002) (50, 5.45261507285657590000e-001) (51, 4.83789329846440020000e-001) (52, 1.09266921501240700000e-001) (53, 5.82628294309493140000e-001) (54, 7.17293342307497080000e-001) (55, -3.17031713146701750000e-001) (0, -3.06290316152969090000e-001) (1, -4.85058870159382820000e-001) (2, -4.41300965005300310000e-001) (3, -8.45159293475565620000e-001) (4, -8.46923247184676380000e-001) (5, -3.28758037591512400000e-001) (6, 2.06968501328841870000e-001) (7, -5.30470959653382700000e-002) (8, 4.87680480365182800000e-001) (9, -3.27275525108282840000e-001) (10, 4.51955897756189720000e-001) (11, 3.18069562359140520000e-001) (12, -4.95949539486293390000e-001) (13, 9.94050358298455010000e-002) (14, 3.40611723873452730000e-001) (15, 8.27012010107512070000e-002) (16, -5.24063835978871180000e-001) (17, 3.42895561316192870000e-001) (18, 3.53827508078254140000e-001) (19, -1.67531052382901830000e-001) (20, -2.12272976074977110000e-001) (21, 4.06955943316719360000e-001) (22, -1.09612720233010390000e-002) (23, 8.67704367336605610000e-001) (24, -6.73342104342338650000e-001) (25, 9.32449829431989170000e-001) (26, -1.88275936613630510000e-002) (27, -7.81605333382506680000e-002) (28, 1.00052156093558300000e-001) (29, -1.99910325873979890000e-001) (30, 6.07323090134429750000e-001) (31, 3.81464984073473070000e-001) (32, -2.63457495036045930000e-001) (33, 4.16032026849231130000e-001) (34, -1.18774688041338570000e+000) (35, -8.99537996556681870000e-001) (36, 3.40377928841255120000e-001) (37, -8.30852746122324460000e-002) (38, -2.66279233348972910000e-001) (39, 2.36065523858540320000e-001) (40, 3.68605316691577640000e-001) (41, 1.96327022893932580000e-001) (42, 2.99969728248640600000e-001) (43, 1.42651459386694600000e-001) (44, 2.96616015838325360000e-001) (45, 4.09379258152025360000e-001) (46, 1.57689673624577250000e-002) (47, -1.13661108147097190000e-001) (48, 6.48577272259809770000e-001) (49, -2.56084961917102170000e-001) (50, -5.50451938055748990000e-001) (51, 3.64991162420525040000e-001) (52, -1.03074983054194520000e-001) (53, 3.09708813274257370000e-001) (54, 6.67702277854372080000e-001) (55, -9.31113770606367410000e-002) (0, 1.15477206018297180000e-001) (1, 2.81378259846065290000e-001) (2, 2.68338439585720730000e-001) (3, 3.02474723955900640000e-001) (4, -3.20799232231188500000e-001) (5, 8.86792438239292490000e-002) (6, 4.56912878655468040000e-001) (7, 2.05503105048891240000e-001) (8, -9.22933982240013020000e-002) (9, 7.61591747506151110000e-001) (10, 2.88967074090481110000e-001) (11, 1.88457000396016480000e-001) (12, 6.72578074141035100000e-001) (13, 4.01593813534268210000e-001) (14, 4.62551533830764920000e-001) (15, 3.11627281793449280000e-001) (16, -1.81516778507653550000e-001) (17, 2.73881931644351820000e-001) (18, 7.66849289935267580000e-001) (19, 5.50062445546934730000e-001) (20, 3.30926340695022190000e-001) (21, 2.18250458022639900000e-001) (22, 1.36727542807783350000e-001) (23, -8.20662686425800980000e-002) (24, -1.16964297206069100000e-001) (25, 9.32565875135862730000e-002) (26, -8.52990429547313270000e-002) (27, -3.06476225667286550000e-001) (28, 2.02831326230719670000e-001) (29, 3.64983299563722000000e-001) (30, -1.65710486816058250000e-002) (31, 2.88198480086054250000e-001) (32, -2.74517011530457040000e-001) (33, 4.78734297940143110000e-001) (34, 3.62689601743705850000e-001) (35, -1.70933431264796290000e-001) (36, 1.06615717112142840000e+000) (37, -3.05224432534804020000e-001) (38, 5.12843936652243480000e-001) (39, -3.01098243173995530000e-001) (40, 6.19285975736336260000e-001) (41, 1.13687357261083500000e+000) (42, -3.85297490091263610000e-002) (43, 4.73618616852676640000e-001) (44, -4.00815401192787800000e-002) (45, -6.34311093574699420000e-002) (46, 1.93413958085867780000e-001) (47, 3.11804292687271000000e-001) (48, 2.33705575793983380000e-001) (49, 3.58207784341790240000e-001) (50, 1.21127939377295850000e+000) (51, 2.35075361211651820000e-001) (52, 2.01488461349073920000e-002) (53, 1.13157265347517360000e-001) (54, 2.34170916794056910000e-001) (55, 2.06159987943289960000e-001) (0, -5.61070558939264010000e-002) (1, 4.64758849059963510000e-001) (2, 4.07828006706660310000e-001) (3, -1.22467086548845140000e-001) (4, 6.37875804006735940000e-001) (5, 2.78984038350000300000e-002) (6, 1.04636564465593910000e-001) (7, 4.15894100731039330000e-001) (8, 7.68385862563125350000e-001) (9, -2.61995829631981090000e-001) (10, -4.71714986332912870000e-002) (11, -6.33348067406738210000e-001) (12, 3.11055394648264700000e-001) (13, -1.08746406996370200000e-001) (14, -2.20975683603169800000e-001) (15, 4.71533751403713510000e-001) (16, 3.02850145841313260000e-001) (17, 5.65587360293827720000e-001) (18, 7.50126207433483900000e-001) (19, -1.23693200839138890000e-001) (20, -1.15014019235051460000e-001) (21, -1.41135298568455770000e-001) (22, 9.36631229401952840000e-002) (23, 7.70850097054011530000e-001) (24, -5.94427157477249790000e-002) (25, -2.75765396782489470000e-002) (26, 8.21704586261279290000e-001) (27, 4.10555552342377060000e-001) (28, 5.82961931000551480000e-002) (29, 2.13395235338057150000e-001) (30, -9.28844736339403950000e-002) (31, -5.45625425436023080000e-002) (32, 1.09340014210039320000e+000) (33, -1.97871653054944750000e-001) (34, 5.90358160694229640000e-001) (35, 4.12388284802787160000e-001) (36, -5.90522546494005530000e-002) (37, 9.06248512005963790000e-001) (38, 5.13776559844602580000e-001) (39, -4.79339835044985340000e-001) (40, -2.15981271502506930000e-001) (41, -4.57520956768112110000e-001) (42, -2.64084272055481410000e-001) (43, -1.72956338525709660000e-001) (44, 2.99264939384401240000e-001) (45, -5.09522383468939830000e-002) (46, -7.59918935439998360000e-002) (47, 4.70337463831329630000e-001) (48, -1.47566031252698410000e-002) (49, 6.05501107399432640000e-001) (50, 4.34956617592784140000e-001) (51, -4.41827532054883400000e-001) (52, 6.01938721547549790000e-001) (53, -9.99529378289618350000e-002) (54, -6.03317583829149070000e-002) (55, 4.66816837846899200000e-001) (0, -9.89300593131735570000e-001) (1, 6.11360380622661200000e-002) (2, -2.87852271117172600000e-002) (3, -2.56313318690857610000e-001) (4, 1.97755765936729280000e-001) (5, -7.06913568444229090000e-003) (6, -1.34656022688653620000e+000) (7, 2.02852050039088840000e-002) (8, 1.35227096035300480000e-001) (9, 1.13432667115978060000e+000) (10, -9.10794469352424470000e-001) (11, -1.55322864531450990000e-002) (12, 2.47618659335856250000e-001) (13, 3.03499642101792140000e-001) (14, -3.07918964184967670000e-001) (15, -5.58927757468902910000e-002) (16, 6.13406729755114480000e-002) (17, -1.66468543031495530000e-001) (18, -1.01129400562986710000e-001) (19, 1.57860636859387140000e-001) (20, 1.65254098907446580000e-001) (21, -9.58190312307695690000e-002) (22, 1.05212520386751620000e-002) (23, 2.77460770611348330000e-001) (24, -3.69669503800012400000e-001) (25, 4.00421254620051540000e-002) (26, -3.13225503081284370000e-002) (27, 3.54146030421549240000e-001) (28, 8.70808750219407290000e-001) (29, -9.37335908603736810000e-002) (30, -3.93096581873414450000e-002) (31, 9.41613336053663490000e-001) (32, -5.18903862516575830000e-001) (33, 3.37781991323593320000e-001) (34, 3.95027518340822730000e-001) (35, -9.78359497010614230000e-002) (36, 2.79129744131461850000e-001) (37, -5.71192181832114290000e-001) (38, -3.28538761734550880000e-001) (39, -1.76445946564872030000e-001) (40, 2.65560644951066350000e-001) (41, -4.61133017346058330000e-001) (42, 2.28600607481430320000e-001) (43, 3.75017257483887150000e-001) (44, 4.72684533208746540000e-001) (45, 5.94219266993393000000e-001) (46, -4.35980781887671250000e-001) (47, 4.86682877597420180000e-001) (48, 2.52069262283561140000e-001) (49, -5.54442573411497160000e-001) (50, -5.62965865037089450000e-001) (51, -1.81002183513108430000e-001) (52, 3.01807280106249960000e-001) (53, 1.94068187481496400000e-001) (54, 7.32433456812536020000e-001) (55, -5.33268717782488740000e-001) (0, -4.97263290394288790000e-001) (1, 3.49177563469111720000e-001) (2, -1.20947181773254750000e-001) (3, 3.66200385846334130000e-001) (4, -1.03628456487868050000e-001) (5, 4.48084255190300430000e-001) (6, 2.86740465067983670000e-001) (7, 3.14021313469111720000e-001) (8, 1.23894699389352380000e-001) (9, 6.21728994579413220000e-001) (10, 2.82257743064306400000e-001) (11, 5.59382155588676320000e-001) (12, 5.36948529123124700000e-002) (13, 3.63764845823992990000e-001) (14, 3.54170091957076220000e-001) (15, -2.03695762315606850000e-001) (16, 3.00898104375971420000e-001) (17, -3.56832960569180790000e-001) (18, -5.39893808220710050000e-002) (19, 3.98534312374552450000e-001) (20, 5.21614162371964120000e-001) (21, 5.13834104413418920000e-001) (22, 7.73351249232690160000e-001) (23, 4.12605850048949120000e-001) (24, -2.34973082681217830000e-001) (25, 7.25766576585536010000e-001) (26, 6.27848199494834500000e-001) (27, 4.10238719161339690000e-001) (28, 1.81936919486661690000e-001) (29, 5.35116260117103890000e-001) (30, 1.77504782430312730000e-001) (31, 4.71207930165125520000e-001) (32, 2.16171356473574520000e-001) (33, 4.10782032326230840000e-001) (34, 1.11848337304302010000e+000) (35, -5.33003798907878410000e-001) (36, 1.84486671208502710000e-001) (37, -2.05069788322696070000e-001) (38, 2.36865097340594330000e-001) (39, -4.34126750641782630000e-001) (40, 3.15338430876671240000e-001) (41, 3.67907144028922110000e-001) (42, 1.55198332814209030000e-001) (43, 7.52636754210920580000e-001) (44, -2.96536492352298560000e-001) (45, 3.07368694044009850000e-001) (46, 5.71696075332491890000e-001) (47, -3.27350593996545090000e-001) (48, 4.29862113370855450000e-001) (49, 1.62051315987754190000e-001) (50, 4.02531599963392490000e-001) (51, 1.13399131013879080000e-001) (52, -1.78468444166627410000e-001) (53, -2.35121888348058720000e-001) (54, -1.50794071877388360000e-001) (55, 8.39448825258733160000e-002) (0, -5.66815312643116460000e-001) (1, -4.40381741276178520000e-001) (2, 5.27233095724013450000e-001) (3, -3.20458986778183300000e-001) (4, -4.03171687572999260000e-001) (5, -2.80666746812616890000e-001) (6, -4.56493627248278970000e-001) (7, 4.00073231847790530000e-001) (8, -2.73440410896929330000e-001) (9, -1.14663939939608420000e+000) (10, -5.88714008647557630000e-001) (11, -4.82532396792345750000e-002) (12, -2.98440119103378230000e-002) (13, 4.72874172860397230000e-001) (14, -2.61977577917050120000e-001) (15, 4.06796079416768370000e-001) (16, -6.45819447328079390000e-001) (17, 3.92276555342097380000e-001) (18, 