FANN_FLO_2.1
num_layers=3
learning_rate=0.700000
connection_rate=1.000000
network_type=0
learning_momentum=0.000000
training_algorithm=2
train_error_function=1
train_stop_function=1
cascade_output_change_fraction=0.010000
quickprop_decay=-0.000100
quickprop_mu=1.750000
rprop_increase_factor=1.200000
rprop_decrease_factor=0.500000
rprop_delta_min=0.000000
rprop_delta_max=50.000000
rprop_delta_zero=0.100000
cascade_output_stagnation_epochs=12
cascade_candidate_change_fraction=0.010000
cascade_candidate_stagnation_epochs=12
cascade_max_out_epochs=150
cascade_min_out_epochs=50
cascade_max_cand_epochs=150
cascade_min_cand_epochs=50
cascade_num_candidate_groups=2
bit_fail_limit=1.00000001490116120000e-001
cascade_candidate_limit=1.00000000000000000000e+003
cascade_weight_multiplier=4.00000000000000020000e-001
cascade_activation_functions_count=10
cascade_activation_functions=3 5 7 8 10 11 14 15 16 17 
cascade_activation_steepnesses_count=4
cascade_activation_steepnesses=2.50000000000000000000e-001 5.00000000000000000000e-001 7.50000000000000000000e-001 1.00000000000000000000e+000 
layer_sizes=4 31 4 
scale_included=0
neurons (num_inputs, activation_function, activation_steepness)=(0, 0, 0.00000000000000000000e+000) (0, 0, 0.00000000000000000000e+000) (0, 0, 0.00000000000000000000e+000) (0, 0, 0.00000000000000000000e+000) (4, 5, 1.00000000000000000000e+000) (4, 5, 1.00000000000000000000e+000) (4, 5, 1.00000000000000000000e+000) (4, 5, 1.00000000000000000000e+000) (4, 5, 1.00000000000000000000e+000) (4, 5, 1.00000000000000000000e+000) (4, 5, 1.00000000000000000000e+000) (4, 5, 1.00000000000000000000e+000) (4, 5, 1.00000000000000000000e+000) (4, 5, 1.00000000000000000000e+000) (4, 5, 1.00000000000000000000e+000) (4, 5, 1.00000000000000000000e+000) (4, 5, 1.00000000000000000000e+000) (4, 5, 1.00000000000000000000e+000) (4, 5, 1.00000000000000000000e+000) (4, 5, 1.00000000000000000000e+000) (4, 5, 1.00000000000000000000e+000) (4, 5, 1.00000000000000000000e+000) (4, 5, 1.00000000000000000000e+000) (4, 5, 1.00000000000000000000e+000) (4, 5, 1.00000000000000000000e+000) (4, 5, 1.00000000000000000000e+000) (4, 5, 1.00000000000000000000e+000) (4, 5, 1.00000000000000000000e+000) (4, 5, 1.00000000000000000000e+000) (4, 5, 1.00000000000000000000e+000) (4, 5, 1.00000000000000000000e+000) (4, 5, 1.00000000000000000000e+000) (4, 5, 1.00000000000000000000e+000) (4, 5, 1.00000000000000000000e+000) (0, 5, 1.00000000000000000000e+000) (31, 0, 1.00000000000000000000e+000) (31, 0, 1.00000000000000000000e+000) (31, 0, 1.00000000000000000000e+000) (0, 0, 1.00000000000000000000e+000) 
connections (connected_to_neuron, weight)=(0, -2.17256911693346130000e+000) (1, 5.60227537036201540000e+000) (2, 3.40434650930997520000e-003) (3, 2.65635472218027410000e-001) (0, -1.82110911895024790000e-001) (1, -4.93858112074834710000e-001) (2, 1.14667632212718600000e-001) (3, -8.84377260631983960000e-001) (0, -9.65522346755802950000e-001) (1, -7.83423830428354280000e-001) (2, 3.35934596104817410000e-001) (3, 1.40510332730337510000e+000) (0, -1.52147910826667230000e+000) (1, -1.55105788664538680000e+000) (2, 6.14916870000321470000e-001) (3, 1.34052381889795620000e-001) (0, -4.83400434348160780000e+000) (1, -1.54375316520896070000e+001) (2, 3.12046394324468230000e-001) (3, -4.10844278514322720000e-002) (0, 8.79332779450206200000e+000) (1, -1.89354666364961840000e+002) (2, 2.24210452791949020000e+000) (3, -7.86162813401373030000e-002) (0, -4.77738925438919220000e-001) (1, -1.33201825448392050000e+000) (2, 7.22132880270482060000e+000) (3, -7.19859240271680250000e-001) (0, -4.07009569518809590000e-002) (1, -1.67357436233196490000e-001) (2, -6.78634269263482250000e-002) (3, -4.82167753252796040000e-001) (0, 2.20987912251412370000e+000) (1, -1.18115570570540980000e+000) (2, 1.40296484610773240000e+000) (3, -5.43728284080399890000e-002) (0, 4.21647471169543040000e+000) (1, 6.14944024001265250000e+001) (2, -5.22197011767214560000e-001) (3, 1.30274882793498640000e+000) (0, 1.06908131736351640000e-001) (1, -3.26208817630099790000e-001) (2, -2.39670610091195530000e-001) (3, -1.77801153344301740000e-001) (0, 5.02325260726761250000e+000) (1, 1.51860247776815880000e+001) (2, -2.18798499281298160000e-001) (3, 2.43197283793815640000e-001) (0, 2.94680552351108630000e-001) (1, -7.48781106881329040000e-001) (2, -7.59706508557701430000e-003) (3, -5.78944663669913480000e-001) (0, 1.40669770583134660000e+000) (1, 6.57506386091954000000e-001) (2, -3.23040682287980110000e-001) (3, -9.44582146554679650000e-001) (0, -3.88271513092128240000e+000) (1, 5.28886598936311070000e+001) (2, -7.84381450762659420000e-001) (3, 1.41518606810509120000e+000) (0, 2.40994802208725820000e+000) (1, -6.37910815925713500000e+000) (2, 3.20017827621315800000e-002) (3, -4.13594336840282570000e-001) (0, -1.58427938634397320000e+002) (1, -1.23386277035219630000e+003) (2, -8.27400801832415840000e+000) (3, 1.02834112417503900000e+001) (0, -1.23260156120611270000e+001) (1, 5.03707139078223490000e+001) (2, -7.23924887629505130000e-001) (3, -8.23931843822761190000e-001) (0, 2.06012116788754310000e+000) (1, -1.26418971471200940000e+000) (2, 1.06218164800067720000e+000) (3, 1.95768927189922980000e-001) (0, -1.93716572168881920000e+000) (1, 1.26612408804518690000e+000) (2, -6.87006945086634290000e-001) (3, -2.89534243068341470000e-001) (0, 1.30603995085970490000e+000) (1, 8.49864675101712150000e-001) (2, -2.37429382073121610000e-001) (3, 1.03092195377087620000e-001) (0, -4.21507488538441890000e-001) (1, 2.71144043670030090000e-001) (2, -3.61953739975380000000e-001) (3, -8.24938984231029960000e-001) (0, 3.32206378782951280000e-002) (1, 3.24946093880078780000e-001) (2, 3.64287298309750930000e+000) (3, -5.33658463741079280000e-001) (0, -1.55436009304286230000e+000) (1, 5.17994497398936280000e+000) (2, -5.75508539994656000000e-002) (3, 2.01158302623363040000e-001) (0, 2.38727441792951780000e+000) (1, 8.11710563387580740000e-001) (2, 1.79454355419481510000e+000) (3, 1.64865420286672350000e+000) (0, -2.53537988336999120000e+000) (1, 1.57079516815669200000e-001) (2, 8.76136233773692760000e-001) (3, -7.33170736149812290000e-002) (0, -1.83414754325264200000e+000) (1, 1.99957553656326240000e+000) (2, -2.86523306540373390000e-001) (3, 1.77272926410931000000e+000) (0, 1.22381786850428350000e+000) (1, 1.59596789402564030000e+000) (2, -3.43676903268697320000e-002) (3, 1.69713484393558050000e+000) (0, -5.11170949896272480000e+000) (1, -1.40917235958243280000e+002) (2, 2.42033559648781220000e+000) (3, -3.76606187894221120000e-001) (0, -3.42313347288566570000e+000) (1, -1.11961691763456850000e+000) (2, 1.08041722926613490000e+000) (3, 2.64414209108443200000e+000) (4, 3.88340470881136520000e+000) (5, 5.35212953056145490000e+000) (6, 3.62283104382543410000e+000) (7, 3.03627783344191030000e+000) (8, 3.25582662866471570000e+000) (9, -7.38466728919620950000e-001) (10, 1.99279297746278140000e-001) (11, 3.54988980403772290000e+000) (12, 2.69514670253473860000e-001) (13, 1.01374285535789820000e+000) (14, 1.83066186047370170000e+000) (15, 3.14107855366614870000e+000) (16, 3.78779152981263720000e+000) (17, 6.24085030300029950000e+000) (18, -1.14582579583606470000e+000) (19, 5.24133625160851490000e+000) (20, 2.25637906295693140000e-001) (21, 4.32455308747896950000e-001) (22, 1.57232956659544510000e+000) (23, 3.17268268249631280000e+000) (24, 3.67719165978576920000e+000) (25, 3.32931611878976420000e+000) (26, -2.58704976984116540000e-001) (27, 1.76075726915272820000e+000) (28, 1.49443635588983730000e+000) (29, 1.06716645813743630000e+000) (30, 1.11032026379119640000e+000) (31, 2.61798133760833140000e+000) (32, 6.24296278726770960000e-001) (33, 3.09002081999275410000e+000) (34, 3.41845407580706690000e+000) (4, 5.41777113053193120000e+000) (5, 3.76380752343759410000e+000) (6, 8.06841250580591660000e+000) (7, 1.16734409488330940000e+000) (8, 2.71734512286988140000e-001) (9, 2.88345140188663310000e-002) (10, -1.38628255259524910000e+000) (11, 3.72336881046668950000e+000) (12, 2.09167991060180420000e+000) (13, -9.36013574701572840000e-002) (14, 9.85170759245161240000e+000) (15, 4.43454895774190280000e-001) (16, 4.42192373040402580000e+000) (17, 4.12923265087389970000e+000) (18, 2.67943041672073740000e-002) (19, 2.30231766355570810000e+000) (20, -6.10721217971028630000e-002) (21, 3.31436341771663490000e-002) (22, 1.00698528838379440000e+000) (23, 4.14567946307844610000e+000) (24, 3.50177089177176400000e+000) (25, 3.64910442190361770000e+000) (26, 3.34730619937168950000e+000) (27, -2.98010622877791010000e+000) (28, -1.54085457424071270000e+000) (29, 9.33498451832885380000e-001) (30, 2.79338720608520410000e+000) (31, 2.12215229402091810000e+000) (32, 1.69100075205535660000e-001) (33, 1.14863078551547520000e+000) (34, 2.85601782427756980000e+000) (4, 3.12339818979784760000e+000) (5, 6.23423780305039440000e+000) (6, 5.88750344232919700000e+000) (7, 1.20786805684555380000e+000) (8, 4.00279765055291180000e-002) (9, -6.88304219863705190000e-003) (10, -1.58165060624755690000e-001) (11, 6.75097182468998640000e+000) (12, -8.33781422104748040000e-001) (13, 1.90703957458421320000e-002) (14, 1.02810182577325530000e+001) (15, 1.89111836210540120000e-002) (16, 5.36679000831362800000e+000) (17, 3.04279787271379080000e+000) (18, 3.76226814259704860000e-002) (19, 2.12407120358590570000e+000) (20, -8.28803681825460160000e-003) (21, -3.45357469147972370000e-002) (22, 4.02375367023786890000e+000) (23, 4.10382447143029780000e+000) (24, 3.84778141038814470000e+000) (25, 6.08625079581265100000e+000) (26, 1.49339912458890290000e+000) (27, -5.30188992915878400000e-001) (28, 1.27558950324344030000e+000) (29, 6.66149065601256640000e-001) (30, 4.94945623931026100000e+000) (31, 5.59982337968773440000e+000) (32, 2.69289091564047270000e-002) (33, 1.68496146365691590000e+000) (34, 1.41021990885058600000e+000) 
