FANN_FLO_2.1
num_layers=4
learning_rate=0.700000
connection_rate=1.000000
network_type=1
learning_momentum=0.000000
training_algorithm=2
train_error_function=1
train_stop_function=1
cascade_output_change_fraction=0.010000
quickprop_decay=-0.000100
quickprop_mu=1.750000
rprop_increase_factor=1.200000
rprop_decrease_factor=0.500000
rprop_delta_min=0.000000
rprop_delta_max=50.000000
rprop_delta_zero=0.100000
cascade_output_stagnation_epochs=12
cascade_candidate_change_fraction=0.010000
cascade_candidate_stagnation_epochs=12
cascade_max_out_epochs=150
cascade_min_out_epochs=50
cascade_max_cand_epochs=150
cascade_min_cand_epochs=50
cascade_num_candidate_groups=2
bit_fail_limit=1.00000001490116120000e-001
cascade_candidate_limit=1.00000000000000000000e+003
cascade_weight_multiplier=4.00000000000000020000e-001
cascade_activation_functions_count=10
cascade_activation_functions=3 5 7 8 10 11 14 15 16 17 
cascade_activation_steepnesses_count=4
cascade_activation_steepnesses=2.50000000000000000000e-001 5.00000000000000000000e-001 7.50000000000000000000e-001 1.00000000000000000000e+000 
layer_sizes=10 20 20 6 
scale_included=0
neurons (num_inputs, activation_function, activation_steepness)=(0, 0, 0.00000000000000000000e+000) (0, 0, 0.00000000000000000000e+000) (0, 0, 0.00000000000000000000e+000) (0, 0, 0.00000000000000000000e+000) (0, 0, 0.00000000000000000000e+000) (0, 0, 0.00000000000000000000e+000) (0, 0, 0.00000000000000000000e+000) (0, 0, 0.00000000000000000000e+000) (0, 0, 0.00000000000000000000e+000) (0, 0, 0.00000000000000000000e+000) (10, 5, 1.00000000000000000000e+000) (10, 5, 1.00000000000000000000e+000) (10, 5, 1.00000000000000000000e+000) (10, 5, 1.00000000000000000000e+000) (10, 5, 1.00000000000000000000e+000) (10, 5, 1.00000000000000000000e+000) (10, 5, 1.00000000000000000000e+000) (10, 5, 1.00000000000000000000e+000) (10, 5, 1.00000000000000000000e+000) (10, 5, 1.00000000000000000000e+000) (10, 5, 1.00000000000000000000e+000) (10, 5, 1.00000000000000000000e+000) (10, 5, 1.00000000000000000000e+000) (10, 5, 1.00000000000000000000e+000) (10, 5, 1.00000000000000000000e+000) (10, 5, 1.00000000000000000000e+000) (10, 5, 1.00000000000000000000e+000) (10, 5, 1.00000000000000000000e+000) (10, 5, 1.00000000000000000000e+000) (10, 5, 1.00000000000000000000e+000) (30, 5, 1.00000000000000000000e+000) (30, 5, 1.00000000000000000000e+000) (30, 5, 1.00000000000000000000e+000) (30, 5, 1.00000000000000000000e+000) (30, 5, 1.00000000000000000000e+000) (30, 5, 1.00000000000000000000e+000) (30, 5, 1.00000000000000000000e+000) (30, 5, 1.00000000000000000000e+000) (30, 5, 1.00000000000000000000e+000) (30, 5, 1.00000000000000000000e+000) (30, 5, 1.00000000000000000000e+000) (30, 5, 1.00000000000000000000e+000) (30, 5, 1.00000000000000000000e+000) (30, 5, 1.00000000000000000000e+000) (30, 5, 1.00000000000000000000e+000) (30, 5, 1.00000000000000000000e+000) (30, 5, 1.00000000000000000000e+000) (30, 5, 1.00000000000000000000e+000) (30, 5, 1.00000000000000000000e+000) (30, 5, 1.00000000000000000000e+000) (50, 0, 1.00000000000000000000e+000) (50, 0, 1.00000000000000000000e+000) (50, 0, 1.00000000000000000000e+000) (50, 0, 1.00000000000000000000e+000) (50, 0, 1.00000000000000000000e+000) (50, 0, 1.00000000000000000000e+000) 
connections (connected_to_neuron, weight)=(0, 2.56871138307502080000e-001) (1, -1.75495164277935600000e-001) (2, -3.03185785306456460000e-001) (3, 5.84503270446386990000e-002) (4, -4.07467469196884790000e-002) (5, -1.54893138909628860000e-001) (6, -1.24862279567323090000e-002) (7, 5.21065898209952320000e-002) (8, 2.75121174551078540000e-001) (9, -7.05134701011466470000e-001) (0, 2.05873467150859830000e+000) (1, 7.81308570775981700000e-001) (2, 2.53887996992465890000e-001) (3, 5.94196957296788120000e-002) (4, 1.32116347681993650000e-002) (5, -6.36715538303100470000e-003) (6, -3.67049474237000970000e-002) (7, -3.40738856269765520000e-002) (8, 5.46737348376013510000e-002) (9, 6.39530843798268520000e-001) (0, 4.31178053232689260000e-001) (1, -5.46712809982905630000e+001) (2, 2.73205825851250690000e-001) (3, 2.23694100147171640000e-002) (4, 5.96301263440390200000e-003) (5, -1.37102262129014040000e-002) (6, -8.06351950308221990000e-002) (7, 1.12038532847604590000e+001) (8, -5.54780674342363400000e-002) (9, -2.64289196556481530000e-001) (0, 2.72582575029622130000e-001) (1, -3.63273298989972850000e-002) (2, 1.88253405499194250000e-001) (3, 4.31260840100534530000e-002) (4, -5.31133921549465090000e-002) (5, 4.69464688472557710000e-002) (6, 1.68380116257612790000e-001) (7, 5.87142867739483350000e-003) (8, 1.83262470674265960000e-001) (9, 1.10509671542518080000e-001) (0, 1.08846898647313920000e+000) (1, -4.57516098384412210000e-001) (2, -2.05750867531827560000e-001) (3, -3.31198594201002550000e-002) (4, -1.34808237315567630000e-002) (5, 2.36276090999034990000e-002) (6, 2.83314895785055370000e-001) (7, -3.44106496982891220000e-002) (8, 1.15187057667918410000e-002) (9, 3.28514812873984870000e-001) (0, 1.62779928625841730000e-001) (1, -5.85264202964176030000e-001) (2, -3.03116006530018690000e+000) (3, 7.45037217747270140000e-002) (4, 2.10637519268968320000e-002) (5, 4.99877749340687520000e-002) (6, -3.43377858301989730000e-003) (7, 1.64321354267583600000e-001) (8, 7.45473152680698140000e-001) (9, 2.63214446949582180000e-001) (0, -2.52567961909875680000e+001) (1, 5.19396007351747270000e+000) (2, -2.55685494015528490000e-002) (3, -3.35803347600860810000e-002) (4, -7.47925463494974500000e-003) (5, 3.48594681970437190000e-002) (6, 5.04882738130718070000e+000) (7, -1.06166085661366470000e+000) (8, 5.85767489074452210000e-002) (9, 1.89790713035602710000e-001) (0, 2.00835126516011040000e-001) (1, 4.67534914365686170000e-001) (2, 6.15732752046886710000e-001) (3, 8.53006484836024290000e-002) (4, 1.97842727550401440000e-001) (5, 1.67651638103454290000e-001) (6, -1.17094779978724190000e-001) (7, -2.69880495473582120000e-001) (8, -3.54974006600603850000e-001) (9, -4.48404618680234680000e-001) (0, -1.42697831808886890000e+000) (1, -1.77191630096238920000e-001) (2, 3.83033712669845480000e-002) (3, -1.36796082637586910000e-001) (4, -4.89981008131838770000e-002) (5, 8.23032015258710750000e-002) (6, 3.13154144443665290000e-001) (7, 3.86179059879016360000e-002) (8, -3.27016108059170270000e-002) (9, -6.95832762166011420000e-001) (0, 6.48893107848703350000e-001) (1, 2.71771018028978520000e-001) (2, -6.61195868262298150000e-001) (3, -2.38779551008586960000e-002) (4, -2.31675998119935920000e-001) (5, -2.55022556923324930000e-001) (6, -1.79654418199345860000e-001) (7, -3.60761370090776910000e-001) (8, -3.51458179675347580000e-003) (9, -1.14867578363142790000e-001) (0, 2.31748775703354640000e+000) (1, 4.72506323145532820000e+000) (2, 3.80745505357298730000e-001) (3, -1.84674643691468930000e-003) (4, -5.37598403405483910000e-002) (5, -1.12430234242528410000e-002) (6, -4.89042467865886290000e-001) (7, -1.04224048098711020000e+000) (8, -1.96273838128053490000e-001) (9, -1.23584452467731630000e-001) (0, 1.31148836745826280000e-002) (1, -8.11637248989805380000e-001) (2, 1.30345372901858020000e-001) (3, -1.42271723496783160000e-001) (4, -1.31921762559750690000e-001) (5, -1.14989277179014110000e-002) (6, -1.91542836813534510000e-001) (7, 1.20011886029254390000e-001) (8, 3.36476162900807350000e-002) (9, -2.71146681784974640000e-001) (0, 1.16277759770392810000e-002) (1, 7.06565270632922180000e-001) (2, 1.96502889222175760000e+000) (3, 2.98430524635335610000e-002) (4, 2.32286868589175800000e-001) (5, 2.49036536702852830000e-001) (6, 4.21158225029937620000e-002) (7, -7.47508946486401260000e-002) (8, -1.77958081803193060000e-001) (9, 4.24618010749830690000e-001) (0, -1.00910262261138760000e-001) (1, 1.12690784262206250000e-001) (2, -3.16618115396329780000e-001) (3, -2.92220520851709900000e-002) (4, 6.06235509502481560000e-002) (5, 1.35394747269064860000e-001) (6, 7.40921245724159160000e-002) (7, 2.45542829657562320000e-002) (8, 1.93523853802619720000e-001) (9, -2.80303298220551610000e-001) (0, -1.71184632668151320000e-001) (1, -1.72068463360379200000e+000) (2, 7.28148332239203220000e-002) (3, -3.23116195234221140000e-003) (4, 8.21911723835231780000e-002) (5, -8.94615784748208210000e-002) (6, -2.87531151888069480000e-002) (7, 1.77620497652290460000e-001) (8, -3.13914395155294940000e-002) (9, 5.55341119597794640000e-001) (0, 1.95837324230223210000e-001) (1, 2.18035302707265650000e-001) (2, -1.59673190275536590000e-001) (3, -2.85694386841716000000e-002) (4, -1.07374948839612740000e-001) (5, -1.26968453305449670000e-001) (6, -2.31217340424128530000e-001) (7, -1.84622875964554510000e-001) (8, -9.80468205860211970000e-002) (9, 3.12797928496236670000e-001) (0, 4.63454643921342060000e-001) (1, 2.82277140674035420000e-001) (2, 2.20666421724924590000e-001) (3, -1.28909045338704400000e-001) (4, -3.46783212635531700000e-002) (5, 1.23651199519634340000e-002) (6, -3.64033919009672190000e-001) (7, 5.93885856636222000000e-002) (8, 6.82145657579465990000e-002) (9, 5.54897333197053030000e-001) (0, -2.14862245439828630000e-001) (1, -5.56469021427214770000e-001) (2, 1.14565139029746720000e-002) (3, -8.42297258534980140000e-002) (4, -3.85298121951890910000e-002) (5, -1.14368402904414830000e-001) (6, 1.18892517076716760000e-001) (7, 2.66031752737196980000e-001) (8, -5.77034823096898920000e-002) (9, -5.93064891460681550000e-002) (0, 1.08270094915575470000e+000) (1, 3.07394852923254990000e+000) (2, 4.92494258903427160000e-002) (3, 1.91511147019824860000e-002) (4, -6.22978881212084560000e-002) (5, 3.33968595998068510000e-002) (6, -3.05209781400390680000e-001) (7, -5.39829474474348590000e-001) (8, 1.09247225479162380000e-001) (9, 7.83994050680375200000e-001) (0, -1.51847207731883160000e+000) (1, 2.21496501927621770000e-001) (2, 7.84168135486531110000e-002) (3, 1.57471647181395200000e-001) (4, 1.73152176868492730000e-002) (5, -5.61617845776662200000e-002) (6, 3.52641856619594740000e-001) (7, -5.65570341978201270000e-002) (8, -5.50239820557567660000e-003) (9, 8.84213903876948090000e-001) (0, 7.24882315670846040000e-001) (1, 9.95877977794668470000e-001) (2, 7.47066364729637440000e-002) (3, -3.44055204982596440000e-002) (4, -7.19479345861168560000e-003) (5, -6.11162293981919800000e-002) (6, -2.28152965786597990000e-001) (7, 2.23272142702162890000e-001) (8, 1.32740700628143580000e-001) (9, -1.22419641927961080000e-001) (10, 5.89188780693349900000e-001) (11, 4.12343673748999730000e-003) (12, -1.75232640203661540000e+000) (13, -3.30935485588400470000e-001) (14, 4.99696770260431800000e-001) (15, 3.86006342696216740000e-002) (16, -6.78363879565541230000e-001) (17, 5.26769936747246810000e-001) (18, 4.08235050264920460000e-001) (19, 4.27736512648114020000e-001) (20, 5.65446647687780970000e-001) (21, 6.46753144557195350000e-001) (22, 1.33559370357869910000e-001) (23, 4.85398024347150010000e-001) (24, 5.84626211963036440000e-001) (25, -2.10227885080355140000e-001) (26, -6.77093210919740730000e-001) (27, -5.31294373962378330000e-001) (28, 3.93799641483326860000e-001) (29, -3.03413620519975040000e-002) (0, -4.07629090661807520000e-001) (1, 3.17730026097681730000e+000) (2, -5.06863872849715010000e-001) (3, 4.12102528873306490000e-002) (4, 4.49998964213737460000e-002) (5, 1.67443629648185350000e-001) (6, 7.36698640888846100000e-002) (7, -4.23263885273460260000e-001) (8, 9.39383693333410150000e-002) (9, -3.60905202495424570000e-001) (10, 6.28618339049798030000e-001) (11, 4.17397993962135560000e-001) (12, -1.91321772350637630000e-001) (13, 3.41230401471833090000e-001) (14, 4.63523912395869990000e-001) (15, 4.21498614045153870000e-001) (16, 1.39245270382790610000e-001) (17, 2.64625898139183230000e-002) (18, 8.41977871017027810000e-001) (19, 3.87614425192555180000e-001) (20, -4.67734180685335400000e-001) (21, -1.26375007666227970000e-001) (22, -7.08610213429188980000e-002) (23, 9.37710249338741360000e-001) (24, 7.98012638570405160000e-001) (25, 7.59003232704615340000e-001) (26, 3.10549484042450670000e-002) (27, -4.74242949728984340000e-001) (28, 1.76020884795786790000e-001) (29, 2.21573126151891120000e-001) (0, 1.42698077769006430000e+000) (1, 2.01177058362578960000e-001) (2, -2.66907950336585130000e-002) (3, 6.81577913279253840000e-003) (4, -6.30046235073226240000e-002) (5, -1.11825168602811460000e-001) (6, -6.06911200773055730000e-002) (7, -3.06016091008510380000e-002) (8, 3.83846363016439760000e-001) (9, 4.79764874513170850000e-001) (10, -3.43804281144634020000e-001) (11, -1.43031644014538550000e-001) (12, -1.34191299049734260000e+000) (13, -1.15351462267438670000e-001) (14, 4.96477132079084340000e-001) (15, -2.67290146724457470000e-002) (16, -4.89774788362844050000e-001) (17, 8.29819773588877260000e-001) (18, -1.07507413884070950000e-001) (19, 6.63582096475347830000e-001) (20, 9.08078094056113170000e-001) (21, 4.81499961303178400000e-001) (22, 2.41296195812720160000e-001) (23, 8.94250452053004460000e-001) (24, 7.15596037197696820000e-001) (25, 2.91084401922346970000e-001) (26, 1.12335345436833590000e-001) (27, -7.29366743185246300000e-001) (28, -9.55179513916948440000e-001) (29, -1.43967919925161610000e-001) (0, 1.41185370545488520000e+000) (1, -7.63442009562680800000e-002) (2, 7.74273256922583310000e-001) (3, 4.59716356406309370000e-001) (4, 4.56813645702822850000e-001) (5, 2.58522051797894280000e-001) (6, 3.81797006578935280000e-001) (7, 5.86161439438631640000e-001) (8, 1.14464479249305740000e-001) (9, 8.94419010229978380000e-001) (10, 1.74282187214636400000e-001) (11, 3.08867051357574750000e-001) (12, 1.38099490174028010000e-001) (13, 5.01827610314193320000e-001) (14, -1.29315751822430630000e-001) (15, 3.18959039247399430000e-001) (16, 3.54928966325471110000e-001) (17, 7.71988689260713730000e-001) (18, 2.73785999246219710000e-001) (19, 9.83255305203194150000e-001) (20, 9.65793271437728200000e-001) (21, 6.61419733347771270000e-001) (22, 3.64711354672866310000e-001) (23, 1.17248293631696200000e+000) (24, 7.24255072567777880000e-001) (25, 1.06994090120310560000e+000) (26, 4.79511568174719460000e-001) (27, 1.30397041195029770000e+000) (28, 3.27840811719837090000e-001) (29, -1.12759412752103980000e-001) (0, 7.55245919891168070000e-001) (1, -2.12647762935542510000e+000) (2, 4.66794899689894180000e-001) (3, 4.85254567847742680000e-001) (4, 2.79597114485558960000e-001) (5, 8.68565723746565210000e-002) (6, -1.98499365449177330000e-003) (7, -5.89151123789866120000e-003) (8, -4.60599426354447670000e-001) (9, -5.91041171557254720000e-002) (10, 1.58527193440801340000e-002) (11, 5.59859905162509270000e-001) (12, 1.70674668157486750000e+000) (13, 5.70738196730634640000e-002) (14, -6.92951255345077010000e-002) (15, 2.11552835753275830000e-001) (16, -8.81759760543538440000e-001) (17, -5.53793052040106870000e-001) (18, 6.21788950690615570000e-001) (19, -2.67129442112473190000e-001) (20, -1.12738843383261280000e+000) (21, 1.19720776084782350000e+000) (22, -2.50080860799819670000e-001) (23, 3.46503880499470280000e-001) (24, 3.88155415368969530000e-001) (25, 3.50641570273236450000e-001) (26, 5.39509984043535120000e-001) (27, 8.46513112811862480000e-001) (28, 7.76565877385373300000e-001) (29, -1.76531302398638460000e+000) (0, 1.40358448963006530000e+000) (1, 6.53969966086698000000e-001) (2, 5.08433317968521430000e-001) (3, 2.33539146356401800000e-001) (4, 1.12330106725998800000e-001) (5, 1.13060016109826480000e-002) (6, 4.60542528678905880000e-001) (7, 4.29561686804168560000e-001) (8, 2.97384181657353530000e-001) (9, 2.59788093397212040000e-001) (10, -1.76787747772150280000e-001) (11, -2.73280082934252710000e-001) (12, -2.42819841357406750000e-002) (13, -3.22730625515356530000e-001) (14, -1.88964672505961160000e-001) (15, -7.38226647291241320000e-001) (16, -1.16609444421228620000e-002) (17, 6.85714144540895960000e-001) (18, -3.73341499581364370000e-001) (19, 9.08898584686138600000e-001) (20, 3.84642428715630310000e-001) (21, 4.00716137287185410000e-001) (22, 4.46581989693556890000e-001) (23, 1.04594361933165200000e+000) (24, -1.60656560503093740000e-001) (25, 4.77969011629921610000e-001) (26, 7.77511310714132710000e-001) (27, 1.05676044708623090000e-001) (28, -5.58208705561821670000e-001) (29, 1.35796378297006470000e-001) (0, 1.09167338786537860000e+000) (1, 6.82643948065539070000e-001) (2, 2.68767817612233670000e+000) (3, 3.44181883779627120000e-002) (4, -1.33515654163017690000e-001) (5, -2.02185992715759380000e-001) (6, 5.28356535480925190000e-002) (7, 1.49707716286432230000e-001) (8, 1.08589465189290590000e-001) (9, 5.31404128194310380000e-001) (10, 1.03289318346954080000e-001) (11, 1.29890142896611240000e-001) (12, 1.06418077909700090000e-001) (13, -2.36909153556017240000e-001) (14, -1.38145344128511340000e-001) (15, 3.43804685815820020000e-002) (16, -4.18691251430406000000e-002) (17, 5.69846335528821020000e-001) (18, 5.14411118053355270000e-001) (19, -5.07399000783681500000e-002) (20, 8.90242737835149900000e-002) (21, 3.43275014565508460000e-001) (22, 1.49030441363466160000e-001) (23, 7.15375297193392100000e-001) (24, 1.56172030828366500000e+000) (25, 3.80187137872382490000e-002) (26, -1.49535351701727550000e-001) (27, 6.83088622464532280000e-001) (28, 1.33658874078602020000e-001) (29, -6.53956616456226820000e-001) (0, -2.39661179517716180000e-001) (1, 1.22180967551738950000e+000) (2, -7.63517973831568940000e-001) (3, 5.52077130063500580000e-002) (4, 1.55172317497166010000e-001) (5, 1.58107361498365610000e-003) (6, -4.94331282898580540000e-002) (7, 2.68996421462906870000e-001) (8, -6.43975441675045280000e-001) (9, 6.24410097169260450000e-002) (10, 5.31957090978474540000e-001) (11, 1.41673085737350240000e-001) (12, -4.94725220382774560000e-001) (13, 2.52981477799646860000e-001) (14, 1.58405972491683060000e-001) (15, -6.28583191303181850000e-001) (16, 6.17648823089881410000e-002) (17, -9.66118399690012450000e-001) (18, -8.72260295951656440000e-001) (19, -3.58036527679025880000e-001) (20, 2.27100942826443550000e-001) (21, 5.83547338969533920000e-001) (22, -3.29649645878746400000e-001) (23, 1.79892156447474120000e+000) (24, 5.21074539385647630000e-001) (25, 2.66618943145520260000e-001) (26, 2.98587267968438370000e-001) (27, -1.67087605370024620000e-001) (28, -3.64486329365052320000e-001) (29, 8.88009475501505220000e-001) (0, 3.08984456040781010000e-001) (1, 3.60008429544085460000e-001) (2, -4.51049594581169670000e-001) (3, -2.05687940959203150000e-001) (4, -1.81986066853067590000e-001) (5, -3.92697046104232170000e-001) (6, -2.40732239013646710000e-001) (7, 3.11327236321361660000e-003) (8, 3.56896994581580700000e-001) (9, 6.94702765459977000000e-001) (10, 1.63609422181611450000e-001) (11, 3.34215393931727580000e-002) (12, -1.71207893443336400000e-001) (13, -2.35456685828663940000e-001) (14, 5.67754924416769110000e-001) (15, 5.12342762062253150000e-001) (16, 1.09352411286008380000e-001) (17, 5.39220994021806570000e-001) (18, 1.28699518308921770000e+000) (19, -3.83999269150321950000e-001) (20, -7.62588566120269850000e-002) (21, 6.74853480501366180000e-002) (22, -8.45573568483878430000e-001) (23, 4.63256735703999830000e-001) (24, 6.87565166931741190000e-001) (25, 3.05789653762703840000e-001) (26, -2.55734475575276120000e-001) (27, 3.58932902340166120000e-001) (28, 2.33592623268545350000e-001) (29, 2.98997601419317800000e-001) (0, 4.50069468996189660000e-001) (1, 2.64639327634590250000e-001) (2, 2.14218097849178030000e-001) (3, -4.52016075964423110000e-001) (4, -6.26102977159263000000e-002) (5, 1.86304035620035220000e-001) (6, -3.73159020842543860000e-002) (7, -1.14796630208874160000e-001) (8, -7.50543748129935040000e-003) (9, -5.12114234798234480000e-001) (10, 9.60788293837053440000e-001) (11, 4.24983492894140060000e-001) (12, 3.17369718384875270000e-001) (13, 1.21663249702251810000e-001) (14, -4.91362119177732480000e-001) (15, -8.63912132887958100000e-001) (16, 2.35339808892874920000e-001) (17, 8.19204891007421660000e-001) (18, 8.36025447954694690000e-001) (19, -4.74983404394179240000e-001) (20, 7.71416633787108590000e-003) (21, 7.73487542738804050000e-001) (22, 9.19305570503814170000e-002) (23, -1.60168156837885990000e-001) (24, 1.44977427848622190000e-001) (25, -2.99447548877627090000e-001) (26, -3.48034754518783960000e-001) (27, 7.47206000317348410000e-001) (28, 2.99389656878013830000e-001) (29, 3.14546367738843650000e-001) (0, -1.32601696861346970000e+000) (1, -4.66753914257007680000e-001) (2, -3.82110413845361320000e-001) (3, 7.08437702070763010000e-002) (4, 8.46185204951578340000e-002) (5, 2.20372681464995110000e-001) (6, -4.23019699829592030000e-001) (7, 4.18305819440517650000e-001) (8, 1.10859851756829970000e-001) (9, 1.45811477294716220000e-001) (10, 3.57068694574198260000e-001) (11, -5.05276662177395420000e-001) (12, -4.26416145578185750000e-001) (13, 5.66171742349655390000e-001) (14, 1.23041435023936470000e+000) (15, 4.34277947091886220000e-001) (16, 9.73681679672851880000e-002) (17, -6.79582468581688690000e-002) (18, -2.25252069443575790000e-001) (19, 7.33604330795785910000e-001) (20, 3.70021716397459370000e-002) (21, -2.34978402135614330000e-001) (22, 2.06099116071639920000e-001) (23, 1.26728277823223070000e+000) (24, -9.20639941658902250000e-003) (25, 5.04486519622462160000e-001) (26, -5.10921168071374780000e-001) (27, 2.12327524745197060000e-001) (28, -3.34777745696353210000e-001) (29, 1.27737614221508840000e-001) (0, -1.40899000248962180000e+000) (1, 8.22103981463430110000e-001) (2, -6.77872183571311630000e-001) (3, -2.19679191374132500000e-002) (4, -1.18054108862070390000e-001) (5, 2.37178836501732890000e-002) (6, -7.03524123759950710000e-002) (7, 3.27258047902449780000e-001) (8, 4.09328350447752790000e-001) (9, -1.56555473143165750000e-002) (10, 3.34697169099340720000e-001) (11, -6.50987531450717420000e-001) (12, -3.35304919875254570000e-001) (13, 5.53253406793080770000e-001) (14, 3.51909281896538080000e-001) (15, -8.46791444786509030000e-001) (16, 2.43167382261756710000e-001) (17, 8.74193162542170280000e-001) (18, 2.49920609065103040000e-002) (19, 2.91841007013719460000e-001) (20, -1.87414379579071700000e-001) (21, -1.85448430347181980000e-001) (22, 5.67178459774542620000e-001) (23, 1.03958817879636080000e+000) (24, 8.82416850018709840000e-001) (25, 1.01689330166202630000e+000) (26, -3.25946444784150640000e-001) (27, 2.59221930336648640000e-001) (28, -6.05986688268156730000e-002) (29, 1.45648830676581080000e-001) (0, 2.90543303188912640000e-002) (1, -7.17195567276876940000e-001) (2, -1.72211106205543220000e-001) (3, -5.04581265053904580000e-002) (4, 1.28668463247730350000e-001) (5, 1.47230246501237750000e-001) (6, 3.19742726882403070000e-001) (7, 1.67433731222539380000e-001) (8, -5.12129655018419070000e-002) (9, 7.94683467083241110000e-001) (10, -4.98582543380170720000e-001) (11, 9.61997357067761880000e-002) (12, -1.09960693644702480000e-001) (13, 4.96327122612670870000e-001) (14, -6.21408028289225640000e-002) (15, 9.68361874623241410000e-001) (16, -1.19869985284709880000e-001) (17, 3.26776849665763980000e-001) (18, 1.80793226648437690000e-001) (19, 7.70644369596949820000e-001) (20, 1.49350324768541210000e-001) (21, -8.00619069181669700000e-001) (22, -1.33551853903935650000e-001) (23, -3.94107147850281780000e-001) (24, 3.95081063689195770000e-001) (25, 5.64719870501561470000e-001) (26, 2.05943551160765990000e-001) (27, 2.75000114798441890000e-001) (28, -8.11321577291995720000e-002) (29, -3.51123001807702340000e-001) (0, 2.39541619138124200000e-002) (1, -3.22057953874057720000e-001) (2, -2.97588956148610360000e-001) (3, 1.57428391282815330000e-001) (4, 7.25580237128171380000e-002) (5, -1.56180329763487310000e-001) (6, -3.77438344037687000000e-001) (7, 3.80237480877709640000e-001) (8, 3.37535067401504300000e-001) (9, -4.38970370733662020000e-001) (10, 3.38213685901748940000e-001) (11, -6.12809873753110800000e-001) (12, -1.21711316191080680000e-001) (13, 2.24522699359266860000e-001) (14, 4.88213849216540430000e-001) (15, 2.98705851292642820000e-001) (16, -3.22228117706251540000e-001) (17, 5.29970777561618920000e-001) (18, 3.32216728247940910000e-001) (19, -2.17135676323268520000e-001) (20, 5.40935515479019520000e-001) (21, 9.44739308448818150000e-001) (22, 6.98449569282885260000e-001) (23, 1.23428595532905120000e-001) (24, -3.19165905926202530000e-001) (25, -1.59750792783181110000e-001) (26, -5.48612414666631240000e-001) (27, 9.58818491039111100000e-001) (28, 2.45922962301250600000e-001) (29, 4.02843614394691190000e-001) (0, -4.18238184401617200000e-001) (1, -9.67179233279352400000e-001) (2, -1.83809243701655300000e-001) (3, -1.37911785679605600000e-001) (4, -9.73577072459358290000e-002) (5, 1.42462098957103580000e-002) (6, 6.11275551480563340000e-001) (7, -3.12682097366930980000e-001) (8, 1.21216761266074210000e-001) (9, 7.37443019926994070000e-002) (10, 6.33499254690758070000e-001) (11, 1.38199531196235130000e-001) (12, 1.54772300827511100000e+000) (13, 5.21986299540191710000e-001) (14, -1.46774394978942960000e-001) (15, -3.24841565874875670000e-001) (16, 7.23648075289440200000e-001) (17, 1.03662415752121830000e+000) (18, 5.06027550408555400000e-001) (19, 4.22224476069890660000e-001) (20, -8.86426147214726460000e-001) (21, 1.12130755069618740000e-001) (22, -1.27325534595069320000e-001) (23, 4.01319806856215040000e-001) (24, 1.31625618180198050000e+000) (25, 7.60868929595335030000e-001) (26, -3.27139702896348140000e-001) (27, -5.84873640438088320000e-001) (28, -9.20163986964477180000e-002) (29, 4.49989696509831620000e-001) (0, 8.26133228240377940000e-001) (1, -3.05660407572839470000e-001) (2, -1.98816406391063930000e-001) (3, 6.21542104849890020000e-002) (4, 2.21517005371712140000e-002) (5, 1.82018501416275490000e-001) (6, 9.88579508084028450000e-002) (7, 1.21835956460337420000e-001) (8, 1.94907629078691270000e-001) (9, 3.36335568392710120000e-001) (10, 8.42699516218956110000e-001) (11, -2.24961169037471740000e-001) (12, -1.36642446990375840000e-001) (13, -6.95642986262471900000e-001) (14, -2.56976184155946200000e-001) (15, 1.54931823327484090000e-001) (16, -3.02444768853670890000e-001) (17, 3.20606520554186160000e-002) (18, -2.76941669891226590000e-001) (19, -1.25935256784004020000e-001) (20, 6.50381554254341080000e-003) (21, 1.88874555859479790000e-001) (22, 1.61449545764784440000e-002) (23, 9.95931987600675470000e-001) (24, 3.52074721996744440000e-001) (25, 7.21146588673952540000e-001) (26, 3.96811168058778860000e-001) (27, 7.35443099608561020000e-001) (28, 2.48074827036573050000e-001) (29, 9.22967834659040640000e-001) (0, 1.55331611217663370000e+000) (1, -2.17943788764577210000e+000) (2, 3.19761181941418120000e-001) (3, -4.14828391209158610000e-002) (4, -1.49750914855024010000e-001) (5, -5.93598915297289950000e-002) (6, -1.01253437823606920000e+000) (7, -1.12289443854771910000e-001) (8, -1.04300734196289530000e-001) (9, -1.01674164876902230000e-001) (10, 3.97296242153687420000e-001) (11, -3.62089655031089320000e-002) (12, 1.16113925406342220000e+000) (13, 2.29832715228067470000e-001) (14, 6.10850530703352270000e-001) (15, 1.99240681009183570000e-001) (16, -5.95139429619463760000e-001) (17, 7.11283321687312560000e-001) (18, 2.94199360922705320000e-001) (19, 2.31979951583388110000e-001) (20, -1.01002975235124710000e+000) (21, 2.10713158207205720000e-002) (22, 2.75032259356083720000e-001) (23, 3.97349310660180640000e-001) (24, 4.27413859668319570000e-001) (25, 1.08820543722320540000e-003) (26, 1.58156065488324980000e-001) (27, 3.01027915152700720000e-001) (28, 2.56869994117548290000e-001) (29, 2.11065702218810550000e-001) (0, 2.22227672379937460000e+000) (1, -1.10594692258593130000e+000) (2, 1.67571200204557760000e-001) (3, 1.30104073274734080000e-001) (4, -6.39396415034104580000e-002) (5, -3.59969875610447950000e-002) (6, -4.74353359682298580000e-001) (7, 8.31716908330067280000e-001) (8, 1.85618724469859470000e-001) (9, 1.20207820818354510000e-002) (10, 1.26736897346189120000e-001) (11, 4.26650256342787140000e-001) (12, 1.26744442996049500000e+000) (13, -2.44895960188676130000e-001) (14, 8.70217020268369000000e-001) (15, 2.19356760026348050000e-001) (16, -4.77439677515156870000e-001) (17, 6.10771930054312630000e-001) (18, 3.02823158226254440000e-001) (19, 3.56505334059716710000e-002) (20, -3.30616315599140940000e-003) (21, 4.90605268696642120000e-001) (22, 1.66104790720562920000e-001) (23, 2.64486473670896780000e-001) (24, 2.58849188512142780000e-001) (25, 2.08939955719628400000e-001) (26, 1.86401949163156830000e-001) (27, 5.22853368931828770000e-001) (28, -3.53403634586751560000e-001) (29, 1.92752574957898880000e-001) (0, 4.65089330090545870000e-001) (1, 1.26566438841920140000e+000) (2, -7.19884296598942040000e-001) (3, -8.89267584075785490000e-002) (4, 5.34916185891692760000e-001) (5, -1.13970243598898210000e-001) (6, -1.71673459540196720000e-001) (7, -9.21926918251364110000e-002) (8, 3.93082279128106950000e-001) (9, 2.45063172075642070000e-001) (10, 4.02894582821367310000e-001) (11, -1.36102870401508870000e-001) (12, -1.25926909519004090000e-001) (13, -1.64045758547913890000e-001) (14, 3.01997159882535560000e-001) (15, -4.29055381340761430000e-001) (16, 7.77385199451060240000e-003) (17, 4.04061859211929550000e-001) (18, 1.03748209746677760000e+000) (19, 2.70088377791426030000e-001) (20, 9.52843110313052880000e-002) (21, -5.34599533411226690000e-002) (22, -8.82509037239479820000e-001) (23, -1.23374743458248590000e-001) (24, -6.03953732345489660000e-001) (25, 3.53343888970204190000e-001) (26, -3.11832708654160850000e-001) (27, 4.48173774702047670000e-001) (28, 1.22356846215137410000e-001) (29, 9.53536098878439820000e-001) (0, 6.77738529359888380000e-002) (1, 1.44774395633884080000e-001) (2, 9.73134701595811170000e-001) (3, 9.70156990374873430000e-002) (4, 9.64750676391744890000e-002) (5, 2.19616971252951850000e-001) (6, 1.48082462702375600000e-001) (7, 5.52169871173200930000e-001) (8, 1.40112736588116520000e-001) (9, 8.71737102288469230000e-001) (10, 5.41794854500432190000e-001) (11, 1.77006283494027420000e-001) (12, 9.24322362100990780000e-002) (13, 5.14538913964786240000e-001) (14, -4.80930474530550100000e-001) (15, 9.10865436362000240000e-001) (16, 4.30033411079354390000e-002) (17, 9.17065986071183390000e-001) (18, 1.23320492259387020000e+000) (19, 5.67916062285800380000e-001) (20, 6.14569714136219190000e-001) (21, 4.88109628015434010000e-001) (22, -2.27958741551484790000e-001) (23, -5.41929574776943920000e-001) (24, 8.91495614405723110000e-001) (25, 4.65336452220313950000e-001) (26, 5.40651644933250910000e-001) (27, 3.98478729441192280000e-001) (28, 8.59711888401391980000e-002) (29, -2.02268339261353760000e-001) (0, 3.40432876783031520000e-001) (1, 6.23493253062220140000e-001) (2, 1.27807151910818980000e-001) (3, 4.19294780441244810000e-002) (4, 4.15373581836731630000e-002) (5, 1.41519430076646270000e-001) (6, -1.47626949425525820000e-001) (7, -1.41305651636505140000e-002) (8, 7.58838968345648260000e-002) (9, 6.17680832151001060000e-002) (10, 2.62299331388551600000e-001) (11, 5.65133834817125040000e-002) (12, -1.60045056595247770000e+000) (13, 4.25443116775586880000e-001) (14, 4.48392545068276800000e-001) (15, 7.57243391947658580000e-002) (16, -2.15269916983872430000e-001) (17, 5.62161452226286550000e-001) (18, 4.15686104793127400000e-001) (19, 2.23703538769147030000e-001) (20, 2.98278431932539450000e-001) (21, 2.99570959134721700000e-001) (22, 5.34715700964553610000e-003) (23, -3.17405551102636300000e-001) (24, 5.31970240641936740000e-002) (25, 3.32935090713193990000e-001) (26, -8.13387932983711540000e-002) (27, 8.98392831015387360000e-001) (28, 3.18304947930779580000e-002) (29, 2.35947458405138780000e-001) (30, -1.82294401092897960000e+000) (31, -1.05314130092218590000e-001) (32, 3.55719093218996360000e-001) (33, 9.00646704075015320000e-002) (34, 1.74405788639228710000e+000) (35, 1.77149995590440900000e-001) (36, 3.52407058754152720000e-002) (37, 9.49166102445249270000e-002) (38, 3.95853926951391720000e-002) (39, -6.64402272753139390000e-003) (40, 4.65976687444944250000e-001) (41, 3.35978029879259790000e-001) (42, -5.64021162521258220000e-002) (43, 5.80576167595952470000e-002) (44, -1.21438336152879370000e-001) (45, 1.97592289459875280000e-001) (46, -3.97242274627150670000e-001) (47, -4.85863863325097960000e-001) (48, 2.89724985806011190000e-001) (49, -7.59091304321657910000e-003) (0, 3.06128754844512800000e-001) (1, -1.82360005469171080000e+000) (2, -7.65285511816924950000e-001) (3, 1.39769673355127660000e-001) (4, 3.29543527613980760000e-002) (5, 7.55714269975497900000e-002) (6, 2.46831976982810480000e-001) (7, 3.64016536358919230000e-001) (8, -3.86350295364577200000e-002) (9, 2.49818963135941120000e-001) (10, 4.67092156270754680000e-001) (11, 2.15759611781021180000e-001) (12, 1.15710980638680970000e+000) (13, 1.42544029122852690000e-001) (14, -1.22172461374563200000e-001) (15, -5.25532712311415960000e-001) (16, -1.06479098663082180000e-001) (17, 1.49181843863195110000e-001) (18, 1.07428562808590460000e-001) (19, -1.14950360020964330000e-001) (20, 4.70205700110155890000e-001) (21, 1.42952768543322730000e-001) (22, -5.23063005970113350000e-001) (23, 2.74275229357813950000e-001) (24, 3.03349387810440630000e-001) (25, 3.18858943857373790000e-001) (26, 7.31754308755570790000e-001) (27, 6.12307160135419970000e-001) (28, 7.39535334703758650000e-001) (29, -1.09802396022365120000e-001) (30, -7.48124936124031640000e-002) (31, -5.24534760222373220000e-001) (32, 3.14518178514493260000e-001) (33, -2.86291325583793110000e-001) (34, 1.73537298954959290000e-002) (35, 1.05501522146946040000e+000) (36, 2.50223644526570310000e-001) (37, -1.40832904953495900000e-002) (38, 3.57339599526841010000e-002) (39, 3.38885720394928760000e-001) (40, 1.32919467422940780000e+000) (41, 1.24483247933724920000e+000) (42, -9.58620651543947160000e-002) (43, 2.86462406249347490000e-001) (44, -9.44687386587071690000e-002) (45, 5.90158563147218930000e-001) (46, -1.29833250618440780000e-001) (47, -3.48941465939233250000e-001) (48, -5.97982717787156550000e-002) (49, -1.21564168060793840000e+000) (0, -1.73338927537786550000e+000) (1, 1.98184210974871460000e-001) (2, -2.27252167445807810000e+000) (3, -2.19625909458144000000e-001) (4, -4.44449622613253060000e-002) (5, 1.48122201459758820000e-001) (6, 6.58719065949633250000e-001) (7, 3.61893665396348370000e-001) (8, 1.93996302011703790000e-001) (9, -2.89538472254789350000e-001) (10, 1.16646013015201460000e+000) (11, 1.34770247542811460000e+000) (12, 1.39717564981001050000e-001) (13, 9.82873542025152200000e-002) (14, -4.70393502782002430000e-001) (15, -4.57860015964513390000e-002) (16, 5.26112516164297550000e-001) (17, 1.05410506034341300000e+000) (18, -8.67224971419315980000e-001) (19, 1.05210442783315550000e+000) (20, 3.41989893751081240000e-001) (21, 9.35727778447380310000e-001) (22, -5.06934275451424110000e-001) (23, 1.17716276097680450000e+000) (24, 9.61619978240591530000e-001) (25, -2.20330890539597090000e-001) (26, 1.03086829850145940000e-001) (27, -5.69303522853030430000e-001) (28, 1.03413799808746700000e+000) (29, 1.31354619109739530000e+000) (30, -4.03457036280823260000e-002) (31, -7.89167863829802200000e-001) (32, 2.13414024931578020000e-002) (33, -1.31268300172346720000e-001) (34, 1.63016061170428690000e-001) (35, -4.44825260889719220000e-002) (36, 4.41768279540502740000e-001) (37, 4.27666821111794060000e-002) (38, -1.47645373299475830000e-001) (39, 3.02549303798141660000e-001) (40, 2.66647367153411090000e-001) (41, 3.54158643351855650000e-001) (42, 5.74411424278581180000e-002) (43, 1.01525680846837570000e+000) (44, 6.31321979990971760000e-003) (45, 1.52773189511722740000e+000) (46, 3.28035664846434770000e-002) (47, 9.31950173701085950000e-003) (48, -4.81108543472178570000e-001) (49, -1.45673790608670560000e+000) (0, -4.30712611226735450000e-002) (1, 4.27095709825634660000e-001) (2, 9.16040289586721900000e-001) (3, 2.11151231054286850000e-001) (4, 1.62933791867143320000e-001) (5, 3.14901749212084250000e-001) (6, 6.95378490992353600000e-001) (7, 3.01162259395644730000e-001) (8, 2.51476172387986640000e-001) (9, 4.71279555827666120000e-001) (10, -2.45817771809676620000e-001) (11, 5.97061765905810170000e-001) (12, -2.20878384108218140000e-001) (13, -3.59663092237915590000e-001) (14, 4.87595411781619530000e-001) (15, 9.98501272744666680000e-002) (16, 4.17624304044218190000e-001) (17, 5.76541479655996000000e-001) (18, 9.39070205476342120000e-001) (19, 1.03221719724392000000e+000) (20, 2.95408585143868250000e-001) (21, 5.58930667217503950000e-001) (22, 1.49789228644572420000e-001) (23, -9.55849495099731490000e-002) (24, 5.99829396423235740000e-001) (25, 7.64970418898190290000e-001) (26, 3.81392055464479410000e-001) (27, -1.11999004896340020000e-001) (28, -3.45272607284127560000e-001) (29, -7.22268034502115960000e-002) (30, -7.71623190050071960000e-002) (31, -3.30524111887278150000e-001) (32, -8.90997465821069870000e-001) (33, -2.14491958041150150000e-001) (34, -2.83514277927091610000e-002) (35, 5.22341260844587650000e-001) (36, 2.78560295127150410000e-002) (37, 3.63662400814010620000e-004) (38, 3.24970754462816870000e-001) (39, 1.26159289694002930000e-002) (40, 4.05031051169140120000e-001) (41, -6.97777082031893700000e-001) (42, -2.79921661974217450000e-002) (43, 8.10071085211610090000e-001) (44, -7.81699498331793530000e-001) (45, 3.36005145310060650000e-001) (46, 1.02331905181688350000e+000) (47, -8.80417552602448140000e-001) (48, 8.45083054218074000000e-002) (49, -7.07508123235256030000e-001) (0, 1.45009016735078600000e-001) (1, 8.54790920096303530000e-001) (2, 6.18974034857490030000e-001) (3, 3.87812833209933710000e-002) (4, -3.24533341865909260000e-001) (5, -9.17611942413373710000e-002) (6, -7.88921651484714380000e-001) (7, -4.38036000030718740000e-001) (8, -1.03520718490702840000e-001) (9, -1.74184614240990160000e-001) (10, 1.04418462417920140000e+000) (11, 1.29181211028501830000e-001) (12, 5.90935033811045510000e-001) (13, 8.41788675340375690000e-002) (14, -1.06696189455207620000e-001) (15, 5.72451708678462620000e-001) (16, -6.38543512251025570000e-001) (17, 4.60047548095581290000e-001) (18, 6.50698508956467190000e-001) (19, -7.17168421226101250000e-001) (20, -1.42860110218514720000e-001) (21, 3.03434808619697020000e-001) (22, 8.20219775423643100000e-001) (23, 6.38118056132723490000e-002) (24, 8.22772214180791050000e-001) (25, 8.92868471232704940000e-002) (26, -4.37244071616228750000e-001) (27, -1.37537950137896330000e-001) (28, -9.34131980555422820000e-002) (29, -2.48701351227495730000e-001) (30, 7.12121675276288360000e-002) (31, 1.32240804587098950000e+000) (32, -2.07264750829125430000e-001) (33, -1.25123198006426990000e-001) (34, 9.53174180342215430000e-002) (35, 9.93338517590274580000e-001) (36, 9.47540581908354660000e-001) (37, 1.33389273690950900000e+000) (38, 5.49146312126420400000e-001) (39, 8.37046638583413830000e-002) (40, 1.05689975993960460000e-001) (41, 8.45910061882806600000e-001) (42, 1.89469992968872880000e+000) (43, -1.67383618590506330000e-002) (44, 7.15187199413414850000e-002) (45, -1.77450905325253360000e+000) (46, 9.45782110910527580000e-002) (47, -1.32156150542255020000e-001) (48, -1.14601008829791380000e-001) (49, 2.13148846972099210000e-001) (0, 9.67568810274750060000e-001) (1, 6.20443717120227940000e-001) (2, 3.19753095276781250000e-001) (3, 7.34387282594490260000e-001) (4, 5.29802831849818800000e-002) (5, 7.77812205941803560000e-001) (6, -3.87344128091604570000e-002) (7, 3.74636164671421360000e-001) (8, 3.77364311254595050000e-002) (9, 8.47793249447598260000e-001) (10, 1.66631649537900830000e-001) (11, 5.07329826631859880000e-001) (12, 7.44959984878875300000e-002) (13, 3.74760935830063700000e-001) (14, 9.65508950908328810000e-002) (15, 1.26051909930486150000e-001) (16, 3.17582961852483250000e-001) (17, 7.42722072358225960000e-001) (18, 5.93153221838147560000e-001) (19, 1.07056208160366270000e+000) (20, 2.75797807165298670000e-001) (21, 7.28750922005972250000e-001) (22, -4.70995967745815700000e-001) (23, -2.31277452808524300000e-001) (24, 7.27427190571278250000e-001) (25, 3.98148777030631120000e-001) (26, 5.36804845232434550000e-001) (27, -1.36739767419843370000e-001) (28, -3.83224946716117950000e-001) (29, 9.10423002030708140000e-001) (30, -3.49376284165403350000e-002) (31, -3.13805640748223200000e-001) (32, 1.86522774496204260000e-002) (33, -3.30895090846564770000e-001) (34, -6.28472275956914600000e-002) (35, 1.14081190689080180000e-001) (36, 6.10570397988809520000e-001) (37, -1.78547236980269640000e-001) (38, 1.24503568784934520000e+000) (39, 1.08379943672338300000e+000) (40, -7.29935848810825070000e-001) (41, 2.90116983839967200000e-001) (42, 7.02123682617833420000e-001) (43, 3.10162116957353410000e-001) (44, -4.66468604935633790000e-003) (45, 1.43938104359375820000e+000) (46, -1.03367172959784950000e-001) (47, 2.09303964125239970000e-001) (48, 1.77613739082312190000e+000) (49, -4.30390508612402690000e-001) 
