FANN_FLO_2.1
num_layers=3
learning_rate=0.700000
connection_rate=1.000000
network_type=1
learning_momentum=0.000000
training_algorithm=2
train_error_function=1
train_stop_function=1
cascade_output_change_fraction=0.010000
quickprop_decay=-0.000100
quickprop_mu=1.750000
rprop_increase_factor=1.200000
rprop_decrease_factor=0.500000
rprop_delta_min=0.000000
rprop_delta_max=50.000000
rprop_delta_zero=0.100000
cascade_output_stagnation_epochs=12
cascade_candidate_change_fraction=0.010000
cascade_candidate_stagnation_epochs=12
cascade_max_out_epochs=150
cascade_min_out_epochs=50
cascade_max_cand_epochs=150
cascade_min_cand_epochs=50
cascade_num_candidate_groups=2
bit_fail_limit=1.00000001490116120000e-001
cascade_candidate_limit=1.00000000000000000000e+003
cascade_weight_multiplier=4.00000000000000020000e-001
cascade_activation_functions_count=10
cascade_activation_functions=3 5 7 8 10 11 14 15 16 17 
cascade_activation_steepnesses_count=4
cascade_activation_steepnesses=2.50000000000000000000e-001 5.00000000000000000000e-001 7.50000000000000000000e-001 1.00000000000000000000e+000 
layer_sizes=16 5 6 
scale_included=0
neurons (num_inputs, activation_function, activation_steepness)=(0, 0, 0.00000000000000000000e+000) (0, 0, 0.00000000000000000000e+000) (0, 0, 0.00000000000000000000e+000) (0, 0, 0.00000000000000000000e+000) (0, 0, 0.00000000000000000000e+000) (0, 0, 0.00000000000000000000e+000) (0, 0, 0.00000000000000000000e+000) (0, 0, 0.00000000000000000000e+000) (0, 0, 0.00000000000000000000e+000) (0, 0, 0.00000000000000000000e+000) (0, 0, 0.00000000000000000000e+000) (0, 0, 0.00000000000000000000e+000) (0, 0, 0.00000000000000000000e+000) (0, 0, 0.00000000000000000000e+000) (0, 0, 0.00000000000000000000e+000) (0, 0, 0.00000000000000000000e+000) (16, 5, 1.00000000000000010000e-001) (16, 5, 1.00000000000000010000e-001) (16, 5, 1.00000000000000010000e-001) (16, 5, 1.00000000000000010000e-001) (16, 5, 1.00000000000000010000e-001) (21, 0, 1.00000000000000010000e-001) (21, 0, 1.00000000000000010000e-001) (21, 0, 1.00000000000000010000e-001) (21, 0, 1.00000000000000010000e-001) (21, 0, 1.00000000000000010000e-001) (21, 0, 1.00000000000000010000e-001) 
connections (connected_to_neuron, weight)=(0, 3.46112783013366610000e+001) (1, 1.54990838300962160000e+000) (2, -4.68127427312779250000e+000) (3, -3.43764910061332420000e-001) (4, 2.21867547354007780000e-002) (5, 1.86959626520848470000e-001) (6, -9.33878942303141460000e+000) (7, -1.92296413293176510000e-001) (8, 1.35074773794143120000e+000) (9, 1.75263690144677810000e-002) (10, -5.09977617971544600000e-003) (11, 4.10971917409269990000e-002) (12, 2.11206461415469510000e-002) (13, -6.04431456383749330000e-002) (14, 2.85599311946504280000e-002) (15, -8.14495712959912230000e+000) (0, 4.36074084152068850000e+000) (1, 5.47281323640269510000e+000) (2, 3.79634588958787800000e+001) (3, -1.14580039206249350000e-002) (4, 3.07309945018041480000e-002) (5, 1.49679819364097880000e-001) (6, -1.39522476166593880000e+000) (7, -2.08473210838643390000e+000) (8, -1.30851070516815910000e+001) (9, -2.09598429271392810000e-003) (10, 7.14845025177771880000e-002) (11, -8.34812222994514300000e-002) (12, -2.26815302131066490000e-002) (13, 1.18337147290006970000e-001) (14, 8.23429138722701560000e-003) (15, -3.62944519278115420000e+000) (0, 2.63258078157183210000e+001) (1, 6.71939058618841960000e-001) (2, -5.00476034529535600000e-001) (3, 2.68630767182065930000e+000) (4, -5.21560637326538640000e-002) (5, 4.05424213073425220000e-002) (6, 2.61063637207208420000e+000) (7, 1.03855014268624710000e+000) (8, -7.99618791877186180000e-002) (9, 9.40077253029099750000e-002) (10, -5.07901537860297870000e-002) (11, 7.60246290912658660000e-002) (12, -2.42152079634224000000e-002) (13, -1.46019017757433450000e-001) (14, -2.47704091131026520000e-002) (15, 1.01180944597549370000e+001) (0, -1.10917452176181130000e+001) (1, 2.04812636951805920000e+000) (2, 6.62380357010140750000e+000) (3, 5.68229629264520380000e-002) (4, -3.41576857824634340000e-002) (5, 1.49883638523756860000e-001) (6, 2.43737773455070350000e+000) (7, -1.46155090516234170000e+000) (8, -1.51994855057313070000e+000) (9, 2.77133414961959650000e-002) (10, 1.93157875086071740000e-001) (11, 6.43411751155988140000e-001) (12, 2.05187032893885980000e-001) (13, 4.32638282291272380000e-001) (14, -1.87557569648481800000e-001) (15, -2.24988207970870620000e+000) (0, -2.13789742295682790000e+000) (1, -2.65423419930597060000e+000) (2, -3.01992073108687010000e+000) (3, 3.20769954722377240000e-001) (4, 2.48415708606767290000e-001) (5, 7.43573097466545760000e-001) (6, -6.80124247285269100000e-001) (7, 8.00666593839465370000e-001) (8, 9.78563828592270420000e-001) (9, -3.16874066670078200000e-003) (10, -4.97985086518335920000e-002) (11, -3.64816570017372010000e-002) (12, 1.70291536269728330000e+000) (13, -1.43515209399387130000e+000) (14, -2.06048909890535730000e+000) (15, 1.18363199162474510000e+000) (0, -3.20063488731342360000e+000) (1, -2.44939323581704280000e-001) (2, -1.84209887111339030000e+000) (3, -3.63393936975275190000e-002) (4, -2.99787137743955690000e-002) (5, -1.56520124378287270000e-001) (6, 3.61129512857248370000e-001) (7, 4.14237236985774750000e-001) (8, 3.70574341083968140000e-001) (9, -5.01308824379782080000e+000) (10, -1.04017536602054690000e-001) (11, -2.14476437314229360000e-001) (12, -2.53489792493090060000e-001) (13, -4.83139140309413960000e-003) (14, 3.15517788593827560000e-001) (15, 4.74005086251234500000e-001) (16, -4.24819376536849920000e-001) (17, -1.68615256382979500000e-001) (18, -1.23145378864284890000e-001) (19, 3.82747757677398240000e+000) (20, 1.18321743576497180000e+000) (0, 4.50875505422733090000e+000) (1, -8.17417851935349660000e+000) (2, -4.39020575452648560000e+000) (3, -3.74768612744030840000e-001) (4, -1.49290372302360220000e-001) (5, -3.18932140317743530000e-001) (6, -1.25102452913003040000e+000) (7, 1.23427373770611020000e+000) (8, 1.81155051885874750000e+000) (9, -2.45747281241756430000e-003) (10, -4.96913882098941870000e+000) (11, 1.35162959410907090000e-001) (12, -7.23399022618093630000e-001) (13, 6.91943324298707530000e-001) (14, 9.17918949730387460000e-001) (15, -4.39492552945724930000e+000) (16, -4.70122566976759070000e+000) (17, 5.85260324832733140000e+000) (18, 1.39054469038105010000e+000) (19, -1.58714466808107350000e+000) (20, 4.69162213221498450000e+000) (0, -9.11389272862186520000e-001) (1, -5.87305563380603600000e+000) (2, -8.91815433834253570000e+000) (3, -4.01967271860876880000e-001) (4, -1.94304894740922830000e-001) (5, -1.99500213246873230000e-001) (6, -2.69415073414853600000e-001) (7, -3.91959522583033020000e-001) (8, 2.31783216018000980000e+000) (9, 2.32958303319747600000e-002) (10, 2.18146519466111800000e-001) (11, -4.26952447864201190000e+000) (12, -6.69216011926600300000e-001) (13, 1.19562405151238500000e+000) (14, 9.08490097320726280000e-001) (15, -2.65767884855880120000e+000) (16, -7.34506838949736720000e+000) (17, 4.22192216673010010000e+000) (18, 1.53225136527551500000e+000) (19, -1.14087882967931570000e+001) (20, 5.52606361740140000000e+000) (0, -1.44581762157755730000e+000) (1, -1.52728550456590200000e-001) (2, -1.49040257237726200000e+000) (3, -6.35579375743786230000e-002) (4, -2.50857741893469290000e-002) (5, -1.07738358618815820000e-001) (6, 2.20593773509716900000e+000) (7, 1.63308173614580670000e-001) (8, 3.40880513974300910000e-001) (9, -8.46038456050733460000e-003) (10, -7.41774083408309470000e-002) (11, -1.41036015693259380000e-001) (12, -5.16592546158207800000e+000) (13, 7.60593682476327780000e-004) (14, 2.14024766049760670000e-001) (15, 2.42471931318949120000e-001) (16, -6.48699623892778220000e-002) (17, 7.85150911093709800000e-002) (18, 2.95097768627458570000e-001) (19, 2.55316985508191020000e+000) (20, 7.85503322359347500000e-001) (0, -6.03854634174094060000e+000) (1, -4.04790435826477780000e+000) (2, 6.04671956924028730000e+000) (3, -5.52686308120352580000e-001) (4, -4.45299325027004450000e-002) (5, 1.07155095383040840000e-001) (6, -9.94665835611036280000e-001) (7, -8.23695590175641090000e-001) (8, -3.35228635889105050000e+000) (9, -4.69678927076167890000e-002) (10, -9.86108786397841410000e-002) (11, -5.53273167648142270000e-001) (12, 3.57260221774532760000e-001) (13, -5.65983305779347830000e+000) (14, -4.91568808552087790000e-001) (15, 2.41705292562596390000e+000) (16, 5.05877081409199560000e+000) (17, -8.07358817127108890000e+000) (18, 5.72482116805792970000e+000) (19, 7.89610123436915680000e+000) (20, -3.14667295958827390000e+000) (0, 6.40652260568194000000e+000) (1, 5.21846291391281030000e-001) (2, 1.58081237354578580000e-002) (3, 1.84934380883139930000e-001) (4, 8.71562015354836460000e-001) (5, -2.44894368236632350000e-001) (6, -3.55329801427858690000e-001) (7, 2.30711916337604160000e-001) (8, -1.13337797720815110000e-001) (9, 1.74410776136157170000e-002) (10, -7.60123633438431100000e-003) (11, -3.06627512789528140000e-002) (12, -4.30382507780841640000e-001) (13, 2.63024781848627760000e-001) (14, -4.47703051684649010000e+000) (15, 6.82194538453733680000e-001) (16, -1.14276323976696180000e+000) (17, -2.26631072889947770000e-001) (18, -2.28064287217736390000e+000) (19, 1.25976897400574290000e+000) (20, 2.50487262405642450000e+000) 
