FANN_FLO_2.1
num_layers=5
learning_rate=0.700000
connection_rate=1.000000
network_type=1
learning_momentum=0.000000
training_algorithm=2
train_error_function=1
train_stop_function=1
cascade_output_change_fraction=0.010000
quickprop_decay=-0.000100
quickprop_mu=1.750000
rprop_increase_factor=1.200000
rprop_decrease_factor=0.500000
rprop_delta_min=0.000000
rprop_delta_max=50.000000
rprop_delta_zero=0.100000
cascade_output_stagnation_epochs=12
cascade_candidate_change_fraction=0.010000
cascade_candidate_stagnation_epochs=12
cascade_max_out_epochs=150
cascade_min_out_epochs=50
cascade_max_cand_epochs=150
cascade_min_cand_epochs=50
cascade_num_candidate_groups=2
bit_fail_limit=1.00000001490116120000e-001
cascade_candidate_limit=1.00000000000000000000e+003
cascade_weight_multiplier=4.00000000000000020000e-001
cascade_activation_functions_count=10
cascade_activation_functions=3 5 7 8 10 11 14 15 16 17 
cascade_activation_steepnesses_count=4
cascade_activation_steepnesses=2.50000000000000000000e-001 5.00000000000000000000e-001 7.50000000000000000000e-001 1.00000000000000000000e+000 
layer_sizes=16 20 20 20 6 
scale_included=0
neurons (num_inputs, activation_function, activation_steepness)=(0, 0, 0.00000000000000000000e+000) (0, 0, 0.00000000000000000000e+000) (0, 0, 0.00000000000000000000e+000) (0, 0, 0.00000000000000000000e+000) (0, 0, 0.00000000000000000000e+000) (0, 0, 0.00000000000000000000e+000) (0, 0, 0.00000000000000000000e+000) (0, 0, 0.00000000000000000000e+000) (0, 0, 0.00000000000000000000e+000) (0, 0, 0.00000000000000000000e+000) (0, 0, 0.00000000000000000000e+000) (0, 0, 0.00000000000000000000e+000) (0, 0, 0.00000000000000000000e+000) (0, 0, 0.00000000000000000000e+000) (0, 0, 0.00000000000000000000e+000) (0, 0, 0.00000000000000000000e+000) (16, 5, 1.00000000000000000000e+000) (16, 5, 1.00000000000000000000e+000) (16, 5, 1.00000000000000000000e+000) (16, 5, 1.00000000000000000000e+000) (16, 5, 1.00000000000000000000e+000) (16, 5, 1.00000000000000000000e+000) (16, 5, 1.00000000000000000000e+000) (16, 5, 1.00000000000000000000e+000) (16, 5, 1.00000000000000000000e+000) (16, 5, 1.00000000000000000000e+000) (16, 5, 1.00000000000000000000e+000) (16, 5, 1.00000000000000000000e+000) (16, 5, 1.00000000000000000000e+000) (16, 5, 1.00000000000000000000e+000) (16, 5, 1.00000000000000000000e+000) (16, 5, 1.00000000000000000000e+000) (16, 5, 1.00000000000000000000e+000) (16, 5, 1.00000000000000000000e+000) (16, 5, 1.00000000000000000000e+000) (16, 5, 1.00000000000000000000e+000) (36, 5, 1.00000000000000000000e+000) (36, 5, 1.00000000000000000000e+000) (36, 5, 1.00000000000000000000e+000) (36, 5, 1.00000000000000000000e+000) (36, 5, 1.00000000000000000000e+000) (36, 5, 1.00000000000000000000e+000) (36, 5, 1.00000000000000000000e+000) (36, 5, 1.00000000000000000000e+000) (36, 5, 1.00000000000000000000e+000) (36, 5, 1.00000000000000000000e+000) (36, 5, 1.00000000000000000000e+000) (36, 5, 1.00000000000000000000e+000) (36, 5, 1.00000000000000000000e+000) (36, 5, 1.00000000000000000000e+000) (36, 5, 1.00000000000000000000e+000) (36, 5, 1.00000000000000000000e+000) (36, 5, 1.00000000000000000000e+000) (36, 5, 1.00000000000000000000e+000) (36, 5, 1.00000000000000000000e+000) (36, 5, 1.00000000000000000000e+000) (56, 5, 1.00000000000000000000e+000) (56, 5, 1.00000000000000000000e+000) (56, 5, 1.00000000000000000000e+000) (56, 5, 1.00000000000000000000e+000) (56, 5, 1.00000000000000000000e+000) (56, 5, 1.00000000000000000000e+000) (56, 5, 1.00000000000000000000e+000) (56, 5, 1.00000000000000000000e+000) (56, 5, 1.00000000000000000000e+000) (56, 5, 1.00000000000000000000e+000) (56, 5, 1.00000000000000000000e+000) (56, 5, 1.00000000000000000000e+000) (56, 5, 1.00000000000000000000e+000) (56, 5, 1.00000000000000000000e+000) (56, 5, 1.00000000000000000000e+000) (56, 5, 1.00000000000000000000e+000) (56, 5, 1.00000000000000000000e+000) (56, 5, 1.00000000000000000000e+000) (56, 5, 1.00000000000000000000e+000) (56, 5, 1.00000000000000000000e+000) (76, 0, 1.00000000000000000000e+000) (76, 0, 1.00000000000000000000e+000) (76, 0, 1.00000000000000000000e+000) (76, 0, 1.00000000000000000000e+000) (76, 0, 1.00000000000000000000e+000) (76, 0, 1.00000000000000000000e+000) 
connections (connected_to_neuron, weight)=(0, 4.89799436170292760000e-001) (1, -6.99862241203334620000e-001) (2, -5.59619634623920500000e-001) (3, 6.54008483383626050000e-001) (4, 1.84687309810485200000e-001) (5, -4.23363893332430190000e-001) (6, 1.16825403489865910000e-001) (7, -5.31597491836918290000e-001) (8, -3.18250847449476700000e-002) (9, 9.60976599203406610000e-001) (10, -1.71711319767367780000e-001) (11, 1.35220243351954900000e-002) (12, 6.37093839084473920000e-001) (13, 2.43798952981452240000e-001) (14, -4.91870044102205530000e-001) (15, -4.61963297484809410000e-001) (0, -1.48621518851319110000e+000) (1, 2.70560443057734410000e-001) (2, 1.49630451235347930000e-001) (3, -1.23653953483136930000e-001) (4, -7.38750531926305580000e-001) (5, 4.34549299939507190000e-001) (6, -9.52145508325672740000e-002) (7, 2.04843885853011110000e-001) (8, 4.38924253809402050000e-003) (9, -2.31295921546392560000e-001) (10, -1.06501362176150530000e-001) (11, -9.91211250815627890000e-002) (12, 8.46767670798792980000e-002) (13, -7.23849886726037230000e-001) (14, 3.38024306018979260000e-001) (15, 9.18423660429059240000e-002) (0, 1.80914854445554690000e-001) (1, 1.49367770455583390000e-001) (2, 2.65836357455631830000e-001) (3, 2.00021935108787920000e-002) (4, 7.29988070479112020000e-002) (5, -2.21104572943888380000e-001) (6, -1.60094490221059930000e-002) (7, 2.96011838445463690000e-001) (8, -3.51414884063761530000e-002) (9, 8.91690052062626280000e-002) (10, -1.89235309785911100000e-001) (11, -4.66002101874986650000e-002) (12, 1.83641171642194930000e-001) (13, -3.65339272175818350000e-002) (14, -2.52675313881074610000e-001) (15, 1.71090919075144260000e-001) (0, 3.82051820446638930000e-001) (1, 1.87663181237777870000e-001) (2, 6.46766147191975280000e-002) (3, -4.91189772961386840000e-002) (4, 2.68424168089723190000e-001) (5, -5.07460545801665660000e-001) (6, 2.38218010457746570000e-001) (7, 2.03684982720664820000e-001) (8, 1.50749322015193750000e-001) (9, 3.52381833551097650000e-001) (10, -4.10053918624679440000e-001) (11, -2.78273519517092670000e-001) (12, 6.81863934280318550000e-001) (13, -3.98244781589352450000e-001) (14, -4.16327706379196640000e-001) (15, 9.96993170305101870000e-002) (0, -4.43511354517637650000e-002) (1, -1.56596333227959770000e-002) (2, -9.06751838882433880000e-002) (3, 6.63502173833068530000e-001) (4, -3.79341483280241920000e-002) (5, 7.04783178075864660000e-001) (6, -3.25436519403010100000e-001) (7, -6.02452933106700010000e-001) (8, 2.26370861628917540000e-001) (9, -3.10689050477133130000e-001) (10, 5.03480045166222690000e-001) (11, 1.43556032352795930000e-001) (12, -1.23788090586977440000e+000) (13, 3.56423959861651430000e-001) (14, -1.58182935260069910000e-001) (15, -1.01555668428527170000e-001) (0, -1.27537954007997280000e-001) (1, 4.52085069895185710000e-001) (2, 1.91819616069164950000e-001) (3, 3.59925217537467480000e-001) (4, 1.13148741055358080000e-001) (5, 3.94174315246520410000e-001) (6, 9.10552080036296620000e-001) (7, 3.78601127677801410000e-001) (8, -5.84142060295102860000e-002) (9, 4.19260426455304200000e-001) (10, 5.88161786107626930000e-001) (11, 4.37879270550683760000e-001) (12, -5.99509002767529390000e-001) (13, 9.39702664172460730000e-001) (14, 1.37344517247671050000e-001) (15, 3.05038508255649040000e-004) (0, -5.80339532297286520000e-001) (1, 4.99088707410872250000e-001) (2, 2.02996533857699030000e-001) (3, -1.32877920143111980000e-001) (4, -2.07278011504026220000e-001) (5, -4.65368696326615370000e-001) (6, 5.32460941954155390000e-001) (7, 4.67125249029941240000e-001) (8, 3.39503524150907120000e-001) (9, -3.01159442210536030000e-001) (10, -1.66934253548251700000e-001) (11, -3.50349251494071810000e-001) (12, -3.65330557077010560000e-001) (13, 7.19119738486772910000e-001) (14, -3.04550512213847890000e-002) (15, 2.22865108489942150000e-001) (0, 7.69906090565226850000e-001) (1, -9.63672314782413770000e-001) (2, 2.68560193476092070000e-002) (3, 8.21879005874546490000e-002) (4, -3.79418217090206620000e-001) (5, 3.07369074106310200000e-001) (6, 1.54807676342993110000e-001) (7, -1.74770153553712310000e-001) (8, 1.67913576617842980000e-001) (9, -1.58106519201609760000e-001) (10, 1.82349929082495890000e-002) (11, -1.13047821464419770000e-001) (12, 2.25306919970416200000e-003) (13, 9.89287070360671960000e-003) (14, 3.50314736169120730000e-001) (15, -6.04461766985462610000e-001) (0, 4.48798135796387830000e-001) (1, 2.72493245040525190000e-001) (2, 2.78866082501483590000e-001) (3, 5.55744096820837140000e-001) (4, 5.65624142746529650000e-002) (5, -1.06782944395434410000e-002) (6, 7.13558633258716550000e-002) (7, 4.14093965459613190000e-001) (8, 3.49314290659928030000e-001) (9, 4.73158545901208870000e-001) (10, 3.65945896622562610000e-001) (11, 2.96885160634125860000e-002) (12, 3.77251065887441620000e-001) (13, 4.60351333955753390000e-001) (14, -6.02591405001572310000e-002) (15, 3.84369844365863190000e-001) (0, 3.09022799045409300000e-001) (1, 1.43297456886096720000e+000) (2, 3.91613432727610180000e-001) (3, 3.55296882571762420000e-002) (4, 1.58875994292386220000e-001) (5, -3.60456453358211250000e-001) (6, 1.68506703982278040000e-001) (7, -3.95462834728649020000e-002) (8, 4.03660592228863690000e-001) (9, -2.34877297356247430000e-001) (10, 3.80552131293351970000e-001) (11, -1.61675723009019140000e-001) (12, -1.06483234288993210000e-001) (13, 1.73662531471994260000e-001) (14, 5.81765170364848210000e-001) (15, -5.49913382159972730000e-003) (0, 1.54095047704800450000e-001) (1, 5.41599352545686360000e-002) (2, 4.35587008874409250000e-002) (3, 4.97567957658335110000e-001) (4, 1.84969925031617470000e-001) (5, 2.51365038290146670000e-001) (6, -2.05856265990475270000e-001) (7, 9.52945687116798780000e-002) (8, -1.95872509190086780000e-001) (9, 1.89604513332706090000e-001) (10, -3.70608522180893920000e-002) (11, -2.12010859066694450000e-001) (12, 1.51184597500478440000e-001) (13, 1.25026642327379140000e-001) (14, 6.96846362938060130000e-001) (15, 5.73891845206534800000e-001) (0, 3.88085994351379860000e-001) (1, 3.21851390349695840000e-001) (2, 1.79709405849723030000e-001) (3, 5.62938277502487040000e-001) (4, 5.73109399763203410000e-001) (5, 6.58450124904449320000e-001) (6, 1.66319907968914550000e-001) (7, 1.76516661279869810000e-001) (8, 1.29012044647490530000e-001) (9, 8.51839507382135540000e-001) (10, 3.73581199049675290000e-001) (11, 4.19636103932164220000e-001) (12, 3.30099331814085020000e-001) (13, 1.83838612159460680000e-001) (14, -7.11776653174797100000e-002) (15, 2.95883490304958250000e-001) (0, 2.39559138840378330000e-001) (1, 2.53749978688290970000e-001) (2, 3.30349092331460310000e-001) (3, 3.54573734573111030000e-001) (4, 1.97637328771235800000e-001) (5, 2.11293565421700000000e-001) (6, 1.74593177603960400000e-001) (7, 2.15780002024701490000e-001) (8, -1.23324930789824760000e-001) (9, 6.18259004059318660000e-001) (10, 5.61629341453390440000e-002) (11, 5.37790691077631670000e-001) (12, 5.38671670597897110000e-001) (13, -1.02056376047371210000e-001) (14, -1.64802803589153970000e-001) (15, 1.62386451807549850000e-001) (0, 1.20570176941099890000e-001) (1, 1.89785482073807830000e-001) (2, 1.55876889270591430000e-001) (3, 1.69315495514063660000e-001) (4, -2.60367688635021970000e-001) (5, -1.56795823270115740000e-001) (6, 8.21279832142871920000e-001) (7, 3.10538884760543250000e-001) (8, 7.06771283245141710000e-001) (9, 5.08928221815974150000e-002) (10, -6.14475596503926410000e-002) (11, -2.31570631342431750000e-001) (12, 2.35785983380995370000e-002) (13, 4.88320387857168860000e-001) (14, 2.27388451625217670000e-001) (15, 2.37418261799329480000e-001) (0, -3.58685295768852770000e-001) (1, 1.24035626149157540000e-001) (2, 1.89559048751342300000e-001) (3, -1.00626797001223210000e+000) (4, -1.88960801666068460000e-001) (5, 2.17273016875882050000e-001) (6, 7.62378309121577450000e-002) (7, 3.79866605225267220000e-001) (8, 4.86315927323858140000e-001) (9, -9.59504888349463130000e-001) (10, 1.78328566179388890000e-001) (11, 6.20730660062995820000e-002) (12, -5.04010570849571460000e-001) (13, -1.46919669485433920000e-001) (14, 5.13619491043699970000e-001) (15, 3.06660363348957020000e-001) (0, 6.72209212555376800000e-001) (1, 3.60909107215870110000e-001) (2, 2.87471694028917700000e-001) (3, -1.06750647474453980000e-001) (4, 3.71780430882647510000e-001) (5, 3.37731385385694970000e-001) (6, 8.26034259254926790000e-001) (7, -1.14387687149283040000e-003) (8, -1.14983613193547370000e-001) (9, 3.33418613249583270000e-001) (10, 1.23042098513366060000e-001) (11, 3.81286299030065390000e-001) (12, -5.97662790268993350000e-002) (13, -6.52712168326093360000e-002) (14, 1.46199060660102330000e-001) (15, -1.63694062731709280000e-001) (0, 4.29733619361798440000e-001) (1, -3.48620266714041890000e-001) (2, -6.34239216985518080000e-002) (3, -5.36188098840966470000e-002) (4, 2.42172912767722760000e-001) (5, -8.94127905272389670000e-002) (6, 3.86185552995587540000e-001) (7, -3.63489970666084910000e-002) (8, -1.71796830233757830000e-001) (9, 3.53141163402214080000e-001) (10, 3.77576669817204720000e-001) (11, 2.54977113576336120000e-001) (12, 2.90854732639568570000e-001) (13, -4.00046644577196080000e-002) (14, -3.64844792270335390000e-001) (15, 3.83550455758206520000e-002) (0, 5.41972764853052900000e-001) (1, 4.46960457064572440000e-002) (2, 3.22830543396321890000e-002) (3, -3.47112681235161310000e-001) (4, 5.60416962344689300000e-001) (5, -1.16592690184100590000e+000) (6, 2.27210447244430760000e-001) (7, 2.42714155522204580000e-002) (8, 1.30272006168138410000e+000) (9, 3.49007859166241050000e-001) (10, 1.22627149848329790000e-001) (11, -1.66196780324769390000e-001) (12, 1.10168025079778120000e-001) (13, 2.04803561353004870000e-001) (14, -3.59860837315091720000e-001) (15, -1.12636230137661460000e-001) (0, 1.04912409931872320000e+000) (1, 3.06450655779119340000e-001) (2, 1.03768827939974870000e-001) (3, 9.58409790922573610000e-002) (4, -2.91676561085439100000e-001) (5, 3.77253623797092710000e-001) (6, 4.49274582763641410000e-001) (7, 2.12102515718217730000e-001) (8, -1.35502488650133220000e-003) (9, -1.64986543026293200000e-001) (10, 1.32027062856094110000e-001) (11, 3.92100619932736270000e-002) (12, -1.30319882209618240000e-001) (13, -4.15042261285185900000e-002) (14, 9.03409151758119310000e-001) (15, 2.54846934126924720000e-001) (0, 3.19395057840879400000e-001) (1, 5.99814218371270140000e-001) (2, 5.50597037814484660000e-001) (3, 3.98679331767731960000e-001) (4, 7.02443207587508670000e-001) (5, -1.37035768515130020000e-001) (6, 3.59128277215683020000e-001) (7, 5.93419305674658840000e-001) (8, 1.21488159641739880000e-001) (9, 4.92008054135936180000e-001) (10, -2.01997841630010080000e-001) (11, 1.11646123070146540000e-001) (12, 2.98808048568212360000e-001) (13, -2.27995370300189650000e-001) (14, -2.54384680623702230000e-001) (15, 8.03050776131318810000e-001) (0, -3.33924622821515010000e-002) (1, -4.89411459331113570000e-001) (2, -3.92941742148067100000e-001) (3, -2.11214754075840870000e-001) (4, -1.95907591795585760000e-001) (5, -1.13583833319459400000e+000) (6, 8.21783702933339270000e-002) (7, -2.51356629547595800000e-001) (8, -2.79103095386936840000e-001) (9, 1.78826886154562630000e-001) (10, -2.35564230116864430000e-002) (11, 7.00948324185317330000e-003) (12, -9.94465734810397320000e-002) (13, 6.14800070265366540000e-001) (14, 1.87279289187411800000e-001) (15, -3.80451417960024850000e-001) (16, -8.78584191557482270000e-002) (17, 5.03611942932945870000e-001) (18, 5.86915844443071650000e-001) (19, 1.06504070163401670000e-001) (20, 9.77916936130634600000e-002) (21, -2.17109240565715840000e-001) (22, 2.09648671583171460000e-001) (23, -6.03732953067555800000e-002) (24, -3.08109180511303040000e-001) (25, 3.03788433955065500000e-001) (26, 1.90942443423933790000e-001) (27, 1.54515672794298070000e-002) (28, -4.41610916669180510000e-001) (29, -5.29405531544864040000e-002) (30, 3.12906596851236450000e-001) (31, -2.55684289682918010000e-001) (32, 3.83437593050380220000e-001) (33, 5.99738542311498810000e-001) (34, -2.98122606223439280000e-001) (35, -2.46593952831454990000e-001) (0, 3.88867035598985720000e-001) (1, 3.70089196340068820000e-001) (2, 3.02579548161253880000e-001) (3, 4.45001901517187880000e-001) (4, 4.76002668714513740000e-001) (5, 5.83255371081907280000e-001) (6, 3.55085295772758990000e-001) (7, 3.61262265209776330000e-001) (8, -6.85905342251566300000e-001) (9, 4.67700181204514400000e-001) (10, -7.70555999270691460000e-002) (11, 2.75176731961634110000e-001) (12, 4.92923190660268910000e-001) (13, -1.05515788507923340000e-003) (14, -4.46093877562392550000e-001) (15, 2.23098226562961350000e-001) (16, 3.64658633677797270000e-001) (17, -1.97682152741508100000e-001) (18, -3.92098858758608450000e-001) (19, 2.33142128713793640000e-001) (20, -1.72703628389439840000e-001) (21, 9.46517950446119360000e-002) (22, -4.82004501255034130000e-001) (23, -1.58356693123739510000e-001) (24, 2.06497501128830830000e-001) (25, -5.50425734156996250000e-001) (26, -5.51499086315059950000e-001) (27, 4.25004009941737430000e-001) (28, -2.28518200544665400000e-001) (29, -1.74245315983108190000e-001) (30, -3.84674364753549100000e-001) (31, -6.77788605424139880000e-001) (32, -4.44104802759188120000e-001) (33, -2.79807168189470310000e-002) (34, 3.84726106557456930000e-001) (35, -4.29953061191232150000e-002) (0, -2.95634793237208650000e-001) (1, 6.81353371900678680000e-001) (2, 7.49833388606611080000e-001) (3, -3.57588073264354590000e-002) (4, -3.77098914420001930000e-001) (5, 5.78240354106552610000e-001) (6, -9.07539326100647910000e-001) (7, 6.40600201052785920000e-001) (8, 7.63422766050604440000e-001) (9, -1.66625093295738690000e-001) (10, 5.90489575415605320000e-001) (11, 4.33828280423921460000e-001) (12, -3.09800672379479060000e-001) (13, 9.60387323818931990000e-002) (14, -1.40484918721223120000e-001) (15, 1.97292343658548270000e-002) (16, 4.20110898885645290000e-001) (17, 2.61911730155939770000e-001) (18, 1.19904504158674400000e-001) (19, -8.36152863437607250000e-002) (20, 1.99328327454056130000e-001) (21, -3.58804076649765990000e-001) (22, 6.92271303394599640000e-001) (23, 1.21054410477210610000e-002) (24, -2.51402415073666250000e-002) (25, 1.05040318841959730000e-001) (26, 6.45965913096729900000e-001) (27, -1.68253173075705730000e-001) (28, 6.64753500154175780000e-001) (29, -1.09071946396869710000e-001) (30, -6.40165402424082150000e-002) (31, 6.67577904737796880000e-001) (32, 4.50175979779858580000e-002) (33, -5.00200834013569960000e-001) (34, -4.96077144638815250000e-001) (35, -1.03173079251179000000e-001) (0, -1.18558734976844410000e-001) (1, 2.62185024994937790000e-001) (2, 2.66472907591982080000e-002) (3, 1.87278517899624320000e-001) (4, 2.59571027789172290000e-001) (5, -2.36465946190855120000e-001) (6, -1.20079369145157450000e-001) (7, 7.92803641348532600000e-002) (8, 2.86863314659617670000e-001) (9, 1.20576144090634040000e+000) (10, 3.42047440848857300000e-001) (11, 2.86014466156317360000e-002) (12, -4.07738044847971770000e-001) (13, -1.79165588503802790000e-001) (14, -1.15965299152491310000e-001) (15, 9.52080773044748500000e-002) (16, 4.49697000728993890000e-003) (17, 3.03024607624472810000e-001) (18, 2.52923410704516290000e-001) (19, 2.65148215596515140000e-001) (20, 7.19206131304215180000e-001) (21, -8.38357293564038490000e-002) (22, 6.52328651778042580000e-002) (23, -1.96756924226250410000e-002) (24, -6.83383874878733670000e-002) (25, 1.90064864601506760000e-001) (26, 2.93057484718319330000e-001) (27, -4.41026472138719710000e-001) (28, -5.05150555117345300000e-001) (29, -7.76543762129307760000e-001) (30, 6.31471431661849940000e-001) (31, -1.37592721124809140000e-001) (32, 7.47856007315694240000e-002) (33, 8.81702345344853920000e-001) (34, -3.80896402840697370000e-001) (35, 4.22916893630247090000e-001) (0, -8.86431558964172360000e-001) (1, -2.42092804024426460000e-001) (2, -2.39259346449170600000e-001) (3, -2.44596457725241470000e-001) (4, -1.06331471796656460000e-001) (5, 5.27486977475284840000e-001) (6, -1.98522198587416040000e-001) (7, -2.08187774727551460000e-001) (8, -6.32824067266438360000e-001) (9, -3.19620027606293270000e-001) (10, -2.40023898287827160000e-001) (11, -2.60803028435863280000e-001) (12, -7.39477692484958870000e-001) (13, 5.42769213667019250000e-001) (14, 4.77564047771797170000e-001) (15, -3.52430737638268880000e-001) (16, -4.83348785041937350000e-001) (17, 1.41854630279864950000e-001) (18, 1.24541784783518860000e-001) (19, -1.80857522707341190000e-003) (20, 2.73181957522048640000e-002) (21, 6.79327887889537680000e-001) (22, 8.34502203094322490000e-002) (23, 1.33170611985832080000e-001) (24, -3.32825710050498490000e-001) (25, -1.26765573830929180000e-001) (26, 3.23174652949477560000e-001) (27, -8.50956541017952480000e-001) (28, 1.22992321634553540000e-002) (29, -2.68988393222383550000e-001) (30, 3.78639711900287170000e-001) (31, -4.20122899401776720000e-001) (32, 2.56995962441715520000e-001) (33, -5.94102275214940630000e-001) (34, -5.57790583030948470000e-002) (35, 1.43638726997521980000e-001) (0, 1.19885031459808240000e-001) (1, 2.66089509349091200000e-001) (2, 1.64703926645895140000e-001) (3, 7.15235061847323880000e-001) (4, 7.31127656598491990000e-001) (5, -6.74046004633210960000e-001) (6, 9.83548882304166870000e-002) (7, 9.57587451148503850000e-002) (8, -7.64233528914939010000e-001) (9, 2.95723882559573380000e-001) (10, -2.23016086054937250000e-001) (11, -7.09708314005042970000e-001) (12, 2.01052385392878670000e-001) (13, 1.58090720814678620000e-001) (14, 2.08793980434289840000e-001) (15, 2.70040663195158850000e-001) (16, 1.41681566177398440000e+000) (17, -1.25562110945788110000e+000) (18, -2.73475068310834460000e-001) (19, 2.36941320687496820000e-001) (20, 3.54136886381495540000e-001) (21, 4.69814939419524240000e-001) (22, 5.53986972140982910000e-001) (23, 1.88464005243904280000e-001) (24, 3.31214655888101340000e-001) (25, -7.58837680214508180000e-002) (26, -2.85903839548007700000e-003) (27, 1.82719517139407460000e-001) (28, 9.71547032267459090000e-002) (29, 4.49078856734159630000e-003) (30, -4.52055872915607120000e-001) (31, -2.68517142252602980000e-001) (32, 4.53660316308234060000e-001) (33, 1.14182468089752600000e-001) (34, 2.18000253405293140000e-001) (35, 2.68972993259151800000e-001) (0, 1.99422718243602250000e-001) (1, 3.27338945820350340000e-001) (2, -4.86986301041572920000e-001) (3, 4.42050277906647530000e-001) (4, 4.59583849012929810000e-001) (5, 6.51857968433052550000e-001) (6, -2.40475935132328510000e-002) (7, -3.87414758072639700000e-001) (8, -7.70980044041042590000e-001) (9, -4.26852627148272320000e-001) (10, 3.22011839106048800000e-001) (11, 1.89109322473990290000e-001) (12, 3.73213201811520910000e-002) (13, 6.53507007602321500000e-001) (14, 2.79621316845018670000e-001) (15, -3.97015591130996940000e-001) (16, -5.49270423213179980000e-001) (17, 2.55732218209256790000e-001) (18, 8.05050927623910400000e-001) (19, 6.70997245586567700000e-001) (20, 3.25330101437452880000e-002) (21, 5.76120767146130590000e-001) (22, 1.96071308891597520000e-001) (23, 1.34400439302511750000e-001) (24, -3.60672977761995190000e-001) (25, 1.58071650503383810000e-001) (26, -1.67904940177260130000e-001) (27, 8.35746127487767660000e-001) (28, 2.73436009825151040000e-001) (29, 4.87168499048363790000e-001) (30, 3.10502999994730740000e-001) (31, 1.04481729233780340000e-001) (32, 2.02568493844238530000e-001) (33, 3.89627780240717090000e-001) (34, 5.92997620867275140000e-001) (35, -3.33297332919567420000e-001) (0, 3.24619517416049050000e-001) (1, 1.18473955629563890000e+000) (2, 3.29396324906897960000e-001) (3, 7.25265325359593200000e-001) (4, -3.30981115996178520000e-001) (5, -3.11001658849361980000e-001) (6, 4.93995844336429790000e-001) (7, 3.38647385614998020000e-001) (8, 1.62417066108701130000e-001) (9, 3.32086789960144570000e-001) (10, 3.31160091968232590000e-001) (11, 5.94755371276437740000e-001) (12, 6.75794558137657990000e-001) (13, -3.85008838656889730000e-001) (14, -6.74968270487726340000e-001) (15, 1.07523620392266460000e+000) (16, 3.06043130274252400000e-001) (17, 8.19057862255567900000e-002) (18, -1.17830265989479380000e-002) (19, 5.38701679617693770000e-001) (20, -1.69685877791583370000e-001) (21, -5.05745188248699520000e-001) (22, 5.66436212324938460000e-001) (23, 5.02349661428955980000e-001) (24, -6.62332856598093490000e-001) (25, -6.28679682691755450000e-001) (26, 3.47551153731030630000e-001) (27, 6.72933293096505680000e-002) (28, 5.69064428227635600000e-002) (29, -1.40961850929334780000e-002) (30, 2.43039604991561160000e-001) (31, -1.82680223574781360000e-001) (32, 6.16183204552681720000e-001) (33, 6.79798329731396760000e-001) (34, 4.31804268373568780000e-001) (35, 2.67828263059878720000e-001) (0, -3.84311970279309740000e-001) (1, -2.62869361113488190000e-001) (2, 3.66283784229174290000e-001) (3, 4.97357508176314470000e-001) (4, 4.08187981712956890000e-001) (5, 3.41339918430088260000e-001) (6, 2.67695255141252380000e-002) (7, 3.50091096813502200000e-001) (8, -4.44605634090094460000e-001) (9, -1.91682783253400910000e-001) (10, 2.82298901595411710000e-001) (11, -4.16922563677577070000e-001) (12, -3.65953686347590960000e-001) (13, -2.15867095799185030000e-001) (14, 7.57551576697153840000e-002) (15, 3.85447549472028580000e-001) (16, 1.01437816265140550000e+000) (17, 7.15526085929681090000e-002) (18, -3.32774780076383500000e-001) (19, -3.45038075714646840000e-001) (20, 3.74945240231075230000e-001) (21, 3.65115249070381180000e-001) (22, -2.25159748759629880000e-001) (23, -2.47938724592765770000e-002) (24, -2.51810625667029940000e-001) (25, -1.83916217302114910000e-001) (26, -4.15539363926174080000e-001) (27, -3.97916809120469730000e-001) (28, -3.00459761812398200000e-001) (29, -9.47706568171866940000e-001) (30, 3.07461518200396190000e-001) (31, -3.90968651710218220000e-001) (32, -8.09246472922524330000e-002) (33, -1.97802760673688880000e-001) (34, 2.42745996995459570000e-001) (35, 2.87904617474476350000e-003) (0, 7.65619411813764920000e-002) (1, -2.40851871370328440000e-002) (2, -7.72748763624770030000e-003) (3, -2.03999618646483390000e-001) (4, 5.40756995212437920000e-001) (5, -7.50313885346603900000e-002) (6, 2.31522175142968110000e-001) (7, -6.95562656585156920000e-002) (8, 7.02832687843956580000e-001) (9, 2.20351992799456030000e-001) (10, -1.56582198190696270000e-001) (11, 9.84096392134048150000e-002) (12, 6.12770028060680820000e-001) (13, -6.72891010631389230000e-001) (14, -8.21882979690243930000e-001) (15, 4.22707710147451070000e-001) (16, 1.03930404427412590000e+000) (17, 8.17523222476344290000e-002) (18, -2.97379738812448220000e-001) (19, 1.63098862829169190000e-001) (20, -1.45602036527743130000e-002) (21, -1.11711245183655050000e-001) (22, -6.23917724369089030000e-002) (23, 3.32685908843076530000e-001) (24, 6.96819083692157730000e-001) (25, 2.45456330503009200000e-002) (26, 4.64814738183436990000e-001) (27, -9.77362423868252120000e-001) (28, 2.43953827458258250000e-001) (29, -6.52189323415730220000e-001) (30, -2.43735364818576470000e-001) (31, -3.90244179836428400000e-003) (32, 1.12291671452697500000e-001) (33, 2.38140401760872280000e-001) (34, 4.43188244776602310000e-002) (35, 2.06166158062457920000e-001) (0, -3.11608875781022030000e-003) (1, -3.54426866680830790000e-001) (2, -2.10152912925025110000e-001) (3, 4.86601300559653500000e-001) (4, 3.70074917835317210000e-001) (5, 3.58739547688334600000e-001) (6, 5.77564284509235360000e-001) (7, -2.77997186471835080000e-001) (8, 2.56895178213684720000e-002) (9, 3.88229482352131840000e-001) (10, -3.71364175679929960000e-001) (11, -8.37607390977172380000e-002) (12, 9.70585486347304240000e-001) (13, -3.48175316641844080000e-002) (14, 2.03196381843631900000e-001) (15, 1.99890238506941850000e-001) (16, 3.93639870521209630000e-001) (17, -5.83527191891209440000e-003) (18, 4.09407882334954230000e-001) (19, -4.67236202261473240000e-003) (20, 3.90892483246929880000e-001) (21, -2.97664207217996700000e-002) (22, 1.01549424626169250000e+000) (23, 5.25648316048903390000e-001) (24, -6.23282036672078490000e-001) (25, 2.88127089753102360000e-001) (26, -2.22793120500897280000e-001) (27, -2.24085548749947460000e-001) (28, -5.62766992208267760000e-001) (29, -6.40507969967160500000e-002) (30, 9.85075392592362990000e-001) (31, -3.09210996601447020000e-001) (32, 4.79939118712113810000e-001) (33, 9.74393706148603430000e-001) (34, 4.72780658022594950000e-001) (35, -1.95045137708975440000e-001) (0, 1.79986903487398430000e-001) (1, -3.39260608842423470000e-002) (2, -1.68592765903250760000e-001) (3, 2.09761203210500210000e-001) (4, 5.54594372040340610000e-002) (5, -4.31725964923776460000e-001) (6, 8.46865746084445870000e-002) (7, -5.80030750823787130000e-003) (8, 3.72809474174820580000e-001) (9, 5.24570276897210340000e-002) (10, 4.43452977610619640000e-001) (11, 2.40163498399269450000e-001) (12, -6.40200298813167340000e-002) (13, 5.63408270460062140000e-001) (14, -1.21219155367895100000e-001) (15, -2.80727879097512350000e-002) (16, -1.35452588711158620000e-001) (17, 1.99619906252028190000e-001) (18, -7.31717750719812630000e-002) (19, 4.76844359357156190000e-001) (20, -4.88899635318449880000e-001) (21, 1.19502848362081400000e-001) (22, -5.58455803711167990000e-001) (23, 1.15620627901001630000e+000) (24, 2.18012631820583560000e-002) (25, -1.41587774933749130000e-001) (26, -5.69920703064526580000e-001) (27, 3.48381101863469100000e-001) (28, 5.53372749795466300000e-002) (29, 8.19277760950545280000e-002) (30, -6.10269418813102260000e-001) (31, 3.47951457029846030000e-001) (32, -1.01069076462248430000e+000) (33, 6.48515888432024900000e-001) (34, 2.09736190903590080000e-001) (35, 3.53205962875692720000e-001) (0, 3.32795280328790910000e-001) (1, 4.78511553732874070000e-001) (2, 2.55121851860263590000e-001) (3, 3.10177440250008710000e-001) (4, -1.64827764569051770000e-001) (5, -8.11329814215385890000e-002) (6, -9.91412220547488730000e-002) (7, 4.57704438801568360000e-001) (8, 5.59504359563405270000e-001) (9, 8.74029528956438430000e-002) (10, 2.07849390832079360000e-002) (11, 3.46382309864167740000e-001) (12, -1.15035453493454590000e-001) (13, -3.20207891850361250000e-001) (14, -5.30466212842287340000e-001) (15, 6.01128847551006710000e-001) (16, 1.38828716078711970000e-001) (17, -3.66218499773952110000e-002) (18, -9.19310694135415520000e-002) (19, 3.61138126756371580000e-001) (20, -1.24289387125737370000e-001) (21, 2.29905528371893570000e-001) (22, 4.04637707608278830000e-001) (23, 8.70147218653637140000e-003) (24, 5.41597892041289050000e-001) (25, -3.22993804864634280000e-002) (26, 7.30110454614795730000e-002) (27, 1.20703728480200750000e-001) (28, -4.63416976085965440000e-001) (29, -1.67894249293177390000e-001) (30, -5.51762841570926300000e-002) (31, -2.50338103705007750000e-001) (32, 3.11603133176553300000e-001) (33, 1.03703166832919330000e-002) (34, 6.03886713139051960000e-001) (35, 1.04540951508283290000e+000) (0, -2.05651333540894240000e-001) (1, 6.50337947181594410000e-002) (2, 1.26848314577374390000e-001) (3, 2.38281850806677910000e-001) (4, 3.66079406252316390000e-001) (5, -5.87684544143331970000e-002) (6, -3.02242080104220380000e-001) (7, 2.03119726257694890000e-001) (8, 4.48713321316859870000e-001) (9, 3.13758943838400360000e-001) (10, 2.80870009420847280000e-001) (11, 1.29512047549644540000e-001) (12, 1.49884397482491020000e-001) (13, 8.20458337952856550000e-002) (14, 1.19156546570408610000e-001) (15, 2.09334593655981750000e-001) (16, -1.90663988360813410000e-002) (17, 2.00647785190548740000e-001) (18, 3.82173379240697550000e-001) (19, 5.76258215930844700000e-001) (20, -1.35405171142245320000e-001) (21, -7.14381564826780390000e-002) (22, 1.87980594957744750000e-001) (23, 6.86138657419067880000e-001) (24, 1.02380716502092420000e+000) (25, -3.20782610493134280000e-001) (26, 8.69589911179377210000e-003) (27, 3.51317437034251110000e-001) (28, 3.49808007564557040000e-001) (29, 2.88852628841393900000e-001) (30, -4.90378035407954720000e-001) (31, 2.56947019031601830000e-001) (32, -6.40002520864949160000e-002) (33, 1.81173144505860390000e-001) (34, -3.46573622720103280000e-001) (35, 3.99794070047268140000e-001) (0, -4.34606248434836310000e-001) (1, 3.45411809088979780000e-001) (2, 3.73042421343122540000e-001) (3, -1.84714684732296660000e-001) (4, -7.28776449371931760000e-002) (5, 5.78660096985922470000e-001) (6, -7.50945372291571540000e-002) (7, 4.37039197518663160000e-001) (8, -1.25681107612275880000e-001) (9, -2.81358217182539340000e-001) (10, -1.32558472044512660000e-002) (11, 2.85893830031451190000e-001) (12, -3.15415208084123490000e-001) (13, 3.22194705878908860000e-001) (14, 2.07611110915415590000e-001) (15, 5.89497306838098410000e-002) (16, 1.93982388778838140000e-001) (17, 1.73195634588421550000e-002) (18, -1.02362869473023850000e-001) (19, -1.06042162426629890000e-001) (20, 6.16130183456546690000e-001) (21, -1.65905978382796280000e-001) (22, 2.72870567892728290000e-001) (23, 2.97584318285079470000e-001) (24, 5.57764678265620370000e-001) (25, 7.33801652930544450000e-001) (26, 4.80916057019401430000e-001) (27, -3.00076050939046620000e-002) (28, 1.42090310257486780000e-001) (29, 1.22345663777640780000e-001) (30, 6.65669534507951350000e-002) (31, 5.13629502015363840000e-001) (32, 3.46273190148059910000e-001) (33, -7.71473801662778350000e-001) (34, -4.71742529277707380000e-001) (35, -1.03455117228289310000e+000) (0, 6.31513319778270190000e-002) (1, 2.84573239982492180000e-001) (2, 3.40447401073279370000e-001) (3, 2.61807694080702920000e-001) (4, -3.06943630685700190000e-001) (5, 6.92620554196321290000e-001) (6, 7.65829723851791930000e-002) (7, 4.64291353071814130000e-001) (8, -1.00873246235390970000e-001) (9, -5.47542870664526340000e-001) (10, 4.56588148861622740000e-001) (11, 3.10268517140177060000e-001) (12, -2.32354167566832190000e-001) (13, 4.98381011389682440000e-001) (14, -1.88095553737633730000e-002) (15, -1.58170813072872200000e-002) (16, -1.50113230624598220000e-002) (17, 4.34733400616374100000e-002) (18, 3.80807328835485850000e-001) (19, 1.84589638987741860000e-001) (20, 4.63425958393176020000e-002) (21, 3.01071671801724560000e-001) (22, 4.06358073610759260000e-001) (23, 5.67110013491438190000e-001) (24, -3.13368712283454910000e-002) (25, 4.48762316723893550000e-001) (26, -1.37721404450883710000e-002) (27, 3.84323009349202440000e-003) (28, 3.45622646332753750000e-001) (29, 6.59008226335270230000e-001) (30, 7.65420108812125740000e-001) (31, -2.74493595295514980000e-001) (32, 3.16808475660187220000e-001) (33, 2.40020702578497720000e-001) (34, -3.39470931787012040000e-001) (35, 3.79797724794111790000e-002) (0, -3.47982566686046440000e-001) (1, 2.90892555145778710000e-002) (2, -9.07886308780107980000e-002) (3, 8.61698346417461150000e-002) (4, -1.23442307801851960000e-001) (5, 1.48411778468527710000e-001) (6, 2.50780769749103350000e-001) (7, 8.11641434769146650000e-003) (8, -3.48792492870488190000e-001) (9, -8.18053594803260230000e-001) (10, -4.39417269106502360000e-001) (11, -1.13954132989803230000e-001) (12, -5.91269390905290630000e-001) (13, -6.66028701514092990000e-001) (14, 2.44780630630433630000e-003) (15, -1.04990017132377900000e-003) (16, 1.40634730708357280000e-001) (17, 2.60541074771492520000e-001) (18, -4.92756540363493890000e-003) (19, -2.67338862028992040000e-001) (20, 5.39150475107999070000e-001) (21, 2.31894816811995060000e-001) (22, -2.94824375228012750000e-001) (23, -5.08019471252203810000e-001) (24, 2.94594182363359380000e-001) (25, 3.35376170742543670000e-001) (26, 2.93667611271754450000e-001) (27, -4.54573566451475450000e-001) (28, 9.34757616549072520000e-001) (29, 1.30205644968298420000e-001) (30, 1.42171528636775540000e-001) (31, 3.23450006649579070000e-001) (32, 4.90614055522490710000e-001) (33, -4.41742185547831070000e-001) (34, -3.56300139951406640000e-001) (35, -3.86653077027104890000e-001) (0, -6.99361726590240540000e-001) (1, 1.54119314929798080000e-001) (2, 3.95065001691648210000e-002) (3, 2.59559763249489040000e-001) (4, 4.84865010465649060000e-002) (5, 8.15493331911070980000e-001) (6, -2.40389925105836680000e-002) (7, 1.33368943592756860000e-001) (8, 3.12375996061019070000e-001) (9, -3.50009771344382270000e-001) (10, 2.52645323636090000000e-002) (11, 3.72219563121549410000e-001) (12, -1.65001872914783770000e-001) (13, 4.12496836498359440000e-001) (14, 5.05412294241692090000e-001) (15, -1.21144570799172870000e-002) (16, 8.06870597736310950000e-002) (17, 1.95447408721304950000e-001) (18, 4.65638102498572360000e-002) (19, 7.55756413645137240000e-002) (20, 4.29567967983371380000e-001) (21, 6.06955104361224450000e-002) (22, 4.61531789033545080000e-001) (23, 7.27782155088604890000e-001) (24, 4.46421324817835380000e-002) (25, -3.96774716353389610000e-002) (26, 5.28332079463527780000e-001) (27, -6.06216995717031250000e-001) (28, 4.39623581879661830000e-001) (29, 1.69815155019504640000e-001) (30, 2.00232313181020890000e-002) (31, 4.76131035041947370000e-001) (32, 3.00328343027840890000e-001) (33, -9.09086469053215080000e-002) (34, -4.06151681706105830000e-001) (35, -6.35123251677495730000e-001) (0, -8.29981902563684540000e-002) (1, -2.03609605119305650000e-001) (2, 9.18561046487237910000e-002) (3, 3.36105354214490530000e-002) (4, -2.49424062277212030000e-001) (5, 8.81137412625704890000e-001) (6, 2.50426686612688020000e-001) (7, 2.82994158982988410000e-001) (8, -3.59855646960074880000e-001) (9, -2.68399295800746280000e-001) (10, 2.79007190806928980000e-001) (11, 5.78645673489934720000e-002) (12, -2.14725641513775990000e-001) (13, -1.69735622152428240000e-001) (14, 2.62280498704180080000e-001) (15, 2.06597959842275970000e-001) (16, 1.97999246531979530000e-001) (17, 5.50006265601598150000e-001) (18, -4.10987795529008490000e-001) (19, 6.69434784837330820000e-002) (20, 2.96978902066275530000e-001) (21, -1.12791067087646440000e-001) (22, 3.08895783255150160000e-001) (23, 4.77575322556094310000e-001) (24, -3.16767670662923380000e-001) (25, -4.87598713012007520000e-001) (26, 1.26455442483852650000e-001) (27, -2.95009520323567310000e-001) (28, 1.89748210265245660000e-001) (29, -4.74886869122717830000e-001) (30, 5.40398575416606630000e-001) (31, -5.30131990316152990000e-001) (32, 1.95424805547278340000e-001) (33, -3.27344757942355680000e-001) (34, -1.45926674271552980000e-001) (35, -7.37458278979247090000e-001) (0, -1.53317829129897860000e-001) (1, -1.62862248707548010000e-001) (2, -3.66964845158622770000e-001) (3, 1.91451806566721530000e-001) (4, -3.24719058918900360000e-002) (5, -4.36818488574833640000e-002) (6, 5.51338781357757710000e-001) (7, -1.38362735498681890000e-001) (8, 3.17616371971921220000e-001) (9, -3.60474917798346080000e-002) (10, 2.48722506800897500000e-001) (11, -1.29031501199846940000e-001) (12, -1.10316443268582700000e+000) (13, 5.19722455131801380000e-001) (14, 7.91969848250149040000e-001) (15, -1.33200064189584540000e-002) (16, -5.56191469336080100000e-001) (17, 4.55193954041399560000e-001) (18, 8.44553059419322240000e-001) (19, 8.49569886056153610000e-002) (20, 8.39108687170624230000e-002) (21, -1.13489427056319490000e-001) (22, 1.42074468205200140000e-001) (23, 2.56949876685966140000e-001) (24, -5.23554703987843400000e-002) (25, 3.15169408914863280000e-001) (26, 2.57187143854249400000e-001) (27, -9.14961081917912280000e-002) (28, 3.88189284779097200000e-001) (29, 1.33048956052702030000e-001) (30, 5.48255015614562470000e-001) (31, -2.89094418542208130000e-001) (32, 2.42370789189082280000e-001) (33, 1.18669413232600190000e-001) (34, -1.44744889306478520000e-001) (35, -2.49681823817014430000e-001) (0, 4.89722169708145800000e-001) (1, 2.76018990704180510000e-001) (2, 3.51783245947840830000e-001) (3, 7.89057587947464420000e-002) (4, 5.34530088457764940000e-002) (5, -8.05392853756565890000e-001) (6, -4.92892666267433570000e-002) (7, 2.38105271157506180000e-001) (8, 1.11779380135127250000e-001) (9, 6.54766387181337640000e-002) (10, 7.48459476748685290000e-001) (11, -1.09919641847358330000e-001) (12, 9.13379206080921210000e-002) (13, -4.38571723335650710000e-002) (14, 2.57292196636267620000e-003) (15, 3.49940951252238510000e-001) (16, 5.24339033591687200000e-002) (17, 3.44954717213160290000e-001) (18, -3.32910178601350180000e-002) (19, 5.22080681867636450000e-001) (20, -1.43586077880268170000e-001) (21, 2.81714672727661990000e-001) (22, -1.46703549281390540000e-001) (23, -3.45180319738516040000e-001) (24, 4.17979180747205530000e-001) (25, -5.40145167142246030000e-001) (26, -6.24936027389672690000e-001) (27, -1.35902763432371560000e-001) (28, 4.34490973987275340000e-003) (29, -1.17585081263026970000e-001) (30, 2.36227171759823470000e-001) (31, -2.13301754712369420000e-001) (32, -7.57813081762516050000e-001) (33, 3.57113675575634060000e-001) (34, 6.21268817443339730000e-001) (35, 8.29181950067114260000e-001) (36, -1.51191728029426850000e-001) (37, -4.21048006066272740000e-001) (38, 2.02593697735430430000e-001) (39, -5.46289921067259600000e-001) (40, -1.89954092166700260000e-001) (41, -2.10900246338058090000e-001) (42, 4.50694086801918860000e-001) (43, -4.23727284313680440000e-002) (44, -7.33987087767390190000e-001) (45, -2.93515369216319820000e-001) (46, 1.15141889379569430000e-001) (47, -2.86074214785166090000e-001) (48, 1.35595545422524890000e-001) (49, -2.24490309598880970000e-001) (50, -5.39647154008658040000e-001) (51, 2.13258469694769110000e-001) (52, 6.17774075510451400000e-002) (53, 6.99155420493491330000e-001) (54, -1.68409518823146780000e-001) (55, -3.61119992097631020000e-002) (0, -4.26232343037296010000e-001) (1, 5.85339560133722460000e-001) (2, 6.06768612799826860000e-001) (3, -8.04716714212463240000e-002) (4, 1.74018255256478430000e-001) (5, 2.75623066688065080000e-001) (6, -1.26894351971363560000e-001) (7, 6.99642783482715800000e-001) (8, 1.95208895329755800000e-001) (9, -5.28185384428538240000e-001) (10, -1.55525489125302560000e-001) (11, 2.65036737514832370000e-001) (12, -3.86958230780297900000e-001) (13, -1.04871345882895570000e+000) (14, -2.14363512119281010000e-001) (15, 6.45381112551758900000e-001) (16, -2.17966520887549500000e-001) (17, 1.77120987635126580000e-002) (18, -3.56056137779521660000e-001) (19, 2.37745652184606550000e-001) (20, -2.61598113928876500000e-001) (21, -7.51100710303097830000e-002) (22, -1.44773120421004290000e-001) (23, -2.52506425028366570000e-001) (24, 2.09368880346932320000e-001) (25, -1.13755852919192570000e-001) (26, 4.76746272680278800000e-001) (27, 3.39101015285573900000e-001) (28, 2.32128891602673440000e-001) (29, -1.37625041786743930000e-003) (30, 4.44594064290380840000e-001) (31, 5.69674606248189330000e-001) (32, -4.82549237172999800000e-001) (33, -7.10461025940197220000e-001) (34, -3.08325495365958100000e-001) (35, 3.52937697128377860000e-001) (36, 5.84956069711685340000e-001) (37, 4.86626643193824150000e-001) (38, -6.02830183330037350000e-001) (39, 1.42115159020827410000e-001) (40, 4.06728228461961330000e-001) (41, -4.99497654631271880000e-001) (42, -4.01456902691913480000e-001) (43, -1.18555184863348100000e-001) (44, 4.42506030352192880000e-001) (45, -5.41046865390473750000e-001) (46, 4.29712665901119450000e-001) (47, -4.00681452780745570000e-001) (48, -2.01441215261303010000e-001) (49, 2.45680456028104430000e-001) (50, 4.81751870243033510000e-001) (51, 6.46447865543530400000e-001) (52, -4.28624511945306370000e-001) (53, -4.04898605240145590000e-001) (54, 2.77181203039364550000e-001) (55, 9.86802843386268970000e-002) (0, -3.20090694388922460000e-001) (1, 5.08809915409669580000e-001) (2, 6.29024250225158840000e-001) (3, -1.48984712168850590000e-001) (4, 8.53846130184468530000e-003) (5, -2.02340087772472990000e-002) (6, -1.24261697726528020000e-001) (7, 6.16318882374128570000e-001) (8, 2.73104805270926510000e-001) (9, -2.51979545380615950000e-001) (10, -3.10473210929166350000e-001) (11, 1.45414447808188100000e-001) (12, 1.70504786293711770000e-001) (13, 4.87389315348077220000e-001) (14, -1.16511199472998760000e-001) (15, 6.30564833874653120000e-001) (16, 1.45549848673152270000e-001) (17, 7.62545354459583710000e-001) (18, 2.13655127957231210000e-001) (19, -3.89818244450136770000e-002) (20, -2.78415436068145010000e-001) (21, -1.54265205223935750000e-001) (22, -4.04096423142220720000e-001) (23, -5.80611697476853150000e-001) (24, 4.60245565050228400000e-001) (25, 4.95057927578729310000e-002) (26, 3.03360814302581330000e-001) (27, 1.54566951365867010000e-001) (28, 3.64678043978464320000e-001) (29, 7.71423303192704020000e-001) (30, -1.09375544648362310000e-002) (31, 2.53090223952955880000e-001) (32, -2.03388872005598500000e-002) (33, -1.00258155179726060000e-001) (34, -6.11800091999075980000e-002) (35, 4.01388114693209010000e-001) (36, 3.34372709034910790000e-003) (37, 1.68489290419633540000e-001) (38, 1.22006501288860470000e-001) (39, 4.57621270464380840000e-001) (40, 5.58788994954475540000e-001) (41, 6.05563584218349220000e-001) (42, -3.08546344511987590000e-001) (43, -1.36856673525526890000e-002) (44, 2.70849807784692140000e-001) (45, -2.65094135927231020000e-002) (46, 3.49179337939201530000e-001) (47, -5.46574835834804370000e-002) (48, 6.74780467751070150000e-001) (49, 4.40098503761083340000e-001) (50, 3.66401094579580310000e-001) (51, 3.31558922582188780000e-001) (52, 5.41589861530774260000e-001) (53, -9.00362902177650750000e-002) (54, 5.60194871405905180000e-001) (55, -7.56832017488433540000e-002) (0, 9.61923670319358210000e-001) (1, 7.28447634475173130000e-001) (2, 6.51070419775745530000e-001) (3, 2.18580699554938610000e-001) (4, 7.76791333806174930000e-001) (5, 5.29786145656686580000e-001) (6, 5.25500409167383050000e-001) (7, 6.85793321656486650000e-001) (8, -2.96274896825409810000e-001) (9, 5.14545556685958140000e-001) (10, 8.17164090096034610000e-002) (11, 2.18029738843372870000e-001) (12, 7.43213543029489810000e-005) (13, 3.26822148853124660000e-001) (14, 5.53910501460034840000e-001) (15, 7.31423202978870310000e-001) (16, 5.03138341805278170000e-001) (17, -1.39260121564052870000e-001) (18, -2.77184963121603400000e-001) (19, 2.40082769409342090000e-001) (20, 8.41449265005554840000e-001) (21, 7.00708544747866370000e-001) (22, 6.99534438758028680000e-001) (23, 5.16917362461325800000e-001) (24, 5.21381661339625600000e-001) (25, 1.16602688920637710000e-001) (26, -2.15960154110593550000e-001) (27, 5.44878147084785440000e-001) (28, -5.09887884991671520000e-002) (29, -1.32532012222794860000e-002) (30, 1.99164560737729780000e-001) (31, -2.33842406476841870000e-001) (32, 5.26214512553877520000e-001) (33, -1.97856046955328960000e-001) (34, 5.56990819649211600000e-001) (35, 3.46501080102206820000e-001) (36, 2.19504852778107190000e-001) (37, 6.20173453607736460000e-001) (38, -1.88300645888510950000e-001) (39, -5.51887158994563280000e-002) (40, -4.28059996749334260000e-001) (41, -3.57112047879332780000e-002) (42, -1.37722001208443440000e-001) (43, 7.73100687422000440000e-001) (44, -2.65870655911225720000e-001) (45, 2.92795809513943020000e-001) (46, 2.88986269044134100000e-001) (47, 8.61041497495477980000e-001) (48, -3.95625525667311700000e-002) (49, -1.05223145321470550000e+000) (50, -6.43650596881087390000e-002) (51, 8.14190283579290660000e-002) (52, -3.93335038749427660000e-001) (53, 4.04082721961420590000e-001) (54, -1.65590477090957510000e-001) (55, 2.64369513986582150000e-001) (0, 7.97990588568921190000e-002) (1, 1.06812495474695980000e-001) (2, 2.26309235949655190000e-002) (3, 8.78646184019946370000e-002) (4, 7.24273113378873230000e-002) (5, -6.61187224541388670000e-001) (6, 1.14057181383366760000e-001) (7, 9.42264342424391080000e-002) (8, 1.67483929776929750000e-001) (9, -9.09518201597629000000e-002) (10, 2.39556379045722870000e-002) (11, 3.83299823957851570000e-003) (12, 4.42801375821708480000e-001) (13, -2.00359741715580050000e-001) (14, 1.66455358743114290000e-001) (15, 1.83911191576544340000e-001) (16, 1.40863195323511440000e-001) (17, 2.02966620181184250000e-001) (18, 1.35962382317409260000e-001) (19, 7.58100660282384100000e-001) (20, -2.42094978738755270000e-001) (21, 6.18501087451789750000e-002) (22, -1.04001992796555430000e-001) (23, -9.23163301476943310000e-002) (24, 1.22350438682969640000e-001) (25, 3.11953236469478870000e-001) (26, -5.27734550923707580000e-001) (27, 1.08886856398520980000e-001) (28, 1.45348488538201980000e-001) (29, 2.30277156049139410000e+000) (30, 4.66263558595400970000e-001) (31, 1.95962142352578280000e-001) (32, -3.66202566133730420000e-001) (33, 6.57407545659757010000e-001) (34, 4.38513760672574640000e-001) (35, -7.58895570350324590000e-002) (36, 1.05158185573158660000e+000) (37, 4.54960382557842440000e-001) (38, 7.39134307320893360000e-002) (39, 2.08377768693895350000e-002) (40, 7.44443217044965110000e-002) (41, -8.92235638595789970000e-002) (42, 1.51319914173702520000e-001) (43, -2.30893623469217770000e-001) (44, -1.21413809465516960000e+000) (45, -1.06718741266642630000e-001) (46, 7.81148942128179310000e-001) (47, 1.05831239781349620000e-001) (48, 1.24465287787626600000e-001) (49, -2.49413339754541550000e-001) (50, 4.74214232980050140000e-002) (51, 3.71676926391481640000e-001) (52, -2.07459368168727250000e-002) (53, 7.10043204533366450000e-001) (54, 9.37315919394495450000e-003) (55, 8.72239450558713440000e-001) (0, 3.73670695693457120000e-001) (1, 7.45751944754318440000e-002) (2, -1.39091439484136660000e-001) (3, 1.21915999082318980000e-001) (4, 2.76067407185171590000e-001) (5, 3.09773549330502430000e-003) (6, 6.67151470816483850000e-002) (7, -1.09062042591733120000e-001) (8, -4.60830997981978140000e-003) (9, 7.27371710803720320000e-001) (10, -1.46958728506303290000e-001) (11, 3.74671796894032290000e-001) (12, 5.67417331628020770000e-001) (13, 5.10341839034645220000e-002) (14, 3.87775875604736860000e-001) (15, -1.98716585097474200000e-001) (16, 3.56483605017202440000e-001) (17, 4.61836417763082870000e-001) (18, 6.67699777996997980000e-001) (19, 2.11569160900037990000e-001) (20, 3.26684156653509360000e-001) (21, 8.48035572413780860000e-002) (22, 1.54954723409714030000e+000) (23, 4.50852667483570670000e-001) (24, -1.49473912017662190000e-001) (25, 3.16263564245309330000e-001) (26, 7.11191465928102120000e-001) (27, 2.43201111343853280000e-001) (28, 5.32275400637842870000e-002) (29, -1.84576584628459240000e-001) (30, 8.54049239790846130000e-001) (31, -2.54732456737857440000e-001) (32, 5.01614916350363700000e-001) (33, 2.29913646261678710000e-001) (34, 5.51135128961695700000e-001) (35, -1.68920362289955230000e-002) (36, 1.31500293192135660000e-001) (37, -6.69797749899425750000e-001) (38, 8.70597920721156600000e-001) (39, -6.08186478441316570000e-002) (40, 1.27302745370760010000e+000) (41, 7.16182271037682840000e-001) (42, -2.11102558323871840000e-001) (43, 4.26502999668472100000e-001) (44, 3.80381950118793670000e-001) (45, 1.17305012710691030000e+000) (46, -1.50356695464397530000e-001) (47, 7.53765560639802600000e-001) (48, -3.48053723653397390000e-002) (49, 6.46919022154960330000e-001) (50, 1.05621633734586770000e+000) (51, -4.86485413839515410000e-002) (52, 1.00082921096084100000e+000) (53, 1.04427758947164650000e+000) (54, 1.29399314990517880000e-001) (55, 7.91709831048227760000e-002) (0, -9.51132645307389560000e-002) (1, 1.32522587377500170000e-001) (2, 3.29238829993677930000e-001) (3, -4.39709028491065000000e-002) (4, -1.29180564830798340000e-002) (5, 9.60554333398413450000e-002) (6, 4.94386767322638310000e-001) (7, 1.64513341015217060000e-001) (8, 9.12400886332063180000e-001) (9, 1.51183384923822190000e-001) (10, 3.34245479113025550000e-001) (11, -3.35472282520738950000e-002) (12, 2.39231337565260130000e-001) (13, 2.52790279381758690000e-001) (14, 5.97858594740943050000e-001) (15, 5.13053302224848120000e-002) (16, 3.09820616541345790000e-001) (17, 2.84944867873314470000e-001) (18, 5.48886410464537120000e-001) (19, 2.07201056747247060000e-001) (20, 1.88044521243692810000e-001) (21, 9.36733635825517830000e-001) (22, 1.83452784029755650000e-001) (23, -7.35250125761055940000e-002) (24, -2.99457529992857520000e-001) (25, 7.48647318643907770000e-001) (26, 8.28906812841870510000e-001) (27, -2.07645263350212880000e-001) (28, 1.73379926266716690000e-001) (29, -1.81042017463637160000e-001) (30, 1.80764380459368050000e-001) (31, 2.02132858758495600000e-001) (32, 3.13819008526700690000e-001) (33, 4.57000129258706810000e-001) (34, -3.85401323239721430000e-001) (35, -3.09092642529240020000e-003) (36, 2.29182561868599060000e-001) (37, 7.78619921323141280000e-001) (38, -5.29880425237303610000e-001) (39, 4.62295191321729710000e-002) (40, 9.97840537464102510000e-002) (41, 3.79462389471125430000e-001) (42, 6.37324098993658910000e-002) (43, 6.14109845062805190000e-001) (44, 3.80953726141510070000e-001) (45, 5.30595095195659730000e-001) (46, 5.96402255163182130000e-001) (47, 9.88150736714381250000e-001) (48, 1.75958668447204380000e+000) (49, 1.27818399468882430000e+000) (50, 6.85973980428452030000e-001) (51, -2.58660401376911760000e-001) (52, -4.32946454095043400000e-002) (53, -5.72442299240297880000e-001) (54, 1.22528333610064970000e+000) (55, 1.58413675416851580000e+000) (0, 3.20999984588831670000e-001) (1, 8.49074460498203120000e-002) (2, 7.67287969037113300000e-002) (3, 2.52065366457253910000e-001) (4, 5.88676538059128900000e-001) (5, 2.77397102974905720000e-001) (6, 8.39929014321695030000e-002) (7, 2.29835493807416910000e-001) (8, -9.73948586900358680000e-001) (9, 3.89725846769468250000e-001) (10, 4.20690556859108220000e-001) (11, 4.66018922930417080000e-001) (12, 8.03209998643893530000e-001) (13, -2.81210763947113640000e-001) (14, 6.29426673099592100000e-001) (15, 1.32447792534452460000e-001) (16, 1.26113225999594710000e-001) (17, -7.16799392790345160000e-002) (18, 2.08224798732231380000e-001) (19, 8.01394685442930240000e-001) (20, -3.37732886320479820000e-001) (21, 1.94638638182597630000e-001) (22, -1.90538084722566420000e-002) (23, 1.72859978138134420000e-001) (24, 5.35979812638956780000e-001) (25, -5.92511247866066150000e-002) (26, -9.18010620732116030000e-001) (27, 5.27403773853768240000e-001) (28, -4.53035323893138550000e-001) (29, 4.75932865042159370000e-001) (30, 4.48478368796036530000e-001) (31, -4.44125870079254640000e-001) (32, 2.50033212760843230000e-001) (33, 1.83224727762722160000e+000) (34, 5.03193016424066890000e-001) (35, 6.52033626956641130000e-001) (36, 1.07228208690125280000e-001) (37, 7.13252859013889100000e-002) (38, -3.82144396023954840000e-001) (39, -1.67657124283959960000e-001) (40, -4.66796002135196670000e-001) (41, -6.12597026775696730000e-002) (42, 6.45027777760945440000e-001) (43, 8.21080373562190990000e-001) (44, -1.04418055784391850000e+000) (45, 2.56057038812328600000e-003) (46, 5.22263362233844060000e-001) (47, 4.24007483430226590000e-001) (48, 5.66847308624570560000e-001) (49, -3.64910820791509600000e-001) (50, -1.32377619366065110000e+000) (51, -3.82733034275908270000e-003) (52, 1.80783734712700390000e-002) (53, 2.99935524885580560000e-001) (54, -5.86523982216890060000e-001) (55, 6.92334568466227540000e-001) (0, 6.11606477134457930000e-001) (1, -2.26870510198120410000e-001) (2, 7.39918662772964250000e-001) (3, -7.56175164970493140000e-002) (4, 3.70498373811444180000e-001) (5, 1.92827634587846210000e-001) (6, 6.54999661058875970000e-001) (7, -2.57328801331043300000e-001) (8, -3.91291074825072640000e-001) (9, 1.03360239835628100000e+000) (10, -9.50521938766014650000e-002) (11, -2.38310807777600410000e-001) (12, 3.43252463944637380000e-001) (13, 4.26962585079165350000e-001) (14, 3.28304167423995210000e-001) (15, 2.28457349792941470000e-001) (16, 4.30666250125471490000e-001) (17, -7.98367055725119900000e-001) (18, 3.15405664565433850000e-002) (19, 1.93754318154911260000e-001) (20, 7.14624275067874740000e-001) (21, 9.34595036448281350000e-001) (22, 2.44470025145300950000e-001) (23, 8.19570792801222470000e-001) (24, -4.07059890612748930000e-002) (25, 1.96074108564645050000e-001) (26, -5.73382780530690360000e-001) (27, 1.26226401460541730000e-001) (28, -1.34778279862657860000e-001) (29, 1.02206887606773380000e-001) (30, 6.89265815163324860000e-001) (31, 3.25219619139817230000e-001) (32, 3.17458688929537320000e-001) (33, -3.57553874209529050000e-001) (34, 5.19508799956776230000e-001) (35, 2.43273945003037060000e-001) (36, 2.71750304118409780000e-001) (37, 5.57493265203594430000e-001) (38, -2.24500342044959080000e-001) (39, -1.69983677126056080000e-001) (40, -7.60752344754143330000e-001) (41, 2.85823690259672910000e-001) (42, 9.18849901502071130000e-001) (43, 1.36857897538661760000e-001) (44, -1.94126449105929160000e-001) (45, 3.65492162524550320000e-002) (46, 9.48770793611624780000e-002) (47, 6.96501040061022870000e-001) (48, 1.29555913722920120000e+000) (49, -1.56598821624295000000e-001) (50, 4.59740628354854960000e-001) (51, 5.84399593627925370000e-001) (52, 1.11502502277998270000e-001) (53, 4.35035293713298900000e-002) (54, -6.76907841355220310000e-001) (55, 7.85128300394600350000e-001) (0, 1.51906287516359040000e-002) (1, -7.87278815385523130000e-002) (2, -4.51842645384606280000e-001) (3, 8.62252041949322370000e-002) (4, 6.06960208381309710000e-001) (5, 4.48996740685028150000e-002) (6, -3.47712607466950540000e-001) (7, 1.25288395930817570000e-002) (8, 1.30794621803532800000e-001) (9, 1.48150853025295240000e-001) (10, 3.57205580014399230000e-001) (11, 1.35582857520593710000e-001) (12, 1.06068403387411870000e-001) (13, 5.22781078180166520000e-002) (14, -2.51071689661416020000e-001) (15, -1.05135195803737660000e-001) (16, 2.14845688237430530000e-001) (17, 1.65039235711464010000e-001) (18, -4.15161717594810630000e-001) (19, 4.67912543188497070000e-001) (20, -1.92206951958841020000e-001) (21, 1.92636320900700380000e-001) (22, -8.09592940999181440000e-001) (23, 3.24035355805827210000e-001) (24, 1.78765515663706160000e-001) (25, 3.59037131124923590000e-002) (26, -3.20103443336625990000e-001) (27, 7.53457060067588420000e-002) (28, -1.06692227539203460000e-001) (29, 7.40815297775162970000e-001) (30, -1.98833294987986880000e-001) (31, 7.09579091941901770000e-003) (32, -3.18742980164908150000e-001) (33, 3.97339832627194970000e-001) (34, 3.97938223438916660000e-001) (35, 5.98950147405326260000e-001) (36, 6.22596904400665840000e-001) (37, 4.32579680012713690000e-001) (38, -1.44666504582621060000e-001) (39, 2.64716473844532120000e-001) (40, -1.27373318743522420000e-001) (41, -2.12054372846110560000e-001) (42, 8.02085151743867490000e-002) (43, -1.18319198806378840000e-001) (44, -7.92668157436061600000e-003) (45, -2.10540583676811000000e-001) (46, 7.91668873492838650000e-001) (47, -2.79102248069757030000e-001) (48, -7.06531667208707970000e-001) (49, -8.93958185568265670000e-001) (50, -2.56813713574111540000e-001) (51, 1.71147692040439230000e-001) (52, -8.25970153871797600000e-003) (53, 6.53827716328173940000e-001) (54, 6.36114604028828470000e-001) (55, 5.59181320257129850000e-001) (0, -1.38101508477699840000e-001) (1, 1.22017672516764500000e-001) (2, 1.81340962968915910000e-001) (3, -3.05996690543666520000e-001) (4, -6.07113651631838950000e-001) (5, -1.42847731135629350000e-001) (6, -3.09769703496070250000e-001) (7, 1.24473909110870950000e-001) (8, -1.01393734969020750000e-001) (9, -2.67804775423495650000e-002) (10, -4.11076967822488590000e-001) (11, 1.28977789055930460000e-001) (12, 2.19924769173434520000e-002) (13, 4.77780947288673900000e-002) (14, 3.37653873018254720000e-001) (15, 1.41547311431090170000e-001) (16, 1.96148453559506660000e-001) (17, 1.98243321388073460000e-001) (18, 3.74492606026368410000e-001) (19, -3.64966856008826720000e-001) (20, 6.42132499496688050000e-001) (21, -9.31124557563220430000e-001) (22, 8.08039229310308470000e-001) (23, 2.74010359558450430000e-001) (24, -9.42844918849408410000e-002) (25, 3.31414207114492650000e-001) (26, 5.92791062939478140000e-001) (27, -4.39456317423554070000e-001) (28, 7.48145638059478980000e-001) (29, -1.21117213747608500000e-001) (30, 6.36501843050073510000e-002) (31, 7.44901848260532520000e-001) (32, 6.82745357145883140000e-001) (33, 2.05987855006511430000e-001) (34, -3.67638377325016140000e-001) (35, 1.99205880275595350000e-001) (36, -5.67449015496023110000e-001) (37, -5.99811138252793200000e-002) (38, -9.17699759874806120000e-001) (39, 6.43278116933667650000e-002) (40, 4.30354774454522360000e-001) (41, 1.23312930351977020000e-001) (42, -1.06571594601928300000e-001) (43, 2.60252249793526290000e-001) (44, 4.43234735436125740000e-001) (45, 3.15634815113957580000e-001) (46, -8.79347291950368090000e-002) (47, 3.42538605649392150000e-001) (48, 5.44506212465533100000e-001) (49, 6.79073964068126920000e-001) (50, 9.97783359021006900000e-001) (51, -2.52316091508925920000e-001) (52, 4.20543680808039610000e-001) (53, -3.87616615936745730000e-001) (54, 4.11953239210132940000e-001) (55, -7.05076999486611620000e-001) (0, 1.28483379826986450000e+000) (1, -1.32660023113928830000e-001) (2, -2.52003419342155310000e-001) (3, 1.64504976038304630000e-001) (4, 9.43516684192923780000e-001) (5, 1.93650327687633850000e-001) (6, 1.55316450760243140000e+000) (7, -2.17041715422024690000e-001) (8, 7.03640369635488430000e-002) (9, -1.22445691463642200000e-001) (10, 1.56893847495249840000e-001) (11, 2.60753072390588760000e-001) (12, -6.29418814147874590000e-002) (13, 5.80678372231116030000e-002) (14, 5.00809327675055820000e-001) (15, -9.38287879748601890000e-002) (16, -9.63811832485661210000e-002) (17, -1.34961709543626070000e-001) (18, 8.71364361860438750000e-001) (19, -6.00311925412948670000e-002) (20, 3.78908743131843420000e-001) (21, 1.55471810750499290000e-001) (22, -3.86502902035273150000e-001) (23, -2.22440353992975990000e-001) (24, -3.60811906738769730000e-001) (25, 1.85355089661955050000e-002) (26, 3.57576685153568440000e-001) (27, 1.04002595043833470000e-001) (28, 4.70774083481648340000e-001) (29, 8.31333425411055260000e-001) (30, 5.11671163486546070000e-001) (31, 4.02079850759740510000e-001) (32, -2.10831744653275420000e-001) (33, 2.61242034506640190000e-001) (34, 6.80413334888440020000e-002) (35, -4.72106886768823620000e-001) (36, 7.52410470427234750000e-001) (37, -7.66587597582152200000e-002) (38, 7.99086245076926380000e-001) (39, 2.79816951147093820000e-001) (40, 1.12792824671061220000e+000) (41, 3.79608829905977390000e-001) (42, 1.48032601851123680000e+000) (43, 7.77608001385296840000e-001) (44, 3.25417526978937000000e-001) (45, 4.86098174609012950000e-001) (46, 8.11296525653106700000e-002) (47, 3.08218848486475180000e-001) (48, -2.55669905778155630000e-001) (49, 8.31684895052597240000e-001) (50, 4.51573810624563530000e-001) (51, 4.66394224438588730000e-003) (52, 9.18524560524237810000e-001) (53, 7.30095974671360230000e-001) (54, 1.15542028610203970000e+000) (55, -1.73248892387273290000e-002) (0, -6.78082529938506150000e-001) (1, -1.92152930481890860000e-001) (2, -1.89601158861591620000e-001) (3, 1.17263775934515480000e-001) (4, -1.93720617875383220000e-001) (5, 3.48003138934772360000e-001) (6, 1.27239309730312670000e-001) (7, -1.48042326931431100000e-001) (8, 6.20287406366115350000e-001) (9, 1.31108284664542500000e-001) (10, 6.05140865695025560000e-001) (11, 1.75978781468020900000e-001) (12, -7.85119483719976090000e-001) (13, -5.53449736624196390000e-002) (14, 2.19114790749233930000e-001) (15, -5.25777321891586140000e-002) (16, 7.95960071250210320000e-002) (17, 3.70910601753117460000e-001) (18, 4.61123251935578400000e-001) (19, 6.59137402077395740000e-002) (20, 1.53457982289035510000e-001) (21, -4.22352991379109310000e-001) (22, 3.83794378921499930000e-003) (23, 6.37453229027917010000e-001) (24, -4.30916087541987510000e-001) (25, 8.99472249329925980000e-001) (26, 8.83983843740124560000e-002) (27, -1.61601944059264510000e+000) (28, 2.73998982616330820000e-001) (29, 1.04803212283281200000e-001) (30, 7.32431356104730540000e-001) (31, 2.78410357184874780000e-001) (32, -1.65242306689441430000e-001) (33, 3.48992190072682620000e-001) (34, -7.74591214499110590000e-002) (35, -5.98716935352926030000e-001) (36, 3.87672289425874730000e-001) (37, -2.06496264091174690000e-001) (38, 1.62849521057148890000e-001) (39, -8.57902742349323400000e-001) (40, -1.18948647047919270000e-001) (41, -3.14211366910921110000e-001) (42, -9.59713847323508670000e-002) (43, -5.37279630188022720000e-001) (44, 1.54243157775142530000e-001) (45, 6.65458572703651050000e-002) (46, 1.06757715811390930000e-001) (47, 6.77787086881628250000e-002) (48, 1.18636126210183020000e+000) (49, 2.22095593988355820000e-001) (50, 9.48117967388502760000e-002) (51, 6.03057401702075390000e-002) (52, 7.44960567717525560000e-002) (53, -5.97309600572385580000e-001) (54, -3.92890142068254070000e-001) (55, 4.55428962620437610000e-002) (0, 4.70573889161442600000e-001) (1, 7.13928977385797750000e-001) (2, 4.97434626817475910000e-001) (3, -2.97160410317615860000e-001) (4, 1.46056046879233460000e-001) (5, -2.85858183853385020000e-001) (6, 2.51370415353972530000e-001) (7, 8.07415217603306810000e-001) (8, -4.38726649992392460000e-002) (9, 6.20132740962068500000e-001) (10, 4.79458782162409890000e-001) (11, 4.73165959736775440000e-001) (12, -1.64051352215915300000e-001) (13, -2.34324420544005600000e-001) (14, -3.47699721794090310000e-001) (15, 1.45263604631068910000e+000) (16, 2.52235800056597180000e-002) (17, 2.12407946367832790000e-002) (18, -1.81738376193054180000e-002) (19, 3.03141367916709810000e-001) (20, 1.33033623637911050000e-001) (21, -3.43948277282972660000e-002) (22, 5.49019295079717140000e-001) (23, -5.57336627383648750000e-001) (24, 5.25190943742263720000e-001) (25, -9.60096667279469740000e-002) (26, 1.64645274953976490000e-001) (27, 4.24670614516119090000e-001) (28, 3.12606844100779930000e-001) (29, 4.00286371846259090000e-001) (30, 9.98669111123042800000e-002) (31, -2.39196306294329340000e-001) (32, 2.80741069965851800000e-001) (33, 8.08173091446884320000e-002) (34, 1.17322158785214840000e-003) (35, 6.01707855802997460000e-001) (36, -2.21055306925527940000e-001) (37, -1.59584194326247460000e-001) (38, 3.92628913309397750000e-001) (39, -1.08972918632391920000e-003) (40, 1.75192549422451240000e-001) (41, 1.82448325616930170000e-001) (42, -3.39047788188248320000e-001) (43, 3.36099222110604110000e-001) (44, 2.45622930044488370000e-001) (45, 2.70105716834962650000e-001) (46, 2.79734508833627660000e-001) (47, -8.27799935418715160000e-002) (48, -2.88283756937178390000e-001) (49, -1.96166093367343860000e-001) (50, -1.21077422467617300000e-001) (51, -9.52397636103815980000e-002) (52, 4.38994301539755990000e-001) (53, 9.26060825292857380000e-001) (54, 4.67043637226188300000e-001) (55, -4.84089542393081260000e-002) (0, 7.23315474810491190000e-001) (1, 1.64050871033160660000e-001) (2, 1.04721973700650840000e-001) (3, 4.91535279603236290000e-001) (4, -1.05682146253231070000e-001) (5, 1.07774327936970770000e-001) (6, 3.93139217878302750000e-001) (7, 4.78144645195245980000e-002) (8, 7.39396075574901950000e-001) (9, 7.10503433198027140000e-002) (10, 1.12840531049102830000e-001) (11, 2.12022510842058000000e-001) (12, -4.13986098723749310000e-001) (13, 1.87688755236822770000e-001) (14, -2.96209565897023390000e-002) (15, 1.20291178120948940000e-001) (16, 1.07904161133049130000e-001) (17, -9.74770446306611750000e-002) (18, -1.28445005565896190000e-001) (19, 4.46582301432188470000e-001) (20, -2.90152904344892280000e-002) (21, 4.70525069547757250000e-001) (22, -7.77848875217797000000e-001) (23, 5.62280628011859460000e-002) (24, -9.74208682651625180000e-003) (25, -7.84954518679390100000e-003) (26, 3.05879123672017290000e-002) (27, 5.11461051543506340000e-002) (28, 1.66897991752441770000e-001) (29, 7.68744320682129280000e-001) (30, -5.92822914540209260000e-002) (31, 5.32629271817669170000e-001) (32, 1.36588453892453910000e-001) (33, 2.09504677521631880000e-001) (34, -3.59803885203580570000e-002) (35, -3.85819065772323510000e-002) (36, 1.69896287184737220000e+000) (37, 2.66294105071270440000e-001) (38, -2.14261431183169840000e-001) (39, 4.08381685379459850000e-001) (40, 5.22382718916819460000e-002) (41, 3.72712932399592020000e-001) (42, 2.28209398653979960000e-001) (43, -3.35525083963848780000e-002) (44, 9.63824234879259030000e-002) (45, 6.65263696270566360000e-001) (46, 5.69840820433338370000e+000) (47, 9.05918457864534900000e-002) (48, -8.06044414655651340000e-003) (49, 7.73090762177065790000e-002) (50, 2.95082428755922830000e-001) (51, 2.12968560690613790000e-001) (52, 1.55505968545888830000e-001) (53, 1.51427490317988110000e-001) (54, 1.05215075846921930000e+000) (55, 1.57373649519999370000e+000) (0, 1.91563794873080210000e-002) (1, 1.78672827095966350000e-001) (2, 2.07512704492797100000e-001) (3, 5.17547601900642810000e-002) (4, 8.01487867989314930000e-001) (5, 3.12284085475354680000e-002) (6, 5.18412219820185590000e-001) (7, 1.59391827197055830000e-001) (8, 2.49588738113719760000e-002) (9, 1.55819900767535760000e-002) (10, 2.47308804940946010000e-001) (11, -5.24584350027021310000e-001) (12, 7.96466275603536360000e-002) (13, -5.90831505761416630000e-002) (14, -1.29626492076416100000e-002) (15, 1.36924780220966460000e-001) (16, -2.95200776936355550000e-001) (17, 4.66977092508680750000e-001) (18, 8.12709509659691350000e-001) (19, 1.09228413571060390000e-001) (20, 3.56514241760939040000e-001) (21, -3.46144124618295190000e-001) (22, 8.27333324535204920000e-001) (23, -7.06800876732852630000e-001) (24, -1.11314431532234860000e-001) (25, -4.33662391118825760000e-001) (26, 1.15814430725708100000e+000) (27, -1.71348867370394370000e-001) (28, 3.71610873695634000000e-001) (29, 1.37751119639500040000e-001) (30, 3.30562297085595700000e-001) (31, -1.62457769308900380000e-001) (32, 6.78492129685301700000e-001) (33, 8.27137826348623210000e-001) (34, -8.64901465633741430000e-002) (35, 7.18596339352932660000e-001) (36, -7.96046761014659600000e-002) (37, 1.88176459317414470000e-001) (38, 4.28511543337515730000e-001) (39, 5.00518394812038340000e-002) (40, 4.29995823292304070000e-001) (41, 4.58359953759905560000e-002) (42, 3.81932170001570150000e-002) (43, 8.01234934337320180000e-001) (44, 3.78518727871311800000e-001) (45, 7.05762640478033940000e-001) (46, -1.63264375220815690000e-001) (47, 9.20462540987091350000e-001) (48, 7.49259642813211780000e-001) (49, 4.37358292453779380000e-001) (50, 4.14732673745122020000e-001) (51, 2.75076881515918250000e-001) (52, 6.46345623254623750000e-001) (53, -5.47769282418117050000e-002) (54, 7.24023737728319290000e-002) (55, -4.13800226701237160000e-002) (0, -1.21537916706164330000e-001) (1, -3.91907338616807490000e-001) (2, -4.32510542283887130000e-001) (3, 7.89907344923126530000e-001) (4, -1.78137879380365900000e-001) (5, 7.78783156270921760000e-001) (6, -2.94584788725932190000e-001) (7, -5.10614990688658790000e-001) (8, 3.21479028187169780000e-001) (9, 3.45045974976838370000e-002) (10, -4.90838268329268470000e-001) (11, -2.10556972522764480000e-001) (12, 1.16228837809946810000e-001) (13, -3.33860071297260100000e-002) (14, 1.13541824988608210000e-001) (15, -3.89417476452685370000e-001) (16, 7.71086735603448090000e-001) (17, 2.83945075234873830000e-001) (18, -1.08061419200019130000e-001) (19, 4.71781978692007670000e-003) (20, 2.82435960799338800000e-001) (21, 1.41756042497117100000e-001) (22, -4.62196992404699690000e-001) (23, -4.06002879621219280000e-001) (24, -1.08276263377059710000e-001) (25, -5.78574598703257700000e-002) (26, -2.18443468988726570000e-001) (27, 9.14170038169252460000e-002) (28, 3.41394171971107110000e-001) (29, -4.70628320404162690000e-001) (30, 3.01717150351090760000e-001) (31, -2.58765163771021380000e-001) (32, -2.58218535684381740000e-001) (33, 1.46801082133999700000e-001) (34, -1.91300118024332170000e-001) (35, -2.10601524171062230000e-001) (36, 1.56439989718671960000e-001) (37, 1.22739226591603190000e-001) (38, 2.44888165479054430000e-001) (39, 9.05713963628195230000e-002) (40, 5.82383783977989290000e-001) (41, 4.24454789429757120000e-001) (42, 4.82958610089962990000e-001) (43, 1.01221270033925400000e-002) (44, 7.64086467982383110000e-001) (45, 3.02291593096491450000e-001) (46, -1.74079663855376290000e-001) (47, 3.14777593741170980000e-001) (48, 4.20205622346920270000e-002) (49, 3.51856068448573810000e-001) (50, 3.14701771692683430000e-001) (51, -5.44869502659885320000e-001) (52, 4.38864067629548660000e-001) (53, -1.01950733320639860000e-002) (54, 5.46826226032492310000e-001) (55, 3.80987402796693190000e-001) (0, 1.79183350514740350000e-001) (1, -1.85377669107740150000e-001) (2, 7.32246342682562060000e-002) (3, 7.50715009486022930000e-002) (4, 7.35239186542541060000e-001) (5, -2.25351581893168980000e-001) (6, 5.79240922958484060000e-001) (7, -8.82889202386013540000e-002) (8, -1.25432742483083590000e-001) (9, 9.07916054300326740000e-001) (10, -8.93878340593519950000e-002) (11, 3.96832176571235640000e-002) (12, 5.49793836451076050000e-001) (13, 4.19414768951354990000e-001) (14, -1.59264521306213050000e-001) (15, -6.50346545098473140000e-002) (16, 3.72854142379210220000e-001) (17, 4.57233814347049290000e-001) (18, 6.62399624612588170000e-001) (19, 4.72877573144031210000e-002) (20, 2.37785952898431350000e-001) (21, -2.01793038164771980000e-001) (22, 4.30992381523370940000e-001) (23, 4.68929659058408900000e-002) (24, -3.58477890322351670000e-001) (25, 2.55698390925331030000e-001) (26, 3.20788632404086060000e-001) (27, 2.80027357599071820000e-001) (28, -3.78054147915511170000e-001) (29, -3.15019788111181530000e-001) (30, -2.81678788782306510000e-001) (31, -1.93998958955078960000e-001) (32, 2.76901002037706510000e-001) (33, 5.67213840702432410000e-001) (34, 7.79673778440300500000e-001) (35, 4.41592180513828040000e-001) (36, -6.60743098702330780000e-002) (37, 1.49729681272655040000e-001) (38, 1.01583143532600980000e+000) (39, 1.64143746502808640000e-001) (40, 6.31382325096336070000e-001) (41, 1.84014691146599880000e-001) (42, 2.09786197313318960000e-001) (43, 5.99629367465207900000e-001) (44, 3.90488908135937730000e-001) (45, 8.04463460918164560000e-001) (46, -2.87039471323456200000e-001) (47, 5.60484620274426140000e-001) (48, 1.03830353282472350000e-001) (49, 6.43920999005169190000e-001) (50, 4.29096595098705350000e-001) (51, -4.16556865102210640000e-002) (52, 1.56252181840626480000e-001) (53, 7.30441323045855910000e-002) (54, 2.11076965064433490000e-001) (55, -2.84965654823848630000e-002) (0, 5.65349475028521730000e-001) (1, 3.24159127222501180000e-001) (2, 1.28262668639032570000e-001) (3, -1.53346455946474420000e-001) (4, 1.62519182413063480000e-001) (5, -1.00199269588733380000e-001) (6, 4.70799803077203650000e-001) (7, 2.24532111520259870000e-001) (8, 1.44179730127767590000e+000) (9, 5.05377784943677580000e-001) (10, -8.00633374519411910000e-002) (11, 4.78678183476549060000e-001) (12, 4.79418377048567270000e-001) (13, 2.28026117410040030000e-001) (14, 2.71755898556528510000e-002) (15, 1.52586235767114080000e-001) (16, 2.82228198381258120000e-001) (17, 4.44814905036231690000e-002) (18, 2.38778399955213130000e-001) (19, -3.05756181812418760000e-001) (20, 1.16572522368880380000e+000) (21, 7.53218436466634170000e-002) (22, -1.17939193110707970000e-001) (23, -1.10783679124499320000e-001) (24, 7.36880954467675870000e-001) (25, 2.38206642801692210000e-001) (26, 9.52871712377127530000e-001) (27, 2.23146630358186330000e-001) (28, 1.85080089995251000000e-001) (29, -4.81138934971158340000e-001) (30, 2.79236028349855170000e-001) (31, 1.34217463259528410000e-001) (32, -2.70433321264863190000e-001) (33, 3.59476308401127930000e-001) (34, -8.33624378027662120000e-002) (35, 4.68583418898742220000e-001) (36, 2.83677459388401940000e-001) (37, -5.01835611594304560000e-001) (38, 7.54119741358499460000e-001) (39, 4.56344357864261200000e-001) (40, 5.15336740931296110000e-001) (41, 2.82321379530843570000e-001) (42, 4.96583690124083600000e-001) (43, 2.11448841062961380000e-001) (44, 1.16705081372193820000e+000) (45, 3.69914026200636070000e-001) (46, 2.17481690845144020000e-001) (47, 2.38656064607074780000e-001) (48, 2.93082973354706180000e-001) (49, 8.61833985998545330000e-001) (50, 5.07175812211432930000e-001) (51, 7.75650661482062740000e-001) (52, 1.34246594946544810000e+000) (53, -5.20677547225463360000e-002) (54, 8.83718363079126210000e-001) (55, 2.95421281517188660000e-001) (0, 5.78165986463881400000e-001) (1, 2.00210809903610530000e+000) (2, 9.12926770341316200000e-001) (3, 1.90858186482374150000e-001) (4, 9.00130726184411370000e-001) (5, 1.66544062540588320000e-001) (6, 2.96120290908341130000e-001) (7, 6.16420550435291540000e-001) (8, -6.81853314114000760000e-003) (9, 1.87386225548197420000e-001) (10, 4.82221237429788290000e-001) (11, 3.69963766811826630000e-001) (12, 1.40808076274958140000e-001) (13, 5.32073798793025190000e-002) (14, 8.43977123175687350000e-002) (15, 7.70749511599534750000e-001) (16, 4.25247505474731280000e-001) (17, 2.17032406345250030000e-001) (18, 1.22106022486332320000e-001) (19, -9.21580419834930330000e-002) (20, 1.51273823658450860000e+000) (21, -2.65535597365284760000e-001) (22, 5.06531150030466670000e-001) (23, 2.55469012797145570000e-001) (24, 8.15904082332327920000e-001) (25, 5.16240004203330940000e-001) (26, 7.64196721600881920000e-001) (27, -1.25176859076372050000e-001) (28, 6.91974996309048800000e-001) (29, -3.60504372906034100000e-001) (30, 1.16409590731614940000e-002) (31, 6.85840190035519330000e-001) (32, 3.94566503396861170000e-001) (33, -1.13845596179163690000e-001) (34, 2.00270778053321110000e-001) (35, -2.28824011823222260000e-001) (36, -5.88785086072328490000e-001) (37, -4.76123585175215520000e-001) (38, 1.36257672692264540000e+000) (39, 9.33982894638352380000e-001) (40, 7.71825879072021490000e-001) (41, 1.83670583166062050000e-001) (42, 2.49039238773623800000e-001) (43, 4.37520825626474710000e-001) (44, 2.08089670346676280000e-001) (45, 2.79177159527836060000e-001) (46, -7.52841074278931680000e-002) (47, 7.52575462688390600000e-001) (48, -4.02838915279195130000e-001) (49, 2.24846103691220290000e-001) (50, 3.95528738245899790000e-001) (51, 3.53381208758846880000e-001) (52, 9.46844953262785170000e-001) (53, 1.06114042789629370000e+000) (54, 4.42149492152227990000e-001) (55, 3.38867815330872240000e-001) (0, -5.12347831894568890000e-001) (1, -1.04023250700276970000e-001) (2, -1.90223633421263640000e-001) (3, 2.03664199465503820000e-001) (4, -4.55871313602748200000e-002) (5, 3.32327024001082990000e-001) (6, -1.30012084435434740000e-001) (7, -2.41388971866410870000e-001) (8, 4.53381026810852840000e-002) (9, -3.39801607557250700000e-001) (10, 3.52148098627429680000e-001) (11, 4.47443437429337900000e-001) (12, -1.58371014504609910000e-001) (13, 2.32346325521386820000e-001) (14, -2.10941457450415900000e-001) (15, -7.90908104904507890000e-002) (16, -1.71659072452076020000e-002) (17, 3.67987843472784180000e-001) (18, 4.89575561851049450000e-001) (19, 4.86357633376049430000e-002) (20, -2.44435878850460500000e-001) (21, -8.24860433905704180000e-002) (22, 5.88801703668044070000e-001) (23, 4.11693342901393530000e-001) (24, -1.18455427466661360000e-001) (25, 3.41290251800896390000e-001) (26, 5.08915034941834650000e-001) (27, -4.01464904807156130000e-001) (28, 3.70419989613111570000e-001) (29, 4.49733179213562470000e-002) (30, 3.37176778523007980000e-001) (31, 4.41085173289691990000e-001) (32, -1.32661415258447570000e-001) (33, 3.27089294996984860000e-001) (34, -2.19571108698648650000e-001) (35, -1.10156533628913520000e-001) (36, 8.44432339146206910000e-002) (37, 4.81675206361807720000e-001) (38, -2.16157066000008610000e-001) (39, -9.84091034234964860000e-002) (40, 1.83698599133844700000e-001) (41, 2.47842671727172950000e-001) (42, -3.79770067536890520000e-001) (43, -1.28697129665643510000e-001) (44, 1.86370805162302360000e-002) (45, 3.54030864550680830000e-001) (46, 1.23537918147106980000e-001) (47, -1.81020258874077910000e-001) (48, 9.99788472415945180000e-002) (49, -2.88088213514271150000e-002) (50, 4.48954846056644260000e-001) (51, -1.76861253261791170000e-001) (52, 1.03516035931611500000e-001) (53, -3.04336846535619100000e-001) (54, 2.62194119614857060000e-001) (55, 1.74558785761742050000e-001) (56, 1.81761424805322870000e-001) (57, 5.08834919112887560000e-002) (58, 7.06216847108251530000e-002) (59, 5.59074985958146270000e-002) (60, 2.20320688859141460000e-002) (61, -1.95554973741194600000e-001) (62, -2.30706353873612050000e-001) (63, 1.65988387764810590000e-001) (64, 1.58045094320235860000e-001) (65, 1.60162553898568430000e-001) (66, -1.95442355502388090000e-001) (67, 5.08026454741273840000e-002) (68, 2.55074561308679560000e-001) (69, -5.51138831465064410000e-002) (70, -9.82740665341859940000e-002) (71, 1.73247468740909850000e-001) (72, 3.24458660542450040000e-001) (73, 3.66775026453836750000e-001) (74, -1.31852536895936100000e-001) (75, 2.12979601382985080000e-001) (0, 2.86631241282866660000e-001) (1, -4.14652510551264230000e-001) (2, 5.42569131017825110000e-001) (3, 1.16138734964243960000e-001) (4, 7.21042014226069840000e-002) (5, 2.86146247430127450000e-001) (6, 1.20542854686969930000e-001) (7, 5.80686939913821700000e-001) (8, 1.40595465546816540000e-001) (9, -3.66135894726705040000e-003) (10, -5.32644191737174850000e-002) (11, 2.33882788147608680000e-002) (12, -3.83383491497212960000e-001) (13, 6.09100299123873530000e-001) (14, 1.12287651301648810000e-001) (15, 4.21168662981501910000e-001) (16, 2.89162565410127970000e-001) (17, 8.18448688200164450000e-002) (18, 2.46603273964071600000e-002) (19, -1.62590595027662570000e-001) (20, -9.08024740390079720000e-002) (21, -5.94201913231879110000e-002) (22, -3.50037972141572340000e-001) (23, -7.08011471767629620000e-003) (24, -5.57052643951563730000e-001) (25, -7.00806918217384830000e-002) (26, -2.36423706458606080000e-001) (27, -2.90371281733290900000e-002) (28, -7.97046531082958030000e-002) (29, -1.89994241168384040000e-001) (30, -2.81264956740270580000e-002) (31, -3.37774546218418130000e-001) (32, 8.81413380363952750000e-002) (33, -2.28888556533934360000e-001) (34, 3.53870035268806090000e-002) (35, 3.03111669557630640000e-001) (36, 3.52702688895485730000e-001) (37, 2.93735067756523080000e-001) (38, 5.11609704805386780000e-002) (39, -8.57202312423557270000e-002) (40, -2.37477642943719980000e-001) (41, 1.49148863024876040000e-001) (42, -1.25424819373535030000e-001) (43, -9.04988698731469880000e-003) (44, -2.44778492584535320000e-001) (45, -5.44570685840695190000e-002) (46, 1.16326922243389040000e-001) (47, -1.10841145066847890000e-001) (48, -4.76801238195399990000e-001) (49, -2.27054339101256050000e-001) (50, -5.92883847853374110000e-001) (51, -7.97234652305058580000e-002) (52, -1.74892084367458650000e-001) (53, 1.85515075812479720000e-001) (54, 1.20488021444762490000e-001) (55, 1.07058055033544690000e-001) (56, 2.38814938878143200000e-001) (57, 3.66698610664266290000e-001) (58, 5.78117023281468080000e-002) (59, -5.87078813087645800000e-002) (60, 1.74533615747676120000e-001) (61, 1.00741216778996940000e-001) (62, 1.09450314573276670000e-003) (63, 7.90547059154344530000e-002) (64, 1.96284486129540890000e-001) (65, -1.10381127353123430000e-001) (66, 3.74145902303976600000e-001) (67, 9.07330686243505990000e-002) (68, 1.92451585264455580000e-001) (69, -4.22641492409172870000e-001) (70, 4.25640291375673080000e-002) (71, 1.06103767331018700000e-001) (72, 2.98974355185374850000e-001) (73, 2.71645641327617870000e-001) (74, -1.17222692458854110000e-001) (75, 2.35641251505207230000e-001) (0, 2.75332430881747250000e-001) (1, -1.37246679799749750000e-001) (2, -4.03834727876309360000e-001) (3, 2.22095117667414700000e-002) (4, 6.31603315329506700000e-002) (5, 4.99240037796374710000e-001) (6, 1.98637580095152200000e-001) (7, -8.61364887026108830000e-002) (8, 1.35203779077672750000e-001) (9, 1.33361123190787660000e-001) (10, -6.42222169779705920000e-002) (11, -1.72594683752259590000e-001) (12, 1.43510648890874250000e-001) (13, -5.47972752090718220000e-002) (14, 2.27128347673399040000e-001) (15, 2.92760556189810030000e-003) (16, 4.81675654685614460000e-001) (17, 3.28050778047783600000e-001) (18, 2.54556179450804940000e-001) (19, 4.52993814633153790000e-002) (20, 3.99157865615795300000e-001) (21, -1.32341144923973840000e-001) (22, 6.70422817262541940000e-001) (23, -2.17464803177372930000e-001) (24, -1.39961864247134830000e-001) (25, -1.33698793874929330000e-001) (26, 6.36577582232456970000e-001) (27, -3.57081509686610180000e-001) (28, -1.11251706563847040000e-001) (29, -3.00023668182103580000e-001) (30, 3.97381894771326740000e-001) (31, -3.57938802816846810000e-001) (32, 6.19336112556515880000e-001) (33, 3.06700782839242680000e-001) (34, -1.17384913246302000000e-001) (35, 1.87719489071056120000e-001) (36, 6.12833600212229700000e-002) (37, 1.04989923687938340000e-001) (38, 1.29115250895693120000e-001) (39, -1.32414114117111540000e-001) (40, 3.22485759121508950000e-001) (41, 3.27518804219490420000e-001) (42, 6.14669733648932760000e-002) (43, 5.35217200848305750000e-002) (44, 2.29868481412509260000e-001) (45, 1.33834475802127790000e-001) (46, -4.34134264928514480000e-001) (47, 5.20293468491189400000e-001) (48, 3.40181881282889450000e-001) (49, 5.20257496058553870000e-001) (50, 4.31999226633312580000e-001) (51, -1.06716074727495470000e-001) (52, 8.63682251877805900000e-002) (53, -4.34974738553531410000e-001) (54, 3.53937576154524870000e-001) (55, 2.62425335146161340000e-001) (56, 1.18613305151150440000e-001) (57, 2.71589173908017840000e-001) (58, -1.82293178010300700000e-001) (59, -1.47423340295321690000e-004) (60, 9.15537288860263920000e-002) (61, -3.13578649141686210000e-001) (62, -2.44154347607407280000e-001) (63, 2.13919693726105730000e-001) (64, 1.82863582681531720000e-001) (65, 5.42266252326768390000e-001) (66, 4.73288961058025980000e-002) (67, -4.80418744147797780000e-002) (68, 1.49129652282458200000e-001) (69, 1.78756452972578920000e-001) (70, 1.23557073412473910000e-001) (71, -2.39641855924107420000e-001) (72, -5.43170394007658970000e-002) (73, -4.03969471764879860000e-002) (74, -7.04856615948283720000e-002) (75, 6.00414452493707940000e-002) (0, -3.61746194483720310000e-001) (1, -1.04303054997224850000e-001) (2, -1.92452565028927190000e-001) (3, -2.67215545710148160000e-001) (4, 1.53952086592724520000e-001) (5, -3.65953536543552390000e-001) (6, -4.20196004293941420000e-002) (7, -2.26800555357411730000e-001) (8, -8.49213508966620710000e-002) (9, -1.14940210589222270000e-001) (10, -1.52761254006911790000e-001) (11, -1.19568236734413260000e-001) (12, -1.88643429206668570000e-001) (13, 2.51895878271149510000e-001) (14, -1.41733788872773660000e-001) (15, -1.03790299961045550000e-001) (16, -9.80916510122536860000e-002) (17, 3.19568730732653240000e-001) (18, 2.76318347972335070000e-001) (19, 3.42046352895399590000e-001) (20, 4.52795649083002570000e-001) (21, 1.10350799673056140000e-002) (22, 4.97437262297647180000e-001) (23, 2.26069478999693870000e-001) (24, -2.15239370067210890000e-001) (25, -2.59890257983126820000e-002) (26, 4.03999912910006420000e-001) (27, 3.79023039395587850000e-001) (28, 5.99849222171571770000e-001) (29, 2.59010459580736210000e-001) (30, 2.33482972628398180000e-001) (31, 3.58480621784091120000e-001) (32, 2.40346336116420060000e-001) (33, -1.71673301945459460000e-001) (34, 3.07248286781563350000e-001) (35, 4.70454721592370450000e-001) (36, 2.03387916829256550000e-002) (37, 3.80967138552906040000e-001) (38, 1.10702620756168270000e-001) (39, 2.23081101128212920000e-001) (40, 3.33513326631076410000e-001) (41, 2.48917705218729410000e-001) (42, -4.68988033590029550000e-001) (43, 1.98099266721830310000e-001) (44, 3.21926623529253440000e-001) (45, 1.53414527939830260000e-001) (46, -2.54887260278851390000e-001) (47, 6.78230105749556560000e-001) (48, 2.13210964793224290000e-001) (49, 1.95176815799474680000e-001) (50, 5.20021117426882620000e-001) (51, -1.53565363423993880000e-001) (52, 1.98711808333137400000e-001) (53, -4.73820319752589480000e-002) (54, 1.44894925472816520000e-001) (55, -4.28282735775400710000e-002) (56, 2.82879178455326510000e-001) (57, 8.21339094140473990000e-002) (58, -2.53710616847947490000e-001) (59, -3.45266434196790100000e-001) (60, -6.93003783380434220000e-002) (61, -2.34131687564640980000e-001) (62, 6.93801953636696970000e-002) (63, 5.23997032500358520000e-002) (64, 2.64418507821236990000e-001) (65, 2.55276320180287790000e-001) (66, -3.15084225715890450000e-001) (67, 8.51290617451243850000e-002) (68, 4.45989174597087650000e-001) (69, 2.03987295297712510000e-001) (70, 6.91033029113526650000e-002) (71, -4.49610755000575900000e-001) (72, -1.50347872953236280000e-004) (73, -2.73946763074648600000e-001) (74, -1.02732273131113980000e-001) (75, -5.94460520326416590000e-002) (0, -1.10583873222662000000e-001) (1, -3.87783939472193640000e-001) (2, -3.39315915933604160000e-001) (3, 1.93996221349742930000e-001) (4, 7.68741756439788590000e-002) (5, -1.03949417913177800000e-001) (6, -1.62422856743592160000e-001) (7, -4.66921419172834310000e-001) (8, 6.39784376010701370000e-002) (9, 1.12897504742738300000e-001) (10, 4.45331495257465630000e-001) (11, -2.02144919469040530000e-001) (12, -1.13390280097511990000e-001) (13, -1.77206722266605080000e-001) (14, -4.80723980301280550000e-002) (15, 2.00002401997634860000e-001) (16, 4.58453273427157420000e-001) (17, -2.97994578661735230000e-001) (18, -5.71531945949427590000e-002) (19, 6.15877084330600950000e-001) (20, -2.80608025434899210000e-001) (21, 1.14593685978753720000e-001) (22, -8.88016260934923200000e-002) (23, -2.36336676272130810000e-001) (24, -4.68145625965172290000e-001) (25, -4.88251531681459520000e-001) (26, -1.47933367765621350000e-001) (27, -2.05846526939170800000e-001) (28, 3.16634483565876090000e-001) (29, -2.54657017228504870000e-001) (30, 7.04590063215612410000e-002) (31, 5.85622351349156110000e-002) (32, -3.91308833783355900000e-001) (33, 5.58565700547118180000e-001) (34, 5.74078624201541880000e-001) (35, 5.21509702124740780000e-002) (36, -6.39717897337610390000e-002) (37, -4.49679505059287980000e-002) (38, 4.90045405437711190000e-001) (39, -9.75381716416021950000e-002) (40, 9.27878518941748080000e-002) (41, 1.12401128431780200000e-002) (42, 1.24769777226996170000e-001) (43, -6.11818078432025610000e-002) (44, -7.30520650665351930000e-002) (45, -2.18669071079056300000e-002) (46, 3.30817739790070560000e-001) (47, 1.21718980245338120000e-001) (48, 1.97097260484009580000e-001) (49, 1.76889793158896140000e-001) (50, 1.97598143720704500000e-001) (51, 3.48450031176158890000e-002) (52, 4.11831863301075680000e-001) (53, 3.02924402501517780000e-003) (54, 2.14590442800843660000e-001) (55, 1.80811458493086970000e-001) (56, 1.09458780700613730000e-001) (57, 3.79048204793413720000e-001) (58, 6.72288738538845830000e-002) (59, 2.24283716922216570000e-001) (60, 1.44088509609578060000e-001) (61, 4.62293952549291120000e-002) (62, -2.86661257097072100000e-002) (63, -3.28795113857987610000e-002) (64, -1.59819235240142160000e-001) (65, 2.13749780627666390000e-001) (66, 1.52500316247554580000e-001) (67, -1.83517865327681630000e-001) (68, -1.68637644953701370000e-002) (69, -1.45082827286272530000e-001) (70, -2.00354702410209000000e-001) (71, 7.19408579965322560000e-002) (72, 2.05917244547182470000e-001) (73, -7.40609978591144080000e-002) (74, -4.09848291448839250000e-002) (75, -1.40063551279768110000e-001) (0, 4.00901128622397800000e-001) (1, 2.06811855324923440000e-001) (2, 1.86667876431489240000e-001) (3, 2.96546597024090540000e-002) (4, -6.36279306778317600000e-003) (5, -1.17408238321350000000e-001) (6, -1.89040578968537250000e-002) (7, 1.27801328389677450000e-001) (8, 1.83065675373898920000e-001) (9, -7.78875500432837580000e-003) (10, 2.59066504810786750000e-001) (11, 2.59268699602732690000e-001) (12, -2.92989945864346680000e-001) (13, 1.02493651228556370000e-002) (14, -4.68654249119671350000e-001) (15, 9.34590497610584550000e-002) (16, -2.44409773941638600000e-001) (17, -1.22926324262767530000e-001) (18, -2.59122358145937250000e-002) (19, 7.96680689843223490000e-001) (20, -2.83534317991567250000e-001) (21, -6.74985621902094140000e-003) (22, -3.00119787579262110000e-001) (23, -8.29923208302260910000e-002) (24, 2.51015935617610210000e-001) (25, -2.39093000971461860000e-001) (26, -2.79976633072362420000e-001) (27, 4.01989553011126820000e-001) (28, 2.30771116286859120000e-001) (29, 3.56626342438354620000e-001) (30, -3.59176693895106040000e-001) (31, -1.39424181593928660000e-001) (32, -3.44906160293858180000e-001) (33, 6.81428395134241020000e-003) (34, -9.77752586296161960000e-002) (35, 1.32719589506664150000e-001) (36, 1.65607878812091910000e-001) (37, 3.31631852067410320000e-002) (38, -7.96656240785782730000e-002) (39, -4.30859469761387530000e-003) (40, 1.23713885683406270000e-001) (41, 8.45943367889403360000e-002) (42, 2.41061505565037220000e-001) (43, -1.33568719811372420000e-001) (44, -2.47355930418918510000e-002) (45, 6.63277339864182110000e-002) (46, 3.22158407753743550000e-001) (47, -3.55240442772191130000e-001) (48, -7.25079047790230800000e-001) (49, -3.59494474034684210000e-001) (50, 2.64736601353463160000e-001) (51, -1.16765675474701080000e-001) (52, 4.83970166105442000000e-002) (53, 2.22058546575065800000e-001) (54, 2.73830516406363630000e-001) (55, 2.83241209058620880000e-001) (56, -1.85535092343602190000e-001) (57, -1.50167370552461630000e-001) (58, 3.13184413868456190000e-001) (59, -2.38553349193057350000e-001) (60, -1.47181328239273570000e-001) (61, -3.96009117749196030000e-002) (62, -2.69115779186280750000e-003) (63, 1.17613600602125720000e-001) (64, 9.22499219385275040000e-002) (65, 2.78391961998356750000e-001) (66, 9.12753735515899060000e-003) (67, -1.48989655939236100000e-001) (68, 1.95997274915039240000e-001) (69, 1.18854532518665080000e-002) (70, -1.28431060473889000000e-001) (71, 4.29657942506548260000e-001) (72, -3.57733091474098170000e-002) (73, 2.38528242452791830000e-001) (74, 1.56063638712386270000e-001) (75, -1.71652756776860730000e-001) 
