FANN_FLO_2.1
num_layers=4
learning_rate=0.700000
connection_rate=1.000000
network_type=0
learning_momentum=0.000000
training_algorithm=2
train_error_function=1
train_stop_function=1
cascade_output_change_fraction=0.010000
quickprop_decay=-0.000100
quickprop_mu=1.750000
rprop_increase_factor=1.200000
rprop_decrease_factor=0.500000
rprop_delta_min=0.000000
rprop_delta_max=50.000000
rprop_delta_zero=0.100000
cascade_output_stagnation_epochs=12
cascade_candidate_change_fraction=0.010000
cascade_candidate_stagnation_epochs=12
cascade_max_out_epochs=150
cascade_min_out_epochs=50
cascade_max_cand_epochs=150
cascade_min_cand_epochs=50
cascade_num_candidate_groups=2
bit_fail_limit=1.00000001490116120000e-001
cascade_candidate_limit=1.00000000000000000000e+003
cascade_weight_multiplier=4.00000000000000020000e-001
cascade_activation_functions_count=10
cascade_activation_functions=3 5 7 8 10 11 14 15 16 17 
cascade_activation_steepnesses_count=4
cascade_activation_steepnesses=2.50000000000000000000e-001 5.00000000000000000000e-001 7.50000000000000000000e-001 1.00000000000000000000e+000 
layer_sizes=16 21 21 7 
scale_included=0
neurons (num_inputs, activation_function, activation_steepness)=(0, 0, 0.00000000000000000000e+000) (0, 0, 0.00000000000000000000e+000) (0, 0, 0.00000000000000000000e+000) (0, 0, 0.00000000000000000000e+000) (0, 0, 0.00000000000000000000e+000) (0, 0, 0.00000000000000000000e+000) (0, 0, 0.00000000000000000000e+000) (0, 0, 0.00000000000000000000e+000) (0, 0, 0.00000000000000000000e+000) (0, 0, 0.00000000000000000000e+000) (0, 0, 0.00000000000000000000e+000) (0, 0, 0.00000000000000000000e+000) (0, 0, 0.00000000000000000000e+000) (0, 0, 0.00000000000000000000e+000) (0, 0, 0.00000000000000000000e+000) (0, 0, 0.00000000000000000000e+000) (16, 5, 1.00000000000000010000e-001) (16, 5, 1.00000000000000010000e-001) (16, 5, 1.00000000000000010000e-001) (16, 5, 1.00000000000000010000e-001) (16, 5, 1.00000000000000010000e-001) (16, 5, 1.00000000000000010000e-001) (16, 5, 1.00000000000000010000e-001) (16, 5, 1.00000000000000010000e-001) (16, 5, 1.00000000000000010000e-001) (16, 5, 1.00000000000000010000e-001) (16, 5, 1.00000000000000010000e-001) (16, 5, 1.00000000000000010000e-001) (16, 5, 1.00000000000000010000e-001) (16, 5, 1.00000000000000010000e-001) (16, 5, 1.00000000000000010000e-001) (16, 5, 1.00000000000000010000e-001) (16, 5, 1.00000000000000010000e-001) (16, 5, 1.00000000000000010000e-001) (16, 5, 1.00000000000000010000e-001) (16, 5, 1.00000000000000010000e-001) (0, 5, 1.00000000000000010000e-001) (21, 5, 1.00000000000000010000e-001) (21, 5, 1.00000000000000010000e-001) (21, 5, 1.00000000000000010000e-001) (21, 5, 1.00000000000000010000e-001) (21, 5, 1.00000000000000010000e-001) (21, 5, 1.00000000000000010000e-001) (21, 5, 1.00000000000000010000e-001) (21, 5, 1.00000000000000010000e-001) (21, 5, 1.00000000000000010000e-001) (21, 5, 1.00000000000000010000e-001) (21, 5, 1.00000000000000010000e-001) (21, 5, 1.00000000000000010000e-001) (21, 5, 1.00000000000000010000e-001) (21, 5, 1.00000000000000010000e-001) (21, 5, 1.00000000000000010000e-001) (21, 5, 1.00000000000000010000e-001) (21, 5, 1.00000000000000010000e-001) (21, 5, 1.00000000000000010000e-001) (21, 5, 1.00000000000000010000e-001) (21, 5, 1.00000000000000010000e-001) (0, 5, 1.00000000000000010000e-001) (21, 5, 1.00000000000000010000e-001) (21, 5, 1.00000000000000010000e-001) (21, 5, 1.00000000000000010000e-001) (21, 5, 1.00000000000000010000e-001) (21, 5, 1.00000000000000010000e-001) (21, 5, 1.00000000000000010000e-001) (0, 5, 1.00000000000000010000e-001) 
connections (connected_to_neuron, weight)=(0, 1.65018321558153350000e+000) (1, -9.64255729462049630000e-002) (2, 2.78180605102452790000e-001) (3, 1.82853856372425860000e+000) (4, 6.08953309199634750000e-001) (5, 4.20620688730488810000e+000) (6, 1.33185523768753700000e+000) (7, -1.30521007511790230000e+000) (8, -6.32381879054018660000e-001) (9, 4.95000166443557270000e-001) (10, 7.63412255753846520000e-001) (11, -1.17638894401519360000e+000) (12, -1.33203233593699340000e+000) (13, -2.16530340254198870000e-001) (14, 7.20983500851179680000e-001) (15, -1.22418942255471090000e-001) (0, -3.41856635680145130000e+000) (1, 8.64350264023658440000e-001) (2, -5.82978166998545540000e-001) (3, -5.48424302771875260000e-001) (4, 7.44486187805760370000e-001) (5, 1.49022807746912960000e-001) (6, 1.45799513175815320000e+000) (7, -5.11518354635670640000e-001) (8, -1.96736946373227140000e-001) (9, -1.24651196346234740000e+000) (10, -3.90610018424125790000e-001) (11, -4.81076170651173580000e-001) (12, 1.01091983686585560000e+000) (13, -5.84317543254747720000e-001) (14, -5.65506703834824040000e-001) (15, -3.35987059212261240000e-001) (0, 1.32116123527118590000e+000) (1, -1.50904883602464880000e+000) (2, 2.14840173524268040000e-001) (3, 1.27671403847343660000e+000) (4, 2.54459663961165150000e-001) (5, -1.00330666998704540000e+000) (6, -1.09929987185036150000e-001) (7, 1.71625806025962130000e-002) (8, 3.60841426641813840000e-001) (9, 6.00352225257367640000e-001) (10, -6.00271222371374650000e-001) (11, 8.26033983104741960000e-001) (12, -2.51471057483717390000e+000) (13, -8.98031996589943480000e-001) (14, -1.19506384976708360000e+000) (15, 3.55186787466200300000e-001) (0, 2.56485432585275670000e+000) (1, 2.56707227739138010000e-001) (2, 3.96181192683167490000e+000) (3, 1.18137271057218380000e-001) (4, 2.92919726948770940000e-001) (5, 1.63010828913314420000e-001) (6, 5.05975419491200620000e-001) (7, 1.84224981087645870000e-001) (8, -2.18591721014351790000e-001) (9, -7.52089880880762230000e-001) (10, 1.71113977812402830000e+000) (11, -1.39826787577588260000e+000) (12, 7.17308167726489980000e-001) (13, -1.04711986953084790000e+000) (14, 7.26941308545763910000e-002) (15, -3.14563237459526410000e-001) (0, 1.36467693820972850000e-001) (1, -7.31343753992820030000e+000) (2, -9.35487869575312160000e-001) (3, 6.89710378194792420000e-001) (4, 1.89513707998964720000e-001) (5, 8.00827401597030140000e-001) (6, 1.30976666671092580000e+000) (7, 2.79375854502460100000e+000) (8, 1.02455138460843580000e+000) (9, 7.46905466750336920000e-002) (10, -1.14745918454996420000e+000) (11, 2.65878982917350630000e-001) (12, 4.42703855884387820000e-001) (13, 7.97073679768706970000e-002) (14, -1.50643260712084560000e-001) (15, -4.11971051804033010000e-002) (0, -9.51290787545991390000e-001) (1, 5.08824978005594230000e-001) (2, 5.06382422321387080000e+000) (3, -1.50794402671906110000e+000) (4, 1.16828632614938310000e-001) (5, 2.80042864947473660000e-001) (6, -1.24525151061383730000e-001) (7, -3.08865286610859880000e-001) (8, 4.33172614487385920000e-001) (9, 3.01749694514733320000e-001) (10, 2.41678004898492920000e-001) (11, 1.39796782714107730000e-001) (12, 1.05424889889466120000e+000) (13, 6.71248174501228030000e-002) (14, -8.25404783993448410000e-001) (15, -2.10098521009059400000e-001) (0, 1.54467511790534180000e+001) (1, -2.13817660524995420000e+000) (2, 1.68181772460228450000e+001) (3, 4.58197622225336390000e-001) (4, -7.59170758205963140000e-002) (5, 2.03396671946092040000e-001) (6, -1.61754284800039080000e+000) (7, -3.75449439097505440000e-001) (8, -2.15011305120751390000e+000) (9, -1.44654562811430440000e-002) (10, -8.76913714573607510000e-002) (11, 6.28993749596315490000e-002) (12, 2.40258889946109370000e-002) (13, -9.64310194693522440000e-002) (14, 3.84904655969298820000e-002) (15, 2.33762257283387240000e+000) (0, -8.78932404257611740000e+000) (1, -9.00807664984876590000e+000) (2, 3.18915469992322280000e+000) (3, 1.60730946252937880000e-001) (4, -1.07342085573307430000e-001) (5, -2.15202583774437790000e-001) (6, 2.07179902247302540000e-001) (7, 2.70751814621012480000e+000) (8, -1.12813815438531680000e+000) (9, -4.55953591065267230000e-001) (10, 3.23824093230387410000e-001) (11, 2.90924713710046360000e-001) (12, 3.83665188792538910000e-001) (13, 1.37672661673560050000e+000) (14, -1.87879634922504120000e-001) (15, -4.24658858941317720000e-001) (0, -2.59312666154914110000e-001) (1, -4.95116353796629600000e-001) (2, -2.07545020133100340000e+000) (3, 6.21811687645603680000e-001) (4, -7.95921758334933060000e-001) (5, 4.29728914920561140000e-001) (6, -3.81099657509701430000e-001) (7, 9.29524608766827740000e-001) (8, 3.88660403506764620000e-001) (9, -2.04291736691966210000e-001) (10, 1.46411232304501080000e+000) (11, -1.46559723704561830000e+000) (12, 2.87763872510650610000e-001) (13, 2.47403866880714410000e+000) (14, -2.44460694378995580000e+000) (15, 8.00676937585823920000e-001) (0, -1.64193302664618060000e+001) (1, 3.29938950391443300000e+000) (2, 7.50798765660905240000e+000) (3, -3.95406411323732280000e-001) (4, 3.49722030973391720000e-001) (5, 1.27797831249337720000e-001) (6, 6.19632516074775720000e+000) (7, -4.11843907823964060000e-002) (8, 4.14563493895784230000e-001) (9, -6.61962813757871050000e-002) (10, 4.54996175157856980000e-002) (11, 1.48900228504548540000e-001) (12, 2.02151614296826790000e-001) (13, -2.60647893615076070000e-001) (14, -6.67786852678124150000e-002) (15, 3.84940755404789670000e-001) (0, -1.75506882473784140000e+000) (1, -1.13206519665847450000e-001) (2, 8.14551872924398170000e+000) (3, 3.47022536763376410000e-001) (4, -2.75784260687960080000e-001) (5, -3.07343945458326170000e+000) (6, 2.32858728571745470000e-001) (7, 3.35088645844498930000e-001) (8, -1.08103611594685130000e+000) (9, -1.08886841591576090000e-001) (10, -7.06539855695345050000e-001) (11, 1.86222597922551970000e-001) (12, 1.82810941668976210000e-001) (13, 5.87205865060519190000e-001) (14, 2.58527290949032710000e-001) (15, -1.86219249556196900000e-001) (0, -3.72989002661150870000e+000) (1, 4.32535952473319440000e-001) (2, 3.14250423521746480000e-001) (3, -4.38356153246069640000e-001) (4, 3.57231112906575440000e-001) (5, 3.46028888623294150000e-002) (6, 3.54253603833060900000e+000) (7, 9.22610990630025940000e-001) (8, 1.18985189544148560000e+000) (9, 1.63306332916528030000e+000) (10, 1.61349162763908430000e+000) (11, -2.84415831539127080000e-001) (12, -8.77038417828429060000e-001) (13, 9.39926007390753940000e-001) (14, 3.20913095513757700000e-002) (15, 1.89856190187154940000e-001) (0, 5.70551244459640920000e+000) (1, 7.61865949984319000000e-001) (2, -1.86258446531386190000e+000) (3, -9.13984902753359750000e-001) (4, 1.33674099247118080000e+000) (5, 1.53288824493368850000e+000) (6, -9.80207942475661560000e-001) (7, 3.98940834012929400000e-001) (8, 2.25247729434007170000e+000) (9, -1.95032853503718850000e-001) (10, -2.36078456423119060000e-001) (11, -1.76234824762688880000e-002) (12, 6.61984525372645520000e-001) (13, -3.16032484433011850000e-001) (14, -6.11714876742394330000e-001) (15, 9.04656809827862340000e-001) (0, -2.75341159122242370000e+000) (1, -3.48914677502519850000e+000) (2, -1.97772070220302880000e-001) (3, 4.09312199283835440000e-001) (4, 4.05434870012049700000e-002) (5, 2.53952069111760830000e-001) (6, -7.71533181397820900000e-001) (7, 1.73552853264889620000e-001) (8, -2.46185596146069410000e+000) (9, 4.87095354036415350000e-001) (10, -8.56982197888824570000e-001) (11, -2.56853012427425810000e-001) (12, 3.32066749942060760000e-001) (13, -1.35087176790297340000e+000) (14, -3.93726370877833800000e-001) (15, 1.30888076132739230000e-001) (0, -1.74179551621628810000e+000) (1, 3.94614021704152630000e+000) (2, 9.94580464620555050000e-001) (3, -4.72474669298654730000e-001) (4, -1.72180715260623970000e+000) (5, 3.29697636614143750000e-001) (6, 1.60782237816064820000e+000) (7, -1.29760880465108500000e-001) (8, -1.34207583411302590000e+000) (9, 1.15789719748308720000e+000) (10, 1.24318432184243680000e+000) (11, 6.71273039436078520000e-001) (12, -1.87465572391088380000e-001) (13, -1.52507433644431110000e+000) (14, -8.31363560137524220000e-001) (15, -6.39396978309735850000e-002) (0, 9.69470381369655420000e+000) (1, -2.51193431099663790000e+000) (2, 8.61500874010898370000e-001) (3, -1.90680404645539750000e+000) (4, -2.32833902790673060000e-001) (5, 2.61432302280009190000e-001) (6, -1.24343200237798230000e+000) (7, 2.99294012489570660000e-001) (8, -7.57935558176753290000e-001) (9, -1.26046946514170310000e-001) (10, -2.67915652994969060000e-001) (11, 1.79455259242078720000e-001) (12, -8.34024655719407650000e-001) (13, -3.36948614927653990000e-001) (14, 7.81459813670845050000e-002) (15, 1.96124191708784650000e-001) (0, -7.16266486161714620000e-001) (1, 1.45842876832146940000e+000) (2, 2.82652449302140290000e+000) (3, 1.09666817840941570000e-001) (4, 1.14718398314131710000e+000) (5, 1.30674415713898820000e+000) (6, 4.33668913757450540000e-001) (7, -6.28243537977469370000e-002) (8, 5.19386611542909550000e-001) (9, -1.15699130504782850000e-001) (10, 2.96741875421497490000e-001) (11, 1.26296640322665720000e+000) (12, 1.48063884840503590000e-001) (13, 4.80775401219764090000e-001) (14, -6.49447942571414030000e-001) (15, -4.44506519342861120000e-001) (0, -1.52316408184452960000e+001) (1, 1.36931914259537520000e+000) (2, 1.89559445947725500000e+001) (3, -2.00827412843637940000e+000) (4, 1.39051304533555470000e-002) (5, 1.22225807123996040000e+000) (6, 6.57292796280383730000e-001) (7, -4.03212924302260580000e-001) (8, -1.72221315524671970000e+000) (9, 1.38930353215502210000e-001) (10, -3.66590896971050050000e-002) (11, 8.04693049883661440000e-002) (12, 5.91756194553621010000e-002) (13, 2.85343937641786730000e-002) (14, -6.79848149165576810000e-002) (15, 8.49243817542706950000e-001) (0, 4.36212911708882260000e+000) (1, 9.99635852322542040000e-001) (2, 3.72303659235236140000e+000) (3, 1.19563474344884260000e+000) (4, -7.54877314399241660000e-001) (5, -1.19686630507324300000e-002) (6, 1.57750129123728500000e+000) (7, -9.05316987019201130000e-002) (8, 1.06271397195727660000e-001) (9, -7.83134840020176640000e-001) (10, -6.53495336503772340000e-001) (11, 5.27551680994033710000e-001) (12, -2.68089619266127900000e-001) (13, 4.75540157978259110000e-003) (14, 2.02356256097260020000e-001) (15, -1.49515851708519050000e-001) (0, -1.28086842663306480000e+000) (1, -3.83054261999165760000e-001) (2, -6.13160004086843990000e+000) (3, -1.41618680351315150000e-002) (4, -1.07921251647066980000e-001) (5, -1.79851670005956310000e-001) (6, 1.18726571049091060000e+000) (7, 7.46969310321679460000e-001) (8, 3.76320910478181720000e+000) (9, -4.78801930214263870000e-001) (10, 8.63177660059113230000e-001) (11, -1.55360972003087280000e-002) (12, 2.74252241698606740000e-001) (13, 1.15368389136141970000e-001) (14, -9.75952959308378640000e-003) (15, 3.33208455738825740000e-001) (16, 1.49724102614123010000e+000) (17, 2.71585281115627670000e+000) (18, 1.28786565732527380000e+000) (19, 5.32838240008277620000e+000) (20, 7.80482012130877760000e+000) (21, 1.10097385915917290000e+000) (22, -2.60876468165505710000e+000) (23, 1.43730267551769850000e+001) (24, -1.97991787586123790000e+000) (25, 7.38127801228900000000e+000) (26, 1.17614574640160210000e+000) (27, 2.16610565968207470000e+000) (28, -4.13134402145996130000e+000) (29, 1.42730749891978400000e-001) (30, 4.14458751741070850000e+000) (31, 3.23403797137995270000e+000) (32, -2.83711752680809550000e+000) (33, 9.78715150310452310000e-001) (34, 1.26909262944783160000e-001) (35, -1.14315076982622730000e+001) (36, -1.09874263191781880000e+000) (16, -2.27384405693099680000e+000) (17, -1.03745100116082210000e+001) (18, 3.05459333788471010000e+000) (19, 1.70346822260078240000e+001) (20, 1.68908350466654230000e+001) (21, 2.51083900567860270000e+000) (22, 4.68167040976774280000e+000) (23, 1.37012610056024790000e+001) (24, -1.62149889743066340000e+000) (25, -1.02219252756247590000e+001) (26, 1.97240047797975730000e+000) (27, -2.03085199167712120000e-001) (28, 1.99043582039481850000e+000) (29, 1.60455903243490950000e+000) (30, -1.47340610906649890000e+000) (31, 1.68558004954950210000e+001) (32, 1.08727610071681320000e+000) (33, -2.24521173051252760000e+000) (34, 1.42168337420471300000e+000) (35, -1.56728832612672670000e+000) (36, -1.71041544417598690000e+000) (16, -1.85739786851776480000e+000) (17, -9.80955082731302270000e-001) (18, 2.57492591315469310000e-001) (19, -7.28180184686246790000e-001) (20, -3.59135632059439210000e-001) (21, -3.97890361903992320000e+000) (22, -3.35011431177659360000e-001) (23, 1.45291287205727220000e+000) (24, 2.45787226901064940000e-001) (25, -1.25543680728795070000e+000) (26, -2.37027204529151940000e+000) (27, -1.15992407301195100000e-001) (28, 7.19024732300823110000e+000) (29, -9.59099944134936600000e-001) (30, -3.56565943392358250000e+000) (31, 7.84883437139195390000e-001) (32, -2.18687428078755760000e+000) (33, 8.85585822082935900000e-001) (34, 2.82069047536797290000e-001) (35, 3.13278993369190240000e-001) (36, 6.07809671631405690000e-002) (16, 8.81697100427964790000e-001) (17, 8.61832892214183130000e-001) (18, 1.11085726176894490000e+000) (19, -1.91743755148098870000e+000) (20, 5.52569076046712790000e-001) (21, -1.81479799812660200000e+000) (22, 2.08770303190635030000e+000) (23, 6.08107369594761070000e-002) (24, 1.05568062527997710000e+000) (25, 7.11070628134834020000e-001) (26, 6.53769321598266510000e-001) (27, -3.94228441220781580000e+000) (28, 6.31005404694398480000e-001) (29, 6.69293736148070200000e+000) (30, 5.20176456648906770000e-001) (31, 6.36167743699007460000e+000) (32, -4.26620647279662200000e-001) (33, 1.08068311642285250000e+000) (34, 1.99896974987434220000e-001) (35, 6.53431654065443010000e+000) (36, -1.21387725124360070000e+000) (16, 2.60105170022443840000e+000) (17, 1.03198056099832130000e+001) (18, -4.11784101114350490000e-001) (19, 3.33871266251557270000e+000) (20, 1.21574054790806800000e+001) (21, 1.83768853982175170000e+000) (22, -7.15297107816465520000e+000) (23, 7.42725343555925120000e+000) (24, -2.13781433651332040000e+000) (25, 6.06342952781463040000e+000) (26, 2.81302258678136360000e+000) (27, 9.23225511132035770000e+000) (28, -1.24986842472397800000e+001) (29, 3.16899406555349610000e+000) (30, 3.33066261445914690000e+000) (31, 6.86513551069036150000e+000) (32, 2.62391164153532140000e+000) (33, 3.75363387734748470000e+000) (34, 2.05926569290690690000e+000) (35, -5.38909551909749140000e+000) (36, -6.67736364373101840000e+000) (16, -7.52295437814724520000e-001) (17, -1.26381730850771290000e+000) (18, -1.97816588626361260000e-001) (19, 5.81147600663406650000e+000) (20, -5.36129952835183770000e+000) (21, 1.38145882327180550000e+000) (22, 4.13326112488494930000e-001) (23, 3.38355399267043030000e+000) (24, -3.01014279502378070000e+000) (25, -3.03823199303326010000e-002) (26, -4.13523497226164590000e+000) (27, 1.06678053378533690000e+000) (28, -1.56313959104611770000e+000) (29, 1.13598180477982400000e-001) (30, 9.52952227971018860000e-001) (31, 5.03308934853129220000e-001) (32, 1.10607078123188370000e+000) (33, 3.00887115930948190000e-001) (34, 9.35033020341059170000e-001) (35, -4.26753678409193250000e+000) (36, 7.30699871392507800000e-001) (16, 3.93513873217303710000e+000) (17, -2.81910269067175050000e+000) (18, 1.53812205028951680000e+000) (19, 4.53065600651133240000e+000) (20, -4.14090859369172830000e+000) (21, 1.57656354423152400000e+001) (22, -1.72625732865334090000e+000) (23, -5.23713822079719280000e+000) (24, -1.61392950084695010000e+000) (25, -2.17937986391343100000e+000) (26, 3.36535853257609930000e+000) (27, 1.14167812937517990000e+000) (28, -1.44527006709210060000e+000) (29, 1.80991797707849740000e-002) (30, -3.36166597920900760000e+000) (31, -2.40619763285148030000e+000) (32, 2.66932954057028750000e+000) (33, 2.43132966719236570000e+000) (34, 1.40773368619830140000e+001) (35, -3.37874650653710740000e+000) (36, 2.12920366266427670000e+000) (16, 1.35527930400655720000e-001) (17, -2.06693068760985140000e+000) (18, -4.71167836342911790000e+000) (19, -3.67504084151910830000e+000) (20, 2.42194032884705330000e-002) (21, 7.24961337388055020000e-001) (22, -2.97374328597627710000e+000) (23, -3.38338190370076440000e+000) (24, 1.65279251362179690000e+000) (25, 2.26059108121912280000e+000) (26, -3.90647687380962380000e+000) (27, -2.97396230593150480000e+000) (28, 7.19888181609206420000e+000) (29, -5.61438917943178680000e+000) (30, 2.36742241564602360000e-001) (31, 1.67883847291542270000e+001) (32, -4.21715694902001450000e-001) (33, -6.41042724968287110000e+000) (34, -5.16981995823897740000e+000) (35, -1.71094803522183870000e+000) (36, -2.23088750828012470000e+000) (16, 1.86757105977561970000e+000) (17, 1.30707054417492090000e+000) (18, 2.72676509324421180000e+000) (19, 9.71148284905912540000e+000) (20, -4.38158341757732830000e+000) (21, -2.42937025079491580000e-001) (22, -2.41392141900727800000e-001) (23, 5.01643163730591990000e+000) (24, 2.40075969522011200000e+000) (25, -2.81112131101315830000e+000) (26, 6.74470547833922880000e-002) (27, -1.24718961751422720000e+000) (28, 1.00777942253883080000e+000) (29, -4.39179519773178540000e-001) (30, 2.17693021497872060000e+000) (31, 5.94159272004575190000e-001) (32, -6.02281861615955430000e-001) (33, 6.35378107806555680000e-002) (34, 1.57482838677735960000e+000) (35, 3.67365598683683640000e+000) (36, 2.87668365785992420000e-001) (16, -1.81134350648031780000e+000) (17, 4.85740661816764430000e+000) (18, 2.82821849052781540000e+000) (19, 6.73382763575961450000e+000) (20, 1.47085012263744460000e+001) (21, -9.81096169066407060000e-001) (22, 4.50751498823566440000e+000) (23, 2.69996475254809320000e+000) (24, -2.24345938868817820000e+000) (25, 9.05936918567665010000e-001) (26, -5.34919496873072720000e-001) (27, 1.20993835254220380000e+001) (28, -8.87005715467867000000e-001) (29, 3.43466564724113520000e-001) (30, 1.54642474291863600000e+000) (31, 3.72126788412386360000e+000) (32, -2.53546885865331580000e+000) (33, 3.62151525630300550000e+000) (34, 7.45497005169075420000e+000) (35, 3.95717865814025130000e-001) (36, 6.60658803623312310000e-001) (16, -4.63940766934265610000e-001) (17, -7.27724579681434000000e-001) (18, 2.74672223424251630000e-001) (19, -1.79513201519916280000e+000) (20, 2.83648732118893050000e+000) (21, 8.64409558468605820000e-002) (22, 3.29476218173092180000e+000) (23, -8.27125469559246620000e+000) (24, -4.12308126845478130000e-001) (25, -1.15094418664705670000e+000) (26, -6.55425727517627950000e-001) (27, 4.28576737728641000000e+000) (28, -3.26443511029524160000e+000) (29, 3.39534653338687460000e+000) (30, -7.30281129841666380000e-001) (31, -3.42006790901890590000e+000) (32, -1.10978257254871580000e+000) (33, 3.64308456402917450000e+000) (34, -8.11947582322810040000e+000) (35, 4.94147038803675050000e-001) (36, -8.41430185113321460000e-001) (16, 3.11056627614436240000e+000) (17, -5.13934838570142110000e-001) (18, 1.34946667264060130000e+000) (19, -3.61526252781355250000e-001) (20, 2.45011554477620570000e+000) (21, 1.01994918373088450000e+000) (22, -3.24202138337867210000e-001) (23, -6.51802719073198640000e-001) (24, 1.75408555645131490000e+000) (25, 1.44291258605916570000e-001) (26, 8.86540184887877890000e-001) (27, 8.54219955892364770000e-001) (28, 8.67187111333101330000e+000) (29, 1.27412517429600450000e+000) (30, 9.68084937589389960000e-001) (31, 1.19480932039119540000e+000) (32, 1.31550049724094940000e+000) (33, -2.52379968988720330000e+000) (34, -2.22755584355749250000e+000) (35, -1.72453990015870010000e+000) (36, 2.96212486227307890000e-001) (16, -1.80820233568842050000e+000) (17, -1.54492864678374130000e+000) (18, -8.62549369922961050000e-001) (19, 1.37286133478718760000e+000) (20, 1.15223987268178110000e+000) (21, -2.83977836143809540000e+000) (22, 7.37192868219842980000e-001) (23, -2.36193448770635890000e-001) (24, -4.00828134325279350000e+000) (25, 1.26930134022276400000e-001) (26, -1.27686376175239840000e+000) (27, 6.75586061794029140000e-001) (28, -3.15125537401761770000e+000) (29, -3.89478743437009770000e+000) (30, -2.15887473421853350000e+000) (31, 3.21558934159479390000e-001) (32, -3.14173663368778480000e+000) (33, 2.62322221398184800000e+000) (34, 1.55829037668374370000e+000) (35, 1.62644058885778660000e+000) (36, -7.04374349216223970000e-002) (16, 6.52816159581606770000e-001) (17, -8.35823818629501680000e+000) (18, 3.94346105555467120000e+000) (19, -2.57440640723331260000e+000) (20, -3.36601878734603190000e+000) (21, -1.76250830890294750000e-001) (22, -3.15591701674271710000e+000) (23, 8.28512732929223010000e-002) (24, 1.79581399021423310000e-001) (25, 2.73577643351867650000e+000) (26, 1.05243599303492140000e+000) (27, -3.26410301901182070000e-002) (28, 2.33140382533597720000e+000) (29, -1.87117567374095060000e+000) (30, -2.43637664660950160000e+000) (31, 2.59476265246019770000e+000) (32, 6.75569631759982410000e-002) (33, -9.11437007387284610000e-001) (34, 1.28562217463911230000e+000) (35, -5.54822314255733810000e-001) (36, 1.71468835504862030000e-001) (16, 1.34239859637749670000e+000) (17, 4.23723030563096790000e+000) (18, -7.10434466266139260000e-001) (19, -1.04709369071096870000e-001) (20, -1.79596489663109790000e-001) (21, -2.28205461784733600000e+000) (22, 3.94058069574603880000e+000) (23, 1.48153668037580030000e+000) (24, 1.50372997253107040000e+000) (25, 2.19362368419402420000e+000) (26, -1.45554854402751000000e+000) (27, 2.64533720031369550000e+000) (28, 5.91030098823176140000e-001) (29, -7.01554559897050290000e-001) (30, -2.41023886526848670000e+000) (31, 2.48358725588440520000e-001) (32, -9.62515556657197280000e+000) (33, 6.78002240820066440000e-001) (34, -1.40472875115361640000e+000) (35, 3.72545983187597370000e+000) (36, 2.37728747770418950000e-002) (16, 9.34945630498416060000e-001) (17, -6.41394166493677860000e-001) (18, 9.19723672881983200000e-001) (19, -7.44798892556180460000e+000) (20, 9.68612508559895600000e+000) (21, -7.64411511197385170000e+000) (22, 2.74144558095386290000e-001) (23, -1.93765665605515780000e+000) (24, 4.77473227742581500000e-001) (25, 2.31996701015587760000e+000) (26, -1.74289470609337020000e+001) (27, -1.58497579716436520000e+000) (28, -9.98065357170700660000e-001) (29, 2.00855196322697700000e+000) (30, -3.48116863828800540000e+000) (31, -1.17972228646408050000e+001) (32, -5.52755041449595310000e-001) (33, -1.08618226561764990000e+000) (34, -3.40426300438542830000e+000) (35, 1.38165034175823360000e+001) (36, 8.96031470093880730000e-001) (16, 1.24459481660202580000e+000) (17, 3.27426127689736650000e+000) (18, 2.75236700691813980000e+000) (19, -1.44656836475490900000e+000) (20, -8.90596767867245550000e+000) (21, 5.17303779663834450000e-001) (22, 1.26419074827731340000e+000) (23, -6.60785685453223580000e-001) (24, -3.45690551172452980000e+000) (25, -2.93834392828497130000e+000) (26, -7.70068698399942520000e-001) (27, -1.19386452219601940000e+000) (28, -4.58575244316951350000e-001) (29, 7.33540756309673280000e+000) (30, 1.43209825685337710000e+000) (31, 1.76101015823706550000e-002) (32, -2.13271578479843350000e-001) (33, 2.42155765292136940000e+000) (34, 1.41103948491922080000e-002) (35, -1.75702737885493930000e-001) (36, 4.96082674591779070000e-001) (16, 5.88500836664863240000e+000) (17, -2.08192618503565510000e+001) (18, -3.15391305057615770000e+000) (19, 8.83027335342018740000e+000) (20, 1.40446003645735120000e+001) (21, -4.17419101375304870000e-002) (22, 1.61203496229432490000e+000) (23, -1.43331111573733040000e-002) (24, 5.08104752517090490000e+000) (25, 3.54995906337661540000e-001) (26, -2.15937365287767550000e+000) (27, -9.02379641224201200000e+000) (28, -1.82702388540742370000e+000) (29, 7.68384930379297250000e+000) (30, -3.17167375264727660000e-001) (31, 2.80607428199902430000e+000) (32, 7.21496437021535280000e+000) (33, 2.03528697263081870000e+000) (34, 6.77631758813411530000e+000) (35, 3.97515371322062330000e-001) (36, 2.13067367425153930000e+000) (16, -3.30565669909008710000e-001) (17, -1.80156030483519890000e-001) (18, -1.52663127322760590000e+000) (19, -7.42715578616680250000e-001) (20, 5.13999270660618190000e+000) (21, 2.23814868086857950000e+000) (22, 1.52613925930516010000e+000) (23, 2.11303672921108370000e+000) (24, -3.36675391369103270000e+000) (25, -7.66299313312327260000e-001) (26, 1.33156642670040480000e+000) (27, -3.09817575296314860000e+000) (28, 1.01735009286742350000e+000) (29, 1.03343107400520000000e+000) (30, 8.44178904575738190000e-001) (31, -3.87370182214136840000e+000) (32, 1.70111498391538230000e+000) (33, 2.68956844286440070000e-001) (34, -6.33886241598306640000e-001) (35, -4.68547200104736380000e-001) (36, 4.98471820577505610000e-001) (16, -1.28043939786985010000e+000) (17, -7.72278558669732630000e+000) (18, -1.49299970881899210000e+000) (19, 1.24217852564875670000e+001) (20, -1.27311130124396430000e+001) (21, 4.15115031511854940000e+000) (22, 6.48598669677199810000e-001) (23, 1.67718524354387300000e+000) (24, 9.16096363261701190000e-001) (25, 6.88929936292133860000e+000) (26, 3.04193444592450350000e-001) (27, -5.26479901353708430000e+000) (28, 3.73914765576604320000e+000) (29, -8.07326248500897670000e+000) (30, 1.99937693571318690000e-001) (31, -2.37370445439227320000e+000) (32, 5.88536010151234560000e+000) (33, 1.01681085620699700000e-001) (34, 7.69402818686518500000e+000) (35, -3.90003600841444540000e+001) (36, -2.94680101115609800000e+000) (37, 5.57844501475660510000e+000) (38, -7.91945423028351140000e+000) (39, 1.81974667986560700000e+001) (40, 7.65853409010729800000e+000) (41, 1.19742658474930040000e+000) (42, 2.11245579525405660000e+000) (43, 1.83546501291268880000e+000) (44, -1.18626595521097070000e+000) (45, 7.27907531411744380000e+000) (46, 1.03415358416486300000e+000) (47, -1.75227041163517400000e+001) (48, -1.85385447786446610000e+000) (49, 4.55372053862857570000e+000) (50, 1.18821316829808910000e-001) (51, -1.13054801683230140000e+000) (52, -4.23727557064710460000e-002) (53, 3.09104507107835640000e+000) (54, -9.90161133607109110000e-001) (55, -9.09431962300742750000e-001) (56, 2.84251108306033510000e-001) (57, 3.74921674843106230000e-001) (37, 3.72235153916113900000e+000) (38, -2.77456162488135930000e-001) (39, 4.57684188587838390000e+000) (40, 1.65618184056591460000e+001) (41, -9.15079301030068630000e-001) (42, -1.09250747061375680000e+001) (43, 2.22494129065869160000e+000) (44, -2.29917082971937470000e+000) (45, -8.70960993785914360000e+000) (46, 4.10781186181586650000e-001) (47, 3.60663310889554410000e+000) (48, 1.10855418394220140000e-001) (49, 1.18760311988300990000e+000) (50, -3.60657395651670650000e-001) (51, 6.76063680017425830000e+000) (52, -6.05754809772674930000e-001) (53, -1.86624496253313610000e+000) (54, 4.53145858823330190000e-001) (55, 1.41587269457615260000e+000) (56, 5.94991941003909730000e+000) (57, -3.60966647969132960000e+000) (37, 2.87809885575782730000e+000) (38, 2.95725676724322870000e-001) (39, 3.31897834736601900000e+000) (40, 8.50095797660459060000e+000) (41, -3.95350635661240930000e+000) (42, -5.79000036627322780000e+000) (43, -4.79010895868944160000e+000) (44, -3.16431900411489360000e+000) (45, 1.02189209325008030000e+000) (46, -6.17726349260667050000e-001) (47, 9.92673893015136600000e+000) (48, 3.16182423573952760000e+000) (49, 8.31191344372078980000e-001) (50, -2.74186240589642870000e+000) (51, 2.19388178861039870000e+001) (52, -7.77493612388157510000e-001) (53, -4.92193552361103680000e-001) (54, 6.01035850310035370000e-001) (55, -2.56535160605792220000e+000) (56, 2.42362898612600650000e+000) (57, -1.46909952332572740000e+000) (37, 1.64034545077835010000e+000) (38, -4.32782700729882470000e+000) (39, 7.95131619831235170000e+000) (40, 5.09472066259241970000e+000) (41, 3.86085830204583760000e+000) (42, 1.52317110466885670000e+000) (43, -2.30181496406081100000e+000) (44, -9.91047356241951620000e-001) (45, 1.72432984155874510000e+000) (46, 5.90580729414016670000e+000) (47, -6.53312212356937480000e+000) (48, 2.26507577755354950000e+000) (49, 1.17728769989713470000e+000) (50, 1.68343116198740500000e+001) (51, 4.69041267705565180000e+000) (52, -1.13096584152422920000e-001) (53, 7.72208137498206600000e+000) (54, 6.32326210830301050000e-001) (55, -7.41998742466220570000e+000) (56, 1.28355136555913330000e+000) (57, -2.72422078120662090000e-003) (37, -6.58059479557173080000e+000) (38, -1.98990754990542250000e-001) (39, 2.45949306657296680000e+000) (40, 1.14581364441872360000e+001) (41, 6.10043470983268140000e+000) (42, 3.39042110227713870000e+000) (43, 4.52059652022818610000e+000) (44, -3.58710748127767640000e+000) (45, 7.58638663811868240000e+000) (46, 3.06065452882847570000e+000) (47, 7.71873856213556220000e+000) (48, -2.34469146713696090000e-001) (49, 5.68683215246517190000e+000) (50, -5.80327074719528730000e+000) (51, -6.57167984971635020000e+000) (52, -3.86795799162636010000e-001) (53, 7.69985026375518710000e+000) (54, -5.19266531968190840000e-001) (55, 2.90267409392365660000e+000) (56, -8.52392524492700510000e+000) (57, 2.95832373587707700000e-001) (37, -1.36381454224640410000e+000) (38, -1.00569258027429370000e-001) (39, -1.04600432176275620000e+000) (40, 5.07460987061660430000e+000) (41, 1.42778040579970280000e+000) (42, -5.62434772490196800000e+000) (43, 8.78801519210926920000e-002) (44, -9.28628239759579620000e+000) (45, 2.05561060081709490000e+000) (46, 2.32087411357745350000e-001) (47, -6.68809366597779140000e+000) (48, 1.35243327642206970000e+001) (49, -1.58126208050588470000e+001) (50, 1.85106952897117650000e+000) (51, -1.73754487549056940000e+000) (52, -8.51311557262982000000e+000) (53, 7.00007406371173540000e-001) (54, -5.38675523881423770000e+000) (55, -1.14427411742914840000e+000) (56, -4.14154107371716500000e+000) (57, -5.91534821764883700000e-001) 
