FANN_FLO_2.1
num_layers=3
learning_rate=0.700000
connection_rate=1.000000
network_type=1
learning_momentum=0.000000
training_algorithm=2
train_error_function=1
train_stop_function=1
cascade_output_change_fraction=0.010000
quickprop_decay=-0.000100
quickprop_mu=1.750000
rprop_increase_factor=1.200000
rprop_decrease_factor=0.500000
rprop_delta_min=0.000000
rprop_delta_max=50.000000
rprop_delta_zero=0.100000
cascade_output_stagnation_epochs=12
cascade_candidate_change_fraction=0.010000
cascade_candidate_stagnation_epochs=12
cascade_max_out_epochs=150
cascade_min_out_epochs=50
cascade_max_cand_epochs=150
cascade_min_cand_epochs=50
cascade_num_candidate_groups=2
bit_fail_limit=1.00000001490116120000e-001
cascade_candidate_limit=1.00000000000000000000e+003
cascade_weight_multiplier=4.00000000000000020000e-001
cascade_activation_functions_count=10
cascade_activation_functions=3 5 7 8 10 11 14 15 16 17 
cascade_activation_steepnesses_count=4
cascade_activation_steepnesses=2.50000000000000000000e-001 5.00000000000000000000e-001 7.50000000000000000000e-001 1.00000000000000000000e+000 
layer_sizes=16 40 6 
scale_included=0
neurons (num_inputs, activation_function, activation_steepness)=(0, 0, 0.00000000000000000000e+000) (0, 0, 0.00000000000000000000e+000) (0, 0, 0.00000000000000000000e+000) (0, 0, 0.00000000000000000000e+000) (0, 0, 0.00000000000000000000e+000) (0, 0, 0.00000000000000000000e+000) (0, 0, 0.00000000000000000000e+000) (0, 0, 0.00000000000000000000e+000) (0, 0, 0.00000000000000000000e+000) (0, 0, 0.00000000000000000000e+000) (0, 0, 0.00000000000000000000e+000) (0, 0, 0.00000000000000000000e+000) (0, 0, 0.00000000000000000000e+000) (0, 0, 0.00000000000000000000e+000) (0, 0, 0.00000000000000000000e+000) (0, 0, 0.00000000000000000000e+000) (16, 5, 1.00000000000000000000e+000) (16, 5, 1.00000000000000000000e+000) (16, 5, 1.00000000000000000000e+000) (16, 5, 1.00000000000000000000e+000) (16, 5, 1.00000000000000000000e+000) (16, 5, 1.00000000000000000000e+000) (16, 5, 1.00000000000000000000e+000) (16, 5, 1.00000000000000000000e+000) (16, 5, 1.00000000000000000000e+000) (16, 5, 1.00000000000000000000e+000) (16, 5, 1.00000000000000000000e+000) (16, 5, 1.00000000000000000000e+000) (16, 5, 1.00000000000000000000e+000) (16, 5, 1.00000000000000000000e+000) (16, 5, 1.00000000000000000000e+000) (16, 5, 1.00000000000000000000e+000) (16, 5, 1.00000000000000000000e+000) (16, 5, 1.00000000000000000000e+000) (16, 5, 1.00000000000000000000e+000) (16, 5, 1.00000000000000000000e+000) (16, 5, 1.00000000000000000000e+000) (16, 5, 1.00000000000000000000e+000) (16, 5, 1.00000000000000000000e+000) (16, 5, 1.00000000000000000000e+000) (16, 5, 1.00000000000000000000e+000) (16, 5, 1.00000000000000000000e+000) (16, 5, 1.00000000000000000000e+000) (16, 5, 1.00000000000000000000e+000) (16, 5, 1.00000000000000000000e+000) (16, 5, 1.00000000000000000000e+000) (16, 5, 1.00000000000000000000e+000) (16, 5, 1.00000000000000000000e+000) (16, 5, 1.00000000000000000000e+000) (16, 5, 1.00000000000000000000e+000) (16, 5, 1.00000000000000000000e+000) (16, 5, 1.00000000000000000000e+000) (16, 5, 1.00000000000000000000e+000) (16, 5, 1.00000000000000000000e+000) (16, 5, 1.00000000000000000000e+000) (16, 5, 1.00000000000000000000e+000) (56, 0, 1.00000000000000000000e+000) (56, 0, 1.00000000000000000000e+000) (56, 0, 1.00000000000000000000e+000) (56, 0, 1.00000000000000000000e+000) (56, 0, 1.00000000000000000000e+000) (56, 0, 1.00000000000000000000e+000) 
connections (connected_to_neuron, weight)=(0, -3.43544289776501640000e-001) (1, 1.43915010304422390000e-001) (2, -2.70548313260534500000e-002) (3, -2.53233551563442740000e-001) (4, -1.05097901032235290000e-001) (5, 9.13701681379667370000e-002) (6, 1.91740184126741430000e-001) (7, 7.25614531977938900000e-002) (8, 5.17968770185483260000e-001) (9, 1.56666583312879410000e-001) (10, -1.97980259646620110000e-001) (11, 1.87452116854822490000e-001) (12, -1.50296398603415480000e-001) (13, -2.69780645251150530000e-001) (14, -1.65769525503064370000e-001) (15, -1.83670332567268720000e-001) (0, -1.00858700969494440000e-001) (1, 2.85391006470656960000e-001) (2, 1.96079265678872020000e-001) (3, -3.38349662132515270000e-001) (4, 2.23675318775408780000e-001) (5, 1.86058499801671740000e-002) (6, -2.83308117582711850000e-001) (7, 1.88639176091035310000e-001) (8, 1.30962079540080260000e-002) (9, -6.34560412835215560000e-003) (10, -4.68550069201486350000e-002) (11, -2.00635890057625110000e-001) (12, 7.34166938492488570000e-002) (13, 5.74193180068851420000e-002) (14, -9.36751160237856150000e-002) (15, 1.74520912299709840000e-001) (0, 4.23024680112707270000e-001) (1, -4.40654736786207230000e-002) (2, 4.08576329106361410000e-002) (3, 2.70258588289331910000e-001) (4, 7.76178804590690750000e-002) (5, 6.50523564354883320000e-002) (6, 8.37205116769316610000e-002) (7, -4.39876646181902750000e-001) (8, -1.57934758801709710000e-001) (9, 1.06513071072034320000e-001) (10, 5.25490809626298840000e-002) (11, 1.07942216879221650000e-001) (12, -6.60971401824604480000e-002) (13, -1.60523543754535590000e-001) (14, 1.65968303083706610000e-001) (15, -4.60406912274267280000e-001) (0, -1.57412271444916240000e-001) (1, 3.49912349283887980000e-001) (2, 4.29571713949830460000e-001) (3, -2.32568048941501280000e-002) (4, 2.65574060906175020000e-001) (5, 1.16131538145293160000e-001) (6, 2.92795693416012410000e-001) (7, 1.49386185324334620000e-001) (8, -2.02256003836226910000e-001) (9, -1.70544490242520220000e-001) (10, -1.38310403546070410000e-001) (11, 7.36214821645114760000e-002) (12, 2.94008974719511150000e-001) (13, 1.76257975715144930000e-001) (14, 9.22466926053979310000e-002) (15, 8.39155062107245320000e-003) (0, -3.73357068514728160000e-001) (1, -5.35393816677004360000e-001) (2, -7.39517697907893510000e-002) (3, -2.41457180433816450000e-001) (4, -1.17043177784827780000e-001) (5, -1.16579497143074630000e-003) (6, -4.35558086919271110000e-001) (7, -1.12514220422380520000e-002) (8, -5.51638388066908810000e-002) (9, -3.03334271519693940000e-001) (10, -1.03920027301869420000e-001) (11, 5.38668223341402240000e-002) (12, -3.45053649171747630000e-001) (13, -8.59678861893968530000e-002) (14, -3.22710639577580230000e-001) (15, 2.46975494137628360000e-002) (0, 1.60937574884380960000e-001) (1, 3.98291012794604880000e-002) (2, -4.15588424831147340000e-002) (3, -1.58980739571895650000e-001) (4, -1.73236394974536080000e-001) (5, 2.19709819635718090000e-001) (6, 1.73997651477105690000e-001) (7, 1.03206915212470610000e-002) (8, 5.74017703423478510000e-003) (9, -2.86152025009770990000e-001) (10, -8.30392148802596850000e-002) (11, -6.46374528969403120000e-002) (12, -2.61219101109563870000e-001) (13, 1.24877937140608390000e-001) (14, -2.64465736242370690000e-001) (15, 8.83623812598206960000e-002) (0, 2.86172371775977540000e-001) (1, 2.44765251811446350000e-003) (2, 3.40261783726650140000e-002) (3, 1.44626167550046090000e-001) (4, 1.95704855472336650000e-001) (5, -1.32481306059144740000e-001) (6, 7.47948068540817740000e-003) (7, 1.21104210032554230000e-001) (8, 1.03991363520421290000e-001) (9, 2.95781425355406970000e-001) (10, 2.97599070218622750000e-001) (11, 1.25038297604361910000e-002) (12, -5.86115259721604750000e-002) (13, 3.22462778816466010000e-001) (14, -7.46437588014687290000e-001) (15, 1.01362422852279530000e-001) (0, -4.69969036872662170000e-001) (1, -1.25266815662323340000e-001) (2, -6.59328513379456190000e-001) (3, -2.14600518667280920000e-001) (4, 7.86637682826525080000e-002) (5, -5.07107802877511000000e-001) (6, 1.56684527535649490000e-001) (7, -2.57554078612375950000e-001) (8, -5.15204605682216540000e-002) (9, -5.50760139940388170000e-002) (10, 2.02481745669162110000e-001) (11, -1.26757781356048070000e-001) (12, 5.01432806561397100000e-002) (13, -1.67049342730050070000e-001) (14, -7.43380314829429350000e-002) (15, -2.49950440066950190000e-001) (0, 1.88435621907454240000e+000) (1, 6.34710376829893950000e-001) (2, 1.36925638544380010000e-002) (3, 5.39409253059179420000e-001) (4, -6.77159324252839950000e-004) (5, -8.80974041333169450000e-002) (6, 5.78969538031899210000e-001) (7, 4.88721323963850370000e-001) (8, 4.34021552887154520000e-002) (9, 2.52085783834576970000e-001) (10, 1.29268221418848720000e-001) (11, 6.24631740912912830000e-002) (12, 8.58280092139501600000e-002) (13, -1.05365225239642430000e-002) (14, 1.60662404843189750000e-001) (15, 5.31710448318664320000e-001) (0, -5.21576932663643180000e-002) (1, -1.99155083619787260000e-001) (2, 2.17334313597085210000e-003) (3, 2.09819548386731610000e-001) (4, -1.84876371944676900000e-002) (5, -4.19185343399771040000e-001) (6, -1.12242768879781230000e-003) (7, 2.70681448651613590000e-001) (8, 1.22523191485436890000e-001) (9, 1.96171070785097600000e-001) (10, -1.67733411027359280000e-001) (11, 2.49793650687730250000e-002) (12, 1.90359680623415430000e-001) (13, -3.75417859919316750000e-001) (14, -2.73123042542607620000e-003) (15, -1.54578525443746700000e-001) (0, -2.19345530158505160000e-001) (1, -6.18580610563124080000e-001) (2, -2.44097967414083430000e-001) (3, -8.44515694280775910000e-002) (4, -2.14180220095254310000e-001) (5, 2.41850436572662640000e-001) (6, 2.30688547908466660000e-001) (7, 1.50975039511096860000e-002) (8, -6.14759249303329160000e-002) (9, 1.47556231214341500000e-001) (10, 9.66737809150436390000e-002) (11, -1.13183382906366190000e-001) (12, -9.32203562019174730000e-002) (13, 9.72828274486368110000e-002) (14, -5.63060024456834700000e-002) (15, 7.42721804767850630000e-002) (0, 3.20021485829408480000e-001) (1, 3.71882421222316070000e-001) (2, 9.68081251841300670000e-002) (3, 2.20223231581790250000e-002) (4, -2.18154619222017810000e-001) (5, 2.92650571304160330000e-001) (6, -2.59371083649396540000e-001) (7, 2.94427834235251870000e-001) (8, 1.75712552323920330000e-001) (9, 2.11217129311262690000e-001) (10, -1.75403197434350870000e-001) (11, 9.58983950530393060000e-002) (12, 3.00398795547706990000e-001) (13, 6.44675520469776050000e-001) (14, 8.51387056307813250000e-002) (15, 3.13626578094020500000e-001) (0, -3.86617149519989880000e-001) (1, 3.37575421329667290000e-002) (2, 6.49150543307008550000e-002) (3, 9.49305591567228410000e-002) (4, 1.43124946639905490000e-001) (5, 1.58815225899779840000e-001) (6, -1.59474600021263100000e-001) (7, -6.78341183775011680000e-002) (8, 3.04725868841301440000e-002) (9, 2.61910187012861960000e-002) (10, -2.71484188542650000000e-001) (11, 9.25121037005403460000e-002) (12, 9.41883992529706230000e-002) (13, -3.84151506118388320000e-002) (14, -2.52857251546075720000e-002) (15, 1.14818960115588380000e-001) (0, -4.78955029161535480000e-001) (1, -2.67013183617012480000e-001) (2, -1.67961624863005170000e-001) (3, -7.53082069260100350000e-002) (4, 2.92517778999404620000e-002) (5, -1.48789830803270660000e-001) (6, 4.97578647176623030000e-001) (7, -5.79405405928996170000e-002) (8, -1.41813133984996120000e-001) (9, -1.76492932030590490000e-001) (10, 6.24778104204029160000e-002) (11, -4.26971542156761720000e-002) (12, -3.30195398745216810000e-001) (13, -4.21336273154584380000e-001) (14, -2.02229023891423050000e-001) (15, -2.91402726819289910000e-001) (0, 3.33242981816444240000e-002) (1, 1.54552714604221210000e-001) (2, 5.35858000999134830000e-002) (3, -1.37821957152148840000e-001) (4, 2.56397099623170200000e-001) (5, 2.35196512448618420000e-001) (6, 1.57199452622692300000e-001) (7, 6.15845282337886820000e-002) (8, 2.21431656615188770000e-001) (9, 1.74751748019100040000e-001) (10, 1.65373379580773670000e-001) (11, 1.66405050107655690000e-001) (12, 2.17717855416915380000e-001) (13, 9.19325964573879800000e-002) (14, 2.60751075858519700000e-001) (15, 1.50823538859901800000e-001) (0, 3.13006066032046060000e-001) (1, 9.92823642317808110000e-003) (2, 2.80197659515557980000e-002) (3, 2.43746789187309020000e-001) (4, 1.61090332955708020000e-001) (5, 9.20265330306141580000e-002) (6, -2.52189507990936480000e-001) (7, -4.27120247449472090000e-002) (8, -3.80369657983661780000e-002) (9, -1.26389576756775060000e-001) (10, 4.21192998370525430000e-001) (11, -3.97684897105308020000e-001) (12, 1.38144158898811040000e-001) (13, 2.44134099739579090000e-001) (14, 1.41676142514556820000e-001) (15, -1.04299595161188890000e-001) (0, 4.00523455823171340000e-001) (1, 1.81381984458984070000e-001) (2, 2.21664781260355990000e-002) (3, 3.54668426544988200000e-001) (4, 4.18304174167862700000e-001) (5, 4.27284863871480290000e-001) (6, 9.16094340533700900000e-002) (7, 3.75538365515021910000e-002) (8, -9.00569712801233410000e-002) (9, 7.79766804239413050000e-002) (10, 5.77956120111852710000e-002) (11, -6.51636275414429890000e-002) (12, 4.54825243031889430000e-001) (13, 1.96818998938395050000e-001) (14, 9.13798918146599550000e-002) (15, 1.04057390209990300000e-002) (0, 9.21457899285722410000e-001) (1, -3.41179487958906180000e-001) (2, -3.78319784161242350000e-001) (3, 2.10815402913233000000e-001) (4, 1.36397048466222360000e-001) (5, 1.13780740156772990000e-001) (6, -2.32384453569281290000e-002) (7, -1.89098163548548690000e-001) (8, 2.78745077206648260000e-001) (9, 6.78555618562351890000e-002) (10, 1.91081495117901460000e-001) (11, -6.73935315429726590000e-002) (12, -1.35881006846115940000e-002) (13, -2.41598506325427870000e-001) (14, -2.51097523211058880000e-001) (15, 3.80120027376168730000e-001) (0, 4.16459355768089400000e-001) (1, 1.90557163916907140000e-001) (2, 1.99195404576406800000e-001) (3, 2.54180787555444540000e-001) (4, 2.56059337372974760000e-001) (5, -2.93033302249929020000e-001) (6, -8.83983460783196450000e-002) (7, 2.06914460253069090000e-001) (8, -2.92623784624039260000e-001) (9, -1.36461987436678290000e-002) (10, 2.02216468544026280000e-001) (11, 1.12039502223666430000e-001) (12, 2.27218990524143320000e-001) (13, 3.82694949430005700000e-001) (14, 4.38205631802018260000e-002) (15, 6.43617695059149060000e-002) (0, -3.74196910231066940000e-001) (1, 8.43236479967061190000e-001) (2, 2.93953367296603210000e-001) (3, 2.11988334772289980000e-001) (4, 1.79555415360234390000e-001) (5, 2.22259099397427270000e-001) (6, 6.66276634103197370000e-001) (7, 5.23263476030684130000e-001) (8, 5.07782533255737860000e-001) (9, 2.07411639394051050000e-001) (10, 1.97076815314179200000e-001) (11, -2.89930348545484470000e-002) (12, 1.87286168405836150000e-001) (13, 1.03278396576312150000e-001) (14, 1.63888632481993340000e-001) (15, 4.80328881836833980000e-001) (0, -7.45420058931112320000e-002) (1, -1.12224105804591480000e-001) (2, -4.92630382345556410000e-002) (3, 3.25547861745424520000e-002) (4, 1.21669034726902980000e-001) (5, -1.39894280600129870000e-001) (6, 5.75465144428016880000e-001) (7, 1.66775659629599980000e-001) (8, 4.00896719811934770000e-003) (9, 3.25146495910995540000e-003) (10, 3.51054616604287300000e-002) (11, -3.84495350299678850000e-001) (12, 2.31488093776239080000e-001) (13, 7.05487110307323890000e-002) (14, 1.74561865757988400000e-001) (15, 1.99112293743379220000e-001) (0, -3.08523523624852580000e-001) (1, -3.15364761090835550000e-002) (2, 3.43241248949486200000e-002) (3, -1.75723131295405300000e-002) (4, -1.33886351875974950000e-001) (5, -1.09504998770604200000e-001) (6, 1.52264260537683190000e-001) (7, 2.96237334085433030000e-002) (8, 8.36714431287967210000e-002) (9, -2.17878798222659880000e-001) (10, 7.35823481810750770000e-002) (11, -4.06811612493443940000e-001) (12, -1.91947923262870000000e-001) (13, -4.13473761126517680000e-002) (14, 2.02162550355020760000e-001) (15, -1.08295614375039860000e-001) (0, -7.59197337879702620000e-002) (1, -3.01933840669285470000e-001) (2, -2.97910513040520740000e-001) (3, 9.65131750393102700000e-002) (4, -8.83522903524437410000e-002) (5, -1.04861841652669960000e-001) (6, -5.48200282967955530000e-002) (7, 9.66376262934188350000e-002) (8, 2.62165164788676850000e-001) (9, 3.23141876189002030000e-001) (10, -3.30948047109821620000e-001) (11, 1.30317067535618470000e-001) (12, 5.54028181461267070000e-002) (13, -2.52228213423520320000e-002) (14, 1.88421775732000450000e-001) (15, 5.59280191094326670000e-002) (0, 3.73224047648019030000e-001) (1, -4.80350079649781230000e-002) (2, 2.20966974635124490000e-001) (3, 3.45321798522497000000e-001) (4, 3.66436327158350620000e-001) (5, 1.79732806841924610000e-002) (6, -4.48327016787277220000e-002) (7, 2.15700649309444210000e-001) (8, -6.19605879488635630000e-003) (9, 1.97474561391576710000e-001) (10, 1.72227755056203330000e-001) (11, 1.05231098940740310000e-002) (12, -2.18702073348724270000e-001) (13, 3.70112567536332760000e-001) (14, 6.86926151261655310000e-003) (15, 1.02644787559639000000e-001) (0, -8.62492012305959430000e-002) (1, 2.64940241917294710000e-001) (2, 4.20206482161234460000e-001) (3, 3.70998358410438820000e-001) (4, -1.51108437138528230000e-001) (5, 1.36884248295559920000e-001) (6, 3.17294670196026860000e-001) (7, 3.99806180611484820000e-001) (8, 2.49704629780136880000e-001) (9, 2.37430725777963060000e-001) (10, 2.99386349761854460000e-001) (11, 2.24969794141376580000e-001) (12, 2.48763254429318790000e-001) (13, 7.06587309047053690000e-002) (14, 2.09684996122643850000e-001) (15, 2.34480209204418560000e-001) (0, 7.47616504770329810000e-002) (1, 5.21610432653050290000e-001) (2, 2.03439862910107610000e+000) (3, 2.69309956744811840000e-001) (4, -9.40722094990343870000e-002) (5, 5.54476577926128810000e-001) (6, 4.41254344414716390000e-001) (7, 3.69119252786502430000e-001) (8, 6.06057038962805380000e-001) (9, 1.89557844201659640000e-001) (10, 2.79263359274884990000e-001) (11, 1.20907019009155610000e-001) (12, 2.73348665733450290000e-001) (13, 9.20972903025795290000e-002) (14, 1.62622144141885580000e-001) (15, -1.10925352836416850000e-002) (0, -4.67426848837740830000e-001) (1, -1.05754766934696240000e-001) (2, 4.62392305661308570000e-002) (3, -2.90965581153858900000e-001) (4, -2.87150905441613260000e-001) (5, -1.11965959475039970000e-001) (6, 3.95326000419616020000e-002) (7, -8.76926671934873110000e-002) (8, -1.27738263496409790000e-001) (9, -2.87740812558675620000e-001) (10, -2.76329436246523560000e-001) (11, 3.32073062441201610000e-002) (12, 1.70619004106105200000e-001) (13, -1.98564500967837180000e-001) (14, 3.73710629610203460000e-001) (15, -1.61302539990119150000e-001) (0, -1.04458290793126830000e+000) (1, -1.49684342239502470000e-001) (2, 1.57853693356157310000e+000) (3, 2.09680752393801630000e-001) (4, 7.95731075647191160000e-003) (5, -8.03766576325245230000e-002) (6, -4.05321046456058490000e-001) (7, 4.90992887946239020000e-001) (8, 4.84564365728655580000e-001) (9, 5.10030313349638460000e-002) (10, 1.51817695579401100000e-003) (11, -6.09358954423171000000e-003) (12, 8.77612974299804980000e-002) (13, 9.56739171811795550000e-002) (14, 6.07213644703416340000e-002) (15, 4.01209787880656090000e-001) (0, -5.20506883892043800000e-001) (1, 1.72590110079304440000e-001) (2, -1.15168221638251900000e-001) (3, 9.04306718852443680000e-002) (4, 1.31671798954929730000e-001) (5, 3.64176536214567640000e-001) (6, 4.00437062313236340000e-001) (7, -1.55089814157052970000e-001) (8, -2.10389268485036630000e-002) (9, -4.77737557746969970000e-001) (10, 2.28967611055409140000e-001) (11, 3.01760198606773220000e-001) (12, 1.14163236592235500000e-001) (13, -1.87655592952444330000e-001) (14, 9.84126421384751290000e-002) (15, -1.22421946376776380000e-001) (0, 5.48895192923118500000e-001) (1, -1.28720222030357380000e-001) (2, 9.51420782640299690000e-002) (3, 5.44277445259812360000e-001) (4, 4.20108114308652690000e-002) (5, -1.24154303436035790000e-002) (6, -4.12515713589828470000e-001) (7, -1.19740000613686050000e-001) (8, -1.58322352524991020000e-002) (9, 1.18034283159455760000e-001) (10, -2.58793845134255460000e-001) (11, 1.79783629315998950000e-001) (12, -5.26223923353089170000e-002) (13, 1.94342310454053870000e-001) (14, -1.66671032553573730000e-002) (15, -6.93076858369113260000e-002) (0, 3.35872568826536600000e-001) (1, -2.68742912015394630000e-001) (2, 1.23558730443673030000e-002) (3, 7.47201273780852550000e-005) (4, 1.75542922452088470000e-001) (5, -2.46819640364788320000e-001) (6, -5.04565767586885320000e-001) (7, 8.79655799988810080000e-002) (8, 3.73241689140448310000e-002) (9, 3.40854416498061820000e-002) (10, 4.33841398352737990000e-001) (11, 4.10086741912557490000e-002) (12, 2.86111958294911710000e-001) (13, -5.93601520837924030000e-002) (14, -4.11006618546919390000e-002) (15, -4.95513156933729410000e-002) (0, 2.98070777992441100000e+000) (1, 2.10888499673241360000e-001) (2, 3.88153422902216050000e-001) (3, 1.17606614055079650000e-001) (4, -4.12501775208790660000e-003) (5, 3.62111377129116370000e-002) (6, -6.97513182071554330000e-001) (7, 3.34761067841672090000e-001) (8, 2.96603545967657060000e-002) (9, 9.67163190754217060000e-002) (10, -3.99391847845202080000e-002) (11, 2.81469393965630070000e-002) (12, 3.48241908157921260000e-002) (13, -2.13581761014209750000e-002) (14, 4.75278465579559440000e-002) (15, 5.14215338158198420000e-001) (0, 2.84359409105044370000e-001) (1, -1.55212670622591420000e-001) (2, -8.59205195128724400000e-002) (3, 4.94653832881137980000e-002) (4, 9.90472424091940060000e-002) (5, -7.71113271229729860000e-002) (6, -4.32617908361401960000e-001) (7, -5.53254431541814400000e-002) (8, -8.27459546354220730000e-002) (9, 1.54473481332786210000e-001) (10, -1.42345124190942000000e-001) (11, 4.05092847638131690000e-003) (12, 2.81908890676664140000e-001) (13, 1.86700874230770670000e-001) (14, 1.02404113995252660000e-001) (15, -3.37582864416990850000e-002) (0, 5.57206618412285580000e-001) (1, 3.38327114623694910000e-001) (2, 2.08686540334640460000e-001) (3, 4.26393471662070090000e-001) (4, 3.84025216930287570000e-001) (5, 3.50020262422585800000e-002) (6, 3.65445003491544840000e-002) (7, 2.16731994342692830000e-001) (8, 3.35830799046198460000e-003) (9, 3.00054489878247180000e-001) (10, 1.04784221773294590000e-001) (11, -3.89030979412828900000e-002) (12, 4.96879749389648130000e-001) (13, 3.73315822425220990000e-001) (14, 2.38734547481592540000e-001) (15, 1.24131518818739240000e-001) (0, 1.50133883997306620000e-001) (1, -1.39695251819495280000e-002) (2, 5.44561911334527010000e-002) (3, -2.07046962412635150000e-001) (4, -2.28560182274309910000e-001) (5, -6.26211231758765700000e-001) (6, -5.07709819934683000000e-001) (7, 8.79162440491226310000e-003) (8, 8.24978331950118880000e-002) (9, 1.88553139968918200000e-001) (10, -2.97995174955358600000e-001) (11, -3.22303031554535710000e-001) (12, 1.33977945486384480000e-001) (13, 8.25876141674533190000e-002) (14, -1.15290446971216140000e-001) (15, 1.22753318608223260000e-001) (0, 1.28539038453213060000e+000) (1, 6.17083675343507830000e-001) (2, 8.99339729180670620000e-001) (3, 1.45735715649543460000e-001) (4, 1.72781903339260250000e-001) (5, 1.10712931965341380000e-001) (6, 6.49282617730907010000e-001) (7, 4.78490513338431400000e-001) (8, 4.73220211792758640000e-001) (9, 1.91153730914097240000e-001) (10, 2.29954924074058490000e-001) (11, 2.86282194482734630000e-002) (12, 2.78134444522135540000e-001) (13, 2.69207845888309090000e-001) (14, 2.65621725453822570000e-001) (15, 5.22868419642465780000e-001) (0, 4.26238740546178390000e-001) (1, 6.30621345399296480000e-002) (2, 2.62844557494359420000e-002) (3, 3.24999297600105820000e-001) (4, 3.07269089167900360000e-001) (5, 2.86364542711479670000e-002) (6, -1.29265571468073580000e-001) (7, 1.80323101646441110000e-001) (8, 3.24500905494230770000e-002) (9, 5.73524107567814130000e-001) (10, 2.22653465191113620000e-001) (11, 8.24754431170902500000e-002) (12, 6.13954152067979430000e-001) (13, 2.80662008582558350000e-001) (14, 4.20115619337518180000e-001) (15, 2.70997654271294240000e-001) (0, -1.30788314963616700000e-001) (1, 6.24018367735057260000e-001) (2, 4.38626280921763530000e-001) (3, 3.25825481453453800000e-001) (4, -2.08606508488411000000e-001) (5, 1.31762053614540690000e-001) (6, 3.28254435644142140000e-001) (7, -1.87100117700814760000e-002) (8, 1.66758944833366170000e-001) (9, 1.88974997798781940000e-001) (10, 1.59458670950110900000e-001) (11, 2.35424733536145460000e-001) (12, 9.58427360043017650000e-002) (13, -5.78763045505495540000e-002) (14, 1.83989179824515820000e-001) (15, 2.09178842436701040000e-001) (0, 7.19682739581065540000e-001) (1, 2.97249296093955940000e-002) (2, 9.64381638321001180000e-002) (3, 1.76306120577982560000e-001) (4, 2.85691276164262490000e-001) (5, 5.70920419410164950000e-003) (6, 2.81676674382860310000e-001) (7, 4.04774085111655190000e-001) (8, 1.85922527369534850000e-001) (9, 2.43260934281868460000e-001) (10, 1.01204454633030710000e-001) (11, 7.12736057394160180000e-002) (12, 1.88786520175735520000e-001) (13, 2.30829206808974420000e-001) (14, 2.76909153077445290000e-001) (15, 3.04003387597071520000e-001) (0, -1.40600312432808490000e-001) (1, 5.65971749924123140000e-001) (2, -6.19722030789638320000e-002) (3, 1.79593913552873550000e-001) (4, -8.14663615147716570000e-002) (5, 6.10218957521962760000e-001) (6, 2.89053576452247050000e-001) (7, 1.30525085277853040000e-002) (8, 6.00010753768882020000e-001) (9, -4.70738048561566700000e-002) (10, -8.70976945612910860000e-002) (11, 1.65910077286538370000e-001) (12, 1.28383068054204490000e-001) (13, 2.01276076285276580000e-001) (14, -2.13984652960862220000e-001) (15, 1.21157809014858450000e-001) (0, -3.28205795571184290000e-001) (1, -8.39935917924915090000e-002) (2, -1.01023885551075040000e-001) (3, 1.75240166395861740000e-001) (4, -7.78573849143885390000e-002) (5, 4.62194254163910340000e-002) (6, -4.04846959648916540000e-002) (7, -1.49783444968310030000e-001) (8, -1.30369863597568000000e-001) (9, -2.89078188484524050000e-001) (10, -3.57961540152161240000e-002) (11, 3.16334002603801840000e-001) (12, -2.36808575457753550000e-001) (13, 8.09674541981093290000e-002) (14, -9.07683873495011280000e-002) (15, -6.97586394568756600000e-002) (16, 3.36275398367514520000e-001) (17, 5.12108586622098350000e-001) (18, 3.02691264326779950000e-001) (19, -8.90331289403863830000e-002) (20, 1.20156370114478740000e-001) (21, 4.04560343101375840000e-001) (22, 1.71513933788213250000e-001) (23, 1.53583773425196520000e-001) (24, -1.75517300944660860000e-002) (25, 2.90731260624222220000e-001) (26, 2.00758743423254920000e-001) (27, 2.95012086585542900000e-001) (28, 5.09297425014163750000e-001) (29, 3.57130701893325020000e-001) (30, 1.75724638751896560000e-001) (31, 4.33354716080736060000e-001) (32, 2.53230298280158370000e-002) (33, 1.00722310363402040000e-001) (34, 2.00673829338205910000e-001) (35, 1.51721836838823930000e-001) (36, 3.79962630494879770000e-001) (37, 2.85334925402230930000e-001) (38, -4.32515103921478770000e-002) (39, 1.03569297056717770000e-001) (40, -1.32713611250906750000e-001) (41, -6.15850869881600370000e-002) (42, 5.81397943472920840000e-001) (43, 1.85551594595575580000e-001) (44, 3.99642531338060210000e-001) (45, -2.65067510163693230000e-001) (46, 2.39808343254381410000e-002) (47, 1.79038355416817290000e-001) (48, 1.62893156328882130000e-001) (49, 1.70555944062716260000e-001) (50, 2.61661204745080870000e-001) (51, -1.90825053887710180000e-001) (52, -6.14171808564796530000e-002) (53, 3.89242212471518300000e-001) (54, 2.20660749693992910000e-002) (55, -8.25970916634419660000e-002) (0, -1.89066174653761830000e-001) (1, -2.67616502066675920000e-001) (2, 5.54983582222706380000e-001) (3, -1.02325789150165420000e-001) (4, 1.55265762495082590000e-001) (5, 2.23676606281019620000e-001) (6, 3.95445976481702060000e-002) (7, -1.20209139837565590000e-001) (8, -1.73286781428372810000e-001) (9, -2.05760743869421420000e-001) (10, -6.96278139923195290000e-002) (11, 1.33114885311475290000e-002) (12, 1.11463474577911060000e-002) (13, -1.86762154067384530000e-001) (14, -2.21910955888648400000e-002) (15, -9.34341145204014840000e-002) (16, 7.67655093533893000000e-002) (17, -1.20982933412728840000e-001) (18, -4.18238148569504910000e-002) (19, 2.21947783021807200000e-001) (20, -8.82719371438956960000e-002) (21, 5.21103463730315800000e-001) (22, 6.58472613350152560000e-002) (23, 2.42495627660612830000e-001) (24, -1.35878309696111730000e-001) (25, 3.76259699936293550000e-001) (26, 5.71198159915155770000e-001) (27, 4.17727061929572100000e-001) (28, 3.04870185687571900000e-001) (29, 5.22679644597797030000e-001) (30, -1.15725723703339320000e-001) (31, -1.73735203961851770000e-001) (32, -2.44253297788199570000e-001) (33, -2.87311183578788270000e-001) (34, -2.26840091952321440000e-002) (35, -5.42688968742480960000e-003) (36, 8.50051464351737480000e-002) (37, 3.73603810760523680000e-001) (38, 4.52354888305155130000e-001) (39, 2.74279817059627620000e-001) (40, -1.37173403658491400000e-001) (41, 1.24445627638381310000e-001) (42, -7.56153568036191380000e-002) (43, -3.63382321114061250000e-002) (44, 3.08519231517236090000e-001) (45, 2.54688385078598370000e-001) (46, 2.59534177983005360000e-002) (47, 4.90545742388429460000e-001) (48, 5.43553087272762300000e-001) (49, 9.85559766582885110000e-002) (50, 2.33809159467119390000e-001) (51, -1.28301107696844000000e-001) (52, 1.07821329246048340000e-001) (53, -9.98113222952935230000e-003) (54, 1.95177709240175910000e-001) (55, -1.00709508410564740000e-001) (0, -6.33287391425358840000e-001) (1, -1.77991078737520900000e-001) (2, -4.81130256467340870000e-001) (3, 1.38704680389428740000e-001) (4, 9.37460536028165840000e-002) (5, 1.10425601429463850000e-001) (6, -2.54788483352953840000e-002) (7, 4.20918550469161210000e-002) (8, -1.95667001959802880000e-001) (9, -9.69700293834683950000e-002) (10, -1.80358034717644110000e-001) (11, -5.17708259656568870000e-002) (12, 2.07203529163790400000e-001) (13, 1.56325478442206710000e-001) (14, -1.82745108294799470000e-002) (15, 1.01640916724440050000e-001) (16, 4.55980886406278510000e-002) (17, 2.03857794809564310000e-001) (18, -1.49217920538858450000e-002) (19, -4.05196785968311320000e-001) (20, 6.73376755377787520000e-002) (21, -4.10464426557008710000e-002) (22, 2.39900597352299100000e-001) (23, 3.30529017086980570000e-001) (24, -7.81329735016247400000e-003) (25, -5.55988807483577820000e-002) (26, 4.73359604275690900000e-001) (27, 2.25385745152053510000e-001) (28, 6.13965463018201480000e-002) (29, 5.10955079519574310000e-001) (30, 3.03512581479898740000e-001) (31, 3.01506031949053230000e-001) (32, -1.62150928344642260000e-001) (33, 4.17418209662427760000e-001) (34, -1.71770470264914460000e-001) (35, -1.82450969966480930000e-002) (36, 2.47408584273184990000e-001) (37, 4.61083765283716810000e-001) (38, 4.86129875649736480000e-001) (39, 2.20296061041782070000e-001) (40, -9.34363640222491130000e-002) (41, 3.32362298919959410000e-002) (42, 3.59739011604575830000e-001) (43, 2.13303524656001940000e-001) (44, 1.63481021781345240000e-001) (45, -1.48485393797539610000e-001) (46, -7.79392095774179140000e-002) (47, 6.96933009251616160000e-001) (48, -8.95816824612690050000e-002) (49, 2.44476283539678240000e-001) (50, 8.94454406572795790000e-002) (51, -1.03143307327540730000e-002) (52, -8.23513121381424660000e-002) (53, -1.02634977281070430000e-001) (54, -5.05323279161998470000e-002) (55, -1.00985170423264170000e-001) (0, -3.50041617096605580000e-001) (1, 3.30267679201478310000e-001) (2, 1.61021969295200490000e-001) (3, 9.04709720247561800000e-002) (4, 5.67915248821613050000e-002) (5, 9.14714154247650980000e-002) (6, 3.69162283797881570000e-001) (7, 1.85794813576927090000e-001) (8, 1.98568956469784540000e-001) (9, 1.12140305678010880000e-001) (10, 1.51615217989078070000e-001) (11, 1.83767542539398590000e-001) (12, -4.30094012522111380000e-001) (13, 5.35204807359979450000e-002) (14, 3.52768655663514220000e-002) (15, 3.30528150752328160000e-001) (16, -6.51868335956952980000e-002) (17, 3.59465778159347550000e-001) (18, 6.43685320673357820000e-001) (19, -2.86619833896289250000e-002) (20, 4.66641089630453810000e-001) (21, 4.19108655631781850000e-001) (22, 5.65156402566070120000e-002) (23, 7.50436754365196860000e-002) (24, 2.61181094830168660000e-001) (25, 1.09603223754021030000e-001) (26, 1.92536732602764850000e-001) (27, 3.09316812083908430000e-001) (28, 3.59822473783836970000e-001) (29, 2.92096703347953180000e-001) (30, -1.21313334079356790000e-001) (31, -1.17154079315689020000e-001) (32, -1.18535541748955490000e-001) (33, 3.13324420138837200000e-003) (34, 5.09613420797124240000e-002) (35, -4.35473485362511820000e-002) (36, 1.92192333366522970000e-001) (37, 5.13205557334793340000e-001) (38, -1.37504788387385810000e-001) (39, -2.77022294621816930000e-001) (40, -4.29757180131892620000e-001) (41, 2.92933894186031770000e-001) (42, 5.15453823468762580000e-002) (43, -2.69055234236665550000e-001) (44, 5.77014924307540640000e-002) (45, 1.75200179495869300000e-001) (46, 1.88209137443357490000e-001) (47, -1.89307351972736760000e-001) (48, 4.06876937029877820000e-001) (49, -1.69396385250316080000e-001) (50, 7.46291452868338840000e-002) (51, -3.86874714273402640000e-001) (52, 2.88342174130800320000e-001) (53, 2.28356139144096330000e-001) (54, 5.16100390337016930000e-001) (55, -7.22533307577209600000e-002) (0, 1.52001919190124350000e-001) (1, -1.98963647855859600000e-001) (2, -5.22542268799022770000e-001) (3, 6.38324937591559090000e-002) (4, 5.54648237678226070000e-002) (5, 3.49490494655230910000e-001) (6, 1.54526205893398120000e-002) (7, -1.65612052997425770000e-002) (8, -7.67528972223224800000e-002) (9, 2.95686115073871880000e-001) (10, 1.17457087092580850000e-001) (11, 4.30461891709384220000e-002) (12, -4.37395378280146520000e-002) (13, -7.63706635761204340000e-002) (14, 1.41612386468246780000e-001) (15, 5.03581308557871980000e-001) (16, 3.01807135046236300000e-001) (17, -9.54107663241798020000e-002) (18, 2.59156045699669050000e-001) (19, -2.00328413653611850000e-003) (20, 4.12878769416401500000e-001) (21, 4.94984972690416910000e-001) (22, 2.55825796305377720000e-001) (23, 1.27539375765617650000e-002) (24, 3.72413462963369140000e-001) (25, 2.80923051454516630000e-001) (26, -4.69611098750591370000e-001) (27, -4.37518955778989570000e-002) (28, -2.41689436844516940000e-001) (29, 3.38438705648390400000e-001) (30, -4.27634736782940300000e-003) (31, 2.65096214639128290000e-002) (32, 3.16999753104669660000e-001) (33, 2.12962399255323180000e-001) (34, 1.18568068099942830000e-001) (35, -5.32684502180127640000e-001) (36, 1.26195124848650560000e-001) (37, 3.33370106601307950000e-001) (38, 3.12840674321805180000e-001) (39, -2.55744083880739380000e-001) (40, -6.60164708667223650000e-001) (41, 4.19239798219699420000e-001) (42, 3.89204752216472440000e-001) (43, 5.03048449415011920000e-001) (44, 2.96749937026185680000e-001) (45, 8.25184348892564900000e-002) (46, 2.38751542412021320000e-001) (47, -3.42319933899848720000e-001) (48, 1.78257064276047510000e-001) (49, -2.24290298834431300000e-001) (50, 1.63617684791885740000e-001) (51, 4.24616713630065700000e-001) (52, 3.51921254532255980000e-001) (53, 9.39543611517696390000e-002) (54, -2.82368749830850470000e-001) (55, -1.42945134438657450000e-001) (0, 3.19142780861447980000e-001) (1, 2.49257983778258810000e-001) (2, 3.35105206346614390000e-001) (3, -2.88135432589938790000e-001) (4, 3.63638697424422670000e-001) (5, -2.74837288437054590000e-002) (6, -7.77526395809835650000e-002) (7, 3.67882876001984720000e-001) (8, 9.13291385283934720000e-002) (9, 7.92333230914275540000e-002) (10, -1.70980641385107100000e-001) (11, 3.05235485065626310000e-001) (12, 8.91302946764814530000e-002) (13, -6.12000126884894860000e-002) (14, -5.61760115527178190000e-001) (15, 2.64149500459276600000e-001) (16, -1.42589447195534120000e-001) (17, -4.09465515740213000000e-002) (18, 5.45296860694567950000e-001) (19, -3.05986822240149000000e-001) (20, 4.08133102137374980000e-002) (21, 3.96242415482689350000e-001) (22, 1.14557926466767910000e-003) (23, 4.70189008186017550000e-001) (24, -2.83056783939532320000e-001) (25, 1.46211056584392980000e-001) (26, 3.76516700253813170000e-001) (27, 2.72968809943782250000e-001) (28, 1.14749604040187050000e-002) (29, 3.68899757348829900000e-001) (30, -1.39716759983196100000e-001) (31, 4.29932996215704690000e-001) (32, 2.11418411567178530000e-001) (33, -7.92654141570024450000e-002) (34, -3.76830337966229110000e-002) (35, 7.18284887049073370000e-002) (36, 1.73850996704556840000e-001) (37, 3.44298014754882360000e-001) (38, -1.59689251472834580000e-001) (39, -5.29407709503074350000e-002) (40, -2.69322856317135840000e-002) (41, -3.75592626383429660000e-001) (42, 2.10474102744626880000e-002) (43, 2.08999028307912420000e-001) (44, 1.06745688326298940000e-001) (45, 3.62876325084707070000e-001) (46, -1.34816707633005100000e-001) (47, -5.23356636727459470000e-003) (48, 1.75026596093736440000e-001) (49, -3.51686446035790970000e-001) (50, 1.12365936713884850000e-001) (51, 2.72112887372847670000e-001) (52, 3.53636174098838910000e-001) (53, 5.94429475283125290000e-001) (54, -1.57565858530517270000e-001) (55, 1.07028683859583310000e-001) 
