FANN_FLO_2.1
num_layers=4
learning_rate=0.700000
connection_rate=1.000000
network_type=0
learning_momentum=0.000000
training_algorithm=2
train_error_function=1
train_stop_function=1
cascade_output_change_fraction=0.010000
quickprop_decay=-0.000100
quickprop_mu=1.750000
rprop_increase_factor=1.200000
rprop_decrease_factor=0.500000
rprop_delta_min=0.000000
rprop_delta_max=50.000000
rprop_delta_zero=0.100000
cascade_output_stagnation_epochs=12
cascade_candidate_change_fraction=0.010000
cascade_candidate_stagnation_epochs=12
cascade_max_out_epochs=150
cascade_min_out_epochs=50
cascade_max_cand_epochs=150
cascade_min_cand_epochs=50
cascade_num_candidate_groups=2
bit_fail_limit=1.00000001490116120000e-001
cascade_candidate_limit=1.00000000000000000000e+003
cascade_weight_multiplier=4.00000000000000020000e-001
cascade_activation_functions_count=10
cascade_activation_functions=3 5 7 8 10 11 14 15 16 17 
cascade_activation_steepnesses_count=4
cascade_activation_steepnesses=2.50000000000000000000e-001 5.00000000000000000000e-001 7.50000000000000000000e-001 1.00000000000000000000e+000 
layer_sizes=10 31 21 7 
scale_included=0
neurons (num_inputs, activation_function, activation_steepness)=(0, 0, 0.00000000000000000000e+000) (0, 0, 0.00000000000000000000e+000) (0, 0, 0.00000000000000000000e+000) (0, 0, 0.00000000000000000000e+000) (0, 0, 0.00000000000000000000e+000) (0, 0, 0.00000000000000000000e+000) (0, 0, 0.00000000000000000000e+000) (0, 0, 0.00000000000000000000e+000) (0, 0, 0.00000000000000000000e+000) (0, 0, 0.00000000000000000000e+000) (10, 5, 1.00000000000000000000e+000) (10, 5, 1.00000000000000000000e+000) (10, 5, 1.00000000000000000000e+000) (10, 5, 1.00000000000000000000e+000) (10, 5, 1.00000000000000000000e+000) (10, 5, 1.00000000000000000000e+000) (10, 5, 1.00000000000000000000e+000) (10, 5, 1.00000000000000000000e+000) (10, 5, 1.00000000000000000000e+000) (10, 5, 1.00000000000000000000e+000) (10, 5, 1.00000000000000000000e+000) (10, 5, 1.00000000000000000000e+000) (10, 5, 1.00000000000000000000e+000) (10, 5, 1.00000000000000000000e+000) (10, 5, 1.00000000000000000000e+000) (10, 5, 1.00000000000000000000e+000) (10, 5, 1.00000000000000000000e+000) (10, 5, 1.00000000000000000000e+000) (10, 5, 1.00000000000000000000e+000) (10, 5, 1.00000000000000000000e+000) (10, 5, 1.00000000000000000000e+000) (10, 5, 1.00000000000000000000e+000) (10, 5, 1.00000000000000000000e+000) (10, 5, 1.00000000000000000000e+000) (10, 5, 1.00000000000000000000e+000) (10, 5, 1.00000000000000000000e+000) (10, 5, 1.00000000000000000000e+000) (10, 5, 1.00000000000000000000e+000) (10, 5, 1.00000000000000000000e+000) (10, 5, 1.00000000000000000000e+000) (0, 5, 1.00000000000000000000e+000) (31, 5, 1.00000000000000000000e+000) (31, 5, 1.00000000000000000000e+000) (31, 5, 1.00000000000000000000e+000) (31, 5, 1.00000000000000000000e+000) (31, 5, 1.00000000000000000000e+000) (31, 5, 1.00000000000000000000e+000) (31, 5, 1.00000000000000000000e+000) (31, 5, 1.00000000000000000000e+000) (31, 5, 1.00000000000000000000e+000) (31, 5, 1.00000000000000000000e+000) (31, 5, 1.00000000000000000000e+000) (31, 5, 1.00000000000000000000e+000) (31, 5, 1.00000000000000000000e+000) (31, 5, 1.00000000000000000000e+000) (31, 5, 1.00000000000000000000e+000) (31, 5, 1.00000000000000000000e+000) (31, 5, 1.00000000000000000000e+000) (31, 5, 1.00000000000000000000e+000) (31, 5, 1.00000000000000000000e+000) (31, 5, 1.00000000000000000000e+000) (0, 5, 1.00000000000000000000e+000) (21, 0, 1.00000000000000000000e+000) (21, 0, 1.00000000000000000000e+000) (21, 0, 1.00000000000000000000e+000) (21, 0, 1.00000000000000000000e+000) (21, 0, 1.00000000000000000000e+000) (21, 0, 1.00000000000000000000e+000) (0, 0, 1.00000000000000000000e+000) 
connections (connected_to_neuron, weight)=(0, 1.73011602150514140000e-001) (1, -8.70090449866120270000e-001) (2, -1.95513629892003100000e-001) (3, -1.80570903096680090000e-001) (4, -1.59808544343830460000e-001) (5, 7.25208439800641420000e-001) (6, -1.35802520844505670000e-001) (7, 1.85493119621226890000e-001) (8, 4.49620496613922120000e-001) (9, 2.86389324933333180000e-002) (0, -3.44770326475376490000e+000) (1, -7.81450750502941660000e-002) (2, 4.65454404460817590000e-001) (3, 3.89010857487513610000e-002) (4, 1.89043853168370910000e-002) (5, 4.39179063374280920000e-002) (6, 5.35920138703048330000e-001) (7, 1.85029822017835390000e-002) (8, -1.03849371821787410000e-001) (9, -3.16133630091053770000e-001) (0, -4.48956058144466960000e-002) (1, -6.72675768962993410000e-001) (2, 2.08771062578559830000e-002) (3, 1.50024898241656520000e-001) (4, -4.28693877057758490000e-003) (5, 1.98250073305045790000e-001) (6, -2.74218147662575300000e-001) (7, 9.57469663660714260000e-002) (8, -4.55730196775790190000e-001) (9, 9.04625103890490940000e-002) (0, 3.04253002761732110000e+000) (1, 9.11503923638105840000e-001) (2, 4.10313135211058780000e-001) (3, -2.03789825372500950000e-002) (4, 2.43962497233751980000e-002) (5, 7.08714367154990730000e-002) (6, 2.47056876123428000000e-001) (7, -3.77546099958108560000e-001) (8, -4.68310761258742230000e-003) (9, 1.06381125400779950000e+000) (0, 2.56042778801913730000e-001) (1, 5.50809022105333560000e-001) (2, -8.09425076746837280000e-001) (3, 1.06650047833496510000e-001) (4, 1.15929622016324260000e-001) (5, 2.92407733010349390000e-001) (6, -3.33273371161080410000e-001) (7, -4.20164596115353350000e-002) (8, 1.56859013534681240000e-001) (9, 2.26733875287981750000e-001) (0, -2.06444758932417900000e-001) (1, 4.91913810385291970000e-001) (2, -5.07841991163187730000e-001) (3, -2.05517160760588760000e-001) (4, -1.43163468278110170000e-002) (5, -8.09699188223409190000e-002) (6, 4.46889908874941620000e-001) (7, -1.58982562965923950000e-001) (8, -5.34685844361981400000e-002) (9, -3.13648727625390260000e-001) (0, -4.04303623552401850000e-001) (1, -7.05486886561674940000e-002) (2, 1.12758752668363080000e-001) (3, -5.55729272874132540000e-001) (4, 2.32026380488447380000e-002) (5, -1.56521589566114310000e-001) (6, -2.51121813465574770000e-001) (7, 1.17214347728283330000e-001) (8, 4.60090246998092700000e-003) (9, 1.58130746070965580000e-001) (0, -4.51950621348325640000e-001) (1, 4.51594032799593870000e-001) (2, 5.76530983345707740000e-001) (3, 1.43829057786838050000e-001) (4, 1.38361302904156900000e-002) (5, 4.09201472255961220000e-002) (6, 2.08130271635570020000e-001) (7, -1.14190128022192310000e-001) (8, -5.55295143651609870000e-002) (9, -3.82070148198265180000e-001) (0, 6.50898290647469510000e-001) (1, -1.04872441962134920000e+000) (2, 1.62289628728265910000e-001) (3, -8.57489365852658470000e-002) (4, -1.18541504641710440000e-001) (5, -2.10189791286586240000e-001) (6, 2.63671393679350390000e-001) (7, -1.57272110647987380000e-001) (8, -3.04841938320690010000e-001) (9, 1.31537252270210790000e-001) (0, -2.96826085587508730000e-001) (1, 1.87075069478117140000e-001) (2, -2.37560607494715970000e-001) (3, -1.28515444277902870000e-001) (4, 1.47625716906121490000e-002) (5, -1.12749694436173900000e-001) (6, 2.30108769172298860000e-001) (7, 5.05530468595265740000e-001) (8, 3.13396831724457650000e-001) (9, -1.05234909854282300000e-001) (0, -1.46611173856564000000e-001) (1, 8.48247292051962810000e+000) (2, -2.67214207325397090000e+000) (3, 1.84082295114969920000e-002) (4, 1.31265603242016210000e-002) (5, 1.26479445987574600000e-002) (6, -2.09278006161593390000e-002) (7, -1.66001158590229130000e+000) (8, 5.12078726249706180000e-001) (9, 1.59102548416201110000e+000) (0, 1.29344434128339680000e-001) (1, 4.18692611146244620000e-001) (2, 1.42915016233110160000e+000) (3, 1.35172788130137780000e-001) (4, 1.88161683273265710000e-001) (5, 1.26673904767142520000e-001) (6, 3.90370188296695550000e-002) (7, 3.41560852294439940000e-001) (8, 3.44083138710731320000e-001) (9, 4.03926257604124260000e-001) (0, 8.87515984644081430000e-001) (1, 6.03557800777240860000e-001) (2, 6.04970187371903330000e-001) (3, 2.26426767596380090000e-002) (4, 1.18761355137653390000e-001) (5, 1.13487955227447050000e-001) (6, -4.92192955707668130000e-001) (7, 9.78649177299230900000e-002) (8, -1.34250593527453970000e-001) (9, -1.15183302038073300000e-001) (0, 1.76378803775281920000e+000) (1, 6.50986046248337670000e+000) (2, 4.02296075242308200000e-001) (3, -5.09313189595843750000e-003) (4, -2.54217059636509990000e-002) (5, -2.89396902897790730000e-002) (6, -4.91569005401803650000e-001) (7, -1.05120351670488210000e+000) (8, -1.04016145299614500000e-001) (9, 4.98056158824407400000e-001) (0, 5.95161679109015520000e-001) (1, -8.06219605780288440000e+000) (2, 1.47293265621862600000e+000) (3, 1.71604920202249600000e-002) (4, -2.35327012059389440000e-003) (5, -7.34520142761494950000e-003) (6, -5.58107779438649640000e-001) (7, 1.19297644670572130000e+000) (8, -2.11620284411400600000e-001) (9, -7.80664501323265590000e-001) (0, -3.68989370900297430000e-001) (1, 1.53404506210278320000e-001) (2, 3.75250004040050270000e-001) (3, 7.10569095634184940000e-002) (4, 2.29542048315107380000e-001) (5, 1.14764829444677390000e-001) (6, 2.82454542331919630000e-001) (7, -4.24595246608526430000e-001) (8, 7.13747661619962730000e-001) (9, 3.43605363118962890000e-001) (0, 2.49548973682243800000e-001) (1, 1.08092289773389650000e-001) (2, -1.25709599550962610000e+000) (3, 4.84384766299006740000e-002) (4, 1.54118222776800560000e-002) (5, -1.22226548993798620000e-001) (6, -4.52059401574997970000e-001) (7, 1.42713353645299250000e-001) (8, 5.90532447922928140000e-001) (9, -2.69481546715258310000e-001) (0, -8.89181365397897380000e-001) (1, -1.74055967153009930000e+000) (2, 2.67923881863035120000e-001) (3, 2.43651049854244070000e-001) (4, 6.11827654514148440000e-001) (5, -6.59745291112683650000e-003) (6, 2.94935206542142610000e-001) (7, 5.60227268059249830000e-001) (8, 1.00924838261484480000e-001) (9, 6.93769808403525530000e-001) (0, 1.75983631596721790000e+000) (1, 4.38142404408919270000e-001) (2, 2.32562764879921340000e-001) (3, -4.54765546055111600000e-001) (4, -1.94172772987937670000e-001) (5, 1.64763670424089540000e-001) (6, 1.41287166216068430000e-001) (7, 1.26788716138956540000e-001) (8, -1.73909076545822740000e-001) (9, 1.82276504214383710000e-001) (0, -2.30258898166691140000e+000) (1, -3.59598238424215790000e+000) (2, -1.58010346462016840000e+000) (3, 1.60074199493645540000e-002) (4, -5.45860255709973850000e-002) (5, 8.08300437270437210000e-003) (6, 4.77355860193287630000e-001) (7, 1.12890909038533070000e+000) (8, 3.91837178334575320000e-001) (9, -8.39546989049055480000e-002) (0, 2.85573365056609520000e-001) (1, -2.53426288844151300000e-001) (2, 3.03585758714204290000e-001) (3, 6.63280591245990620000e-002) (4, 2.71008451135097250000e-001) (5, 2.83871028267487500000e-001) (6, 2.38359304476930050000e-001) (7, -4.41966117829454330000e-001) (8, -1.98814902047819880000e-002) (9, -3.58408756866507510000e-002) (0, -6.38664333852931640000e-001) (1, 8.29428087399653790000e-001) (2, -7.05946718892360850000e-002) (3, 1.17055916368704490000e-001) (4, -4.94216821259877770000e-002) (5, 1.32892908142402510000e-001) (6, 2.42605094560623540000e-002) (7, -3.59387612505854100000e-001) (8, -4.13143143780381080000e-001) (9, 2.41133748807609880000e-002) (0, 1.06986376919667480000e+000) (1, -1.13724192690845660000e+000) (2, 1.58133318701728750000e+000) (3, 1.33096450011303410000e-001) (4, 1.64157877481166140000e-001) (5, -4.83828944542633240000e-002) (6, -2.67712471362517630000e-001) (7, 2.10590113974855890000e-001) (8, -6.48164070451779650000e-002) (9, -1.35339680818477320000e-002) (0, 2.20899658993101710000e-001) (1, 5.39439651187071160000e-001) (2, 3.08941064479126670000e-001) (3, 3.72022345307796760000e-001) (4, 1.55308221652787430000e-001) (5, 4.91622296147999400000e-001) (6, 2.75222242240395710000e-001) (7, -3.68140470091303380000e-002) (8, 6.76964922739652500000e-002) (9, 4.56409982271539170000e-001) (0, 6.62263228077342280000e-001) (1, 8.88961766703479820000e-001) (2, 1.91506499739833970000e-001) (3, -2.68139593921703670000e-001) (4, -1.21062395382949970000e-001) (5, -1.90184693504777510000e-001) (6, -1.40707042970520670000e-001) (7, -5.07648697135641980000e-001) (8, -3.29921656636150350000e-002) (9, 7.71776438718090040000e-002) (0, -1.22374389307428210000e+000) (1, 4.45694976534703580000e-001) (2, 6.67862087221663260000e-002) (3, 4.29557984348758970000e-001) (4, 6.83432081141660540000e-002) (5, -4.58903547244932370000e-002) (6, -1.53631680488310090000e-002) (7, -5.86757740359383110000e-001) (8, -2.35772296525995840000e-002) (9, 9.33839312332448430000e-002) (0, -1.79777832137814930000e+000) (1, -6.86879216923506950000e-001) (2, 3.10523580406584400000e-001) (3, -1.31570199026026150000e-002) (4, -1.04874078949991540000e-002) (5, -3.83860618181708430000e-002) (6, 7.98447069266307040000e-001) (7, 1.18557024745815790000e-001) (8, -2.29563902052686150000e-001) (9, 2.29726988340216070000e-001) (0, 1.20147798995644610000e-001) (1, 4.88067497965066540000e+000) (2, 3.63130193708256850000e+000) (3, -1.28897669442647950000e-002) (4, 1.36350425518522780000e-001) (5, -2.83068260246401940000e-003) (6, 4.20275718944179370000e-001) (7, -3.55947393014163450000e-001) (8, -4.72550258519702500000e-001) (9, 3.59078576091248100000e-001) (0, -1.50586107725151420000e-002) (1, 4.12722709045273750000e-001) (2, 5.79348354745354620000e-001) (3, 1.55801676179835700000e-001) (4, 8.21916903860736740000e-003) (5, -3.93354486078398010000e-001) (6, 2.94296587442138710000e-001) (7, 5.42005783719513510000e-002) (8, -1.41484709039800950000e-001) (9, 2.51693541184858200000e-001) (0, -5.63654186155841620000e-001) (1, 2.44223270813853870000e-001) (2, -3.49378182019597850000e-002) (3, -1.27995997193855130000e-001) (4, -9.46194483317850670000e-002) (5, -1.63240625482824840000e-001) (6, 4.59743171797883150000e-001) (7, 1.69077441963820300000e-001) (8, 4.54358235516835180000e-001) (9, 7.00203693902097800000e-002) (10, -2.00521488397513740000e-001) (11, 8.38941769860254570000e-002) (12, -3.15336238643455850000e-002) (13, -1.35260432973642960000e-001) (14, -2.59141688258882010000e-001) (15, 4.09515776253564610000e-001) (16, -8.92569336198850260000e-001) (17, 6.01242811943482390000e-001) (18, -2.76057051026049540000e-002) (19, -1.07994336968749060000e-002) (20, 9.91424689630094200000e-002) (21, 1.05062514473648690000e-001) (22, 1.37342676690886570000e-001) (23, 4.66210358899306070000e-001) (24, 2.90515325446999100000e-001) (25, 8.01704272597391320000e-003) (26, -3.43907097035446380000e-002) (27, 3.76423618166365380000e-001) (28, 2.72160402167127450000e-001) (29, 2.19342121903424280000e-001) (30, -5.08981913994917880000e-001) (31, 3.24908258193488560000e-001) (32, 5.03354395674193930000e-001) (33, -1.08133677197926730000e-001) (34, 2.85435725188724570000e-001) (35, 4.30426750439068420000e-001) (36, 3.85670189622189960000e-001) (37, 3.18863543407840900000e-001) (38, -2.06400861377366410000e-001) (39, 2.78103700323424850000e-001) (40, -1.68606699574669750000e-001) (10, 2.93172364435687230000e-002) (11, 1.75066523393475880000e+000) (12, 9.16620046202432760000e-001) (13, -7.38172373953317840000e-003) (14, 2.98816696468518220000e-001) (15, -2.30929196005167060000e-001) (16, -1.08718112579257560000e-001) (17, -2.00234146793505770000e+000) (18, 4.64891148098107500000e-001) (19, 3.50768174980505500000e-001) (20, -5.93756894150781060000e-002) (21, 3.25711894188376370000e-001) (22, -5.43064549668581860000e-001) (23, -1.43474271193205080000e+000) (24, 9.15241614989787620000e-001) (25, -1.25208340285624940000e-001) (26, -8.46118407687039830000e-002) (27, -7.45715808915285280000e-003) (28, -1.82990804714968730000e-001) (29, 2.05543751225536480000e-002) (30, 1.05523757573464090000e-001) (31, -8.93338211530998790000e-001) (32, 7.06933089120227870000e-002) (33, 5.84562386191759150000e-001) (34, -3.00483886215538660000e-002) (35, -5.15243865506020860000e-001) (36, 2.85369375386647640000e-001) (37, 1.94845244162390550000e-001) (38, 8.69312528546424600000e-001) (39, 1.64677518962938500000e-001) (40, 6.03478403587636940000e-001) (10, 4.91910598822357450000e-002) (11, -4.82124558294078190000e-001) (12, 2.07247115632214100000e-002) (13, 2.59972585102866970000e-001) (14, 6.70566243485858360000e-001) (15, 5.43475349193930920000e-002) (16, -5.54948166611424430000e-001) (17, -2.68496630441057380000e+000) (18, 3.18304348538903940000e-001) (19, 4.48659861505466830000e-001) (20, 6.61910756510376980000e-002) (21, -3.09857562283377020000e-001) (22, -6.76354319794328360000e-001) (23, 4.98391441873857870000e-001) (24, -6.35202670848274700000e-002) (25, -2.94775919277853010000e-002) (26, 3.76581161796451960000e-001) (27, 3.17928122600308340000e-003) (28, 8.41910247506057060000e-002) (29, -1.61110918040397040000e-001) (30, -1.27422905321761450000e-001) (31, -7.91419051252068460000e-001) (32, 3.64888591844394430000e-001) (33, 2.63011723098524160000e-002) (34, -4.15136664743545770000e-001) (35, 1.59410511492429550000e-001) (36, 2.64128574751404550000e-001) (37, 3.90864150781347340000e-001) (38, -1.50897803062158890000e-001) (39, -4.14396800232737340000e-001) (40, -1.93440238826026350000e-002) (10, -1.30858245279714240000e-001) (11, 7.70222034886011490000e-001) (12, -1.11799362839103330000e-001) (13, 3.75549537554958570000e-001) (14, 1.65890604066527200000e-001) (15, 9.30337663736582050000e-002) (16, 6.23207566835395580000e-001) (17, -8.76481575865423520000e-001) (18, -6.55178074022384820000e-001) (19, 5.80067170487276740000e-002) (20, -6.97657984976996080000e-002) (21, -3.00685404664684130000e-001) (22, 4.36443168378280950000e-001) (23, 9.56244166834609170000e-002) (24, 8.31491189796714660000e-001) (25, 4.89370791918848250000e-001) (26, 3.66081380221248860000e-001) (27, 8.72538820204795450000e-001) (28, 9.44726873752274040000e-001) (29, 6.75186379170700010000e-001) (30, -9.03559480843800360000e-002) (31, -2.35247227135883110000e-002) (32, 1.10982169359535040000e+000) (33, -4.65168889685280080000e-001) (34, 2.37517373753096050000e+000) (35, -6.72791753968528970000e-001) (36, -5.00725163845417570000e-002) (37, -1.79694482712864120000e-002) (38, 1.95762444348896980000e+000) (39, -1.06523963932113470000e+000) (40, -4.70880744898946250000e-002) (10, 1.43775562769408920000e-001) (11, 7.42289449821903480000e-002) (12, -1.22047990020595160000e-001) (13, 1.50928952524150060000e-001) (14, 3.72807342294717070000e-001) (15, 2.61211924221356420000e-001) (16, 3.51264247102411500000e-001) (17, 1.45759118048316070000e+000) (18, 3.08310653754193360000e-001) (19, -3.28043847113138170000e-001) (20, 7.17852341202025010000e-001) (21, 1.03633734510032130000e-001) (22, 3.76280305579700160000e-001) (23, 8.75669395153858000000e-001) (24, 1.08298383661882960000e+000) (25, -3.18295489380983180000e-001) (26, 7.25457478180179920000e-001) (27, -2.04484056235428940000e-002) (28, 4.46961503778769640000e-001) (29, 8.49798976070816000000e-001) (30, 3.71106304830669090000e-001) (31, 1.19636084742542700000e-001) (32, 3.54095509278182290000e-001) (33, 3.97242064558068100000e-001) (34, 5.30350794992271670000e-001) (35, 2.19886144169380150000e-001) (36, 1.62894427548341240000e-001) (37, 8.46013723310906070000e-002) (38, -3.50602139858579650000e-002) (39, 8.23821219491671530000e-001) (40, -4.40269685956612350000e-002) (10, 2.24721979898645040000e-001) (11, 1.45147581103124930000e+000) (12, 5.67112313603607140000e-002) (13, 3.83589596402669140000e-002) (14, -2.34997623751285660000e-001) (15, -1.35984490731642290000e-001) (16, -2.55887800428841850000e-001) (17, 7.84197237039079840000e-001) (18, -3.47325893306571490000e-001) (19, 8.66512031632378640000e-002) (20, 5.61608804644255360000e-002) (21, -3.61863779192200030000e-001) (22, 6.67788021026885390000e-001) (23, 9.62996496080244850000e-001) (24, 1.17349864422379660000e-001) (25, -2.09574485297926690000e-001) (26, -1.73224541192531140000e-001) (27, 8.54409923495706440000e-001) (28, 5.84643353283238020000e-001) (29, 2.79179777826304880000e-001) (30, -1.21739747327180600000e+000) (31, 6.50992462651984460000e-002) (32, -9.64642878547986170000e-002) (33, 1.13736405953253090000e-001) (34, 3.13578519127509560000e-001) (35, 9.83284943574685160000e-002) (36, 1.03393193760894240000e-001) (37, 4.94436125370162850000e-001) (38, -2.28585122664085520000e-002) (39, -8.77765587361390150000e-002) (40, -6.05550791378585350000e-002) (10, 2.47089692083206890000e-001) (11, 1.55705147322780510000e-001) (12, -4.52451896215826650000e-001) (13, -2.83658144009877040000e-001) (14, 5.08780154810973940000e-001) (15, -4.42063429662916290000e-001) (16, 3.60453524496982200000e-001) (17, -1.76281213750861430000e+000) (18, -8.68280548274593810000e-002) (19, 1.19111540116567850000e-001) (20, 4.54716745352512940000e-001) (21, -4.85161570511881020000e-001) (22, -3.07106512763514530000e-001) (23, 5.12759909408955220000e-001) (24, 2.69129135849850430000e-002) (25, 2.18560442282723390000e-001) (26, 3.59464603784127700000e-001) (27, 2.35997239210511000000e-001) (28, -8.86644341209190110000e-002) (29, 1.77757696738734260000e-001) (30, 8.32000097309563010000e-002) (31, 6.36335750813295520000e-001) (32, -2.83013046294089850000e-001) (33, 4.23755583680931120000e-002) (34, 8.72766480945149500000e-002) (35, 8.88002826836756910000e-001) (36, 1.71013573260357930000e+000) (37, 6.05536038005025310000e-001) (38, -1.15041585033111890000e-001) (39, 6.06734721447875440000e-001) (40, 1.92142530694690080000e-002) (10, 6.69120994961992730000e-001) (11, 8.01832788022673100000e-001) (12, 3.07347399753770070000e-001) (13, -2.67311563746198630000e-001) (14, -2.29312546125986060000e-001) (15, 1.53670352218991340000e-001) (16, 4.01266391971750010000e-001) (17, 1.02932151640154280000e+000) (18, 2.58553175893656670000e-001) (19, -1.24743898521742140000e-001) (20, -2.66321134401605260000e-001) (21, 2.81778677714087550000e-002) (22, -1.24176829734230010000e-001) (23, -4.04705865644613920000e-001) (24, 2.27331572365425010000e-002) (25, -7.44949715442156710000e-001) (26, 2.52182527981236580000e-001) (27, 4.85571556999087830000e-001) (28, -3.41854397555069880000e-002) (29, -6.46587577950044900000e-002) (30, 2.51731608713460950000e-001) (31, -1.94867861138219300000e-001) (32, -7.50041710965490690000e-002) (33, 6.47795805983149700000e-002) (34, -2.40098428457061300000e-002) (35, -3.60749714377077870000e-001) (36, -1.56779822257489430000e-001) (37, -5.89854740160732140000e-001) (38, 4.81538211598972310000e-001) (39, 1.14993398496605460000e-001) (40, 3.18688884408434400000e-001) (10, -7.79283696833816260000e-002) (11, 3.15690100353428870000e-001) (12, -4.82387465866543490000e-002) (13, -2.89369632488201190000e-001) (14, 1.27113856655947570000e-002) (15, 5.04400227694372650000e-001) (16, -2.37183004423434930000e-001) (17, 3.93775167208858520000e-001) (18, -2.72348577824301050000e-002) (19, -1.73045843089909750000e-001) (20, -8.66030234206336680000e-002) (21, -1.39137725572806740000e-001) (22, -3.07287790812218410000e-001) (23, 4.10770038450512460000e-001) (24, 7.35187945485027530000e-001) (25, 2.18546603669394880000e-001) (26, 2.12607297746949110000e-001) (27, 1.03192209982392130000e-001) (28, 6.12717079021694730000e-002) (29, -1.08331832002962920000e-001) (30, -1.90462665886017400000e-001) (31, -9.34354580349634700000e-001) (32, 3.69704136875243950000e-001) (33, 3.97647272588911420000e-001) (34, 4.62944297386102270000e-001) (35, 3.06903733078388970000e-001) (36, 5.65226962046201100000e-002) (37, 2.92660891874166000000e-001) (38, -6.33770099622508850000e-001) (39, -4.12753469854856490000e-002) (40, -7.30177237551617670000e-001) (10, -1.02155003974956830000e-001) (11, -3.79654414999710250000e-001) (12, -1.15283624967515680000e-001) (13, 4.23994797353922370000e-001) (14, 9.24661218807624200000e-001) (15, -1.39349785299070690000e-001) (16, 1.88292218152646130000e-001) (17, 9.80092994634717770000e-001) (18, 3.74060457030960250000e-001) (19, -2.40749422942803350000e-002) (20, 1.86853385244363010000e-001) (21, -3.06279307569486570000e-001) (22, -1.30840306354187420000e+000) (23, 2.74744024115327390000e-001) (24, -1.72931503955261630000e-001) (25, 1.12989291931582300000e-001) (26, 7.74150138539415940000e-001) (27, 3.30857685309540410000e-001) (28, -3.11064976031620410000e-002) (29, 4.08619505654731260000e-001) (30, -2.37207924626721050000e-001) (31, -2.57557135244117500000e-002) (32, 9.04072135085604720000e-002) (33, -1.98450713738761660000e-001) (34, 2.75776857962944770000e-001) (35, 2.43939354257208860000e-001) (36, -3.02528054060693440000e-001) (37, 3.20561232221059760000e-001) (38, -9.35362616307858770000e-001) (39, 2.93238385654733370000e-001) (40, -2.97615292073651780000e-001) (10, -1.82348752528845920000e-003) (11, -2.29919065755590790000e-001) (12, 3.87628151285628660000e-001) (13, 2.18534242371340730000e-001) (14, 4.93139947847926140000e-001) (15, 7.20582490236882590000e-001) (16, 4.91351305706003720000e-001) (17, 4.11932101157583330000e-001) (18, 3.83246336005999940000e-001) (19, 3.61707929975777940000e-001) (20, -1.61761047913853070000e-001) (21, 3.52680318913651700000e-001) (22, -1.51334021640752770000e-001) (23, -1.28215983262344540000e-001) (24, 1.35622130081930020000e-002) (25, -2.95869665958095050000e-001) (26, 1.26451436422669620000e-001) (27, -3.23360414947296890000e-001) (28, -1.45066795387800210000e-001) (29, -1.31781975148384270000e-001) (30, 4.40513448652931020000e-001) (31, -2.75920245371710120000e-002) (32, 3.30857134076717240000e-001) (33, -3.12341716010996750000e-001) (34, -6.14438148714789520000e-001) (35, 6.15176981202202770000e-001) (36, -3.69904281121553940000e-001) (37, -2.25618359804195170000e-001) (38, 3.36300923609045570000e-001) (39, -5.19164809370385120000e-001) (40, 3.63698016956927110000e-001) (10, -4.10890037817703560000e-002) (11, 3.63654564879896720000e-001) (12, 5.21037820362770690000e-001) (13, -3.76016925786417660000e-001) (14, -7.65665018314606650000e-001) (15, 1.04433532686297690000e+000) (16, -4.11600072653099040000e-002) (17, 1.39940354323638920000e+000) (18, -2.25972270461900100000e-001) (19, 2.52033244272797610000e-001) (20, 3.68360101319136100000e-001) (21, -2.71875594200097100000e-001) (22, 3.61522849208277100000e-001) (23, 1.60847464240870820000e-001) (24, -2.29810692380769230000e-002) (25, 1.35169115788776970000e-001) (26, 1.02408866483459370000e+000) (27, 7.14836367436458010000e-002) (28, 2.05717296062476710000e-001) (29, 3.92292103907216360000e-001) (30, 3.60386066795016450000e-001) (31, 6.42543214022808340000e-001) (32, -3.00386869727206870000e-002) (33, 5.01651572437369140000e-002) (34, 3.68296057271404630000e-001) (35, -1.40957167088100970000e-001) (36, 6.76318018136372270000e-001) (37, 2.43432628938158650000e-001) (38, 2.65163950292292950000e-001) (39, 3.58076754813909940000e-001) (40, -7.98053613265380380000e-002) (10, 1.41174570256648010000e-001) (11, 1.04685286677172230000e+000) (12, 3.19068616502309820000e-002) (13, -3.40659607822262680000e-001) (14, -2.15283690943208260000e-001) (15, 3.09455596900375830000e-001) (16, 1.67572816439852000000e-001) (17, 6.64930930023351800000e-001) (18, -2.93501533957004400000e-001) (19, 4.88448860972813610000e-002) (20, 2.45889300477983600000e-001) (21, -2.53209479970762930000e-001) (22, -1.52878742689462220000e-001) (23, 1.61170752410462060000e+000) (24, -9.62354500434681960000e-001) (25, 2.12130183114751350000e-001) (26, 2.81188929923892330000e-001) (27, 1.85071085271405480000e-001) (28, -1.94990623666852600000e-001) (29, -5.86139228788541630000e-001) (30, 2.19609018151378040000e-001) (31, 3.29610198399775730000e-001) (32, -9.17310181105702170000e-001) (33, -1.58754444616965530000e-001) (34, 4.72736669070761060000e-001) (35, 3.84685727447312720000e-001) (36, 3.04921650345791000000e-001) (37, -3.00641407125246730000e-001) (38, -2.30786271629958350000e-001) (39, 2.71801651353647920000e-001) (40, -6.80036177438848030000e-001) (10, 1.22057915674506840000e-001) (11, 5.12738429571841350000e-001) (12, -1.88438835405412810000e-002) (13, -3.67193988682276540000e-001) (14, -2.37870346292331450000e-001) (15, 1.23073193451572500000e-001) (16, 2.20505242324972930000e-001) (17, 8.24059653316428940000e-001) (18, 1.02272770520024550000e-001) (19, 2.66313541218682670000e-001) (20, 1.75940992820913630000e-001) (21, -4.62895502156602860000e-001) (22, 5.24690186492036690000e-001) (23, 3.93476828053517690000e-001) (24, 1.22880289164486590000e+000) (25, 2.01605439111004900000e-001) (26, 5.92160823897316500000e-001) (27, 6.83866772181207060000e-001) (28, 4.64058587069610780000e-001) (29, 3.98771888726116690000e-001) (30, -8.03259940496296340000e-001) (31, 4.18349908197414020000e-001) (32, -1.56908416631219460000e-001) (33, 3.60965985840891180000e-001) (34, -7.03574178058983590000e-001) (35, -4.25329213031244270000e-001) (36, 8.57547152919033610000e-001) (37, 1.48688222011457510000e-001) (38, 3.76899831702532880000e-001) (39, 2.49436878888207920000e-001) (40, 6.04289820267092240000e-002) (10, 3.07083064521407930000e-001) (11, 8.78752023820807530000e-001) (12, 3.18108908236597600000e-001) (13, -2.98431909936868410000e-001) (14, -4.62637519320297450000e-001) (15, -1.63616406723944490000e-002) (16, 5.83994283622288330000e-001) (17, 1.38000996640155550000e+000) (18, 5.53974362614723330000e-001) (19, -2.83569606975810910000e-001) (20, -1.43701343575398290000e-001) (21, 3.06707276165049450000e-001) (22, 4.12725998143628980000e-001) (23, 4.18087183267190960000e-001) (24, 5.17692109249935360000e-001) (25, -1.01658017235474060000e-001) (26, -2.68258531433933800000e-001) (27, -5.31514893642344940000e-001) (28, -8.84628349127170590000e-002) (29, -5.07649469449715670000e-001) (30, 3.60835210666796270000e-002) (31, 1.41910833660163720000e-001) (32, 1.49335052494607350000e+000) (33, 1.04151476897668420000e-001) (34, -3.69826209190713740000e-001) (35, -6.74305507570581720000e-001) (36, 3.15114907522675620000e-001) (37, 1.34076580944790770000e-001) (38, 9.97542918391819970000e-002) (39, 2.37994156409650880000e-001) (40, 3.73996509102364650000e-001) (10, -2.71186997122268680000e-001) (11, -2.69352551094680590000e-001) (12, 1.25693234918773290000e-001) (13, 1.59980588650419950000e-001) (14, 4.66132876698884870000e-001) (15, 3.42284960682015250000e-001) (16, -3.51526764076656730000e-001) (17, -3.53065172398629610000e-001) (18, 2.95071855931530960000e-001) (19, 4.72684051976861860000e-001) (20, -1.53640344785989450000e-001) (21, 4.13184063084811480000e-001) (22, -1.73266791648955000000e-001) (23, 8.16398379348862500000e-001) (24, 4.21287844461942120000e-001) (25, -4.81642469355697770000e-001) (26, 1.07584039359514910000e-001) (27, -3.35853813635287100000e-001) (28, 4.61499482959560450000e-001) (29, 6.76074112958555460000e-001) (30, 2.97599563992606670000e-001) (31, 6.48145731690660030000e-001) (32, 9.99096155838608890000e-001) (33, -6.61345344538343820000e-002) (34, -8.47440486319102870000e-003) (35, -9.35501986689060840000e-002) (36, 4.52682327507211050000e-001) (37, 7.42365251815724210000e-001) (38, -5.79408016612294190000e-003) (39, 3.00183437426379710000e-001) (40, -3.51564049944648400000e-001) (10, 5.81396490777051800000e-001) (11, -1.89883687951015530000e-002) (12, 1.39728402205399500000e-001) (13, -2.71467252394199630000e-002) (14, 8.14129794103285010000e-001) (15, 6.22402087224313490000e-002) (16, -2.52137983525927370000e-001) (17, -3.44126680929661650000e+000) (18, -1.48194076446096780000e-002) (19, 1.95242192414995310000e-002) (20, -1.62240135908831050000e-002) (21, 3.91621594989110760000e-001) (22, 7.97313718182928730000e-002) (23, 4.59659659747337470000e-001) (24, -4.57489111897010750000e-001) (25, 9.82759919853391440000e-003) (26, 8.94540055423350720000e-003) (27, 1.11537779666278050000e+000) (28, 6.92690380871114340000e-001) (29, 3.34731708229090650000e-001) (30, 7.97249096118102910000e-001) (31, -1.24862729076447550000e-001) (32, -9.52104299054697960000e-001) (33, 3.79770070776468400000e-001) (34, 3.25150078391086780000e-001) (35, 3.16068975617325550000e-001) (36, 1.62678759619627990000e-001) (37, 1.31001399394383600000e-001) (38, -4.28177964058288450000e-001) (39, -1.86233770368483150000e-001) (40, -1.06203674455431840000e-001) (10, -2.73226999243799620000e-001) (11, -4.01111733648898570000e-001) (12, 2.41192754699443790000e-001) (13, -2.51127986850270320000e-001) (14, -8.67468736097753990000e-002) (15, -3.34626517186287640000e-002) (16, -9.43687711681070320000e-002) (17, 2.14052849135364930000e-001) (18, 3.99127829729671150000e-001) (19, 3.95696501350079550000e-001) (20, -4.12779022045071390000e-001) (21, -1.74080594293105600000e-001) (22, -9.46051318134566170000e-002) (23, -4.07408732715154380000e-001) (24, 2.38264476827033860000e-001) (25, -6.66481507022926720000e-002) (26, 2.20574044254396270000e-002) (27, -3.03507416730432740000e-001) (28, -1.40008754748348840000e-001) (29, -2.47837401210032890000e-001) (30, 3.42553737222094260000e-001) (31, 9.21252574872273440000e-002) (32, -4.63213641974848660000e-002) (33, -3.89445946800233090000e-001) (34, -1.15856588026002500000e-001) (35, -4.18939795187241450000e-001) (36, -1.17460059413797570000e-001) (37, -3.93606184718307490000e-001) (38, 1.00985399386303600000e-001) (39, -2.28628043649714630000e-002) (40, 3.74694287114982260000e-001) (10, 8.29991513531996630000e-001) (11, 3.46366441660743540000e-001) (12, 5.17364542212881140000e-002) (13, 4.65810086149311910000e-001) (14, 7.82874944494507010000e-001) (15, -1.02638114709841730000e-001) (16, -3.53154073514356130000e-001) (17, 6.66969536717462590000e-002) (18, -6.07611310122688970000e-002) (19, 2.63996679679703190000e-001) (20, 4.18208691658756460000e-001) (21, 7.80068567195223160000e-002) (22, -1.16119099435578600000e-001) (23, 4.53464163590988010000e-001) (24, 2.01088934741910360000e-001) (25, 2.72280235880912550000e-001) (26, 4.36226024131401990000e-001) (27, 4.77391383437576310000e-001) (28, 6.37988144381128500000e-001) (29, 9.62084390663081600000e-002) (30, -2.61832658961478890000e-001) (31, 5.50006896794079440000e-001) (32, -8.57673048125808800000e-002) (33, -1.89465494983205860000e-001) (34, 3.07186808401177180000e-001) (35, 4.76941017697011640000e-001) (36, -5.10330382294065040000e-002) (37, 4.06281914012740660000e-001) (38, 7.26261638470914080000e-003) (39, 4.19412413597827330000e-001) (40, -1.40723185245322900000e-001) (10, 1.13279275127525790000e-001) (11, 6.46010238093857380000e-001) (12, 1.36976535880935530000e-001) (13, 1.80093670715741920000e-001) (14, -2.09697204726534890000e-001) (15, -5.18099951311405740000e-001) (16, 4.76608843956971560000e-001) (17, 7.40181470902522180000e-001) (18, 4.79428254037870590000e-001) (19, -1.72290602823184400000e-001) (20, -6.87413237187391330000e-001) (21, 3.26086650827715430000e-001) (22, 1.49170524037580880000e-001) (23, 2.40746741177992110000e-001) (24, 3.05240319281596010000e-001) (25, 2.15730504777284670000e-001) (26, 1.14319511329192740000e-001) (27, -3.50941998217772330000e-001) (28, 1.97172886975043590000e-002) (29, 9.97231105068767390000e-002) (30, 1.29734685295305960000e-001) (31, -1.69585750417203780000e-001) (32, 3.13302146087872100000e-001) (33, 2.77497978808775580000e-001) (34, 1.19258517157459260000e-001) (35, -3.46574499767412500000e-002) (36, -1.61703669713968410000e-001) (37, 5.73116611695640430000e-001) (38, 1.50615958303135840000e-001) (39, 1.64868489825609200000e-001) (40, -3.14719662073220870000e-002) (41, 2.84826804946407340000e-002) (42, 8.09057632306736110000e-001) (43, 5.80447114383238900000e-002) (44, -7.12005352976818450000e-003) (45, 4.37610675549369860000e-002) (46, 8.31308585724586930000e-002) (47, -4.45117241296105030000e-001) (48, -4.05995212984045280000e-001) (49, 2.30478402678884960000e-002) (50, -2.83859015594991470000e-004) (51, 1.48639465195396210000e-002) (52, 1.91030789914033230000e-002) (53, 7.70028388585225710000e-001) (54, -4.62728401229114130000e-002) (55, 2.63958300828113470000e-002) (56, -6.64724945998498990000e-002) (57, 8.34940595753592000000e-002) (58, 4.81584680330432560000e-001) (59, 2.77697893944932270000e-001) (60, 2.75554496381797030000e-002) (61, 3.42687288884322500000e-002) (41, 9.34841353159619890000e-002) (42, -1.47439475841836980000e-001) (43, 9.91199801934527280000e-001) (44, -6.72900481500585640000e-003) (45, -5.86291744873675520000e-001) (46, 2.14302305335822230000e-001) (47, 5.55204548603563610000e-001) (48, 5.46861318786889930000e-001) (49, 7.22844185667015140000e-001) (50, -1.33812579108504660000e-001) (51, 1.41564004077497580000e-001) (52, 1.21725365345559010000e-001) (53, 1.31866951563924690000e-001) (54, -8.29109569022838670000e-002) (55, 6.23982215434543570000e-001) (56, 1.11057352278304420000e-001) (57, -2.51182725140972760000e-002) (58, 4.48439764488639260000e-001) (59, 2.33908763679035350000e-001) (60, 5.09835252108653210000e-001) (61, -3.14570742152949890000e-001) (41, 1.85582993793504460000e-001) (42, 2.07438013068808940000e-001) (43, 8.21439400833890890000e-001) (44, 3.64754872598131440000e-002) (45, -2.93301673711323870000e-001) (46, 1.95038754311986200000e-001) (47, 7.42009284320216620000e-001) (48, 1.02150637088899460000e-001) (49, 1.62711425534255740000e-001) (50, 6.92697613915149280000e-001) (51, 1.09852531369073890000e-001) (52, -8.79326127259212470000e-002) (53, -1.81036750993216480000e-002) (54, -9.37005181681440920000e-002) (55, 9.81588021380127680000e-001) (56, 3.71512537764621260000e-002) (57, -3.30288685582403460000e-002) (58, 4.62168964976066960000e-001) (59, 4.19055955063992120000e-001) (60, -6.72068235204198340000e-001) (61, -5.99762317228718980000e-001) (41, 2.00207313427089580000e-001) (42, -1.75580584499732910000e-001) (43, 2.67501769283931320000e-001) (44, -1.38330325652433210000e-002) (45, 6.62506600025018710000e-001) (46, -3.95513700844599250000e-001) (47, 1.11370665287580080000e-001) (48, 5.77536876794048500000e-002) (49, 1.47756099993069950000e-002) (50, 1.62680531846007660000e-002) (51, 3.08337106424700250000e-001) (52, 1.71324477215976930000e-001) (53, 1.65346195132361430000e-001) (54, 5.44640827183484500000e-001) (55, 1.79494433847995210000e-001) (56, 1.56193330033336740000e-001) (57, -2.91357976643861140000e-002) (58, 9.97701850953605780000e-002) (59, -1.02779507022392440000e-001) (60, -2.95309101671476610000e-001) (61, 3.38011548942435120000e-001) (41, -1.95117814277599280000e-001) (42, 8.81653810177920740000e-002) (43, -1.61191788402226090000e-001) (44, -1.47928730387925230000e-002) (45, 1.44966284771883250000e-001) (46, 3.79428499757040130000e-001) (47, -4.06274373974913480000e-002) (48, 2.10508604035190200000e-001) (49, -5.32357390611434280000e-001) (50, 1.54301086949291610000e+000) (51, 1.04019400709932030000e+000) (52, 4.51134314325645940000e-001) (53, -1.76835694365151570000e-002) (54, -1.98171143631878650000e-001) (55, -6.22356455269251690000e-002) (56, 6.79702782530407500000e-001) (57, -3.02243348126113900000e-002) (58, 1.88675954468033090000e-001) (59, -2.76081412799706470000e-002) (60, 9.79260949431473240000e-001) (61, 2.81647769792942090000e-001) (41, 5.56080118446775630000e-001) (42, -1.11945804033542570000e-001) (43, -4.77064683651150580000e-002) (44, 4.73590441007671110000e-001) (45, -7.97476400388007630000e-002) (46, 9.54687088211639700000e-002) (47, -1.12853628416595340000e-001) (48, 3.25426727627297350000e-001) (49, 1.12753422960560210000e-001) (50, 1.24504031147819160000e-001) (51, 2.34050051108674500000e-001) (52, 3.61156925163425640000e-002) (53, 5.60657146606884960000e-003) (54, 5.20269585885543770000e-002) (55, -7.85394173870437170000e-002) (56, -1.79676360193479990000e-001) (57, 4.64325907982988890000e-001) (58, 3.34800441777389050000e-001) (59, 4.99943698311485880000e-001) (60, -1.18083740767540830000e-001) (61, -1.76877029487232080000e-001) 
